~o
<STREAMINFO> 1 39
<VECSIZE> 39<NULLD><MFCC_D_A_Z_0><DIAGC>
~s "silst"
<MEAN> 39
 -2.668155e+00 -1.707302e+00 -5.035685e+00 8.344721e+00 4.091287e+00 4.685422e+00 4.775128e-01 4.530442e-01 1.739258e+00 1.258308e+00 3.748271e+00 1.090355e+00 -9.973508e+00 -3.486460e-02 2.198673e-02 -3.375483e-02 2.567683e-02 2.246007e-03 2.600974e-02 1.615640e-04 -5.509279e-02 1.531567e-02 -7.916704e-03 -6.078433e-02 -1.238601e-02 -4.353342e-02 1.064522e-02 8.017436e-03 1.846905e-02 -2.246383e-04 1.006810e-02 5.830105e-03 8.040003e-03 9.244825e-03 1.004223e-02 -5.225056e-03 -6.081760e-03 5.708638e-03 7.837630e-03
<VARIANCE> 39
 1.105664e+01 4.794588e+01 2.507981e+01 3.686855e+01 3.017615e+01 3.127676e+01 6.578058e+01 3.517328e+01 3.514304e+01 3.550367e+01 3.286057e+01 1.973807e+01 3.115581e+01 1.197812e-01 1.702755e-01 2.372310e-01 2.707931e-01 3.699373e-01 4.654152e-01 4.751312e-01 4.624996e-01 4.079600e-01 4.819637e-01 3.827785e-01 3.383894e-01 1.163239e-01 1.168111e-02 2.055830e-02 2.910961e-02 3.487150e-02 4.798713e-02 5.580094e-02 6.189380e-02 5.649501e-02 5.159282e-02 5.960385e-02 4.972633e-02 4.368621e-02 7.799135e-03
<GCONST> 5.710953e+01
~h "a"
<BEGINHMM>
<NUMSTATES> 5
<STATE> 2
<MEAN> 39
 3.802143e+00 -5.247282e+00 -2.836050e+00 -1.807082e+00 -1.960899e+00 -2.370871e+00 2.951552e-01 5.342479e+00 2.963714e+00 -4.546917e-01 -3.240286e+00 -7.636245e-01 9.366339e+00 2.908487e-01 -8.078482e-01 -4.154380e-01 -3.785790e-01 -1.619064e-01 4.766383e-02 -7.484724e-02 6.899899e-01 3.237315e-01 -2.609973e-01 -7.336031e-01 -1.413906e-02 1.088859e+00 -5.141866e-02 1.950268e-01 1.170452e-01 1.566828e-01 9.059382e-02 8.751081e-02 3.109880e-03 -2.172845e-01 -1.459271e-01 -1.221390e-03 1.042987e-01 2.567538e-03 -2.854407e-01
<VARIANCE> 39
 3.364314e+01 4.744460e+01 5.706698e+01 4.831973e+01 7.007314e+01 6.575769e+01 6.953669e+01 5.960912e+01 9.293626e+01 5.873407e+01 5.247542e+01 3.312250e+01 8.397733e+01 1.136437e+00 1.505053e+00 1.867793e+00 1.686319e+00 2.110024e+00 1.977419e+00 1.975341e+00 1.732762e+00 2.045053e+00 1.663296e+00 1.368927e+00 1.063720e+00 2.387213e+00 1.138991e-01 1.597411e-01 1.686160e-01 1.685379e-01 2.247195e-01 2.210720e-01 2.437071e-01 2.275701e-01 2.324513e-01 2.092802e-01 1.865330e-01 1.230965e-01 2.709595e-01
<GCONST> 1.094845e+02
<STATE> 3
<MEAN> 39
 3.510229e+00 -6.678465e+00 -2.913986e+00 -3.309951e+00 -3.095764e+00 -2.725509e+00 5.226880e-01 6.625545e+00 2.942826e+00 -1.634609e+00 -5.268361e+00 -4.592850e-01 1.252279e+01 6.912920e-02 3.111486e-01 2.359640e-01 4.269956e-01 1.711085e-01 1.468935e-01 1.525473e-03 -3.645657e-01 -3.009680e-01 -1.110634e-01 1.637300e-01 1.846574e-02 -5.132595e-01 -3.301981e-02 2.645774e-01 1.503729e-01 2.276416e-01 8.209161e-02 2.434823e-02 -9.040809e-03 -2.775130e-01 -9.892141e-02 6.951931e-02 2.249124e-01 -5.966794e-03 -3.624205e-01
<VARIANCE> 39
 2.300558e+01 2.957144e+01 4.610106e+01 3.601862e+01 5.380109e+01 5.321765e+01 6.681834e+01 4.982465e+01 8.668138e+01 5.617661e+01 3.793878e+01 2.984240e+01 4.786385e+01 5.725994e-01 7.746822e-01 1.078774e+00 1.043289e+00 1.464480e+00 1.421491e+00 1.537433e+00 1.126038e+00 1.178999e+00 1.082948e+00 1.022945e+00 7.566410e-01 7.087753e-01 9.411928e-02 9.466145e-02 1.042223e-01 1.287817e-01 1.773477e-01 1.659914e-01 2.013922e-01 1.702054e-01 1.805112e-01 1.619658e-01 1.153145e-01 1.021687e-01 7.088457e-02
<GCONST> 9.475663e+01
<STATE> 4
<MEAN> 39
 4.052425e+00 -4.086702e+00 -3.507301e+00 6.322339e-01 1.022110e+00 3.162095e-01 8.285340e-01 2.380631e+00 3.588676e-01 -2.371138e+00 -2.603957e+00 -1.491995e+00 4.584915e+00 -6.858335e-02 5.106024e-01 2.766241e-01 5.021732e-01 1.660482e-01 1.005554e-01 1.576490e-01 -4.289704e-01 -3.144781e-01 -2.823528e-02 3.474075e-01 2.893648e-02 -9.683235e-01 -4.022385e-02 9.284789e-03 9.492667e-04 -5.005308e-02 -2.598597e-02 -1.685402e-02 2.795092e-03 2.436250e-02 2.516042e-02 3.375566e-02 1.337943e-02 7.582200e-03 2.086139e-02
<VARIANCE> 39
 2.179900e+01 3.386135e+01 4.972261e+01 4.889034e+01 5.603182e+01 4.908812e+01 5.048081e+01 3.968232e+01 5.635158e+01 5.030813e+01 3.350718e+01 3.023254e+01 6.526613e+01 7.326886e-01 6.833202e-01 8.241886e-01 9.060085e-01 8.835335e-01 1.089506e+00 1.147169e+00 9.747394e-01 1.266631e+00 9.307914e-01 7.079868e-01 6.421754e-01 7.155577e-01 4.838669e-02 6.320449e-02 7.284447e-02 8.391301e-02 9.003412e-02 9.772064e-02 1.089949e-01 1.005477e-01 1.090655e-01 9.220022e-02 8.189316e-02 6.755571e-02 5.762871e-02
<GCONST> 8.599520e+01
<TRANSP> 5
 0.000000e+00 1.000000e+00 0.000000e+00 0.000000e+00 0.000000e+00
 0.000000e+00 5.971633e-01 4.028367e-01 0.000000e+00 0.000000e+00
 0.000000e+00 0.000000e+00 5.950780e-01 4.049220e-01 0.000000e+00
 0.000000e+00 0.000000e+00 0.000000e+00 7.306195e-01 2.693805e-01
 0.000000e+00 0.000000e+00 0.000000e+00 0.000000e+00 0.000000e+00
<ENDHMM>
~h "b"
<BEGINHMM>
<NUMSTATES> 5
<STATE> 2
<MEAN> 39
 5.569744e+00 5.767473e-01 -4.601461e-01 2.399379e+00 -8.984956e-02 -1.173734e+00 -1.245753e+00 -1.145811e+00 -9.300394e-01 4.256408e-01 -1.514231e+00 -1.892903e+00 2.180693e+00 1.286450e-01 5.808754e-01 -1.082833e-01 -2.202459e-01 -1.542453e-03 2.197521e-01 -1.044393e-01 -1.754299e-01 -2.256170e-01 5.547169e-02 9.816864e-02 8.246730e-02 -5.473748e-03 -5.728589e-02 -4.276953e-02 -5.753048e-02 -2.087054e-01 -5.461599e-02 1.412736e-02 -1.495920e-02 5.463589e-02 6.599235e-02 2.948674e-02 -8.438826e-03 2.901393e-02 1.673174e-01
<VARIANCE> 39
 2.615311e+01 4.315998e+01 5.092098e+01 8.514621e+01 5.795585e+01 6.998837e+01 5.738898e+01 6.594160e+01 6.517498e+01 7.314165e+01 7.216128e+01 4.873640e+01 4.916468e+01 8.040158e-01 1.320203e+00 1.618839e+00 3.439675e+00 1.696135e+00 2.325977e+00 2.048336e+00 1.105101e+00 1.619557e+00 1.516318e+00 2.068166e+00 1.803814e+00 1.729060e+00 7.922948e-02 1.584390e-01 1.644237e-01 3.846553e-01 2.077841e-01 3.483809e-01 2.438895e-01 1.861597e-01 2.217145e-01 2.346855e-01 2.340995e-01 2.085248e-01 2.387175e-01
<GCONST> 1.106217e+02
<STATE> 3
<MEAN> 39
 5.596110e+00 4.331710e+00 -3.217213e-01 1.700288e+00 3.253937e-02 -1.483921e-01 -1.767247e+00 -1.707483e+00 -2.095495e+00 -1.317046e+00 -1.653475e+00 -2.435438e+00 1.210717e+00 1.374765e-01 -1.362713e-01 -2.440774e-01 -5.419217e-02 3.662424e-01 1.292867e-01 1.000941e-01 1.394039e-01 4.170186e-01 2.036052e-01 2.090966e-02 -1.687728e-01 1.093986e-01 -2.179641e-02 -3.516040e-01 -1.410402e-01 -2.492290e-01 -1.079804e-01 -1.083210e-01 -3.480211e-02 1.225027e-01 1.777880e-01 1.371506e-01 -7.029288e-02 6.481588e-02 3.437417e-01
<VARIANCE> 39
 2.507518e+01 3.098201e+01 5.093800e+01 8.892593e+01 5.438585e+01 4.864410e+01 4.644328e+01 5.001228e+01 5.425691e+01 4.509098e+01 4.235330e+01 3.633884e+01 6.474823e+01 6.841296e-01 1.544763e+00 1.671569e+00 2.010554e+00 1.080667e+00 1.279512e+00 1.190871e+00 1.045734e+00 1.635099e+00 1.343317e+00 9.549128e-01 1.060868e+00 1.577894e+00 9.520193e-02 1.726647e-01 2.268807e-01 3.188543e-01 2.186252e-01 1.690151e-01 1.933016e-01 1.799789e-01 1.590908e-01 1.517944e-01 1.676953e-01 1.417074e-01 2.223661e-01
<GCONST> 1.024030e+02
<STATE> 4
<MEAN> 39
 3.727255e+00 1.641639e+00 -5.186760e-01 2.777980e+00 2.836758e+00 6.201468e-01 1.693465e-01 -2.165651e+00 -8.079890e-01 -1.413122e-01 2.834502e-02 -1.045213e+00 -1.109444e+00 1.065960e-02 -4.811049e-01 -3.179018e-01 -3.512430e-01 -1.311821e-01 -1.907288e-01 -9.437860e-02 3.460371e-01 2.028472e-01 1.830524e-01 8.184439e-02 1.024457e-01 3.959730e-01 5.532900e-03 -1.092816e-01 -5.250726e-03 -1.336375e-01 -1.603580e-01 -5.733687e-02 -6.285144e-02 5.269045e-02 2.348110e-02 2.795668e-02 -5.050671e-02 1.717556e-02 2.027444e-01
<VARIANCE> 39
 2.887435e+01 2.427294e+01 4.570260e+01 3.825602e+01 2.874117e+01 2.660200e+01 3.304595e+01 3.370048e+01 4.044029e+01 3.571411e+01 2.757114e+01 2.189391e+01 3.499171e+01 5.050824e-01 1.221507e+00 1.454682e+00 1.336244e+00 1.092847e+00 9.919809e-01 1.073967e+00 1.102677e+00 1.263991e+00 1.320136e+00 9.371715e-01 6.552176e-01 1.441136e+00 5.571030e-02 8.246648e-02 1.073134e-01 1.021058e-01 9.313866e-02 8.085515e-02 9.515291e-02 9.877121e-02 8.693945e-02 9.620027e-02 1.049651e-01 6.506088e-02 6.970488e-02
<GCONST> 8.551889e+01
<TRANSP> 5
 0.000000e+00 1.000000e+00 0.000000e+00 0.000000e+00 0.000000e+00
 0.000000e+00 6.286812e-01 3.713188e-01 0.000000e+00 0.000000e+00
 0.000000e+00 0.000000e+00 4.548150e-01 5.451850e-01 0.000000e+00
 0.000000e+00 0.000000e+00 0.000000e+00 6.965007e-01 3.034993e-01
 0.000000e+00 0.000000e+00 0.000000e+00 0.000000e+00 0.000000e+00
<ENDHMM>
~h "c"
<BEGINHMM>
<NUMSTATES> 5
<STATE> 2
<MEAN> 39
 -4.654014e-01 1.399749e+00 -5.892007e-01 4.948881e-01 3.490921e+00 1.063993e+00 -3.514807e+00 5.753195e-02 8.668053e-01 1.524992e+00 2.368004e+00 5.137033e-01 -1.033916e+01 -1.028355e+00 -2.949617e-02 2.065533e-01 -2.263410e-01 -2.220882e-01 1.262839e-01 9.303941e-02 2.714647e-01 -7.360708e-02 -1.575909e-01 1.937867e-01 -1.487662e-01 1.125069e+00 -1.552042e-01 6.791019e-02 9.213673e-02 -8.728909e-02 -7.064619e-02 -5.717798e-02 6.864812e-02 -1.647764e-02 -3.685619e-02 3.828744e-02 7.259483e-04 -4.367131e-02 1.908327e-01
<VARIANCE> 39
 1.217336e+02 4.547448e+01 4.618883e+01 5.414725e+01 5.059471e+01 5.340628e+01 6.878158e+01 5.507657e+01 3.232570e+01 4.025425e+01 3.465349e+01 2.253365e+01 4.497264e+02 5.294023e+00 1.497533e+00 1.547106e+00 2.321242e+00 1.970663e+00 1.831563e+00 2.042786e+00 1.481186e+00 1.255526e+00 1.343773e+00 1.144345e+00 5.803247e-01 1.045700e+01 5.148827e-01 1.626135e-01 2.017647e-01 2.836108e-01 2.086350e-01 2.120574e-01 2.216757e-01 1.327513e-01 1.426098e-01 1.773771e-01 1.164637e-01 7.490054e-02 8.540908e-01
<GCONST> 1.118412e+02
<STATE> 3
<MEAN> 39
 -1.537446e+01 2.477832e+00 6.243620e+00 -2.671847e+00 5.651474e-02 -3.292880e-01 2.579522e+00 1.495415e+00 -2.872570e+00 1.966051e+00 5.297397e+00 -3.094712e+00 8.223494e+00 -2.291855e-02 8.945797e-02 1.037888e+00 -2.519320e-01 -1.183797e+00 -6.047904e-01 5.178287e-01 -1.307151e-01 -4.670326e-01 8.332239e-02 5.457562e-02 -4.384025e-01 1.044290e+00 8.439539e-01 -1.522498e-02 -1.324261e-01 9.180298e-02 -1.163227e-01 -8.145168e-02 -1.908230e-01 -1.885380e-01 5.997749e-02 -1.122658e-02 -1.700898e-01 1.310918e-01 -2.542435e-01
<VARIANCE> 39
 7.602171e+01 3.746417e+01 3.880468e+01 2.463954e+01 3.944651e+01 3.042242e+01 5.545251e+01 3.776711e+01 4.512561e+01 5.658910e+01 5.051981e+01 3.289043e+01 3.524135e+01 5.588648e+00 1.129877e+00 1.442849e+00 1.035751e+00 1.050654e+00 9.570518e-01 1.621264e+00 1.588110e+00 1.508674e+00 8.593234e-01 1.423965e+00 9.313830e-01 1.043905e+00 3.914146e-01 1.348159e-01 1.650202e-01 9.068567e-02 1.511614e-01 1.076542e-01 1.635317e-01 1.282648e-01 1.620608e-01 1.412946e-01 1.559861e-01 1.208714e-01 8.256605e-02
<GCONST> 9.846704e+01
<STATE> 4
<MEAN> 39
 -1.319625e+00 3.364333e+00 5.526967e+00 -2.772468e+00 -1.001377e+01 -6.628151e-01 -2.660629e+00 -1.577486e-01 3.351896e+00 -1.780353e+00 2.817722e+00 -6.210910e-01 1.113362e+01 7.878577e-01 3.042197e-01 -1.641050e-02 5.033113e-02 -3.180025e-01 -1.495401e-01 -2.328344e-01 -3.591291e-01 -8.025698e-02 1.515803e-01 -5.673075e-02 -3.767899e-02 9.931423e-02 -9.144008e-02 3.917699e-02 -9.264328e-02 -5.608812e-03 2.038274e-01 1.331577e-01 -1.141118e-03 -5.611069e-02 -6.501877e-02 4.394454e-02 5.605447e-02 1.811282e-02 -1.511402e-01
<VARIANCE> 39
 1.256919e+02 1.185219e+02 1.137474e+02 6.654327e+01 4.701620e+01 6.605299e+01 7.190110e+01 1.165282e+02 6.971770e+01 3.879105e+01 4.770697e+01 2.774604e+01 5.327533e+01 4.394120e+00 2.608099e+00 1.297688e+00 1.775560e+00 1.807075e+00 1.839559e+00 1.518651e+00 2.172324e+00 1.480561e+00 1.464960e+00 1.236485e+00 7.882717e-01 1.486923e+00 2.505282e-01 2.041180e-01 1.160323e-01 2.180983e-01 1.981506e-01 2.565529e-01 1.151590e-01 3.156643e-01 1.903552e-01 1.702034e-01 1.239460e-01 8.851554e-02 1.426033e-01
<GCONST> 1.103390e+02
<TRANSP> 5
 0.000000e+00 1.000000e+00 0.000000e+00 0.000000e+00 0.000000e+00
 0.000000e+00 8.752167e-01 1.247834e-01 0.000000e+00 0.000000e+00
 0.000000e+00 0.000000e+00 7.746392e-01 2.253607e-01 0.000000e+00
 0.000000e+00 0.000000e+00 0.000000e+00 7.401301e-01 2.598698e-01
 0.000000e+00 0.000000e+00 0.000000e+00 0.000000e+00 0.000000e+00
<ENDHMM>
~h "d"
<BEGINHMM>
<NUMSTATES> 5
<STATE> 2
<MEAN> 39
 5.590858e+00 4.686664e+00 3.081996e+00 4.688316e+00 5.353311e-01 -1.508159e+00 1.675585e+00 -1.756731e+00 -1.780243e+00 -1.226876e+00 -1.754377e+00 -1.590394e+00 -4.312111e-01 -5.968542e-01 -3.229303e-01 -4.331979e-02 -1.190822e-01 2.453207e-01 -1.842787e-01 1.965641e-01 4.389048e-01 1.085527e-01 6.191671e-02 4.625418e-01 -1.045004e-01 1.726278e-01 -1.655410e-01 -2.562536e-01 -4.223120e-02 -3.785838e-01 -2.984274e-01 -1.985765e-01 -1.527252e-01 9.861508e-02 1.492163e-01 1.210715e-01 3.283364e-03 1.205016e-01 5.199162e-01
<VARIANCE> 39
 2.776871e+01 4.430928e+01 4.624184e+01 3.369364e+01 4.956313e+01 4.779753e+01 5.388947e+01 5.201392e+01 4.735391e+01 4.065456e+01 3.719325e+01 2.660432e+01 3.384214e+01 7.804401e-01 1.280530e+00 1.178253e+00 1.164933e+00 1.294547e+00 1.452865e+00 1.339715e+00 1.438441e+00 1.364775e+00 1.212257e+00 1.042994e+00 8.658906e-01 1.177959e+00 1.208167e-01 1.479569e-01 1.496230e-01 1.486933e-01 1.843699e-01 2.800207e-01 2.319993e-01 2.120803e-01 1.905748e-01 1.670331e-01 1.471111e-01 1.165538e-01 9.862673e-02
<GCONST> 9.836800e+01
<STATE> 3
<MEAN> 39
 -1.251161e+00 -1.752769e-01 3.382851e+00 8.409401e-01 1.233644e+00 -5.464425e+00 1.579664e+00 1.011392e+00 -5.135646e-01 -1.129535e+00 1.463827e+00 -6.779697e-01 5.327470e+00 -3.038675e-01 -7.211205e-01 -2.851171e-01 -9.184531e-01 -7.539148e-01 -1.080510e+00 -7.951816e-01 4.699893e-01 5.264834e-01 4.047876e-01 1.014998e-01 3.666426e-01 1.451803e+00 2.728426e-01 1.125557e-01 -8.425216e-02 -1.162051e-01 -1.938404e-01 1.148687e-01 -2.440782e-01 -1.291842e-01 4.391817e-02 1.209314e-01 -1.727879e-01 4.251955e-02 7.751609e-02
<VARIANCE> 39
 3.173426e+01 3.967670e+01 3.569936e+01 3.270729e+01 4.679268e+01 6.772057e+01 5.777965e+01 3.851816e+01 4.641750e+01 4.014900e+01 3.870001e+01 3.037109e+01 5.852108e+01 9.790213e-01 1.180360e+00 1.630573e+00 1.184663e+00 1.868155e+00 2.327517e+00 2.549622e+00 2.163285e+00 1.804933e+00 1.515876e+00 1.421897e+00 9.655008e-01 1.039796e+00 1.030116e-01 1.617479e-01 1.509755e-01 1.426333e-01 1.574434e-01 2.337413e-01 1.647667e-01 1.698784e-01 1.394523e-01 1.592313e-01 1.552966e-01 1.248210e-01 1.716804e-01
<GCONST> 1.013350e+02
<STATE> 4
<MEAN> 39
 2.001216e+00 -6.818115e-01 1.988520e+00 -1.516597e+00 -4.788138e+00 -7.930601e+00 -3.438625e+00 1.239446e+00 1.416168e+00 1.406651e+00 -4.502055e-01 1.024814e+00 9.285488e+00 1.786601e-01 -1.815260e-01 -3.922925e-01 -8.659759e-01 -7.155370e-01 -3.890112e-03 -8.254234e-01 5.764436e-02 4.054741e-01 4.981804e-01 -1.547833e-01 1.512502e-01 8.699121e-01 9.571085e-02 1.305943e-01 -7.700965e-03 5.663867e-02 1.570817e-01 3.454729e-01 1.155608e-01 -1.332208e-01 -1.432157e-01 -9.302958e-02 -7.310663e-02 -7.379066e-02 -2.116182e-01
<VARIANCE> 39
 1.425548e+01 2.023801e+01 2.657490e+01 2.521302e+01 4.890060e+01 4.366589e+01 8.057501e+01 4.260364e+01 4.847260e+01 3.782515e+01 3.337940e+01 2.655828e+01 3.877370e+01 1.060675e+00 1.269539e+00 1.716062e+00 1.086073e+00 1.707554e+00 1.426782e+00 1.847725e+00 2.104112e+00 1.628190e+00 1.459983e+00 1.157857e+00 9.040725e-01 9.940775e-01 6.214682e-02 8.886620e-02 8.561628e-02 1.015781e-01 1.490933e-01 1.394880e-01 1.981271e-01 1.255711e-01 1.469388e-01 1.201299e-01 1.328095e-01 1.117433e-01 8.181837e-02
<GCONST> 9.342896e+01
<TRANSP> 5
 0.000000e+00 1.000000e+00 0.000000e+00 0.000000e+00 0.000000e+00
 0.000000e+00 6.808239e-01 3.191760e-01 0.000000e+00 0.000000e+00
 0.000000e+00 0.000000e+00 5.151349e-01 4.848650e-01 0.000000e+00
 0.000000e+00 0.000000e+00 0.000000e+00 5.345385e-01 4.654615e-01
 0.000000e+00 0.000000e+00 0.000000e+00 0.000000e+00 0.000000e+00
<ENDHMM>
~h "e"
<BEGINHMM>
<NUMSTATES> 5
<STATE> 2
<MEAN> 39
 1.910040e+00 -1.817880e-01 9.694331e+00 -3.954315e+00 -1.022595e+01 -4.196511e+00 1.582866e+00 -4.274756e-01 -1.230592e+00 3.282931e+00 1.301715e+00 -2.948067e-01 8.904902e+00 -7.161142e-02 -3.080458e-02 5.220830e-01 -1.017305e+00 -1.150610e+00 -1.658686e-04 8.680474e-02 -2.255568e-01 1.181906e-01 4.875117e-01 4.719603e-02 6.818165e-02 6.982167e-01 -3.553513e-02 9.623018e-02 -1.253704e-01 8.589554e-02 2.174862e-01 1.309251e-01 -3.693909e-02 -5.292120e-02 3.225062e-02 -9.452152e-02 -8.249754e-02 6.985362e-04 -1.550335e-01
<VARIANCE> 39
 3.321984e+01 4.613309e+01 4.940947e+01 6.790134e+01 7.561266e+01 7.121145e+01 5.786839e+01 7.170204e+01 6.555795e+01 4.455885e+01 5.064453e+01 2.978349e+01 5.457205e+01 1.123641e+00 1.160144e+00 1.460161e+00 2.103188e+00 2.333920e+00 2.489374e+00 1.708053e+00 1.934304e+00 1.842034e+00 1.210794e+00 1.239236e+00 9.001478e-01 1.586700e+00 9.654147e-02 1.232231e-01 1.168066e-01 2.010158e-01 2.683196e-01 2.419790e-01 1.665725e-01 1.842178e-01 1.966801e-01 1.376629e-01 1.254158e-01 9.835245e-02 1.784955e-01
<GCONST> 1.049358e+02
<STATE> 3
<MEAN> 39
 -1.036106e+00 2.800730e+00 9.836309e+00 -9.935689e+00 -1.211533e+01 -9.068077e-01 8.277855e-01 -4.989212e+00 9.000684e-01 3.980807e+00 -1.257892e+00 8.120872e-01 1.005713e+01 1.002895e-01 1.756808e-01 -2.210071e-01 4.144707e-01 2.494119e-01 6.865986e-02 -2.506024e-02 -6.193841e-02 -6.862102e-02 -2.229206e-01 -4.704638e-02 -1.017321e-01 -7.216890e-01 1.700750e-02 -1.340330e-04 -6.730752e-02 2.442417e-01 1.911783e-01 -1.633903e-02 -5.665752e-03 6.659769e-02 -4.477841e-02 -6.087530e-02 4.064538e-02 -5.662033e-02 -1.910876e-01
<VARIANCE> 39
 2.659693e+01 5.382438e+01 4.110720e+01 5.695303e+01 5.510597e+01 7.936137e+01 5.822819e+01 6.190461e+01 6.912185e+01 4.334567e+01 3.995138e+01 2.443864e+01 4.641456e+01 4.152489e-01 7.772400e-01 7.236282e-01 1.442857e+00 1.039196e+00 1.187099e+00 1.018419e+00 1.145084e+00 1.140036e+00 9.475681e-01 7.045482e-01 6.873511e-01 1.061779e+00 5.385175e-02 7.687492e-02 7.248114e-02 1.040778e-01 1.144228e-01 1.441969e-01 1.266137e-01 1.397545e-01 1.225243e-01 1.168650e-01 8.448329e-02 8.163024e-02 6.286265e-02
<GCONST> 9.018707e+01
<STATE> 4
<MEAN> 39
 4.686410e-01 9.525583e-02 6.480093e+00 -5.525964e-02 -6.877702e+00 -3.521802e+00 1.607873e+00 -1.079837e+00 -3.226251e+00 1.952483e+00 1.803846e+00 -3.533159e-01 8.396379e-01 -1.939922e-01 1.387776e-01 -4.664620e-01 4.805583e-01 7.717698e-01 1.649182e-01 1.192152e-01 3.462860e-02 4.870005e-02 -2.135832e-01 -3.795745e-04 5.690455e-02 -6.860852e-01 -3.303228e-02 -1.084449e-02 -2.521387e-02 -8.299716e-02 1.514841e-02 2.841808e-02 -2.518546e-02 2.378540e-02 4.712803e-02 7.171222e-03 4.337827e-03 4.439790e-03 8.059730e-02
<VARIANCE> 39
 1.564042e+01 2.090292e+01 3.977715e+01 3.628902e+01 4.565950e+01 4.240535e+01 3.401106e+01 4.439653e+01 4.211259e+01 2.804146e+01 2.992933e+01 2.196422e+01 6.450030e+01 4.039676e-01 5.489759e-01 5.756868e-01 9.432649e-01 7.083248e-01 8.551238e-01 6.918871e-01 8.933675e-01 8.617994e-01 6.070573e-01 5.613205e-01 5.091571e-01 5.973280e-01 3.258742e-02 5.278609e-02 5.465194e-02 6.931649e-02 8.088234e-02 8.534460e-02 8.253003e-02 9.326854e-02 9.320453e-02 7.920656e-02 5.874751e-02 6.695117e-02 5.218833e-02
<GCONST> 7.666057e+01
<TRANSP> 5
 0.000000e+00 1.000000e+00 0.000000e+00 0.000000e+00 0.000000e+00
 0.000000e+00 6.618056e-01 3.381944e-01 0.000000e+00 0.000000e+00
 0.000000e+00 0.000000e+00 7.561957e-01 2.438044e-01 0.000000e+00
 0.000000e+00 0.000000e+00 0.000000e+00 8.064842e-01 1.935158e-01
 0.000000e+00 0.000000e+00 0.000000e+00 0.000000e+00 0.000000e+00
<ENDHMM>
~h "g"
<BEGINHMM>
<NUMSTATES> 5
<STATE> 2
<MEAN> 39
 1.269843e+00 3.252796e+00 5.489285e+00 -8.885704e-01 -7.708379e-01 -2.218752e+00 -1.123213e+00 2.288738e-01 1.515525e+00 1.859821e+00 3.846036e-01 -1.012369e+00 4.112872e+00 -3.840623e-01 -4.081668e-02 7.121806e-01 -6.724443e-01 -6.999613e-01 -1.179519e-01 -6.822080e-02 -3.065228e-01 3.261580e-02 3.959282e-01 7.005933e-02 3.742241e-02 7.497810e-01 8.127417e-02 -2.541813e-02 -8.222647e-05 -1.126777e-01 -2.529109e-01 3.758864e-02 -9.842603e-03 -7.370178e-02 -2.642190e-03 4.184765e-02 -2.461561e-02 5.182042e-02 2.002055e-01
<VARIANCE> 39
 7.339835e+01 1.109488e+02 7.512511e+01 7.019846e+01 8.170701e+01 5.136765e+01 7.712325e+01 8.149240e+01 8.052164e+01 4.903020e+01 3.983825e+01 3.453591e+01 1.133111e+02 1.826547e+00 2.393609e+00 2.874582e+00 2.123612e+00 3.589027e+00 1.947485e+00 2.518225e+00 1.859378e+00 2.373949e+00 1.473463e+00 1.417697e+00 1.178748e+00 3.507026e+00 2.031554e-01 2.579735e-01 2.376242e-01 2.465074e-01 3.654770e-01 2.135075e-01 2.691059e-01 2.187208e-01 2.759973e-01 1.772372e-01 1.712682e-01 1.434003e-01 3.608570e-01
<GCONST> 1.174586e+02
<STATE> 3
<MEAN> 39
 5.455698e-01 2.762245e+00 1.085068e+01 -7.466010e+00 -1.119192e+01 -8.384210e-01 1.491027e+00 -6.106535e+00 1.977930e-01 5.066898e+00 7.943382e-01 -6.689996e-01 1.164755e+01 2.160062e-01 -1.053611e-01 2.881257e-01 3.966524e-02 -7.439631e-01 -1.193568e-01 8.266275e-02 -1.693158e-01 -2.156933e-01 1.564541e-01 5.177377e-02 -8.841454e-02 1.043527e-01 5.892640e-02 3.126477e-02 -2.253674e-01 2.185299e-01 2.939639e-01 -3.769976e-02 -7.478789e-02 2.033057e-01 -2.068686e-02 -1.759800e-01 -6.655616e-02 1.506994e-02 -2.420596e-01
<VARIANCE> 39
 3.324379e+01 5.487017e+01 8.495839e+01 8.667685e+01 1.087794e+02 5.322863e+01 9.260152e+01 7.152261e+01 5.509085e+01 6.658861e+01 6.281734e+01 4.459933e+01 4.919438e+01 8.900851e-01 1.763524e+00 1.492978e+00 2.013126e+00 2.875271e+00 1.279953e+00 1.650736e+00 1.921863e+00 1.667094e+00 1.565023e+00 1.088631e+00 1.045491e+00 1.806193e+00 1.007199e-01 1.339659e-01 1.832528e-01 1.889923e-01 3.389694e-01 1.653039e-01 1.987487e-01 1.612717e-01 1.668887e-01 1.587088e-01 1.560323e-01 1.302220e-01 1.769441e-01
<GCONST> 1.080324e+02
<STATE> 4
<MEAN> 39
 -7.046396e-01 2.129059e+00 1.262123e+01 -3.535154e+00 -9.481442e+00 -2.820414e+00 -4.769517e-01 -2.480569e+00 -7.459145e+00 3.800933e+00 1.319404e+00 -3.207922e+00 7.675393e+00 1.062997e-01 2.225272e-02 -7.155095e-02 -4.271141e-02 -1.405182e-01 -1.404229e-01 -7.436580e-02 5.010239e-02 -5.546118e-02 -2.465621e-02 3.985912e-04 1.292020e-01 -1.609697e-01 1.927909e-02 -3.887435e-02 -1.003977e-01 2.357074e-02 4.762639e-02 -5.125195e-03 4.360574e-02 2.169699e-02 8.433799e-02 -3.726486e-02 -1.929658e-02 4.961787e-02 -9.523932e-03
<VARIANCE> 39
 2.948195e+01 2.658544e+01 5.629237e+01 3.610353e+01 4.818626e+01 3.215994e+01 5.025407e+01 3.839554e+01 7.510722e+01 3.461751e+01 3.849022e+01 2.901231e+01 3.902560e+01 4.055257e-01 6.781874e-01 9.904111e-01 9.403817e-01 1.562921e+00 7.062735e-01 9.409318e-01 9.343334e-01 1.304655e+00 9.056332e-01 8.723162e-01 6.880106e-01 9.633607e-01 4.418671e-02 7.123873e-02 9.300333e-02 9.478156e-02 1.370754e-01 7.378653e-02 9.624889e-02 9.792908e-02 1.315433e-01 9.403820e-02 8.577509e-02 8.014741e-02 8.856320e-02
<GCONST> 8.609475e+01
<TRANSP> 5
 0.000000e+00 1.000000e+00 0.000000e+00 0.000000e+00 0.000000e+00
 0.000000e+00 7.571282e-01 2.428718e-01 0.000000e+00 0.000000e+00
 0.000000e+00 0.000000e+00 5.807224e-01 4.192776e-01 0.000000e+00
 0.000000e+00 0.000000e+00 0.000000e+00 7.093569e-01 2.906431e-01
 0.000000e+00 0.000000e+00 0.000000e+00 0.000000e+00 0.000000e+00
<ENDHMM>
~h "h"
<BEGINHMM>
<NUMSTATES> 5
<STATE> 2
<MEAN> 39
 6.205431e+00 2.745183e+00 -6.448520e+00 -8.128452e+00 1.661796e+00 1.497639e+00 -2.272945e+00 -2.476089e+00 -3.926149e+00 1.619637e-03 7.950122e-01 2.726392e+00 6.652689e+00 3.448620e-01 1.145352e-01 -7.303059e-03 -1.436716e-01 9.261697e-02 8.669433e-02 1.983057e-01 3.549393e-02 -1.030377e-01 -6.949901e-02 -1.866830e-01 -4.245562e-02 -2.530125e-01 -3.563133e-02 -5.486879e-02 5.224458e-02 1.001591e-01 -5.468260e-02 -4.155994e-02 5.811816e-02 6.491501e-02 7.979110e-02 -4.168578e-02 -4.994510e-02 -6.264673e-02 -3.113865e-02
<VARIANCE> 39
 3.490015e+01 5.505334e+01 5.473097e+01 8.856440e+01 4.774234e+01 3.445169e+01 5.512226e+01 3.071033e+01 3.049599e+01 3.280229e+01 3.615408e+01 3.620549e+01 5.861115e+01 5.587612e-01 5.643064e-01 6.729529e-01 1.422381e+00 8.386229e-01 8.281758e-01 1.218944e+00 5.344450e-01 6.743419e-01 5.089871e-01 7.310931e-01 7.510780e-01 8.097133e-01 5.271986e-02 6.238436e-02 6.411984e-02 1.473282e-01 1.030637e-01 9.133205e-02 1.051361e-01 5.325524e-02 8.868123e-02 5.795159e-02 1.035524e-01 8.278057e-02 5.011617e-02
<GCONST> 8.359520e+01
<STATE> 3
<MEAN> 39
 6.233097e+00 -5.463216e-01 -4.025843e+00 -8.741664e-01 2.781275e+00 5.252618e-01 -1.033732e+00 -1.847115e+00 -4.222929e+00 -2.395142e+00 -9.288583e-01 -3.025468e+00 1.259137e+00 -3.291938e-01 -1.957603e-02 1.284770e-02 3.820345e-01 5.009150e-01 2.406923e-01 4.296995e-01 3.912842e-01 1.894694e-01 -2.632855e-01 -7.280999e-02 -1.851284e-01 -5.509725e-01 -5.359798e-02 -5.458477e-02 4.577606e-02 -1.042342e-02 -4.768469e-02 1.747273e-02 -4.176919e-02 4.531119e-02 5.472374e-03 -1.003112e-02 1.414840e-02 1.028719e-01 7.193854e-02
<VARIANCE> 39
 2.896957e+01 5.721158e+01 4.649396e+01 7.305740e+01 5.189533e+01 3.529319e+01 5.507215e+01 3.166873e+01 5.409584e+01 5.952264e+01 4.022490e+01 3.140404e+01 4.826617e+01 3.453156e-01 1.014527e+00 7.967826e-01 8.589993e-01 5.157189e-01 5.285587e-01 6.823965e-01 6.937786e-01 1.015102e+00 7.581193e-01 8.311228e-01 9.431547e-01 3.845167e-01 3.076544e-02 5.300295e-02 7.716807e-02 8.225260e-02 1.109207e-01 6.643455e-02 6.193116e-02 6.646651e-02 1.222199e-01 8.976552e-02 9.475105e-02 8.424615e-02 2.097662e-02
<GCONST> 8.126707e+01
<STATE> 4
<MEAN> 39
 8.277861e-01 1.592210e+00 -2.233164e+00 -3.322071e-01 2.670351e+00 1.483601e+00 -7.186678e-02 -1.396891e+00 -3.040147e+00 -2.505649e+00 -1.000109e+00 5.324667e-01 -2.099776e+00 -1.465856e-01 -9.023770e-02 -5.698449e-03 1.013300e-01 9.294868e-02 7.251631e-02 2.349153e-02 8.453475e-02 3.017735e-02 -5.706008e-02 3.794669e-02 6.581247e-02 -1.130712e-01 1.394978e-02 -2.648742e-02 3.191058e-02 -1.917477e-02 -3.162004e-02 4.872183e-03 -1.629977e-02 -9.836935e-03 4.256658e-03 2.143701e-02 1.185937e-02 -1.278670e-02 4.633375e-02
<VARIANCE> 39
 2.228385e+01 2.198685e+01 3.804178e+01 3.289856e+01 3.503490e+01 3.025765e+01 2.936938e+01 2.694026e+01 3.708873e+01 3.467926e+01 2.454614e+01 1.867146e+01 3.572070e+01 2.384659e-01 3.000916e-01 4.034119e-01 5.251015e-01 5.308715e-01 3.998939e-01 4.870521e-01 4.497756e-01 4.678863e-01 5.551460e-01 5.737002e-01 4.539075e-01 2.010179e-01 1.581760e-02 3.054509e-02 4.139277e-02 6.004356e-02 6.267118e-02 4.335171e-02 6.135019e-02 5.271916e-02 4.904041e-02 6.143439e-02 6.151223e-02 4.068872e-02 1.537804e-02
<GCONST> 6.270602e+01
<TRANSP> 5
 0.000000e+00 1.000000e+00 0.000000e+00 0.000000e+00 0.000000e+00
 0.000000e+00 6.563509e-01 3.436491e-01 0.000000e+00 0.000000e+00
 0.000000e+00 0.000000e+00 6.064688e-01 3.935312e-01 0.000000e+00
 0.000000e+00 0.000000e+00 0.000000e+00 8.643688e-01 1.356312e-01
 0.000000e+00 0.000000e+00 0.000000e+00 0.000000e+00 0.000000e+00
<ENDHMM>
~h "i"
<BEGINHMM>
<NUMSTATES> 5
<STATE> 2
<MEAN> 39
 -1.247846e+00 5.048653e+00 9.532741e+00 -4.627728e+00 -4.699095e+00 -9.298549e-01 -2.519042e+00 -6.300236e+00 -1.444912e-01 1.406759e+00 -8.713864e-01 9.973996e-01 4.943882e+00 -1.880125e-01 5.916674e-01 1.229882e+00 -1.154853e+00 -7.537372e-01 -1.115054e-01 -6.369969e-01 -7.256029e-01 -1.866334e-01 2.015099e-01 -2.693005e-01 3.401658e-01 8.994415e-01 5.364415e-02 -2.522006e-02 -1.422964e-01 1.309675e-01 7.731940e-02 -1.792430e-02 6.074257e-02 1.375016e-01 -2.707623e-02 -4.031841e-02 2.888586e-02 -2.767123e-02 -1.050560e-01
<VARIANCE> 39
 3.955059e+01 5.580359e+01 7.186672e+01 8.865307e+01 7.069855e+01 5.712461e+01 7.194305e+01 6.506731e+01 6.600681e+01 5.192662e+01 4.819610e+01 3.919318e+01 7.900453e+01 1.707223e+00 1.611357e+00 2.137123e+00 2.491505e+00 2.060637e+00 1.640139e+00 2.163486e+00 1.911229e+00 2.365102e+00 1.685399e+00 1.513251e+00 1.374458e+00 1.929558e+00 1.574874e-01 1.599578e-01 2.408476e-01 3.278883e-01 2.537582e-01 1.886407e-01 2.225552e-01 2.278159e-01 2.268236e-01 1.868632e-01 1.677970e-01 1.526852e-01 2.011463e-01
<GCONST> 1.123679e+02
<STATE> 3
<MEAN> 39
 -1.272868e+00 6.978234e+00 1.323142e+01 -7.607017e+00 -8.191438e+00 -2.369066e+00 -3.969781e+00 -6.888323e+00 -2.372762e+00 2.226292e+00 -6.899204e-01 1.833536e+00 7.867923e+00 3.728583e-01 8.032295e-02 -2.492695e-01 8.929113e-01 9.327164e-02 -6.703933e-02 2.978339e-01 2.157308e-01 -2.367308e-01 -7.679829e-02 2.416815e-01 -3.288943e-01 -6.878915e-01 -3.460883e-02 -7.041012e-02 -2.884726e-01 3.179209e-01 2.538485e-01 4.915991e-02 1.548114e-01 1.157718e-01 7.168435e-02 -7.693349e-02 1.959501e-02 -9.478563e-02 -2.259990e-01
<VARIANCE> 39
 2.922552e+01 6.144649e+01 4.595023e+01 7.676130e+01 5.094579e+01 4.877997e+01 6.752171e+01 6.852491e+01 7.503648e+01 4.999103e+01 5.417995e+01 3.418148e+01 4.082257e+01 9.056262e-01 1.098581e+00 1.160399e+00 1.737804e+00 1.258154e+00 1.263939e+00 1.294717e+00 1.326941e+00 1.246004e+00 1.123315e+00 9.310780e-01 7.243452e-01 1.076861e+00 1.202611e-01 1.153231e-01 1.280756e-01 1.803257e-01 1.659932e-01 1.420724e-01 1.709973e-01 1.697295e-01 1.839800e-01 1.509871e-01 1.545523e-01 1.157120e-01 8.448340e-02
<GCONST> 9.936547e+01
<STATE> 4
<MEAN> 39
 -1.201870e-01 3.953911e+00 8.800204e+00 1.931598e+00 -3.150055e+00 -1.337028e+00 -8.129867e-01 -4.421853e+00 -4.766151e+00 -3.585640e-01 8.398599e-01 -6.826066e-01 6.113991e-01 -1.996930e-01 -1.016727e-01 -6.360968e-01 4.775894e-01 5.591328e-01 1.344606e-01 3.297099e-01 1.550643e-01 1.553176e-01 -9.017234e-02 -2.339280e-02 -1.127874e-02 -5.555596e-01 -6.968042e-02 -3.983294e-02 -5.994058e-02 -1.177942e-01 1.491388e-02 -4.428199e-03 -3.430772e-02 2.240310e-02 6.373714e-02 2.443527e-02 1.662897e-02 3.539742e-02 8.243831e-02
<VARIANCE> 39
 3.054560e+01 3.069892e+01 5.211150e+01 4.210801e+01 4.062962e+01 3.746255e+01 4.398213e+01 3.756954e+01 4.730162e+01 3.469305e+01 3.150057e+01 2.615842e+01 6.268340e+01 8.029388e-01 9.082965e-01 9.769073e-01 1.142751e+00 9.861258e-01 9.410009e-01 9.299750e-01 8.810786e-01 1.048025e+00 7.742852e-01 7.474052e-01 5.862744e-01 7.492176e-01 7.221425e-02 6.897233e-02 9.857031e-02 8.622567e-02 1.042706e-01 9.480140e-02 1.140447e-01 1.051135e-01 1.173313e-01 9.500353e-02 8.021124e-02 6.784043e-02 7.123171e-02
<GCONST> 8.594245e+01
<TRANSP> 5
 0.000000e+00 1.000000e+00 0.000000e+00 0.000000e+00 0.000000e+00
 0.000000e+00 7.024108e-01 2.975892e-01 0.000000e+00 0.000000e+00
 0.000000e+00 0.000000e+00 6.925126e-01 3.074874e-01 0.000000e+00
 0.000000e+00 0.000000e+00 0.000000e+00 7.430728e-01 2.569271e-01
 0.000000e+00 0.000000e+00 0.000000e+00 0.000000e+00 0.000000e+00
<ENDHMM>
~h "j"
<BEGINHMM>
<NUMSTATES> 5
<STATE> 2
<MEAN> 39
 2.114973e+00 -3.485669e+00 -1.153095e-01 -1.167475e+00 -1.824554e+00 -2.689510e+00 4.035824e+00 4.304759e+00 -4.197083e-01 -1.858105e+00 -3.194221e+00 3.712919e-01 8.163745e+00 -2.585599e-01 1.006647e+00 2.911635e-01 6.082950e-01 5.226256e-01 3.254598e-01 2.671013e-01 -3.243645e-01 -3.381350e-01 6.304639e-02 5.473205e-01 -2.900255e-01 -1.204430e+00 -1.867820e-01 -8.757592e-04 -1.757372e-01 -5.877309e-02 2.223504e-01 1.931217e-01 -3.257361e-02 6.374112e-02 7.112907e-02 -6.339512e-02 -5.662882e-03 -1.132848e-01 5.070645e-02
<VARIANCE> 39
 1.594241e+01 2.201538e+01 2.493384e+01 2.803313e+01 3.023997e+01 2.699932e+01 3.361975e+01 4.167355e+01 4.980792e+01 3.147069e+01 2.419767e+01 2.296286e+01 4.693530e+01 9.706030e-01 8.026798e-01 7.133448e-01 1.119280e+00 9.816988e-01 8.668199e-01 8.537320e-01 9.518988e-01 1.176712e+00 8.613030e-01 8.130755e-01 6.365203e-01 4.647791e-01 1.197283e-01 7.506928e-02 6.623790e-02 1.322682e-01 1.381329e-01 1.309938e-01 1.051350e-01 9.319010e-02 8.347816e-02 8.285426e-02 1.164446e-01 9.346970e-02 7.979797e-02
<GCONST> 8.319902e+01
<STATE> 3
<MEAN> 39
 -2.584726e+00 2.537423e+00 -1.163534e+00 4.228679e-01 3.462368e+00 1.125440e+00 4.822409e+00 4.035655e+00 -6.595969e-01 -1.918747e+00 -1.058198e+00 -2.588391e+00 3.907674e+00 -2.090006e+00 1.130801e+00 4.595627e-01 -7.360443e-01 3.524641e-01 -6.316581e-02 -3.491398e-02 1.427587e-01 -2.215290e-01 2.676371e-01 8.528842e-01 -2.832435e-01 4.205185e-01 4.320082e-02 -1.914552e-01 2.970514e-01 -2.538981e-01 -4.565512e-01 -3.031144e-01 -1.151533e-01 -2.927761e-02 -5.882326e-02 1.156177e-01 7.671259e-02 1.340072e-01 3.899301e-01
<VARIANCE> 39
 7.625048e+01 4.410115e+01 3.706314e+01 4.955079e+01 3.317476e+01 3.153823e+01 4.044662e+01 3.524604e+01 3.951717e+01 3.036023e+01 2.700734e+01 2.372600e+01 3.208334e+01 2.069946e+00 1.338408e+00 1.325151e+00 1.294165e+00 1.312619e+00 1.346130e+00 1.318837e+00 1.056266e+00 8.085427e-01 1.011539e+00 1.155844e+00 8.415232e-01 9.496611e-01 5.268626e-01 2.035171e-01 9.824231e-02 2.490596e-01 1.697771e-01 1.425702e-01 1.458487e-01 1.411086e-01 1.486996e-01 9.611183e-02 1.282832e-01 1.029671e-01 6.516415e-02
<GCONST> 9.587471e+01
<STATE> 4
<MEAN> 39
 -8.320010e+00 4.467014e+00 6.521601e+00 -5.188641e+00 -3.451656e+00 -3.925711e+00 3.427539e+00 2.198760e+00 -3.285023e+00 2.964886e-01 4.531787e+00 -2.062920e+00 1.035306e+01 1.150652e+00 -8.914132e-01 5.835664e-01 -3.794891e-01 -1.801804e+00 -8.710526e-01 -3.001773e-01 1.680857e-01 1.410548e-01 2.519505e-01 1.561530e-01 4.579887e-01 8.453819e-01 4.561663e-01 -2.559722e-01 -2.531660e-01 1.784119e-01 4.589883e-02 7.388361e-02 -1.713534e-02 1.061773e-01 1.293166e-01 -7.945548e-02 -3.099011e-01 3.929810e-02 -1.124369e-01
<VARIANCE> 39
 6.421513e+01 4.325254e+01 2.600440e+01 2.215767e+01 6.789938e+01 4.296689e+01 5.141549e+01 3.732004e+01 4.272103e+01 3.704206e+01 3.444172e+01 3.940952e+01 3.514639e+01 2.134578e+00 1.866033e+00 1.467134e+00 1.254903e+00 1.338348e+00 9.590222e-01 1.331739e+00 1.768189e+00 1.502695e+00 9.074802e-01 1.478192e+00 6.310450e-01 4.238340e-01 4.127643e-01 2.320850e-01 1.174537e-01 1.062948e-01 3.999082e-01 1.394622e-01 1.405582e-01 1.605136e-01 9.943830e-02 1.369132e-01 1.340497e-01 1.078276e-01 4.783863e-02
<GCONST> 9.714102e+01
<TRANSP> 5
 0.000000e+00 1.000000e+00 0.000000e+00 0.000000e+00 0.000000e+00
 0.000000e+00 7.644712e-01 2.355288e-01 0.000000e+00 0.000000e+00
 0.000000e+00 0.000000e+00 7.615123e-01 2.384877e-01 0.000000e+00
 0.000000e+00 0.000000e+00 0.000000e+00 8.093358e-01 1.906642e-01
 0.000000e+00 0.000000e+00 0.000000e+00 0.000000e+00 0.000000e+00
<ENDHMM>
~h "k"
<BEGINHMM>
<NUMSTATES> 5
<STATE> 2
<MEAN> 39
 -1.890044e-01 1.462204e+00 2.590935e+00 3.255344e+00 -2.989210e+00 -2.611040e+00 -2.507124e-01 -3.921983e+00 -1.230014e+00 2.115472e+00 7.047779e-01 -1.692051e-01 -4.197662e+00 -7.859376e-02 -8.668605e-01 -1.515230e+00 2.890857e-01 1.063919e+00 -1.549736e-02 1.080265e-01 4.468896e-01 3.287065e-01 2.210005e-01 1.934032e-01 7.246779e-02 -2.251125e-01 1.970769e-02 -8.059081e-02 -1.726854e-01 -2.607437e-01 7.905522e-02 -5.636089e-03 -3.563022e-02 1.540515e-01 7.392465e-02 6.562229e-03 -2.510132e-02 -1.380852e-02 4.576696e-01
<VARIANCE> 39
 2.517047e+01 4.186083e+01 6.464329e+01 5.090080e+01 9.230566e+01 5.924205e+01 5.280988e+01 5.063848e+01 5.505673e+01 5.332395e+01 3.338903e+01 2.621278e+01 2.730973e+01 7.877992e-01 1.434669e+00 1.706672e+00 2.146620e+00 1.788507e+00 2.456549e+00 1.869717e+00 1.795086e+00 1.473148e+00 1.433805e+00 1.308795e+00 6.775520e-01 1.706625e+00 1.119765e-01 1.628412e-01 1.915383e-01 1.624152e-01 2.331743e-01 2.907673e-01 1.789358e-01 1.800002e-01 1.590002e-01 1.832230e-01 1.300237e-01 1.070680e-01 1.190417e-01
<GCONST> 1.030346e+02
<STATE> 3
<MEAN> 39
 -2.509862e+00 -6.410388e+00 -8.374208e+00 3.795150e+00 6.194904e+00 -2.550732e+00 1.190606e+00 2.601863e+00 1.863645e+00 3.148370e+00 1.014341e+00 1.343333e-01 -7.185739e-01 3.711467e-01 -3.736061e-01 -1.071953e+00 -7.994907e-01 4.065750e-01 3.477576e-02 -4.577359e-02 4.720892e-01 4.575254e-01 -6.707907e-02 -1.920939e-01 -1.468959e-01 1.658217e+00 3.055361e-01 3.045858e-01 3.875365e-01 -3.078507e-01 -4.733516e-01 1.133514e-01 -9.430399e-02 -2.056558e-01 -7.928839e-02 -9.139121e-02 -1.068262e-01 -7.554597e-02 2.261819e-01
<VARIANCE> 39
 4.062036e+01 4.488567e+01 1.008134e+02 7.718154e+01 7.500407e+01 1.035695e+02 7.588301e+01 5.760428e+01 6.561329e+01 4.134008e+01 5.487156e+01 2.417343e+01 1.252061e+02 1.503867e+00 1.778322e+00 2.277864e+00 1.800424e+00 2.604079e+00 3.202688e+00 1.907210e+00 1.938650e+00 2.077539e+00 2.018463e+00 1.359254e+00 9.760059e-01 2.940398e+00 1.142106e-01 2.218706e-01 2.338134e-01 2.742187e-01 2.486336e-01 3.527913e-01 2.427568e-01 2.157702e-01 2.101887e-01 1.688298e-01 1.900343e-01 1.020300e-01 3.108322e-01
<GCONST> 1.137743e+02
<STATE> 4
<MEAN> 39
 2.826780e+00 -1.894348e+00 -7.566654e+00 -1.990630e+00 2.294312e+00 -1.197728e+00 3.941859e-01 7.058280e-01 1.987309e+00 2.507600e+00 4.831133e-01 -1.293360e+00 4.088608e+00 1.207612e+00 4.873591e-01 7.786621e-02 -1.215181e+00 -8.685693e-01 3.253329e-01 -3.733033e-01 -1.705981e-01 7.708564e-02 -2.410360e-01 -2.578319e-01 -1.791033e-01 1.376651e+00 6.251500e-02 1.066517e-01 3.102625e-01 8.219650e-02 -1.832009e-01 6.489849e-02 -6.791157e-02 -1.272716e-01 -1.037492e-01 -4.816855e-02 -1.420244e-02 5.517298e-02 -1.552193e-01
<VARIANCE> 39
 4.215888e+01 3.994418e+01 6.905270e+01 5.733421e+01 8.733343e+01 6.824560e+01 5.287886e+01 6.442377e+01 6.705930e+01 5.886752e+01 5.009847e+01 3.324846e+01 5.457185e+01 9.035329e-01 1.921071e+00 1.785818e+00 1.395004e+00 2.396986e+00 2.209322e+00 1.823731e+00 2.521426e+00 2.550591e+00 1.686410e+00 1.523917e+00 1.176474e+00 1.030888e+00 1.493007e-01 1.718567e-01 1.818970e-01 1.634606e-01 2.911698e-01 2.841158e-01 2.440529e-01 2.724473e-01 2.139237e-01 2.379938e-01 1.892488e-01 1.292312e-01 1.748538e-01
<GCONST> 1.098310e+02
<TRANSP> 5
 0.000000e+00 1.000000e+00 0.000000e+00 0.000000e+00 0.000000e+00
 0.000000e+00 7.286817e-01 2.713183e-01 0.000000e+00 0.000000e+00
 0.000000e+00 0.000000e+00 5.823982e-01 4.176018e-01 0.000000e+00
 0.000000e+00 0.000000e+00 0.000000e+00 4.818337e-01 5.181662e-01
 0.000000e+00 0.000000e+00 0.000000e+00 0.000000e+00 0.000000e+00
<ENDHMM>
~h "l"
<BEGINHMM>
<NUMSTATES> 5
<STATE> 2
<MEAN> 39
 6.087728e+00 -5.118258e+00 -1.275079e+00 -4.578569e+00 8.149669e-01 4.044060e+00 -7.835124e+00 -1.482059e-01 1.125956e+01 1.024795e+00 -4.977305e+00 -2.841012e+00 9.063238e+00 2.510396e-01 1.465041e-01 4.093303e-01 1.582444e-01 -2.559198e-01 -5.952078e-01 -7.355542e-01 2.233327e-01 1.565821e-01 3.145229e-01 1.265886e-01 6.876929e-02 4.161637e-01 -4.385212e-02 5.729151e-02 -8.935089e-02 -2.370498e-02 -1.080544e-02 9.056045e-03 1.597695e-01 6.288919e-02 -1.659874e-01 1.171421e-03 8.278679e-02 -2.019325e-02 -5.352026e-02
<VARIANCE> 39
 4.692724e+01 6.823600e+01 7.432214e+01 4.477022e+01 5.377021e+01 1.301182e+02 6.704927e+01 5.679591e+01 1.890803e+02 5.966027e+01 4.825609e+01 2.779971e+01 1.755802e+02 1.034515e+00 1.993704e+00 2.133230e+00 1.157426e+00 1.354407e+00 3.103328e+00 1.535507e+00 1.724526e+00 3.525178e+00 1.216456e+00 1.410264e+00 8.700570e-01 4.410054e+00 1.411743e-01 1.877488e-01 2.372354e-01 1.252209e-01 1.784278e-01 4.341557e-01 1.462654e-01 2.989995e-01 3.800021e-01 1.443419e-01 1.338091e-01 1.143514e-01 4.082816e-01
<GCONST> 1.130259e+02
<STATE> 3
<MEAN> 39
 3.455213e+00 -1.700784e+00 3.069508e+00 -4.113564e+00 -3.659400e+00 -3.014319e+00 -9.019369e+00 1.437598e+00 2.012852e+00 -5.243378e+00 -2.388275e+00 1.549866e+00 8.657449e+00 -7.272632e-02 2.187693e-01 4.042438e-01 -1.437013e-01 -3.700382e-01 4.717540e-02 -2.317800e-01 7.754906e-02 -1.804572e-01 9.334659e-02 1.612377e-01 1.449530e-01 -1.551239e-01 -8.931702e-02 -1.811134e-01 -3.462989e-01 -2.557727e-02 8.087580e-02 8.491030e-02 5.859493e-01 6.215574e-02 -9.688540e-02 1.444412e-01 -8.151846e-02 -1.510330e-01 1.029633e-01
<VARIANCE> 39
 1.498341e+01 2.817467e+01 5.084361e+01 3.401171e+01 3.383502e+01 3.968296e+01 5.529078e+01 7.096584e+01 6.439880e+01 6.589445e+01 3.541829e+01 4.443661e+01 3.482201e+01 4.279062e-01 1.174423e+00 2.252733e+00 7.494329e-01 9.927853e-01 1.067983e+00 3.733144e+00 1.599949e+00 1.198697e+00 1.120261e+00 1.069663e+00 1.056941e+00 7.941198e-01 4.615035e-02 1.986809e-01 1.671517e-01 1.193188e-01 1.492011e-01 2.142351e-01 3.992994e-01 2.734229e-01 2.090772e-01 1.651266e-01 1.019631e-01 1.525363e-01 1.327267e-01
<GCONST> 9.797466e+01
<STATE> 4
<MEAN> 39
 2.946474e+00 -1.550548e+00 6.840803e-01 -2.017385e+00 -5.667665e+00 -2.732784e+00 -3.576299e+00 -8.950696e-01 3.659006e-01 -2.834381e+00 -2.516439e+00 3.177580e-01 9.712917e+00 -2.657502e-01 -5.702749e-03 -1.333307e-01 -1.404296e-01 -1.430821e-02 1.580204e-01 7.233501e-01 1.904162e-01 -3.774621e-01 5.670118e-01 1.921309e-01 -2.206336e-01 -7.077660e-02 -4.694074e-02 5.102745e-02 -4.516695e-02 -3.195236e-02 1.348326e-01 2.288059e-02 5.282047e-02 -6.291434e-03 7.561903e-03 3.116050e-02 1.858576e-02 -1.324338e-02 -1.187193e-02
<VARIANCE> 39
 4.059549e+01 4.395857e+01 4.491151e+01 5.136849e+01 4.475455e+01 3.107668e+01 6.047055e+01 6.089666e+01 7.457381e+01 6.942921e+01 3.003836e+01 3.535719e+01 3.732931e+01 1.060848e+00 1.082822e+00 1.373033e+00 1.204062e+00 1.319406e+00 1.206749e+00 2.108696e+00 1.555795e+00 1.270141e+00 1.211770e+00 6.607985e-01 5.809107e-01 5.968673e-01 7.430957e-02 8.961557e-02 9.213414e-02 1.144747e-01 1.250864e-01 1.356815e-01 1.821219e-01 1.312745e-01 1.670197e-01 1.342974e-01 7.549848e-02 7.912466e-02 7.030854e-02
<GCONST> 9.380293e+01
<TRANSP> 5
 0.000000e+00 1.000000e+00 0.000000e+00 0.000000e+00 0.000000e+00
 0.000000e+00 5.659335e-01 4.340664e-01 0.000000e+00 0.000000e+00
 0.000000e+00 0.000000e+00 5.170635e-01 4.829365e-01 0.000000e+00
 0.000000e+00 0.000000e+00 0.000000e+00 6.689549e-01 3.310451e-01
 0.000000e+00 0.000000e+00 0.000000e+00 0.000000e+00 0.000000e+00
<ENDHMM>
~h "m"
<BEGINHMM>
<NUMSTATES> 5
<STATE> 2
<MEAN> 39
 7.111043e+00 2.768294e+00 2.951819e+00 2.115448e+00 1.015078e+00 2.049255e+00 -1.587347e+00 -5.262090e+00 -3.834162e+00 9.747714e-03 -2.971427e-01 -1.564488e+00 2.828532e+00 5.456432e-01 -3.765886e-01 -5.463548e-01 2.995767e-02 4.688056e-01 9.613609e-02 -4.993975e-01 7.570818e-03 5.513776e-01 4.012147e-01 -1.194061e-01 -4.797880e-01 5.493271e-01 -6.038964e-02 -2.546741e-01 -2.354135e-01 -1.649199e-01 2.824870e-02 -5.447288e-02 -6.162302e-02 2.724681e-01 2.172734e-01 2.388680e-02 -7.852898e-02 -1.015141e-01 1.706878e-01
<VARIANCE> 39
 2.900947e+01 3.321746e+01 8.319092e+01 7.593953e+01 8.687024e+01 5.060407e+01 6.423443e+01 5.688258e+01 6.166573e+01 4.104924e+01 4.410165e+01 2.975313e+01 4.161049e+01 9.017598e-01 1.393239e+00 2.381521e+00 2.699698e+00 1.727977e+00 1.318523e+00 1.678975e+00 1.736566e+00 2.467720e+00 1.267426e+00 9.844295e-01 1.088045e+00 1.990026e+00 1.166172e-01 1.363460e-01 1.712026e-01 2.570224e-01 2.240702e-01 1.661249e-01 2.185657e-01 2.459841e-01 1.855345e-01 1.556894e-01 1.326697e-01 1.151628e-01 1.236743e-01
<GCONST> 1.052203e+02
<STATE> 3
<MEAN> 39
 8.900956e+00 -2.490828e+00 -2.468939e+00 1.748111e+00 4.693945e+00 9.550073e-01 -7.898943e+00 -3.615260e+00 -1.553919e+00 2.073396e+00 -1.955063e+00 -6.682116e+00 6.053365e+00 -5.046241e-03 -9.626548e-01 -7.808304e-01 -3.104109e-01 3.784114e-01 4.938640e-02 -3.343857e-02 1.142613e+00 5.600215e-01 -6.020156e-01 -3.094975e-01 -1.557091e-01 7.710103e-01 -2.076799e-01 4.570052e-03 9.420948e-02 -1.387221e-01 -1.749052e-01 -3.108847e-02 2.935784e-01 2.301930e-01 -9.218884e-02 -3.325300e-01 -6.002548e-02 3.018082e-01 7.326804e-02
<VARIANCE> 39
 1.835777e+01 2.792714e+01 4.870272e+01 5.160872e+01 3.934406e+01 5.446777e+01 4.387790e+01 5.071091e+01 7.415771e+01 5.928239e+01 3.600417e+01 3.343682e+01 2.691015e+01 5.575482e-01 1.404384e+00 1.413695e+00 1.737939e+00 1.558042e+00 1.219128e+00 1.878706e+00 2.246428e+00 1.881903e+00 2.192516e+00 1.287211e+00 1.219103e+00 9.753706e-01 5.292962e-02 1.188939e-01 2.226735e-01 2.329438e-01 1.325121e-01 1.377874e-01 1.709367e-01 2.326082e-01 1.721744e-01 2.398867e-01 1.159515e-01 1.164668e-01 8.504366e-02
<GCONST> 9.926541e+01
<STATE> 4
<MEAN> 39
 7.031305e+00 -6.293279e+00 -4.801005e+00 -2.295415e-01 5.535498e+00 1.828967e+00 -3.985794e+00 1.424306e+00 1.108720e+00 -4.396241e+00 -6.408963e+00 -1.768929e+00 1.170970e+01 -5.058132e-01 -1.339805e-01 1.137361e-01 -5.264807e-01 -2.914488e-01 -2.032210e-02 6.308434e-01 5.046585e-01 -2.582870e-01 -4.744849e-01 -2.414107e-02 4.128603e-01 3.441397e-01 -3.042501e-02 1.995620e-01 1.346808e-01 2.545772e-02 -7.199715e-02 -2.528337e-02 5.623776e-02 -2.158059e-01 -1.119424e-01 1.133355e-01 9.343026e-02 9.570045e-03 -1.434426e-01
<VARIANCE> 39
 2.839206e+01 5.510286e+01 7.334782e+01 5.593229e+01 5.374192e+01 6.239788e+01 6.505725e+01 8.168591e+01 1.317291e+02 6.171535e+01 4.154071e+01 3.026106e+01 6.756112e+01 1.000348e+00 1.290974e+00 1.872208e+00 1.684546e+00 1.424527e+00 1.504185e+00 1.757597e+00 2.049344e+00 1.890938e+00 1.788050e+00 1.271023e+00 1.085698e+00 1.474452e+00 7.722797e-02 1.433685e-01 1.826540e-01 1.876274e-01 1.577110e-01 1.460984e-01 1.555608e-01 2.645061e-01 2.130967e-01 2.158750e-01 1.373401e-01 1.053264e-01 1.293109e-01
<GCONST> 1.055786e+02
<TRANSP> 5
 0.000000e+00 1.000000e+00 0.000000e+00 0.000000e+00 0.000000e+00
 0.000000e+00 6.523476e-01 3.476524e-01 0.000000e+00 0.000000e+00
 0.000000e+00 0.000000e+00 6.448057e-01 3.551944e-01 0.000000e+00
 0.000000e+00 0.000000e+00 0.000000e+00 6.887290e-01 3.112710e-01
 0.000000e+00 0.000000e+00 0.000000e+00 0.000000e+00 0.000000e+00
<ENDHMM>
~h "n"
<BEGINHMM>
<NUMSTATES> 5
<STATE> 2
<MEAN> 39
 3.322258e+00 -1.825363e+00 4.187889e-01 -1.823742e-01 3.296390e-01 -3.431264e+00 -2.889931e-01 2.120115e+00 -2.929461e+00 -3.045831e+00 -3.281474e+00 -2.323338e-02 8.684432e+00 4.036617e-01 6.868070e-01 6.771185e-01 9.281682e-01 -3.988082e-01 -2.894791e-01 1.234749e-01 -5.910312e-01 -4.067312e-01 2.604245e-02 -9.250470e-02 1.446337e-01 -8.462154e-01 6.530305e-02 1.781724e-02 -2.964921e-02 -3.808085e-02 -5.462650e-02 5.195157e-02 -5.808201e-02 -8.462209e-02 9.021689e-02 8.599295e-02 1.174606e-02 -3.670064e-02 -3.448389e-02
<VARIANCE> 39
 2.177498e+01 2.987769e+01 4.825728e+01 4.397763e+01 4.778256e+01 5.338919e+01 5.058025e+01 5.194720e+01 5.922275e+01 5.772909e+01 3.712651e+01 2.929564e+01 4.964386e+01 5.975208e-01 6.883088e-01 1.211790e+00 9.351881e-01 1.243863e+00 1.206790e+00 1.140037e+00 1.257192e+00 1.325550e+00 1.498612e+00 9.793211e-01 1.026649e+00 6.252590e-01 4.995025e-02 7.292613e-02 9.372950e-02 1.061781e-01 1.098878e-01 1.200734e-01 1.139623e-01 1.391898e-01 1.566612e-01 1.313604e-01 1.059670e-01 1.066371e-01 6.280574e-02
<GCONST> 9.096110e+01
<STATE> 3
<MEAN> 39
 6.751097e+00 4.605103e-01 3.193876e+00 4.395607e+00 -2.526672e+00 -4.226369e+00 7.584571e-01 -1.338383e+00 -3.398364e+00 -1.368627e+00 -3.972244e+00 8.437453e-01 5.708045e+00 3.662163e-01 4.681269e-01 3.144525e-01 4.745912e-01 -1.733312e-01 4.534405e-02 -2.407524e-02 -4.874598e-01 -7.035848e-02 2.602760e-02 5.080742e-02 -4.440062e-02 -6.849012e-01 -1.303384e-01 -1.415966e-01 -1.890021e-01 -2.581843e-01 1.245672e-01 1.086762e-01 -3.451531e-02 1.648207e-01 7.603192e-02 -6.484534e-02 5.116860e-02 -7.263919e-02 1.670666e-01
<VARIANCE> 39
 2.033309e+01 2.980296e+01 2.908383e+01 3.216463e+01 3.985212e+01 5.204480e+01 5.142754e+01 4.615969e+01 5.430413e+01 3.936541e+01 3.770829e+01 3.383475e+01 3.248220e+01 4.701144e-01 8.804395e-01 1.190216e+00 8.869115e-01 9.645894e-01 9.116897e-01 9.802901e-01 1.174563e+00 1.144578e+00 1.081973e+00 7.402708e-01 7.773534e-01 5.494242e-01 4.689435e-02 8.403967e-02 8.353490e-02 9.839566e-02 1.155446e-01 1.184107e-01 1.211589e-01 1.403102e-01 1.279985e-01 1.248795e-01 9.863379e-02 9.122651e-02 5.342897e-02
<GCONST> 8.640095e+01
<STATE> 4
<MEAN> 39
 3.687014e+00 8.319588e-01 1.020351e+00 1.154319e+00 -7.258292e-01 -1.143041e+00 -1.571532e+00 -2.286007e+00 -1.968530e+00 -3.367876e+00 -3.629146e+00 -1.210914e+00 2.184727e+00 -4.490064e-02 1.309015e-01 5.481992e-03 1.969865e-02 4.228065e-02 -1.451848e-02 1.949422e-03 -5.257348e-02 -3.446222e-02 1.105370e-02 9.336222e-02 3.237747e-03 -1.684470e-01 -2.907324e-02 -6.821566e-02 -2.680184e-02 -6.732174e-02 2.391689e-02 9.632673e-03 7.439032e-03 6.995395e-02 1.612858e-03 3.415483e-02 3.426103e-02 -1.007248e-02 5.495265e-02
<VARIANCE> 39
 1.504377e+01 2.501698e+01 2.676640e+01 2.287926e+01 3.174855e+01 3.192808e+01 2.885797e+01 2.889291e+01 4.056541e+01 3.269104e+01 2.466119e+01 1.991131e+01 2.332270e+01 1.817756e-01 5.683647e-01 5.117629e-01 5.575885e-01 6.620856e-01 5.806220e-01 6.213278e-01 7.276047e-01 6.480473e-01 6.875234e-01 5.329818e-01 4.493429e-01 3.113356e-01 2.051008e-02 5.603903e-02 4.274940e-02 6.475538e-02 7.215358e-02 7.203048e-02 7.229663e-02 7.962176e-02 7.908212e-02 8.454215e-02 6.407425e-02 5.738983e-02 2.688960e-02
<GCONST> 6.822536e+01
<TRANSP> 5
 0.000000e+00 1.000000e+00 0.000000e+00 0.000000e+00 0.000000e+00
 0.000000e+00 3.762705e-01 6.237295e-01 0.000000e+00 0.000000e+00
 0.000000e+00 0.000000e+00 6.286533e-01 3.713467e-01 0.000000e+00
 0.000000e+00 0.000000e+00 0.000000e+00 8.501759e-01 1.498241e-01
 0.000000e+00 0.000000e+00 0.000000e+00 0.000000e+00 0.000000e+00
<ENDHMM>
~h "o"
<BEGINHMM>
<NUMSTATES> 5
<STATE> 2
<MEAN> 39
 -3.480632e+00 -6.742094e-01 -2.366350e-01 1.315940e+00 4.680106e+00 2.951639e+00 1.898711e+00 2.144231e+00 4.267389e-01 1.077322e+00 3.414328e+00 4.212169e-02 -1.634163e+01 8.271985e-01 5.935534e-01 -2.014239e-01 -8.130533e-01 -1.907240e-01 1.643986e-01 -3.591025e-01 -1.942985e-01 -3.787752e-03 1.913674e-01 4.399634e-02 -1.342878e-01 6.044958e-01 1.274198e-01 1.751943e-02 -4.428962e-02 -8.933093e-02 -1.189156e-01 -5.172617e-02 -9.712878e-02 -5.857796e-02 3.892580e-02 5.955504e-02 -2.780410e-02 -2.927589e-02 2.408698e-01
<VARIANCE> 39
 9.753788e+01 4.760265e+01 4.703510e+01 5.186117e+01 5.339330e+01 4.350800e+01 3.826481e+01 3.797386e+01 4.214204e+01 4.137771e+01 3.017536e+01 1.720635e+01 4.392391e+02 2.405224e+00 1.127563e+00 1.398187e+00 1.219803e+00 1.597275e+00 1.347375e+00 1.159798e+00 1.048232e+00 1.586183e+00 1.183025e+00 9.436916e-01 5.923080e-01 7.467792e+00 1.830273e-01 1.222329e-01 1.484234e-01 1.735114e-01 1.199640e-01 1.559866e-01 1.448564e-01 1.136870e-01 1.488850e-01 1.253065e-01 8.960386e-02 6.957354e-02 4.834293e-01
<GCONST> 1.019745e+02
<STATE> 3
<MEAN> 39
 1.008724e+01 3.162934e+00 -7.280504e+00 -9.323540e+00 -2.083368e+00 3.849912e+00 -2.180763e+00 -3.063510e+00 -1.272402e+00 2.312951e+00 3.094755e+00 -1.855320e-01 5.887881e+00 7.340114e-01 -5.653981e-01 -7.402397e-01 -3.253566e-01 2.149542e-01 1.500745e-01 -1.204806e+00 -3.371950e-01 7.918297e-01 8.673971e-01 -2.317236e-01 -4.471844e-01 1.659181e+00 -3.529572e-01 -3.170680e-01 1.584629e-01 5.207939e-01 2.453899e-01 -2.875558e-01 -6.181324e-02 1.660783e-01 2.010156e-01 -6.212290e-02 -2.364337e-01 -8.863329e-02 -2.189464e-01
<VARIANCE> 39
 1.986904e+01 3.477671e+01 5.311599e+01 3.549981e+01 4.821069e+01 4.417436e+01 3.756499e+01 3.757903e+01 4.645222e+01 5.153205e+01 3.839060e+01 2.663820e+01 4.082119e+01 1.377298e+00 1.550254e+00 1.896558e+00 2.941769e+00 2.298203e+00 1.882455e+00 1.442229e+00 1.389390e+00 2.141873e+00 1.623769e+00 1.330160e+00 1.047537e+00 2.671870e+00 1.000803e-01 1.290475e-01 1.857544e-01 1.880479e-01 2.438577e-01 2.327861e-01 2.044045e-01 1.627061e-01 1.987291e-01 2.183689e-01 1.814562e-01 1.432610e-01 1.892463e-01
<GCONST> 1.038639e+02
<STATE> 4
<MEAN> 39
 8.301453e+00 -4.010813e+00 -8.350552e+00 -2.626489e+00 3.581032e+00 -5.526848e-01 -8.838554e+00 -1.218767e+00 6.227751e+00 5.001508e+00 -2.194233e+00 -4.112447e+00 9.659600e+00 -4.010532e-01 -3.604776e-01 6.930184e-01 1.318154e+00 1.541588e-01 -1.133572e+00 -1.967982e-02 4.309915e-01 3.215933e-01 -5.494138e-01 -6.379909e-01 3.232479e-02 -3.366251e-02 -8.228837e-02 2.841595e-01 2.671989e-01 8.486732e-02 -2.054799e-01 -2.162482e-02 3.728245e-01 -2.908685e-03 -3.304928e-01 -2.628691e-01 1.844154e-01 2.287316e-01 -2.982669e-01
<VARIANCE> 39
 2.044922e+01 2.318763e+01 3.683506e+01 5.451352e+01 5.928468e+01 5.473167e+01 3.622240e+01 5.058723e+01 6.454060e+01 7.034321e+01 4.921540e+01 3.060915e+01 3.419751e+01 7.086782e-01 1.072269e+00 1.303835e+00 1.713979e+00 2.290623e+00 1.519679e+00 1.669612e+00 1.065972e+00 1.946683e+00 1.582290e+00 1.561845e+00 1.176527e+00 1.338158e+00 9.250291e-02 1.137634e-01 1.419049e-01 2.440216e-01 2.261253e-01 2.078843e-01 1.529775e-01 1.725775e-01 2.392130e-01 2.254014e-01 1.810952e-01 1.268457e-01 1.140523e-01
<GCONST> 1.012163e+02
<TRANSP> 5
 0.000000e+00 1.000000e+00 0.000000e+00 0.000000e+00 0.000000e+00
 0.000000e+00 7.513676e-01 2.486324e-01 0.000000e+00 0.000000e+00
 0.000000e+00 0.000000e+00 7.129740e-01 2.870260e-01 0.000000e+00
 0.000000e+00 0.000000e+00 0.000000e+00 7.516571e-01 2.483429e-01
 0.000000e+00 0.000000e+00 0.000000e+00 0.000000e+00 0.000000e+00
<ENDHMM>
~h "p"
<BEGINHMM>
<NUMSTATES> 5
<STATE> 2
<MEAN> 39
 -3.933400e+00 -5.463618e-01 -4.545504e+00 4.111439e+00 3.501838e+00 2.986457e-01 1.788604e+00 5.804738e-01 -1.384301e+00 -3.548429e-01 2.161145e+00 -1.272329e+00 -5.635550e+00 -1.875113e-01 -8.350260e-02 -7.512627e-02 1.640575e-01 2.155576e-01 1.830791e-01 6.549504e-02 -1.618695e-02 2.058237e-01 1.403120e-01 1.505307e-01 5.577495e-02 -5.755851e-01 2.647597e-02 -7.063856e-02 3.862988e-02 -7.483937e-02 -6.969517e-02 -3.430806e-02 -1.971854e-02 7.269187e-03 6.419306e-02 4.694507e-02 -1.594635e-02 1.101478e-02 1.834624e-01
<VARIANCE> 39
 6.705251e+01 5.110955e+01 2.598892e+01 4.994209e+01 5.159502e+01 4.736930e+01 4.053066e+01 3.520300e+01 6.012302e+01 3.764073e+01 2.475168e+01 2.558254e+01 5.131050e+01 8.305174e-01 6.438038e-01 5.385478e-01 7.144202e-01 7.935424e-01 7.110330e-01 7.183173e-01 7.245265e-01 7.644944e-01 5.889246e-01 5.263433e-01 4.834034e-01 1.058676e+00 9.042653e-02 7.220919e-02 7.076635e-02 9.353720e-02 8.222508e-02 1.050475e-01 9.970940e-02 8.790784e-02 1.165238e-01 9.063318e-02 6.203351e-02 6.094850e-02 1.030393e-01
<GCONST> 8.330787e+01
<STATE> 3
<MEAN> 39
 -2.079246e+00 -2.191323e+00 -3.521604e+00 3.509729e+00 2.867635e+00 2.260114e+00 1.469770e+00 8.610486e-01 1.567583e+00 6.063125e-01 1.726308e+00 4.576169e-03 -7.880198e+00 -2.851608e-01 -3.020617e-01 3.036910e-01 -1.365592e-01 -2.301818e-01 -1.505229e-01 1.595107e-01 1.647700e-01 5.319171e-01 4.580501e-01 1.940324e-01 -2.497919e-04 2.114804e-01 1.397805e-01 -7.773183e-02 5.967295e-02 -1.324197e-01 -1.338042e-01 -1.273047e-01 -7.773556e-02 1.060674e-01 5.717856e-02 -3.524544e-02 -1.147641e-01 -2.853491e-02 4.586958e-01
<VARIANCE> 39
 6.389444e+01 4.000255e+01 4.020493e+01 3.779957e+01 3.949759e+01 3.828449e+01 4.310099e+01 3.677083e+01 5.048019e+01 4.374289e+01 2.022838e+01 2.240965e+01 7.306422e+01 1.301156e+00 1.022735e+00 1.170993e+00 9.875482e-01 9.289531e-01 1.103507e+00 8.882639e-01 9.411362e-01 1.059081e+00 8.268064e-01 6.502733e-01 6.872592e-01 2.329252e+00 1.478854e-01 1.290583e-01 1.538205e-01 1.378334e-01 1.112549e-01 1.703749e-01 1.431354e-01 1.051940e-01 1.272193e-01 1.246765e-01 1.025599e-01 7.700213e-02 2.503433e-01
<GCONST> 9.348700e+01
<STATE> 4
<MEAN> 39
 -4.056859e+00 -2.639031e+00 -8.921030e-01 2.964303e+00 3.730280e+00 1.656944e+00 2.261794e+00 2.274988e+00 3.193180e+00 2.914235e+00 2.979755e+00 -1.267774e-01 -1.313946e+01 8.562578e-01 -2.522177e-01 -2.188596e-02 -3.641848e-01 -5.305321e-01 -2.359217e-01 -1.572458e-01 5.746675e-02 1.591492e-01 3.303958e-02 -4.979272e-01 -1.316790e-02 1.767889e+00 1.319441e-01 2.606252e-02 -2.840921e-02 -1.033824e-01 -5.924643e-02 -5.588393e-03 -8.875839e-02 1.543525e-02 -6.989059e-02 -1.093294e-01 -1.348536e-01 2.426719e-02 2.130918e-01
<VARIANCE> 39
 9.672232e+01 5.132527e+01 5.940407e+01 4.156447e+01 6.318036e+01 4.810386e+01 3.303285e+01 3.324674e+01 5.204204e+01 3.417004e+01 3.099839e+01 2.130833e+01 4.567813e+02 2.813860e+00 1.942222e+00 1.957649e+00 1.892499e+00 1.933271e+00 1.968953e+00 1.040516e+00 7.811340e-01 1.930392e+00 1.275556e+00 1.202220e+00 8.107210e-01 1.178055e+01 2.651272e-01 2.002955e-01 1.622147e-01 1.727149e-01 1.837049e-01 1.904050e-01 1.082252e-01 1.015480e-01 1.566823e-01 1.281646e-01 1.299915e-01 9.573233e-02 1.012294e+00
<GCONST> 1.079432e+02
<TRANSP> 5
 0.000000e+00 1.000000e+00 0.000000e+00 0.000000e+00 0.000000e+00
 0.000000e+00 6.818724e-01 3.181275e-01 0.000000e+00 0.000000e+00
 0.000000e+00 0.000000e+00 4.880663e-01 5.119336e-01 0.000000e+00
 0.000000e+00 0.000000e+00 0.000000e+00 6.832929e-01 3.167072e-01
 0.000000e+00 0.000000e+00 0.000000e+00 0.000000e+00 0.000000e+00
<ENDHMM>
~h "r"
<BEGINHMM>
<NUMSTATES> 5
<STATE> 2
<MEAN> 39
 -2.909911e+00 -8.512939e-01 3.293966e-01 3.447500e+00 1.719563e+00 1.315167e+00 1.972479e+00 2.371163e+00 1.815769e+00 1.858178e-01 3.079297e+00 6.717334e-01 -8.352746e+00 -1.410043e-01 -2.158828e-03 2.934463e-01 3.560583e-02 1.356407e-02 1.303109e-01 -1.070197e-01 1.017723e-01 1.094369e-01 8.255143e-02 2.306189e-01 3.982979e-02 -4.700660e-01 8.037388e-02 -1.798524e-02 -1.488619e-02 -7.845075e-02 -5.673471e-02 -4.905589e-02 -5.705235e-02 -2.615920e-02 -2.774205e-02 1.771185e-02 -5.980939e-02 -2.718160e-02 8.230137e-02
<VARIANCE> 39
 6.278653e+01 4.175999e+01 4.186056e+01 5.200357e+01 6.538203e+01 4.602793e+01 4.727493e+01 3.436649e+01 4.487839e+01 4.599817e+01 3.904007e+01 2.246009e+01 3.808371e+02 1.141253e+00 7.680036e-01 8.079362e-01 7.795577e-01 1.090146e+00 9.555660e-01 8.841441e-01 1.060887e+00 1.101480e+00 9.025841e-01 7.507530e-01 4.761575e-01 1.485316e+00 1.054911e-01 7.018618e-02 6.800491e-02 9.212191e-02 1.097498e-01 9.150601e-02 9.687710e-02 1.095476e-01 1.176155e-01 9.923562e-02 8.161865e-02 6.490240e-02 9.818321e-02
<GCONST> 9.059490e+01
<STATE> 3
<MEAN> 39
 4.339510e-01 -2.678225e+00 2.345209e+00 1.521991e+00 -2.432610e+00 -8.159370e-01 1.670752e-01 2.910046e+00 2.683864e+00 -9.174960e-02 1.001782e+00 8.109985e-01 3.501377e+00 2.356252e-01 -1.734177e-01 4.771529e-01 -1.006487e-01 -4.167157e-01 -1.722664e-02 -4.374333e-01 -2.782289e-04 -1.174847e-01 1.213500e-01 1.459834e-01 -1.304311e-01 1.556392e-01 1.070120e-01 -7.459888e-03 -1.064604e-01 -2.013691e-01 -7.391127e-02 -9.050780e-02 -5.888042e-02 -4.337415e-02 -4.808363e-02 3.627653e-02 -1.446150e-01 -6.177857e-02 1.937270e-01
<VARIANCE> 39
 3.240248e+01 3.039162e+01 4.255727e+01 3.823545e+01 5.501668e+01 4.399906e+01 4.405726e+01 3.712006e+01 5.418028e+01 3.464607e+01 3.478925e+01 2.412610e+01 1.206107e+02 6.731660e-01 7.961493e-01 1.322848e+00 7.183463e-01 1.282955e+00 1.181712e+00 1.231753e+00 1.515157e+00 1.501952e+00 1.216859e+00 1.077633e+00 6.602568e-01 1.333383e+00 6.649873e-02 8.507998e-02 1.129157e-01 1.009985e-01 1.709533e-01 1.318970e-01 1.371000e-01 1.580922e-01 1.732893e-01 1.207501e-01 1.273398e-01 1.156487e-01 9.909617e-02
<GCONST> 9.346530e+01
<STATE> 4
<MEAN> 39
 7.119435e-01 -3.149876e+00 1.988480e+00 1.576670e+00 -2.856990e+00 -5.553845e-01 3.856618e-01 3.582173e+00 2.995697e+00 -9.633021e-01 1.867493e-01 2.444699e-02 3.406918e+00 5.009747e-01 -2.021976e-01 1.054572e-01 -4.106551e-01 -5.984345e-01 -2.602594e-01 -4.858309e-01 -4.689296e-02 4.051820e-03 8.043424e-02 -3.119946e-01 -1.692636e-01 1.116086e+00 4.584016e-02 2.187363e-02 -1.341611e-01 -1.062353e-01 2.147754e-02 -6.739531e-03 2.284716e-02 -8.000339e-02 -4.232676e-02 2.345915e-02 -7.425484e-02 5.806020e-03 7.254051e-02
<VARIANCE> 39
 4.846043e+01 4.317857e+01 5.762173e+01 4.687864e+01 7.123694e+01 5.382058e+01 5.676175e+01 4.753354e+01 5.948777e+01 4.464877e+01 4.499534e+01 2.730961e+01 1.955337e+02 1.316266e+00 1.449486e+00 2.039662e+00 1.318111e+00 2.220850e+00 1.699999e+00 1.939225e+00 1.605151e+00 1.794080e+00 1.478144e+00 1.518645e+00 9.281399e-01 4.359192e+00 1.421429e-01 1.528704e-01 1.713468e-01 1.508650e-01 2.255529e-01 1.860741e-01 1.732614e-01 1.478531e-01 1.812840e-01 1.385995e-01 1.703281e-01 1.108634e-01 3.164608e-01
<GCONST> 1.074169e+02
<TRANSP> 5
 0.000000e+00 1.000000e+00 0.000000e+00 0.000000e+00 0.000000e+00
 0.000000e+00 6.208252e-01 3.791748e-01 0.000000e+00 0.000000e+00
 0.000000e+00 0.000000e+00 2.675709e-01 7.324291e-01 0.000000e+00
 0.000000e+00 0.000000e+00 0.000000e+00 5.189798e-01 4.810202e-01
 0.000000e+00 0.000000e+00 0.000000e+00 0.000000e+00 0.000000e+00
<ENDHMM>
~h "s"
<BEGINHMM>
<NUMSTATES> 5
<STATE> 2
<MEAN> 39
 -1.030928e+01 9.258354e+00 -3.242504e+00 3.869294e+00 -4.632929e-01 -6.435235e+00 4.503851e+00 -4.185867e-01 -2.687569e-01 2.170878e-01 2.131355e+00 -9.797939e-02 6.365679e+00 -2.265658e+00 1.211767e+00 -9.430761e-01 5.119960e-01 9.985209e-01 -1.700297e-01 6.559982e-01 1.099210e-01 -1.756870e-01 7.327469e-02 4.285065e-01 -1.436668e-01 -3.446034e-01 1.115232e-01 -2.761273e-01 1.365193e-01 -2.127505e-01 -6.685560e-02 4.039362e-02 -1.806587e-01 5.625986e-02 -8.258594e-03 -8.427018e-04 -6.255792e-02 2.253020e-02 2.602533e-02
<VARIANCE> 39
 6.765620e+01 4.824395e+01 6.989748e+01 4.671510e+01 8.190289e+01 6.150130e+01 5.738256e+01 4.646951e+01 5.170335e+01 5.032856e+01 3.811751e+01 3.221984e+01 4.102348e+01 9.414771e-01 1.046378e+00 1.009241e+00 1.696983e+00 1.499637e+00 1.523303e+00 1.398703e+00 1.374340e+00 1.304489e+00 1.122616e+00 1.388696e+00 9.332476e-01 3.178675e-01 1.531582e-01 1.268360e-01 9.987199e-02 1.191706e-01 1.359254e-01 1.345689e-01 1.385974e-01 1.321989e-01 1.199979e-01 9.865734e-02 1.134876e-01 9.425698e-02 2.975674e-02
<GCONST> 9.559896e+01
<STATE> 3
<MEAN> 39
 -1.889693e+01 9.395391e+00 -3.986055e+00 4.330661e+00 2.266947e+00 -4.950318e+00 5.197551e+00 5.994129e-01 -1.197089e+00 8.612881e-01 3.852144e+00 -1.250707e+00 4.238302e+00 2.925037e-01 -8.075484e-01 4.315045e-01 -2.934232e-01 -3.450150e-03 -1.212273e-01 -1.834065e-01 1.739939e-01 3.861736e-02 -2.348111e-01 -1.335202e-01 2.916492e-02 2.691054e-02 6.034200e-01 -1.696251e-01 1.305405e-01 -9.820339e-02 -1.961311e-01 -1.443416e-02 -1.476662e-01 -8.033392e-02 5.823052e-02 -4.688782e-02 -1.399259e-01 4.802877e-02 7.689386e-02
<VARIANCE> 39
 5.961118e+01 3.949586e+01 4.781523e+01 6.205236e+01 8.154388e+01 6.013795e+01 4.215269e+01 4.828597e+01 3.687150e+01 5.029202e+01 3.962357e+01 3.285281e+01 2.621524e+01 2.187697e+00 7.777405e-01 1.239596e+00 9.950957e-01 1.100992e+00 1.022696e+00 1.065221e+00 1.312016e+00 9.103222e-01 1.035726e+00 1.031906e+00 5.663489e-01 7.010729e-01 1.169685e-01 1.141853e-01 1.195482e-01 1.440347e-01 1.195693e-01 1.266497e-01 1.425528e-01 1.253270e-01 1.404549e-01 1.564047e-01 1.257276e-01 9.530716e-02 5.714447e-02
<GCONST> 9.406229e+01
<STATE> 4
<MEAN> 39
 -7.941002e+00 4.547280e+00 -2.130673e+00 9.867149e-01 1.959547e+00 -8.124989e+00 1.016933e+00 2.158133e+00 3.833029e-01 -1.386029e+00 8.575215e-01 2.880031e-01 5.478674e+00 2.575448e+00 -4.815580e-01 -2.741507e-02 -6.729162e-01 -5.851990e-01 3.132995e-01 -8.865389e-01 -4.251242e-01 2.001619e-01 1.481409e-01 -3.239367e-01 1.659653e-02 3.490870e-01 8.123096e-03 1.764803e-01 -1.241302e-01 -5.064159e-02 2.510361e-02 1.710790e-01 2.335092e-02 -1.322883e-01 -4.060157e-02 9.105545e-02 3.526315e-02 -1.287745e-02 1.735490e-03
<VARIANCE> 39
 7.486008e+01 3.743532e+01 6.196223e+01 4.273573e+01 6.762025e+01 5.355310e+01 6.281740e+01 5.717474e+01 5.095227e+01 5.134512e+01 4.699702e+01 2.210201e+01 3.700026e+01 1.863405e+00 1.498963e+00 2.039808e+00 2.211250e+00 2.098416e+00 1.520544e+00 1.571136e+00 1.880421e+00 2.012972e+00 2.371533e+00 1.873835e+00 1.181785e+00 1.358037e+00 2.156004e-01 1.129446e-01 1.017579e-01 1.237653e-01 1.133221e-01 1.029388e-01 2.021193e-01 1.606250e-01 1.588783e-01 1.780427e-01 1.343145e-01 8.642412e-02 8.000508e-02
<GCONST> 1.032299e+02
<TRANSP> 5
 0.000000e+00 1.000000e+00 0.000000e+00 0.000000e+00 0.000000e+00
 0.000000e+00 7.947250e-01 2.052750e-01 0.000000e+00 0.000000e+00
 0.000000e+00 0.000000e+00 8.112296e-01 1.887703e-01 0.000000e+00
 0.000000e+00 0.000000e+00 0.000000e+00 6.611686e-01 3.388315e-01
 0.000000e+00 0.000000e+00 0.000000e+00 0.000000e+00 0.000000e+00
<ENDHMM>
~h "t"
<BEGINHMM>
<NUMSTATES> 5
<STATE> 2
<MEAN> 39
 1.389236e+00 9.474864e-01 -3.139814e-01 3.763749e+00 7.309426e-01 -6.759165e-01 1.313166e+00 -1.214363e+00 -4.062694e-01 -1.326683e+00 1.031067e-01 4.073791e-01 -3.442883e+00 -5.546937e-01 -5.186728e-01 -4.535143e-01 6.180052e-02 2.062033e-01 1.134309e-01 3.404909e-01 3.278138e-01 3.029021e-01 3.041368e-01 4.239250e-01 -1.219517e-01 -1.374275e-01 -1.277574e-01 -5.219492e-02 8.641456e-02 -2.642586e-01 -1.479192e-01 -1.189939e-01 -3.939485e-03 4.810040e-02 4.460586e-02 2.862770e-02 -6.097208e-02 -2.117408e-02 5.666133e-01
<VARIANCE> 39
 4.057539e+01 5.652740e+01 7.432262e+01 4.192626e+01 5.533137e+01 5.494004e+01 5.855907e+01 5.359482e+01 5.054764e+01 4.321530e+01 3.211083e+01 2.542084e+01 6.769801e+01 1.221398e+00 1.158591e+00 1.138148e+00 1.243245e+00 1.092848e+00 1.563711e+00 1.178431e+00 1.310360e+00 1.505415e+00 1.092111e+00 8.535243e-01 7.696092e-01 2.572530e+00 1.749744e-01 1.492271e-01 1.374825e-01 1.103557e-01 1.591732e-01 2.450325e-01 2.028490e-01 1.660919e-01 1.997493e-01 1.474867e-01 1.230517e-01 1.039304e-01 2.186921e-01
<GCONST> 1.009536e+02
<STATE> 3
<MEAN> 39
 -5.407011e+00 -2.155552e+00 -9.344867e-01 8.390390e-01 1.893253e+00 -1.541947e+00 3.884730e+00 1.365465e+00 2.594669e+00 1.238167e+00 3.572611e+00 -2.623362e-01 1.641786e+00 7.635871e-02 -3.562779e-01 1.803038e-01 -1.018850e+00 -7.519116e-01 -7.172513e-01 -2.259724e-01 2.755798e-01 2.231589e-01 1.163803e-01 -3.441227e-01 -2.172786e-01 2.403179e+00 4.060889e-01 1.397856e-01 1.266758e-01 -1.685654e-01 -2.044716e-01 -4.319500e-02 -2.757519e-01 -1.060799e-01 -1.577745e-01 -8.612059e-02 -2.693949e-01 -1.368989e-02 2.088551e-01
<VARIANCE> 39
 4.328662e+01 4.186021e+01 4.287321e+01 3.456133e+01 4.645446e+01 4.975903e+01 4.223997e+01 3.977415e+01 4.241699e+01 5.232756e+01 3.823457e+01 2.739657e+01 1.079280e+02 1.874278e+00 1.948362e+00 2.302655e+00 1.457825e+00 1.855762e+00 2.004027e+00 2.916564e+00 2.757272e+00 3.148073e+00 1.859017e+00 1.461138e+00 9.604927e-01 2.520523e+00 1.281442e-01 1.629660e-01 1.707291e-01 1.357930e-01 1.403803e-01 1.665053e-01 1.660293e-01 2.099732e-01 1.903746e-01 1.997320e-01 1.520440e-01 1.273973e-01 2.808617e-01
<GCONST> 1.066988e+02
<STATE> 4
<MEAN> 39
 2.600911e-01 -8.353560e-01 8.759927e-01 -3.649208e+00 -3.159106e+00 -4.926108e+00 -4.885804e-01 3.756903e-01 2.252904e+00 -6.984148e-01 -1.399298e+00 -1.285545e+00 9.888165e+00 8.492688e-01 1.699591e-01 1.015259e-01 -8.826802e-01 -6.011768e-01 -1.185004e-01 -7.178055e-01 -1.594383e-01 -2.016596e-01 -1.499863e-02 -5.457476e-01 -2.026819e-01 1.310331e+00 1.474690e-01 1.262299e-01 6.191354e-03 8.214949e-02 7.209861e-02 2.432540e-01 -3.345832e-02 -1.100434e-01 -1.374249e-01 -1.848893e-02 -1.558611e-02 8.341551e-02 -3.984730e-01
<VARIANCE> 39
 3.397202e+01 4.925393e+01 5.124593e+01 4.630011e+01 4.268013e+01 5.394080e+01 7.432169e+01 5.225741e+01 6.607525e+01 4.905479e+01 3.751870e+01 2.545071e+01 5.559100e+01 2.087428e+00 2.249863e+00 2.552765e+00 2.072450e+00 1.580783e+00 1.452173e+00 2.331437e+00 2.864604e+00 2.754920e+00 1.951561e+00 1.540515e+00 1.091256e+00 2.372351e+00 1.225128e-01 1.603311e-01 1.509241e-01 1.636057e-01 1.526755e-01 1.916738e-01 2.983808e-01 1.966112e-01 2.039036e-01 1.568258e-01 1.266913e-01 1.215941e-01 2.522420e-01
<GCONST> 1.078572e+02
<TRANSP> 5
 0.000000e+00 1.000000e+00 0.000000e+00 0.000000e+00 0.000000e+00
 0.000000e+00 7.351256e-01 2.648744e-01 0.000000e+00 0.000000e+00
 0.000000e+00 0.000000e+00 5.971653e-01 4.028348e-01 0.000000e+00
 0.000000e+00 0.000000e+00 0.000000e+00 4.017394e-01 5.982605e-01
 0.000000e+00 0.000000e+00 0.000000e+00 0.000000e+00 0.000000e+00
<ENDHMM>
~h "u"
<BEGINHMM>
<NUMSTATES> 5
<STATE> 2
<MEAN> 39
 6.934480e+00 2.690531e+00 -4.180561e+00 -3.224332e+00 1.066614e+00 -2.079114e+00 -9.025926e+00 -5.080727e+00 -4.249961e-01 3.925915e+00 2.468607e+00 3.113229e-01 5.053834e+00 4.169165e-01 5.900956e-01 -4.642522e-01 -4.459451e-01 2.550171e-01 5.377368e-01 2.901846e-02 -5.300456e-01 -5.735275e-01 4.655007e-02 3.359937e-01 1.136056e-01 -4.866111e-01 -1.599675e-01 -4.410969e-02 1.657777e-01 1.679409e-01 -1.010240e-02 -2.016626e-03 3.494309e-01 1.690208e-01 -1.983752e-02 -2.118479e-01 -7.956215e-02 2.923940e-02 -1.647009e-01
<VARIANCE> 39
 2.154699e+01 2.357730e+01 3.976191e+01 3.609272e+01 3.406050e+01 5.194520e+01 4.984843e+01 3.611031e+01 5.084673e+01 4.337723e+01 4.024513e+01 2.920317e+01 3.610743e+01 6.263225e-01 5.726016e-01 1.010375e+00 1.171838e+00 1.051189e+00 9.932575e-01 1.718982e+00 9.912148e-01 1.322106e+00 1.217162e+00 9.593188e-01 7.331651e-01 5.993184e-01 6.614660e-02 7.623534e-02 1.025077e-01 1.204360e-01 1.308502e-01 1.519881e-01 1.783601e-01 1.144973e-01 1.781512e-01 1.409480e-01 1.336637e-01 1.051852e-01 5.842239e-02
<GCONST> 8.955444e+01
<STATE> 3
<MEAN> 39
 7.327120e+00 5.107671e+00 -5.059964e+00 -2.946064e+00 1.359804e+00 -3.291548e-01 -3.553998e+00 -3.493768e+00 -3.164989e+00 -1.928433e-01 2.800925e+00 9.528670e-01 -1.258597e+00 -4.088455e-01 1.789850e-02 3.574034e-01 5.044948e-01 9.959356e-02 4.613682e-02 5.662013e-01 2.856696e-01 1.284978e-02 -3.234416e-01 3.134238e-03 2.950910e-03 -9.621813e-01 -1.017691e-01 -1.065168e-01 5.598054e-02 9.933310e-02 1.030973e-02 -4.920228e-02 -1.258031e-02 6.517156e-02 7.945140e-02 1.510025e-02 -2.879879e-02 -2.960680e-02 2.310291e-02
<VARIANCE> 39
 3.238496e+01 3.160585e+01 4.402240e+01 5.366955e+01 3.747960e+01 5.050071e+01 4.720699e+01 3.845228e+01 4.727462e+01 4.993279e+01 4.300825e+01 3.013052e+01 6.883339e+01 6.671308e-01 7.265159e-01 6.977813e-01 9.293565e-01 1.004493e+00 1.107385e+00 9.150738e-01 7.762468e-01 9.199196e-01 9.054590e-01 6.901142e-01 6.379243e-01 5.841284e-01 4.363290e-02 5.274811e-02 6.715200e-02 8.634111e-02 9.074283e-02 1.099169e-01 1.063450e-01 9.699073e-02 1.160619e-01 9.852180e-02 7.788937e-02 7.625118e-02 4.439490e-02
<GCONST> 8.453872e+01
<STATE> 4
<MEAN> 39
 6.972245e-01 3.114252e+00 -2.081282e+00 5.573775e-01 2.408288e+00 -2.074021e-01 -7.176422e-01 -3.317867e+00 -3.073895e+00 -1.795544e+00 4.316279e-01 1.829966e+00 -3.991570e+00 -3.719035e-01 -1.064625e-01 7.785688e-02 2.759073e-01 1.629347e-01 4.374571e-02 1.726447e-01 1.367417e-01 5.474640e-02 -9.166235e-02 -3.558451e-02 1.749901e-02 -3.637984e-01 5.481018e-03 -3.765064e-02 5.552203e-03 -3.794654e-02 -1.404961e-02 -1.141669e-02 -4.586105e-02 1.443259e-04 2.380705e-02 4.330669e-02 1.928061e-02 -2.257091e-02 6.451380e-02
<VARIANCE> 39
 2.729425e+01 1.915895e+01 2.019602e+01 2.232370e+01 2.459457e+01 2.782464e+01 2.726868e+01 2.300668e+01 3.794464e+01 3.054644e+01 2.264684e+01 1.871365e+01 3.767957e+01 2.688159e-01 2.675577e-01 3.354957e-01 4.568366e-01 4.023172e-01 4.977133e-01 5.476931e-01 4.345561e-01 5.094284e-01 5.478964e-01 4.394785e-01 3.605692e-01 2.287603e-01 2.256660e-02 2.771279e-02 3.449325e-02 4.600519e-02 4.613059e-02 6.119395e-02 6.198179e-02 5.518064e-02 6.311925e-02 6.850538e-02 5.776695e-02 4.870794e-02 1.992010e-02
<GCONST> 6.100261e+01
<TRANSP> 5
 0.000000e+00 1.000000e+00 0.000000e+00 0.000000e+00 0.000000e+00
 0.000000e+00 7.113738e-01 2.886262e-01 0.000000e+00 0.000000e+00
 0.000000e+00 0.000000e+00 6.547678e-01 3.452322e-01 0.000000e+00
 0.000000e+00 0.000000e+00 0.000000e+00 8.439065e-01 1.560936e-01
 0.000000e+00 0.000000e+00 0.000000e+00 0.000000e+00 0.000000e+00
<ENDHMM>
~h "w"
<BEGINHMM>
<NUMSTATES> 5
<STATE> 2
<MEAN> 39
 7.604903e+00 -7.298169e-01 -7.175591e+00 -2.379948e+00 3.065166e+00 1.144071e+00 -1.989051e+00 -1.299443e+00 3.915689e-01 4.617038e-01 2.336985e-01 -1.344025e+00 4.688350e+00 6.959856e-01 -1.887594e-01 -5.138570e-01 -4.302098e-01 1.338058e-01 4.461153e-01 -2.711464e-01 -9.417160e-02 4.506353e-01 6.490815e-01 -2.355340e-02 -3.679953e-01 2.961841e-01 -1.252557e-01 -1.049388e-01 -1.262179e-02 -1.083195e-01 -2.260921e-02 -4.270752e-02 -4.144194e-02 1.375367e-01 1.460077e-01 -1.574641e-02 -1.853500e-01 6.378705e-03 2.298009e-01
<VARIANCE> 39
 5.109149e+01 6.973256e+01 5.033424e+01 5.996116e+01 4.018471e+01 5.684753e+01 4.970616e+01 4.545835e+01 5.700566e+01 4.896909e+01 5.406969e+01 3.581152e+01 4.410498e+01 9.560789e-01 1.111268e+00 1.135466e+00 1.551848e+00 1.123192e+00 1.490343e+00 1.189161e+00 1.010339e+00 1.620755e+00 1.199601e+00 1.364125e+00 8.863199e-01 1.816515e+00 1.041590e-01 1.322882e-01 1.208601e-01 2.107635e-01 1.811330e-01 1.837285e-01 1.889341e-01 1.603803e-01 2.031920e-01 1.654245e-01 2.009216e-01 1.131130e-01 1.449094e-01
<GCONST> 1.014287e+02
<STATE> 3
<MEAN> 39
 9.219083e+00 -2.701722e+00 -1.067245e+01 -5.967864e+00 5.002599e+00 4.162648e+00 -5.369546e+00 3.721300e-01 3.699790e+00 4.831686e+00 -1.882096e+00 -5.393669e+00 6.963787e+00 6.843213e-02 -1.563478e-01 -1.257642e-01 -1.542074e-01 -5.929098e-03 -1.230225e-01 5.063465e-02 3.145080e-01 3.122591e-01 -1.402306e-01 -3.827291e-01 -1.152940e-02 2.905641e-01 -2.137927e-01 -5.468183e-02 2.625219e-01 1.177201e-01 -1.544512e-01 -1.910731e-01 2.067134e-01 1.111893e-01 -7.890929e-02 -2.968574e-01 -6.431194e-02 2.171400e-01 6.269560e-02
<VARIANCE> 39
 3.620923e+01 4.707188e+01 5.656718e+01 4.537956e+01 3.032055e+01 7.059690e+01 4.678211e+01 3.756210e+01 5.141794e+01 3.621667e+01 5.068062e+01 3.331731e+01 3.970073e+01 9.243912e-01 1.594581e+00 1.061339e+00 1.275533e+00 1.306360e+00 1.605680e+00 1.690519e+00 1.345764e+00 2.013756e+00 1.196242e+00 2.403055e+00 9.313245e-01 1.144484e+00 6.468861e-02 1.164371e-01 9.232952e-02 1.582598e-01 1.403965e-01 1.285627e-01 1.498066e-01 1.231042e-01 1.423201e-01 1.418568e-01 1.656771e-01 1.056646e-01 1.292957e-01
<GCONST> 9.770921e+01
<STATE> 4
<MEAN> 39
 8.035329e+00 1.308290e-01 -8.238010e+00 -8.259353e+00 1.478365e+00 3.431175e+00 -2.050563e+00 -1.181572e+00 2.146169e+00 2.459856e+00 -1.600097e-01 -1.753563e+00 6.134275e+00 -1.545516e-01 -6.579332e-02 3.948708e-01 1.294581e-01 -3.300548e-01 -5.027179e-01 3.943704e-03 2.304385e-01 4.114602e-03 -1.557293e-01 -2.048706e-01 1.829917e-01 8.945834e-02 -6.662709e-02 -2.271850e-02 1.149511e-01 1.104338e-01 -3.467808e-02 -3.749978e-02 1.871975e-02 6.838156e-02 8.008022e-03 1.595829e-02 -2.723796e-02 -1.862187e-02 3.765351e-02
<VARIANCE> 39
 2.722431e+01 4.311340e+01 4.590864e+01 5.048813e+01 4.132424e+01 5.496085e+01 4.082494e+01 2.961405e+01 3.864112e+01 4.703415e+01 4.633661e+01 2.996098e+01 2.704476e+01 6.621081e-01 8.254729e-01 7.473469e-01 9.986684e-01 9.839090e-01 1.014139e+00 1.280563e+00 1.222250e+00 1.208243e+00 1.127060e+00 9.566871e-01 9.896750e-01 9.972073e-01 6.429818e-02 8.198059e-02 7.245333e-02 1.275253e-01 1.264379e-01 1.252377e-01 1.493338e-01 1.207605e-01 1.387159e-01 1.175367e-01 1.302443e-01 1.049750e-01 8.964480e-02
<GCONST> 9.024669e+01
<TRANSP> 5
 0.000000e+00 1.000000e+00 0.000000e+00 0.000000e+00 0.000000e+00
 0.000000e+00 5.338455e-01 4.661545e-01 0.000000e+00 0.000000e+00
 0.000000e+00 0.000000e+00 5.615376e-01 4.384624e-01 0.000000e+00
 0.000000e+00 0.000000e+00 0.000000e+00 6.716769e-01 3.283231e-01
 0.000000e+00 0.000000e+00 0.000000e+00 0.000000e+00 0.000000e+00
<ENDHMM>
~h "y"
<BEGINHMM>
<NUMSTATES> 5
<STATE> 2
<MEAN> 39
 -2.785882e+00 5.609739e+00 1.172395e+01 -6.787894e+00 -4.299880e+00 4.207497e-01 -4.687294e+00 -4.496270e+00 -2.073784e+00 -9.596586e-01 -8.462908e-01 -8.163323e-02 6.832828e+00 1.074169e-01 2.106490e-01 8.492059e-01 -6.492608e-01 -7.482285e-01 8.590870e-02 -2.539707e-01 -1.409795e-01 3.993457e-02 2.937502e-01 1.526320e-01 4.936680e-03 5.445400e-01 1.113550e-01 -2.115655e-01 -2.298153e-01 7.459820e-02 -9.456755e-02 -7.277408e-02 1.716132e-01 1.408043e-01 2.660612e-02 8.112003e-02 -1.032618e-02 -2.229840e-02 3.911376e-02
<VARIANCE> 39
 2.909986e+01 6.130589e+01 6.227899e+01 7.817548e+01 4.741942e+01 3.833496e+01 5.587167e+01 4.282978e+01 5.849081e+01 3.815366e+01 5.975908e+01 3.165972e+01 6.363652e+01 7.554938e-01 1.120918e+00 1.860067e+00 1.171244e+00 1.312210e+00 1.286024e+00 1.194701e+00 1.402665e+00 1.252634e+00 9.800187e-01 1.061854e+00 7.535889e-01 1.149163e+00 6.947620e-02 1.250561e-01 2.118625e-01 1.075914e-01 1.451061e-01 1.327590e-01 1.625067e-01 1.512788e-01 1.423875e-01 1.170376e-01 1.393980e-01 1.011239e-01 6.801944e-02
<GCONST> 9.689589e+01
<STATE> 3
<MEAN> 39
 -1.605017e+00 4.052532e+00 1.215707e+01 -1.097810e+01 -1.148908e+01 6.691990e-01 -7.436280e-01 -5.230848e+00 -1.529284e+00 3.759886e+00 2.867439e-01 -6.733345e-01 1.165099e+01 5.368795e-01 -1.168022e+00 -1.023553e+00 3.497611e-01 -5.930082e-01 -5.021080e-01 9.982354e-01 1.034906e+00 -1.407084e-01 1.283695e-01 1.551750e-01 -1.611080e-01 4.918343e-01 5.972516e-02 -1.271815e-01 -3.081246e-01 2.902151e-01 3.506880e-01 -1.498309e-01 -3.951010e-02 2.674869e-01 3.228030e-03 -2.161690e-01 -8.630795e-02 3.832467e-02 -1.000700e-01
<VARIANCE> 39
 2.651769e+01 4.800614e+01 5.889322e+01 8.040974e+01 4.505712e+01 4.863552e+01 5.876495e+01 6.658266e+01 7.189075e+01 3.484454e+01 6.566199e+01 3.442191e+01 3.989066e+01 4.317878e-01 1.284762e+00 1.124256e+00 1.335677e+00 1.066122e+00 1.631430e+00 1.722237e+00 1.378320e+00 1.790968e+00 1.221413e+00 9.862519e-01 1.044328e+00 6.903517e-01 4.646011e-02 1.095981e-01 1.385404e-01 1.326497e-01 1.782158e-01 1.552064e-01 1.922607e-01 1.452813e-01 1.595711e-01 1.266977e-01 1.374851e-01 1.095690e-01 6.545075e-02
<GCONST> 9.690032e+01
<STATE> 4
<MEAN> 39
 1.399777e+00 -3.404406e+00 5.332699e+00 -4.441817e+00 -8.933915e+00 -4.813690e+00 1.711223e+00 4.182738e+00 -3.493422e+00 -4.596620e-02 1.533861e-01 -6.592870e-03 1.233517e+01 6.193051e-01 -7.713693e-01 -1.638802e+00 9.025679e-01 1.128063e+00 -5.540699e-01 -2.760501e-01 9.821042e-01 4.466220e-01 -5.086128e-01 -4.007159e-01 8.812547e-02 -1.271511e-01 -1.973047e-02 2.363592e-01 6.009878e-02 8.112391e-03 2.559847e-01 2.034461e-01 -2.307284e-01 -3.370866e-01 7.456801e-02 4.338746e-02 -5.561928e-02 -2.982569e-02 -2.269390e-01
<VARIANCE> 39
 2.614129e+01 3.200707e+01 5.270161e+01 5.882990e+01 4.849988e+01 6.142046e+01 6.759452e+01 6.516962e+01 5.624583e+01 3.828976e+01 4.244012e+01 3.193191e+01 4.117406e+01 3.597380e-01 8.993459e-01 1.405648e+00 1.376723e+00 1.240299e+00 1.477153e+00 1.793253e+00 1.791863e+00 1.882984e+00 1.460023e+00 1.398966e+00 9.159696e-01 6.142036e-01 3.223229e-02 8.132289e-02 1.170365e-01 1.088578e-01 1.515772e-01 1.878658e-01 1.887079e-01 1.674169e-01 1.506709e-01 1.344588e-01 1.245675e-01 1.051194e-01 3.883712e-02
<GCONST> 9.471286e+01
<TRANSP> 5
 0.000000e+00 1.000000e+00 0.000000e+00 0.000000e+00 0.000000e+00
 0.000000e+00 7.201677e-01 2.798323e-01 0.000000e+00 0.000000e+00
 0.000000e+00 0.000000e+00 7.024634e-01 2.975366e-01 0.000000e+00
 0.000000e+00 0.000000e+00 0.000000e+00 6.773416e-01 3.226584e-01
 0.000000e+00 0.000000e+00 0.000000e+00 0.000000e+00 0.000000e+00
<ENDHMM>
~h "aa"
<BEGINHMM>
<NUMSTATES> 5
<STATE> 2
<MEAN> 39
 4.632212e+00 -7.933448e+00 -6.752426e+00 -3.159498e+00 1.177022e+00 2.282518e+00 -5.187255e-01 4.118971e+00 4.292337e+00 -1.050686e+00 -5.792577e+00 -1.925330e+00 1.170767e+01 1.781036e-01 -1.109942e+00 -1.006097e+00 -6.064036e-01 6.913936e-01 8.724130e-01 3.060406e-02 1.917471e-01 5.825666e-02 -4.726359e-01 -7.335130e-01 -8.452336e-02 1.207111e+00 -1.104639e-01 1.598427e-01 1.234659e-01 1.961647e-01 1.364028e-01 -4.446625e-02 -2.176921e-02 -1.645282e-01 -1.133872e-01 2.537246e-02 1.632156e-01 1.971888e-02 -2.292689e-01
<VARIANCE> 39
 2.525977e+01 3.770804e+01 5.055344e+01 5.658393e+01 6.828533e+01 6.033490e+01 5.256255e+01 5.457355e+01 9.783845e+01 6.426946e+01 4.407631e+01 3.216358e+01 4.460479e+01 8.257205e-01 1.052619e+00 1.317859e+00 1.326418e+00 1.474222e+00 1.543838e+00 1.402276e+00 1.387097e+00 1.532099e+00 1.412346e+00 1.306350e+00 9.401268e-01 1.244874e+00 7.460706e-02 9.987980e-02 1.245803e-01 1.331825e-01 1.648143e-01 1.881899e-01 1.381049e-01 1.688966e-01 1.585443e-01 1.580461e-01 1.345160e-01 8.856425e-02 9.977835e-02
<GCONST> 9.903253e+01
<STATE> 3
<MEAN> 39
 3.342756e+00 -9.876696e+00 -9.313486e+00 -2.313102e+00 7.022092e+00 4.015123e+00 -1.014195e+00 1.686480e+00 6.119924e-01 -3.703829e+00 -5.962164e+00 -1.808266e+00 1.333985e+01 -1.002463e-01 -7.421102e-02 3.708102e-02 1.263438e-01 1.527604e-01 -7.498942e-02 -2.098503e-02 4.316856e-02 -7.341230e-02 -1.814418e-01 -6.916746e-02 6.765940e-02 3.675386e-03 2.896961e-03 1.393846e-01 1.479195e-01 -3.042417e-04 -2.316234e-01 -1.395467e-01 6.249545e-02 4.313136e-02 5.577558e-03 2.918917e-02 4.607201e-02 3.348028e-02 -8.999726e-02
<VARIANCE> 39
 1.593065e+01 2.503783e+01 2.964740e+01 4.172960e+01 3.613433e+01 3.532499e+01 4.559432e+01 3.429690e+01 5.098235e+01 5.187870e+01 3.353617e+01 3.270440e+01 3.477787e+01 1.836115e-01 3.191912e-01 4.837931e-01 5.142834e-01 1.096779e+00 7.349101e-01 8.090449e-01 7.538108e-01 6.688420e-01 6.304520e-01 6.006819e-01 5.078154e-01 1.419168e-01 1.853691e-02 3.190047e-02 4.152995e-02 5.813080e-02 6.258816e-02 6.478334e-02 7.760414e-02 7.624629e-02 7.791346e-02 6.898075e-02 7.185623e-02 5.834267e-02 1.668555e-02
<GCONST> 6.988997e+01
<STATE> 4
<MEAN> 39
 3.408576e+00 -7.412640e+00 -6.554598e+00 -1.542916e+00 2.418601e+00 1.123363e+00 9.322163e-01 3.286257e+00 1.879122e+00 -3.807918e+00 -6.066523e+00 -8.269671e-01 9.664268e+00 -2.785839e-03 5.444891e-01 6.725301e-01 3.499864e-01 -5.516885e-01 -3.682850e-01 2.148047e-01 -1.844371e-01 -2.403573e-01 1.063728e-02 4.166003e-01 1.767946e-01 -8.395927e-01 1.191938e-02 4.526230e-02 2.865739e-02 3.029981e-02 7.508510e-02 6.118795e-02 -6.376982e-02 -1.042855e-01 -2.246862e-02 9.345770e-02 7.931006e-02 -4.224035e-02 -9.417965e-02
<VARIANCE> 39
 2.122071e+01 3.213618e+01 3.450616e+01 3.931786e+01 4.269897e+01 4.792235e+01 4.532159e+01 5.084625e+01 7.117777e+01 6.110323e+01 3.632013e+01 3.193204e+01 7.035992e+01 5.668638e-01 6.062493e-01 7.859061e-01 7.538801e-01 1.118560e+00 1.156305e+00 1.122861e+00 1.076696e+00 1.028835e+00 1.006704e+00 8.238587e-01 6.748143e-01 5.501236e-01 5.656602e-02 7.070225e-02 6.314009e-02 9.056067e-02 1.106736e-01 1.340809e-01 1.274111e-01 1.342390e-01 1.092802e-01 1.048708e-01 9.368058e-02 7.101601e-02 6.190743e-02
<GCONST> 8.694621e+01
<TRANSP> 5
 0.000000e+00 1.000000e+00 0.000000e+00 0.000000e+00 0.000000e+00
 0.000000e+00 7.311249e-01 2.688751e-01 0.000000e+00 0.000000e+00
 0.000000e+00 0.000000e+00 8.541789e-01 1.458211e-01 0.000000e+00
 0.000000e+00 0.000000e+00 0.000000e+00 8.209599e-01 1.790401e-01
 0.000000e+00 0.000000e+00 0.000000e+00 0.000000e+00 0.000000e+00
<ENDHMM>
~h "ai"
<BEGINHMM>
<NUMSTATES> 5
<STATE> 2
<MEAN> 39
 -6.608388e+00 -3.005401e-01 1.102070e+00 4.437846e+00 3.270478e+00 3.377264e+00 -2.260138e-01 4.439073e+00 5.214779e-01 1.696176e+00 3.152815e+00 -7.797908e-01 -2.120028e+01 4.505414e-02 1.261060e-01 1.717523e-01 -1.916158e-01 -8.096276e-02 1.981156e-01 1.652905e-01 -1.713355e-02 1.270109e-01 1.746929e-01 3.973709e-02 1.200522e-01 -3.147957e-01 8.856031e-02 5.725592e-02 4.730807e-02 1.156262e-02 -3.062670e-02 -4.897454e-02 -2.498036e-02 -1.374956e-01 -3.901707e-02 -1.273116e-02 -4.457642e-02 -1.933944e-02 2.109179e-01
<VARIANCE> 39
 7.297366e+01 3.408502e+01 3.425429e+01 3.709919e+01 5.474946e+01 4.343830e+01 3.316518e+01 4.192421e+01 4.339431e+01 4.023594e+01 3.113721e+01 1.495600e+01 5.411789e+02 1.472971e+00 6.296025e-01 6.924654e-01 6.574388e-01 8.050805e-01 1.335074e+00 6.506809e-01 9.249943e-01 1.554916e+00 7.557774e-01 9.198794e-01 5.349167e-01 4.102252e+00 2.032930e-01 7.093545e-02 5.244128e-02 7.625298e-02 7.672811e-02 1.656645e-01 1.142491e-01 1.747633e-01 1.657872e-01 7.592563e-02 1.262394e-01 6.821642e-02 6.744820e-01
<GCONST> 9.356004e+01
<STATE> 3
<MEAN> 39
 2.670897e+00 -6.247190e+00 -2.077694e-01 4.276896e-01 -6.331738e+00 1.381665e+00 1.823376e+00 3.121921e+00 7.662938e-01 -1.550434e+00 -4.908693e+00 3.750209e-01 1.102740e+01 -1.615467e-01 -9.987837e-02 5.834699e-01 -1.028354e+00 -1.086832e+00 -4.455448e-01 1.530038e-01 -5.734733e-01 -4.251429e-01 2.328064e-01 -2.724259e-01 8.578405e-02 1.683121e+00 -1.326025e-01 2.049904e-01 2.188491e-01 -2.009542e-01 1.259874e-01 -5.913066e-02 -1.834991e-01 -1.132382e-01 5.982117e-02 8.344925e-02 1.078099e-01 -1.663552e-02 -1.551111e-01
<VARIANCE> 39
 2.657269e+01 4.018689e+01 4.819578e+01 5.556825e+01 7.995726e+01 4.210127e+01 4.487103e+01 5.105702e+01 3.851588e+01 4.916533e+01 2.951538e+01 1.857854e+01 1.927673e+02 1.761868e+00 1.712656e+00 2.178455e+00 1.923040e+00 1.178205e+00 8.268017e-01 1.931650e+00 2.890443e+00 2.024713e+00 1.602299e+00 1.236738e+00 5.383469e-01 6.193748e+00 9.527652e-02 1.773344e-01 1.602570e-01 1.720164e-01 1.399932e-01 1.060141e-01 2.728454e-01 2.637272e-01 1.627910e-01 1.751424e-01 1.118649e-01 5.072512e-02 3.162708e-01
<GCONST> 1.039464e+02
<STATE> 4
<MEAN> 39
 -1.534833e-01 8.834068e-02 9.034289e+00 -6.716962e+00 -9.338582e+00 -3.613936e+00 -7.857572e-01 -1.952705e+00 -1.853890e+00 1.304767e+00 -1.994186e+00 9.105167e-01 1.023956e+01 -9.554759e-02 6.154728e-01 1.907454e-01 1.771376e-01 2.550811e-01 -3.985594e-02 -1.600310e-01 -5.007778e-01 -9.536995e-02 6.668419e-02 1.870348e-01 1.620868e-01 -5.949867e-01 4.890899e-02 -7.249579e-02 -1.500762e-01 1.266006e-01 8.582515e-02 5.526105e-02 2.560975e-02 9.218139e-02 4.634946e-02 -5.579508e-02 -1.285692e-02 4.084814e-03 -5.609012e-02
<VARIANCE> 39
 2.322335e+01 3.236651e+01 3.891818e+01 5.308108e+01 3.392774e+01 2.697153e+01 4.366949e+01 6.710387e+01 5.448351e+01 3.998166e+01 4.050481e+01 3.703041e+01 5.380372e+01 4.455057e-01 6.903583e-01 1.176657e+00 1.135779e+00 7.720158e-01 8.151942e-01 1.099273e+00 1.646777e+00 1.410089e+00 7.630017e-01 7.954059e-01 7.988984e-01 6.900623e-01 3.273172e-02 5.027463e-02 7.146176e-02 8.444499e-02 8.729185e-02 8.619089e-02 1.244951e-01 1.739977e-01 1.421727e-01 9.959038e-02 1.018037e-01 9.990315e-02 4.308767e-02
<GCONST> 8.597758e+01
<TRANSP> 5
 0.000000e+00 1.000000e+00 0.000000e+00 0.000000e+00 0.000000e+00
 0.000000e+00 7.253214e-01 2.746786e-01 0.000000e+00 0.000000e+00
 0.000000e+00 0.000000e+00 7.046371e-01 2.953629e-01 0.000000e+00
 0.000000e+00 0.000000e+00 0.000000e+00 9.257196e-01 7.428049e-02
 0.000000e+00 0.000000e+00 0.000000e+00 0.000000e+00 0.000000e+00
<ENDHMM>
~h "bb"
<BEGINHMM>
<NUMSTATES> 5
<STATE> 2
<MEAN> 39
 1.026460e+01 6.056536e+00 -1.070428e+01 -1.402970e+01 -1.704608e+00 -4.148139e-02 -2.993120e+00 -2.185662e+00 -2.313129e+00 1.841913e+00 2.502898e+00 7.150614e-02 2.543625e+00 -3.243782e-02 5.931106e-01 2.965297e-01 3.585214e-01 4.509010e-02 3.647399e-01 2.705441e-01 -2.969554e-01 -4.942573e-01 -2.585084e-01 8.729862e-02 -2.944558e-02 -6.896472e-01 -5.033011e-02 -1.053787e-02 1.396174e-01 2.871852e-01 7.064142e-02 1.946711e-02 1.331414e-02 -1.955047e-03 5.281521e-02 -4.030813e-02 -4.289435e-02 -8.339453e-02 -1.254237e-01
<VARIANCE> 39
 1.616972e+01 2.597296e+01 2.675926e+01 3.051215e+01 3.066419e+01 1.959801e+01 1.441587e+01 2.290818e+01 3.650673e+01 4.804643e+01 2.199500e+01 2.060322e+01 2.738654e+01 2.800442e-01 1.640167e-01 4.716619e-01 1.536330e+00 3.993056e-01 6.062186e-01 3.803827e-01 4.392242e-01 6.870214e-01 5.651956e-01 6.228758e-01 6.008282e-01 5.780376e-01 3.155671e-02 2.988999e-02 6.382028e-02 1.716131e-01 6.580042e-02 5.300971e-02 5.428574e-02 7.547954e-02 7.317241e-02 6.335991e-02 6.446446e-02 6.072153e-02 7.739232e-02
<GCONST> 6.831720e+01
<STATE> 3
<MEAN> 39
 8.635756e+00 3.842103e+00 -6.128344e+00 -8.026124e-01 2.581726e+00 3.989782e+00 -1.914722e+00 -2.788192e+00 -1.320595e+00 4.336326e-01 4.965507e-01 -2.220357e+00 -5.837612e-01 -1.089928e-01 2.596495e-01 5.222390e-01 1.619314e+00 5.570847e-01 2.765697e-01 8.389420e-01 -5.703823e-02 1.292187e-01 -2.560071e-01 2.513081e-01 -1.857463e-01 -1.026249e+00 -1.243708e-01 -1.067407e-01 -2.517521e-02 -1.838240e-01 -5.587913e-02 -5.784583e-02 -3.977313e-02 7.384584e-02 8.644116e-02 3.638157e-02 -4.936536e-02 3.968541e-02 1.433356e-01
<VARIANCE> 39
 2.590024e+01 6.899790e+01 2.178350e+01 6.172078e+01 2.912706e+01 3.737325e+01 5.107558e+01 2.496320e+01 3.352318e+01 2.667345e+01 2.617650e+01 2.097326e+01 4.137362e+01 6.296696e-01 4.536895e-01 5.721816e-01 7.532332e-01 6.774169e-01 1.004145e+00 5.616567e-01 7.509609e-01 9.836309e-01 4.735680e-01 5.424274e-01 7.558678e-01 2.720194e-01 3.641294e-02 5.569920e-02 4.685145e-02 1.098017e-01 3.433248e-02 6.351755e-02 9.561995e-02 6.723082e-02 9.879853e-02 5.426279e-02 4.823546e-02 7.014769e-02 4.384732e-02
<GCONST> 7.434866e+01
<STATE> 4
<MEAN> 39
 3.297678e+00 1.661350e+00 -3.487051e+00 -1.324726e+00 3.328879e+00 4.254151e+00 8.469614e-01 -1.863481e+00 -1.693042e+00 -1.130803e-01 1.346607e+00 -2.002712e+00 -8.306752e-01 -2.697002e-01 -1.940900e-01 5.001782e-02 3.635095e-02 1.872177e-02 -1.096355e-01 -9.228244e-02 1.768572e-01 1.401829e-01 1.144208e-01 2.572781e-02 -4.840304e-02 1.114787e-01 2.666706e-02 -8.615751e-02 -3.786786e-02 -1.443228e-01 -9.280623e-02 -7.461014e-02 -9.225094e-02 3.278945e-02 6.806406e-02 7.315944e-02 -5.996919e-02 -1.241475e-02 1.761068e-01
<VARIANCE> 39
 1.882227e+01 4.173989e+01 1.667207e+01 4.550222e+01 2.803367e+01 3.301739e+01 2.113256e+01 1.812554e+01 3.406153e+01 1.956756e+01 3.060222e+01 2.698593e+01 1.691938e+01 3.147047e-01 5.161638e-01 4.666469e-01 9.671412e-01 5.606526e-01 7.128708e-01 5.452312e-01 4.281809e-01 4.383588e-01 3.669183e-01 6.199639e-01 6.071419e-01 5.275683e-01 4.476298e-02 7.098092e-02 7.307217e-02 1.265461e-01 8.874387e-02 9.377069e-02 5.753830e-02 5.460883e-02 7.441982e-02 7.524122e-02 1.176904e-01 6.952785e-02 8.103553e-02
<GCONST> 7.188123e+01
<TRANSP> 5
 0.000000e+00 1.000000e+00 0.000000e+00 0.000000e+00 0.000000e+00
 0.000000e+00 8.245540e-01 1.754460e-01 0.000000e+00 0.000000e+00
 0.000000e+00 0.000000e+00 7.490283e-01 2.509717e-01 0.000000e+00
 0.000000e+00 0.000000e+00 0.000000e+00 8.763143e-01 1.236857e-01
 0.000000e+00 0.000000e+00 0.000000e+00 0.000000e+00 0.000000e+00
<ENDHMM>
~h "bh"
<BEGINHMM>
<NUMSTATES> 5
<STATE> 2
<MEAN> 39
 -8.791098e+00 -4.451079e+00 -2.669618e+00 3.487483e+00 5.945621e+00 4.221714e+00 3.611674e+00 6.057370e+00 4.562933e+00 3.051604e+00 2.340214e+00 1.825136e+00 -1.756318e+01 9.297753e-02 -2.610055e-01 -2.821344e-01 -5.594298e-03 8.092161e-02 -3.346300e-01 2.347811e-01 3.694664e-02 2.773221e-01 -6.449318e-02 -3.175488e-01 3.227002e-02 1.176259e+00 1.477136e-01 2.902068e-03 4.658274e-02 -1.600444e-01 -1.782579e-01 -1.414842e-01 4.708896e-03 -8.081506e-02 -3.708542e-02 -3.866893e-02 -1.158662e-01 -5.370365e-02 3.147593e-01
<VARIANCE> 39
 1.421934e+02 8.286123e+01 4.673529e+01 5.238489e+01 6.568094e+01 7.158614e+01 5.705153e+01 4.029354e+01 3.730424e+01 3.164870e+01 4.795999e+01 1.842783e+01 4.975954e+02 3.686656e+00 1.838392e+00 1.738091e+00 1.796834e+00 1.700801e+00 3.124589e+00 1.680223e+00 1.053528e+00 9.672616e-01 1.910771e+00 1.421850e+00 4.401717e-01 1.296275e+01 2.556509e-01 2.961817e-01 1.494993e-01 3.174676e-01 2.181767e-01 3.790414e-01 2.443472e-01 1.328908e-01 9.461126e-02 1.703369e-01 1.700652e-01 4.905569e-02 1.100229e+00
<GCONST> 1.127526e+02
<STATE> 3
<MEAN> 39
 6.370762e+00 -6.029573e+00 -3.059429e+00 1.808434e+00 -5.385131e-04 -2.747599e+00 1.192869e+00 4.305969e+00 3.995707e+00 -3.344346e+00 -6.735706e+00 -3.519716e+00 1.099895e+01 3.027391e-02 3.033253e-01 1.450451e+00 -6.549949e-01 -1.250237e+00 -1.891740e-01 -2.356020e-01 -2.896487e-01 -7.433584e-01 4.317781e-01 -1.044348e-04 -1.119325e-01 6.772730e-01 -2.081972e-01 5.985769e-02 1.341099e-01 -1.612339e-01 5.325620e-02 2.108693e-01 -4.918915e-02 -1.391103e-01 -4.922268e-02 1.022877e-01 4.797546e-02 3.319181e-02 -7.658817e-02
<VARIANCE> 39
 2.608942e+01 3.950602e+01 7.976894e+01 5.100883e+01 9.850272e+01 5.122521e+01 2.283491e+01 4.329565e+01 6.168913e+01 9.637164e+01 5.130342e+01 2.095597e+01 7.563464e+01 2.104996e+00 1.743852e+00 1.911803e+00 3.560913e+00 3.557256e+00 2.357580e+00 8.830969e-01 3.603670e+00 2.520798e+00 1.091652e+00 2.026059e+00 6.329738e-01 2.554655e+00 1.121888e-01 1.707807e-01 1.794636e-01 1.995981e-01 5.412023e-01 3.552204e-01 1.519300e-01 3.266640e-01 2.534786e-01 1.640009e-01 1.704067e-01 8.706190e-02 5.926489e-01
<GCONST> 1.111965e+02
<STATE> 4
<MEAN> 39
 4.753377e+00 -7.410051e-01 7.027329e+00 -4.282304e+00 -3.483202e+00 -3.315379e-01 2.802140e+00 -4.170951e+00 -4.292638e+00 2.131713e+00 -7.111084e+00 -4.085840e+00 1.007577e+01 5.257311e-02 1.741109e-01 8.432578e-02 7.527924e-02 2.690514e-01 5.549425e-02 -3.251368e-01 -6.695139e-01 -4.544809e-01 -3.576715e-01 -2.427971e-01 -2.012426e-01 -1.968376e-01 -5.140349e-03 -6.129567e-02 -1.796297e-01 1.517073e-01 9.740070e-02 9.347292e-02 -7.879465e-02 9.745671e-02 1.398449e-01 -1.824842e-01 7.473275e-02 -3.272839e-02 -3.517924e-02
<VARIANCE> 39
 2.750080e+01 1.497521e+01 3.766200e+01 7.676805e+01 2.475227e+01 5.882252e+01 4.433434e+01 6.717065e+01 3.943995e+01 4.752795e+01 6.212446e+01 5.765894e+01 5.863351e+01 9.233009e-01 1.344746e+00 1.520967e+00 3.673029e+00 1.111085e+00 1.780102e+00 6.726103e-01 2.188453e+00 1.158212e+00 2.258987e+00 2.067172e+00 7.803401e-01 1.218459e+00 8.242448e-02 8.108123e-02 1.458465e-01 3.762219e-01 2.110621e-01 2.903459e-01 5.666785e-02 2.371126e-01 1.176930e-01 1.574134e-01 2.058538e-01 1.357872e-01 9.811093e-02
<GCONST> 1.004832e+02
<TRANSP> 5
 0.000000e+00 1.000000e+00 0.000000e+00 0.000000e+00 0.000000e+00
 0.000000e+00 8.704360e-01 1.295640e-01 0.000000e+00 0.000000e+00
 0.000000e+00 0.000000e+00 8.025855e-01 1.974146e-01 0.000000e+00
 0.000000e+00 0.000000e+00 0.000000e+00 7.478029e-01 2.521971e-01
 0.000000e+00 0.000000e+00 0.000000e+00 0.000000e+00 0.000000e+00
<ENDHMM>
~h "dd"
<BEGINHMM>
<NUMSTATES> 5
<STATE> 2
<MEAN> 39
 3.141379e+00 6.311174e+00 8.062034e+00 4.547019e+00 -5.649547e+00 -2.341842e+00 1.344489e+00 -3.475578e+00 -2.110974e+00 9.916589e-01 1.089468e+00 -3.679385e-01 -2.173656e+00 1.073228e-02 5.448903e-01 -5.532568e-01 6.895418e-01 1.151693e+00 6.687424e-01 2.097999e-01 9.305201e-02 2.277626e-01 -4.069311e-01 -3.416775e-01 -2.903418e-01 -9.228623e-01 -1.327673e-01 -7.194236e-02 -2.056426e-02 -1.669185e-01 1.218812e-02 -2.771107e-02 -9.074334e-03 -4.459474e-02 -4.652604e-02 4.598735e-02 3.988234e-02 1.572420e-02 1.174728e-01
<VARIANCE> 39
 9.577422e+00 2.463302e+01 2.346079e+01 1.997228e+01 2.919637e+01 9.363333e+01 2.332040e+01 4.305244e+01 3.483257e+01 2.927825e+01 2.751182e+01 3.010570e+01 2.199200e+01 2.305951e-01 3.894515e-01 6.396811e-01 5.472760e-01 6.714059e-01 8.054157e-01 9.936813e-01 6.897517e-01 7.060624e-01 5.604354e-01 7.297343e-01 4.617092e-01 2.485537e-01 2.893565e-02 3.381849e-02 4.537739e-02 7.417635e-02 6.080830e-02 1.663738e-01 7.368416e-02 8.389914e-02 6.315892e-02 7.228801e-02 6.643401e-02 4.772902e-02 4.522092e-02
<GCONST> 7.045135e+01
<STATE> 3
<MEAN> 39
 7.226589e-01 6.443974e+00 5.472990e+00 6.371852e+00 1.394370e+00 -1.190240e+00 2.056101e+00 -3.606290e+00 -4.100019e+00 -1.118284e+00 1.487378e+00 3.527905e-01 -5.386915e+00 -4.076011e-01 -2.381164e-01 -6.085219e-01 -4.629710e-02 6.777338e-01 1.408969e-01 4.379489e-02 2.205623e-02 1.775238e-01 -1.047511e-01 2.326921e-03 1.292287e-02 -2.189281e-01 -5.482945e-02 -1.698550e-01 -4.720561e-03 -1.686848e-01 -1.954051e-01 -1.885030e-01 -4.943143e-02 1.083368e-01 1.405081e-01 4.093179e-02 5.504871e-02 4.178850e-02 2.753441e-01
<VARIANCE> 39
 1.009461e+01 2.035886e+01 2.136391e+01 1.800095e+01 2.934490e+01 2.966834e+01 2.297556e+01 2.659804e+01 4.445527e+01 3.474157e+01 2.525144e+01 2.554417e+01 1.840925e+01 1.395662e-01 3.014811e-01 2.839677e-01 5.077031e-01 4.913678e-01 6.724203e-01 7.149528e-01 5.703011e-01 8.242003e-01 4.316994e-01 4.713072e-01 3.647398e-01 3.535106e-01 4.435536e-02 5.169536e-02 5.848319e-02 5.442226e-02 8.762044e-02 8.330096e-02 1.256234e-01 8.578798e-02 1.166774e-01 9.044824e-02 7.870547e-02 5.606133e-02 5.385074e-02
<GCONST> 6.774580e+01
<STATE> 4
<MEAN> 39
 -1.483518e+00 4.827085e+00 3.025603e+00 5.824934e+00 2.191090e+00 3.599095e-01 2.320508e+00 -2.216174e+00 1.883718e-02 1.281822e+00 2.608909e+00 -7.386387e-01 -7.977870e+00 -4.569359e-01 -1.148377e+00 -5.936804e-01 -8.965070e-01 -5.276102e-01 -9.893066e-01 -8.811828e-02 9.554390e-01 5.879983e-01 -1.569340e-01 1.581650e-02 2.850222e-01 1.945035e+00 1.279340e-01 -1.336801e-01 9.392535e-02 -2.520595e-01 -3.442239e-01 -1.285504e-01 -3.805505e-02 2.026116e-01 6.684442e-02 5.101288e-02 -1.379568e-01 5.777478e-02 4.339628e-01
<VARIANCE> 39
 3.947392e+01 4.569298e+01 4.386412e+01 3.549881e+01 4.740880e+01 5.835768e+01 3.341889e+01 4.357800e+01 3.324530e+01 4.310025e+01 2.692693e+01 2.746200e+01 2.077460e+02 1.372883e+00 1.290322e+00 1.655638e+00 1.285330e+00 1.834760e+00 2.336105e+00 2.189080e+00 2.314837e+00 1.730386e+00 1.552794e+00 1.062984e+00 1.017785e+00 4.090109e+00 1.547941e-01 1.499311e-01 1.283955e-01 1.681083e-01 1.537400e-01 2.096733e-01 2.150839e-01 2.063073e-01 1.233441e-01 1.683811e-01 1.121909e-01 1.091833e-01 3.611263e-01
<GCONST> 1.043811e+02
<TRANSP> 5
 0.000000e+00 1.000000e+00 0.000000e+00 0.000000e+00 0.000000e+00
 0.000000e+00 7.311385e-01 2.688615e-01 0.000000e+00 0.000000e+00
 0.000000e+00 0.000000e+00 7.596242e-01 2.403758e-01 0.000000e+00
 0.000000e+00 0.000000e+00 0.000000e+00 7.898786e-01 2.101214e-01
 0.000000e+00 0.000000e+00 0.000000e+00 0.000000e+00 0.000000e+00
<ENDHMM>
~h "dh"
<BEGINHMM>
<NUMSTATES> 5
<STATE> 2
<MEAN> 39
 4.631768e+00 1.802675e+00 6.543106e-01 3.921523e+00 3.010769e-01 1.515858e-01 3.002713e+00 -1.364263e+00 -6.381508e+00 -4.183371e+00 -3.049716e+00 -4.845978e+00 3.047672e+00 -6.575993e-01 3.449005e-01 7.198062e-01 1.188924e-01 -1.297895e-01 2.235526e-01 8.717794e-02 -4.267496e-01 3.569059e-02 1.055452e-01 -1.595990e-01 -1.939356e-01 6.395686e-02 -2.571185e-01 -6.680031e-02 2.718233e-03 -4.908453e-01 -1.618463e-01 -3.211513e-01 2.719410e-02 -8.923939e-02 2.816327e-01 6.265043e-02 3.660815e-04 1.885242e-01 2.958093e-01
<VARIANCE> 39
 5.081202e+01 4.892541e+01 2.973068e+01 3.532516e+01 5.273804e+01 2.104333e+01 2.888214e+01 3.493470e+01 4.272331e+01 6.896010e+01 2.283698e+01 3.307888e+01 7.577669e+01 1.643563e+00 7.059430e-01 1.183212e+00 2.864799e+00 1.060710e+00 1.456917e+00 6.104120e-01 1.283026e+00 1.292115e+00 1.248978e+00 6.431640e-01 1.048555e+00 1.189796e+00 1.667038e-01 2.082435e-01 1.456602e-01 1.830376e-01 1.078870e-01 1.277931e-01 1.555038e-01 1.659262e-01 1.765583e-01 1.580774e-01 1.029613e-01 1.445127e-01 1.658841e-01
<GCONST> 9.663360e+01
<STATE> 3
<MEAN> 39
 2.717447e-01 4.100463e+00 3.618857e+00 -5.465823e-01 -3.380298e+00 -2.318101e+00 8.728920e-01 -5.310723e+00 -3.387187e+00 -1.991378e+00 -3.487471e+00 -3.387185e+00 5.830848e+00 -7.844994e-01 -2.638358e-01 7.224095e-02 -8.510411e-01 -5.125890e-01 -2.383034e-01 -1.365918e-01 -4.508632e-01 2.936723e-01 -3.809166e-01 -1.784526e-01 6.057373e-01 9.035342e-01 1.010169e-01 -1.792185e-01 -1.168846e-01 -8.608967e-03 2.430294e-02 -4.286640e-02 -2.186493e-02 1.207438e-01 1.355957e-02 -6.863315e-03 4.967120e-02 5.842971e-02 3.629052e-02
<VARIANCE> 39
 4.619074e+01 4.632528e+01 2.995786e+01 4.337143e+01 5.770472e+01 1.912008e+01 2.505270e+01 5.953965e+01 2.303473e+01 3.028673e+01 3.723448e+01 2.051686e+01 8.158176e+01 5.359002e-01 2.094154e+00 1.034934e+00 1.340942e+00 1.869672e+00 6.758648e-01 1.444041e+00 1.058116e+00 5.247971e-01 1.024222e+00 1.028953e+00 8.357788e-01 1.606160e+00 8.498800e-02 1.937016e-01 8.748761e-02 1.525505e-01 1.604351e-01 1.582332e-01 8.838812e-02 1.187054e-01 9.284981e-02 1.398209e-01 1.258596e-01 5.389721e-02 1.950215e-01
<GCONST> 9.159399e+01
<STATE> 4
<MEAN> 39
 2.943524e+00 -1.280177e+00 2.624418e+00 -8.600044e+00 -8.854943e+00 -9.386032e-01 -2.650317e+00 -2.782882e+00 -5.225926e+00 -5.890210e+00 -3.232646e+00 9.606655e-01 7.439724e+00 -8.906435e-02 2.140004e-02 -3.267258e-03 -2.412327e-01 -1.249946e-01 1.060199e-01 -1.003934e-01 -1.061460e-02 1.557603e-01 -1.006477e-01 2.317156e-02 1.725461e-01 -3.057618e-02 -5.878677e-03 4.710713e-03 1.268901e-02 3.315372e-02 2.150683e-02 -2.225978e-02 6.744269e-03 2.284190e-02 -1.630039e-02 3.010372e-02 3.775863e-02 -1.699345e-02 -2.012445e-02
<VARIANCE> 39
 1.120451e+01 3.403885e+01 2.698262e+01 5.485025e+01 4.189725e+01 2.939714e+01 7.193990e+01 2.161223e+01 3.673777e+01 2.064709e+01 2.802039e+01 1.587871e+01 1.911810e+01 1.637992e-01 6.512607e-01 3.910048e-01 8.977261e-01 1.144493e+00 8.123443e-01 1.320503e+00 6.151249e-01 1.077949e+00 6.804045e-01 9.348054e-01 5.881219e-01 3.222857e-01 1.318732e-02 5.496519e-02 5.320263e-02 8.961019e-02 1.358937e-01 1.028601e-01 1.152830e-01 8.593546e-02 1.132132e-01 8.377325e-02 1.159648e-01 6.295937e-02 3.496777e-02
<GCONST> 7.506828e+01
<TRANSP> 5
 0.000000e+00 1.000000e+00 0.000000e+00 0.000000e+00 0.000000e+00
 0.000000e+00 6.235178e-01 3.764822e-01 0.000000e+00 0.000000e+00
 0.000000e+00 0.000000e+00 6.561722e-01 3.438278e-01 0.000000e+00
 0.000000e+00 0.000000e+00 0.000000e+00 8.679759e-01 1.320241e-01
 0.000000e+00 0.000000e+00 0.000000e+00 0.000000e+00 0.000000e+00
<ENDHMM>
~h "dx"
<BEGINHMM>
<NUMSTATES> 5
<STATE> 2
<MEAN> 39
