~o
<STREAMINFO> 1 39
<VECSIZE> 39<NULLD><MFCC_D_A_Z_0><DIAGC>
~h "a"
<BEGINHMM>
<NUMSTATES> 5
<STATE> 2
<MEAN> 39
 2.987509e+00 -3.260184e+00 -1.937563e+00 -2.653276e-01 -6.135573e-01 -8.899693e-01 7.890616e-01 2.665155e+00 7.081764e-01 -1.360104e+00 -2.028373e+00 -4.950905e-01 5.631093e+00 8.572396e-02 -7.578593e-02 -5.147092e-02 8.750238e-03 -3.375339e-02 1.506174e-02 1.974636e-02 6.013085e-02 3.860898e-02 -5.155768e-02 -3.938939e-02 -2.357090e-03 1.120115e-02 -1.097374e-02 4.942629e-02 3.600958e-02 1.148999e-02 -1.964811e-03 1.199499e-02 -1.947565e-02 -4.836490e-02 -1.387720e-02 2.457847e-02 3.140990e-02 -4.592124e-03 -5.159995e-02
<VARIANCE> 39
 3.581899e+01 4.879273e+01 5.579835e+01 5.320678e+01 6.392175e+01 5.680349e+01 5.582918e+01 5.468355e+01 7.105489e+01 5.239259e+01 4.401524e+01 2.890831e+01 1.052781e+02 8.427479e-01 1.219824e+00 1.241547e+00 1.341446e+00 1.529894e+00 1.325791e+00 1.387278e+00 1.417679e+00 1.504418e+00 1.180149e+00 1.082389e+00 7.468275e-01 2.128142e+00 8.732935e-02 1.196124e-01 1.158766e-01 1.427475e-01 1.644368e-01 1.484887e-01 1.582079e-01 1.636869e-01 1.689298e-01 1.371426e-01 1.301918e-01 9.034450e-02 1.895360e-01
<GCONST> 1.005250e+02
<STATE> 3
<MEAN> 39
 3.110872e+00 -3.279095e+00 -1.951632e+00 -2.937224e-01 -7.197251e-01 -8.225791e-01 7.415938e-01 2.600572e+00 7.265232e-01 -1.393091e+00 -1.994411e+00 -5.561450e-01 5.481270e+00 4.182374e-02 7.970305e-02 5.168176e-02 4.754851e-02 -1.607972e-02 3.103505e-02 -2.066210e-02 -6.225333e-02 -1.976230e-02 -4.545197e-03 4.436779e-02 -5.597994e-03 -1.509526e-01 -2.051788e-02 5.126826e-02 3.227846e-02 1.328123e-02 1.222372e-02 4.459444e-03 -1.749690e-02 -4.379475e-02 -1.926504e-02 1.771679e-02 2.854341e-02 -2.761080e-03 -5.178503e-02
<VARIANCE> 39
 3.482372e+01 4.721230e+01 5.538570e+01 5.125050e+01 6.418417e+01 5.548695e+01 5.469993e+01 5.304370e+01 7.190304e+01 5.243070e+01 4.296395e+01 2.876300e+01 1.093053e+02 8.571117e-01 1.127791e+00 1.164335e+00 1.273291e+00 1.417122e+00 1.310229e+00 1.383458e+00 1.337330e+00 1.536873e+00 1.156541e+00 1.050384e+00 7.314512e-01 1.987005e+00 8.324338e-02 1.159514e-01 1.111410e-01 1.431310e-01 1.566263e-01 1.434698e-01 1.515353e-01 1.548112e-01 1.677479e-01 1.352177e-01 1.264378e-01 8.759713e-02 1.735605e-01
<GCONST> 9.945473e+01
<STATE> 4
<MEAN> 39
 2.954177e+00 -3.020725e+00 -1.908814e+00 -1.706437e-01 -4.342749e-01 -6.778466e-01 5.923157e-01 2.167875e+00 6.332911e-01 -1.586428e+00 -1.879471e+00 -6.400300e-01 4.323761e+00 -5.808231e-02 2.169338e-01 1.298929e-01 8.681783e-02 3.474566e-02 3.323838e-02 -3.035206e-02 -1.407613e-01 -7.675620e-02 3.481184e-02 1.222891e-01 -1.381777e-03 -3.319697e-01 -2.453244e-02 2.687439e-02 1.045797e-02 -2.551765e-03 1.061064e-02 -3.738289e-03 -6.670523e-03 -1.608792e-02 -9.754756e-03 1.160864e-02 1.177345e-02 -1.106970e-03 -1.158954e-02
<VARIANCE> 39
 3.641186e+01 4.432499e+01 5.494270e+01 4.955823e+01 6.340955e+01 5.208000e+01 5.261798e+01 4.878905e+01 7.519141e+01 5.345405e+01 4.154963e+01 2.864515e+01 1.191104e+02 8.681737e-01 1.014961e+00 1.061335e+00 1.158585e+00 1.236884e+00 1.233932e+00 1.267548e+00 1.220016e+00 1.539000e+00 1.111926e+00 9.641351e-01 6.877964e-01 1.748360e+00 7.830427e-02 1.018465e-01 9.984425e-02 1.301099e-01 1.370118e-01 1.322085e-01 1.397164e-01 1.414607e-01 1.624221e-01 1.295317e-01 1.135645e-01 8.187473e-02 1.450270e-01
<GCONST> 9.713084e+01
<TRANSP> 5
 0.000000e+00 1.000000e+00 0.000000e+00 0.000000e+00 0.000000e+00
 0.000000e+00 5.179452e-01 4.820548e-01 0.000000e+00 0.000000e+00
 0.000000e+00 0.000000e+00 5.103746e-01 4.896254e-01 0.000000e+00
 0.000000e+00 0.000000e+00 0.000000e+00 6.367840e-01 3.632160e-01
 0.000000e+00 0.000000e+00 0.000000e+00 0.000000e+00 0.000000e+00
<ENDHMM>
~h "b"
<BEGINHMM>
<NUMSTATES> 5
<STATE> 2
<MEAN> 39
 3.758214e+00 2.428595e-01 -1.003135e+00 -7.148395e-01 -1.316663e-01 -3.894494e-01 -1.212037e+00 -9.434035e-01 -6.618546e-01 5.016909e-01 -2.196469e+00 -1.931071e-01 3.955427e+00 4.976878e-02 2.873787e-01 -1.079781e-01 -7.604080e-02 4.063388e-02 4.538718e-02 -1.572483e-01 -1.428302e-01 -1.929038e-01 -1.380945e-01 1.463532e-02 3.284368e-02 -3.483780e-02 -3.762969e-03 -6.384886e-03 4.619620e-02 -1.661903e-02 -3.651407e-02 -2.969186e-02 1.470434e-02 2.049715e-02 2.110104e-02 -9.829460e-03 4.913579e-02 -1.231356e-02 2.283442e-02
<VARIANCE> 39
 3.515079e+01 5.790127e+01 7.206615e+01 8.403834e+01 5.364602e+01 5.095664e+01 4.895205e+01 5.513317e+01 5.301712e+01 5.226681e+01 5.175077e+01 3.506713e+01 8.186376e+01 7.448301e-01 1.262273e+00 1.454975e+00 2.766951e+00 1.574651e+00 1.347530e+00 1.464038e+00 8.765031e-01 1.399917e+00 1.149948e+00 1.199593e+00 1.000578e+00 1.729172e+00 6.385288e-02 1.196221e-01 1.318325e-01 2.957627e-01 1.517673e-01 1.698639e-01 1.703127e-01 1.300104e-01 1.662280e-01 1.372509e-01 1.289489e-01 1.109553e-01 1.493615e-01
<GCONST> 1.016771e+02
<STATE> 3
<MEAN> 39
 3.494668e+00 1.029585e+00 -7.393007e-01 -7.375857e-01 -2.472714e-01 -1.893093e-01 -1.382549e+00 -1.254084e+00 -7.843342e-01 -1.666383e-01 -1.343773e+00 -6.889495e-02 3.574419e+00 4.876028e-02 1.557454e-01 1.485681e-02 1.223279e-02 3.651423e-02 -4.144780e-03 -2.314907e-02 -6.859367e-02 -5.144706e-02 -1.104648e-01 1.292484e-01 -1.613391e-02 -2.197257e-02 1.745073e-02 -4.993178e-02 3.450511e-02 -8.085968e-04 -3.173403e-02 -4.197064e-02 2.452391e-02 3.551408e-02 1.660360e-02 2.051777e-02 3.414117e-03 -1.885203e-02 3.558887e-02
<VARIANCE> 39
 3.335456e+01 5.543807e+01 7.783900e+01 7.904997e+01 5.348200e+01 5.346229e+01 4.874433e+01 4.779144e+01 5.226592e+01 4.645246e+01 4.375162e+01 3.701439e+01 8.417915e+01 7.133241e-01 1.412930e+00 1.341902e+00 2.087954e+00 1.499194e+00 1.233800e+00 1.336137e+00 9.135227e-01 1.323609e+00 1.096974e+00 9.262836e-01 8.958871e-01 1.669461e+00 5.870960e-02 1.260704e-01 1.327369e-01 2.320776e-01 1.490181e-01 1.558389e-01 1.602302e-01 1.152843e-01 1.394187e-01 1.189985e-01 1.116071e-01 1.027015e-01 1.409989e-01
<GCONST> 9.913820e+01
<STATE> 4
<MEAN> 39
 3.873064e+00 1.442261e+00 -9.143124e-02 1.340209e-01 2.972392e-01 -3.768457e-01 -9.207233e-01 -1.636877e+00 -8.352531e-01 -2.588221e-01 -7.042518e-01 -4.708263e-02 2.935409e+00 6.669742e-02 3.541419e-03 3.367329e-02 1.015791e-01 2.957321e-03 -5.866544e-02 9.866634e-03 9.345796e-03 -6.589265e-03 1.045305e-02 8.114146e-02 -6.528544e-02 3.844628e-02 -2.180925e-03 -6.868415e-02 -2.357819e-03 -8.792754e-03 -4.084916e-02 -1.577438e-02 1.403792e-04 3.697851e-02 1.388177e-02 3.579809e-02 -2.342246e-02 -2.258919e-02 4.462168e-02
<VARIANCE> 39
 3.474750e+01 4.884719e+01 7.652673e+01 7.211822e+01 5.681767e+01 4.836815e+01 4.939660e+01 4.412178e+01 5.536480e+01 4.411595e+01 3.617185e+01 3.256902e+01 7.896136e+01 6.657768e-01 1.425653e+00 1.225410e+00 1.556363e+00 1.398273e+00 1.152533e+00 1.185324e+00 1.017386e+00 1.257154e+00 1.002098e+00 8.139148e-01 7.305281e-01 1.596309e+00 5.629265e-02 1.060920e-01 1.235047e-01 1.671822e-01 1.379476e-01 1.293587e-01 1.451853e-01 1.121309e-01 1.269245e-01 1.099079e-01 9.940007e-02 7.714286e-02 1.257060e-01
<GCONST> 9.565207e+01
<TRANSP> 5
 0.000000e+00 1.000000e+00 0.000000e+00 0.000000e+00 0.000000e+00
 0.000000e+00 5.714465e-01 4.285535e-01 0.000000e+00 0.000000e+00
 0.000000e+00 0.000000e+00 5.360374e-01 4.639626e-01 0.000000e+00
 0.000000e+00 0.000000e+00 0.000000e+00 6.402178e-01 3.597822e-01
 0.000000e+00 0.000000e+00 0.000000e+00 0.000000e+00 0.000000e+00
<ENDHMM>
~h "c"
<BEGINHMM>
<NUMSTATES> 5
<STATE> 2
<MEAN> 39
 -2.290102e+00 2.944957e+00 1.716493e+00 -2.604023e+00 -5.499966e-01 -1.547877e+00 -2.744400e+00 -1.150434e+00 3.634350e-01 9.902196e-01 5.924149e-01 -1.480367e+00 2.668414e+00 -1.760253e-01 1.429982e-03 5.555513e-02 -2.953109e-01 -2.895919e-01 -1.622161e-02 4.070050e-03 1.873381e-01 2.409100e-01 9.905387e-02 -1.126151e-01 -2.540780e-01 1.093736e+00 7.702032e-02 -7.427690e-04 -4.363719e-03 3.975783e-03 -1.640964e-02 2.817168e-02 1.096465e-02 -3.576313e-02 -4.325951e-03 4.201529e-03 -7.596054e-03 4.134551e-04 2.129606e-02
<VARIANCE> 39
 1.460109e+02 5.565625e+01 6.968245e+01 6.493279e+01 6.697214e+01 5.131967e+01 8.721381e+01 7.686653e+01 5.852481e+01 5.022141e+01 4.914894e+01 2.964128e+01 1.661846e+02 5.421236e+00 1.730761e+00 2.025728e+00 2.333218e+00 2.084837e+00 2.037879e+00 2.570301e+00 2.246284e+00 2.525016e+00 1.703013e+00 1.431989e+00 1.013049e+00 5.074002e+00 6.255134e-01 1.850222e-01 1.852623e-01 2.474786e-01 2.393924e-01 2.444426e-01 2.918060e-01 2.356614e-01 2.425330e-01 2.171346e-01 1.633388e-01 1.366235e-01 4.857520e-01
<GCONST> 1.186573e+02
<STATE> 3
<MEAN> 39
 -1.233896e+00 1.213073e+00 8.953437e-01 -3.051869e+00 -1.699065e+00 -6.938455e-01 -8.152829e-01 9.000936e-01 1.669917e+00 5.422797e-01 -4.909483e-01 -2.069056e+00 7.119899e+00 2.120568e-01 -2.799546e-01 -1.857014e-01 -2.118106e-01 -2.138608e-01 9.007708e-02 1.613853e-01 7.798241e-02 7.715849e-02 4.850262e-02 -4.903563e-02 -1.555347e-01 6.782572e-01 1.050103e-01 -1.955076e-02 -3.655074e-02 3.622055e-02 7.274986e-03 -1.020019e-02 -1.714631e-02 -7.798705e-02 -5.927826e-02 -3.930595e-02 -6.632043e-03 4.964817e-02 -7.748304e-02
<VARIANCE> 39
 1.369007e+02 8.989049e+01 8.611883e+01 5.824330e+01 6.700255e+01 5.693517e+01 6.817610e+01 8.163755e+01 7.461894e+01 5.406221e+01 6.351482e+01 3.152588e+01 1.144151e+02 4.175440e+00 2.447607e+00 1.802864e+00 2.062246e+00 1.574587e+00 2.053766e+00 2.005472e+00 2.172761e+00 2.459513e+00 1.713856e+00 1.580278e+00 1.091411e+00 3.019828e+00 4.549310e-01 2.202562e-01 1.584871e-01 2.087423e-01 1.874242e-01 2.024886e-01 2.292201e-01 2.365948e-01 2.501208e-01 1.985714e-01 1.810211e-01 1.429767e-01 3.052879e-01
<GCONST> 1.167645e+02
<STATE> 4
<MEAN> 39
 3.886102e+00 -2.491544e+00 -2.023090e+00 -2.311970e+00 -1.051964e+00 2.476490e-01 -1.928134e+00 1.934805e+00 4.296543e+00 6.881060e-01 -1.256469e+00 -1.884370e+00 1.028795e+01 1.370719e-01 -5.022657e-02 -1.113199e-01 3.889269e-02 -1.885858e-01 -9.394909e-02 1.548172e-01 1.881622e-02 -1.460231e-01 -4.606000e-02 5.453389e-02 7.706999e-02 4.059730e-01 -3.354726e-03 4.539169e-02 2.108766e-02 3.962078e-02 2.499047e-02 -1.162936e-02 -3.438105e-02 -2.695056e-02 -6.079678e-02 4.004824e-03 2.015799e-02 4.102053e-02 -9.395067e-02
<VARIANCE> 39
 1.256697e+02 1.004931e+02 8.018267e+01 6.395053e+01 6.834843e+01 9.006329e+01 8.642035e+01 7.551028e+01 9.605280e+01 6.406236e+01 7.102583e+01 3.207358e+01 1.261226e+02 3.075697e+00 2.477699e+00 1.572762e+00 1.713478e+00 1.551004e+00 2.597023e+00 1.771022e+00 1.814730e+00 1.812160e+00 1.321920e+00 1.603655e+00 9.444522e-01 3.965314e+00 3.306831e-01 2.140854e-01 1.267987e-01 2.058822e-01 1.861934e-01 2.598445e-01 2.360758e-01 1.910771e-01 2.260265e-01 1.501352e-01 1.669436e-01 1.126492e-01 3.473192e-01
<GCONST> 1.158791e+02
<TRANSP> 5
 0.000000e+00 1.000000e+00 0.000000e+00 0.000000e+00 0.000000e+00
 0.000000e+00 8.668242e-01 1.331758e-01 0.000000e+00 0.000000e+00
 0.000000e+00 0.000000e+00 7.172767e-01 2.827233e-01 0.000000e+00
 0.000000e+00 0.000000e+00 0.000000e+00 8.682311e-01 1.317690e-01
 0.000000e+00 0.000000e+00 0.000000e+00 0.000000e+00 0.000000e+00
<ENDHMM>
~h "d"
<BEGINHMM>
<NUMSTATES> 5
<STATE> 2
<MEAN> 39
 3.055218e+00 -2.817132e-01 6.160653e-01 1.187053e+00 -4.754506e-01 -2.255304e+00 4.051462e-01 1.305661e+00 2.030755e-01 -7.960103e-01 -1.146522e+00 -1.102419e-01 3.671195e+00 -5.027607e-02 8.779319e-02 4.933697e-02 3.701721e-02 4.154857e-02 -1.741699e-01 -1.043010e-01 1.052638e-01 5.939721e-02 3.978167e-02 1.071714e-01 3.385925e-02 -4.001576e-02 -3.535396e-02 -1.264486e-02 -9.737913e-03 -6.018146e-02 -1.106994e-02 1.221346e-02 -3.836423e-02 -5.301596e-02 -1.007273e-02 1.345825e-02 -5.803489e-03 -1.011249e-02 4.096349e-02
<VARIANCE> 39
 3.398063e+01 4.608306e+01 4.947416e+01 4.626785e+01 5.041850e+01 6.041015e+01 6.633604e+01 5.363442e+01 5.482833e+01 4.461207e+01 4.244473e+01 2.701580e+01 8.154707e+01 7.462745e-01 1.104417e+00 1.053589e+00 1.215291e+00 1.267006e+00 1.450051e+00 1.557112e+00 1.374302e+00 1.310466e+00 1.101547e+00 1.011440e+00 6.925547e-01 1.506462e+00 8.586049e-02 1.177024e-01 9.805445e-02 1.464431e-01 1.561501e-01 1.893258e-01 1.766609e-01 1.592576e-01 1.379480e-01 1.311422e-01 1.165879e-01 8.967719e-02 1.722021e-01
<GCONST> 9.779750e+01
<STATE> 3
<MEAN> 39
 2.742454e+00 -9.601953e-02 7.153383e-01 1.000477e+00 -4.039839e-01 -2.779616e+00 -1.862965e-01 1.267933e+00 1.540500e-01 -7.824172e-01 -1.012250e+00 -1.047124e-01 3.892113e+00 -1.158775e-01 4.950640e-02 1.115937e-02 -9.984329e-02 -1.268762e-02 -1.060385e-01 -1.938637e-01 -4.923803e-02 2.690161e-02 7.696672e-02 9.061617e-02 1.258313e-02 2.993122e-02 -1.775727e-02 -3.516564e-03 -8.415093e-03 -4.777614e-02 -1.471313e-02 4.543637e-02 -1.284178e-02 -5.413572e-02 -1.210829e-02 1.567176e-02 -4.274239e-03 -1.158628e-02 1.375435e-02
<VARIANCE> 39
 3.203851e+01 4.226137e+01 4.749407e+01 4.403034e+01 5.147145e+01 6.062641e+01 7.146741e+01 5.149086e+01 5.405094e+01 4.503834e+01 4.203673e+01 2.689292e+01 8.662499e+01 7.487360e-01 1.016900e+00 1.084640e+00 1.235040e+00 1.306309e+00 1.490880e+00 1.593764e+00 1.335645e+00 1.291686e+00 1.091896e+00 1.020563e+00 7.078624e-01 1.661609e+00 8.173929e-02 1.145932e-01 9.757857e-02 1.367145e-01 1.543209e-01 1.817955e-01 1.867566e-01 1.544387e-01 1.412262e-01 1.308758e-01 1.177094e-01 8.883834e-02 1.632733e-01
<GCONST> 9.757693e+01
<STATE> 4
<MEAN> 39
 2.207089e+00 7.672454e-02 8.501447e-01 5.842856e-01 -4.456593e-01 -2.723706e+00 -1.044729e+00 5.650700e-01 -3.129998e-01 -7.698289e-01 -9.815486e-01 -4.600747e-01 3.787741e+00 -1.214552e-01 4.180895e-02 -2.059633e-02 -1.182093e-01 -3.862769e-02 3.354580e-02 -1.358618e-01 -1.493153e-01 -4.903438e-02 7.641746e-02 1.179209e-01 1.762253e-02 -2.776815e-02 -4.397542e-03 -2.769009e-03 2.091395e-03 -1.727734e-02 -1.191473e-02 4.248943e-02 2.019935e-02 -1.495129e-02 -3.386071e-03 3.396178e-03 3.209971e-03 4.015535e-04 -6.325470e-03
<VARIANCE> 39
 2.703377e+01 3.719079e+01 4.874550e+01 3.742831e+01 4.895866e+01 5.311823e+01 6.829642e+01 4.706723e+01 5.240895e+01 4.215186e+01 4.268976e+01 2.633570e+01 8.065430e+01 6.724339e-01 8.186526e-01 1.030809e+00 1.030138e+00 1.247440e+00 1.256152e+00 1.496590e+00 1.165228e+00 1.232078e+00 1.019530e+00 9.466948e-01 6.428825e-01 1.324487e+00 6.504688e-02 9.145780e-02 8.850909e-02 1.078302e-01 1.349668e-01 1.425326e-01 1.723952e-01 1.283824e-01 1.368262e-01 1.164682e-01 1.118679e-01 8.192471e-02 1.159574e-01
<GCONST> 9.311049e+01
<TRANSP> 5
 0.000000e+00 1.000000e+00 0.000000e+00 0.000000e+00 0.000000e+00
 0.000000e+00 5.405388e-01 4.594612e-01 0.000000e+00 0.000000e+00
 0.000000e+00 0.000000e+00 5.350565e-01 4.649435e-01 0.000000e+00
 0.000000e+00 0.000000e+00 0.000000e+00 6.809589e-01 3.190410e-01
 0.000000e+00 0.000000e+00 0.000000e+00 0.000000e+00 0.000000e+00
<ENDHMM>
~h "e"
<BEGINHMM>
<NUMSTATES> 5
<STATE> 2
<MEAN> 39
 5.549587e-01 1.431632e+00 7.600140e+00 -3.303061e+00 -8.467126e+00 -3.090266e+00 -3.709500e-02 -2.202479e+00 -1.597413e+00 2.374422e+00 7.716601e-01 -1.409447e-01 6.085022e+00 -4.652099e-02 7.984906e-03 1.491321e-01 -1.677301e-01 -3.193853e-01 -9.964190e-02 2.734536e-02 -6.344868e-02 1.291754e-02 1.101643e-01 5.961261e-02 1.493097e-02 3.222451e-02 -1.972390e-02 -6.062472e-03 -6.038077e-02 4.653028e-02 1.085089e-01 2.908161e-02 -6.133139e-03 3.549062e-02 3.591408e-02 -2.935337e-02 -1.486212e-02 -5.784925e-03 -6.555966e-02
<VARIANCE> 39
 3.270310e+01 5.092552e+01 6.210768e+01 6.466192e+01 8.691316e+01 6.025837e+01 5.177210e+01 6.442805e+01 6.816167e+01 4.405294e+01 4.188204e+01 2.879772e+01 9.671568e+01 7.470907e-01 1.030815e+00 1.203827e+00 1.869105e+00 2.196727e+00 1.428675e+00 1.419573e+00 1.598278e+00 1.401728e+00 1.142281e+00 8.298885e-01 7.580559e-01 2.088975e+00 8.256095e-02 1.093963e-01 9.693738e-02 1.603293e-01 2.042911e-01 1.719104e-01 1.524124e-01 1.730953e-01 1.452870e-01 1.385353e-01 1.007252e-01 9.782305e-02 1.556991e-01
<GCONST> 1.007592e+02
<STATE> 3
<MEAN> 39
 2.128526e-01 1.379770e+00 7.428214e+00 -3.485334e+00 -8.659615e+00 -3.218085e+00 1.468532e-01 -2.144891e+00 -1.362326e+00 2.545280e+00 8.377141e-01 -1.793936e-01 5.578847e+00 -7.625638e-02 -1.078706e-02 -1.020118e-01 7.675775e-02 1.171381e-01 -6.042928e-02 1.488957e-02 7.851882e-02 6.375972e-02 -2.153971e-02 3.895320e-02 -1.521939e-02 -2.567726e-01 -5.771365e-03 -3.118358e-03 -5.755558e-02 5.107833e-02 9.836161e-02 2.628099e-02 -1.009165e-02 2.713717e-02 1.709228e-02 -3.344357e-02 -1.116046e-02 -8.073533e-03 -4.852327e-02
<VARIANCE> 39
 3.274892e+01 4.543378e+01 6.160559e+01 6.591491e+01 8.971004e+01 5.721172e+01 4.904298e+01 6.541451e+01 6.636228e+01 4.385020e+01 4.182827e+01 2.713811e+01 1.131335e+02 6.615227e-01 9.518852e-01 1.038795e+00 1.739059e+00 1.757504e+00 1.353590e+00 1.320200e+00 1.491707e+00 1.293290e+00 1.159063e+00 7.424660e-01 7.244535e-01 1.746867e+00 7.594853e-02 1.010837e-01 9.622265e-02 1.519844e-01 1.852954e-01 1.621734e-01 1.448447e-01 1.657703e-01 1.419001e-01 1.328898e-01 9.018262e-02 9.087633e-02 1.538758e-01
<GCONST> 9.868762e+01
<STATE> 4
<MEAN> 39
 -2.589521e-01 1.312451e+00 6.282957e+00 -2.565804e+00 -7.631104e+00 -3.651511e+00 3.637131e-01 -1.717097e+00 -1.357437e+00 2.390634e+00 1.263129e+00 -2.751769e-01 3.433979e+00 -8.691876e-02 -2.561697e-02 -2.988517e-01 2.370276e-01 4.157227e-01 8.526854e-02 6.861924e-02 1.519396e-01 4.966600e-02 -1.287125e-01 1.706063e-02 -1.459275e-02 -4.201643e-01 1.026295e-02 -8.014419e-03 -3.981370e-02 1.152542e-02 3.468894e-02 2.637252e-02 -1.250514e-02 1.745109e-03 9.039606e-03 -1.674417e-02 -1.578984e-02 4.095311e-03 2.290142e-02
<VARIANCE> 39
 3.268724e+01 3.679094e+01 5.348212e+01 5.992258e+01 8.603316e+01 5.023320e+01 4.577815e+01 5.882245e+01 5.959084e+01 3.927630e+01 3.923600e+01 2.523612e+01 1.325342e+02 6.900790e-01 8.406348e-01 9.445277e-01 1.365676e+00 1.493821e+00 1.202925e+00 1.143747e+00 1.267441e+00 1.192232e+00 1.017978e+00 7.010539e-01 6.252990e-01 1.581183e+00 7.055083e-02 8.413402e-02 8.628698e-02 1.277963e-01 1.423873e-01 1.334757e-01 1.337001e-01 1.425313e-01 1.360261e-01 1.114045e-01 7.909470e-02 7.723201e-02 1.491691e-01
<GCONST> 9.440122e+01
<TRANSP> 5
 0.000000e+00 1.000000e+00 0.000000e+00 0.000000e+00 0.000000e+00
 0.000000e+00 6.332744e-01 3.667256e-01 0.000000e+00 0.000000e+00
 0.000000e+00 0.000000e+00 6.098632e-01 3.901369e-01 0.000000e+00
 0.000000e+00 0.000000e+00 0.000000e+00 7.463957e-01 2.536042e-01
 0.000000e+00 0.000000e+00 0.000000e+00 0.000000e+00 0.000000e+00
<ENDHMM>
~h "g"
<BEGINHMM>
<NUMSTATES> 5
<STATE> 2
<MEAN> 39
 1.699313e+00 3.062993e+00 7.858178e+00 -4.030538e+00 -6.090127e+00 -1.949511e+00 -9.428506e-01 -2.469976e+00 2.059157e-01 2.877043e+00 -3.299612e-01 -9.915648e-01 7.872425e+00 -3.575084e-02 3.344004e-02 3.323188e-01 -2.186285e-01 -3.617822e-01 -3.149592e-02 -9.554122e-02 -2.181111e-01 -5.874763e-02 2.483656e-01 4.933532e-02 5.918022e-02 1.988401e-01 2.435638e-02 -2.883779e-02 -5.669357e-02 3.496825e-02 2.249387e-02 -1.634406e-03 1.955045e-02 2.988055e-02 -1.834727e-03 -2.924271e-02 -2.125933e-02 9.403153e-03 -1.755217e-02
<VARIANCE> 39
 4.654891e+01 7.048246e+01 8.861853e+01 8.433242e+01 8.698528e+01 5.378285e+01 8.275252e+01 8.260491e+01 8.032823e+01 5.437924e+01 4.702785e+01 3.730753e+01 5.593349e+01 9.231359e-01 1.535867e+00 2.266024e+00 2.397278e+00 3.213918e+00 1.737748e+00 2.034368e+00 2.064764e+00 2.058396e+00 1.439873e+00 1.338683e+00 1.117039e+00 2.107075e+00 9.504452e-02 1.489182e-01 2.037957e-01 2.776930e-01 3.489842e-01 2.140739e-01 2.359819e-01 2.440052e-01 2.347097e-01 1.642873e-01 1.580275e-01 1.375678e-01 2.177591e-01
<GCONST> 1.120930e+02
<STATE> 3
<MEAN> 39
 1.722183e+00 1.741916e+00 8.099609e+00 -4.354397e+00 -7.731812e+00 -2.018122e+00 -8.075354e-01 -3.336189e+00 -1.005100e+00 3.983823e+00 -9.941145e-02 -8.879403e-01 8.392569e+00 7.814908e-02 -5.921588e-02 6.614224e-03 7.704552e-03 -2.331719e-01 -4.397332e-02 2.578329e-02 -2.235199e-02 -1.128887e-01 5.595777e-02 2.680626e-02 5.042869e-02 -8.468583e-03 9.422128e-03 2.128153e-03 -8.137342e-02 6.688288e-02 1.019364e-01 4.767613e-03 3.124572e-02 6.834590e-02 1.075307e-02 -6.477495e-02 -1.277733e-02 3.992474e-03 -8.547796e-02
<VARIANCE> 39
 4.258109e+01 4.869179e+01 9.088039e+01 8.339885e+01 8.506721e+01 5.517646e+01 7.385948e+01 8.184583e+01 8.183152e+01 5.416004e+01 4.967436e+01 3.435792e+01 5.503949e+01 8.106194e-01 1.160855e+00 1.740479e+00 2.108948e+00 2.852213e+00 1.586299e+00 1.776592e+00 1.846179e+00 1.789727e+00 1.287829e+00 1.098783e+00 9.173120e-01 1.833504e+00 8.471097e-02 1.175115e-01 1.638789e-01 2.261275e-01 3.017622e-01 1.924122e-01 2.132924e-01 2.101500e-01 2.210949e-01 1.545753e-01 1.322485e-01 1.150492e-01 1.856801e-01
<GCONST> 1.075396e+02
<STATE> 4
<MEAN> 39
 1.914724e+00 1.227071e+00 8.017738e+00 -3.533473e+00 -8.027018e+00 -2.256654e+00 -5.566042e-01 -2.405375e+00 -2.687601e+00 3.556376e+00 2.010053e-01 -7.081652e-01 7.231905e+00 7.421166e-02 -3.183809e-02 -2.439156e-01 1.846947e-01 1.450250e-01 -6.556511e-05 1.218876e-01 1.306309e-01 3.205500e-02 -1.257525e-01 2.035445e-02 7.223666e-02 -3.089244e-01 -1.377557e-02 -4.617418e-03 -4.437014e-02 3.014333e-02 6.525262e-02 3.686862e-03 6.937620e-03 1.850387e-02 3.570982e-02 -3.501217e-02 -4.714520e-03 2.462887e-03 -3.924682e-02
<VARIANCE> 39
 3.664992e+01 3.483252e+01 7.284131e+01 6.102958e+01 6.224912e+01 4.855109e+01 5.461232e+01 6.035009e+01 7.036578e+01 4.627958e+01 4.384813e+01 3.036802e+01 5.210078e+01 6.128619e-01 8.000096e-01 1.146441e+00 1.453853e+00 1.757015e+00 1.214724e+00 1.238472e+00 1.467486e+00 1.326105e+00 1.095189e+00 8.582445e-01 6.962546e-01 1.375568e+00 5.977158e-02 8.110066e-02 1.062141e-01 1.474146e-01 1.986919e-01 1.371980e-01 1.475335e-01 1.648681e-01 1.573389e-01 1.279634e-01 1.046517e-01 8.804486e-02 1.292351e-01
<GCONST> 9.646629e+01
<TRANSP> 5
 0.000000e+00 1.000000e+00 0.000000e+00 0.000000e+00 0.000000e+00
 0.000000e+00 8.420427e-01 1.579573e-01 0.000000e+00 0.000000e+00
 0.000000e+00 0.000000e+00 7.549926e-01 2.450074e-01 0.000000e+00
 0.000000e+00 0.000000e+00 0.000000e+00 8.202102e-01 1.797898e-01
 0.000000e+00 0.000000e+00 0.000000e+00 0.000000e+00 0.000000e+00
<ENDHMM>
~h "h"
<BEGINHMM>
<NUMSTATES> 5
<STATE> 2
<MEAN> 39
 4.981925e+00 1.354777e+00 -3.275942e+00 -2.900460e+00 7.621858e-01 2.450787e-01 -4.125721e+00 -3.162093e+00 -2.614473e+00 -4.282954e-01 -1.032585e+00 -3.285488e-02 4.975386e+00 1.403304e-01 1.237219e-01 -1.277666e-01 -3.067161e-02 1.685476e-01 1.938255e-01 1.322697e-01 9.522982e-02 -3.534961e-02 -9.297383e-02 9.047227e-03 -2.977003e-02 -2.529748e-01 -3.640791e-02 -3.581906e-02 5.878370e-02 5.177511e-02 9.492056e-03 -1.198326e-02 3.528274e-02 6.414513e-02 3.751981e-02 -5.987951e-03 3.939718e-03 -3.071264e-02 -3.563858e-03
<VARIANCE> 39
 3.466745e+01 4.557035e+01 6.921693e+01 6.924939e+01 4.190026e+01 3.975580e+01 4.814417e+01 3.300335e+01 5.159077e+01 4.176354e+01 3.477106e+01 3.272443e+01 6.139965e+01 4.671953e-01 7.699648e-01 9.452001e-01 1.093151e+00 9.374395e-01 9.501236e-01 9.436781e-01 7.000296e-01 1.040184e+00 8.976386e-01 8.093550e-01 8.915184e-01 7.279208e-01 3.819102e-02 6.897637e-02 6.717511e-02 1.034766e-01 1.038435e-01 9.808439e-02 1.033166e-01 7.967537e-02 1.329295e-01 1.038797e-01 9.428608e-02 1.056280e-01 4.010219e-02
<GCONST> 8.650058e+01
<STATE> 3
<MEAN> 39
 4.702065e+00 1.324899e+00 -2.935196e+00 -2.032775e+00 1.615324e+00 9.072174e-01 -3.263047e+00 -2.300515e+00 -2.537138e+00 -4.578383e-01 -8.096843e-01 -4.977752e-01 3.676929e+00 -8.065654e-02 2.805915e-02 4.989649e-02 1.289183e-01 2.708639e-01 2.098492e-01 1.859787e-01 2.487154e-01 6.083249e-02 -8.812349e-02 7.540005e-02 -4.500677e-02 -2.476025e-01 -4.383064e-02 -5.703937e-02 3.303698e-02 3.120969e-02 5.925901e-03 -1.389566e-02 2.629372e-02 3.147043e-02 7.831752e-03 -5.651736e-03 4.642192e-03 -6.028186e-04 2.010437e-02
<VARIANCE> 39
 3.511929e+01 5.326036e+01 7.476795e+01 5.825150e+01 4.810590e+01 3.814604e+01 5.009900e+01 3.191379e+01 4.841793e+01 4.213682e+01 3.731501e+01 2.733231e+01 6.229049e+01 5.242263e-01 8.820968e-01 9.066707e-01 1.102120e+00 1.045102e+00 7.343462e-01 8.590230e-01 7.514118e-01 1.095138e+00 8.520952e-01 8.366744e-01 7.627882e-01 6.573737e-01 3.649301e-02 7.229329e-02 6.839696e-02 1.064192e-01 1.022882e-01 7.837364e-02 9.359050e-02 8.085544e-02 1.233169e-01 9.244936e-02 9.479438e-02 8.625803e-02 3.670330e-02
<GCONST> 8.559398e+01
<STATE> 4
<MEAN> 39
 3.057768e+00 1.765409e+00 -2.192760e+00 -1.750818e+00 1.672312e+00 1.336898e+00 -8.602392e-01 -1.403198e+00 -2.274192e+00 -1.051249e+00 -4.707963e-01 -1.247811e-01 1.124551e+00 -7.119134e-02 -7.084606e-02 -2.054631e-02 7.812858e-02 7.816543e-02 9.278819e-02 1.012519e-01 1.008127e-01 4.575836e-02 -1.833720e-02 4.155245e-02 -1.345997e-03 -7.081315e-02 1.026569e-03 -2.217745e-02 9.742702e-03 4.231710e-03 -2.221391e-02 -1.359969e-02 -7.433946e-03 4.512932e-03 7.741084e-03 -5.740770e-04 -1.185021e-02 -2.606137e-03 2.593976e-02
<VARIANCE> 39
 2.883300e+01 3.598177e+01 4.729118e+01 3.705700e+01 4.090336e+01 3.577728e+01 3.357636e+01 2.709708e+01 3.374451e+01 3.307301e+01 2.820529e+01 2.168284e+01 4.158894e+01 3.880661e-01 5.886845e-01 6.342236e-01 7.210171e-01 7.856454e-01 5.616598e-01 6.610399e-01 6.340300e-01 7.100163e-01 7.011544e-01 5.893202e-01 4.317294e-01 3.789223e-01 2.866474e-02 5.388501e-02 5.300806e-02 7.134989e-02 8.769293e-02 6.222695e-02 7.100897e-02 7.595266e-02 7.844248e-02 8.067722e-02 6.903323e-02 5.464559e-02 2.746251e-02
<GCONST> 7.364884e+01
<TRANSP> 5
 0.000000e+00 1.000000e+00 0.000000e+00 0.000000e+00 0.000000e+00
 0.000000e+00 7.584386e-01 2.415614e-01 0.000000e+00 0.000000e+00
 0.000000e+00 0.000000e+00 6.671668e-01 3.328333e-01 0.000000e+00
 0.000000e+00 0.000000e+00 0.000000e+00 9.239619e-01 7.603805e-02
 0.000000e+00 0.000000e+00 0.000000e+00 0.000000e+00 0.000000e+00
<ENDHMM>
~h "i"
<BEGINHMM>
<NUMSTATES> 5
<STATE> 2
<MEAN> 39
 -2.557330e-01 3.744611e+00 5.559161e+00 -2.026694e+00 -2.838224e+00 -6.954480e-01 -1.226575e+00 -3.421913e+00 -9.462759e-01 4.587393e-01 2.326573e-01 7.547124e-01 3.786176e+00 -1.248041e-01 2.395054e-01 2.646341e-01 -1.470915e-01 -5.243182e-02 -1.168156e-03 -1.372477e-01 -2.273174e-01 -6.242127e-02 4.277478e-02 -1.115324e-02 1.691708e-02 1.982559e-03 1.059861e-02 -2.278076e-02 -3.597972e-02 2.148868e-02 1.447795e-02 -2.117378e-02 1.365904e-02 3.411460e-02 -2.673225e-03 -4.263115e-03 -2.327068e-02 -1.129413e-02 -4.001738e-03
<VARIANCE> 39
 4.826463e+01 6.915189e+01 9.096973e+01 8.082285e+01 6.177171e+01 6.032598e+01 6.692678e+01 6.152788e+01 6.409399e+01 4.808614e+01 4.373845e+01 3.235115e+01 8.471774e+01 1.196745e+00 1.438718e+00 1.887953e+00 2.176073e+00 1.520732e+00 1.325891e+00 1.653277e+00 1.558807e+00 1.534703e+00 1.147726e+00 1.170752e+00 9.295052e-01 1.900330e+00 1.089777e-01 1.358815e-01 1.621494e-01 2.108493e-01 1.700430e-01 1.381178e-01 1.713516e-01 1.626847e-01 1.579490e-01 1.334803e-01 1.329554e-01 1.107004e-01 1.440705e-01
<GCONST> 1.049287e+02
<STATE> 3
<MEAN> 39
 -1.312048e-01 3.723603e+00 5.936713e+00 -1.589782e+00 -2.861140e+00 -8.636341e-01 -1.131444e+00 -3.635992e+00 -1.615665e+00 4.742749e-01 1.748987e-01 4.549997e-01 3.085309e+00 -5.991939e-02 3.757980e-02 5.480499e-02 7.616702e-02 5.933007e-02 -1.137343e-02 6.075139e-02 -2.843607e-02 -8.250688e-02 -1.182018e-03 1.567791e-02 -3.964115e-02 -1.165260e-01 -7.031944e-04 -4.895718e-02 -4.916861e-02 2.294846e-02 2.385366e-02 -1.265967e-02 1.893383e-02 5.100167e-02 2.252806e-02 -8.363425e-04 -9.233833e-04 -6.401160e-03 -6.730520e-03
<VARIANCE> 39
 4.353305e+01 6.001517e+01 8.478828e+01 7.603884e+01 5.879700e+01 5.483917e+01 5.998720e+01 6.015225e+01 6.104187e+01 4.544001e+01 4.538289e+01 3.103241e+01 8.861276e+01 1.138896e+00 1.408465e+00 1.754515e+00 1.976394e+00 1.481266e+00 1.167058e+00 1.422128e+00 1.505193e+00 1.346717e+00 1.033048e+00 1.040552e+00 8.079358e-01 1.978344e+00 1.023835e-01 1.258412e-01 1.426863e-01 1.899384e-01 1.647680e-01 1.258230e-01 1.604240e-01 1.502878e-01 1.456529e-01 1.240365e-01 1.185866e-01 1.006620e-01 1.467759e-01
<GCONST> 1.021902e+02
<STATE> 4
<MEAN> 39
 -6.878858e-01 3.052655e+00 5.616653e+00 4.752924e-02 -1.781326e+00 -5.485587e-01 -5.403366e-01 -3.352611e+00 -2.470617e+00 3.162805e-02 4.690174e-01 1.085037e-01 9.769768e-01 -6.151774e-02 -7.710183e-02 -1.264637e-01 1.094119e-01 1.380700e-01 -3.386912e-02 1.023481e-01 9.645461e-02 1.727629e-02 -8.868872e-03 6.093485e-02 -1.619164e-02 -1.598642e-01 -5.805474e-03 -2.961299e-02 -2.491902e-02 -2.625689e-02 -9.089367e-03 -1.808223e-02 -1.723622e-02 2.345659e-02 2.757579e-02 1.436515e-02 2.490121e-03 6.748580e-03 3.713109e-02
<VARIANCE> 39
 4.752531e+01 5.047602e+01 7.863571e+01 6.336702e+01 5.600467e+01 4.579587e+01 4.907856e+01 5.193515e+01 5.653026e+01 4.411392e+01 4.101351e+01 2.845486e+01 1.156668e+02 1.128545e+00 1.214550e+00 1.449729e+00 1.433451e+00 1.281735e+00 9.873639e-01 1.164461e+00 1.227585e+00 1.164835e+00 9.340777e-01 8.716267e-01 6.803811e-01 1.926964e+00 1.020191e-01 1.044549e-01 1.213345e-01 1.369042e-01 1.411777e-01 1.114394e-01 1.365024e-01 1.273592e-01 1.267397e-01 1.077519e-01 9.718115e-02 8.376976e-02 1.691695e-01
<GCONST> 9.743397e+01
<TRANSP> 5
 0.000000e+00 1.000000e+00 0.000000e+00 0.000000e+00 0.000000e+00
 0.000000e+00 6.090518e-01 3.909481e-01 0.000000e+00 0.000000e+00
 0.000000e+00 0.000000e+00 5.517387e-01 4.482613e-01 0.000000e+00
 0.000000e+00 0.000000e+00 0.000000e+00 6.701367e-01 3.298633e-01
 0.000000e+00 0.000000e+00 0.000000e+00 0.000000e+00 0.000000e+00
<ENDHMM>
~h "j"
<BEGINHMM>
<NUMSTATES> 5
<STATE> 2
<MEAN> 39
 1.717598e+00 -4.404479e+00 -2.144441e+00 -1.735625e-01 1.415575e-02 -5.448234e-02 4.391293e+00 3.471571e+00 6.966030e-01 -1.957017e+00 -3.611573e+00 1.312103e-01 8.177711e+00 -2.473344e-01 4.144859e-01 2.446736e-01 -4.941218e-02 -1.909281e-01 -1.607156e-01 8.020825e-02 1.776862e-02 -2.151480e-01 6.285100e-02 3.187680e-01 -5.431049e-02 -7.045070e-02 -3.692885e-02 -7.743271e-03 2.207864e-02 -5.459256e-02 -1.748359e-02 -2.098929e-02 -4.658855e-02 -3.382051e-03 8.036857e-04 1.944534e-02 4.900155e-02 -1.982176e-02 3.233673e-02
<VARIANCE> 39
 3.625371e+01 4.674231e+01 3.551488e+01 3.860387e+01 5.908033e+01 2.882371e+01 3.841005e+01 3.536539e+01 5.281022e+01 3.637054e+01 4.097203e+01 2.386100e+01 6.821806e+01 1.363440e+00 9.690883e-01 9.193181e-01 9.930844e-01 2.077189e+00 1.021317e+00 8.060198e-01 9.733819e-01 1.194607e+00 8.316510e-01 1.131314e+00 6.569520e-01 1.602946e+00 1.762415e-01 9.987813e-02 9.211772e-02 1.585971e-01 2.425916e-01 1.487996e-01 9.097706e-02 9.926157e-02 1.091916e-01 9.887666e-02 1.149564e-01 1.012393e-01 1.356110e-01
<GCONST> 9.324934e+01
<STATE> 3
<MEAN> 39
 2.946947e-01 -2.977919e+00 -7.684517e-01 -1.204842e+00 -8.183539e-01 -1.052721e+00 3.885885e+00 3.466709e+00 -4.455882e-01 -2.028455e+00 -1.953791e+00 -3.529202e-01 8.267761e+00 -3.287593e-01 3.492829e-01 3.421003e-01 -1.866091e-01 -2.199292e-01 -2.450706e-01 -4.898044e-02 7.169831e-02 -1.713472e-01 1.031639e-01 4.131055e-01 -4.404344e-02 5.895422e-02 1.450847e-02 -2.704708e-02 2.455458e-02 -1.793761e-02 -2.425568e-02 -1.244022e-02 -3.949913e-02 2.691206e-03 2.213215e-02 2.504012e-02 -1.098469e-03 8.395671e-04 4.226239e-02
<VARIANCE> 39
 4.948285e+01 5.217950e+01 3.776922e+01 3.506662e+01 5.419923e+01 3.150843e+01 3.883828e+01 3.603332e+01 5.100168e+01 3.550560e+01 4.314442e+01 2.435013e+01 5.262081e+01 2.186064e+00 1.283298e+00 1.019278e+00 1.135245e+00 2.292446e+00 1.172000e+00 9.200314e-01 9.838762e-01 1.276357e+00 8.529724e-01 1.140197e+00 7.992286e-01 1.318848e+00 2.644191e-01 1.297738e-01 1.127856e-01 1.532509e-01 2.799174e-01 1.491456e-01 1.039117e-01 1.184915e-01 1.319212e-01 1.079890e-01 1.387796e-01 1.098793e-01 1.203295e-01
<GCONST> 9.661045e+01
<STATE> 4
<MEAN> 39
 -1.657667e+00 -4.496042e-01 2.309613e+00 -2.764661e+00 -2.671952e+00 -2.811082e+00 2.400786e+00 3.557966e+00 -1.306580e+00 -1.350776e+00 1.148091e+00 -9.053929e-01 8.950754e+00 1.636699e-01 -2.450355e-02 1.190657e-01 -1.018294e-01 -2.365546e-01 -1.695271e-01 -2.943548e-01 6.047053e-02 1.259583e-01 1.645142e-01 9.927940e-02 -2.379828e-02 1.279254e-01 7.965251e-02 -4.282764e-02 -5.411854e-02 3.126239e-02 2.888810e-02 3.332359e-02 -2.533607e-02 -2.016936e-02 1.552661e-02 -2.891386e-03 -5.714020e-02 -4.535638e-03 -3.237626e-02
<VARIANCE> 39
 7.400156e+01 4.962994e+01 4.115046e+01 3.618154e+01 5.500350e+01 4.137867e+01 5.218618e+01 4.309063e+01 5.816309e+01 4.243550e+01 4.921585e+01 3.163568e+01 3.895466e+01 3.175669e+00 1.906765e+00 1.400032e+00 1.462889e+00 2.560185e+00 1.286605e+00 1.421951e+00 1.458567e+00 1.297567e+00 1.097044e+00 1.540584e+00 9.369475e-01 1.047772e+00 3.749608e-01 1.869242e-01 1.432806e-01 1.530446e-01 3.369625e-01 1.514467e-01 1.534683e-01 1.712501e-01 1.486893e-01 1.398049e-01 1.795906e-01 1.211602e-01 9.835015e-02
<GCONST> 1.035578e+02
<TRANSP> 5
 0.000000e+00 1.000000e+00 0.000000e+00 0.000000e+00 0.000000e+00
 0.000000e+00 7.009686e-01 2.990315e-01 0.000000e+00 0.000000e+00
 0.000000e+00 0.000000e+00 7.107825e-01 2.892175e-01 0.000000e+00
 0.000000e+00 0.000000e+00 0.000000e+00 9.063362e-01 9.366376e-02
 0.000000e+00 0.000000e+00 0.000000e+00 0.000000e+00 0.000000e+00
<ENDHMM>
~h "k"
<BEGINHMM>
<NUMSTATES> 5
<STATE> 2
<MEAN> 39
 7.339990e-01 -4.505273e-01 -2.297979e-01 1.567409e+00 -1.761013e+00 -2.889172e+00 1.875463e-01 -1.943088e+00 -2.005654e-01 1.744445e+00 3.409051e-01 -5.626315e-01 -1.241087e+00 2.051547e-01 -3.354394e-01 -7.541711e-01 3.523011e-03 4.600332e-01 -6.155990e-02 1.296779e-02 2.388217e-01 2.114598e-01 2.483991e-03 -6.588511e-04 -1.029366e-02 1.978037e-01 4.515914e-02 4.616562e-03 -3.326386e-02 -1.051508e-01 2.137250e-02 2.445439e-02 -2.433438e-02 4.877158e-02 -1.182901e-02 2.386217e-03 -2.370067e-02 1.366304e-02 2.162990e-01
<VARIANCE> 39
 4.583455e+01 6.181672e+01 9.776450e+01 6.320999e+01 9.336655e+01 7.730717e+01 6.351486e+01 6.450283e+01 5.610742e+01 4.307027e+01 4.125878e+01 2.886127e+01 7.586770e+01 1.251970e+00 1.657835e+00 2.476896e+00 2.347312e+00 2.294880e+00 2.706858e+00 1.838524e+00 2.004534e+00 1.510174e+00 1.358582e+00 1.391534e+00 8.011155e-01 2.782088e+00 1.309962e-01 2.021328e-01 2.428372e-01 2.619323e-01 2.694259e-01 3.153999e-01 2.053589e-01 2.005547e-01 1.595765e-01 1.648614e-01 1.784416e-01 1.039023e-01 2.378620e-01
<GCONST> 1.111278e+02
<STATE> 3
<MEAN> 39
 1.449836e+00 -1.430962e+00 -2.964098e+00 7.783985e-01 4.195879e-01 -2.814326e+00 1.592039e-01 -5.048052e-01 5.642332e-01 1.942013e+00 2.923278e-01 -2.810870e-01 3.428578e-01 3.560303e-01 -2.102904e-01 -5.685293e-01 -2.344181e-01 3.165101e-01 3.397194e-02 -9.178816e-02 2.917438e-01 1.591151e-01 -5.523121e-02 -8.407883e-02 -9.941751e-03 7.083265e-01 3.527937e-02 6.031606e-02 1.129303e-01 -7.741642e-02 -8.224431e-02 5.120083e-02 -1.018039e-02 -2.833781e-02 -4.072975e-02 -3.187907e-02 -2.746542e-02 -1.602343e-02 9.036513e-02
<VARIANCE> 39
 5.538567e+01 6.590006e+01 1.052136e+02 8.195333e+01 9.221729e+01 8.544624e+01 7.151747e+01 7.253528e+01 5.842881e+01 4.419386e+01 4.562082e+01 2.913638e+01 8.789530e+01 1.476030e+00 1.883059e+00 2.613771e+00 2.694866e+00 2.463174e+00 3.215388e+00 2.017347e+00 2.086390e+00 1.578553e+00 1.517620e+00 1.689162e+00 8.475779e-01 3.060099e+00 1.561693e-01 2.110870e-01 2.524753e-01 3.244871e-01 2.827253e-01 3.690749e-01 2.486440e-01 2.240722e-01 1.715381e-01 1.660083e-01 2.073694e-01 1.091063e-01 2.881207e-01
<GCONST> 1.151712e+02
<STATE> 4
<MEAN> 39
 2.856249e+00 -9.245119e-01 -3.864358e+00 -5.811746e-01 1.189140e+00 -2.203585e+00 -2.676710e-01 -1.668251e-01 3.796812e-01 1.717976e+00 4.251866e-01 -7.831300e-02 2.390980e+00 3.473058e-01 -4.144184e-02 -1.895570e-01 -2.929270e-01 -2.911386e-02 1.775971e-01 -8.083522e-02 1.030900e-01 1.879519e-02 -9.983330e-02 -1.066400e-01 -9.036051e-02 6.116141e-01 -4.712583e-03 1.944791e-02 9.810592e-02 -1.753961e-02 -8.296221e-02 4.793866e-02 5.363859e-05 -4.291252e-02 -2.701432e-02 -1.152560e-02 -2.996635e-02 -2.299068e-02 -1.669058e-02
<VARIANCE> 39
 5.138544e+01 5.504005e+01 8.479093e+01 7.680354e+01 7.942503e+01 7.356133e+01 6.632656e+01 6.916351e+01 5.937259e+01 4.770789e+01 4.857195e+01 2.876703e+01 9.856378e+01 1.228937e+00 1.516131e+00 1.729025e+00 2.166065e+00 1.843709e+00 2.230391e+00 1.682478e+00 1.814374e+00 1.549490e+00 1.535743e+00 1.540107e+00 8.882804e-01 2.679893e+00 1.264644e-01 1.579415e-01 1.821640e-01 2.683127e-01 2.439141e-01 2.609670e-01 2.034343e-01 2.174941e-01 1.673656e-01 1.658597e-01 1.758303e-01 1.068045e-01 2.483752e-01
<GCONST> 1.101747e+02
<TRANSP> 5
 0.000000e+00 1.000000e+00 0.000000e+00 0.000000e+00 0.000000e+00
 0.000000e+00 6.157852e-01 3.842148e-01 0.000000e+00 0.000000e+00
 0.000000e+00 0.000000e+00 6.357186e-01 3.642815e-01 0.000000e+00
 0.000000e+00 0.000000e+00 0.000000e+00 6.084513e-01 3.915487e-01
 0.000000e+00 0.000000e+00 0.000000e+00 0.000000e+00 0.000000e+00
<ENDHMM>
~h "l"
<BEGINHMM>
<NUMSTATES> 5
<STATE> 2
<MEAN> 39
 3.962448e+00 -1.733584e+00 -1.343609e-01 -3.641840e+00 -2.133096e+00 -7.646899e-01 -4.452688e+00 -4.876586e-01 4.624617e+00 6.522002e-01 -2.520700e+00 -2.128184e+00 8.262400e+00 7.387105e-02 -1.419688e-01 9.769137e-02 -2.470954e-02 -1.701643e-01 -2.708181e-01 -2.446432e-01 3.323087e-01 3.087524e-01 2.660508e-02 -2.591116e-01 -4.023999e-02 3.957734e-01 -4.900623e-02 2.887740e-02 2.983633e-02 2.245346e-02 1.196966e-04 2.190906e-02 4.256418e-02 -1.732810e-02 -6.150178e-02 -5.007024e-03 1.202210e-02 3.030866e-02 -1.134597e-02
<VARIANCE> 39
 4.071585e+01 7.950171e+01 1.011256e+02 6.414571e+01 7.420404e+01 7.078719e+01 8.124733e+01 7.435210e+01 1.221926e+02 6.392908e+01 5.459819e+01 3.267239e+01 1.005180e+02 1.185799e+00 2.140621e+00 2.636195e+00 1.893470e+00 1.893496e+00 2.281606e+00 2.706560e+00 1.696486e+00 3.017933e+00 1.620998e+00 1.684201e+00 1.103117e+00 3.306407e+00 1.260428e-01 2.099504e-01 2.503741e-01 1.861849e-01 2.273504e-01 2.896619e-01 2.924615e-01 2.214052e-01 2.597612e-01 1.820943e-01 1.921705e-01 1.284859e-01 2.662176e-01
<GCONST> 1.155686e+02
<STATE> 3
<MEAN> 39
 3.139705e+00 -1.083297e+00 8.444639e-01 -3.484098e+00 -2.830084e+00 -2.431712e+00 -3.959422e+00 8.335538e-01 3.261544e+00 2.897407e-01 -2.992725e+00 -1.596319e+00 8.540117e+00 -4.855294e-02 5.404294e-02 7.078496e-02 3.639658e-02 -1.153674e-01 -1.180046e-01 1.073157e-01 8.970226e-02 -3.058658e-02 3.767260e-02 -4.969293e-02 1.507825e-02 1.021082e-01 -2.308587e-02 2.984872e-02 -1.698465e-05 1.627803e-02 1.427609e-02 3.372142e-02 4.827935e-02 -5.540578e-02 -4.646729e-02 4.375840e-03 3.882534e-02 2.377331e-03 -5.002708e-02
<VARIANCE> 39
 3.716940e+01 7.663569e+01 1.156144e+02 6.899756e+01 6.730879e+01 5.738659e+01 9.219656e+01 7.635641e+01 1.053876e+02 6.415496e+01 4.892655e+01 3.748792e+01 7.392438e+01 9.602956e-01 1.449724e+00 2.582720e+00 1.693438e+00 1.962640e+00 2.031502e+00 2.407439e+00 1.896683e+00 2.027373e+00 1.523133e+00 1.340020e+00 1.083778e+00 2.407914e+00 9.881383e-02 1.457601e-01 2.266341e-01 1.691815e-01 2.148475e-01 2.482866e-01 2.867215e-01 2.336035e-01 2.015693e-01 1.784969e-01 1.518855e-01 1.324403e-01 2.275405e-01
<GCONST> 1.116111e+02
<STATE> 4
<MEAN> 39
 2.544145e+00 -2.104393e-01 1.519612e+00 -2.971644e+00 -3.807750e+00 -2.651834e+00 -1.841472e+00 -2.622519e-01 1.213450e+00 4.148269e-01 -2.284210e+00 -1.052430e+00 8.074160e+00 -1.185101e-01 6.535043e-02 1.029759e-01 4.562462e-02 -8.856200e-02 3.023554e-02 1.358447e-01 -6.117686e-02 -1.854849e-01 2.005832e-02 5.295408e-02 6.770039e-02 -3.350621e-02 -1.256845e-02 1.599725e-02 -8.722559e-03 2.013299e-02 3.106410e-02 2.329538e-02 3.617137e-04 -2.200550e-02 -7.059745e-03 -1.367244e-02 1.820363e-02 1.296018e-02 -4.262162e-02
<VARIANCE> 39
 3.884715e+01 6.452860e+01 1.097696e+02 5.899514e+01 6.366535e+01 5.632415e+01 8.150885e+01 7.971953e+01 8.115083e+01 6.245889e+01 4.810690e+01 3.508858e+01 6.678029e+01 1.032399e+00 1.350532e+00 2.282642e+00 1.464550e+00 1.760008e+00 1.917312e+00 2.119416e+00 1.793485e+00 1.871052e+00 1.434183e+00 1.211681e+00 8.427784e-01 1.945434e+00 1.034822e-01 1.331143e-01 1.887317e-01 1.394479e-01 1.871067e-01 2.124114e-01 2.400778e-01 2.206188e-01 1.925987e-01 1.626917e-01 1.334356e-01 1.037046e-01 1.998516e-01
<GCONST> 1.077323e+02
<TRANSP> 5
 0.000000e+00 1.000000e+00 0.000000e+00 0.000000e+00 0.000000e+00
 0.000000e+00 8.173824e-01 1.826176e-01 0.000000e+00 0.000000e+00
 0.000000e+00 0.000000e+00 7.904614e-01 2.095385e-01 0.000000e+00
 0.000000e+00 0.000000e+00 0.000000e+00 8.789289e-01 1.210711e-01
 0.000000e+00 0.000000e+00 0.000000e+00 0.000000e+00 0.000000e+00
<ENDHMM>
~h "m"
<BEGINHMM>
<NUMSTATES> 5
<STATE> 2
<MEAN> 39
 4.903737e+00 -1.451201e+00 1.013206e-01 -4.789840e-01 4.391490e-01 2.477673e-02 -2.679171e+00 -1.932582e+00 -1.371192e+00 -1.022072e+00 -2.593776e+00 -2.293620e+00 6.113351e+00 4.050469e-01 -3.139081e-01 -1.556891e-01 -8.247142e-02 -7.550927e-02 -1.831955e-01 -2.765153e-01 7.700644e-02 1.325462e-01 1.039391e-01 -1.342888e-01 -2.499873e-01 5.549062e-01 -5.457705e-02 -2.451618e-02 -1.275051e-02 -3.410849e-02 6.842153e-03 -8.358489e-03 2.133234e-02 4.986019e-02 1.521850e-02 -2.419924e-02 1.522380e-02 4.422103e-02 -3.939260e-03
<VARIANCE> 39
 3.940311e+01 5.059079e+01 7.231574e+01 6.694837e+01 6.808495e+01 6.074071e+01 6.875908e+01 6.653931e+01 6.716282e+01 5.122392e+01 4.762906e+01 3.416053e+01 6.104814e+01 1.251302e+00 1.463680e+00 1.774656e+00 2.436552e+00 1.676887e+00 1.913168e+00 2.096120e+00 2.225309e+00 2.141614e+00 1.706205e+00 1.318214e+00 1.066792e+00 2.915282e+00 1.296935e-01 1.504623e-01 1.664137e-01 2.589658e-01 1.726478e-01 2.024617e-01 2.338132e-01 2.717671e-01 1.810626e-01 1.927963e-01 1.440940e-01 1.261023e-01 1.808674e-01
<GCONST> 1.093831e+02
<STATE> 3
<MEAN> 39
 5.533020e+00 -2.729941e+00 -2.935521e-01 -8.179391e-01 2.545435e-01 -8.710231e-01 -3.337202e+00 -1.316128e+00 -1.449705e+00 -9.743323e-01 -2.721473e+00 -2.598179e+00 7.819891e+00 1.309794e-01 -2.096499e-01 -1.301411e-01 -1.272322e-01 9.405393e-03 -1.132194e-01 -7.686409e-02 1.185657e-01 4.827030e-02 -8.668385e-02 -4.289754e-02 -2.066509e-02 2.991033e-01 -7.443199e-02 3.278868e-02 1.535064e-02 -2.358521e-02 7.898050e-03 3.592775e-02 5.421080e-02 7.421006e-03 -1.635890e-02 -4.248155e-02 9.944735e-03 6.102297e-02 -3.687926e-02
<VARIANCE> 39
 3.323848e+01 4.325817e+01 6.962634e+01 6.347230e+01 7.229095e+01 6.487329e+01 6.812637e+01 6.736877e+01 6.645863e+01 5.950960e+01 4.766895e+01 3.636662e+01 5.023767e+01 1.054514e+00 1.411937e+00 1.722617e+00 2.397982e+00 1.669161e+00 1.577492e+00 2.131501e+00 2.270629e+00 1.910655e+00 1.918072e+00 1.234946e+00 1.151653e+00 1.765826e+00 9.710021e-02 1.390142e-01 1.664025e-01 2.397865e-01 1.720781e-01 1.781120e-01 2.356636e-01 2.877593e-01 1.701321e-01 2.279924e-01 1.484439e-01 1.323102e-01 1.496405e-01
<GCONST> 1.076832e+02
<STATE> 4
<MEAN> 39
 5.342747e+00 -3.915844e+00 -6.087698e-01 -8.193802e-01 6.375587e-01 -2.215662e+00 -2.603505e+00 -8.742751e-01 -1.920083e+00 -2.562379e+00 -3.133578e+00 -1.484877e+00 9.769874e+00 -4.353784e-02 -2.561863e-03 -8.126242e-02 -7.775074e-02 5.679643e-02 3.508357e-02 1.264849e-01 1.324261e-01 4.059121e-02 -1.270687e-01 -1.814412e-02 9.661699e-02 5.713267e-02 -3.025139e-02 2.954503e-02 2.253824e-02 1.278699e-02 -1.010575e-02 2.212106e-02 2.889498e-02 -1.980321e-02 -6.462964e-03 1.086659e-02 5.133235e-03 2.343632e-02 -3.009379e-02
<VARIANCE> 39
 3.407911e+01 4.544495e+01 7.939492e+01 6.749620e+01 8.563120e+01 6.629330e+01 6.601580e+01 7.015825e+01 8.552587e+01 7.320903e+01 4.421042e+01 3.990801e+01 5.401500e+01 1.004084e+00 1.284676e+00 1.513070e+00 2.141221e+00 1.629909e+00 1.391340e+00 1.889989e+00 2.332163e+00 1.979630e+00 2.073731e+00 1.121154e+00 1.111829e+00 1.568238e+00 8.931493e-02 1.245122e-01 1.475458e-01 2.044074e-01 1.597748e-01 1.512931e-01 1.946586e-01 2.808270e-01 2.004028e-01 2.671700e-01 1.308439e-01 1.193969e-01 1.432303e-01
<GCONST> 1.070566e+02
<TRANSP> 5
 0.000000e+00 1.000000e+00 0.000000e+00 0.000000e+00 0.000000e+00
 0.000000e+00 6.879990e-01 3.120010e-01 0.000000e+00 0.000000e+00
 0.000000e+00 0.000000e+00 6.952180e-01 3.047820e-01 0.000000e+00
 0.000000e+00 0.000000e+00 0.000000e+00 8.824321e-01 1.175679e-01
 0.000000e+00 0.000000e+00 0.000000e+00 0.000000e+00 0.000000e+00
<ENDHMM>
~h "n"
<BEGINHMM>
<NUMSTATES> 5
<STATE> 2
<MEAN> 39
 3.130186e+00 -1.932736e+00 -7.658332e-01 3.351072e-01 8.367057e-01 -1.044952e+00 -3.737278e-01 5.643677e-01 -1.525672e+00 -2.631835e+00 -2.960273e+00 -4.540338e-01 5.599748e+00 7.913699e-02 8.838060e-02 1.634409e-01 1.398916e-01 5.319070e-02 -6.380142e-02 -6.227042e-02 -4.973827e-02 -1.538017e-01 -1.947525e-01 -9.839884e-02 1.564409e-02 -1.352138e-01 -1.776575e-03 2.242380e-02 7.551795e-04 -2.752502e-02 -2.563867e-02 1.099024e-02 -3.446517e-04 -9.863098e-03 2.122251e-02 2.891315e-02 1.976766e-02 -7.840496e-03 -2.960650e-02
<VARIANCE> 39
 3.319501e+01 4.015493e+01 4.881075e+01 4.801410e+01 4.635534e+01 4.968980e+01 4.954604e+01 4.703498e+01 6.535535e+01 5.288237e+01 3.865366e+01 2.802538e+01 8.744836e+01 6.608491e-01 9.914866e-01 1.138590e+00 1.174772e+00 1.021258e+00 1.151363e+00 9.792090e-01 1.335912e+00 1.223907e+00 1.056415e+00 8.477896e-01 7.480337e-01 1.277636e+00 6.636598e-02 9.819569e-02 9.231169e-02 1.346439e-01 1.068752e-01 1.253640e-01 1.157711e-01 1.461177e-01 1.445791e-01 1.242635e-01 9.943980e-02 8.666334e-02 1.170637e-01
<GCONST> 9.334819e+01
<STATE> 3
<MEAN> 39
 3.438565e+00 -1.734810e+00 -3.505417e-01 4.626305e-01 8.394110e-01 -1.311995e+00 -6.746501e-01 4.035783e-01 -1.874623e+00 -3.152532e+00 -3.313794e+00 -4.804004e-01 5.354038e+00 4.324240e-02 1.310404e-01 1.317087e-01 7.930768e-02 -8.134405e-03 -2.390271e-02 -4.507641e-02 -4.777681e-02 -7.097554e-02 -8.420386e-02 -3.407696e-02 -4.519647e-03 -2.221022e-01 -1.987714e-02 1.003565e-02 -1.326148e-02 -3.335433e-02 -2.108085e-02 1.882031e-02 9.143263e-03 -1.547236e-03 2.727034e-02 4.702217e-02 2.891363e-02 -9.936332e-03 -1.789301e-02
<VARIANCE> 39
 2.895899e+01 4.063472e+01 4.432870e+01 4.444004e+01 4.436544e+01 4.763486e+01 4.544459e+01 4.919664e+01 6.388539e+01 5.079112e+01 3.711778e+01 2.759266e+01 7.995586e+01 5.687670e-01 9.404082e-01 1.027698e+00 1.124193e+00 1.008184e+00 1.128447e+00 9.344301e-01 1.304338e+00 1.202019e+00 1.038337e+00 7.938831e-01 7.100713e-01 1.033960e+00 5.759029e-02 9.326097e-02 8.367358e-02 1.240995e-01 9.674717e-02 1.209438e-01 1.017980e-01 1.415676e-01 1.330882e-01 1.178729e-01 9.332053e-02 8.179596e-02 9.590300e-02
<GCONST> 9.077046e+01
<STATE> 4
<MEAN> 39
 3.390800e+00 -1.662283e+00 -4.449031e-01 1.712857e-01 8.276119e-01 -1.685589e+00 -1.304432e+00 9.586848e-02 -2.269412e+00 -3.988319e+00 -3.791280e+00 -8.118983e-01 4.887264e+00 -3.288312e-02 1.236229e-01 9.325159e-02 2.204620e-02 -5.170209e-02 2.939145e-02 1.449615e-02 -1.788662e-02 1.727686e-02 7.911404e-02 8.579133e-02 -4.422271e-03 -2.472593e-01 -2.512285e-02 -2.177920e-03 -4.322111e-03 -1.815628e-02 -7.324926e-03 1.298574e-02 1.450871e-02 1.658395e-03 1.596310e-02 4.319181e-02 3.271213e-02 -1.731999e-03 -1.248238e-03
<VARIANCE> 39
 2.710387e+01 3.799145e+01 3.989968e+01 4.091512e+01 4.297537e+01 4.505170e+01 4.006900e+01 4.931049e+01 6.153091e+01 4.722356e+01 3.404791e+01 2.698722e+01 7.417654e+01 5.537555e-01 8.878646e-01 8.634707e-01 1.063907e+00 9.563413e-01 1.073247e+00 8.421487e-01 1.228778e+00 1.173977e+00 1.001080e+00 7.360834e-01 6.322767e-01 9.768893e-01 5.251520e-02 8.628808e-02 7.360965e-02 1.128571e-01 9.370334e-02 1.182957e-01 9.417637e-02 1.376907e-01 1.271388e-01 1.131089e-01 8.772095e-02 7.408839e-02 8.586784e-02
<GCONST> 8.814424e+01
<TRANSP> 5
 0.000000e+00 1.000000e+00 0.000000e+00 0.000000e+00 0.000000e+00
 0.000000e+00 5.576397e-01 4.423604e-01 0.000000e+00 0.000000e+00
 0.000000e+00 0.000000e+00 5.741776e-01 4.258224e-01 0.000000e+00
 0.000000e+00 0.000000e+00 0.000000e+00 7.601575e-01 2.398425e-01
 0.000000e+00 0.000000e+00 0.000000e+00 0.000000e+00 0.000000e+00
<ENDHMM>
~h "o"
<BEGINHMM>
<NUMSTATES> 5
<STATE> 2
<MEAN> 39
 4.044679e+00 -1.360535e+00 -2.714426e+00 -1.143479e+00 1.997542e-01 6.488730e-01 -2.695384e-01 -2.521422e-01 2.465652e-01 1.744229e+00 8.022258e-01 -5.507189e-01 7.542689e-01 5.429478e-01 1.314976e-01 -3.220766e-01 -1.483366e-01 6.091695e-02 1.170458e-02 -3.512120e-01 -1.092829e-01 -2.681042e-02 1.112065e-01 -1.080018e-01 -2.057468e-01 4.996919e-01 -8.050317e-03 2.190670e-02 1.997646e-02 1.262279e-03 -6.888999e-04 -5.837012e-02 -4.479487e-02 -3.878477e-03 2.417447e-02 -3.037618e-02 -5.251398e-02 -1.026632e-02 6.862421e-02
<VARIANCE> 39
 5.234318e+01 4.540167e+01 7.716113e+01 7.642300e+01 5.508747e+01 6.079063e+01 6.548803e+01 5.053304e+01 5.704635e+01 4.279772e+01 4.240749e+01 2.445035e+01 1.162331e+02 1.146333e+00 1.335055e+00 1.642784e+00 1.868496e+00 1.486338e+00 1.780917e+00 1.754832e+00 1.211031e+00 1.713226e+00 1.254736e+00 1.251683e+00 7.751582e-01 2.816164e+00 1.102636e-01 1.291418e-01 1.621749e-01 2.090593e-01 1.739822e-01 1.999949e-01 1.976192e-01 1.539445e-01 1.853585e-01 1.525987e-01 1.582830e-01 9.959395e-02 2.117766e-01
<GCONST> 1.051439e+02
<STATE> 3
<MEAN> 39
 5.724065e+00 -5.196667e-01 -4.317745e+00 -1.920692e+00 7.475172e-01 6.367844e-01 -1.705686e+00 -5.073499e-01 7.014060e-01 1.988062e+00 2.636004e-01 -1.158285e+00 2.507684e+00 3.817085e-01 4.332628e-02 -2.886526e-01 -1.134317e-01 3.889195e-02 -1.405698e-01 -3.959031e-01 -4.740807e-02 1.067518e-01 3.751543e-02 -2.912995e-01 -1.625209e-01 7.713411e-01 -9.786159e-02 -3.006744e-02 8.728074e-02 6.055175e-02 -4.473997e-03 -5.848596e-02 2.025746e-02 2.746474e-02 1.141386e-02 -4.341493e-02 -3.403329e-02 3.246417e-02 -3.163928e-02
<VARIANCE> 39
 5.106374e+01 3.590199e+01 7.758476e+01 7.645029e+01 5.471447e+01 5.751088e+01 6.053788e+01 4.585394e+01 5.634776e+01 4.509723e+01 4.484266e+01 2.736057e+01 9.503342e+01 1.454067e+00 1.385895e+00 2.020767e+00 2.468212e+00 1.858545e+00 1.917253e+00 1.734222e+00 1.207363e+00 1.825415e+00 1.320327e+00 1.360112e+00 8.602010e-01 3.567994e+00 1.237347e-01 1.330221e-01 1.938283e-01 2.406959e-01 1.862706e-01 2.216040e-01 1.847576e-01 1.403779e-01 2.050309e-01 1.737736e-01 1.826205e-01 1.159392e-01 2.072443e-01
<GCONST> 1.072199e+02
<STATE> 4
<MEAN> 39
 5.699851e+00 -6.421263e-01 -5.309722e+00 -1.923844e+00 1.677901e+00 1.136954e-01 -3.139146e+00 -1.126573e+00 9.678559e-01 1.390329e+00 -1.091841e+00 -9.906187e-01 4.898339e+00 -6.335771e-02 -1.186623e-01 1.143783e-01 1.309506e-01 2.661722e-03 -2.350678e-01 -1.749785e-01 1.743966e-02 5.125723e-02 -1.723465e-01 -2.959161e-01 -3.983195e-02 5.233949e-01 -8.650895e-02 -5.135570e-03 1.219519e-01 6.792642e-02 -1.973130e-02 -2.262053e-02 6.223473e-02 1.697089e-02 -4.157933e-02 -5.512066e-02 3.418579e-02 2.550036e-02 -1.219819e-01
<VARIANCE> 39
 4.568006e+01 3.074207e+01 6.230447e+01 6.511993e+01 5.399748e+01 4.665825e+01 5.824889e+01 3.882115e+01 6.523376e+01 5.119776e+01 4.237328e+01 3.392223e+01 7.806054e+01 1.127312e+00 1.111681e+00 2.049223e+00 2.244293e+00 1.876282e+00 1.615039e+00 1.500336e+00 1.093637e+00 1.703467e+00 1.264744e+00 1.405237e+00 1.043656e+00 2.704672e+00 1.087551e-01 1.231951e-01 1.854896e-01 2.102507e-01 1.933523e-01 1.863835e-01 1.633304e-01 1.214089e-01 2.130101e-01 1.647864e-01 1.827882e-01 1.386709e-01 2.039459e-01
<GCONST> 1.046158e+02
<TRANSP> 5
 0.000000e+00 1.000000e+00 0.000000e+00 0.000000e+00 0.000000e+00
 0.000000e+00 5.532712e-01 4.467288e-01 0.000000e+00 0.000000e+00
 0.000000e+00 0.000000e+00 5.785026e-01 4.214974e-01 0.000000e+00
 0.000000e+00 0.000000e+00 0.000000e+00 7.425429e-01 2.574571e-01
 0.000000e+00 0.000000e+00 0.000000e+00 0.000000e+00 0.000000e+00
<ENDHMM>
~h "p"
<BEGINHMM>
<NUMSTATES> 5
<STATE> 2
<MEAN> 39
 -4.841374e-01 -2.700770e+00 -3.538440e+00 3.228203e+00 -2.353078e-01 8.475794e-01 1.413078e+00 1.127551e+00 1.447886e+00 2.739767e-01 1.051991e+00 -7.922822e-01 -1.159141e+00 2.180166e-02 -2.216137e-01 6.094463e-03 2.506699e-01 1.083597e-01 1.041685e-01 2.200998e-01 1.303606e-01 1.335560e-01 9.658598e-02 1.479065e-01 3.462125e-02 -3.404875e-01 3.340731e-02 1.250107e-02 4.130779e-02 -5.682457e-02 -2.226135e-02 -5.588645e-02 -8.611521e-03 1.856024e-02 -4.770106e-03 -6.408878e-03 -1.893749e-02 1.501367e-02 1.394430e-01
<VARIANCE> 39
 8.844382e+01 8.336926e+01 4.435232e+01 5.619471e+01 6.074093e+01 6.332265e+01 4.436478e+01 4.219100e+01 5.124747e+01 4.428284e+01 3.462011e+01 2.524786e+01 1.141609e+02 9.668143e-01 9.811254e-01 9.151140e-01 1.038457e+00 1.278602e+00 1.005073e+00 9.494830e-01 8.014745e-01 1.169894e+00 7.733576e-01 8.641955e-01 6.017529e-01 2.437258e+00 1.121711e-01 1.067832e-01 9.432852e-02 1.189875e-01 1.442762e-01 1.306891e-01 1.299364e-01 9.975730e-02 1.320978e-01 1.027834e-01 1.060868e-01 7.255693e-02 2.078036e-01
<GCONST> 9.547375e+01
<STATE> 3
<MEAN> 39
 -1.605296e-01 -3.938155e+00 -3.164925e+00 3.477314e+00 2.591593e-01 1.599061e+00 2.386707e+00 1.980229e+00 2.077830e+00 6.133860e-01 1.368039e+00 -4.022065e-01 -2.663237e+00 8.498293e-02 -1.269186e-01 1.012430e-01 1.432738e-01 6.005649e-02 -5.381880e-02 1.656990e-01 1.602461e-01 1.318410e-01 7.630075e-02 1.132398e-01 3.518578e-02 -9.942204e-03 3.042165e-02 2.374619e-02 3.057004e-02 -9.380769e-02 -3.484568e-02 -6.715542e-02 -3.985951e-02 9.386198e-03 -1.150547e-02 -2.999330e-02 -4.376268e-02 3.038725e-03 1.841679e-01
<VARIANCE> 39
 9.166668e+01 5.815594e+01 4.586676e+01 5.189888e+01 5.741511e+01 5.646291e+01 4.317817e+01 3.843456e+01 5.500633e+01 4.416174e+01 3.206146e+01 2.320662e+01 1.247365e+02 1.321936e+00 1.245435e+00 1.093284e+00 1.147503e+00 1.390021e+00 1.233899e+00 1.029917e+00 9.001446e-01 1.285340e+00 8.329305e-01 9.074314e-01 6.214876e-01 3.550616e+00 1.319038e-01 1.169898e-01 1.122865e-01 1.265607e-01 1.657473e-01 1.486752e-01 1.333944e-01 1.033310e-01 1.439926e-01 1.172145e-01 1.084731e-01 7.793115e-02 2.394556e-01
<GCONST> 9.802004e+01
<STATE> 4
<MEAN> 39
 8.272059e-01 -4.877447e+00 -2.644970e+00 4.142670e+00 1.316583e+00 1.498817e+00 3.088611e+00 2.830144e+00 1.620059e+00 4.629373e-01 1.225367e+00 1.661128e-01 -1.887132e+00 2.194119e-01 -3.225834e-02 1.421928e-03 -1.007001e-01 -5.383652e-02 -1.754389e-01 -2.551258e-02 6.633136e-02 -2.542022e-02 -1.304079e-01 -1.011975e-01 3.437524e-02 5.827363e-01 1.470571e-02 1.624209e-02 -4.427899e-03 -8.499785e-02 -4.046781e-02 -1.567712e-02 -5.066457e-02 -3.347002e-03 -3.904875e-02 -4.126433e-02 -3.985742e-02 -8.145397e-03 5.078048e-02
<VARIANCE> 39
 9.291830e+01 5.108175e+01 5.110546e+01 6.327671e+01 6.328001e+01 5.786039e+01 4.310357e+01 3.479610e+01 6.911831e+01 4.717627e+01 3.510858e+01 2.521745e+01 1.995352e+02 1.993013e+00 1.323996e+00 1.322270e+00 1.681632e+00 1.587174e+00 1.819583e+00 1.101426e+00 8.895890e-01 1.586473e+00 1.096430e+00 1.013821e+00 6.420308e-01 6.525245e+00 1.797642e-01 1.245653e-01 1.332342e-01 1.711200e-01 1.776702e-01 1.916300e-01 1.237372e-01 1.045263e-01 1.765839e-01 1.268811e-01 1.148574e-01 8.490264e-02 5.269224e-01
<GCONST> 1.043461e+02
<TRANSP> 5
 0.000000e+00 1.000000e+00 0.000000e+00 0.000000e+00 0.000000e+00
 0.000000e+00 5.237703e-01 4.762298e-01 0.000000e+00 0.000000e+00
 0.000000e+00 0.000000e+00 5.124555e-01 4.875444e-01 0.000000e+00
 0.000000e+00 0.000000e+00 0.000000e+00 7.392694e-01 2.607307e-01
 0.000000e+00 0.000000e+00 0.000000e+00 0.000000e+00 0.000000e+00
<ENDHMM>
~h "r"
<BEGINHMM>
<NUMSTATES> 5
<STATE> 2
<MEAN> 39
 -7.844701e-01 -2.119528e+00 -9.632263e-01 1.947519e+00 -1.725387e-01 1.004479e+00 9.901009e-01 1.872681e+00 1.350697e+00 2.248062e-01 1.316188e+00 6.996914e-01 -1.143095e+00 -1.196830e-02 1.285213e-02 1.226603e-01 5.389057e-02 6.377698e-02 6.934309e-02 -4.952046e-02 4.040435e-02 1.900278e-02 -1.047482e-02 5.867688e-02 1.748377e-02 -1.773711e-01 2.375146e-02 9.496334e-03 1.266188e-02 -4.327431e-02 -3.628182e-03 -3.248259e-02 -2.084980e-02 -2.167256e-02 -2.171571e-02 -3.863309e-03 -2.907200e-02 -3.027548e-02 3.776363e-02
<VARIANCE> 39
 7.265858e+01 4.403664e+01 5.446317e+01 5.964914e+01 7.324547e+01 5.695330e+01 5.202515e+01 4.636675e+01 5.209844e+01 4.549957e+01 4.385871e+01 2.588993e+01 2.313211e+02 1.079971e+00 8.465999e-01 1.031596e+00 9.484043e-01 1.415186e+00 1.155497e+00 1.030049e+00 1.040956e+00 1.134011e+00 1.020891e+00 8.807117e-01 5.857787e-01 1.874830e+00 9.661360e-02 8.546818e-02 9.306576e-02 1.053732e-01 1.487749e-01 1.233342e-01 1.242200e-01 1.200238e-01 1.280041e-01 1.149735e-01 9.833109e-02 7.548202e-02 1.393385e-01
<GCONST> 9.605289e+01
<STATE> 3
<MEAN> 39
 -4.312673e-02 -2.170680e+00 -7.792234e-01 1.589985e+00 -3.172459e-01 6.817545e-01 6.430366e-01 1.871342e+00 1.444334e+00 1.083746e-01 8.564699e-01 6.263181e-01 5.050801e-02 5.437915e-02 7.153664e-03 1.616409e-01 -5.232401e-02 6.354050e-03 -3.977202e-02 -9.778020e-02 -4.803171e-02 -4.869170e-02 -3.541427e-02 -1.792992e-02 -4.312769e-02 -7.906815e-03 2.656847e-02 1.037566e-02 1.909137e-02 -5.680037e-02 -1.718704e-02 -3.321793e-02 -1.266764e-02 -2.903991e-02 -2.610756e-02 5.048828e-05 -3.635401e-02 -2.012090e-02 4.344961e-02
<VARIANCE> 39
 6.530894e+01 4.379529e+01 5.554408e+01 5.746807e+01 7.402811e+01 5.836243e+01 5.436066e+01 4.735726e+01 5.224424e+01 4.390928e+01 4.324675e+01 2.469545e+01 2.163584e+02 1.006091e+00 9.198864e-01 1.179584e+00 9.979524e-01 1.531451e+00 1.193547e+00 1.140358e+00 1.029456e+00 1.172143e+00 1.063016e+00 9.406375e-01 6.174154e-01 2.182738e+00 9.752028e-02 9.238151e-02 1.003959e-01 1.113451e-01 1.599261e-01 1.354362e-01 1.327368e-01 1.208084e-01 1.283275e-01 1.202707e-01 1.071794e-01 8.044573e-02 1.663809e-01
<GCONST> 9.743700e+01
<STATE> 4
<MEAN> 39
 2.788715e-01 -2.192999e+00 -4.587259e-01 1.134474e+00 -3.744650e-01 3.012290e-01 3.166129e-01 1.705900e+00 1.399082e+00 -8.036166e-02 5.225463e-01 4.807158e-01 7.636411e-01 1.319501e-01 -9.635809e-03 1.899990e-01 -1.763446e-01 -9.072709e-02 -1.363841e-01 -1.239731e-01 -1.030442e-01 -9.824029e-02 -3.217141e-02 -1.225769e-01 -5.976244e-02 2.241815e-01 1.841671e-02 1.821367e-02 6.533465e-03 -3.697025e-02 -2.777288e-02 -1.549278e-02 -2.479564e-03 -2.362730e-02 -2.052987e-02 4.333394e-03 -3.371108e-02 -4.383446e-03 3.108872e-02
<VARIANCE> 39
 6.059445e+01 4.534955e+01 5.765555e+01 5.385997e+01 7.104391e+01 5.558006e+01 5.610556e+01 5.010871e+01 5.432277e+01 4.461090e+01 4.757122e+01 2.398185e+01 2.175148e+02 1.140819e+00 1.084114e+00 1.347228e+00 1.131752e+00 1.780909e+00 1.232201e+00 1.321998e+00 1.103023e+00 1.270403e+00 1.092126e+00 1.099771e+00 6.616763e-01 3.217714e+00 1.133844e-01 9.801995e-02 1.125116e-01 1.139922e-01 1.660058e-01 1.413254e-01 1.413358e-01 1.276135e-01 1.368247e-01 1.223211e-01 1.227230e-01 8.515351e-02 2.348932e-01
<GCONST> 1.003261e+02
<TRANSP> 5
 0.000000e+00 1.000000e+00 0.000000e+00 0.000000e+00 0.000000e+00
 0.000000e+00 4.997492e-01 5.002508e-01 0.000000e+00 0.000000e+00
 0.000000e+00 0.000000e+00 4.560781e-01 5.439218e-01 0.000000e+00
 0.000000e+00 0.000000e+00 0.000000e+00 5.464429e-01 4.535572e-01
 0.000000e+00 0.000000e+00 0.000000e+00 0.000000e+00 0.000000e+00
<ENDHMM>
~h "s"
<BEGINHMM>
<NUMSTATES> 5
<STATE> 2
<MEAN> 39
 -7.996918e+00 7.461296e+00 -1.091791e+00 1.481936e+00 -1.214904e+00 -5.311320e+00 2.106848e+00 -1.449669e+00 5.318278e-02 9.602853e-01 1.478419e+00 7.807916e-02 5.039870e+00 -8.667274e-01 5.021667e-01 -2.608418e-01 2.109912e-01 3.342957e-01 -2.209036e-01 1.899236e-01 1.133275e-02 1.376349e-02 5.918996e-03 1.348974e-01 -6.311382e-02 -3.367668e-03 7.152463e-02 -7.446569e-02 9.910733e-03 -2.778584e-02 -3.271573e-02 5.108909e-02 -3.651813e-02 1.296703e-02 -6.208501e-03 -1.139272e-02 -2.115008e-02 -5.028333e-03 1.260570e-02
<VARIANCE> 39
 1.444017e+02 7.065497e+01 9.237391e+01 7.535549e+01 8.232301e+01 7.083388e+01 7.787778e+01 6.042973e+01 5.832798e+01 6.004594e+01 4.729496e+01 3.781108e+01 4.526264e+01 3.756503e+00 2.167761e+00 2.023305e+00 2.467326e+00 2.106894e+00 1.787418e+00 1.767035e+00 1.796754e+00 1.680266e+00 1.523569e+00 1.507526e+00 1.025386e+00 1.057400e+00 3.149011e-01 1.970857e-01 1.876704e-01 2.484630e-01 2.003096e-01 1.772512e-01 1.869776e-01 1.939305e-01 1.831535e-01 1.744966e-01 1.739229e-01 1.246892e-01 9.175397e-02
<GCONST> 1.118004e+02
<STATE> 3
<MEAN> 39
 -8.348908e+00 7.399610e+00 -2.090753e+00 1.568993e+00 6.022753e-02 -5.416355e+00 1.757317e+00 -1.052259e+00 -1.003308e-01 4.651120e-01 1.403108e+00 2.625944e-02 5.209721e+00 1.027976e-01 -9.612203e-02 -4.925662e-02 -1.062643e-01 7.319860e-02 5.854337e-02 -6.807755e-02 2.140140e-02 -9.770801e-03 -6.028801e-02 -4.452866e-02 -3.715841e-02 4.680982e-02 1.432895e-01 -7.557269e-02 2.588267e-02 -4.177381e-02 -4.050727e-02 4.698639e-02 -3.894693e-02 -7.373553e-03 -6.696996e-03 -1.227429e-03 -2.813896e-02 3.129237e-03 2.135432e-03
<VARIANCE> 39
 1.414686e+02 6.001547e+01 9.419916e+01 7.462993e+01 8.529832e+01 7.002740e+01 7.089950e+01 6.537594e+01 5.422515e+01 5.594709e+01 4.882020e+01 3.727306e+01 3.867793e+01 4.288590e+00 2.019220e+00 2.167343e+00 2.787985e+00 1.928562e+00 1.938059e+00 1.913600e+00 1.695405e+00 1.626089e+00 1.627417e+00 1.622254e+00 1.037738e+00 1.188565e+00 3.007441e-01 1.860173e-01 1.887363e-01 2.696520e-01 1.910850e-01 2.107338e-01 2.024122e-01 1.859871e-01 1.873257e-01 1.854129e-01 1.772836e-01 1.208414e-01 1.163315e-01
<GCONST> 1.123093e+02
<STATE> 4
<MEAN> 39
 -3.337505e+00 5.081642e+00 -2.410648e+00 -1.017667e-01 8.595391e-01 -4.315275e+00 1.344826e-01 -4.770837e-01 2.187496e-01 2.820092e-01 6.959568e-01 -6.716244e-03 5.748990e+00 6.543970e-01 -3.878083e-01 3.393596e-02 -2.014341e-01 -5.650549e-02 2.266028e-01 -1.806868e-01 1.187829e-02 1.621616e-02 -1.886315e-02 -1.067273e-01 -5.534583e-02 7.952575e-02 2.423588e-02 -1.281813e-02 1.234578e-02 1.761110e-02 3.205622e-04 3.026316e-02 2.442430e-03 -4.004967e-03 -1.498610e-02 -3.229401e-03 6.237633e-03 8.463540e-03 -2.932203e-02
<VARIANCE> 39
 1.322475e+02 5.283543e+01 9.416982e+01 6.399808e+01 7.742233e+01 6.218758e+01 7.169280e+01 5.919247e+01 5.978668e+01 5.199433e+01 4.676462e+01 3.263916e+01 4.297252e+01 3.078350e+00 1.647439e+00 1.832343e+00 2.165031e+00 1.648008e+00 1.554891e+00 1.855913e+00 1.506968e+00 1.758230e+00 1.701552e+00 1.375285e+00 9.461510e-01 1.391342e+00 2.620082e-01 1.623635e-01 1.706342e-01 2.256474e-01 1.779806e-01 1.832858e-01 2.259151e-01 1.673718e-01 2.038844e-01 1.970096e-01 1.649655e-01 1.108425e-01 1.492487e-01
<GCONST> 1.096285e+02
<TRANSP> 5
 0.000000e+00 1.000000e+00 0.000000e+00 0.000000e+00 0.000000e+00
 0.000000e+00 8.484562e-01 1.515438e-01 0.000000e+00 0.000000e+00
 0.000000e+00 0.000000e+00 8.243150e-01 1.756850e-01 0.000000e+00
 0.000000e+00 0.000000e+00 0.000000e+00 8.816186e-01 1.183814e-01
 0.000000e+00 0.000000e+00 0.000000e+00 0.000000e+00 0.000000e+00
<ENDHMM>
~h "t"
<BEGINHMM>
<NUMSTATES> 5
<STATE> 2
<MEAN> 39
 6.253622e-01 -1.504125e+00 3.152989e-01 3.429763e-02 -3.686063e-01 -9.531724e-01 1.034530e+00 7.393125e-01 6.250062e-01 -6.559230e-01 -8.684814e-01 4.338127e-02 3.121700e+00 -3.282087e-02 -1.867092e-01 -6.455353e-02 -1.295869e-01 4.227827e-02 -2.418113e-02 -2.782523e-02 4.975996e-02 1.315800e-01 -3.928551e-02 -2.536812e-02 1.188115e-02 1.816398e-01 3.993816e-02 -5.819294e-03 -9.551683e-03 -1.819254e-02 -1.956142e-02 -1.556639e-02 -2.747559e-02 -1.400728e-02 -3.965764e-03 1.299881e-02 -6.782974e-03 -4.318458e-03 9.079519e-02
<VARIANCE> 39
 4.377079e+01 4.982088e+01 7.457453e+01 5.640798e+01 6.575455e+01 5.183238e+01 6.295863e+01 5.873632e+01 6.164515e+01 4.242516e+01 4.393518e+01 2.745707e+01 1.235873e+02 1.152847e+00 1.150626e+00 1.339546e+00 1.138587e+00 1.244466e+00 1.190464e+00 1.571890e+00 1.441706e+00 1.792797e+00 1.136731e+00 1.024953e+00 7.156650e-01 2.964829e+00 1.279245e-01 1.254996e-01 1.105099e-01 1.122655e-01 1.259822e-01 1.430912e-01 1.767114e-01 1.757970e-01 1.697188e-01 1.262001e-01 1.230353e-01 8.689786e-02 3.127094e-01
<GCONST> 1.016914e+02
<STATE> 3
<MEAN> 39
 8.379563e-01 -1.790595e+00 6.007973e-01 -7.313575e-01 -9.535085e-01 -1.436147e+00 -1.762474e-02 3.529658e-01 6.379062e-01 -5.509242e-01 -8.137851e-01 -1.043234e-01 4.297727e+00 1.308483e-01 -1.427312e-01 -8.074097e-02 -1.797050e-01 -3.150798e-02 -6.647484e-02 -1.259813e-01 8.681595e-03 7.197831e-02 -2.703401e-02 -1.178778e-01 1.218631e-02 3.884172e-01 4.555011e-02 3.078117e-02 -1.420728e-02 -9.824857e-04 -1.499228e-02 1.366762e-02 -1.246056e-02 -2.940453e-02 -2.984173e-02 1.130036e-02 -9.157109e-03 -1.060613e-02 1.672641e-02
<VARIANCE> 39
 4.147777e+01 4.538495e+01 6.997376e+01 5.515925e+01 6.411123e+01 5.176762e+01 5.674553e+01 5.375452e+01 6.400858e+01 4.544492e+01 4.265860e+01 2.735319e+01 1.277712e+02 1.204674e+00 1.347049e+00 1.460772e+00 1.243037e+00 1.312340e+00 1.266923e+00 1.737575e+00 1.537642e+00 1.992412e+00 1.150643e+00 1.225513e+00 7.896246e-01 3.692285e+00 1.240581e-01 1.208173e-01 1.215132e-01 1.193618e-01 1.367666e-01 1.458708e-01 1.893210e-01 1.734935e-01 1.819956e-01 1.366858e-01 1.391096e-01 9.500877e-02 3.202488e-01
<GCONST> 1.032459e+02
<STATE> 4
<MEAN> 39
 1.696012e+00 -2.253435e+00 3.232444e-01 -1.757652e+00 -1.810543e+00 -2.267927e+00 -1.014088e+00 6.113562e-02 3.232109e-01 -8.880606e-01 -1.745401e+00 -3.117366e-02 6.511241e+00 1.835525e-01 -2.589654e-02 -1.013943e-01 -7.741309e-02 -1.681058e-02 1.089737e-02 -5.656660e-02 -6.589414e-02 -2.796978e-02 -3.007992e-02 -9.572963e-02 -5.354463e-03 1.906735e-01 -9.004379e-03 3.516606e-02 6.644933e-03 3.044506e-02 9.281132e-03 3.999649e-02 3.143774e-02 -1.471866e-02 -2.639663e-02 1.349568e-02 2.399488e-02 -7.784361e-03 -7.206576e-02
<VARIANCE> 39
 3.468489e+01 4.527597e+01 7.315017e+01 5.404277e+01 6.184105e+01 4.824131e+01 5.727555e+01 5.562165e+01 7.001534e+01 5.273906e+01 4.298562e+01 3.009785e+01 1.116358e+02 1.138665e+00 1.295314e+00 1.514361e+00 1.413934e+00 1.218382e+00 1.277485e+00 1.689842e+00 1.561852e+00 1.833240e+00 1.163982e+00 1.249410e+00 8.696389e-01 3.344190e+00 1.083925e-01 1.116306e-01 1.328994e-01 1.238021e-01 1.328261e-01 1.453910e-01 1.883149e-01 1.766263e-01 1.907509e-01 1.378669e-01 1.444993e-01 1.045304e-01 2.998616e-01
<GCONST> 1.031838e+02
<TRANSP> 5
 0.000000e+00 1.000000e+00 0.000000e+00 0.000000e+00 0.000000e+00
 0.000000e+00 5.247749e-01 4.752251e-01 0.000000e+00 0.000000e+00
 0.000000e+00 0.000000e+00 5.188316e-01 4.811684e-01 0.000000e+00
 0.000000e+00 0.000000e+00 0.000000e+00 6.697580e-01 3.302421e-01
 0.000000e+00 0.000000e+00 0.000000e+00 0.000000e+00 0.000000e+00
<ENDHMM>
~h "u"
<BEGINHMM>
<NUMSTATES> 5
<STATE> 2
<MEAN> 39
 3.488420e+00 1.762516e+00 -1.714760e+00 -2.859052e-01 1.496128e+00 -1.251024e+00 -3.183284e+00 -2.009097e+00 -7.646477e-01 8.178380e-01 1.452440e+00 4.341795e-01 -3.891064e-01 -1.125552e-01 1.399374e-01 -1.460183e-02 6.761634e-02 1.617142e-01 1.801528e-01 8.478818e-02 -6.814694e-02 -5.435996e-02 3.423263e-02 1.012936e-01 4.698914e-02 -5.317920e-01 -2.682148e-02 -2.411116e-02 2.684179e-02 4.648238e-03 -2.820332e-02 -1.049002e-02 5.019074e-02 4.433750e-02 1.741798e-02 -2.991232e-02 -2.788812e-02 -1.285965e-02 2.762260e-03
<VARIANCE> 39
 5.001151e+01 2.884916e+01 4.596644e+01 4.350916e+01 4.192369e+01 4.636869e+01 5.990125e+01 4.191063e+01 4.274903e+01 4.006263e+01 3.925534e+01 2.436929e+01 1.243013e+02 8.607454e-01 6.501380e-01 8.201053e-01 9.706662e-01 8.672967e-01 1.058804e+00 1.340857e+00 9.511135e-01 1.044221e+00 8.926210e-01 7.168120e-01 5.727459e-01 1.263974e+00 8.398728e-02 6.873079e-02 7.697938e-02 1.036466e-01 9.710941e-02 1.255175e-01 1.665206e-01 1.082624e-01 1.149140e-01 1.102397e-01 9.192240e-02 7.971897e-02 1.213575e-01
<GCONST> 8.990562e+01
<STATE> 3
<MEAN> 39
 2.835380e+00 1.909269e+00 -1.469861e+00 1.867059e-02 1.789479e+00 -7.823983e-01 -2.688103e+00 -1.987536e+00 -8.623762e-01 6.672941e-01 1.425521e+00 5.146550e-01 -1.986291e+00 -1.813598e-01 7.769166e-02 3.827082e-02 8.052105e-02 1.124092e-01 1.433033e-01 1.538793e-01 3.482447e-02 -2.424784e-02 -4.319562e-02 4.431022e-02 1.631885e-02 -5.279926e-01 -1.707337e-02 -2.703268e-02 1.352294e-02 -9.852872e-03 -3.100634e-02 -2.063368e-02 1.485043e-02 3.487976e-02 2.488310e-02 -1.526643e-02 -1.100171e-02 -1.551166e-02 3.477386e-02
<VARIANCE> 39
 5.260544e+01 2.818591e+01 4.402127e+01 4.112474e+01 4.167251e+01 4.380165e+01 5.293070e+01 4.192739e+01 4.095034e+01 3.798910e+01 3.841822e+01 2.323587e+01 1.496469e+02 7.802449e-01 6.121292e-01 7.483776e-01 8.661375e-01 7.567283e-01 9.214571e-01 1.117507e+00 8.746026e-01 9.049870e-01 7.895516e-01 6.465300e-01 5.298087e-01 1.335156e+00 8.157077e-02 6.420421e-02 7.457309e-02 9.434000e-02 8.938699e-02 1.130261e-01 1.379949e-01 9.847030e-02 1.065453e-01 1.036680e-01 8.191983e-02 7.264195e-02 1.322389e-01
<GCONST> 8.741694e+01
<STATE> 4
<MEAN> 39
 6.406747e-01 1.756688e+00 -1.270474e+00 2.759928e-01 2.109938e+00 1.804629e-01 -1.535828e+00 -1.916741e+00 -1.187867e+00 -1.901245e-01 1.307966e+00 9.886468e-01 -5.093081e+00 -1.958722e-01 -2.135739e-02 4.896684e-02 7.052970e-02 7.601639e-02 7.276902e-02 1.003666e-01 7.862601e-02 3.206700e-02 -3.691243e-02 4.689167e-02 1.497079e-02 -3.383579e-01 8.164713e-03 -1.734648e-02 1.013728e-02 -1.897217e-02 -1.821220e-02 -1.677943e-02 -1.154267e-02 1.464518e-02 1.372169e-02 6.834472e-03 1.276165e-03 -1.309321e-02 6.387613e-02
<VARIANCE> 39
 4.472163e+01 2.149729e+01 3.556180e+01 2.971607e+01 3.362194e+01 3.731408e+01 3.941403e+01 3.645782e+01 3.687632e+01 3.247944e+01 3.502923e+01 2.031778e+01 1.893959e+02 6.380921e-01 4.578286e-01 5.711074e-01 6.523284e-01 6.065707e-01 7.040546e-01 8.228467e-01 6.610143e-01 7.193476e-01 6.456969e-01 5.454066e-01 4.288073e-01 1.294663e+00 6.488075e-02 4.955130e-02 6.017956e-02 7.090122e-02 7.266250e-02 8.532377e-02 9.785281e-02 8.020043e-02 8.649509e-02 8.332647e-02 6.608910e-02 5.537166e-02 1.137876e-01
<GCONST> 7.932970e+01
<TRANSP> 5
 0.000000e+00 1.000000e+00 0.000000e+00 0.000000e+00 0.000000e+00
 0.000000e+00 5.708717e-01 4.291283e-01 0.000000e+00 0.000000e+00
 0.000000e+00 0.000000e+00 5.738401e-01 4.261599e-01 0.000000e+00
 0.000000e+00 0.000000e+00 0.000000e+00 8.449430e-01 1.550569e-01
 0.000000e+00 0.000000e+00 0.000000e+00 0.000000e+00 0.000000e+00
<ENDHMM>
~h "w"
<BEGINHMM>
<NUMSTATES> 5
<STATE> 2
<MEAN> 39
 4.942841e+00 -3.068559e+00 -7.503695e+00 -1.914384e+00 5.370466e+00 2.764707e+00 -1.688962e+00 9.285957e-01 2.032606e+00 -5.469682e-01 -1.976082e+00 -1.585104e+00 5.311214e+00 1.069577e-01 -1.075865e-01 -2.825466e-01 -2.248774e-01 1.645636e-01 2.467055e-01 -7.666294e-02 1.209237e-03 5.605390e-02 7.456017e-02 -4.506974e-02 -2.287670e-01 2.475132e-01 -2.986950e-02 9.333041e-03 9.427650e-02 2.499708e-02 -8.826271e-02 -4.822778e-02 4.063104e-02 7.958683e-03 -3.462991e-02 5.587592e-04 8.187993e-03 4.072343e-02 -6.876023e-03
<VARIANCE> 39
 7.335596e+01 5.967324e+01 7.137039e+01 7.094361e+01 5.109754e+01 5.684826e+01 5.161008e+01 4.557624e+01 5.335620e+01 5.435777e+01 5.693984e+01 3.703153e+01 9.640408e+01 1.232938e+00 1.508745e+00 1.483950e+00 1.460402e+00 1.222365e+00 1.306563e+00 1.551742e+00 1.035120e+00 1.218656e+00 1.327572e+00 1.510695e+00 9.441431e-01 1.801347e+00 1.074729e-01 1.396317e-01 1.208754e-01 1.421949e-01 1.370542e-01 1.333288e-01 1.667308e-01 1.225568e-01 1.358810e-01 1.547115e-01 1.612570e-01 1.032564e-01 1.450411e-01
<GCONST> 1.022403e+02
<STATE> 3
<MEAN> 39
 5.115252e+00 -3.045334e+00 -7.671092e+00 -2.702468e+00 5.301039e+00 2.975620e+00 -1.719975e+00 7.166646e-01 1.862608e+00 -1.722873e-01 -1.895837e+00 -2.148223e+00 5.894263e+00 3.464376e-02 -3.851441e-02 7.141815e-02 -9.620793e-02 -1.163947e-01 4.804939e-02 5.094677e-02 5.185883e-05 -7.324741e-02 3.221575e-02 -5.418124e-03 -5.127920e-02 8.529666e-02 -2.831135e-02 2.535679e-02 1.181410e-01 4.736423e-02 -9.670720e-02 -7.110325e-02 2.937223e-02 -1.863113e-03 -3.061125e-02 -1.547044e-02 1.047179e-02 6.887407e-02 -3.095384e-02
<VARIANCE> 39
 7.109825e+01 5.745825e+01 7.464769e+01 6.886149e+01 5.093414e+01 5.706219e+01 5.325255e+01 4.301444e+01 4.825923e+01 5.513151e+01 5.350551e+01 3.586499e+01 9.157697e+01 1.249347e+00 1.301725e+00 1.355263e+00 1.397646e+00 1.343697e+00 1.245614e+00 1.542540e+00 1.053255e+00 1.143126e+00 1.316060e+00 1.480718e+00 9.710054e-01 1.424390e+00 1.115535e-01 1.244681e-01 1.174501e-01 1.446369e-01 1.413628e-01 1.350679e-01 1.682255e-01 1.217607e-01 1.302105e-01 1.483670e-01 1.535315e-01 1.032697e-01 1.356452e-01
<GCONST> 1.011748e+02
<STATE> 4
<MEAN> 39
 5.250870e+00 -3.011492e+00 -7.676576e+00 -3.304538e+00 4.512991e+00 2.500047e+00 -1.186041e+00 3.478997e-01 1.624571e+00 -5.851606e-01 -2.330004e+00 -1.921525e+00 6.094535e+00 -7.185715e-02 7.089183e-02 3.347509e-01 3.631379e-02 -3.360183e-01 -1.800244e-01 1.024238e-01 -7.476545e-03 -1.338425e-01 -4.898082e-02 3.843591e-02 1.254842e-01 -8.022351e-02 -2.461053e-02 4.493871e-02 8.292630e-02 4.305894e-02 -6.716894e-02 -5.148483e-02 5.183637e-03 -1.351004e-02 -2.087951e-02 3.320153e-03 2.850693e-02 3.676007e-02 -2.447747e-02
<VARIANCE> 39
 6.082588e+01 5.669620e+01 7.534452e+01 7.053902e+01 5.200394e+01 5.653859e+01 5.502354e+01 4.128320e+01 4.735465e+01 5.405222e+01 5.395037e+01 3.489271e+01 9.316858e+01 1.204032e+00 1.012083e+00 1.114947e+00 1.371971e+00 1.425471e+00 1.181856e+00 1.372129e+00 1.062387e+00 1.098712e+00 1.196465e+00 1.222862e+00 8.562992e-01 1.252518e+00 1.139281e-01 1.073453e-01 1.080089e-01 1.476399e-01 1.381590e-01 1.369646e-01 1.665431e-01 1.298635e-01 1.263774e-01 1.354641e-01 1.412983e-01 9.796861e-02 1.290808e-01
<GCONST> 9.936553e+01
<TRANSP> 5
 0.000000e+00 1.000000e+00 0.000000e+00 0.000000e+00 0.000000e+00
 0.000000e+00 6.193539e-01 3.806461e-01 0.000000e+00 0.000000e+00
 0.000000e+00 0.000000e+00 5.938039e-01 4.061961e-01 0.000000e+00
 0.000000e+00 0.000000e+00 0.000000e+00 6.918380e-01 3.081620e-01
 0.000000e+00 0.000000e+00 0.000000e+00 0.000000e+00 0.000000e+00
<ENDHMM>
~h "y"
<BEGINHMM>
<NUMSTATES> 5
<STATE> 2
<MEAN> 39
 -1.940966e-03 1.965367e+00 7.575388e+00 -4.920862e+00 -4.179684e+00 -5.810364e-01 -1.873761e+00 -2.940192e+00 -2.486333e+00 -5.235208e-01 -1.583726e+00 -6.707455e-01 7.557865e+00 1.071071e-01 -2.470986e-02 3.657803e-01 -2.775254e-01 -2.955601e-01 -8.978467e-02 -2.157942e-01 4.756950e-02 2.484652e-02 5.306524e-03 -1.112708e-01 5.483952e-02 2.934950e-01 2.864911e-02 -4.509744e-02 -7.979605e-02 5.905224e-02 1.667129e-02 -7.050156e-03 3.978353e-02 5.001722e-02 3.095770e-02 2.098299e-02 3.040033e-02 5.935062e-03 -4.198634e-02
<VARIANCE> 39
 3.485471e+01 6.023776e+01 9.326358e+01 8.172500e+01 5.700118e+01 4.844637e+01 5.756278e+01 7.755785e+01 6.209912e+01 4.315892e+01 5.694308e+01 3.635183e+01 4.820311e+01 7.655873e-01 1.488063e+00 2.294661e+00 1.630723e+00 1.746388e+00 1.683829e+00 1.599800e+00 2.169384e+00 1.648587e+00 1.256408e+00 1.202257e+00 1.031296e+00 1.144180e+00 6.867279e-02 1.499886e-01 1.860331e-01 1.205766e-01 1.760736e-01 1.849644e-01 1.944041e-01 2.186979e-01 1.661555e-01 1.427991e-01 1.442688e-01 1.268636e-01 9.327037e-02
<GCONST> 1.037787e+02
<STATE> 3
<MEAN> 39
 7.141404e-01 1.326947e+00 7.771008e+00 -5.306881e+00 -5.247092e+00 -9.974431e-01 -2.113034e+00 -1.780869e+00 -1.879576e+00 -2.674498e-01 -1.491760e+00 -5.268298e-01 8.468301e+00 2.087021e-01 -2.707630e-01 -2.003092e-01 3.972873e-02 -1.304506e-01 -1.021205e-01 6.684618e-02 2.738295e-01 6.503785e-02 1.308462e-02 1.013725e-02 -5.548021e-03 1.493825e-01 2.131993e-02 -3.532553e-02 -1.145763e-01 7.553771e-02 6.603805e-02 -6.405312e-03 4.571550e-02 1.805110e-02 4.137684e-03 3.641511e-03 1.559809e-02 1.241110e-03 -5.280018e-02
<VARIANCE> 39
 3.130293e+01 6.301089e+01 9.732752e+01 8.236119e+01 5.714794e+01 5.494360e+01 6.205079e+01 8.752927e+01 6.708369e+01 4.133111e+01 5.558841e+01 3.460168e+01 4.602743e+01 5.940349e-01 1.561300e+00 2.538006e+00 1.489356e+00 1.781787e+00 1.762955e+00 1.935817e+00 2.221565e+00 1.802516e+00 1.266671e+00 1.242357e+00 9.662240e-01 9.678993e-01 5.178338e-02 1.499683e-01 1.844630e-01 1.278701e-01 1.923297e-01 2.047084e-01 2.107663e-01 2.436345e-01 1.813113e-01 1.421232e-01 1.456208e-01 1.162753e-01 8.232643e-02
<GCONST> 1.040143e+02
<STATE> 4
<MEAN> 39
 2.808211e+00 -2.282358e-01 5.372979e+00 -4.224786e+00 -5.232245e+00 -1.367879e+00 -1.492464e+00 2.650545e-01 -1.862173e+00 -3.984085e-01 -1.264204e+00 -6.140683e-01 8.991902e+00 2.222507e-01 -2.043715e-01 -5.234452e-01 2.045529e-01 2.099800e-01 -2.577556e-02 1.319987e-01 1.782641e-01 7.713392e-02 1.206041e-02 -4.043037e-02 2.364076e-02 -8.048357e-02 -2.996219e-03 2.746172e-02 -1.802142e-02 3.935353e-02 4.868529e-02 1.574458e-02 -6.368557e-03 -3.797694e-02 7.505175e-03 3.609916e-03 1.870893e-03 7.689630e-03 -5.149414e-02
<VARIANCE> 39
 3.084056e+01 5.595493e+01 1.035215e+02 6.490103e+01 5.977804e+01 5.626732e+01 6.374655e+01 8.532796e+01 6.990072e+01 4.130720e+01 5.220405e+01 3.252193e+01 4.685666e+01 4.730526e-01 1.323280e+00 2.034823e+00 1.362314e+00 1.479859e+00 1.691564e+00 1.682879e+00 1.971109e+00 1.671718e+00 1.099701e+00 1.189903e+00 7.933934e-01 8.556920e-01 4.150527e-02 1.153450e-01 1.554296e-01 1.041261e-01 1.461675e-01 1.828692e-01 1.855878e-01 2.269709e-01 1.722855e-01 1.155690e-01 1.261195e-01 9.252815e-02 6.835537e-02
<GCONST> 9.967609e+01
<TRANSP> 5
 0.000000e+00 1.000000e+00 0.000000e+00 0.000000e+00 0.000000e+00
 0.000000e+00 7.659644e-01 2.340356e-01 0.000000e+00 0.000000e+00
 0.000000e+00 0.000000e+00 7.506343e-01 2.493657e-01 0.000000e+00
 0.000000e+00 0.000000e+00 0.000000e+00 8.809869e-01 1.190132e-01
 0.000000e+00 0.000000e+00 0.000000e+00 0.000000e+00 0.000000e+00
<ENDHMM>
~h "aa"
<BEGINHMM>
<NUMSTATES> 5
<STATE> 2
<MEAN> 39
 3.398725e+00 -6.504116e+00 -6.205379e+00 -1.552518e+00 3.436236e+00 2.845865e+00 -3.916450e-01 1.947467e+00 2.446571e+00 -1.643373e+00 -4.809462e+00 -1.410391e+00 8.666934e+00 8.404711e-02 -4.060698e-01 -2.288359e-01 -1.358163e-01 1.497044e-01 2.029219e-01 3.242667e-02 5.533590e-02 4.090579e-02 -1.084304e-01 -2.585959e-01 -6.668898e-02 4.209718e-01 -1.731527e-02 8.289395e-02 6.817111e-02 2.896529e-02 -5.447439e-02 -6.515269e-02 2.819499e-03 -3.962888e-02 -4.158830e-02 2.375314e-02 7.758984e-02 9.784996e-03 -6.012564e-02
<VARIANCE> 39
 3.589587e+01 5.195992e+01 5.515370e+01 6.048063e+01 5.572267e+01 5.362681e+01 5.004591e+01 4.806494e+01 7.185064e+01 6.346175e+01 5.006837e+01 3.368809e+01 1.051635e+02 7.568258e-01 1.181551e+00 1.281575e+00 1.244976e+00 1.625935e+00 1.550482e+00 1.379131e+00 1.211321e+00 1.304578e+00 1.226306e+00 1.194453e+00 8.019635e-01 1.804595e+00 7.517336e-02 9.367309e-02 9.960182e-02 1.307876e-01 1.580727e-01 1.461447e-01 1.299062e-01 1.324919e-01 1.281272e-01 1.306527e-01 1.261702e-01 8.617849e-02 1.315636e-01
<GCONST> 9.866384e+01
<STATE> 3
<MEAN> 39
 3.308382e+00 -7.178552e+00 -6.548330e+00 -1.790047e+00 3.752001e+00 2.893101e+00 -9.104842e-02 2.026709e+00 2.181326e+00 -1.916046e+00 -4.963656e+00 -1.500414e+00 9.288949e+00 4.911545e-02 -1.063478e-01 1.209020e-02 -2.746293e-02 -2.038775e-02 -3.277618e-02 4.378185e-02 -1.050491e-02 -9.385605e-02 -6.341182e-02 -1.093104e-02 -8.497838e-03 1.573474e-01 9.233964e-04 9.621026e-02 6.817284e-02 2.743055e-02 -5.901093e-02 -6.517175e-02 -6.015624e-03 -2.593094e-02 -2.717676e-02 2.114652e-02 7.184878e-02 1.332935e-02 -8.012000e-02
<VARIANCE> 39
 3.478197e+01 5.122242e+01 5.368928e+01 5.665430e+01 5.556725e+01 5.206530e+01 5.139487e+01 4.550124e+01 6.772198e+01 6.176651e+01 4.831285e+01 3.450352e+01 9.544704e+01 6.955661e-01 1.082618e+00 1.231372e+00 1.211658e+00 1.569863e+00 1.419309e+00 1.357086e+00 1.140376e+00 1.129279e+00 1.252818e+00 1.111159e+00 7.653862e-01 1.884621e+00 7.279354e-02 8.677306e-02 9.052810e-02 1.200448e-01 1.515632e-01 1.427114e-01 1.354143e-01 1.255048e-01 1.166948e-01 1.266678e-01 1.140992e-01 8.581502e-02 1.148669e-01
<GCONST> 9.689954e+01
<STATE> 4
<MEAN> 39
 3.834829e+00 -6.967376e+00 -6.434732e+00 -2.099725e+00 3.439731e+00 2.691432e+00 -1.695962e-01 2.145330e+00 2.618443e+00 -1.803858e+00 -4.994751e+00 -1.619189e+00 9.564275e+00 7.393626e-03 2.016870e-01 2.065695e-01 5.487931e-02 -1.623212e-01 -2.050295e-01 4.432970e-02 -5.427644e-02 -1.937992e-01 -1.522177e-02 1.518216e-01 2.981236e-02 -1.805632e-01 -1.000302e-02 7.175520e-02 4.469580e-02 1.815174e-03 -3.120279e-02 -2.816172e-02 -1.554635e-02 -1.764560e-02 -8.524559e-03 2.434489e-02 3.833943e-02 4.587464e-03 -5.833437e-02
<VARIANCE> 39
 3.324341e+01 5.175185e+01 5.560476e+01 5.381416e+01 5.485909e+01 5.777936e+01 5.713388e+01 4.915854e+01 7.643900e+01 6.434039e+01 4.869217e+01 3.321608e+01 9.205688e+01 7.187836e-01 1.037320e+00 1.116898e+00 1.150461e+00 1.410841e+00 1.392780e+00 1.324663e+00 1.143438e+00 1.108223e+00 1.246655e+00 1.041333e+00 7.293668e-01 1.651196e+00 7.866420e-02 8.860205e-02 9.059301e-02 1.212829e-01 1.512216e-01 1.567598e-01 1.424928e-01 1.312338e-01 1.192949e-01 1.270596e-01 1.116666e-01 8.640608e-02 1.213701e-01
<GCONST> 9.700474e+01
<TRANSP> 5
 0.000000e+00 1.000000e+00 0.000000e+00 0.000000e+00 0.000000e+00
 0.000000e+00 6.491804e-01 3.508197e-01 0.000000e+00 0.000000e+00
 0.000000e+00 0.000000e+00 6.359521e-01 3.640479e-01 0.000000e+00
 0.000000e+00 0.000000e+00 0.000000e+00 7.777495e-01 2.222505e-01
 0.000000e+00 0.000000e+00 0.000000e+00 0.000000e+00 0.000000e+00
<ENDHMM>
~h "ai"
<BEGINHMM>
<NUMSTATES> 5
<STATE> 2
<MEAN> 39
 -2.561574e+00 8.178390e-01 1.735878e-01 4.846910e+00 1.284868e+00 7.129577e-01 -8.998939e-01 9.928685e-02 -1.555018e+00 9.789724e-01 1.796386e+00 -1.005848e+00 -8.769703e+00 1.043982e-01 7.349671e-02 5.892505e-02 -4.177340e-02 6.882130e-02 9.817037e-02 6.830510e-02 2.209817e-02 9.520748e-02 1.013371e-02 -1.452370e-01 5.011387e-02 -7.455473e-02 -1.804759e-02 -3.066158e-02 -1.879706e-02 -2.800170e-02 -5.812415e-02 -3.139701e-02 -4.167112e-02 -3.403978e-02 -1.265578e-02 -3.089940e-02 -2.207502e-02 -6.740087e-03 9.812868e-02
<VARIANCE> 39
 3.266427e+01 1.925852e+01 3.060913e+01 4.868783e+01 4.651501e+01 5.098963e+01 6.070730e+01 3.485036e+01 5.033442e+01 4.166756e+01 3.211604e+01 2.229352e+01 2.823507e+02 7.920324e-01 6.110676e-01 7.573909e-01 5.938100e-01 8.995312e-01 9.952467e-01 9.722754e-01 8.106343e-01 1.305918e+00 1.066373e+00 7.401662e-01 5.194266e-01 4.071466e+00 9.150966e-02 6.170578e-02 5.329529e-02 6.565282e-02 9.107025e-02 1.258477e-01 1.105589e-01 1.001523e-01 1.432512e-01 1.127699e-01 9.532236e-02 7.028265e-02 5.589821e-01
<GCONST> 9.011072e+01
<STATE> 3
<MEAN> 39
 4.507601e-05 -3.306711e-01 1.365521e+00 2.227297e+00 -5.126494e-01 7.228160e-01 2.434551e+00 6.604939e-01 -2.303221e-01 8.183116e-02 -2.080521e-01 2.915413e-01 -6.277816e-02 1.284792e-01 1.724541e-02 6.046800e-02 -2.943418e-01 -3.304591e-01 -1.875995e-01 -1.929068e-01 -1.597942e-01 -5.731092e-02 -2.167369e-01 -3.807737e-01 4.144288e-02 5.844416e-01 -5.387716e-03 -3.633486e-03 5.068704e-02 -1.083660e-01 -6.543852e-02 -3.305324e-02 -9.197346e-02 -1.034650e-02 2.218507e-02 1.807664e-02 1.431999e-02 -1.961272e-02 8.175987e-02
<VARIANCE> 39
 2.523199e+01 2.796473e+01 3.292356e+01 6.074939e+01 6.196433e+01 4.847101e+01 4.779145e+01 3.898266e+01 3.897846e+01 3.445205e+01 3.196878e+01 2.444995e+01 1.983616e+02 8.576348e-01 8.732353e-01 1.044565e+00 9.118969e-01 1.374480e+00 8.593916e-01 1.262638e+00 1.359089e+00 1.193268e+00 9.714335e-01 6.902221e-01 5.983274e-01 4.955641e+00 7.417126e-02 6.735587e-02 7.625540e-02 9.612938e-02 8.799291e-02 9.354562e-02 1.526627e-01 1.623740e-01 1.063478e-01 1.101912e-01 9.058329e-02 7.612187e-02 3.138107e-01
<GCONST> 9.246693e+01
<STATE> 4
<MEAN> 39
 1.259297e+00 -1.755831e+00 1.370669e+00 -4.545115e-01 -2.513945e+00 -8.918037e-01 1.489819e+00 2.219766e-01 -7.557327e-01 -1.070720e+00 -1.944901e+00 1.037757e+00 4.909837e+00 6.064218e-02 2.574708e-02 1.774234e-01 -1.945063e-01 -1.113251e-01 -8.405373e-02 -1.409468e-01 -9.938855e-02 4.001702e-02 -9.878245e-04 -1.306238e-01 -3.618086e-02 1.650183e-01 1.493809e-02 -1.625663e-02 3.943168e-03 -3.777776e-03 8.998116e-03 5.805298e-03 -6.755578e-03 6.699293e-03 2.324010e-02 2.174129e-02 1.248108e-02 -8.157096e-03 1.178017e-02
<VARIANCE> 39
 1.969758e+01 3.646834e+01 2.999925e+01 4.969342e+01 6.314608e+01 3.009734e+01 3.779490e+01 5.280875e+01 3.918650e+01 3.761913e+01 2.487250e+01 2.832495e+01 8.557770e+01 5.758437e-01 7.436099e-01 7.642456e-01 1.054264e+00 1.026747e+00 6.852692e-01 1.090296e+00 1.623415e+00 1.152671e+00 8.456675e-01 7.248483e-01 7.266018e-01 1.884126e+00 4.164711e-02 6.896721e-02 6.235094e-02 9.177712e-02 8.848144e-02 6.866801e-02 1.252837e-01 1.848729e-01 1.050009e-01 9.236935e-02 8.823773e-02 8.807576e-02 1.248607e-01
<GCONST> 8.667641e+01
<TRANSP> 5
 0.000000e+00 1.000000e+00 0.000000e+00 0.000000e+00 0.000000e+00
 0.000000e+00 7.634487e-01 2.365514e-01 0.000000e+00 0.000000e+00
 0.000000e+00 0.000000e+00 5.729668e-01 4.270333e-01 0.000000e+00
 0.000000e+00 0.000000e+00 0.000000e+00 8.553488e-01 1.446512e-01
 0.000000e+00 0.000000e+00 0.000000e+00 0.000000e+00 0.000000e+00
<ENDHMM>
~h "bb"
<BEGINHMM>
<NUMSTATES> 5
<STATE> 2
<MEAN> 39
 4.091041e+00 -9.613681e-01 -4.405304e+00 -4.219719e+00 -1.077625e-01 1.142846e+00 -8.468899e-01 5.029674e-01 -5.382274e-01 4.267430e-02 -2.950331e+00 -4.148005e-01 6.704091e+00 -2.715152e-02 -5.506823e-02 -1.011148e-01 3.918506e-02 1.381462e-01 8.575641e-02 -1.260024e-02 -9.421775e-02 -5.942202e-02 -1.814938e-01 -2.279443e-01 -2.757927e-02 -1.418079e-01 2.331464e-02 -8.853521e-03 6.451686e-02 8.386347e-02 1.449231e-02 3.316912e-03 -7.659029e-03 -2.157751e-02 3.339373e-02 3.726495e-02 5.130069e-02 -1.074497e-02 -6.030304e-02
<VARIANCE> 39
 3.061447e+01 5.439872e+01 2.796619e+01 4.846928e+01 2.248531e+01 2.943614e+01 2.729066e+01 3.427062e+01 4.035793e+01 3.043745e+01 4.648077e+01 2.550290e+01 6.006532e+01 6.329490e-01 6.626469e-01 6.996367e-01 1.555321e+00 7.989935e-01 9.884191e-01 5.825308e-01 9.198902e-01 8.742781e-01 6.515646e-01 1.004704e+00 5.888166e-01 1.128515e+00 6.316505e-02 9.723559e-02 7.538262e-02 2.025352e-01 8.382241e-02 1.384672e-01 8.739139e-02 1.276602e-01 1.323639e-01 8.995400e-02 1.193347e-01 6.718528e-02 1.221779e-01
<GCONST> 8.573286e+01
<STATE> 3
<MEAN> 39
 4.455907e+00 -1.573187e+00 -4.419511e+00 -3.035800e+00 1.123599e+00 1.706382e+00 -8.081762e-01 4.385291e-02 -3.055795e-01 -1.403579e-01 -3.227362e+00 -1.227466e+00 5.680547e+00 2.959958e-02 -9.302670e-02 4.554800e-02 2.218984e-01 1.647317e-01 6.940194e-02 -1.444842e-02 -3.103552e-02 6.611635e-02 -5.092227e-02 -5.779421e-02 -1.141389e-01 -1.998464e-01 1.826177e-02 -2.660701e-02 2.739337e-02 5.327062e-02 1.266689e-03 -1.163776e-02 -1.873967e-02 8.361559e-03 3.761185e-02 2.459524e-02 2.644038e-02 -2.325982e-02 -5.748713e-03
<VARIANCE> 39
 2.349366e+01 5.410927e+01 2.720269e+01 4.391739e+01 2.235852e+01 2.897826e+01 2.855293e+01 3.051001e+01 3.925626e+01 2.817333e+01 4.991828e+01 2.404988e+01 5.033210e+01 6.393189e-01 6.777087e-01 7.321583e-01 1.578288e+00 7.220324e-01 1.108213e+00 6.723785e-01 8.971589e-01 8.462180e-01 6.926028e-01 1.210409e+00 6.761954e-01 1.074844e+00 6.170928e-02 8.642024e-02 7.899095e-02 1.942070e-01 8.203704e-02 1.219733e-01 8.272088e-02 1.132486e-01 1.162158e-01 9.078627e-02 1.442835e-01 7.489746e-02 9.581839e-02
<GCONST> 8.497861e+01
<STATE> 4
<MEAN> 39
 4.093867e+00 -1.394788e+00 -4.515883e+00 -3.603870e+00 1.611162e+00 1.552330e+00 -1.399451e+00 -2.626382e-01 -2.194192e-01 2.883204e-01 -1.979841e+00 -2.148862e+00 4.245549e+00 -6.903274e-02 -6.836627e-02 3.414216e-02 1.542184e-01 2.940013e-02 -6.141046e-03 -9.153435e-02 7.171082e-02 1.387859e-01 -6.529993e-02 2.138332e-02 2.042913e-02 -4.871964e-03 -7.898609e-04 -5.048999e-03 1.256928e-03 7.203862e-03 -1.273888e-02 -3.306569e-03 -2.457802e-03 1.065715e-02 5.715762e-03 5.402032e-04 1.166427e-02 2.683744e-03 2.865371e-03
<VARIANCE> 39
 1.778843e+01 4.362198e+01 2.289764e+01 4.500240e+01 2.265557e+01 3.386153e+01 2.847778e+01 2.479346e+01 4.180524e+01 2.993485e+01 5.819193e+01 3.367416e+01 4.327911e+01 5.114918e-01 7.307768e-01 7.220379e-01 1.427189e+00 6.505029e-01 9.727029e-01 8.170925e-01 6.985161e-01 9.221116e-01 8.075047e-01 1.478811e+00 1.016869e+00 1.175916e+00 4.837644e-02 6.380221e-02 7.302630e-02 1.579834e-01 7.861754e-02 8.981995e-02 9.109249e-02 8.357032e-02 1.053389e-01 9.516620e-02 1.483426e-01 1.047256e-01 1.006787e-01
<GCONST> 8.411710e+01
<TRANSP> 5
 0.000000e+00 1.000000e+00 0.000000e+00 0.000000e+00 0.000000e+00
 0.000000e+00 7.643478e-01 2.356522e-01 0.000000e+00 0.000000e+00
 0.000000e+00 0.000000e+00 7.732295e-01 2.267705e-01 0.000000e+00
 0.000000e+00 0.000000e+00 0.000000e+00 9.361954e-01 6.380463e-02
 0.000000e+00 0.000000e+00 0.000000e+00 0.000000e+00 0.000000e+00
<ENDHMM>
~h "bh"
<BEGINHMM>
<NUMSTATES> 5
<STATE> 2
<MEAN> 39
 3.849871e-01 -3.989737e+00 1.164947e+00 1.189593e-01 -6.482096e-01 -9.146567e-01 2.392474e+00 -4.310891e-02 3.152549e+00 1.644952e+00 -3.062172e+00 -8.188112e-01 -2.042744e+00 4.750735e-01 -4.521559e-01 -2.706856e-02 -3.651761e-01 -3.028486e-01 -2.845262e-01 3.160893e-01 2.363568e-01 1.798531e-01 2.394751e-01 -5.270450e-01 -1.178733e-01 1.409046e+00 5.605299e-02 2.369190e-02 -5.821280e-03 -3.984093e-02 -6.456318e-02 1.744893e-02 -2.834150e-02 -2.925673e-03 -3.961965e-02 -1.507817e-02 -1.835459e-02 -2.414727e-02 1.196774e-01
<VARIANCE> 39
 7.606824e+01 7.755945e+01 9.620510e+01 9.695336e+01 1.224346e+02 7.085573e+01 5.162861e+01 1.011438e+02 6.304474e+01 5.867320e+01 7.112334e+01 2.349176e+01 3.892430e+02 2.248895e+00 1.827459e+00 2.810298e+00 3.403715e+00 3.098110e+00 2.704204e+00 1.613715e+00 3.035543e+00 1.816984e+00 2.007404e+00 1.722216e+00 6.838754e-01 1.311359e+01 2.046419e-01 2.511609e-01 2.388806e-01 3.530684e-01 2.858180e-01 3.468525e-01 1.816046e-01 2.624347e-01 1.706151e-01 2.250504e-01 1.953996e-01 9.002291e-02 1.552414e+00
<GCONST> 1.224916e+02
<STATE> 3
<MEAN> 39
 4.911799e+00 -4.637484e+00 1.645332e+00 -2.018278e+00 -3.993337e+00 -3.046071e+00 2.999187e+00 7.010832e-02 1.914552e+00 2.380476e+00 -6.410576e+00 -2.414451e+00 8.419671e+00 1.393222e-01 2.284092e-01 5.113026e-01 -2.386415e-01 -4.614409e-01 -2.188513e-01 -4.901482e-03 -2.751079e-01 -3.907071e-01 1.659151e-01 -8.017255e-02 -4.558473e-02 3.570669e-01 -1.020543e-01 6.230531e-02 2.161404e-02 -1.727731e-03 1.360850e-01 1.171917e-01 -7.533494e-02 -9.867840e-02 2.641494e-02 -9.842083e-02 8.027055e-02 3.411668e-02 -1.206734e-01
<VARIANCE> 39
 3.626942e+01 4.903751e+01 1.148823e+02 9.285004e+01 1.112274e+02 6.214406e+01 4.546947e+01 8.689297e+01 6.199361e+01 1.045070e+02 6.333210e+01 2.505596e+01 9.853600e+01 1.580800e+00 1.740528e+00 2.323766e+00 3.414782e+00 3.365763e+00 1.968903e+00 1.055524e+00 3.618925e+00 1.879627e+00 2.007404e+00 1.558006e+00 6.547943e-01 5.365160e+00 1.189873e-01 1.249621e-01 1.758041e-01 3.124906e-01 3.839258e-01 2.928872e-01 1.262686e-01 3.020643e-01 1.894500e-01 2.683835e-01 1.613172e-01 9.833480e-02 5.719511e-01
<GCONST> 1.153940e+02
<STATE> 4
<MEAN> 39
 4.864357e+00 -2.133433e+00 4.508309e+00 -3.282162e+00 -6.833443e+00 -3.685851e+00 2.008999e+00 -2.521807e+00 -8.449196e-01 4.024927e+00 -4.035509e+00 -2.827793e+00 8.444798e+00 -3.882396e-01 3.311807e-01 3.786157e-01 -1.267798e-01 4.387722e-01 3.686877e-01 -3.630110e-01 -7.014105e-01 -5.071629e-02 -2.100232e-01 2.410882e-01 1.507187e-01 -2.301595e-01 -4.193271e-02 -7.224622e-03 -1.197000e-01 2.315483e-02 1.670164e-01 1.432775e-01 -8.397824e-02 -6.471289e-02 1.035636e-01 -1.590282e-01 -2.016418e-03 -4.995600e-02 -2.223765e-02
<VARIANCE> 39
 2.835077e+01 3.637888e+01 8.004790e+01 5.102392e+01 7.731857e+01 6.352316e+01 4.077834e+01 1.198731e+02 5.584825e+01 9.085449e+01 7.750272e+01 2.593437e+01 6.527523e+01 1.172126e+00 1.601107e+00 2.049741e+00 2.379318e+00 2.395569e+00 1.296974e+00 8.541608e-01 2.958858e+00 1.242863e+00 2.490949e+00 1.270235e+00 7.800710e-01 1.510848e+00 1.014567e-01 8.531106e-02 1.454041e-01 2.297103e-01 2.667007e-01 1.908016e-01 8.276486e-02 3.436705e-01 1.222579e-01 2.212754e-01 1.483123e-01 1.107038e-01 1.589998e-01
<GCONST> 1.058047e+02
<TRANSP> 5
 0.000000e+00 1.000000e+00 0.000000e+00 0.000000e+00 0.000000e+00
 0.000000e+00 8.860016e-01 1.139984e-01 0.000000e+00 0.000000e+00
 0.000000e+00 0.000000e+00 7.877120e-01 2.122880e-01 0.000000e+00
 0.000000e+00 0.000000e+00 0.000000e+00 6.945038e-01 3.054962e-01
 0.000000e+00 0.000000e+00 0.000000e+00 0.000000e+00 0.000000e+00
<ENDHMM>
~h "dd"
<BEGINHMM>
<NUMSTATES> 5
<STATE> 2
<MEAN> 39
 1.819343e+00 4.214765e+00 4.643968e+00 1.772604e+00 -1.422523e+00 -8.455718e-01 2.421404e-01 -2.610785e+00 -2.322408e+00 3.546031e-01 1.488132e+00 5.390639e-01 -1.312516e+00 -1.037201e-01 1.439146e-01 -2.925140e-01 4.618190e-01 5.582484e-01 2.283874e-01 2.022115e-01 6.669082e-02 1.504425e-01 -8.973197e-02 -5.314606e-02 -4.050568e-02 -7.261786e-01 -6.386328e-02 -4.084714e-02 3.192150e-03 -6.252467e-02 -2.114558e-02 3.682190e-03 -1.932710e-02 -1.563274e-02 9.582447e-03 5.284971e-03 2.112194e-02 1.332862e-02 5.201361e-02
<VARIANCE> 39
 1.722920e+01 4.046115e+01 6.795247e+01 5.508366e+01 4.767450e+01 6.965037e+01 3.721281e+01 4.113122e+01 3.602124e+01 3.678034e+01 2.965434e+01 2.108862e+01 5.266615e+01 4.871293e-01 5.405653e-01 6.262353e-01 9.890660e-01 8.762256e-01 7.865245e-01 9.200148e-01 8.651597e-01 6.603604e-01 6.703781e-01 6.504571e-01 4.715875e-01 8.469480e-01 4.473229e-02 4.717827e-02 4.676990e-02 8.392032e-02 7.711903e-02 9.122026e-02 8.880462e-02 8.925633e-02 7.729208e-02 7.020602e-02 6.709404e-02 5.041281e-02 9.696715e-02
<GCONST> 8.017314e+01
<STATE> 3
<MEAN> 39
 9.673353e-01 4.320953e+00 2.910764e+00 3.497317e+00 3.513257e-01 -6.658900e-01 3.240462e-01 -2.241059e+00 -1.599377e+00 3.230175e-01 2.197571e+00 5.701952e-01 -4.294256e+00 -2.794693e-01 -3.698589e-02 -2.548741e-01 2.194583e-01 4.141095e-01 1.234472e-01 1.058386e-01 5.763113e-02 8.380888e-02 -7.052776e-02 5.786655e-02 1.434629e-02 -4.578701e-01 -4.869643e-02 -6.225141e-02 2.631007e-02 -9.616323e-02 -7.510938e-02 -3.675851e-02 -2.559427e-02 2.944918e-03 7.861950e-03 -5.173778e-03 1.171363e-02 9.839508e-03 1.104353e-01
<VARIANCE> 39
 1.978318e+01 3.632490e+01 5.301950e+01 4.541980e+01 4.670262e+01 5.293399e+01 3.751222e+01 4.074876e+01 3.905111e+01 3.639983e+01 2.784020e+01 2.125115e+01 5.026978e+01 5.199419e-01 6.190869e-01 6.543794e-01 9.748009e-01 8.035123e-01 9.021360e-01 9.071180e-01 8.595041e-01 5.896210e-01 5.909396e-01 6.289651e-01 3.901018e-01 1.016169e+00 5.099955e-02 5.567884e-02 4.758566e-02 7.698877e-02 8.037312e-02 8.688680e-02 9.121626e-02 8.303400e-02 7.891195e-02 6.926978e-02 7.369867e-02 4.771163e-02 1.231244e-01
<GCONST> 7.987404e+01
<STATE> 4
<MEAN> 39
 -2.381803e+00 3.567433e+00 1.420748e+00 3.145052e+00 3.076387e+00 1.760312e-01 4.279493e-01 -7.056186e-01 1.030155e-01 7.133267e-01 3.787579e+00 1.338064e+00 -1.247803e+01 -1.648033e-01 -9.038933e-02 -1.032404e-01 -3.484619e-02 1.361976e-01 5.361149e-02 4.472994e-02 5.900075e-02 1.307507e-01 -1.898588e-02 -2.272163e-02 2.885909e-02 -8.663997e-02 2.400468e-02 -4.632111e-02 6.766153e-03 -4.520859e-02 -7.081214e-02 -3.629319e-02 -1.468757e-02 2.005177e-02 3.050379e-02 1.435821e-02 -2.088588e-02 -3.415107e-03 1.443977e-01
<VARIANCE> 39
 3.813100e+01 2.337459e+01 3.625998e+01 2.823907e+01 4.575986e+01 3.575656e+01 2.900423e+01 3.605958e+01 4.280031e+01 3.460769e+01 2.474452e+01 2.098088e+01 3.271458e+02 8.468853e-01 6.215818e-01 5.346402e-01 7.153151e-01 7.333222e-01 8.133367e-01 7.001157e-01 6.968261e-01 6.632807e-01 5.453025e-01 5.990011e-01 3.630108e-01 2.436435e+00 7.689378e-02 6.083543e-02 5.248807e-02 6.877161e-02 8.273398e-02 8.727712e-02 9.240364e-02 7.294346e-02 8.595888e-02 6.806708e-02 6.934461e-02 4.736261e-02 1.832753e-01
<GCONST> 8.113167e+01
<TRANSP> 5
 0.000000e+00 1.000000e+00 0.000000e+00 0.000000e+00 0.000000e+00
 0.000000e+00 6.976778e-01 3.023222e-01 0.000000e+00 0.000000e+00
 0.000000e+00 0.000000e+00 6.538130e-01 3.461870e-01 0.000000e+00
 0.000000e+00 0.000000e+00 0.000000e+00 8.760284e-01 1.239716e-01
 0.000000e+00 0.000000e+00 0.000000e+00 0.000000e+00 0.000000e+00
<ENDHMM>
~h "dh"
<BEGINHMM>
<NUMSTATES> 5
<STATE> 2
<MEAN> 39
 2.687834e+00 -9.788179e-02 4.730126e-01 -1.694738e+00 1.067625e+00 -5.279086e-01 -8.695012e-01 -2.045662e+00 -2.373677e+00 -2.336423e+00 -3.049523e+00 -4.068450e+00 1.980329e+00 -1.860144e-01 1.732606e-01 2.096026e-01 7.669900e-02 -2.660544e-01 -1.440373e-01 -3.784738e-03 -3.024497e-01 -4.627042e-02 -3.933322e-01 -3.131526e-01 2.223408e-01 3.054704e-01 -1.569629e-02 2.940645e-03 -3.699496e-02 -3.218801e-02 -4.381351e-02 -2.571855e-02 1.227523e-02 2.085828e-02 2.100419e-02 1.387998e-02 -1.500614e-02 8.515930e-02 7.797769e-02
<VARIANCE> 39
 3.125792e+01 2.881573e+01 3.676541e+01 4.554947e+01 3.875975e+01 2.433075e+01 3.852530e+01 3.489208e+01 4.621030e+01 4.950531e+01 2.863893e+01 3.577324e+01 1.993194e+02 9.342452e-01 9.723174e-01 8.000639e-01 1.505533e+00 7.371169e-01 6.912733e-01 8.176694e-01 1.232332e+00 1.730826e+00 1.116522e+00 8.277993e-01 1.127237e+00 3.983321e+00 9.226959e-02 8.997792e-02 8.336913e-02 1.248736e-01 9.593742e-02 6.202675e-02 9.570541e-02 1.186542e-01 1.751061e-01 1.180709e-01 8.100954e-02 1.080999e-01 2.220697e-01
<GCONST> 9.223382e+01
<STATE> 3
<MEAN> 39
 1.665650e+00 9.649036e-01 1.696275e+00 -1.635496e+00 -8.809137e-01 -1.030076e+00 -1.256163e+00 -3.312625e+00 -2.227356e+00 -2.543938e+00 -3.946247e+00 -2.200587e+00 3.230685e+00 -2.714548e-01 1.191142e-01 2.002231e-02 -1.639362e-01 -3.299495e-01 -1.192056e-01 -6.127147e-02 -2.705515e-01 7.919936e-02 -1.686711e-01 -1.836357e-01 4.597078e-01 4.648516e-01 1.669868e-02 -3.210843e-02 -6.468020e-02 -1.175379e-02 1.282723e-02 2.775565e-02 6.190002e-03 7.858349e-02 5.451500e-03 5.859911e-02 5.230457e-02 -6.092021e-03 3.020063e-03
<VARIANCE> 39
 2.938277e+01 3.487449e+01 3.548158e+01 6.142217e+01 4.230994e+01 2.539063e+01 3.383234e+01 4.783140e+01 3.857943e+01 4.683603e+01 2.629998e+01 3.622274e+01 1.102259e+02 7.502277e-01 1.019278e+00 6.508192e-01 1.013952e+00 9.770407e-01 6.943176e-01 8.583083e-01 1.000779e+00 9.036899e-01 9.580266e-01 8.197618e-01 8.743401e-01 4.606511e+00 5.585567e-02 8.031375e-02 6.727552e-02 9.932759e-02 1.002113e-01 6.039301e-02 8.895407e-02 9.087367e-02 1.101172e-01 1.216977e-01 8.166356e-02 8.822943e-02 1.316410e-01
<GCONST> 8.793867e+01
<STATE> 4
<MEAN> 39
 1.279536e+00 4.353372e-01 2.524888e+00 -4.887828e+00 -5.069058e+00 -1.547277e+00 -1.134138e+00 -4.427154e+00 -2.784963e+00 -3.835604e+00 -2.264719e+00 1.678184e-01 5.177045e+00 -1.147349e-02 -5.773425e-03 -2.879606e-02 1.093345e-02 -1.823160e-02 -3.681308e-02 1.265873e-02 7.691760e-02 1.130359e-03 -3.816111e-02 3.184595e-02 8.023764e-02 -1.586749e-02 2.032666e-03 2.205355e-03 -2.872834e-03 1.352076e-02 1.417189e-02 2.360083e-03 1.162729e-02 2.230879e-02 6.641005e-04 1.279693e-02 6.859849e-03 -1.733180e-02 -1.615689e-02
<VARIANCE> 39
 1.859529e+01 3.969242e+01 3.761134e+01 6.145324e+01 4.584383e+01 2.752835e+01 7.121131e+01 3.799361e+01 3.868161e+01 4.979394e+01 2.933801e+01 3.124019e+01 4.066693e+01 2.549698e-01 7.140685e-01 5.486534e-01 8.230256e-01 9.985484e-01 5.291761e-01 1.416452e+00 7.340044e-01 7.939991e-01 1.080921e+00 7.750441e-01 8.135499e-01 9.240102e-01 2.155148e-02 6.264132e-02 5.120280e-02 6.150500e-02 9.781851e-02 6.204287e-02 1.238997e-01 7.896834e-02 8.935975e-02 1.332386e-01 9.332426e-02 8.644792e-02 5.551594e-02
<GCONST> 8.112768e+01
<TRANSP> 5
 0.000000e+00 1.000000e+00 0.000000e+00 0.000000e+00 0.000000e+00
 0.000000e+00 7.075269e-01 2.924731e-01 0.000000e+00 0.000000e+00
 0.000000e+00 0.000000e+00 6.965831e-01 3.034170e-01 0.000000e+00
 0.000000e+00 0.000000e+00 0.000000e+00 9.642103e-01 3.578967e-02
 0.000000e+00 0.000000e+00 0.000000e+00 0.000000e+00 0.000000e+00
<ENDHMM>
~h "dx"
<BEGINHMM>
<NUMSTATES> 5
<STATE> 2
<MEAN> 39
 5.072000e+00 8.590419e-01 2.657492e+00 9.603535e-01 -5.950477e+00 -4.429576e-01 -1.023036e+00 -2.492629e+00 -1.171689e+00 2.420282e+00 7.291399e-01 -6.273094e-01 4.923171e+00 -5.713143e-02 1.331179e-01 5.217746e-03 -9.842769e-02 -3.499382e-02 -1.309668e-01 -1.098271e-02 -1.170274e-01 -6.227716e-02 1.294227e-01 6.850269e-02 1.119513e-01 9.605366e-02 -3.427079e-02 -2.171857e-03 -3.088295e-02 -2.393035e-02 7.773303e-02 8.614876e-03 3.867919e-03 3.929295e-02 7.500815e-03 -1.315135e-02 -2.070341e-02 5.301101e-03 -2.640721e-02
<VARIANCE> 39
 3.895776e+01 7.289066e+01 1.430674e+02 9.925761e+01 1.020059e+02 6.902058e+01 8.483542e+01 7.415918e+01 7.297803e+01 5.201075e+01 4.050705e+01 3.873199e+01 5.088194e+01 9.031905e-01 1.769105e+00 2.561298e+00 3.822374e+00 2.298083e+00 2.246408e+00 2.147785e+00 2.019121e+00 1.621855e+00 1.584407e+00 1.204612e+00 1.077363e+00 1.844393e+00 9.828232e-02 1.608977e-01 2.355704e-01 4.725968e-01 2.521166e-01 2.745241e-01 2.330500e-01 2.222863e-01 1.731260e-01 1.852215e-01 1.527089e-01 1.371555e-01 2.133728e-01
<GCONST> 1.131769e+02
<STATE> 3
<MEAN> 39
