~o
<STREAMINFO> 1 39
<VECSIZE> 39<NULLD><MFCC_D_A_Z_0><DIAGC>
~h "a"
<BEGINHMM>
<NUMSTATES> 5
<STATE> 2
<MEAN> 39
 6.136139e-01 -4.821043e-01 -3.003992e-01 -5.588561e-02 -1.284730e-01 -2.757570e-01 2.037027e-01 4.183809e-01 -4.407790e-02 -4.485963e-01 -4.097627e-01 -1.287649e-01 1.288609e+00 8.047303e-03 1.588277e-02 5.155315e-03 -1.905685e-02 1.089644e-02 -4.843635e-03 -4.412161e-03 -1.052088e-02 -4.079133e-03 4.545171e-04 4.279162e-03 9.570585e-04 -1.262425e-02 -4.545366e-04 2.986167e-04 1.599927e-04 -1.776784e-05 -4.829872e-04 3.969041e-04 6.906078e-05 -4.845526e-05 1.971317e-04 6.967194e-04 1.218171e-04 1.131664e-04 -3.450729e-04
<VARIANCE> 39
 6.125016e+01 5.316494e+01 7.409640e+01 6.121918e+01 7.257577e+01 5.575363e+01 5.563927e+01 5.688474e+01 6.772576e+01 5.124254e+01 4.627890e+01 2.872782e+01 1.956579e+02 1.068856e+00 1.072775e+00 1.237386e+00 1.331577e+00 1.357689e+00 1.185464e+00 1.243866e+00 1.232998e+00 1.309031e+00 1.056150e+00 9.635972e-01 6.844801e-01 1.941128e+00 9.971170e-02 1.030159e-01 1.115855e-01 1.371395e-01 1.448100e-01 1.330623e-01 1.404512e-01 1.411144e-01 1.425194e-01 1.241767e-01 1.108764e-01 8.315144e-02 1.663781e-01
<GCONST> 1.001400e+02
<STATE> 3
<MEAN> 39
 6.399288e-01 -4.285090e-01 -2.816431e-01 -1.205045e-01 -9.544405e-02 -2.922981e-01 1.892331e-01 3.838543e-01 -5.589898e-02 -4.434486e-01 -3.946591e-01 -1.247163e-01 1.243536e+00 6.186683e-03 1.669927e-02 5.511277e-03 -1.858237e-02 8.895343e-03 -4.120591e-03 -4.641949e-03 -1.056561e-02 -2.963838e-03 2.188798e-03 4.162228e-03 9.300087e-04 -1.416718e-02 -6.130148e-04 1.975122e-04 1.638370e-04 2.899830e-04 -6.188986e-04 9.408769e-05 -9.115964e-05 -8.038225e-05 2.531957e-04 3.991595e-04 -7.134539e-05 -6.724562e-05 -2.201275e-04
<VARIANCE> 39
 6.051540e+01 5.288721e+01 7.405380e+01 6.061510e+01 7.283546e+01 5.550175e+01 5.550080e+01 5.686186e+01 6.781721e+01 5.123856e+01 4.606422e+01 2.875797e+01 1.993210e+02 1.070740e+00 1.072100e+00 1.235156e+00 1.332464e+00 1.354753e+00 1.183307e+00 1.243915e+00 1.232117e+00 1.310587e+00 1.056329e+00 9.639220e-01 6.858141e-01 1.935047e+00 9.995091e-02 1.030335e-01 1.113676e-01 1.373060e-01 1.445466e-01 1.328854e-01 1.404078e-01 1.408309e-01 1.426187e-01 1.240772e-01 1.111141e-01 8.333462e-02 1.660429e-01
<GCONST> 1.001190e+02
<STATE> 4
<MEAN> 39
 7.218912e-01 -3.593386e-01 -2.217786e-01 -2.298763e-01 -9.202064e-02 -3.449526e-01 1.399917e-01 3.227963e-01 -6.851632e-02 -4.330686e-01 -3.959555e-01 -1.361049e-01 1.286881e+00 2.460735e-03 1.643497e-02 6.158901e-03 -1.620188e-02 5.161237e-03 -4.380978e-03 -5.998579e-03 -1.121737e-02 -1.511439e-03 2.668563e-03 3.180279e-03 6.985220e-04 -1.688761e-02 -9.508862e-04 6.212833e-05 3.190039e-04 4.743199e-04 -6.912036e-04 -1.261201e-04 -3.311564e-04 -2.723434e-04 1.890730e-04 4.003267e-05 -1.096095e-04 -6.030442e-05 -5.459062e-04
<VARIANCE> 39
 6.001699e+01 5.234926e+01 7.421757e+01 5.926200e+01 7.257467e+01 5.478397e+01 5.501179e+01 5.661193e+01 6.962550e+01 5.161353e+01 4.572512e+01 2.871689e+01 2.011006e+02 1.068666e+00 1.063346e+00 1.221878e+00 1.315492e+00 1.339854e+00 1.172954e+00 1.235071e+00 1.226811e+00 1.328053e+00 1.054997e+00 9.583706e-01 6.805116e-01 1.930201e+00 9.971745e-02 1.023878e-01 1.099220e-01 1.355646e-01 1.426960e-01 1.316991e-01 1.393740e-01 1.404972e-01 1.435879e-01 1.234869e-01 1.105671e-01 8.258035e-02 1.645165e-01
<GCONST> 9.992744e+01
<TRANSP> 5
 0.000000e+00 1.000000e+00 0.000000e+00 0.000000e+00 0.000000e+00
 0.000000e+00 7.063720e-01 2.936281e-01 0.000000e+00 0.000000e+00
 0.000000e+00 0.000000e+00 7.063715e-01 2.936284e-01 0.000000e+00
 0.000000e+00 0.000000e+00 0.000000e+00 8.270555e-01 1.729446e-01
 0.000000e+00 0.000000e+00 0.000000e+00 0.000000e+00 0.000000e+00
<ENDHMM>
~h "b"
<BEGINHMM>
<NUMSTATES> 5
<STATE> 2
<MEAN> 39
 1.311557e-01 1.945398e-01 -2.236076e-01 1.826916e-01 -4.065966e-01 -3.070649e-02 -3.687308e-01 -1.579276e-01 -2.746304e-01 -1.311631e-01 -2.627541e-01 2.579996e-01 7.623061e-01 6.236782e-03 2.446132e-02 2.729980e-02 -1.867700e-02 -4.439511e-03 -1.906937e-02 -9.687180e-03 -1.077065e-02 -1.387417e-02 -1.426793e-02 1.649774e-02 1.315261e-02 1.232857e-02 1.463981e-03 -1.389352e-03 1.944350e-03 2.527328e-03 1.437512e-03 5.762717e-05 5.986329e-03 1.331151e-03 6.001581e-03 3.722195e-03 1.861413e-03 1.268588e-03 4.515872e-04
<VARIANCE> 39
 6.652301e+01 5.031950e+01 8.000846e+01 6.578996e+01 6.620657e+01 5.306776e+01 5.460938e+01 5.614706e+01 6.204929e+01 4.858656e+01 4.977036e+01 3.132582e+01 1.744959e+02 9.259330e-01 1.068887e+00 1.262147e+00 1.426115e+00 1.369043e+00 1.193866e+00 1.301716e+00 1.087746e+00 1.218077e+00 9.944021e-01 9.618949e-01 7.144935e-01 1.879275e+00 8.334737e-02 1.012811e-01 1.137836e-01 1.451637e-01 1.413198e-01 1.399944e-01 1.495468e-01 1.252785e-01 1.318664e-01 1.175679e-01 1.102187e-01 8.358311e-02 1.525513e-01
<GCONST> 9.943102e+01
<STATE> 3
<MEAN> 39
 1.757604e-01 2.686470e-01 -1.198412e-01 1.351912e-01 -4.031040e-01 -9.943737e-02 -3.548515e-01 -1.767077e-01 -2.828741e-01 -1.418069e-01 -1.935176e-01 3.073348e-01 8.286384e-01 1.019898e-02 2.361190e-02 3.499150e-02 -1.148719e-02 2.292592e-03 -1.775752e-02 5.933008e-03 -5.221640e-03 8.160109e-04 -2.876091e-03 2.084677e-02 1.586671e-02 1.544446e-02 1.010583e-03 -3.938443e-04 2.138522e-03 2.236179e-03 2.313642e-03 4.481687e-04 4.720086e-03 1.645079e-03 3.796597e-03 3.296202e-03 3.983047e-04 4.801976e-04 1.092708e-03
<VARIANCE> 39
 6.552443e+01 4.969372e+01 8.107346e+01 6.463014e+01 6.712133e+01 5.309967e+01 5.470086e+01 5.624702e+01 6.133855e+01 4.766303e+01 4.799650e+01 3.124230e+01 1.779633e+02 9.391908e-01 1.076179e+00 1.258466e+00 1.417181e+00 1.359162e+00 1.201360e+00 1.283324e+00 1.093684e+00 1.210996e+00 9.843392e-01 9.429211e-01 7.094506e-01 1.919442e+00 8.475544e-02 1.017468e-01 1.125702e-01 1.430898e-01 1.408171e-01 1.402019e-01 1.474192e-01 1.255934e-01 1.302625e-01 1.163185e-01 1.084291e-01 8.324687e-02 1.566069e-01
<GCONST> 9.931202e+01
<STATE> 4
<MEAN> 39
 2.933417e-01 3.892695e-01 8.055597e-02 8.202507e-02 -3.769343e-01 -2.614103e-01 -2.916258e-01 -1.711733e-01 -2.919538e-01 -1.345585e-01 -1.058430e-01 3.691785e-01 1.031920e+00 1.051679e-02 2.693626e-02 3.981734e-02 -9.890946e-03 8.832090e-03 -1.258493e-02 9.763556e-03 -2.817062e-03 3.855240e-03 6.628734e-03 2.021560e-02 1.522450e-02 2.009377e-02 -8.268059e-04 5.384634e-04 1.138808e-03 1.689513e-04 1.198654e-03 1.147220e-03 5.222450e-04 2.802542e-05 -1.226132e-04 1.364539e-03 -9.093714e-04 -3.624274e-04 3.394117e-04
<VARIANCE> 39
 6.443954e+01 4.807910e+01 8.190753e+01 6.185246e+01 6.848891e+01 5.205296e+01 5.384332e+01 5.569286e+01 6.210693e+01 4.769698e+01 4.576981e+01 3.029573e+01 1.789531e+02 9.648583e-01 1.074320e+00 1.246814e+00 1.382168e+00 1.342018e+00 1.185537e+00 1.253464e+00 1.096925e+00 1.210562e+00 9.785902e-01 9.303037e-01 6.896543e-01 1.965430e+00 8.757794e-02 1.018712e-01 1.095859e-01 1.389506e-01 1.397093e-01 1.374343e-01 1.432952e-01 1.259593e-01 1.296139e-01 1.143811e-01 1.069720e-01 8.133259e-02 1.621311e-01
<GCONST> 9.896420e+01
<TRANSP> 5
 0.000000e+00 1.000000e+00 0.000000e+00 0.000000e+00 0.000000e+00
 0.000000e+00 7.109494e-01 2.890507e-01 0.000000e+00 0.000000e+00
 0.000000e+00 0.000000e+00 7.109500e-01 2.890500e-01 0.000000e+00
 0.000000e+00 0.000000e+00 0.000000e+00 8.324562e-01 1.675438e-01
 0.000000e+00 0.000000e+00 0.000000e+00 0.000000e+00 0.000000e+00
<ENDHMM>
~h "c"
<BEGINHMM>
<NUMSTATES> 5
<STATE> 2
<MEAN> 39
 1.669835e+00 -1.749971e-01 -6.673599e-01 -9.712979e-01 2.287053e-01 -1.649908e-01 -6.426510e-01 4.875418e-01 9.895828e-01 1.091837e-01 -9.291413e-01 -9.405414e-01 2.919894e+00 4.021139e-02 -6.100377e-02 -5.886408e-02 3.821409e-03 2.490005e-02 2.291030e-02 1.707060e-02 3.039640e-02 -5.768881e-03 -2.544831e-02 -3.109513e-02 1.130931e-03 -1.705931e-02 -3.037851e-04 1.028995e-03 -4.586225e-06 6.459654e-04 5.273081e-04 -1.774418e-04 -1.093884e-03 -6.508179e-04 -8.539701e-04 -8.819686e-05 9.793803e-04 1.399922e-03 -3.506881e-03
<VARIANCE> 39
 8.105805e+01 7.457263e+01 7.915554e+01 5.932671e+01 7.064371e+01 5.731680e+01 6.175922e+01 6.356590e+01 7.165202e+01 5.259747e+01 5.840352e+01 2.995644e+01 1.816192e+02 1.637484e+00 1.356798e+00 1.387076e+00 1.475626e+00 1.381430e+00 1.517215e+00 1.416613e+00 1.401702e+00 1.395768e+00 1.180397e+00 1.072338e+00 7.507814e-01 2.167873e+00 1.687042e-01 1.223290e-01 1.273108e-01 1.590419e-01 1.451977e-01 1.677478e-01 1.613954e-01 1.573033e-01 1.503888e-01 1.362428e-01 1.228981e-01 8.834785e-02 1.824365e-01
<GCONST> 1.050396e+02
<STATE> 3
<MEAN> 39
 1.817753e+00 -3.743401e-01 -8.694437e-01 -9.600077e-01 3.134111e-01 -9.356786e-02 -5.890103e-01 5.936735e-01 9.673896e-01 2.293838e-02 -1.041252e+00 -9.318936e-01 2.857307e+00 3.778876e-02 -5.729045e-02 -5.777806e-02 5.913586e-03 2.600485e-02 2.237212e-02 1.387501e-02 2.758364e-02 -9.358555e-03 -2.545456e-02 -2.758524e-02 5.587003e-03 -2.849252e-02 -8.499075e-04 1.264181e-03 6.799799e-04 7.366631e-04 4.479057e-04 -2.698587e-04 -8.695293e-04 -1.042052e-03 -7.789979e-04 4.516565e-06 1.108613e-03 1.474331e-03 -3.805658e-03
<VARIANCE> 39
 7.972375e+01 7.471960e+01 7.953478e+01 5.916956e+01 7.179393e+01 5.742374e+01 6.127788e+01 6.320505e+01 7.163195e+01 5.247049e+01 5.829331e+01 3.011134e+01 1.835139e+02 1.602208e+00 1.362451e+00 1.394448e+00 1.467537e+00 1.376567e+00 1.513781e+00 1.407957e+00 1.370352e+00 1.378684e+00 1.165923e+00 1.063800e+00 7.484859e-01 2.171083e+00 1.650412e-01 1.222095e-01 1.285829e-01 1.587828e-01 1.448201e-01 1.669287e-01 1.608174e-01 1.540796e-01 1.480069e-01 1.345071e-01 1.213607e-01 8.734861e-02 1.809907e-01
<GCONST> 1.048488e+02
<STATE> 4
<MEAN> 39
 2.049627e+00 -4.661376e-01 -1.014156e+00 -8.583608e-01 3.723250e-01 -6.328118e-02 -5.766288e-01 6.598228e-01 1.006959e+00 1.629911e-03 -1.147593e+00 -8.688856e-01 2.754709e+00 3.354484e-02 -5.241278e-02 -5.303116e-02 7.306439e-03 2.407854e-02 2.033463e-02 1.215476e-02 2.291770e-02 -1.463834e-02 -2.428836e-02 -2.465428e-02 9.883091e-03 -3.770208e-02 -1.547450e-03 1.200813e-03 1.374098e-03 7.777399e-04 1.114185e-04 -1.701366e-04 -4.303361e-04 -1.518206e-03 -8.937612e-04 1.377225e-04 1.206516e-03 1.290126e-03 -3.556012e-03
<VARIANCE> 39
 7.985773e+01 7.561735e+01 8.049499e+01 6.042209e+01 7.508215e+01 5.849819e+01 6.040443e+01 6.277954e+01 7.379886e+01 5.308703e+01 5.824729e+01 3.015613e+01 1.960331e+02 1.574769e+00 1.374222e+00 1.393831e+00 1.472955e+00 1.409969e+00 1.521149e+00 1.387289e+00 1.330249e+00 1.377020e+00 1.150188e+00 1.059954e+00 7.457575e-01 2.252124e+00 1.623055e-01 1.220212e-01 1.284141e-01 1.587309e-01 1.480128e-01 1.663289e-01 1.596483e-01 1.501233e-01 1.455946e-01 1.319613e-01 1.195313e-01 8.603779e-02 1.822888e-01
<GCONST> 1.049456e+02
<TRANSP> 5
 0.000000e+00 1.000000e+00 0.000000e+00 0.000000e+00 0.000000e+00
 0.000000e+00 7.066366e-01 2.933634e-01 0.000000e+00 0.000000e+00
 0.000000e+00 0.000000e+00 7.066368e-01 2.933631e-01 0.000000e+00
 0.000000e+00 0.000000e+00 0.000000e+00 8.275743e-01 1.724257e-01
 0.000000e+00 0.000000e+00 0.000000e+00 0.000000e+00 0.000000e+00
<ENDHMM>
~h "d"
<BEGINHMM>
<NUMSTATES> 5
<STATE> 2
<MEAN> 39
 8.308463e-01 -7.185720e-03 8.906913e-03 3.271728e-01 -3.491187e-02 -3.592341e-01 3.283669e-02 4.840955e-01 3.280838e-01 6.303671e-02 -5.581941e-02 -3.970642e-02 5.268926e-01 -1.360953e-03 1.676343e-02 2.286053e-02 -9.800308e-03 2.657022e-02 -1.119572e-02 -1.557050e-02 -1.303658e-02 -1.813752e-02 -1.551061e-02 -9.635681e-03 -8.460402e-03 -1.044273e-02 -2.529345e-03 -1.156114e-03 -1.082784e-04 -8.873494e-04 -1.355345e-03 1.508727e-04 -2.080340e-03 -2.113581e-03 -1.991653e-03 -1.012862e-04 -3.870952e-04 -5.287285e-04 -2.085128e-03
<VARIANCE> 39
 5.991026e+01 4.997097e+01 7.099758e+01 6.056691e+01 6.896068e+01 5.716279e+01 5.997055e+01 5.662379e+01 6.345227e+01 4.944454e+01 4.612932e+01 2.812443e+01 1.847033e+02 9.521030e-01 1.046839e+00 1.199263e+00 1.314983e+00 1.306656e+00 1.261156e+00 1.224702e+00 1.222113e+00 1.251705e+00 1.020680e+00 9.130449e-01 6.789379e-01 1.931259e+00 9.355075e-02 1.027910e-01 1.079032e-01 1.374848e-01 1.381137e-01 1.438190e-01 1.397891e-01 1.381713e-01 1.381109e-01 1.193161e-01 1.065057e-01 8.441147e-02 1.631602e-01
<GCONST> 9.932445e+01
<STATE> 3
<MEAN> 39
 8.131477e-01 3.561058e-02 8.502082e-02 2.775663e-01 3.683303e-02 -4.061689e-01 -4.235761e-02 4.095130e-01 2.369767e-01 3.845244e-03 -9.894687e-02 -7.235018e-02 4.886119e-01 -9.330003e-03 1.269802e-02 2.127021e-02 -1.328745e-02 2.181770e-02 -7.851347e-03 -2.085084e-02 -1.841616e-02 -2.320443e-02 -1.461709e-02 -9.153746e-03 -1.021373e-02 -1.832219e-02 -2.222487e-03 -1.097906e-03 -9.111633e-04 -8.798799e-04 -1.284771e-03 1.222238e-03 -1.414114e-03 -1.401321e-03 -1.540486e-03 3.289458e-04 2.936573e-04 -4.783787e-04 -2.268931e-03
<VARIANCE> 39
 5.835486e+01 4.947397e+01 7.139096e+01 6.001219e+01 6.962573e+01 5.644677e+01 5.996559e+01 5.641904e+01 6.370475e+01 4.957265e+01 4.615652e+01 2.807723e+01 1.887748e+02 9.524845e-01 1.036435e+00 1.203722e+00 1.316082e+00 1.310318e+00 1.251859e+00 1.228974e+00 1.209885e+00 1.258076e+00 1.022108e+00 9.169112e-01 6.783463e-01 1.940289e+00 9.342829e-02 1.020827e-01 1.085492e-01 1.379581e-01 1.384408e-01 1.425867e-01 1.399900e-01 1.372010e-01 1.387883e-01 1.194956e-01 1.063259e-01 8.431203e-02 1.643389e-01
<GCONST> 9.930333e+01
<STATE> 4
<MEAN> 39
 7.698175e-01 5.178621e-02 1.851393e-01 1.583976e-01 8.991685e-02 -4.862476e-01 -2.213764e-01 2.060059e-01 1.459983e-02 -1.163079e-01 -2.123881e-01 -1.265734e-01 4.864373e-01 -1.487741e-02 7.157551e-03 1.582917e-02 -1.735198e-02 1.603735e-02 -1.656812e-03 -2.378391e-02 -2.370253e-02 -2.634844e-02 -1.263463e-02 -7.351723e-03 -9.145384e-03 -2.698556e-02 -1.327852e-03 -8.741115e-04 -1.446410e-03 -4.996787e-04 -6.031043e-04 1.583827e-03 -2.535063e-04 -3.372925e-04 -1.802026e-04 6.097422e-04 6.213612e-04 1.705245e-04 -2.157205e-03
<VARIANCE> 39
 5.636116e+01 4.863341e+01 7.256165e+01 5.780183e+01 6.946755e+01 5.468140e+01 5.895018e+01 5.572761e+01 6.543235e+01 4.964511e+01 4.632386e+01 2.782748e+01 1.937284e+02 9.321492e-01 1.003870e+00 1.202732e+00 1.292118e+00 1.294024e+00 1.216400e+00 1.224365e+00 1.185635e+00 1.261641e+00 1.019594e+00 9.177138e-01 6.668081e-01 1.908629e+00 9.123039e-02 9.878269e-02 1.083261e-01 1.357491e-01 1.365534e-01 1.388418e-01 1.388949e-01 1.350065e-01 1.388846e-01 1.192369e-01 1.055830e-01 8.298563e-02 1.615388e-01
<GCONST> 9.886446e+01
<TRANSP> 5
 0.000000e+00 1.000000e+00 0.000000e+00 0.000000e+00 0.000000e+00
 0.000000e+00 7.112109e-01 2.887891e-01 0.000000e+00 0.000000e+00
 0.000000e+00 0.000000e+00 7.112106e-01 2.887894e-01 0.000000e+00
 0.000000e+00 0.000000e+00 0.000000e+00 8.327709e-01 1.672291e-01
 0.000000e+00 0.000000e+00 0.000000e+00 0.000000e+00 0.000000e+00
<ENDHMM>
~h "e"
<BEGINHMM>
<NUMSTATES> 5
<STATE> 2
<MEAN> 39
 1.989383e-01 5.615603e-01 1.914659e+00 -1.007132e+00 -1.389478e+00 -1.082431e+00 -2.660595e-01 -6.094122e-01 -6.721436e-01 3.971493e-01 6.752238e-02 -1.903027e-01 8.632982e-01 -1.570389e-02 4.998114e-03 -1.087447e-03 8.446728e-03 1.224811e-02 -4.769558e-03 -3.124632e-03 9.358291e-03 5.871283e-03 6.432491e-03 4.024759e-03 4.852559e-03 -7.284784e-02 4.530037e-04 -5.048555e-04 -1.301224e-03 5.774014e-04 1.355695e-03 1.594643e-03 5.900299e-04 5.072274e-04 5.941648e-04 2.486969e-04 9.872793e-05 -1.385981e-04 -8.072544e-04
<VARIANCE> 39
 5.661524e+01 5.097953e+01 7.901170e+01 6.300874e+01 8.528446e+01 5.405472e+01 5.468228e+01 6.138842e+01 6.535777e+01 4.847327e+01 4.421922e+01 2.819512e+01 2.138134e+02 1.009528e+00 1.023599e+00 1.220319e+00 1.487368e+00 1.494476e+00 1.285136e+00 1.271553e+00 1.330284e+00 1.280867e+00 1.048642e+00 9.011558e-01 7.035140e-01 1.885322e+00 9.581669e-02 1.005119e-01 1.062821e-01 1.493477e-01 1.536463e-01 1.461388e-01 1.433720e-01 1.487391e-01 1.407290e-01 1.219742e-01 1.055263e-01 8.653208e-02 1.601148e-01
<GCONST> 1.005245e+02
<STATE> 3
<MEAN> 39
 1.525054e-01 5.788487e-01 1.898583e+00 -9.759163e-01 -1.341846e+00 -1.090447e+00 -2.741601e-01 -5.811374e-01 -6.510759e-01 4.177146e-01 8.288756e-02 -1.726957e-01 6.207677e-01 -1.371274e-02 2.961688e-03 -6.169694e-03 1.017258e-02 1.674868e-02 6.822580e-04 -1.286513e-03 1.130194e-02 7.555092e-03 6.939706e-03 4.225653e-03 4.410708e-03 -7.419217e-02 8.327389e-04 -5.929861e-04 -1.563210e-03 5.674778e-04 1.634341e-03 1.761051e-03 5.281440e-04 4.365785e-04 4.710313e-04 4.310242e-05 7.787091e-05 -3.037298e-04 -1.393182e-05
<VARIANCE> 39
 5.704058e+01 5.043532e+01 7.881460e+01 6.318437e+01 8.552206e+01 5.407909e+01 5.473931e+01 6.138364e+01 6.474952e+01 4.828086e+01 4.452103e+01 2.809194e+01 2.212904e+02 1.010611e+00 1.023251e+00 1.221862e+00 1.486847e+00 1.494305e+00 1.281320e+00 1.270152e+00 1.329154e+00 1.274878e+00 1.051239e+00 9.046967e-01 7.022765e-01 1.901458e+00 9.625087e-02 1.005419e-01 1.063240e-01 1.492478e-01 1.538653e-01 1.461127e-01 1.434102e-01 1.484898e-01 1.404133e-01 1.222838e-01 1.060154e-01 8.638891e-02 1.622305e-01
<GCONST> 1.005758e+02
<STATE> 4
<MEAN> 39
 1.508843e-01 5.667319e-01 1.827888e+00 -9.522001e-01 -1.274685e+00 -1.124562e+00 -3.091289e-01 -5.441327e-01 -6.291221e-01 3.975396e-01 6.833868e-02 -1.791177e-01 4.178564e-01 -8.031953e-03 3.283089e-04 -1.532048e-02 1.203322e-02 2.271489e-02 7.968658e-03 4.572615e-04 1.179590e-02 8.111460e-03 5.397788e-03 4.451435e-03 3.720932e-03 -6.858960e-02 1.317990e-03 -8.066164e-04 -1.719681e-03 4.439589e-04 1.699340e-03 1.706759e-03 4.757593e-04 2.361326e-04 2.108081e-04 -5.460593e-04 1.768369e-04 -3.010208e-04 7.946214e-04
<VARIANCE> 39
 5.797503e+01 4.926462e+01 7.823255e+01 6.222808e+01 8.479050e+01 5.403770e+01 5.476320e+01 6.063158e+01 6.470394e+01 4.810708e+01 4.468700e+01 2.789138e+01 2.279073e+02 1.010910e+00 1.013714e+00 1.197433e+00 1.450083e+00 1.476499e+00 1.261155e+00 1.263722e+00 1.315750e+00 1.272201e+00 1.041827e+00 9.059921e-01 6.913888e-01 1.916034e+00 9.681625e-02 9.981453e-02 1.037809e-01 1.454719e-01 1.514105e-01 1.442445e-01 1.428706e-01 1.469610e-01 1.402006e-01 1.209720e-01 1.060668e-01 8.510903e-02 1.631575e-01
<GCONST> 1.003160e+02
<TRANSP> 5
 0.000000e+00 1.000000e+00 0.000000e+00 0.000000e+00 0.000000e+00
 0.000000e+00 7.081730e-01 2.918270e-01 0.000000e+00 0.000000e+00
 0.000000e+00 0.000000e+00 7.081722e-01 2.918278e-01 0.000000e+00
 0.000000e+00 0.000000e+00 0.000000e+00 8.290927e-01 1.709072e-01
 0.000000e+00 0.000000e+00 0.000000e+00 0.000000e+00 0.000000e+00
<ENDHMM>
~h "g"
<BEGINHMM>
<NUMSTATES> 5
<STATE> 2
<MEAN> 39
 8.258641e-01 5.823384e-01 2.156795e+00 -1.413638e+00 -2.295777e+00 -9.349151e-01 -7.156090e-01 -1.099497e+00 -7.307431e-01 8.877649e-01 -1.296661e-01 -4.233409e-01 2.981284e+00 -2.076807e-02 -7.415579e-03 1.619906e-02 1.296775e-02 3.155489e-03 9.759923e-03 1.841776e-02 1.170561e-02 1.681577e-03 7.964698e-03 8.918620e-03 1.035012e-02 -9.799311e-02 1.449474e-03 -1.652937e-03 -2.530359e-03 2.220451e-03 2.154154e-03 9.072838e-04 1.365535e-03 1.218755e-03 1.188870e-03 -9.681402e-04 -7.556921e-04 -1.856245e-04 -2.390431e-03
<VARIANCE> 39
 5.827255e+01 5.114141e+01 8.734645e+01 6.150920e+01 7.379459e+01 5.174666e+01 5.681240e+01 6.239561e+01 6.683868e+01 4.889906e+01 4.563564e+01 2.983081e+01 1.504926e+02 1.014159e+00 1.027765e+00 1.472997e+00 1.538065e+00 1.672886e+00 1.297806e+00 1.353287e+00 1.381676e+00 1.341196e+00 1.088686e+00 9.551620e-01 7.419724e-01 1.753547e+00 9.162693e-02 1.011588e-01 1.252131e-01 1.572196e-01 1.798055e-01 1.499698e-01 1.533297e-01 1.558273e-01 1.532991e-01 1.273762e-01 1.117694e-01 9.255976e-02 1.569768e-01
<GCONST> 1.015501e+02
<STATE> 3
<MEAN> 39
 7.622345e-01 5.493059e-01 2.191485e+00 -1.360771e+00 -2.269226e+00 -8.896235e-01 -6.510221e-01 -1.059213e+00 -7.208378e-01 9.050527e-01 -1.036164e-01 -3.859181e-01 2.629583e+00 -1.585761e-02 -1.208776e-02 7.722253e-03 1.948015e-02 1.081637e-02 1.269878e-02 2.192853e-02 1.491940e-02 5.591869e-03 4.360808e-03 6.571067e-03 9.458150e-03 -1.051519e-01 1.427097e-03 -1.421274e-03 -2.697449e-03 1.896146e-03 2.236805e-03 7.091638e-04 8.257102e-04 8.080273e-04 1.098934e-03 -1.080446e-03 -6.909174e-04 -3.589970e-04 -1.752692e-03
<VARIANCE> 39
 5.758007e+01 5.063362e+01 8.648092e+01 6.169072e+01 7.496468e+01 5.162648e+01 5.656036e+01 6.218861e+01 6.665657e+01 4.884541e+01 4.572217e+01 2.972787e+01 1.592448e+02 1.005258e+00 1.018440e+00 1.455197e+00 1.532406e+00 1.665957e+00 1.296727e+00 1.343534e+00 1.374072e+00 1.335433e+00 1.086037e+00 9.498971e-01 7.356598e-01 1.776338e+00 9.096688e-02 1.001400e-01 1.236004e-01 1.562839e-01 1.785685e-01 1.497680e-01 1.523948e-01 1.551440e-01 1.526629e-01 1.268774e-01 1.113506e-01 9.191987e-02 1.586772e-01
<GCONST> 1.014555e+02
<STATE> 4
<MEAN> 39
 7.335685e-01 4.578133e-01 2.136524e+00 -1.243158e+00 -2.158988e+00 -8.520057e-01 -5.565012e-01 -9.398429e-01 -6.875234e-01 8.645489e-01 -8.732736e-02 -3.483254e-01 2.077162e+00 -1.002640e-02 -1.560745e-02 -5.026080e-03 2.448875e-02 2.249274e-02 1.646408e-02 2.187421e-02 1.553600e-02 8.422448e-03 -2.026441e-03 4.435547e-03 8.225794e-03 -1.104220e-01 1.131691e-03 -9.772086e-04 -2.565889e-03 1.250228e-03 2.234274e-03 3.354790e-04 2.213196e-04 5.328838e-04 8.106972e-04 -1.146890e-03 -4.123045e-04 -4.603870e-04 -7.677706e-04
<VARIANCE> 39
 5.649586e+01 4.906158e+01 8.423669e+01 6.071689e+01 7.579178e+01 5.153759e+01 5.575677e+01 6.074876e+01 6.631168e+01 4.875340e+01 4.541787e+01 2.928760e+01 1.710393e+02 9.836622e-01 9.977891e-01 1.399970e+00 1.484945e+00 1.626792e+00 1.275536e+00 1.317114e+00 1.338462e+00 1.314701e+00 1.071003e+00 9.389076e-01 7.143416e-01 1.802508e+00 8.919314e-02 9.798489e-02 1.187249e-01 1.507573e-01 1.731782e-01 1.468762e-01 1.496177e-01 1.515135e-01 1.499016e-01 1.244982e-01 1.098722e-01 8.935982e-02 1.582980e-01
<GCONST> 1.008312e+02
<TRANSP> 5
 0.000000e+00 1.000000e+00 0.000000e+00 0.000000e+00 0.000000e+00
 0.000000e+00 7.084742e-01 2.915259e-01 0.000000e+00 0.000000e+00
 0.000000e+00 0.000000e+00 7.084748e-01 2.915252e-01 0.000000e+00
 0.000000e+00 0.000000e+00 0.000000e+00 8.293872e-01 1.706128e-01
 0.000000e+00 0.000000e+00 0.000000e+00 0.000000e+00 0.000000e+00
<ENDHMM>
~h "h"
<BEGINHMM>
<NUMSTATES> 5
<STATE> 2
<MEAN> 39
 1.080724e+00 1.076327e+00 -1.204512e+00 -2.378777e-01 6.398340e-01 7.244512e-01 -1.087742e+00 -8.971931e-01 -1.316072e-01 -4.915779e-01 1.489263e-02 3.988217e-01 7.781109e-01 -5.384310e-02 1.712482e-02 8.587064e-03 1.599158e-02 5.800973e-02 3.855368e-02 1.255936e-02 2.019485e-02 5.242089e-03 9.370725e-03 3.657795e-02 -7.031821e-03 -5.627341e-02 -3.937759e-03 -8.591249e-05 3.576627e-03 1.946247e-03 2.775557e-03 -3.618020e-03 1.130851e-03 1.609750e-03 2.792057e-03 2.016224e-03 1.770092e-03 -3.392771e-04 1.934746e-03
<VARIANCE> 39
 6.828928e+01 5.708434e+01 7.216993e+01 6.134699e+01 6.616129e+01 5.687077e+01 5.026659e+01 5.086404e+01 6.312850e+01 4.809836e+01 4.266906e+01 2.695623e+01 1.526457e+02 9.445601e-01 1.057983e+00 1.170897e+00 1.313586e+00 1.355474e+00 1.122012e+00 1.130061e+00 1.112638e+00 1.283901e+00 1.023296e+00 9.013578e-01 7.200825e-01 1.330163e+00 8.435372e-02 9.664673e-02 1.018692e-01 1.369011e-01 1.427236e-01 1.227075e-01 1.184373e-01 1.174920e-01 1.352291e-01 1.119244e-01 1.029796e-01 9.181973e-02 1.013181e-01
<GCONST> 9.717586e+01
<STATE> 3
<MEAN> 39
 8.693480e-01 1.130116e+00 -1.159848e+00 -1.730651e-01 8.694327e-01 8.391027e-01 -1.025734e+00 -8.087382e-01 -9.162706e-02 -4.491407e-01 1.452637e-01 3.659462e-01 6.072096e-01 -6.598142e-02 1.462687e-02 1.981105e-02 2.088580e-02 6.183345e-02 2.805858e-02 1.481316e-02 2.512848e-02 1.143761e-02 1.365313e-02 4.216194e-02 -6.399896e-03 -5.116820e-02 -2.221929e-03 -1.082756e-03 2.768721e-03 1.236833e-03 1.027723e-03 -3.202024e-03 4.689121e-04 1.983868e-03 1.748524e-03 1.083205e-03 1.286625e-03 4.356757e-04 1.370396e-03
<VARIANCE> 39
 6.777293e+01 5.670955e+01 7.255399e+01 5.984968e+01 6.814739e+01 5.658380e+01 5.091712e+01 5.170387e+01 6.269041e+01 4.768409e+01 4.219941e+01 2.669050e+01 1.560100e+02 9.776054e-01 1.081785e+00 1.161050e+00 1.300330e+00 1.375879e+00 1.107854e+00 1.128172e+00 1.125125e+00 1.272139e+00 1.023060e+00 9.001184e-01 7.092217e-01 1.380693e+00 8.674628e-02 9.683456e-02 1.003771e-01 1.352218e-01 1.431630e-01 1.197187e-01 1.175171e-01 1.182954e-01 1.340528e-01 1.116819e-01 1.029339e-01 9.030211e-02 1.050907e-01
<GCONST> 9.723110e+01
<STATE> 4
<MEAN> 39
 6.882931e-01 1.161266e+00 -1.058150e+00 -1.870862e-01 1.234760e+00 8.820212e-01 -9.763997e-01 -7.141441e-01 -3.526703e-02 -3.894409e-01 2.185224e-01 3.682427e-01 4.867576e-01 -7.776596e-02 -5.248431e-04 2.508345e-02 1.894288e-02 4.822784e-02 1.172962e-02 1.088287e-02 1.872945e-02 9.939699e-04 4.145139e-03 3.423477e-02 -7.411394e-03 -5.427980e-02 -1.536861e-03 -2.518964e-03 1.471473e-03 -2.132084e-04 -2.412045e-03 -3.446310e-03 -1.035095e-03 -4.307256e-04 -1.269752e-03 -1.026610e-03 -6.241304e-04 2.508597e-04 -1.272663e-03
<VARIANCE> 39
 6.539816e+01 5.432439e+01 7.365752e+01 5.687657e+01 6.877676e+01 5.545591e+01 5.055226e+01 5.194989e+01 6.250556e+01 4.684168e+01 4.160087e+01 2.597249e+01 1.610628e+02 9.956454e-01 1.065121e+00 1.123013e+00 1.258732e+00 1.350136e+00 1.072643e+00 1.107146e+00 1.102748e+00 1.227582e+00 1.002680e+00 8.781144e-01 6.737100e-01 1.404109e+00 8.775143e-02 9.443229e-02 9.551205e-02 1.291726e-01 1.401275e-01 1.148169e-01 1.151535e-01 1.163543e-01 1.287978e-01 1.099596e-01 9.906209e-02 8.564655e-02 1.068601e-01
<GCONST> 9.646526e+01
<TRANSP> 5
 0.000000e+00 1.000000e+00 0.000000e+00 0.000000e+00 0.000000e+00
 0.000000e+00 7.209184e-01 2.790816e-01 0.000000e+00 0.000000e+00
 0.000000e+00 0.000000e+00 7.209190e-01 2.790810e-01 0.000000e+00
 0.000000e+00 0.000000e+00 0.000000e+00 8.449388e-01 1.550612e-01
 0.000000e+00 0.000000e+00 0.000000e+00 0.000000e+00 0.000000e+00
<ENDHMM>
~h "i"
<BEGINHMM>
<NUMSTATES> 5
<STATE> 2
<MEAN> 39
 -5.679582e-01 8.141360e-01 9.542136e-01 -2.414393e-01 -6.087466e-01 -1.870402e-01 -2.549434e-01 -8.090186e-01 -3.138947e-01 5.668698e-02 1.825539e-01 1.718690e-01 4.916334e-01 3.838216e-03 -7.263767e-04 -9.533951e-03 7.825219e-03 4.130377e-02 1.438026e-02 7.620571e-03 1.822700e-02 -4.094104e-03 -1.048278e-02 3.749782e-03 4.064253e-03 -5.495917e-02 2.742843e-04 2.692557e-04 5.849036e-05 9.199061e-04 1.502417e-03 -6.609109e-04 8.356729e-04 9.150099e-04 7.598700e-04 4.086012e-04 4.501291e-04 3.941995e-04 -5.089442e-04
<VARIANCE> 39
 6.793742e+01 6.097818e+01 8.831585e+01 6.430752e+01 7.177305e+01 5.494275e+01 5.731035e+01 6.002386e+01 6.563915e+01 4.808319e+01 4.606971e+01 2.933612e+01 1.774064e+02 1.173086e+00 1.136275e+00 1.309860e+00 1.391996e+00 1.332756e+00 1.185208e+00 1.220753e+00 1.270511e+00 1.252485e+00 1.030753e+00 9.342673e-01 7.219177e-01 1.865503e+00 1.032874e-01 1.056403e-01 1.112805e-01 1.415092e-01 1.424122e-01 1.319101e-01 1.353824e-01 1.402960e-01 1.342396e-01 1.176370e-01 1.065504e-01 8.750112e-02 1.524710e-01
<GCONST> 1.004760e+02
<STATE> 3
<MEAN> 39
 -5.513209e-01 8.207412e-01 9.219134e-01 -2.160499e-01 -4.568866e-01 -1.473716e-01 -2.253750e-01 -7.477476e-01 -3.278109e-01 2.062481e-02 1.946789e-01 1.857488e-01 3.183937e-01 4.317850e-03 -5.338974e-04 -9.198090e-03 9.488366e-03 4.510852e-02 1.112200e-02 8.573601e-03 1.932099e-02 -2.815453e-03 -1.027053e-02 4.218922e-03 3.943431e-03 -5.629681e-02 2.588620e-05 2.886774e-05 1.315991e-04 4.559487e-04 8.569543e-04 -8.559427e-04 2.444910e-04 2.533666e-04 1.946610e-04 2.333982e-05 9.483524e-05 -1.910336e-04 -4.676058e-04
<VARIANCE> 39
 6.744901e+01 5.959106e+01 8.757874e+01 6.442893e+01 7.220676e+01 5.436878e+01 5.738120e+01 6.002718e+01 6.565817e+01 4.824308e+01 4.621505e+01 2.924811e+01 1.826617e+02 1.178061e+00 1.129835e+00 1.303504e+00 1.388298e+00 1.321938e+00 1.179573e+00 1.216232e+00 1.261600e+00 1.243919e+00 1.022165e+00 9.331152e-01 7.184646e-01 1.898659e+00 1.036735e-01 1.048955e-01 1.111170e-01 1.408526e-01 1.408140e-01 1.314578e-01 1.349553e-01 1.396741e-01 1.330002e-01 1.167562e-01 1.060905e-01 8.705732e-02 1.549642e-01
<GCONST> 1.003910e+02
<STATE> 4
<MEAN> 39
 -5.323954e-01 8.161467e-01 8.817791e-01 -2.137719e-01 -2.354928e-01 -1.302829e-01 -2.110608e-01 -6.973109e-01 -3.912135e-01 -5.410210e-02 1.894871e-01 1.989002e-01 1.126587e-01 1.634193e-03 -3.966373e-03 -9.892574e-03 4.611931e-03 4.259121e-02 4.161025e-03 3.801589e-03 1.296484e-02 -7.212813e-03 -1.327485e-02 6.979725e-04 1.151004e-03 -5.481447e-02 -5.777226e-04 -6.929626e-04 -5.728695e-05 -4.184176e-04 -5.258090e-04 -8.148050e-04 -6.902267e-04 -6.898270e-04 -4.690370e-04 -1.942256e-04 -3.485662e-04 -5.615902e-04 -8.945439e-04
<VARIANCE> 39
 6.663753e+01 5.699164e+01 8.637749e+01 6.383329e+01 7.228872e+01 5.301781e+01 5.686126e+01 5.884759e+01 6.662239e+01 4.853162e+01 4.631054e+01 2.879965e+01 1.903050e+02 1.176204e+00 1.095670e+00 1.280032e+00 1.368178e+00 1.292387e+00 1.155501e+00 1.205806e+00 1.228995e+00 1.238970e+00 1.001238e+00 9.248863e-01 7.003810e-01 1.946726e+00 1.035391e-01 1.015718e-01 1.093760e-01 1.381001e-01 1.368978e-01 1.283392e-01 1.335341e-01 1.363892e-01 1.311192e-01 1.144203e-01 1.042244e-01 8.458194e-02 1.573421e-01
<GCONST> 9.990784e+01
<TRANSP> 5
 0.000000e+00 1.000000e+00 0.000000e+00 0.000000e+00 0.000000e+00
 0.000000e+00 7.084267e-01 2.915733e-01 0.000000e+00 0.000000e+00
 0.000000e+00 0.000000e+00 7.084238e-01 2.915762e-01 0.000000e+00
 0.000000e+00 0.000000e+00 0.000000e+00 8.299727e-01 1.700273e-01
 0.000000e+00 0.000000e+00 0.000000e+00 0.000000e+00 0.000000e+00
<ENDHMM>
~h "j"
<BEGINHMM>
<NUMSTATES> 5
<STATE> 2
<MEAN> 39
 6.619553e-01 -1.164739e+00 -6.017049e-01 1.848437e-01 -1.048093e+00 5.963010e-02 1.030116e+00 7.896237e-01 -1.216655e-03 -1.626134e-01 1.099975e-01 1.467986e-01 2.851686e+00 3.928769e-02 2.006981e-02 4.998365e-02 -7.681609e-02 -3.582174e-02 -5.564097e-02 -7.585711e-02 -5.591181e-02 -4.997510e-02 -2.740867e-02 -3.894395e-02 -2.577297e-02 8.763275e-02 -4.570008e-03 -3.913499e-04 2.890784e-03 -1.754094e-03 -3.636543e-04 -2.751086e-04 1.571048e-04 -1.966704e-04 1.191521e-04 -6.130565e-04 6.378886e-04 -3.670617e-04 -4.491483e-03
<VARIANCE> 39
 5.510324e+01 4.745539e+01 6.309038e+01 6.217133e+01 6.165358e+01 4.892835e+01 5.732995e+01 5.191373e+01 6.558130e+01 5.132792e+01 4.754700e+01 2.720166e+01 1.487096e+02 1.307085e+00 1.073765e+00 1.100516e+00 1.179009e+00 1.565583e+00 1.172212e+00 1.126863e+00 1.156012e+00 1.285630e+00 1.025798e+00 1.045175e+00 6.917849e-01 1.832840e+00 1.360259e-01 1.057119e-01 9.751904e-02 1.253739e-01 1.678962e-01 1.327517e-01 1.255705e-01 1.392469e-01 1.332869e-01 1.152353e-01 1.159599e-01 8.805860e-02 1.607574e-01
<GCONST> 9.906440e+01
<STATE> 3
<MEAN> 39
 7.656993e-01 -1.102939e+00 -4.129173e-01 -7.104792e-02 -1.151607e+00 -1.112847e-01 7.874997e-01 6.166757e-01 -1.458901e-01 -2.494809e-01 -1.515324e-02 5.309836e-02 3.105844e+00 2.713877e-02 2.116101e-02 5.895144e-02 -7.988080e-02 -3.320177e-02 -5.285063e-02 -7.174069e-02 -5.178308e-02 -4.395407e-02 -2.541801e-02 -3.672406e-02 -2.800977e-02 7.432993e-02 -3.227446e-03 -4.233446e-05 2.746038e-03 -5.749935e-04 1.352517e-03 9.561779e-04 1.765500e-03 1.408121e-03 2.204005e-03 8.322502e-04 7.434383e-04 -4.754144e-04 -4.170887e-03
<VARIANCE> 39
 5.319191e+01 4.860951e+01 6.291259e+01 5.980896e+01 6.073821e+01 4.866934e+01 5.656994e+01 5.235138e+01 6.568675e+01 5.207403e+01 4.723025e+01 2.763859e+01 1.418298e+02 1.312062e+00 1.102723e+00 1.110769e+00 1.199193e+00 1.572307e+00 1.179380e+00 1.157420e+00 1.175887e+00 1.311035e+00 1.052498e+00 1.054558e+00 7.078832e-01 1.773442e+00 1.375732e-01 1.088054e-01 9.819343e-02 1.267752e-01 1.695770e-01 1.338447e-01 1.282377e-01 1.411186e-01 1.357439e-01 1.182735e-01 1.175260e-01 8.972350e-02 1.528658e-01
<GCONST> 9.925619e+01
<STATE> 4
<MEAN> 39
 8.666204e-01 -1.015449e+00 -9.022035e-02 -4.941826e-01 -1.292507e+00 -2.692881e-01 5.014094e-01 3.601049e-01 -2.942659e-01 -3.363909e-01 -1.379879e-01 -1.018658e-01 3.432986e+00 1.726927e-02 2.314691e-02 6.494682e-02 -7.340814e-02 -2.152918e-02 -4.013445e-02 -5.974007e-02 -3.806626e-02 -2.428702e-02 -1.410445e-02 -3.338918e-02 -3.206739e-02 5.692051e-02 -1.554952e-03 1.480480e-04 1.315438e-03 7.968514e-04 1.692304e-03 1.908874e-03 2.359416e-03 2.053611e-03 3.368839e-03 2.105199e-03 5.420091e-04 -4.036661e-04 -2.955844e-03
<VARIANCE> 39
 5.257631e+01 5.023444e+01 6.334835e+01 5.642165e+01 6.027327e+01 4.918848e+01 5.540536e+01 5.280782e+01 6.704973e+01 5.352471e+01 4.677473e+01 2.845046e+01 1.335770e+02 1.329540e+00 1.138976e+00 1.126095e+00 1.229320e+00 1.570792e+00 1.189836e+00 1.204511e+00 1.202553e+00 1.353094e+00 1.079120e+00 1.053341e+00 7.180621e-01 1.692594e+00 1.411544e-01 1.119835e-01 9.841123e-02 1.281579e-01 1.695902e-01 1.349947e-01 1.319884e-01 1.430464e-01 1.407606e-01 1.221183e-01 1.183278e-01 9.037801e-02 1.412097e-01
<GCONST> 9.952305e+01
<TRANSP> 5
 0.000000e+00 1.000000e+00 0.000000e+00 0.000000e+00 0.000000e+00
 0.000000e+00 7.023832e-01 2.976167e-01 0.000000e+00 0.000000e+00
 0.000000e+00 0.000000e+00 7.023836e-01 2.976164e-01 0.000000e+00
 0.000000e+00 0.000000e+00 0.000000e+00 8.215834e-01 1.784166e-01
 0.000000e+00 0.000000e+00 0.000000e+00 0.000000e+00 0.000000e+00
<ENDHMM>
~h "k"
<BEGINHMM>
<NUMSTATES> 5
<STATE> 2
<MEAN> 39
 5.850834e-03 1.732033e-01 3.626610e-02 1.948306e-01 -5.370078e-01 -9.378782e-01 -3.108829e-01 -3.357872e-01 -2.454686e-01 1.718415e-01 -6.092053e-02 -2.101857e-01 1.060126e+00 2.872801e-02 9.493176e-04 -2.178161e-02 1.907437e-03 3.961686e-02 4.852911e-03 3.145865e-02 1.448753e-02 -3.427610e-03 3.920220e-03 1.614332e-02 1.501291e-02 -1.050268e-03 1.455070e-03 1.313386e-03 -2.918426e-04 -2.530759e-03 7.101703e-04 3.295625e-04 -3.182830e-04 -6.882304e-04 9.093881e-04 8.867531e-04 7.980445e-04 1.244912e-03 3.102476e-03
<VARIANCE> 39
 7.041510e+01 5.533764e+01 9.240899e+01 6.650142e+01 7.615755e+01 6.167137e+01 5.816306e+01 5.943340e+01 5.979767e+01 4.766911e+01 4.551749e+01 2.802460e+01 1.774277e+02 1.167644e+00 1.152626e+00 1.493554e+00 1.502030e+00 1.437411e+00 1.310283e+00 1.276613e+00 1.295222e+00 1.282712e+00 1.062056e+00 9.949005e-01 6.960312e-01 1.762724e+00 1.069282e-01 1.139896e-01 1.288614e-01 1.587682e-01 1.564233e-01 1.483542e-01 1.457980e-01 1.448160e-01 1.401225e-01 1.257033e-01 1.196172e-01 8.622839e-02 1.495198e-01
<GCONST> 1.018745e+02
<STATE> 3
<MEAN> 39
 1.104647e-01 1.967510e-01 -3.052705e-02 1.775647e-01 -4.000788e-01 -9.154519e-01 -2.088708e-01 -2.977015e-01 -2.511803e-01 1.933439e-01 -4.758839e-03 -1.552659e-01 1.083343e+00 3.238731e-02 7.992124e-03 -2.160917e-02 -6.172747e-03 3.987948e-02 6.792234e-03 2.854078e-02 1.044789e-02 -1.732519e-03 6.987056e-03 1.758160e-02 1.619411e-02 6.670656e-03 8.680009e-04 2.436338e-03 5.639634e-05 -2.573940e-03 1.388273e-04 7.461568e-04 -1.413211e-03 -1.533433e-03 5.769917e-04 9.501989e-04 2.107528e-04 7.682107e-05 1.697061e-03
<VARIANCE> 39
 6.962572e+01 5.460907e+01 9.163143e+01 6.650841e+01 7.743507e+01 6.178341e+01 5.869506e+01 5.952152e+01 6.005295e+01 4.828834e+01 4.554812e+01 2.805336e+01 1.803823e+02 1.179528e+00 1.148574e+00 1.487278e+00 1.502551e+00 1.437899e+00 1.311284e+00 1.275730e+00 1.301003e+00 1.278396e+00 1.069179e+00 9.954263e-01 6.929903e-01 1.790998e+00 1.078134e-01 1.135486e-01 1.289932e-01 1.590429e-01 1.566851e-01 1.481067e-01 1.458084e-01 1.450767e-01 1.402189e-01 1.261769e-01 1.198984e-01 8.573405e-02 1.517816e-01
<GCONST> 1.019540e+02
<STATE> 4
<MEAN> 39
 2.390720e-01 2.680342e-01 -1.610622e-01 4.471728e-02 -1.859627e-01 -8.364949e-01 -1.380821e-01 -3.013503e-01 -2.702698e-01 1.955923e-01 4.283902e-02 -7.576881e-02 1.146858e+00 2.813659e-02 1.846740e-02 -1.722306e-02 -1.491608e-02 3.343818e-02 8.340923e-03 2.058924e-02 -4.370441e-04 -5.903067e-03 5.626407e-03 1.364013e-02 1.557443e-02 4.635317e-03 -9.484412e-04 1.998331e-03 2.531506e-04 -1.647457e-03 -1.115129e-03 3.690994e-04 -1.897595e-03 -2.061894e-03 -5.096506e-04 6.338238e-05 -6.271853e-04 -3.483283e-04 -1.180719e-03
<VARIANCE> 39
 6.933354e+01 5.247762e+01 8.936916e+01 6.519014e+01 7.738605e+01 6.070529e+01 5.888080e+01 5.885942e+01 6.082977e+01 4.910495e+01 4.508768e+01 2.799216e+01 1.824028e+02 1.186451e+00 1.110422e+00 1.436457e+00 1.457469e+00 1.410029e+00 1.271381e+00 1.262789e+00 1.280804e+00 1.269679e+00 1.058236e+00 9.807866e-01 6.806235e-01 1.806811e+00 1.080749e-01 1.101038e-01 1.250117e-01 1.541637e-01 1.536356e-01 1.437177e-01 1.446125e-01 1.429001e-01 1.394662e-01 1.252438e-01 1.184799e-01 8.382400e-02 1.529451e-01
<GCONST> 1.014529e+02
<TRANSP> 5
 0.000000e+00 1.000000e+00 0.000000e+00 0.000000e+00 0.000000e+00
 0.000000e+00 7.045049e-01 2.954951e-01 0.000000e+00 0.000000e+00
 0.000000e+00 0.000000e+00 7.045054e-01 2.954946e-01 0.000000e+00
 0.000000e+00 0.000000e+00 0.000000e+00 8.243850e-01 1.756150e-01
 0.000000e+00 0.000000e+00 0.000000e+00 0.000000e+00 0.000000e+00
<ENDHMM>
~h "l"
<BEGINHMM>
<NUMSTATES> 5
<STATE> 2
<MEAN> 39
 5.971414e-01 -5.104514e-01 5.099511e-01 -1.439038e+00 -8.416482e-01 -1.192666e+00 -8.784164e-01 -1.698799e-01 4.411813e-01 -2.492187e-01 -1.307409e+00 -8.273986e-01 4.244545e+00 -1.228789e-02 1.096499e-02 2.488959e-02 -1.894399e-02 -1.889511e-02 -1.946916e-02 7.258259e-03 -1.115060e-02 -2.352243e-02 -4.640491e-03 4.069379e-03 5.340363e-03 2.757334e-03 -5.443563e-04 -3.476982e-04 -9.981414e-04 1.965068e-03 -3.309175e-04 -2.075784e-04 2.514424e-04 3.559159e-04 -4.001211e-04 -7.619630e-05 1.552999e-03 6.642129e-04 -2.766490e-03
<VARIANCE> 39
 6.390747e+01 5.807520e+01 9.787222e+01 5.634493e+01 6.785921e+01 5.525493e+01 6.163412e+01 6.211355e+01 7.488551e+01 5.617347e+01 4.911778e+01 3.260922e+01 1.489948e+02 1.210243e+00 1.187859e+00 1.750387e+00 1.416140e+00 1.476514e+00 1.375060e+00 1.668871e+00 1.419642e+00 1.579805e+00 1.168121e+00 1.107145e+00 7.608821e-01 2.389669e+00 1.123247e-01 1.190822e-01 1.516696e-01 1.457577e-01 1.518802e-01 1.558550e-01 1.925244e-01 1.755587e-01 1.677542e-01 1.371839e-01 1.236704e-01 9.001333e-02 1.854519e-01
<GCONST> 1.046605e+02
<STATE> 3
<MEAN> 39
 5.524041e-01 -4.761037e-01 5.778909e-01 -1.480678e+00 -8.987625e-01 -1.263789e+00 -8.497694e-01 -1.911235e-01 3.620036e-01 -2.665805e-01 -1.284742e+00 -8.031542e-01 4.232017e+00 -1.403672e-02 9.993507e-03 2.117509e-02 -1.173219e-02 -1.977110e-02 -2.024106e-02 8.794110e-03 -9.044420e-03 -2.591760e-02 -5.490998e-03 9.557122e-03 7.440140e-03 -6.937054e-03 -2.977847e-04 -2.496905e-04 -1.176180e-03 2.140485e-03 -3.216792e-04 -2.110226e-04 1.992342e-04 4.400880e-04 -3.621898e-04 -2.429193e-04 1.576803e-03 6.048623e-04 -2.750349e-03
<VARIANCE> 39
 6.408080e+01 5.800320e+01 9.809890e+01 5.637751e+01 6.806422e+01 5.565284e+01 6.174867e+01 6.235535e+01 7.415942e+01 5.681038e+01 4.894208e+01 3.281924e+01 1.453803e+02 1.201941e+00 1.178937e+00 1.738037e+00 1.416771e+00 1.469599e+00 1.388224e+00 1.675654e+00 1.413611e+00 1.579540e+00 1.175969e+00 1.093709e+00 7.566167e-01 2.350636e+00 1.111704e-01 1.181670e-01 1.493478e-01 1.462976e-01 1.514597e-01 1.564526e-01 1.924421e-01 1.735709e-01 1.683615e-01 1.381914e-01 1.228576e-01 8.955091e-02 1.824315e-01
<GCONST> 1.045587e+02
<STATE> 4
<MEAN> 39
 5.081407e-01 -4.519736e-01 5.573189e-01 -1.456869e+00 -8.535361e-01 -1.278424e+00 -8.486159e-01 -2.494412e-01 3.201679e-01 -2.875263e-01 -1.216836e+00 -7.461084e-01 3.960402e+00 -1.604045e-02 9.897612e-03 1.397935e-02 -1.722202e-04 -1.746039e-02 -2.100094e-02 1.173258e-02 -2.410033e-03 -2.785526e-02 -7.567645e-03 1.635684e-02 1.066661e-02 -1.940545e-02 -1.058422e-04 1.013477e-04 -1.064032e-03 1.869430e-03 -1.385863e-04 -7.289555e-05 2.080378e-04 3.342521e-04 -3.201021e-04 -4.103470e-04 1.454802e-03 6.146278e-04 -2.262133e-03
<VARIANCE> 39
 6.474044e+01 5.717567e+01 9.645593e+01 5.537797e+01 6.777490e+01 5.576502e+01 6.136110e+01 6.125973e+01 7.350247e+01 5.779089e+01 4.913589e+01 3.261575e+01 1.464405e+02 1.186414e+00 1.153589e+00 1.681042e+00 1.387241e+00 1.438613e+00 1.384767e+00 1.665046e+00 1.386188e+00 1.579511e+00 1.188932e+00 1.070961e+00 7.405563e-01 2.337759e+00 1.093178e-01 1.156628e-01 1.433874e-01 1.442135e-01 1.490434e-01 1.549231e-01 1.897164e-01 1.693899e-01 1.688135e-01 1.394009e-01 1.209488e-01 8.770268e-02 1.795641e-01
<GCONST> 1.041320e+02
<TRANSP> 5
 0.000000e+00 1.000000e+00 0.000000e+00 0.000000e+00 0.000000e+00
 0.000000e+00 7.096590e-01 2.903410e-01 0.000000e+00 0.000000e+00
 0.000000e+00 0.000000e+00 7.096595e-01 2.903406e-01 0.000000e+00
 0.000000e+00 0.000000e+00 0.000000e+00 8.305554e-01 1.694446e-01
 0.000000e+00 0.000000e+00 0.000000e+00 0.000000e+00 0.000000e+00
<ENDHMM>
~h "m"
<BEGINHMM>
<NUMSTATES> 5
<STATE> 2
<MEAN> 39
 1.362750e+00 -1.060487e+00 2.476744e-01 -7.795122e-01 -1.187609e-01 -4.138117e-01 -3.878563e-01 -3.090864e-01 -7.751987e-01 -4.504914e-01 -9.291873e-01 -4.764702e-01 3.677626e+00 1.867200e-02 8.543441e-04 1.366411e-02 -1.861411e-02 -3.368307e-02 -3.599846e-02 -9.711624e-03 -7.718714e-03 -3.195473e-02 -1.349944e-02 -7.537891e-03 7.040200e-04 4.311702e-02 -8.937244e-04 8.212599e-04 -8.985664e-04 6.176846e-04 -7.419604e-04 -1.414800e-04 -1.967933e-04 -2.618838e-04 1.354840e-03 -2.308699e-04 7.671847e-04 4.157262e-04 -3.186199e-03
<VARIANCE> 39
 6.517677e+01 5.132155e+01 8.161781e+01 6.069827e+01 6.936186e+01 5.565816e+01 5.867836e+01 5.516907e+01 6.471753e+01 5.402959e+01 4.593796e+01 3.026520e+01 1.355944e+02 1.166622e+00 1.074465e+00 1.271544e+00 1.448057e+00 1.311101e+00 1.247082e+00 1.395221e+00 1.428837e+00 1.352445e+00 1.217927e+00 1.006982e+00 7.615568e-01 2.010118e+00 1.045395e-01 1.026531e-01 1.129839e-01 1.494100e-01 1.385445e-01 1.408463e-01 1.524227e-01 1.665590e-01 1.421486e-01 1.430589e-01 1.157295e-01 8.987546e-02 1.601114e-01
<GCONST> 1.013783e+02
<STATE> 3
<MEAN> 39
 1.430734e+00 -1.061610e+00 2.811823e-01 -8.331891e-01 -2.319959e-01 -5.299779e-01 -4.234886e-01 -3.334796e-01 -8.661005e-01 -4.988675e-01 -9.451500e-01 -4.699522e-01 3.802475e+00 1.674157e-02 4.174458e-03 1.096923e-02 -1.530399e-02 -3.489514e-02 -3.498946e-02 -9.257300e-03 -7.583015e-03 -2.653020e-02 -1.331186e-02 -4.120618e-03 1.895193e-03 3.329977e-02 -4.801740e-04 1.002232e-03 -9.072421e-04 7.364600e-04 -3.805732e-04 4.944182e-04 -3.415156e-05 -9.842095e-05 1.746030e-03 6.245921e-05 1.012394e-03 2.765916e-04 -2.860329e-03
<VARIANCE> 39
 6.390358e+01 5.091574e+01 8.235387e+01 6.060632e+01 6.900284e+01 5.505070e+01 5.859333e+01 5.527776e+01 6.463908e+01 5.390631e+01 4.571845e+01 3.042595e+01 1.319369e+02 1.159257e+00 1.065068e+00 1.272379e+00 1.453382e+00 1.316242e+00 1.236708e+00 1.395330e+00 1.433558e+00 1.355024e+00 1.226760e+00 9.997659e-01 7.598711e-01 1.972781e+00 1.039004e-01 1.022181e-01 1.127180e-01 1.495561e-01 1.394372e-01 1.402082e-01 1.517888e-01 1.672069e-01 1.426927e-01 1.444905e-01 1.150721e-01 8.955035e-02 1.575213e-01
<GCONST> 1.012593e+02
<STATE> 4
<MEAN> 39
 1.558556e+00 -1.104117e+00 2.688724e-01 -9.260470e-01 -3.807269e-01 -6.951525e-01 -5.304010e-01 -3.675476e-01 -9.415416e-01 -5.895102e-01 -9.617317e-01 -4.752463e-01 3.935292e+00 1.814119e-02 7.442829e-03 8.862760e-03 -8.048276e-03 -3.263316e-02 -2.826764e-02 -7.097512e-03 -5.210665e-03 -1.633791e-02 -1.125802e-02 8.045693e-04 2.974234e-03 2.225707e-02 -2.392733e-04 1.241083e-03 -4.168298e-04 7.741760e-04 6.594765e-05 1.101832e-03 2.370745e-04 3.989396e-05 1.603327e-03 4.037863e-04 7.667686e-04 1.894878e-04 -2.226617e-03
<VARIANCE> 39
 6.364774e+01 5.078024e+01 8.401025e+01 6.047659e+01 6.935362e+01 5.451229e+01 5.808307e+01 5.571972e+01 6.668607e+01 5.404171e+01 4.523066e+01 3.090812e+01 1.321853e+02 1.156868e+00 1.051693e+00 1.270383e+00 1.447734e+00 1.318804e+00 1.219035e+00 1.384894e+00 1.436263e+00 1.383894e+00 1.235101e+00 9.823239e-01 7.579697e-01 1.959201e+00 1.033094e-01 1.016134e-01 1.115719e-01 1.481045e-01 1.387245e-01 1.381047e-01 1.498928e-01 1.675160e-01 1.441998e-01 1.452830e-01 1.134002e-01 8.867508e-02 1.549026e-01
<GCONST> 1.011802e+02
<TRANSP> 5
 0.000000e+00 1.000000e+00 0.000000e+00 0.000000e+00 0.000000e+00
 0.000000e+00 7.088536e-01 2.911464e-01 0.000000e+00 0.000000e+00
 0.000000e+00 0.000000e+00 7.088537e-01 2.911464e-01 0.000000e+00
 0.000000e+00 0.000000e+00 0.000000e+00 8.295797e-01 1.704203e-01
 0.000000e+00 0.000000e+00 0.000000e+00 0.000000e+00 0.000000e+00
<ENDHMM>
~h "n"
<BEGINHMM>
<NUMSTATES> 5
<STATE> 2
<MEAN> 39
 7.585799e-01 -3.764574e-01 4.318945e-02 -7.881943e-02 1.230707e-01 -2.104108e-01 -1.032843e-01 3.537433e-02 -5.061358e-01 -6.940678e-01 -7.992502e-01 -1.885504e-01 1.311066e+00 2.993547e-02 2.589086e-03 -2.782743e-03 -2.438548e-02 1.000072e-02 -1.108286e-02 -1.390706e-02 2.996994e-03 -1.625970e-03 -1.443636e-02 -5.679134e-03 -3.823899e-03 2.486575e-02 -6.593521e-04 7.952417e-05 -1.495667e-04 1.169223e-03 4.417558e-04 1.045623e-03 7.092141e-04 -7.470514e-05 1.566299e-03 1.793891e-03 6.229068e-04 -3.533316e-05 -3.512889e-03
<VARIANCE> 39
 6.396797e+01 5.018093e+01 7.012642e+01 6.093787e+01 6.496553e+01 5.625532e+01 5.407099e+01 5.602790e+01 6.800474e+01 5.147264e+01 4.554338e+01 2.889580e+01 1.964614e+02 1.014802e+00 1.051494e+00 1.192524e+00 1.361505e+00 1.252491e+00 1.200779e+00 1.171287e+00 1.253210e+00 1.301511e+00 1.067673e+00 9.333860e-01 6.925103e-01 1.901073e+00 9.718791e-02 1.013125e-01 1.074831e-01 1.400428e-01 1.315143e-01 1.340856e-01 1.297345e-01 1.410865e-01 1.419722e-01 1.235795e-01 1.072224e-01 8.314594e-02 1.540031e-01
<GCONST> 9.934203e+01
<STATE> 3
<MEAN> 39
 8.625917e-01 -3.706841e-01 3.008708e-02 -1.519940e-01 1.595680e-01 -2.481932e-01 -1.464040e-01 4.645688e-02 -5.040399e-01 -7.368737e-01 -8.211796e-01 -2.031550e-01 1.383480e+00 2.659695e-02 3.579355e-03 -3.471602e-03 -2.170405e-02 9.742956e-03 -9.025957e-03 -1.184918e-02 2.140501e-03 2.292739e-03 -9.604707e-03 -4.508360e-03 -3.519891e-03 1.331856e-02 -1.087008e-03 3.870671e-04 -1.992985e-04 9.068721e-04 -8.229399e-05 5.412147e-04 6.484110e-04 -3.269462e-04 1.185202e-03 1.315713e-03 1.806491e-04 2.064414e-04 -3.567523e-03
<VARIANCE> 39
 6.235881e+01 5.002668e+01 6.949004e+01 6.070239e+01 6.537101e+01 5.588482e+01 5.387933e+01 5.577153e+01 6.798569e+01 5.135844e+01 4.541466e+01 2.890049e+01 1.972247e+02 1.006814e+00 1.051029e+00 1.190419e+00 1.360626e+00 1.253751e+00 1.204920e+00 1.168957e+00 1.252584e+00 1.296016e+00 1.064897e+00 9.313820e-01 6.919402e-01 1.885336e+00 9.676503e-02 1.014037e-01 1.076572e-01 1.400082e-01 1.319763e-01 1.346446e-01 1.297979e-01 1.411487e-01 1.415566e-01 1.231613e-01 1.065843e-01 8.310267e-02 1.531021e-01
<GCONST> 9.925161e+01
<STATE> 4
<MEAN> 39
 1.037475e+00 -3.449624e-01 2.476913e-02 -2.802044e-01 1.821835e-01 -3.363318e-01 -2.327872e-01 3.308714e-02 -4.656326e-01 -7.903006e-01 -8.852584e-01 -2.450702e-01 1.537916e+00 2.067093e-02 5.019987e-03 -3.341640e-03 -1.837995e-02 7.051811e-03 -9.039957e-03 -1.060168e-02 1.619966e-04 2.279587e-03 -6.079710e-03 -4.293056e-03 -2.398981e-03 -2.521193e-04 -1.534365e-03 5.467941e-04 1.041335e-04 7.925156e-04 -4.233184e-04 2.627237e-04 3.903748e-04 -4.070517e-04 1.926132e-04 7.949920e-04 1.945728e-04 4.005225e-04 -3.292624e-03
<VARIANCE> 39
 6.111848e+01 5.002099e+01 6.931573e+01 5.975716e+01 6.547956e+01 5.544842e+01 5.343693e+01 5.564559e+01 6.983062e+01 5.154808e+01 4.533767e+01 2.890312e+01 1.974715e+02 1.006713e+00 1.049229e+00 1.180868e+00 1.349339e+00 1.249375e+00 1.204718e+00 1.160378e+00 1.258294e+00 1.311760e+00 1.061854e+00 9.294834e-01 6.876954e-01 1.886129e+00 9.677034e-02 1.014689e-01 1.069394e-01 1.386580e-01 1.316492e-01 1.349969e-01 1.295467e-01 1.422489e-01 1.421738e-01 1.227402e-01 1.057978e-01 8.260223e-02 1.527421e-01
<GCONST> 9.917876e+01
<TRANSP> 5
 0.000000e+00 1.000000e+00 0.000000e+00 0.000000e+00 0.000000e+00
 0.000000e+00 7.076264e-01 2.923736e-01 0.000000e+00 0.000000e+00
 0.000000e+00 0.000000e+00 7.076261e-01 2.923739e-01 0.000000e+00
 0.000000e+00 0.000000e+00 0.000000e+00 8.281285e-01 1.718715e-01
 0.000000e+00 0.000000e+00 0.000000e+00 0.000000e+00 0.000000e+00
<ENDHMM>
~h "o"
<BEGINHMM>
<NUMSTATES> 5
<STATE> 2
<MEAN> 39
 6.572627e-01 -2.763447e-01 -4.041463e-01 -2.758607e-01 -6.486241e-01 2.001203e-01 -3.241656e-01 -2.900183e-02 1.911694e-01 4.303868e-01 5.828795e-02 -2.975476e-01 -7.243422e-02 4.152165e-02 4.052018e-02 5.007264e-03 -2.235932e-02 2.215758e-02 -8.381587e-03 -8.844981e-03 -3.292414e-03 -1.196280e-02 -5.868786e-03 -4.593050e-03 6.263942e-03 3.974550e-02 5.692153e-04 2.564804e-03 2.634835e-03 -1.173103e-04 1.792208e-03 -5.832949e-04 4.849749e-04 1.016845e-03 2.146410e-03 1.051921e-03 -7.173538e-04 5.837398e-04 3.783407e-03
<VARIANCE> 39
 7.519040e+01 4.819190e+01 8.182919e+01 6.517756e+01 6.542105e+01 5.926410e+01 5.933497e+01 5.490775e+01 6.337052e+01 4.617968e+01 4.550777e+01 2.751775e+01 1.972021e+02 9.859260e-01 1.019658e+00 1.367527e+00 1.415506e+00 1.407552e+00 1.248073e+00 1.271788e+00 1.180164e+00 1.294855e+00 9.985610e-01 9.784012e-01 7.105024e-01 1.990041e+00 9.256904e-02 9.970195e-02 1.197269e-01 1.432337e-01 1.505536e-01 1.416085e-01 1.422281e-01 1.319553e-01 1.448601e-01 1.191906e-01 1.184315e-01 8.854266e-02 1.518967e-01
<GCONST> 1.003450e+02
<STATE> 3
<MEAN> 39
 8.123236e-01 -1.204549e-01 -3.659393e-01 -3.495483e-01 -5.581014e-01 1.571399e-01 -3.440152e-01 -3.188478e-02 1.609628e-01 4.158964e-01 3.577363e-02 -2.784506e-01 1.106138e-01 4.334603e-02 4.694230e-02 1.325719e-02 -2.140596e-02 2.923809e-02 -1.159892e-02 -9.381650e-03 -5.516951e-04 -5.523726e-03 -2.068788e-03 -7.659889e-03 5.247087e-03 5.075096e-02 2.600247e-04 1.834821e-03 2.051374e-03 1.817909e-04 2.044154e-03 -9.062186e-04 -3.478671e-04 6.215631e-04 1.960767e-03 1.095690e-03 -9.548297e-04 -4.159688e-04 2.499711e-03
<VARIANCE> 39
 7.421933e+01 4.639234e+01 8.160808e+01 6.454348e+01 6.606316e+01 5.874421e+01 5.925723e+01 5.448903e+01 6.256877e+01 4.626454e+01 4.536524e+01 2.766467e+01 1.953623e+02 1.010023e+00 1.015450e+00 1.373303e+00 1.422162e+00 1.413740e+00 1.252381e+00 1.250299e+00 1.173792e+00 1.291021e+00 9.961399e-01 9.856911e-01 7.128363e-01 2.037271e+00 9.487853e-02 9.926405e-02 1.208302e-01 1.432741e-01 1.505470e-01 1.426319e-01 1.398842e-01 1.314769e-01 1.446838e-01 1.196375e-01 1.185806e-01 8.898731e-02 1.564626e-01
<GCONST> 1.003534e+02
<STATE> 4
<MEAN> 39
 1.077032e+00 1.169472e-01 -3.264130e-01 -5.102496e-01 -3.957323e-01 1.382267e-02 -4.464498e-01 -9.162565e-02 1.421303e-01 3.722048e-01 -6.249096e-02 -2.737628e-01 5.023806e-01 3.910887e-02 4.290999e-02 1.586046e-02 -2.082471e-02 3.064466e-02 -2.066018e-02 -1.714478e-02 -8.089374e-03 -9.780919e-03 -5.931615e-03 -1.535559e-02 1.519118e-03 5.674003e-02 -1.529792e-03 -7.328539e-04 2.102813e-04 -6.812798e-05 4.583247e-04 -1.144250e-03 -1.531393e-03 -1.198284e-03 -1.114193e-04 -3.239488e-04 -1.357636e-03 -7.162021e-04 -5.251234e-04
<VARIANCE> 39
 7.155110e+01 4.394727e+01 8.027521e+01 6.246062e+01 6.627718e+01 5.738283e+01 5.893575e+01 5.337515e+01 6.296538e+01 4.697195e+01 4.486760e+01 2.775721e+01 1.902601e+02 1.020091e+00 9.876238e-01 1.348600e+00 1.409816e+00 1.406642e+00 1.237212e+00 1.217289e+00 1.145668e+00 1.288399e+00 9.962448e-01 9.921553e-01 7.093303e-01 2.078165e+00 9.655658e-02 9.740059e-02 1.195293e-01 1.407076e-01 1.493987e-01 1.413361e-01 1.362174e-01 1.287757e-01 1.438895e-01 1.192860e-01 1.176647e-01 8.846527e-02 1.618853e-01
<GCONST> 9.997855e+01
<TRANSP> 5
 0.000000e+00 1.000000e+00 0.000000e+00 0.000000e+00 0.000000e+00
 0.000000e+00 7.076846e-01 2.923154e-01 0.000000e+00 0.000000e+00
 0.000000e+00 0.000000e+00 7.076842e-01 2.923158e-01 0.000000e+00
 0.000000e+00 0.000000e+00 0.000000e+00 8.276989e-01 1.723011e-01
 0.000000e+00 0.000000e+00 0.000000e+00 0.000000e+00 0.000000e+00
<ENDHMM>
~h "p"
<BEGINHMM>
<NUMSTATES> 5
<STATE> 2
<MEAN> 39
 -2.210492e-01 -1.159243e+00 -1.540946e+00 1.165518e+00 -6.425426e-01 5.998801e-01 8.607757e-01 8.792786e-01 7.257662e-01 6.598005e-01 2.230590e-01 -1.827149e-02 6.061040e-01 3.185596e-02 3.257768e-02 4.640184e-02 3.497282e-02 2.279391e-02 -7.537575e-03 5.086353e-03 4.801441e-03 -1.445773e-02 -1.346957e-02 9.983657e-04 2.043312e-02 5.987179e-03 1.784485e-03 3.771800e-03 3.704549e-03 1.316428e-03 1.376185e-03 4.601931e-05 2.304262e-03 2.098286e-03 2.538376e-03 2.045947e-03 2.747650e-03 -8.724784e-04 2.989496e-03
<VARIANCE> 39
 8.317519e+01 6.447640e+01 7.540761e+01 6.651210e+01 6.845110e+01 6.560490e+01 5.366354e+01 5.482619e+01 6.511785e+01 4.673960e+01 4.331939e+01 2.782205e+01 1.936335e+02 1.129033e+00 1.108226e+00 1.208389e+00 1.294858e+00 1.357108e+00 1.141884e+00 1.136497e+00 1.128706e+00 1.354887e+00 1.041818e+00 9.038392e-01 6.405183e-01 1.986279e+00 1.054469e-01 1.034779e-01 1.104929e-01 1.327019e-01 1.453685e-01 1.277228e-01 1.286044e-01 1.283716e-01 1.474826e-01 1.238006e-01 1.067106e-01 8.021387e-02 1.664112e-01
<GCONST> 1.000181e+02
<STATE> 3
<MEAN> 39
 -1.056213e-01 -1.021004e+00 -1.361705e+00 1.287623e+00 -5.601895e-01 5.729478e-01 8.954799e-01 9.214767e-01 7.025908e-01 6.453930e-01 2.613796e-01 3.965631e-02 6.582837e-01 3.611928e-02 4.017255e-02 5.428363e-02 3.312138e-02 2.811665e-02 -9.076024e-03 1.202857e-02 1.189803e-02 -3.643626e-03 -4.545575e-03 1.114381e-02 1.379250e-02 1.476874e-02 1.268404e-03 2.481048e-03 2.646771e-03 -1.218365e-03 1.251822e-03 -1.076222e-03 2.311365e-03 1.942069e-03 3.115313e-03 2.716044e-03 2.768604e-03 -1.969662e-03 3.082063e-03
<VARIANCE> 39
 8.192940e+01 6.253555e+01 7.527201e+01 6.710817e+01 7.014092e+01 6.568906e+01 5.477276e+01 5.479783e+01 6.469517e+01 4.654931e+01 4.358803e+01 2.789001e+01 1.915005e+02 1.161584e+00 1.122931e+00 1.225177e+00 1.294947e+00 1.371242e+00 1.159767e+00 1.147312e+00 1.129696e+00 1.357082e+00 1.038296e+00 9.132568e-01 6.437586e-01 2.087467e+00 1.083677e-01 1.049488e-01 1.123035e-01 1.326676e-01 1.472135e-01 1.285971e-01 1.298110e-01 1.282201e-01 1.480284e-01 1.233043e-01 1.069004e-01 8.071527e-02 1.739474e-01
<GCONST> 1.003042e+02
<STATE> 4
<MEAN> 39
 1.951001e-01 -7.848803e-01 -1.045494e+00 1.378230e+00 -3.942297e-01 4.261367e-01 9.832987e-01 1.011376e+00 7.002052e-01 6.557879e-01 3.217722e-01 4.433842e-02 1.007758e+00 3.041864e-02 3.726143e-02 5.676502e-02 1.580253e-02 2.478413e-02 -2.125118e-02 8.978318e-03 4.393294e-03 -2.081349e-03 -3.720489e-03 1.249483e-02 5.056898e-03 2.207100e-02 -7.689240e-04 1.948749e-05 1.374039e-03 -3.688517e-03 -8.329611e-04 -2.587778e-03 -7.794096e-05 -1.319510e-03 3.052362e-04 1.570997e-04 -2.870715e-04 -1.597960e-03 2.246871e-03
<VARIANCE> 39
 7.957825e+01 5.996277e+01 7.536728e+01 6.766915e+01 7.275690e+01 6.468058e+01 5.649586e+01 5.531378e+01 6.651765e+01 4.713646e+01 4.416440e+01 2.809060e+01 1.868394e+02 1.217479e+00 1.136452e+00 1.249567e+00 1.302191e+00 1.391043e+00 1.184926e+00 1.168388e+00 1.136572e+00 1.384987e+00 1.050931e+00 9.316750e-01 6.519697e-01 2.242497e+00 1.132746e-01 1.063847e-01 1.149717e-01 1.326698e-01 1.498253e-01 1.300848e-01 1.322976e-01 1.291098e-01 1.505850e-01 1.245465e-01 1.076312e-01 8.188412e-02 1.856629e-01
<GCONST> 1.008710e+02
<TRANSP> 5
 0.000000e+00 1.000000e+00 0.000000e+00 0.000000e+00 0.000000e+00
 0.000000e+00 7.041871e-01 2.958130e-01 0.000000e+00 0.000000e+00
 0.000000e+00 0.000000e+00 7.041868e-01 2.958132e-01 0.000000e+00
 0.000000e+00 0.000000e+00 0.000000e+00 8.241850e-01 1.758150e-01
 0.000000e+00 0.000000e+00 0.000000e+00 0.000000e+00 0.000000e+00
<ENDHMM>
~h "r"
<BEGINHMM>
<NUMSTATES> 5
<STATE> 2
<MEAN> 39
 -4.500047e-01 -4.971243e-02 -5.081159e-01 5.197716e-01 2.455947e-03 3.680137e-01 3.955784e-01 2.181364e-01 4.344725e-01 4.279980e-01 3.556252e-01 2.713274e-01 1.617126e-02 3.514471e-02 2.229584e-02 1.791684e-02 -1.541423e-02 2.318687e-02 -2.141223e-02 -8.040904e-04 -4.056667e-03 -1.632800e-02 -7.055810e-03 -1.367596e-02 -5.157574e-04 3.100846e-02 -1.233431e-03 -4.634802e-04 1.263750e-03 -1.467134e-03 -1.011569e-03 -1.595430e-03 -1.369832e-04 3.233633e-04 -1.054676e-03 -5.250943e-04 -7.950347e-05 -3.632308e-04 1.508119e-04
<VARIANCE> 39
 7.608389e+01 5.608343e+01 7.554550e+01 6.493409e+01 7.388924e+01 6.072245e+01 5.644710e+01 5.734684e+01 6.472433e+01 4.864007e+01 4.708650e+01 2.823126e+01 2.123574e+02 1.157285e+00 1.060444e+00 1.221421e+00 1.293447e+00 1.365794e+00 1.202102e+00 1.175771e+00 1.176477e+00 1.207018e+00 1.013016e+00 9.166700e-01 6.687312e-01 1.925200e+00 1.062105e-01 9.993181e-02 1.067622e-01 1.346821e-01 1.418528e-01 1.355220e-01 1.339171e-01 1.339436e-01 1.300848e-01 1.191547e-01 1.067202e-01 8.108264e-02 1.596641e-01
<GCONST> 9.996819e+01
<STATE> 3
<MEAN> 39
 -3.444834e-01 1.650264e-02 -4.446206e-01 4.541300e-01 7.039976e-02 2.801319e-01 3.834467e-01 1.989156e-01 3.687719e-01 3.948372e-01 3.052325e-01 2.648810e-01 1.236533e-01 3.109155e-02 1.983126e-02 2.179560e-02 -2.012248e-02 1.700080e-02 -2.659766e-02 -3.437869e-03 -4.262101e-03 -2.045109e-02 -1.057208e-02 -1.637354e-02 -2.346134e-03 3.020020e-02 -1.242121e-03 -7.740633e-04 1.420840e-03 -1.304320e-03 -1.993458e-03 -1.233853e-03 -8.961110e-04 -3.592996e-05 -1.256574e-03 -1.157767e-03 -6.964599e-04 -6.111223e-04 -3.725565e-04
<VARIANCE> 39
 7.433626e+01 5.556512e+01 7.534435e+01 6.428476e+01 7.443967e+01 5.991278e+01 5.683186e+01 5.760133e+01 6.503985e+01 4.883728e+01 4.728628e+01 2.827761e+01 2.109024e+02 1.168656e+00 1.065673e+00 1.229748e+00 1.306352e+00 1.376288e+00 1.207882e+00 1.181935e+00 1.178555e+00 1.214705e+00 1.019949e+00 9.214115e-01 6.715260e-01 1.960054e+00 1.075094e-01 1.008463e-01 1.076208e-01 1.357605e-01 1.433746e-01 1.359923e-01 1.348058e-01 1.342602e-01 1.305205e-01 1.199237e-01 1.071071e-01 8.154076e-02 1.639065e-01
<GCONST> 1.001330e+02
<STATE> 4
<MEAN> 39
 -1.788703e-01 9.281677e-02 -2.767919e-01 2.886009e-01 6.730380e-02 9.628593e-02 3.062903e-01 1.238455e-01 2.144370e-01 3.041987e-01 2.105090e-01 2.263768e-01 3.878810e-01 2.290988e-02 1.284971e-02 2.558106e-02 -2.681122e-02 2.918684e-03 -3.227215e-02 -1.295827e-02 -1.008521e-02 -2.802377e-02 -1.781888e-02 -2.200616e-02 -4.597148e-03 2.493471e-02 -1.277031e-03 -1.182920e-03 1.296218e-03 -9.975709e-04 -2.658083e-03 -5.270005e-04 -1.529510e-03 -7.094309e-04 -1.356489e-03 -1.237753e-03 -8.269239e-04 -4.720605e-04 -1.164975e-03
<VARIANCE> 39
 7.209067e+01 5.516348e+01 7.548943e+01 6.266959e+01 7.477276e+01 5.813782e+01 5.689494e+01 5.792576e+01 6.730302e+01 4.975279e+01 4.734304e+01 2.840711e+01 2.091549e+02 1.182826e+00 1.064484e+00 1.229176e+00 1.305536e+00 1.390415e+00 1.201556e+00 1.190789e+00 1.180465e+00 1.240192e+00 1.033628e+00 9.234704e-01 6.740694e-01 1.992645e+00 1.088651e-01 1.010038e-01 1.074157e-01 1.344933e-01 1.442552e-01 1.348808e-01 1.352417e-01 1.346427e-01 1.315838e-01 1.211146e-01 1.066845e-01 8.199184e-02 1.665572e-01
<GCONST> 1.002258e+02
<TRANSP> 5
 0.000000e+00 1.000000e+00 0.000000e+00 0.000000e+00 0.000000e+00
 0.000000e+00 7.058700e-01 2.941301e-01 0.000000e+00 0.000000e+00
 0.000000e+00 0.000000e+00 7.058694e-01 2.941306e-01 0.000000e+00
 0.000000e+00 0.000000e+00 0.000000e+00 8.262475e-01 1.737525e-01
 0.000000e+00 0.000000e+00 0.000000e+00 0.000000e+00 0.000000e+00
<ENDHMM>
~h "s"
<BEGINHMM>
<NUMSTATES> 5
<STATE> 2
<MEAN> 39
 -7.724250e-01 1.597207e+00 -5.632052e-01 -4.754356e-01 -1.634938e-01 -1.642877e+00 -5.726580e-01 -7.254490e-01 -3.829042e-01 -6.428264e-02 -2.976878e-01 6.055458e-02 3.195191e+00 1.730745e-02 -8.626168e-03 -1.592638e-02 -4.050781e-03 2.558865e-02 4.872696e-03 -1.565164e-02 2.768278e-03 -5.022259e-03 -2.115468e-02 -1.634641e-03 -4.748797e-03 -6.392099e-03 1.116984e-03 -5.377618e-04 2.894672e-04 6.586998e-04 9.794671e-04 2.080689e-03 9.535507e-04 3.493926e-05 1.353445e-03 3.047953e-04 1.412260e-03 1.032676e-04 -2.522374e-03
<VARIANCE> 39
 8.744285e+01 5.972041e+01 8.311479e+01 6.139515e+01 7.221931e+01 5.850835e+01 6.004830e+01 5.811647e+01 6.345711e+01 5.111633e+01 4.606202e+01 2.997556e+01 1.109964e+02 1.723443e+00 1.235104e+00 1.489483e+00 1.639309e+00 1.451980e+00 1.273934e+00 1.405721e+00 1.332935e+00 1.399464e+00 1.168969e+00 1.094761e+00 7.614515e-01 1.635222e+00 1.418035e-01 1.152671e-01 1.301051e-01 1.670391e-01 1.528956e-01 1.396503e-01 1.560903e-01 1.461389e-01 1.500894e-01 1.327514e-01 1.261694e-01 9.005649e-02 1.330147e-01
<GCONST> 1.030190e+02
<STATE> 3
<MEAN> 39
 -7.111095e-01 1.576262e+00 -6.185423e-01 -4.864180e-01 -7.429229e-02 -1.610088e+00 -6.157213e-01 -7.199727e-01 -3.891479e-01 -1.294362e-01 -2.932119e-01 4.709056e-02 3.168426e+00 2.115081e-02 -9.964847e-03 -1.488402e-02 -2.452929e-03 2.760754e-02 1.125141e-02 -1.272109e-02 2.491373e-03 -1.167735e-03 -1.940679e-02 2.997618e-03 -3.945273e-03 -1.457513e-02 1.056631e-03 -3.157587e-04 6.674930e-05 5.198640e-04 7.059523e-04 2.103460e-03 1.146191e-03 1.240891e-04 1.241620e-03 6.680167e-04 1.422521e-03 2.902243e-04 -2.704361e-03
<VARIANCE> 39
 8.695206e+01 5.876777e+01 8.404119e+01 6.114979e+01 7.211964e+01 5.826892e+01 5.977422e+01 5.808853e+01 6.353428e+01 5.111639e+01 4.583495e+01 2.974302e+01 1.108343e+02 1.715810e+00 1.235885e+00 1.500859e+00 1.645087e+00 1.445660e+00 1.280896e+00 1.407095e+00 1.331078e+00 1.399910e+00 1.176908e+00 1.091596e+00 7.574241e-01 1.624584e+00 1.414310e-01 1.153251e-01 1.309106e-01 1.678199e-01 1.523368e-01 1.407038e-01 1.566551e-01 1.459679e-01 1.501026e-01 1.336491e-01 1.262048e-01 8.998925e-02 1.320405e-01
<GCONST> 1.029952e+02
<STATE> 4
<MEAN> 39
 -5.954412e-01 1.542455e+00 -6.553670e-01 -5.371953e-01 6.721656e-02 -1.501169e+00 -6.553915e-01 -7.106373e-01 -3.315565e-01 -1.879612e-01 -2.705025e-01 5.538601e-02 3.084902e+00 2.436639e-02 -8.032541e-03 -1.379771e-02 -2.039154e-03 2.616488e-02 1.878377e-02 -8.537667e-03 1.712175e-03 3.303258e-03 -1.417068e-02 8.865392e-03 -1.670615e-03 -2.318688e-02 7.649024e-04 -1.061407e-04 1.257051e-04 2.238522e-04 -8.898302e-06 1.657350e-03 1.048569e-03 3.036088e-04 9.521757e-04 1.002474e-03 1.229123e-03 4.913592e-04 -2.718115e-03
<VARIANCE> 39
 8.655881e+01 5.772841e+01 8.524072e+01 6.040085e+01 7.179482e+01 5.848623e+01 5.931133e+01 5.681456e+01 6.481297e+01 5.154081e+01 4.534622e+01 2.918207e+01 1.147867e+02 1.695363e+00 1.227056e+00 1.494239e+00 1.618835e+00 1.430745e+00 1.271804e+00 1.397005e+00 1.304895e+00 1.403790e+00 1.182643e+00 1.072906e+00 7.446975e-01 1.637919e+00 1.397860e-01 1.140499e-01 1.291794e-01 1.649225e-01 1.506882e-01 1.395223e-01 1.557422e-01 1.434881e-01 1.495244e-01 1.341045e-01 1.241863e-01 8.896668e-02 1.308527e-01
<GCONST> 1.027419e+02
<TRANSP> 5
 0.000000e+00 1.000000e+00 0.000000e+00 0.000000e+00 0.000000e+00
 0.000000e+00 6.999617e-01 3.000383e-01 0.000000e+00 0.000000e+00
 0.000000e+00 0.000000e+00 6.999625e-01 3.000375e-01 0.000000e+00
 0.000000e+00 0.000000e+00 0.000000e+00 8.194146e-01 1.805854e-01
 0.000000e+00 0.000000e+00 0.000000e+00 0.000000e+00 0.000000e+00
<ENDHMM>
~h "t"
<BEGINHMM>
<NUMSTATES> 5
<STATE> 2
<MEAN> 39
 4.611090e-01 -5.551995e-01 7.755178e-03 -5.825312e-02 -1.618935e-01 -3.077295e-01 2.584634e-02 -1.482020e-01 1.174823e-01 -1.772657e-01 -4.763148e-01 -6.288918e-02 1.641436e+00 2.343492e-02 -1.682885e-02 1.480821e-02 -3.540489e-02 -1.327523e-02 -2.333732e-02 -2.152258e-02 -2.277818e-02 -3.148427e-02 -1.960523e-02 -2.062023e-02 -1.359459e-04 2.865705e-02 -6.064165e-04 2.353734e-04 -3.217650e-04 1.264949e-03 1.149362e-04 9.781163e-04 -2.025333e-03 2.690554e-04 -9.611915e-04 -6.616829e-04 3.326075e-04 -6.147649e-04 -2.919201e-03
<VARIANCE> 39
 6.145554e+01 5.062302e+01 8.053719e+01 6.304016e+01 6.915668e+01 5.463145e+01 5.543483e+01 5.615765e+01 6.585677e+01 4.963765e+01 4.588492e+01 2.871690e+01 1.733984e+02 1.072609e+00 1.034187e+00 1.262806e+00 1.319019e+00 1.318368e+00 1.126977e+00 1.265190e+00 1.241410e+00 1.344925e+00 1.032597e+00 9.355305e-01 6.872633e-01 2.154270e+00 1.002359e-01 9.944817e-02 1.134188e-01 1.298429e-01 1.397819e-01 1.258097e-01 1.467497e-01 1.425690e-01 1.461298e-01 1.207822e-01 1.070675e-01 8.526573e-02 1.889219e-01
<GCONST> 9.994594e+01
<STATE> 3
<MEAN> 39
 5.384104e-01 -6.127097e-01 5.453544e-02 -1.700836e-01 -2.098953e-01 -3.797149e-01 -5.377416e-02 -2.176655e-01 9.523880e-03 -2.390132e-01 -5.363302e-01 -7.258128e-02 1.722165e+00 2.177240e-02 -1.446228e-02 1.470654e-02 -2.997458e-02 -1.044211e-02 -1.777838e-02 -2.572032e-02 -2.018836e-02 -3.115856e-02 -1.951829e-02 -1.829725e-02 -2.842573e-03 1.818740e-02 -4.770491e-04 9.648829e-04 -1.966978e-05 1.655028e-03 8.009464e-04 1.670332e-03 -1.135910e-03 1.033185e-03 2.929962e-04 -2.098019e-05 7.896809e-04 -8.301469e-04 -2.757237e-03
<VARIANCE> 39
 5.924759e+01 5.039770e+01 8.027044e+01 6.205596e+01 6.953096e+01 5.376817e+01 5.490368e+01 5.606098e+01 6.575291e+01 4.988032e+01 4.573460e+01 2.869895e+01 1.735340e+02 1.062529e+00 1.039160e+00 1.259799e+00 1.323448e+00 1.325304e+00 1.133542e+00 1.279116e+00 1.244284e+00 1.342899e+00 1.032456e+00 9.446045e-01 6.924764e-01 2.170967e+00 9.928652e-02 9.948584e-02 1.135409e-01 1.305935e-01 1.409765e-01 1.267902e-01 1.483153e-01 1.431311e-01 1.458481e-01 1.208788e-01 1.082768e-01 8.617436e-02 1.899500e-01
<GCONST> 9.996272e+01
<STATE> 4
<MEAN> 39
 6.988336e-01 -7.017664e-01 1.196754e-01 -3.284295e-01 -2.806151e-01 -5.119452e-01 -1.999361e-01 -3.069927e-01 -1.840607e-01 -3.653747e-01 -6.325448e-01 -1.160994e-01 1.931590e+00 1.875207e-02 -1.150663e-02 1.215245e-02 -2.399533e-02 -5.516023e-03 -8.232924e-03 -2.628415e-02 -1.433964e-02 -2.443719e-02 -1.629929e-02 -1.562938e-02 -7.010607e-03 3.168621e-03 -6.797318e-04 9.210055e-04 -3.576658e-04 1.278874e-03 1.001989e-03 1.872702e-03 -1.836558e-04 1.249926e-03 1.119935e-03 3.195457e-04 4.455510e-04 -6.666462e-04 -2.824616e-03
<VARIANCE> 39
 5.692818e+01 4.992362e+01 7.968564e+01 6.114941e+01 6.934593e+01 5.298091e+01 5.380239e+01 5.538926e+01 6.689508e+01 5.075077e+01 4.562932e+01 2.857268e+01 1.730441e+02 1.048134e+00 1.036328e+00 1.254058e+00 1.325958e+00 1.321782e+00 1.140057e+00 1.287172e+00 1.247033e+00 1.349368e+00 1.033496e+00 9.528040e-01 6.932670e-01 2.203584e+00 9.766979e-02 9.830521e-02 1.134431e-01 1.308989e-01 1.409062e-01 1.277111e-01 1.488778e-01 1.438450e-01 1.456495e-01 1.205854e-01 1.094721e-01 8.621669e-02 1.892517e-01
<GCONST> 9.988219e+01
<TRANSP> 5
 0.000000e+00 1.000000e+00 0.000000e+00 0.000000e+00 0.000000e+00
 0.000000e+00 7.047767e-01 2.952232e-01 0.000000e+00 0.000000e+00
 0.000000e+00 0.000000e+00 7.047777e-01 2.952224e-01 0.000000e+00
 0.000000e+00 0.000000e+00 0.000000e+00 8.252503e-01 1.747497e-01
 0.000000e+00 0.000000e+00 0.000000e+00 0.000000e+00 0.000000e+00
<ENDHMM>
~h "u"
<BEGINHMM>
<NUMSTATES> 5
<STATE> 2
<MEAN> 39
 2.938692e-01 4.914911e-01 -2.477889e-01 -4.633262e-02 1.138257e+00 -4.287098e-02 -5.447831e-01 -3.039986e-01 5.879586e-02 2.413177e-01 4.234624e-01 2.323915e-01 -1.435404e+00 -8.705711e-03 -1.486572e-03 1.921126e-02 -5.803298e-03 -1.331259e-03 1.246420e-02 -5.341267e-03 3.885943e-03 -9.146146e-05 -6.789516e-03 -9.642356e-03 -1.124181e-02 -2.566981e-02 -8.291250e-04 -4.158322e-04 -1.117119e-03 -4.573054e-05 -1.540727e-03 5.369847e-04 6.314562e-04 1.533498e-04 -8.892707e-05 3.237337e-04 4.600859e-05 -5.550479e-04 -5.198069e-04
<VARIANCE> 39
 6.296348e+01 4.226411e+01 6.992829e+01 5.473825e+01 6.549063e+01 5.456685e+01 5.712912e+01 5.297808e+01 5.941309e+01 4.642020e+01 4.502623e+01 2.682234e+01 2.470240e+02 1.023498e+00 9.081571e-01 1.175327e+00 1.215000e+00 1.180150e+00 1.178462e+00 1.210400e+00 1.112015e+00 1.150787e+00 9.334748e-01 8.550798e-01 6.270364e-01 1.863862e+00 9.954808e-02 9.114321e-02 1.050935e-01 1.260381e-01 1.283295e-01 1.359194e-01 1.395920e-01 1.254502e-01 1.292870e-01 1.131467e-01 1.011775e-01 7.876533e-02 1.654873e-01
<GCONST> 9.754351e+01
<STATE> 3
<MEAN> 39
 2.604436e-01 4.829094e-01 -1.848041e-01 -6.608984e-02 1.126213e+00 -2.727171e-03 -5.602880e-01 -2.955160e-01 5.562653e-02 2.177805e-01 3.880028e-01 1.953603e-01 -1.533509e+00 -1.130539e-02 -3.398970e-03 1.513651e-02 -5.346952e-03 -6.253163e-03 1.313545e-02 -2.302381e-03 4.964724e-03 1.127627e-04 -5.931891e-03 -9.579957e-03 -1.230147e-02 -2.872073e-02 -6.461835e-04 -7.139565e-04 -1.677148e-03 1.986734e-04 -1.064903e-03 3.113598e-04 1.093721e-03 3.822256e-04 -3.118342e-05 6.833038e-05 4.544150e-05 4.987075e-05 -7.554814e-04
<VARIANCE> 39
 6.246563e+01 4.237733e+01 7.022047e+01 5.429893e+01 6.601265e+01 5.419725e+01 5.670508e+01 5.303706e+01 5.958704e+01 4.619078e+01 4.514980e+01 2.669065e+01 2.556359e+02 1.008618e+00 9.087929e-01 1.172041e+00 1.202338e+00 1.175377e+00 1.164582e+00 1.202272e+00 1.112537e+00 1.146456e+00 9.290342e-01 8.491102e-01 6.229166e-01 1.826663e+00 9.818260e-02 9.104151e-02 1.045326e-01 1.250093e-01 1.282057e-01 1.342007e-01 1.386171e-01 1.255607e-01 1.290458e-01 1.126171e-01 1.003279e-01 7.806217e-02 1.628134e-01
<GCONST> 9.737902e+01
<STATE> 4
<MEAN> 39
 2.487415e-01 4.679927e-01 -1.423232e-01 -1.117346e-01 1.052170e+00 -7.103377e-03 -5.712144e-01 -3.326941e-01 -1.536714e-02 1.616262e-01 3.063833e-01 1.624946e-01 -1.525951e+00 -1.368249e-02 -5.896886e-03 9.794102e-03 -2.427910e-03 -9.598606e-03 1.210880e-02 4.385013e-03 7.373808e-03 1.059209e-03 -5.036705e-03 -7.393335e-03 -1.011745e-02 -3.536703e-02 -3.309465e-04 -6.583557e-04 -1.561468e-03 7.027003e-04 -7.982968e-05 1.823896e-04 1.458327e-03 7.109618e-04 5.532333e-06 -3.689065e-04 4.432150e-04 6.323169e-04 -9.168275e-04
<VARIANCE> 39
 6.194651e+01 4.205627e+01 7.004518e+01 5.278329e+01 6.615725e+01 5.350176e+01 5.535389e+01 5.225158e+01 6.032932e+01 4.624068e+01 4.494612e+01 2.631267e+01 2.612314e+02 9.806969e-01 8.936865e-01 1.146329e+00 1.171244e+00 1.158860e+00 1.134111e+00 1.176605e+00 1.095732e+00 1.134738e+00 9.235409e-01 8.387694e-01 6.127953e-01 1.778070e+00 9.525368e-02 8.946588e-02 1.019426e-01 1.219727e-01 1.267219e-01 1.303678e-01 1.355846e-01 1.243757e-01 1.281541e-01 1.115706e-01 9.876167e-02 7.650542e-02 1.585542e-01
<GCONST> 9.680802e+01
<TRANSP> 5
 0.000000e+00 1.000000e+00 0.000000e+00 0.000000e+00 0.000000e+00
 0.000000e+00 7.074165e-01 2.925835e-01 0.000000e+00 0.000000e+00
 0.000000e+00 0.000000e+00 7.074167e-01 2.925833e-01 0.000000e+00
 0.000000e+00 0.000000e+00 0.000000e+00 8.280835e-01 1.719164e-01
 0.000000e+00 0.000000e+00 0.000000e+00 0.000000e+00 0.000000e+00
<ENDHMM>
~h "w"
<BEGINHMM>
<NUMSTATES> 5
<STATE> 2
<MEAN> 39
 5.746977e-01 -4.455389e-01 -1.681867e+00 -3.787735e-01 1.666089e+00 4.188560e-01 -2.105509e-01 2.448630e-01 3.078885e-01 -4.096699e-01 -3.648570e-01 -2.941591e-01 1.037312e+00 7.189326e-04 1.446492e-02 2.459652e-02 -2.300563e-02 2.957422e-03 -1.643827e-02 -2.979200e-03 -1.824730e-03 1.649917e-02 9.315993e-03 2.233557e-03 -3.343296e-03 9.935878e-03 -2.806751e-03 5.669692e-04 8.726948e-04 -4.520417e-05 -3.954663e-03 -1.467514e-03 -2.475575e-04 -1.124522e-03 -1.979169e-03 -4.726003e-04 8.738175e-04 4.484495e-04 -1.623052e-03
<VARIANCE> 39
 7.886646e+01 5.526874e+01 8.742094e+01 6.269466e+01 7.348224e+01 5.639517e+01 5.838297e+01 5.642200e+01 6.188202e+01 5.085281e+01 4.772847e+01 3.047347e+01 1.949061e+02 1.348861e+00 1.144401e+00 1.336701e+00 1.376655e+00 1.409339e+00 1.196063e+00 1.334905e+00 1.183916e+00 1.230576e+00 1.070974e+00 1.035450e+00 7.353944e-01 1.656632e+00 1.196022e-01 1.124966e-01 1.129246e-01 1.416957e-01 1.550437e-01 1.333422e-01 1.499696e-01 1.330897e-01 1.360273e-01 1.241185e-01 1.182220e-01 8.625923e-02 1.418446e-01
<GCONST> 1.013802e+02
<STATE> 3
<MEAN> 39
 5.585735e-01 -4.032928e-01 -1.588131e+00 -4.646155e-01 1.642369e+00 3.437668e-01 -2.270420e-01 2.141116e-01 3.307315e-01 -3.938547e-01 -3.622253e-01 -2.960810e-01 1.069519e+00 -8.241687e-03 1.443914e-02 2.658475e-02 -2.328213e-02 -1.006850e-02 -2.011736e-02 -4.066787e-03 -6.601916e-03 7.939029e-03 6.018742e-03 3.994791e-03 -1.240874e-03 2.779390e-03 -2.743764e-03 1.864734e-04 6.361209e-04 1.705306e-04 -3.543757e-03 -1.009321e-03 -2.708044e-04 -1.327682e-03 -2.592964e-03 -1.032728e-03 4.237317e-04 6.300696e-04 -2.334645e-03
<VARIANCE> 39
 7.684164e+01 5.443839e+01 8.728409e+01 6.225125e+01 7.385334e+01 5.592389e+01 5.810924e+01 5.628698e+01 6.178546e+01 5.045961e+01 4.765051e+01 3.069879e+01 1.974401e+02 1.348133e+00 1.131487e+00 1.330216e+00 1.382935e+00 1.398581e+00 1.199541e+00 1.331190e+00 1.188068e+00 1.239813e+00 1.065221e+00 1.029568e+00 7.407354e-01 1.652151e+00 1.197514e-01 1.114036e-01 1.123242e-01 1.429973e-01 1.542153e-01 1.336034e-01 1.498114e-01 1.335843e-01 1.367858e-01 1.237094e-01 1.179199e-01 8.712973e-02 1.428970e-01
<GCONST> 1.013257e+02
<STATE> 4
<MEAN> 39
 5.602444e-01 -3.358373e-01 -1.390424e+00 -6.408033e-01 1.480190e+00 2.063224e-01 -2.401939e-01 1.369226e-01 3.031197e-01 -3.613201e-01 -3.871505e-01 -2.957529e-01 1.240792e+00 -1.729163e-02 1.208548e-02 2.997773e-02 -2.201782e-02 -2.316399e-02 -2.213908e-02 -4.612193e-03 -1.252555e-02 -5.520395e-03 2.822047e-04 3.163381e-03 2.559902e-03 -7.401658e-03 -1.800542e-03 1.105416e-04 4.906575e-04 6.946422e-04 -1.928535e-03 6.718868e-05 2.999352e-05 -5.261661e-04 -1.904944e-03 -5.343336e-04 3.230924e-05 4.147362e-04 -2.660529e-03
<VARIANCE> 39
 7.521220e+01 5.341959e+01 8.700692e+01 6.167070e+01 7.320234e+01 5.496221e+01 5.712674e+01 5.505441e+01 6.260430e+01 5.070948e+01 4.750631e+01 3.061111e+01 1.999181e+02 1.346460e+00 1.103264e+00 1.308605e+00 1.378275e+00 1.377095e+00 1.189318e+00 1.309393e+00 1.168735e+00 1.254764e+00 1.053955e+00 1.011735e+00 7.346192e-01 1.657741e+00 1.196708e-01 1.088247e-01 1.103037e-01 1.430660e-01 1.516507e-01 1.320403e-01 1.479404e-01 1.322786e-01 1.379328e-01 1.224115e-01 1.157946e-01 8.715144e-02 1.430123e-01
<GCONST> 1.009958e+02
<TRANSP> 5
 0.000000e+00 1.000000e+00 0.000000e+00 0.000000e+00 0.000000e+00
 0.000000e+00 7.016438e-01 2.983562e-01 0.000000e+00 0.000000e+00
 0.000000e+00 0.000000e+00 7.016455e-01 2.983546e-01 0.000000e+00
 0.000000e+00 0.000000e+00 0.000000e+00 8.226376e-01 1.773625e-01
 0.000000e+00 0.000000e+00 0.000000e+00 0.000000e+00 0.000000e+00
<ENDHMM>
~h "y"
<BEGINHMM>
<NUMSTATES> 5
<STATE> 2
<MEAN> 39
 1.169754e+00 1.651849e-01 1.886506e+00 -1.643273e+00 -1.298206e+00 -4.514436e-01 -8.041754e-01 -8.082812e-01 -1.351756e+00 -7.393178e-01 -1.004324e+00 -4.882587e-01 3.734337e+00 1.200359e-02 6.736942e-03 -9.936139e-03 -6.071154e-03 6.789327e-03 -2.545719e-03 -2.242283e-03 1.741719e-02 1.803009e-02 5.672221e-03 -2.837770e-03 4.715090e-03 -3.432331e-02 6.591351e-04 -1.859995e-04 -2.317022e-03 1.078324e-03 8.024598e-04 6.286012e-04 1.913795e-03 1.754091e-04 5.160509e-04 6.894424e-04 1.081692e-03 7.934810e-06 -7.226886e-04
<VARIANCE> 39
 4.873390e+01 5.640170e+01 9.419855e+01 6.631036e+01 6.790931e+01 5.183965e+01 5.822180e+01 6.209863e+01 6.517593e+01 4.692136e+01 4.908410e+01 2.949964e+01 1.276174e+02 9.296539e-01 1.152425e+00 1.586521e+00 1.393878e+00 1.436105e+00 1.366708e+00 1.360951e+00 1.476896e+00 1.357227e+00 1.090693e+00 1.009783e+00 7.587605e-01 1.555238e+00 8.416390e-02 1.066002e-01 1.261602e-01 1.274056e-01 1.540086e-01 1.536413e-01 1.475015e-01 1.638408e-01 1.447713e-01 1.253717e-01 1.156976e-01 9.270171e-02 1.272874e-01
<GCONST> 1.007338e+02
<STATE> 3
<MEAN> 39
 1.209120e+00 1.947209e-01 1.849896e+00 -1.661900e+00 -1.275330e+00 -4.561669e-01 -7.997246e-01 -7.523956e-01 -1.291501e+00 -7.123636e-01 -1.003896e+00 -4.664472e-01 3.615802e+00 1.422163e-02 6.025721e-03 -1.751716e-02 -2.001073e-03 9.569513e-03 -3.950442e-04 3.964419e-03 1.772240e-02 1.861074e-02 7.520702e-03 9.759711e-04 4.895959e-03 -3.701997e-02 5.548222e-04 -1.341920e-04 -2.217944e-03 1.143287e-03 5.764706e-04 6.241191e-04 1.836055e-03 -5.105976e-05 -7.930232e-05 4.447380e-04 1.151415e-03 1.389999e-06 -5.585466e-04
<VARIANCE> 39
 4.872908e+01 5.636672e+01 9.408971e+01 6.556490e+01 6.803867e+01 5.208303e+01 5.852515e+01 6.228832e+01 6.475925e+01 4.675380e+01 4.934794e+01 2.943289e+01 1.326920e+02 9.191428e-01 1.149021e+00 1.596869e+00 1.388181e+00 1.436211e+00 1.369664e+00 1.366902e+00 1.477012e+00 1.355365e+00 1.091017e+00 1.011954e+00 7.549742e-01 1.558104e+00 8.371951e-02 1.063857e-01 1.269430e-01 1.277996e-01 1.543831e-01 1.544086e-01 1.483354e-01 1.639789e-01 1.449324e-01 1.253450e-01 1.160295e-01 9.236771e-02 1.280769e-01
<GCONST> 1.007824e+02
<STATE> 4
<MEAN> 39
 1.353341e+00 2.333981e-01 1.825364e+00 -1.692780e+00 -1.288218e+00 -4.656244e-01 -7.791679e-01 -6.343014e-01 -1.207970e+00 -6.543816e-01 -9.464571e-01 -4.600649e-01 3.539867e+00 1.494465e-02 6.052531e-03 -2.374011e-02 3.789643e-03 1.096390e-02 2.175893e-03 1.144752e-02 1.664765e-02 1.565069e-02 9.309644e-03 7.042280e-03 6.660607e-03 -3.999560e-02 2.742671e-04 -2.846387e-04 -1.923394e-03 1.305908e-03 3.966792e-04 4.251977e-04 1.460940e-03 -9.115631e-05 -5.555931e-04 8.192071e-05 1.135496e-03 4.180899e-05 -6.391187e-04
<VARIANCE> 39
 4.873264e+01 5.603730e+01 9.363166e+01 6.392636e+01 6.841019e+01 5.216162e+01 5.889688e+01 6.210419e+01 6.532804e+01 4.682165e+01 4.970022e+01 2.921400e+01 1.382284e+02 9.002216e-01 1.129714e+00 1.585472e+00 1.353763e+00 1.417415e+00 1.358582e+00 1.362160e+00 1.462649e+00 1.365686e+00 1.084230e+00 1.012491e+00 7.387850e-01 1.561895e+00 8.227114e-02 1.047622e-01 1.258996e-01 1.257277e-01 1.517978e-01 1.535177e-01 1.481219e-01 1.631708e-01 1.461032e-01 1.240378e-01 1.156752e-01 9.039866e-02 1.275162e-01
<GCONST> 1.005676e+02
<TRANSP> 5
 0.000000e+00 1.000000e+00 0.000000e+00 0.000000e+00 0.000000e+00
 0.000000e+00 7.054048e-01 2.945952e-01 0.000000e+00 0.000000e+00
 0.000000e+00 0.000000e+00 7.054070e-01 2.945930e-01 0.000000e+00
 0.000000e+00 0.000000e+00 0.000000e+00 8.260351e-01 1.739649e-01
 0.000000e+00 0.000000e+00 0.000000e+00 0.000000e+00 0.000000e+00
<ENDHMM>
~h "aa"
<BEGINHMM>
<NUMSTATES> 5
<STATE> 2
<MEAN> 39
 5.771584e-01 -1.005486e+00 -9.395459e-01 -3.681408e-01 2.693985e-01 3.416637e-01 -6.908633e-02 1.317198e-01 1.597225e-01 6.209128e-02 -7.993948e-01 -2.484545e-01 1.821212e+00 1.610851e-02 1.768114e-02 1.706905e-02 -2.084078e-02 1.085101e-02 -1.250943e-02 7.506269e-03 -5.344983e-03 -5.365575e-03 -1.325194e-03 -1.265321e-03 -7.724902e-05 7.922562e-03 5.112691e-04 9.910493e-04 1.234296e-03 1.218310e-03 -1.110328e-03 3.801718e-04 2.306633e-04 9.030475e-04 3.309979e-04 -2.905695e-04 1.452206e-03 9.917287e-05 -1.064253e-03
<VARIANCE> 39
 6.639132e+01 5.689077e+01 8.297124e+01 6.187361e+01 6.641417e+01 5.710027e+01 5.658166e+01 5.474549e+01 6.695258e+01 5.339954e+01 4.814885e+01 3.090646e+01 1.829876e+02 1.073003e+00 1.108358e+00 1.281433e+00 1.330043e+00 1.402044e+00 1.258891e+00 1.275744e+00 1.209380e+00 1.266937e+00 1.123976e+00 9.852170e-01 7.209248e-01 1.965002e+00 1.013148e-01 1.040775e-01 1.103594e-01 1.401101e-01 1.491492e-01 1.408543e-01 1.415409e-01 1.390237e-01 1.367566e-01 1.267615e-01 1.107053e-01 8.579373e-02 1.539785e-01
<GCONST> 1.007330e+02
<STATE> 3
<MEAN> 39
 6.348500e-01 -9.475802e-01 -8.787097e-01 -4.285836e-01 3.046762e-01 3.022871e-01 -4.975910e-02 1.194534e-01 1.428182e-01 5.277650e-02 -8.002205e-01 -2.488914e-01 1.841533e+00 1.708448e-02 1.915440e-02 1.894923e-02 -1.717982e-02 7.952157e-03 -1.264792e-02 5.556940e-03 -2.922550e-03 -5.557605e-03 -3.014821e-03 1.649779e-03 -9.910482e-04 4.499974e-03 2.741372e-04 3.248965e-04 5.361610e-04 1.178504e-03 -9.290557e-04 -1.196433e-04 -7.173602e-04 6.998564e-04 -2.109817e-05 -7.406131e-04 7.500130e-04 -2.830391e-04 -1.046546e-03
<VARIANCE> 39
 6.512086e+01 5.693308e+01 8.298353e+01 6.134401e+01 6.695876e+01 5.674019e+01 5.650644e+01 5.494921e+01 6.691973e+01 5.339122e+01 4.799343e+01 3.082376e+01 1.831392e+02 1.079518e+00 1.112917e+00 1.280047e+00 1.329830e+00 1.398589e+00 1.260563e+00 1.274402e+00 1.211738e+00 1.264787e+00 1.118482e+00 9.792611e-01 7.199401e-01 1.991514e+00 1.019899e-01 1.041936e-01 1.100953e-01 1.402768e-01 1.488864e-01 1.409548e-01 1.415983e-01 1.392274e-01 1.364987e-01 1.264959e-01 1.101296e-01 8.582830e-02 1.569270e-01
<GCONST> 1.007301e+02
<STATE> 4
<MEAN> 39
 8.014703e-01 -8.996512e-01 -7.194852e-01 -5.053800e-01 2.832394e-01 2.239138e-01 -6.427903e-02 1.086316e-01 1.584955e-01 3.511630e-02 -7.893503e-01 -2.846480e-01 1.931394e+00 1.514188e-02 1.519525e-02 1.642884e-02 -1.328052e-02 6.125136e-03 -1.360536e-02 -1.837653e-03 -2.040390e-03 -7.996688e-03 -6.987744e-03 1.000436e-03 -1.908348e-03 -1.274694e-03 -2.559251e-04 -4.564749e-04 -1.344968e-04 6.627258e-04 -6.193880e-04 -2.859523e-04 -1.192708e-03 2.633882e-04 -3.190608e-04 -8.240817e-04 1.263829e-04 -3.226891e-04 -1.119127e-03
<VARIANCE> 39
 6.334205e+01 5.699258e+01 8.354620e+01 6.054053e+01 6.779146e+01 5.635723e+01 5.615419e+01 5.539828e+01 6.870599e+01 5.392862e+01 4.781788e+01 3.062955e+01 1.834591e+02 1.086054e+00 1.114420e+00 1.273655e+00 1.320673e+00 1.386167e+00 1.265740e+00 1.265903e+00 1.214560e+00 1.274539e+00 1.111825e+00 9.702374e-01 7.123128e-01 2.038310e+00 1.027141e-01 1.040425e-01 1.091376e-01 1.389960e-01 1.475973e-01 1.413124e-01 1.407839e-01 1.395421e-01 1.367101e-01 1.259039e-01 1.091362e-01 8.501197e-02 1.606699e-01
<GCONST> 1.007038e+02
<TRANSP> 5
 0.000000e+00 1.000000e+00 0.000000e+00 0.000000e+00 0.000000e+00
 0.000000e+00 7.082204e-01 2.917796e-01 0.000000e+00 0.000000e+00
 0.000000e+00 0.000000e+00 7.082174e-01 2.917825e-01 0.000000e+00
 0.000000e+00 0.000000e+00 0.000000e+00 8.289531e-01 1.710469e-01
 0.000000e+00 0.000000e+00 0.000000e+00 0.000000e+00 0.000000e+00
<ENDHMM>
~h "ai"
<BEGINHMM>
<NUMSTATES> 5
<STATE> 2
<MEAN> 39
 -1.596364e-01 4.940957e-01 -4.843726e-01 1.897393e+00 4.085920e-01 4.910209e-01 1.235010e+00 5.207263e-01 -7.262085e-02 -2.596182e-01 -5.156012e-01 4.922883e-02 -5.594561e-01 1.008209e-01 1.097111e-03 4.788689e-02 -5.506290e-02 1.634792e-02 -3.932110e-02 1.344246e-02 -2.827103e-03 -4.022456e-02 -7.909290e-04 -4.134279e-02 2.001665e-02 1.491873e-01 -2.253167e-03 -1.032483e-02 6.179290e-04 -4.188255e-03 -6.769435e-03 -1.894005e-03 -4.732803e-03 6.195682e-05 -4.645076e-03 -1.435440e-04 -2.574235e-03 -7.403453e-04 -1.668673e-03
<VARIANCE> 39
 6.860006e+01 4.351561e+01 6.098466e+01 6.747146e+01 6.606721e+01 5.492646e+01 4.923175e+01 5.638539e+01 6.333255e+01 4.739201e+01 3.852730e+01 2.710782e+01 1.975718e+02 8.549833e-01 9.284849e-01 1.020676e+00 1.274154e+00 1.190376e+00 1.021004e+00 1.084905e+00 1.309534e+00 1.211570e+00 9.148246e-01 7.848527e-01 6.683395e-01 2.339451e+00 7.998041e-02 8.420911e-02 9.023498e-02 1.306873e-01 1.196458e-01 1.146070e-01 1.351875e-01 1.526931e-01 1.170917e-01 1.101424e-01 9.548491e-02 8.279651e-02 1.975363e-01
<GCONST> 9.683283e+01
<STATE> 3
<MEAN> 39
 1.679773e-01 3.847568e-01 -2.967160e-01 1.608945e+00 3.407367e-01 2.758682e-01 1.210450e+00 4.710329e-01 -2.969695e-01 -2.971852e-01 -7.174432e-01 1.082448e-01 4.400505e-02 8.351947e-02 -3.102988e-02 5.023547e-02 -7.521208e-02 -1.495612e-02 -5.020092e-02 -3.758758e-03 -8.663744e-03 -5.852205e-02 -1.079306e-03 -4.834121e-02 1.596479e-02 1.416782e-01 -4.607137e-03 -9.364568e-03 4.794227e-05 -5.716542e-03 -7.847055e-03 -3.003788e-03 -4.867415e-03 -1.304828e-03 -5.415282e-03 -4.136968e-04 -2.404194e-03 -1.505569e-03 -1.286288e-03
<VARIANCE> 39
 6.291275e+01 4.251971e+01 6.078654e+01 6.774081e+01 6.784973e+01 5.345071e+01 4.982395e+01 5.712791e+01 6.484405e+01 4.868154e+01 3.704897e+01 2.741040e+01 1.900016e+02 8.613933e-01 9.075528e-01 1.042408e+00 1.319255e+00 1.215060e+00 1.035739e+00 1.120471e+00 1.318533e+00 1.228706e+00 9.435565e-01 7.691955e-01 6.780236e-01 2.331805e+00 7.977423e-02 8.281044e-02 9.036746e-02 1.332701e-01 1.194856e-01 1.139558e-01 1.383977e-01 1.538614e-01 1.176500e-01 1.123278e-01 9.397271e-02 8.368950e-02 1.969516e-01
<GCONST> 9.692400e+01
<STATE> 4
<MEAN> 39
 3.617119e-01 -1.118156e-02 -8.726086e-02 1.004830e+00 5.179749e-02 -1.703798e-01 1.021642e+00 3.115896e-01 -9.183326e-01 -5.313412e-01 -1.004556e+00 2.086578e-01 7.875469e-01 5.277358e-02 -6.306373e-02 5.706879e-02 -1.043883e-01 -6.464255e-02 -6.751768e-02 -2.700644e-02 -2.312581e-02 -7.614692e-02 -7.985426e-03 -4.920710e-02 5.165354e-03 1.383419e-01 -5.531937e-03 -4.175453e-03 -2.748601e-04 -3.177696e-03 -5.300791e-03 -1.189991e-03 -3.185179e-03 -1.904260e-03 -2.172345e-03 -9.884562e-04 7.177094e-04 -1.632940e-03 -3.061983e-03
<VARIANCE> 39
 5.502547e+01 4.258959e+01 6.055001e+01 6.472668e+01 6.919237e+01 5.057157e+01 4.828859e+01 5.778705e+01 6.945779e+01 5.038584e+01 3.494954e+01 2.808444e+01 1.844248e+02 8.379723e-01 9.017953e-01 1.056220e+00 1.303111e+00 1.181874e+00 1.050648e+00 1.136194e+00 1.321066e+00 1.254252e+00 9.591534e-01 7.490168e-01 7.035131e-01 2.325171e+00 7.677858e-02 8.125322e-02 8.878489e-02 1.302050e-01 1.148831e-01 1.126481e-01 1.397655e-01 1.546414e-01 1.190637e-01 1.120384e-01 9.276944e-02 8.607802e-02 1.938180e-01
<GCONST> 9.661426e+01
<TRANSP> 5
 0.000000e+00 1.000000e+00 0.000000e+00 0.000000e+00 0.000000e+00
 0.000000e+00 7.127519e-01 2.872480e-01 0.000000e+00 0.000000e+00
 0.000000e+00 0.000000e+00 7.127520e-01 2.872480e-01 0.000000e+00
 0.000000e+00 0.000000e+00 0.000000e+00 8.362660e-01 1.637339e-01
 0.000000e+00 0.000000e+00 0.000000e+00 0.000000e+00 0.000000e+00
<ENDHMM>
~h "bb"
<BEGINHMM>
<NUMSTATES> 5
<STATE> 2
<MEAN> 39
 4.721286e-01 -3.900919e-01 -1.224844e+00 -1.228603e+00 1.499764e-01 2.579602e-01 -1.051867e+00 2.564789e-01 -5.583915e-01 -6.946118e-01 -1.079230e+00 -8.015616e-01 1.483320e+00 -8.950744e-03 -7.416486e-03 3.107894e-02 1.245093e-02 1.637043e-02 -1.082809e-02 1.569970e-02 -1.338574e-03 -4.085426e-03 -2.388577e-02 -3.236533e-02 -1.268668e-02 7.592829e-02 4.229032e-05 -7.337697e-04 2.362327e-03 -2.149232e-03 -3.351410e-03 -1.751001e-03 1.190886e-03 2.251884e-04 -2.248954e-03 2.060647e-03 -1.071226e-03 5.975171e-04 3.288716e-03
<VARIANCE> 39
 5.933274e+01 4.754048e+01 7.113428e+01 5.378601e+01 4.521675e+01 4.199939e+01 4.105754e+01 4.118690e+01 5.652721e+01 3.899203e+01 4.583669e+01 2.644906e+01 1.794181e+02 1.168826e+00 8.848252e-01 1.270980e+00 1.357156e+00 1.059393e+00 1.187768e+00 1.032947e+00 1.132957e+00 1.120272e+00 9.524794e-01 1.081333e+00 6.977511e-01 1.962456e+00 1.041380e-01 9.062821e-02 1.051436e-01 1.506306e-01 1.142605e-01 1.425192e-01 1.211680e-01 1.374195e-01 1.186969e-01 1.233691e-01 1.212410e-01 8.205333e-02 1.351673e-01
<GCONST> 9.640848e+01
<STATE> 3
<MEAN> 39
 4.685991e-01 -4.255851e-01 -1.126401e+00 -1.195097e+00 1.897596e-01 2.183095e-01 -9.990206e-01 2.470753e-01 -5.877510e-01 -7.559400e-01 -1.190053e+00 -8.520693e-01 1.780483e+00 -7.667823e-03 -9.843935e-03 3.745272e-02 5.999000e-03 7.015909e-03 -1.542988e-02 1.775071e-02 -1.134635e-03 -9.474799e-03 -1.671036e-02 -3.444894e-02 -1.125670e-02 8.501986e-02 7.624389e-04 -8.740205e-04 1.663521e-03 -2.425066e-03 -2.791570e-03 -1.245080e-03 3.520151e-04 -4.466710e-04 -1.774925e-03 2.478829e-03 -8.290830e-05 2.537433e-04 2.172904e-03
<VARIANCE> 39
 5.966694e+01 4.653453e+01 7.182907e+01 5.441082e+01 4.573761e+01 4.211850e+01 4.011626e+01 4.157698e+01 5.655909e+01 3.871537e+01 4.664738e+01 2.673986e+01 1.707072e+02 1.162774e+00 8.879687e-01 1.262342e+00 1.367605e+00 1.075736e+00 1.185597e+00 1.028520e+00 1.142903e+00 1.134657e+00 9.578592e-01 1.092320e+00 7.008993e-01 1.937293e+00 1.029352e-01 9.165746e-02 1.046082e-01 1.503161e-01 1.149118e-01 1.428771e-01 1.204899e-01 1.371676e-01 1.198887e-01 1.251054e-01 1.216078e-01 8.189496e-02 1.349277e-01
<GCONST> 9.644038e+01
<STATE> 4
<MEAN> 39
 5.222589e-01 -4.013523e-01 -1.075175e+00 -1.361973e+00 1.743133e-01 1.386161e-01 -9.154366e-01 1.759241e-01 -7.047920e-01 -8.170965e-01 -1.264445e+00 -8.861968e-01 1.961921e+00 3.298558e-05 -1.322772e-02 3.634898e-02 -1.374735e-03 -2.395436e-03 -1.887822e-02 1.404625e-02 -2.028288e-03 -9.879802e-03 -6.216367e-03 -3.184217e-02 -1.083412e-02 9.836622e-02 8.931512e-04 -6.376171e-04 5.597422e-04 -2.221581e-03 -1.893501e-03 -7.819126e-04 -6.222120e-04 -7.439315e-04 -3.942671e-04 2.452219e-03 1.003444e-03 2.768315e-04 6.434566e-04
<VARIANCE> 39
 6.095532e+01 4.597763e+01 7.303207e+01 5.636108e+01 4.689503e+01 4.202384e+01 3.857566e+01 4.166872e+01 5.799257e+01 3.860380e+01 4.711101e+01 2.730264e+01 1.685358e+02 1.152175e+00 8.850793e-01 1.245782e+00 1.369221e+00 1.080557e+00 1.159285e+00 1.016986e+00 1.136593e+00 1.184642e+00 9.748899e-01 1.096754e+00 7.066853e-01 1.995450e+00 1.004538e-01 9.207862e-02 1.027914e-01 1.471863e-01 1.138369e-01 1.388215e-01 1.181516e-01 1.357137e-01 1.240859e-01 1.273636e-01 1.213398e-01 8.125381e-02 1.381088e-01
<GCONST> 9.650945e+01
<TRANSP> 5
 0.000000e+00 1.000000e+00 0.000000e+00 0.000000e+00 0.000000e+00
 0.000000e+00 7.032964e-01 2.967035e-01 0.000000e+00 0.000000e+00
 0.000000e+00 0.000000e+00 7.032968e-01 2.967032e-01 0.000000e+00
 0.000000e+00 0.000000e+00 0.000000e+00 8.228056e-01 1.771944e-01
 0.000000e+00 0.000000e+00 0.000000e+00 0.000000e+00 0.000000e+00
<ENDHMM>
~h "bh"
<BEGINHMM>
<NUMSTATES> 5
<STATE> 2
<MEAN> 39
 6.946152e-01 -5.800292e-01 1.934411e+00 -7.491796e-01 -3.825702e+00 -8.401684e-01 2.221173e+00 2.570543e-01 3.442037e-01 4.000656e-01 -1.028724e+00 -6.954505e-01 2.249244e+00 -2.533542e-04 -4.773373e-02 -4.085480e-02 5.192828e-02 5.555337e-02 -2.649637e-02 1.391573e-02 6.381704e-02 -3.154504e-02 -3.774039e-02 -1.893182e-02 1.773894e-02 -3.409249e-02 -7.783668e-04 2.662059e-03 1.059341e-03 -1.370977e-03 4.098255e-04 -5.446805e-04 9.551899e-04 1.186263e-05 8.946988e-05 8.687588e-04 1.225148e-03 1.324412e-03 7.735458e-04
<VARIANCE> 39
 6.437603e+01 4.983867e+01 6.104559e+01 6.284369e+01 8.466924e+01 6.550820e+01 5.146176e+01 6.784953e+01 6.228037e+01 5.049093e+01 4.925819e+01 2.594478e+01 2.031304e+02 1.292509e+00 1.089644e+00 1.507164e+00 1.668391e+00 1.936795e+00 1.227201e+00 1.058376e+00 1.746389e+00 1.328025e+00 1.163690e+00 1.154207e+00 6.397226e-01 2.718528e+00 1.095939e-01 1.144142e-01 1.241045e-01 1.695451e-01 1.878214e-01 1.463490e-01 1.058565e-01 1.683845e-01 1.353397e-01 1.243846e-01 1.259727e-01 7.451076e-02 2.434916e-01
<GCONST> 1.031522e+02
<STATE> 3
<MEAN> 39
 6.705191e-01 -7.309127e-01 1.789931e+00 -5.886514e-01 -3.621728e+00 -9.259319e-01 2.261817e+00 4.706864e-01 2.432562e-01 2.708051e-01 -1.089154e+00 -6.288661e-01 2.108886e+00 -2.540803e-03 -3.815266e-02 -3.671315e-02 4.627232e-02 5.626173e-02 -2.768290e-02 1.653563e-02 6.287152e-02 -3.114078e-02 -3.439528e-02 -1.509657e-02 2.143864e-02 -3.101658e-02 -8.812244e-04 3.232120e-03 1.692008e-03 -2.181952e-03 -3.439502e-04 -1.335355e-05 5.434670e-04 -7.133725e-04 2.788647e-04 1.598974e-03 1.315004e-03 9.070004e-04 9.233478e-04
<VARIANCE> 39
 6.602821e+01 4.879517e+01 5.967967e+01 6.195502e+01 8.294849e+01 6.589970e+01 5.003341e+01 6.685300e+01 6.138873e+01 5.079707e+01 4.962095e+01 2.632802e+01 2.089300e+02 1.300486e+00 1.092277e+00 1.474823e+00 1.655741e+00 1.892944e+00 1.218945e+00 1.037257e+00 1.742513e+00 1.306092e+00 1.157184e+00 1.166645e+00 6.420557e-01 2.694116e+00 1.098597e-01 1.151045e-01 1.211436e-01 1.691988e-01 1.845462e-01 1.448216e-01 1.050989e-01 1.693194e-01 1.327028e-01 1.243608e-01 1.276960e-01 7.428826e-02 2.383130e-01
<GCONST> 1.029358e+02
<STATE> 4
<MEAN> 39
 4.385397e-01 -7.927382e-01 1.577539e+00 -3.994120e-01 -3.364518e+00 -1.039646e+00 2.249458e+00 8.074480e-01 2.121040e-01 3.040508e-01 -9.171171e-01 -5.245337e-01 1.600405e+00 -1.012242e-02 -2.422345e-02 -3.072086e-02 3.231610e-02 5.629770e-02 -2.446007e-02 1.376630e-02 5.532373e-02 -2.864681e-02 -2.874876e-02 -1.119698e-02 2.254121e-02 -3.271115e-02 -8.553706e-04 3.410357e-03 2.295260e-03 -2.813026e-03 -1.017428e-03 4.848762e-04 -4.100746e-05 -1.471171e-03 1.816399e-04 2.216747e-03 1.268888e-03 2.449802e-04 1.070306e-03
<VARIANCE> 39
 7.108913e+01 4.701528e+01 5.833274e+01 5.982872e+01 8.236111e+01 6.784844e+01 4.705355e+01 6.561675e+01 6.098887e+01 5.050005e+01 4.899898e+01 2.661215e+01 2.224603e+02 1.350870e+00 1.067712e+00 1.406628e+00 1.600327e+00 1.817536e+00 1.195443e+00 9.856228e-01 1.718377e+00 1.277750e+00 1.120620e+00 1.125141e+00 6.277310e-01 2.635461e+00 1.129598e-01 1.125703e-01 1.150603e-01 1.642106e-01 1.769906e-01 1.388474e-01 1.021455e-01 1.695274e-01 1.302829e-01 1.226677e-01 1.241190e-01 7.159329e-02 2.231632e-01
<GCONST> 1.022288e+02
<TRANSP> 5
 0.000000e+00 1.000000e+00 0.000000e+00 0.000000e+00 0.000000e+00
 0.000000e+00 7.119052e-01 2.880948e-01 0.000000e+00 0.000000e+00
 0.000000e+00 0.000000e+00 7.119057e-01 2.880943e-01 0.000000e+00
 0.000000e+00 0.000000e+00 0.000000e+00 8.327263e-01 1.672736e-01
 0.000000e+00 0.000000e+00 0.000000e+00 0.000000e+00 0.000000e+00
<ENDHMM>
~h "dd"
<BEGINHMM>
<NUMSTATES> 5
<STATE> 2
<MEAN> 39
 -1.094892e+00 1.555783e+00 4.814125e-01 6.837024e-01 5.738732e-01 2.321151e-01 4.042463e-01 -8.795519e-01 -3.147261e-01 -1.170157e-01 5.780543e-01 3.086520e-01 -2.441420e+00 -5.961145e-02 4.610363e-03 -1.928044e-02 2.857362e-02 4.741434e-02 1.047234e-02 3.444140e-03 3.403028e-03 5.340771e-03 8.960104e-03 6.025552e-02 2.596879e-02 -1.511009e-01 2.357887e-03 -9.536479e-04 -8.677154e-04 -1.955148e-03 -5.498233e-04 -2.349975e-03 1.682703e-04 1.007489e-03 2.952974e-05 3.376238e-04 -6.016473e-05 1.033422e-03 -8.098191e-04
<VARIANCE> 39
 4.996595e+01 4.659374e+01 6.499530e+01 5.470631e+01 6.463941e+01 5.628234e+01 4.927999e+01 5.426125e+01 5.663792e+01 4.837568e+01 4.177016e+01 2.777470e+01 1.785409e+02 9.607120e-01 8.528138e-01 1.120503e+00 1.326398e+00 1.104335e+00 1.167640e+00 1.095581e+00 1.149747e+00 1.030078e+00 8.871644e-01 8.422979e-01 6.422465e-01 2.170068e+00 8.689179e-02 7.710595e-02 9.606963e-02 1.275929e-01 1.190720e-01 1.204107e-01 1.250016e-01 1.249561e-01 1.134345e-01 9.817933e-02 9.561893e-02 7.493065e-02 1.739861e-01
<GCONST> 9.560973e+01
<STATE> 3
<MEAN> 39
 -1.287408e+00 1.557687e+00 4.075200e-01 7.863056e-01 7.416735e-01 2.600163e-01 4.202009e-01 -8.597049e-01 -2.914363e-01 -9.303766e-02 7.828426e-01 4.033812e-01 -2.937717e+00 -5.181672e-02 2.319645e-03 -2.308948e-02 2.200880e-02 4.543814e-02 3.139569e-03 3.282393e-03 6.486575e-03 5.914021e-03 1.060470e-02 6.004599e-02 2.852952e-02 -1.553713e-01 3.432127e-03 -2.799964e-04 -6.506093e-04 -2.372642e-03 -8.573971e-04 -1.229701e-03 4.223896e-05 5.798499e-04 3.351541e-04 8.431082e-04 -7.545549e-04 2.861645e-04 -1.684381e-04
<VARIANCE> 39
 5.182607e+01 4.570075e+01 6.496609e+01 5.537119e+01 6.635462e+01 5.458656e+01 4.954102e+01 5.408826e+01 5.727528e+01 4.806781e+01 4.177266e+01 2.764754e+01 1.915547e+02 9.855345e-01 8.471988e-01 1.111056e+00 1.303240e+00 1.100814e+00 1.153728e+00 1.091826e+00 1.118697e+00 1.017859e+00 8.800864e-01 8.384342e-01 6.287686e-01 2.190424e+00 8.919045e-02 7.708236e-02 9.662661e-02 1.247687e-01 1.179641e-01 1.192443e-01 1.241526e-01 1.221441e-01 1.114283e-01 9.696454e-02 9.581885e-02 7.337203e-02 1.765324e-01
<GCONST> 9.554311e+01
<STATE> 4
<MEAN> 39
 -1.390289e+00 1.573559e+00 3.809020e-01 8.931727e-01 9.372305e-01 2.309002e-01 5.053346e-01 -7.946936e-01 -2.375351e-01 -2.323680e-02 9.872817e-01 5.077641e-01 -3.383225e+00 -4.060794e-02 -2.226392e-04 -2.942751e-02 1.529103e-02 4.427600e-02 -1.275445e-03 1.798281e-03 8.931601e-03 8.745809e-03 1.329606e-02 5.795294e-02 2.773353e-02 -1.552648e-01 3.770865e-03 1.017841e-04 -8.728441e-04 -2.415999e-03 -1.139638e-03 -2.931091e-04 -5.033480e-04 1.796377e-04 5.958429e-04 1.035339e-03 -1.416555e-03 -8.983002e-04 9.941137e-04
<VARIANCE> 39
 5.421666e+01 4.538802e+01 6.479876e+01 5.442239e+01 6.813376e+01 5.204453e+01 4.908155e+01 5.300303e+01 5.835913e+01 4.813323e+01 4.163578e+01 2.751323e+01 2.083282e+02 1.022725e+00 8.487598e-01 1.080029e+00 1.247272e+00 1.099656e+00 1.123270e+00 1.083873e+00 1.071638e+00 1.012980e+00 8.759239e-01 8.321311e-01 6.114512e-01 2.223595e+00 9.212855e-02 7.738131e-02 9.491559e-02 1.196633e-01 1.163364e-01 1.168906e-01 1.223699e-01 1.176844e-01 1.090619e-01 9.585865e-02 9.599008e-02 7.121576e-02 1.774060e-01
<GCONST> 9.530025e+01
<TRANSP> 5
 0.000000e+00 1.000000e+00 0.000000e+00 0.000000e+00 0.000000e+00
 0.000000e+00 7.007671e-01 2.992329e-01 0.000000e+00 0.000000e+00
 0.000000e+00 0.000000e+00 7.007674e-01 2.992326e-01 0.000000e+00
 0.000000e+00 0.000000e+00 0.000000e+00 8.199170e-01 1.800830e-01
 0.000000e+00 0.000000e+00 0.000000e+00 0.000000e+00 0.000000e+00
<ENDHMM>
~h "dh"
<BEGINHMM>
<NUMSTATES> 5
<STATE> 2
<MEAN> 39
 1.010594e+00 -5.801439e-01 6.486905e-01 -5.216954e-01 -3.627532e-01 -1.403919e-01 1.031736e-01 -1.527745e+00 -1.193066e+00 -1.061837e+00 -1.151153e+00 -7.779579e-01 2.010314e+00 -9.121526e-03 9.533612e-02 8.171365e-02 -8.762271e-02 -4.873904e-02 4.799185e-03 -4.171908e-02 -8.206495e-02 -2.346394e-02 -5.486454e-02 -2.208840e-02 2.475762e-02 7.810310e-02 1.981999e-03 -1.484225e-03 4.796227e-04 -5.584215e-04 4.458856e-03 2.212335e-03 -1.445136e-03 4.416103e-03 1.878067e-03 1.131037e-03 5.156975e-04 -9.107301e-04 3.409692e-03
<VARIANCE> 39
 3.866631e+01 4.482257e+01 5.656498e+01 6.303743e+01 6.500137e+01 3.999473e+01 5.658095e+01 5.883152e+01 6.119579e+01 4.646123e+01 4.061681e+01 3.132399e+01 1.904118e+02 8.211188e-01 1.002407e+00 1.008985e+00 1.252475e+00 1.271914e+00 9.979551e-01 1.192096e+00 1.126512e+00 1.500430e+00 9.961402e-01 9.409530e-01 8.797160e-01 2.257427e+00 8.055509e-02 9.941968e-02 9.189788e-02 1.205964e-01 1.428582e-01 1.195393e-01 1.242141e-01 1.093649e-01 1.599508e-01 1.209169e-01 1.075892e-01 1.009390e-01 1.677315e-01
<GCONST> 9.728574e+01
<STATE> 3
<MEAN> 39
 9.851555e-01 -2.483319e-01 9.562849e-01 -8.406925e-01 -5.208376e-01 -1.124547e-01 -6.783038e-02 -1.779166e+00 -1.292022e+00 -1.255914e+00 -1.216529e+00 -6.870478e-01 2.317678e+00 -1.032536e-03 8.634060e-02 7.964845e-02 -9.018587e-02 -3.634837e-02 7.460927e-03 -4.615024e-02 -6.331809e-02 -1.776764e-02 -4.995962e-02 -2.007104e-02 2.057931e-02 9.289072e-02 2.545005e-03 -2.819677e-03 -9.032998e-04 -5.105542e-04 3.386215e-03 3.142850e-06 -8.286707e-04 5.323069e-03 1.317826e-03 1.536972e-03 4.425475e-04 -1.416304e-03 3.652383e-03
<VARIANCE> 39
 3.855886e+01 4.637096e+01 5.765400e+01 6.411589e+01 6.500880e+01 4.012381e+01 5.737346e+01 5.971471e+01 6.169111e+01 4.603252e+01 3.951205e+01 3.160304e+01 1.892250e+02 7.995968e-01 1.025112e+00 9.981618e-01 1.229467e+00 1.278546e+00 9.865223e-01 1.215185e+00 1.142291e+00 1.502778e+00 1.007979e+00 9.289343e-01 8.853034e-01 2.257261e+00 7.768234e-02 1.009517e-01 9.077013e-02 1.170067e-01 1.434484e-01 1.195921e-01 1.240727e-01 1.113734e-01 1.573444e-01 1.224800e-01 1.059716e-01 1.011994e-01 1.667379e-01
<GCONST> 9.729489e+01
<STATE> 4
<MEAN> 39
 1.001680e+00 2.692150e-01 1.560061e+00 -1.491882e+00 -8.844800e-01 -1.507515e-01 -3.821580e-01 -2.056400e+00 -1.616381e+00 -1.512983e+00 -1.264416e+00 -5.713937e-01 2.801064e+00 9.530149e-03 6.393833e-02 6.983232e-02 -9.025791e-02 -3.198884e-02 -1.247969e-03 -4.564352e-02 -2.969661e-02 -1.757940e-02 -4.257374e-02 -1.353654e-02 1.573899e-02 1.129405e-01 2.607752e-03 -4.266566e-03 -2.581068e-03 5.674493e-04 1.689769e-03 -1.968753e-03 9.468698e-04 5.837157e-03 1.185722e-03 1.852336e-03 7.124591e-04 -1.695602e-03 2.782080e-03
<VARIANCE> 39
 3.930254e+01 4.776648e+01 6.181096e+01 6.606747e+01 6.554498e+01 4.061896e+01 6.043964e+01 5.972527e+01 6.343100e+01 4.603742e+01 3.936777e+01 3.244251e+01 1.897221e+02 7.595555e-01 1.030659e+00 9.844269e-01 1.185459e+00 1.267326e+00 9.708395e-01 1.284816e+00 1.159965e+00 1.481338e+00 1.014880e+00 9.176914e-01 8.771399e-01 2.247207e+00 7.183148e-02 1.002121e-01 8.875147e-02 1.111010e-01 1.410436e-01 1.184040e-01 1.243754e-01 1.147587e-01 1.508949e-01 1.235205e-01 1.036775e-01 9.981300e-02 1.649921e-01
<GCONST> 9.725153e+01
<TRANSP> 5
 0.000000e+00 1.000000e+00 0.000000e+00 0.000000e+00 0.000000e+00
 0.000000e+00 7.192037e-01 2.807963e-01 0.000000e+00 0.000000e+00
 0.000000e+00 0.000000e+00 7.192040e-01 2.807960e-01 0.000000e+00
 0.000000e+00 0.000000e+00 0.000000e+00 8.411378e-01 1.588621e-01
 0.000000e+00 0.000000e+00 0.000000e+00 0.000000e+00 0.000000e+00
<ENDHMM>
~h "dx"
<BEGINHMM>
<NUMSTATES> 5
<STATE> 2
<MEAN> 39
 2.588753e+00 5.768986e-01 -4.347686e-01 -7.969785e-01 -1.327058e+00 -2.166590e-01 -4.552994e-01 -1.227106e+00 -7.818676e-01 3.266902e-01 1.521719e-01 1.257014e-01 1.764721e+00 -2.562406e-02 3.634622e-02 -3.342780e-02 -2.748520e-02 6.775754e-02 3.036272e-02 1.477240e-02 -3.818283e-03 8.983929e-03 1.936977e-02 4.643733e-02 2.903878e-02 -1.252610e-01 -3.287629e-03 -1.126974e-04 2.116767e-03 5.455120e-04 4.349962e-04 1.601984e-05 -2.433713e-04 7.035567e-04 1.116109e-03 -1.349723e-03 -1.690406e-03 3.002626e-04 -1.548769e-03
<VARIANCE> 39
 5.191574e+01 5.625418e+01 9.152612e+01 6.802927e+01 7.794826e+01 5.299179e+01 5.642953e+01 6.017510e+01 6.750814e+01 4.960651e+01 4.442161e+01 2.966380e+01 1.283663e+02 9.242603e-01 1.098325e+00 1.525951e+00 1.707495e+00 1.475466e+00 1.303624e+00 1.346552e+00 1.344057e+00 1.285122e+00 1.038549e+00 9.665520e-01 7.442190e-01 1.830615e+00 8.517803e-02 1.038070e-01 1.367738e-01 1.767819e-01 1.573550e-01 1.451405e-01 1.504573e-01 1.458485e-01 1.392997e-01 1.234100e-01 1.187263e-01 9.189436e-02 1.655679e-01
<GCONST> 1.013597e+02
<STATE> 3
<MEAN> 39
