~o
<STREAMINFO> 1 39
<VECSIZE> 39<NULLD><MFCC_D_A_Z_0><DIAGC>
~h "a"
<BEGINHMM>
<NUMSTATES> 5
<STATE> 2
<MEAN> 39
 3.339646e+00 -4.535997e+00 -2.443921e+00 -1.008601e+00 -1.772242e+00 -2.104035e+00 8.699973e-01 4.744861e+00 1.797872e+00 -1.286541e+00 -2.996050e+00 -2.850149e-01 8.296858e+00 1.781303e-01 -5.190379e-01 -2.495650e-01 -1.466583e-01 -1.504751e-01 2.737731e-02 -2.705287e-02 3.839632e-01 2.233600e-01 -1.659834e-01 -3.482389e-01 4.531056e-02 5.469186e-01 -1.199891e-02 1.371441e-01 8.696727e-02 9.730164e-02 4.076777e-02 6.078894e-02 -2.154214e-02 -1.545733e-01 -6.672155e-02 3.269817e-02 9.416248e-02 -1.161464e-02 -1.887135e-01
<VARIANCE> 39
 3.153400e+01 4.807641e+01 5.108135e+01 4.920865e+01 6.154643e+01 6.284716e+01 6.347665e+01 6.010857e+01 7.821569e+01 5.335571e+01 4.792591e+01 2.985886e+01 9.857950e+01 9.139431e-01 1.487357e+00 1.548596e+00 1.585854e+00 2.004025e+00 1.877727e+00 1.722716e+00 1.762893e+00 1.817418e+00 1.438807e+00 1.329226e+00 9.085339e-01 2.309610e+00 9.967363e-02 1.468876e-01 1.424071e-01 1.665525e-01 2.096410e-01 2.028786e-01 2.126956e-01 2.152947e-01 2.060756e-01 1.706954e-01 1.644000e-01 1.108241e-01 2.310582e-01
<GCONST> 1.061356e+02
<STATE> 3
<MEAN> 39
 3.669647e+00 -5.331440e+00 -2.648104e+00 -1.326232e+00 -2.217773e+00 -1.899348e+00 6.399502e-01 4.735676e+00 1.874350e+00 -1.481154e+00 -3.499937e+00 -3.559303e-01 9.240240e+00 1.284454e-01 2.060821e-01 1.668141e-01 2.962984e-01 6.887150e-02 1.008063e-01 -2.217745e-02 -2.336985e-01 -1.564276e-01 -2.386794e-02 1.636562e-01 1.291857e-03 -4.332029e-01 -4.450478e-02 1.746669e-01 9.708695e-02 1.071811e-01 6.862973e-02 2.741959e-02 -1.184500e-02 -1.657388e-01 -7.411316e-02 4.278426e-02 1.349002e-01 -1.278779e-02 -2.201071e-01
<VARIANCE> 39
 2.648074e+01 3.982607e+01 5.038128e+01 4.778410e+01 6.008328e+01 5.626157e+01 5.898243e+01 5.316030e+01 7.549911e+01 5.340555e+01 4.102032e+01 2.859519e+01 8.653041e+01 7.442147e-01 9.655687e-01 1.131521e+00 1.223266e+00 1.494626e+00 1.473095e+00 1.557330e+00 1.276771e+00 1.407937e+00 1.156540e+00 1.054703e+00 7.630363e-01 1.291676e+00 8.629166e-02 1.140129e-01 1.169519e-01 1.563657e-01 1.774407e-01 1.653647e-01 1.804419e-01 1.768258e-01 1.858862e-01 1.496125e-01 1.275220e-01 9.822845e-02 1.406329e-01
<GCONST> 9.890755e+01
<STATE> 4
<MEAN> 39
 3.623118e+00 -4.062030e+00 -3.014134e+00 3.856599e-01 1.428536e-01 -4.936647e-01 5.919728e-01 2.910576e+00 5.097764e-01 -2.208272e+00 -1.982938e+00 -8.418919e-01 4.375184e+00 -1.136496e-01 4.548290e-01 2.393610e-01 3.516056e-01 1.702628e-01 1.213545e-01 8.518773e-02 -3.355630e-01 -2.685956e-01 2.225414e-02 3.358926e-01 -1.591062e-03 -8.191319e-01 -4.056245e-02 2.850805e-02 3.176425e-03 -2.545924e-02 4.858943e-04 -2.260019e-03 -9.230693e-03 -5.403873e-03 9.493019e-03 2.463298e-02 1.486995e-02 -7.514143e-06 7.543698e-03
<VARIANCE> 39
 3.097327e+01 3.712337e+01 4.934504e+01 5.278224e+01 6.024096e+01 5.006842e+01 5.258529e+01 4.349886e+01 6.627813e+01 5.392606e+01 3.767220e+01 2.784850e+01 1.065843e+02 8.246318e-01 7.605149e-01 9.279756e-01 1.027085e+00 1.008182e+00 1.168420e+00 1.192368e+00 1.052154e+00 1.424654e+00 1.006395e+00 7.845247e-01 6.553004e-01 1.080628e+00 6.725016e-02 8.098584e-02 8.818611e-02 1.119585e-01 1.119931e-01 1.193369e-01 1.231173e-01 1.222299e-01 1.397664e-01 1.085456e-01 9.717820e-02 7.566462e-02 9.894099e-02
<GCONST> 9.203452e+01
<TRANSP> 5
 0.000000e+00 1.000000e+00 0.000000e+00 0.000000e+00 0.000000e+00
 0.000000e+00 5.650236e-01 4.349764e-01 0.000000e+00 0.000000e+00
 0.000000e+00 0.000000e+00 4.056326e-01 5.943674e-01 0.000000e+00
 0.000000e+00 0.000000e+00 0.000000e+00 6.657050e-01 3.342950e-01
 0.000000e+00 0.000000e+00 0.000000e+00 0.000000e+00 0.000000e+00
<ENDHMM>
~h "b"
<BEGINHMM>
<NUMSTATES> 5
<STATE> 2
<MEAN> 39
 5.400344e+00 -4.334258e-02 -1.311042e+00 7.193092e-01 -3.514007e-01 -3.692577e-01 -1.216584e+00 -7.028150e-01 -5.782903e-01 2.605987e-01 -1.844693e+00 -1.761220e+00 3.786935e+00 1.411815e-01 5.412427e-01 -2.055673e-01 -2.879263e-01 -2.206162e-02 1.342748e-01 -1.543162e-01 -1.732677e-01 -2.680441e-01 -8.226965e-02 6.314482e-02 1.181413e-01 6.021989e-02 -4.755871e-02 -1.070229e-02 1.881180e-02 -1.167722e-01 -3.118436e-02 -4.454406e-02 9.644345e-03 4.669845e-02 4.247709e-02 -1.353829e-02 2.104922e-02 2.819231e-02 7.952416e-02
<VARIANCE> 39
 2.531676e+01 4.798820e+01 5.708107e+01 9.808047e+01 5.159105e+01 6.270451e+01 4.782654e+01 5.441414e+01 5.518475e+01 6.079232e+01 6.740306e+01 4.429395e+01 5.741792e+01 8.111082e-01 1.286769e+00 1.951184e+00 3.980333e+00 1.782362e+00 2.020783e+00 1.944895e+00 1.026464e+00 1.601198e+00 1.476984e+00 2.057023e+00 1.600102e+00 1.865589e+00 7.665666e-02 1.521386e-01 1.635421e-01 4.389926e-01 1.927334e-01 2.765733e-01 2.193595e-01 1.536589e-01 2.033460e-01 1.939806e-01 2.270201e-01 1.757461e-01 2.208099e-01
<GCONST> 1.088950e+02
<STATE> 3
<MEAN> 39
 4.795784e+00 2.740894e+00 -1.115244e+00 -8.784757e-01 -1.081982e+00 7.718006e-01 -1.995134e+00 -1.666346e+00 -1.101470e+00 -7.397696e-01 -1.742913e+00 -1.237457e+00 3.615572e+00 5.083156e-02 1.135950e-01 -1.306938e-02 4.691283e-02 2.713486e-01 -6.059905e-02 7.123481e-02 -3.780843e-02 2.054814e-02 -1.608878e-01 8.873972e-02 -6.363216e-02 -1.030756e-01 -6.029952e-03 -1.940157e-01 3.285039e-02 -6.300081e-02 -1.448337e-02 -1.525269e-01 6.289242e-03 9.547911e-02 9.666160e-02 9.010310e-02 -1.677152e-02 2.950932e-02 1.279819e-01
<VARIANCE> 39
 2.369668e+01 4.755920e+01 7.113873e+01 9.418147e+01 4.818332e+01 5.521967e+01 4.524531e+01 4.391442e+01 4.909196e+01 4.410687e+01 4.448997e+01 4.254255e+01 6.752744e+01 6.851591e-01 1.498750e+00 1.359755e+00 1.855444e+00 1.239545e+00 1.455968e+00 1.305487e+00 9.825432e-01 1.428717e+00 1.147377e+00 8.369212e-01 9.351016e-01 1.595801e+00 7.458951e-02 1.622072e-01 1.688709e-01 2.976399e-01 1.717851e-01 1.839098e-01 1.789858e-01 1.499546e-01 1.369673e-01 1.339018e-01 1.410535e-01 1.260311e-01 1.892902e-01
<GCONST> 1.007707e+02
<STATE> 4
<MEAN> 39
 5.174069e+00 2.107824e+00 5.598440e-01 4.566065e-01 1.241943e+00 4.308434e-01 -1.504716e+00 -2.735194e+00 -1.083169e+00 -9.199731e-01 -8.642332e-01 -1.051731e+00 1.132398e+00 4.094337e-02 -1.924075e-01 -1.386877e-01 1.035638e-03 7.257187e-02 -1.221752e-01 6.808388e-02 1.699247e-01 7.881327e-02 1.018312e-01 4.929456e-02 -3.827558e-02 4.750793e-02 -1.864422e-02 -1.083773e-01 -1.647662e-02 -4.926157e-02 -8.223438e-02 -3.209251e-02 -1.556074e-02 6.223505e-02 4.217676e-02 6.001890e-02 -2.514257e-02 4.638880e-04 1.205362e-01
<VARIANCE> 39
 2.647097e+01 4.660801e+01 7.404666e+01 6.121371e+01 5.180608e+01 4.048697e+01 5.118396e+01 4.194395e+01 5.062872e+01 3.439709e+01 3.264518e+01 3.022785e+01 4.895322e+01 4.720457e-01 1.228833e+00 1.456862e+00 1.342024e+00 1.369911e+00 1.089354e+00 1.083488e+00 1.167517e+00 1.222787e+00 9.016728e-01 7.854308e-01 6.181482e-01 1.245860e+00 4.913505e-02 9.287003e-02 1.265269e-01 1.478403e-01 1.277748e-01 1.014186e-01 1.247603e-01 1.275202e-01 1.164141e-01 1.005821e-01 1.032275e-01 6.296974e-02 8.336560e-02
<GCONST> 9.131499e+01
<TRANSP> 5
 0.000000e+00 1.000000e+00 0.000000e+00 0.000000e+00 0.000000e+00
 0.000000e+00 6.619709e-01 3.380291e-01 0.000000e+00 0.000000e+00
 0.000000e+00 0.000000e+00 3.937263e-01 6.062737e-01 0.000000e+00
 0.000000e+00 0.000000e+00 0.000000e+00 6.836031e-01 3.163969e-01
 0.000000e+00 0.000000e+00 0.000000e+00 0.000000e+00 0.000000e+00
<ENDHMM>
~h "c"
<BEGINHMM>
<NUMSTATES> 5
<STATE> 2
<MEAN> 39
 -2.956479e+00 1.859101e+00 5.916471e-01 -8.059831e-01 2.036232e+00 -2.451972e-01 -3.422015e+00 -4.447169e-01 -7.772341e-02 1.384257e+00 2.238294e+00 -7.118784e-01 -1.916311e+00 -7.535479e-01 -9.160176e-03 4.097394e-01 -3.624216e-01 -5.625295e-01 -1.232322e-01 1.620817e-01 1.343852e-01 9.193462e-02 -3.983491e-02 -5.156625e-02 -2.831531e-01 1.959587e+00 1.437247e-01 3.603984e-02 4.947801e-02 -5.041740e-02 -1.128634e-01 -4.858225e-02 2.427946e-02 -3.615104e-02 1.267581e-02 -6.174435e-03 -3.580112e-02 -1.608313e-02 1.418553e-01
<VARIANCE> 39
 1.591329e+02 4.446040e+01 5.812688e+01 5.702053e+01 5.245890e+01 4.703365e+01 7.903358e+01 5.029007e+01 4.354593e+01 4.728682e+01 3.540804e+01 2.701244e+01 2.582834e+02 6.528378e+00 1.694326e+00 2.365699e+00 2.361561e+00 2.283172e+00 2.063708e+00 2.504174e+00 1.741817e+00 2.602774e+00 1.550104e+00 1.373507e+00 7.673443e-01 8.514120e+00 8.200658e-01 2.030813e-01 2.205435e-01 2.787205e-01 2.604496e-01 2.351816e-01 2.648531e-01 1.662036e-01 2.168852e-01 2.072628e-01 1.478650e-01 9.680003e-02 8.757387e-01
<GCONST> 1.175505e+02
<STATE> 3
<MEAN> 39
 -7.956630e+00 3.552035e+00 5.047041e+00 -2.772156e+00 -3.054266e+00 -9.835284e-01 9.583836e-01 6.708937e-01 4.607536e-01 1.699742e+00 3.506257e+00 -2.463848e+00 9.136178e+00 7.941724e-01 1.162374e-02 2.405924e-01 -4.125444e-01 -1.006996e+00 -2.581267e-01 4.273655e-02 -1.839968e-01 1.584803e-01 -3.304958e-02 -1.214436e-01 -1.685276e-01 8.613431e-01 3.939953e-01 -3.692287e-02 -1.734699e-01 6.988303e-02 4.429277e-02 1.958148e-02 -1.365033e-01 -1.356884e-01 -3.419018e-02 -5.660905e-02 -5.774706e-02 8.845241e-02 -2.558866e-01
<VARIANCE> 39
 1.332059e+02 7.601846e+01 5.741824e+01 3.819118e+01 4.430582e+01 3.815389e+01 6.963617e+01 6.840297e+01 9.481676e+01 6.183142e+01 6.341791e+01 3.302458e+01 4.195360e+01 4.860042e+00 2.319696e+00 1.601315e+00 1.287013e+00 1.388199e+00 1.473265e+00 1.682071e+00 1.818445e+00 2.543492e+00 1.604669e+00 1.373081e+00 1.177218e+00 1.911848e+00 5.547573e-01 2.179375e-01 1.729602e-01 1.432573e-01 1.759813e-01 1.862916e-01 1.884252e-01 2.032882e-01 2.974018e-01 2.010841e-01 1.817847e-01 1.411690e-01 1.682311e-01
<GCONST> 1.113158e+02
<STATE> 4
<MEAN> 39
 2.480085e+00 -1.193670e+00 9.454253e-01 -3.513916e+00 -5.984081e+00 -1.053126e+00 -1.894671e+00 1.091216e+00 4.562426e+00 -1.142208e+00 -9.703670e-01 -1.164957e+00 1.194087e+01 2.214169e-01 2.144840e-01 1.799537e-01 -1.246358e-01 -4.227581e-01 1.525030e-02 1.327718e-01 -2.951530e-01 -4.132364e-01 1.083507e-01 1.425658e-01 -5.343448e-02 2.367805e-01 -1.205233e-01 9.087187e-02 -2.719315e-02 7.590576e-02 1.771222e-01 4.774253e-02 -1.291564e-02 -6.167245e-02 -1.372024e-01 1.928654e-02 1.009286e-01 4.844550e-02 -2.497936e-01
<VARIANCE> 39
 1.030649e+02 1.148407e+02 1.274831e+02 5.465373e+01 7.772072e+01 7.770703e+01 8.982965e+01 1.127695e+02 1.011589e+02 5.224427e+01 4.368141e+01 3.529847e+01 6.151477e+01 3.322311e+00 2.605155e+00 1.191104e+00 1.554611e+00 1.667541e+00 2.430507e+00 1.881523e+00 2.312814e+00 2.003681e+00 1.290273e+00 1.178092e+00 1.109572e+00 2.141717e+00 3.067482e-01 2.006315e-01 1.138590e-01 2.158425e-01 2.310241e-01 3.215965e-01 2.403624e-01 2.824782e-01 3.008361e-01 1.635548e-01 1.238277e-01 1.387337e-01 1.862873e-01
<GCONST> 1.149509e+02
<TRANSP> 5
 0.000000e+00 1.000000e+00 0.000000e+00 0.000000e+00 0.000000e+00
 0.000000e+00 8.660221e-01 1.339779e-01 0.000000e+00 0.000000e+00
 0.000000e+00 0.000000e+00 6.714413e-01 3.285587e-01 0.000000e+00
 0.000000e+00 0.000000e+00 0.000000e+00 7.331610e-01 2.668390e-01
 0.000000e+00 0.000000e+00 0.000000e+00 0.000000e+00 0.000000e+00
<ENDHMM>
~h "d"
<BEGINHMM>
<NUMSTATES> 5
<STATE> 2
<MEAN> 39
 4.454837e+00 1.884264e+00 2.575775e+00 3.478811e+00 -2.887513e-01 -2.315448e+00 1.490289e+00 1.954243e-01 -1.014115e+00 -1.176040e+00 -1.154792e+00 -4.663879e-01 1.719090e+00 -2.473456e-01 -4.702806e-02 5.002848e-02 1.642599e-02 8.051521e-02 -4.329130e-01 -4.302399e-02 3.714297e-01 1.106993e-01 1.549004e-01 3.245065e-01 2.668019e-02 6.985436e-02 -8.466671e-02 -1.301802e-01 -7.730438e-02 -2.447403e-01 -1.431428e-01 -1.023119e-01 -1.488613e-01 1.329418e-02 9.243181e-02 7.558232e-02 -6.851729e-03 3.956372e-02 3.141961e-01
<VARIANCE> 39
 3.607277e+01 5.001510e+01 4.213100e+01 4.059285e+01 4.760751e+01 5.797676e+01 5.992091e+01 6.193877e+01 4.819806e+01 4.138760e+01 3.932446e+01 2.839391e+01 5.195740e+01 7.823886e-01 1.471826e+00 1.191114e+00 1.267814e+00 1.350625e+00 1.549836e+00 1.579551e+00 1.616398e+00 1.360062e+00 1.282048e+00 1.002087e+00 7.623488e-01 1.448076e+00 1.312888e-01 1.816410e-01 1.235083e-01 1.790739e-01 2.011698e-01 2.669778e-01 2.064436e-01 2.011741e-01 1.796533e-01 1.722747e-01 1.359137e-01 1.123835e-01 1.720978e-01
<GCONST> 1.011451e+02
<STATE> 3
<MEAN> 39
 2.165764e+00 5.728763e-01 2.386439e+00 1.614345e+00 -2.387304e-01 -5.402433e+00 -5.121503e-01 1.600071e+00 -3.324873e-01 -5.843917e-01 -3.001779e-01 -2.330725e-02 4.498579e+00 -2.246208e-01 -2.582994e-01 -3.367542e-01 -6.374195e-01 -3.550807e-01 -5.786317e-01 -6.587829e-01 1.157809e-01 3.544056e-01 4.179613e-01 1.428250e-01 1.278496e-01 7.536559e-01 8.174209e-02 2.874442e-02 -7.378659e-02 -1.212066e-01 -1.024240e-01 1.702169e-01 -6.359495e-02 -1.238990e-01 1.484698e-02 5.999469e-02 -6.913219e-02 -7.822551e-03 6.137649e-02
<VARIANCE> 39
 3.249846e+01 4.106384e+01 3.628318e+01 3.892613e+01 4.922150e+01 6.143591e+01 7.327212e+01 4.561437e+01 4.910331e+01 4.140623e+01 3.690916e+01 2.746042e+01 6.819799e+01 9.314128e-01 1.259672e+00 1.429010e+00 1.304838e+00 1.521087e+00 1.876549e+00 2.309980e+00 1.838939e+00 1.575199e+00 1.400157e+00 1.218042e+00 8.883073e-01 1.577547e+00 1.145040e-01 1.754182e-01 1.303780e-01 1.702134e-01 2.017338e-01 2.378486e-01 2.289547e-01 1.894028e-01 1.682063e-01 1.604685e-01 1.412564e-01 1.113006e-01 2.261731e-01
<GCONST> 1.024779e+02
<STATE> 4
<MEAN> 39
 2.047681e+00 3.517050e-01 1.295770e+00 -7.236263e-01 -2.656504e+00 -5.238132e+00 -2.806808e+00 2.948871e-01 1.756806e-01 5.795680e-01 -6.592125e-01 -4.525630e-01 5.476336e+00 -3.579295e-02 -5.535178e-02 -2.391405e-01 -4.031385e-01 -2.649406e-01 1.047702e-01 -2.538318e-01 -1.099837e-01 8.057839e-02 2.532001e-01 8.734003e-02 2.331127e-02 2.836044e-01 1.949304e-02 1.278837e-02 1.069453e-02 -1.856256e-04 2.551887e-02 1.454218e-01 8.872665e-02 -1.764415e-02 -4.341333e-02 -4.585032e-02 -1.992381e-02 2.318780e-03 -3.931059e-02
<VARIANCE> 39
 1.808661e+01 2.659116e+01 3.279421e+01 2.795850e+01 4.766455e+01 4.410099e+01 7.428719e+01 3.893158e+01 4.541746e+01 3.549999e+01 3.358801e+01 2.747714e+01 4.817922e+01 7.742152e-01 9.161561e-01 1.134989e+00 1.019029e+00 1.496152e+00 1.211249e+00 1.590189e+00 1.400922e+00 1.337572e+00 1.121939e+00 1.072052e+00 7.384298e-01 1.064121e+00 6.711002e-02 8.709023e-02 9.102795e-02 9.553085e-02 1.472093e-01 1.375707e-01 1.989077e-01 1.263045e-01 1.354634e-01 1.209169e-01 1.184572e-01 9.379374e-02 9.273096e-02
<GCONST> 9.135391e+01
<TRANSP> 5
 0.000000e+00 1.000000e+00 0.000000e+00 0.000000e+00 0.000000e+00
 0.000000e+00 5.631662e-01 4.368338e-01 0.000000e+00 0.000000e+00
 0.000000e+00 0.000000e+00 4.973394e-01 5.026606e-01 0.000000e+00
 0.000000e+00 0.000000e+00 0.000000e+00 6.523492e-01 3.476508e-01
 0.000000e+00 0.000000e+00 0.000000e+00 0.000000e+00 0.000000e+00
<ENDHMM>
~h "e"
<BEGINHMM>
<NUMSTATES> 5
<STATE> 2
<MEAN> 39
 9.572047e-01 1.462648e+00 9.516004e+00 -4.289721e+00 -1.014841e+01 -2.951162e+00 8.018920e-01 -2.462381e+00 -4.316784e-01 3.396264e+00 1.038912e+00 -1.665879e-01 7.673336e+00 -7.761087e-02 -5.038443e-03 4.277082e-01 -6.634650e-01 -8.630300e-01 -8.798071e-02 5.891852e-02 -2.420195e-01 8.964913e-03 3.246393e-01 6.190053e-02 3.271320e-02 4.444072e-01 -1.202406e-02 3.347886e-02 -1.259322e-01 8.552056e-02 1.708990e-01 5.739668e-02 -2.612561e-02 4.863211e-02 4.937705e-02 -7.887556e-02 -5.336697e-02 -1.402370e-02 -1.135856e-01
<VARIANCE> 39
 3.065361e+01 4.985102e+01 5.605932e+01 6.796516e+01 7.296450e+01 6.818214e+01 5.364156e+01 6.747200e+01 6.776616e+01 4.485633e+01 5.044248e+01 3.086196e+01 7.409480e+01 1.004930e+00 1.182874e+00 1.523481e+00 2.096039e+00 2.155271e+00 1.894348e+00 1.589497e+00 1.731510e+00 1.900162e+00 1.367386e+00 1.145311e+00 8.774117e-01 2.231491e+00 9.557609e-02 1.299252e-01 1.099732e-01 1.742808e-01 2.252875e-01 2.113430e-01 1.541047e-01 1.716484e-01 1.685145e-01 1.596225e-01 1.289278e-01 1.009428e-01 1.685618e-01
<GCONST> 1.043932e+02
<STATE> 3
<MEAN> 39
 -1.170724e-01 1.930215e+00 8.993418e+00 -6.509949e+00 -1.231494e+01 -2.742629e+00 8.256772e-01 -3.757318e+00 -8.237362e-02 3.879063e+00 5.991792e-01 1.008334e-01 8.627443e+00 2.502412e-03 1.227134e-01 -1.740146e-01 2.636523e-01 1.887014e-01 -7.070669e-02 9.796759e-03 1.088898e-01 -3.813093e-02 -1.545603e-01 2.456966e-02 -8.332479e-02 -6.000538e-01 3.329569e-03 -2.675547e-03 -9.716585e-02 1.590921e-01 2.083459e-01 2.309862e-02 -2.205293e-02 7.539402e-02 1.903584e-03 -7.564041e-02 -1.212857e-02 -4.012159e-02 -1.279661e-01
<VARIANCE> 39
 3.140732e+01 4.229022e+01 5.196148e+01 6.577007e+01 7.068622e+01 6.325329e+01 4.798531e+01 6.472677e+01 7.035918e+01 4.642647e+01 4.239606e+01 2.575986e+01 8.038699e+01 4.959419e-01 9.167384e-01 9.035267e-01 1.477599e+00 1.303717e+00 1.271308e+00 1.187923e+00 1.407810e+00 1.222614e+00 1.034501e+00 6.757334e-01 7.082701e-01 1.312768e+00 6.513052e-02 9.256455e-02 9.374387e-02 1.286201e-01 1.559926e-01 1.566636e-01 1.319422e-01 1.618550e-01 1.512066e-01 1.358652e-01 9.192672e-02 9.117743e-02 1.242964e-01
<GCONST> 9.537721e+01
<STATE> 4
<MEAN> 39
 -5.430961e-01 7.790859e-01 7.024669e+00 -1.898064e+00 -7.543336e+00 -3.810163e+00 1.711346e+00 -1.195403e+00 -2.240734e+00 2.450775e+00 1.579436e+00 -3.368065e-01 1.440619e+00 -1.194618e-01 5.342933e-02 -4.090113e-01 4.061679e-01 7.280967e-01 1.875793e-01 9.328237e-02 1.785411e-01 4.236723e-02 -2.063072e-01 -7.257614e-03 -4.105069e-02 -7.081538e-01 -1.552446e-03 -1.924853e-02 -3.180179e-02 -2.862402e-02 2.896639e-02 3.473274e-02 -3.310398e-02 1.757592e-03 2.515103e-02 1.978964e-03 -1.352463e-02 1.007960e-02 6.559289e-02
<VARIANCE> 39
 2.709608e+01 2.836097e+01 4.346333e+01 4.662818e+01 6.707280e+01 4.449829e+01 3.579076e+01 4.728380e+01 5.192144e+01 3.100989e+01 3.357813e+01 2.360039e+01 1.362519e+02 5.920914e-01 6.823242e-01 7.654087e-01 1.106132e+00 1.002828e+00 9.857655e-01 8.499697e-01 1.028482e+00 9.894839e-01 7.666709e-01 5.897090e-01 5.489116e-01 1.118873e+00 5.186162e-02 6.606551e-02 7.116077e-02 9.963014e-02 1.054144e-01 1.036123e-01 1.009858e-01 1.146413e-01 1.129548e-01 9.265351e-02 6.151047e-02 6.795400e-02 1.034811e-01
<GCONST> 8.592725e+01
<TRANSP> 5
 0.000000e+00 1.000000e+00 0.000000e+00 0.000000e+00 0.000000e+00
 0.000000e+00 6.586320e-01 3.413680e-01 0.000000e+00 0.000000e+00
 0.000000e+00 0.000000e+00 5.754857e-01 4.245143e-01 0.000000e+00
 0.000000e+00 0.000000e+00 0.000000e+00 8.022152e-01 1.977849e-01
 0.000000e+00 0.000000e+00 0.000000e+00 0.000000e+00 0.000000e+00
<ENDHMM>
~h "g"
<BEGINHMM>
<NUMSTATES> 5
<STATE> 2
<MEAN> 39
 1.732520e+00 4.333680e+00 7.403956e+00 -3.325588e+00 -4.540007e+00 -2.336167e+00 -1.253521e+00 -1.342522e+00 2.368755e+00 2.538184e+00 2.971793e-01 -1.205180e+00 8.154287e+00 -1.695016e-01 -3.421503e-02 4.916041e-01 -4.502376e-01 -6.942754e-01 -6.008314e-02 -5.763591e-02 -3.277073e-01 5.735302e-02 3.886598e-01 -1.066385e-02 3.957482e-02 5.910970e-01 6.137522e-02 -4.373338e-02 -6.246288e-02 1.585530e-02 -4.997994e-02 1.086111e-02 1.808047e-02 4.709281e-03 -2.493428e-02 -9.993015e-03 -3.605069e-02 1.470640e-02 1.670876e-02
<VARIANCE> 39
 5.744857e+01 1.077709e+02 7.962224e+01 9.494711e+01 1.003326e+02 5.870628e+01 9.816972e+01 9.302779e+01 8.584129e+01 5.682475e+01 4.738622e+01 3.814561e+01 6.577095e+01 1.344878e+00 2.258488e+00 2.835724e+00 2.401326e+00 4.200246e+00 1.758697e+00 2.635790e+00 2.191025e+00 2.680601e+00 1.820002e+00 1.538797e+00 1.238542e+00 2.514988e+00 1.476846e-01 2.144317e-01 2.631097e-01 3.054700e-01 4.452020e-01 2.187975e-01 2.911331e-01 2.690354e-01 2.788736e-01 2.007351e-01 1.768728e-01 1.515695e-01 2.696403e-01
<GCONST> 1.185907e+02
<STATE> 3
<MEAN> 39
 7.880911e-01 1.719302e+00 1.009527e+01 -6.594146e+00 -1.129122e+01 -1.096601e+00 4.353805e-01 -5.673067e+00 -4.564296e-01 5.481306e+00 -2.267146e-01 -6.975503e-01 1.120968e+01 2.495420e-01 -1.072091e-01 9.184117e-02 1.462645e-01 -4.440346e-01 -1.380937e-01 7.125309e-02 5.485781e-02 -2.955669e-01 1.812205e-03 2.350026e-02 1.473815e-02 -1.171239e-01 2.349365e-02 2.708320e-02 -1.816732e-01 1.852324e-01 2.947448e-01 -1.517698e-02 2.856808e-03 1.762891e-01 2.268343e-02 -1.618846e-01 -2.404053e-02 5.416779e-03 -2.300707e-01
<VARIANCE> 39
 3.669190e+01 4.489044e+01 8.250178e+01 8.649778e+01 8.777607e+01 5.683670e+01 8.385947e+01 7.583399e+01 6.994107e+01 6.106686e+01 5.696969e+01 4.126891e+01 4.969288e+01 7.597604e-01 1.182181e+00 1.403645e+00 1.996896e+00 2.700008e+00 1.441669e+00 1.706880e+00 1.733129e+00 1.570350e+00 1.390094e+00 1.042585e+00 9.783795e-01 1.595724e+00 7.813364e-02 1.094647e-01 1.723285e-01 2.124745e-01 3.275169e-01 1.753827e-01 2.020642e-01 1.999915e-01 1.970399e-01 1.689174e-01 1.345625e-01 1.340169e-01 1.659208e-01
<GCONST> 1.065436e+02
<STATE> 4
<MEAN> 39
 6.020306e-01 1.802243e+00 1.042550e+01 -4.505270e+00 -9.191019e+00 -2.059520e+00 1.888919e-01 -2.683064e+00 -5.039577e+00 4.703118e+00 6.090302e-01 -1.379145e+00 7.814540e+00 1.352821e-01 3.523456e-02 -2.242158e-01 2.547713e-01 2.147712e-01 -7.066386e-03 1.735198e-01 1.211338e-01 3.710670e-02 -1.397391e-01 -4.062580e-02 7.102274e-02 -4.386784e-01 -1.614358e-02 -1.780342e-02 -6.477408e-02 4.353485e-02 8.145660e-02 -7.460339e-03 1.693551e-02 1.611367e-02 6.892377e-02 -4.769356e-02 -6.483108e-03 4.895221e-03 -4.113794e-02
<VARIANCE> 39
 3.801435e+01 2.869365e+01 7.234939e+01 4.996862e+01 5.058070e+01 4.023391e+01 4.993468e+01 4.631174e+01 7.617022e+01 3.737176e+01 4.092772e+01 3.224710e+01 4.186990e+01 4.569965e-01 5.820103e-01 9.105302e-01 1.197966e+00 1.264333e+00 1.006726e+00 9.330354e-01 1.091907e+00 1.128837e+00 9.235770e-01 8.113459e-01 6.752154e-01 9.266258e-01 4.158247e-02 5.977949e-02 8.835567e-02 1.111340e-01 1.440843e-01 1.004899e-01 1.093967e-01 1.191325e-01 1.327683e-01 1.083456e-01 9.284506e-02 8.232863e-02 8.831992e-02
<GCONST> 8.875079e+01
<TRANSP> 5
 0.000000e+00 1.000000e+00 0.000000e+00 0.000000e+00 0.000000e+00
 0.000000e+00 8.218377e-01 1.781624e-01 0.000000e+00 0.000000e+00
 0.000000e+00 0.000000e+00 6.298227e-01 3.701773e-01 0.000000e+00
 0.000000e+00 0.000000e+00 0.000000e+00 8.138366e-01 1.861634e-01
 0.000000e+00 0.000000e+00 0.000000e+00 0.000000e+00 0.000000e+00
<ENDHMM>
~h "h"
<BEGINHMM>
<NUMSTATES> 5
<STATE> 2
<MEAN> 39
 6.131285e+00 5.586726e-01 -5.145061e+00 -5.978389e+00 9.159879e-01 2.339477e-01 -3.894619e+00 -3.196526e+00 -4.342520e+00 4.376757e-01 -3.004183e-01 9.556696e-01 7.299821e+00 2.396332e-01 1.759619e-01 -2.166049e-01 -1.052931e-01 2.689217e-01 3.271812e-01 2.174530e-01 7.029802e-02 -1.738294e-01 -1.196669e-01 -7.301285e-02 -1.240072e-01 -4.283084e-01 -7.088470e-02 -4.685074e-02 6.428852e-02 1.220734e-01 2.023649e-03 -1.657619e-02 5.976845e-02 1.101397e-01 1.021115e-01 -3.554631e-02 -2.098667e-02 -4.915460e-02 -3.606739e-02
<VARIANCE> 39
 3.350488e+01 4.834013e+01 7.050728e+01 8.832823e+01 4.823787e+01 4.071035e+01 4.965683e+01 3.237522e+01 5.153889e+01 4.545475e+01 3.607709e+01 5.231091e+01 4.995675e+01 4.683151e-01 6.392933e-01 9.021943e-01 1.364037e+00 7.926578e-01 1.004613e+00 1.114279e+00 6.233011e-01 8.815928e-01 7.349886e-01 8.448357e-01 9.694434e-01 6.772575e-01 3.966272e-02 6.473270e-02 6.911764e-02 1.207739e-01 8.852253e-02 9.738219e-02 9.978762e-02 6.556714e-02 1.285689e-01 7.774508e-02 9.471329e-02 1.125895e-01 3.771312e-02
<GCONST> 8.641025e+01
<STATE> 3
<MEAN> 39
 6.401937e+00 -2.498653e-01 -3.836608e+00 -2.142998e+00 2.589107e+00 1.339771e+00 -2.522353e+00 -1.523964e+00 -3.506785e+00 2.158582e-01 -1.024395e-01 -2.152820e+00 3.590005e+00 -2.602696e-01 2.832780e-02 4.383561e-02 4.430545e-01 5.927144e-01 2.879777e-01 3.567339e-01 3.862997e-01 1.525487e-01 -2.443467e-01 7.674642e-03 -1.655434e-01 -5.710957e-01 -6.447324e-02 -3.344070e-02 6.662261e-02 3.984766e-02 -3.523329e-02 -9.859028e-03 6.342757e-03 2.708715e-02 3.317297e-02 -2.253538e-02 -9.086447e-03 7.057191e-02 3.507102e-02
<VARIANCE> 39
 3.328365e+01 6.081644e+01 5.620363e+01 6.869028e+01 5.533653e+01 3.800560e+01 5.832819e+01 3.097309e+01 5.444596e+01 5.301727e+01 4.788626e+01 3.866414e+01 4.934077e+01 3.900789e-01 1.049553e+00 7.625182e-01 9.128178e-01 7.537557e-01 6.591303e-01 7.611018e-01 8.241067e-01 1.012765e+00 6.837102e-01 8.731305e-01 8.958328e-01 4.249181e-01 2.867248e-02 7.081371e-02 6.684050e-02 9.370326e-02 8.291440e-02 6.962983e-02 7.863382e-02 7.647047e-02 1.243204e-01 7.894609e-02 1.162546e-01 9.003766e-02 2.530150e-02
<GCONST> 8.379784e+01
<STATE> 4
<MEAN> 39
 2.362655e+00 1.597085e+00 -5.152082e-01 -1.551241e+00 4.984657e-01 4.483793e-01 -5.954975e-02 -1.426799e+00 -2.330247e+00 -1.379360e+00 -7.843817e-01 -1.276131e-01 4.444246e-01 -7.330976e-02 -3.699608e-03 1.624643e-02 7.569078e-02 3.516844e-02 4.589498e-03 2.607342e-02 3.889310e-02 3.301928e-02 -2.645896e-02 2.820575e-02 4.860721e-02 -8.180811e-02 3.263658e-03 -1.738207e-02 4.744979e-03 -2.769946e-03 -8.122216e-03 3.337190e-04 -7.855847e-03 4.154316e-03 5.607808e-03 8.654896e-03 4.925286e-03 -3.876166e-03 2.090460e-02
<VARIANCE> 39
 2.026419e+01 2.508779e+01 4.570644e+01 3.095582e+01 3.730212e+01 3.496001e+01 2.703849e+01 2.684760e+01 3.159439e+01 3.104954e+01 2.871818e+01 2.100351e+01 2.638321e+01 2.464019e-01 4.204147e-01 5.586187e-01 5.809134e-01 6.038883e-01 4.914435e-01 5.369332e-01 6.337787e-01 6.556984e-01 5.810382e-01 5.995048e-01 4.389410e-01 2.489755e-01 1.978660e-02 4.033487e-02 4.546555e-02 5.934337e-02 7.052863e-02 5.664267e-02 6.458585e-02 7.865832e-02 6.991011e-02 7.149415e-02 6.986185e-02 5.342887e-02 1.918662e-02
<GCONST> 6.741506e+01
<TRANSP> 5
 0.000000e+00 1.000000e+00 0.000000e+00 0.000000e+00 0.000000e+00
 0.000000e+00 6.965958e-01 3.034042e-01 0.000000e+00 0.000000e+00
 0.000000e+00 0.000000e+00 5.774674e-01 4.225326e-01 0.000000e+00
 0.000000e+00 0.000000e+00 0.000000e+00 9.551978e-01 4.480227e-02
 0.000000e+00 0.000000e+00 0.000000e+00 0.000000e+00 0.000000e+00
<ENDHMM>
~h "i"
<BEGINHMM>
<NUMSTATES> 5
<STATE> 2
<MEAN> 39
 -6.295484e-01 5.110669e+00 8.221664e+00 -4.367914e+00 -3.663860e+00 -9.237739e-01 -2.276033e+00 -5.227655e+00 -3.451821e-01 1.254277e+00 -4.357302e-01 1.358109e+00 4.761216e+00 -1.807443e-01 4.660935e-01 7.732993e-01 -6.295316e-01 -4.546287e-01 -2.842896e-02 -4.213793e-01 -5.575826e-01 -1.714797e-01 1.559890e-01 -1.315879e-01 8.785605e-02 4.489885e-01 3.539607e-02 -2.329616e-02 -8.588877e-02 9.010968e-02 2.499823e-02 -1.882734e-02 4.220055e-02 7.360600e-02 -1.542073e-02 -1.267110e-02 4.394513e-03 -2.246813e-02 -4.078897e-02
<VARIANCE> 39
 4.215277e+01 6.667357e+01 7.687307e+01 1.008342e+02 6.580109e+01 5.809482e+01 7.786779e+01 6.667384e+01 6.699005e+01 4.980527e+01 4.517491e+01 3.973815e+01 6.877657e+01 1.405306e+00 1.403708e+00 2.246622e+00 2.695243e+00 1.854215e+00 1.535507e+00 2.163608e+00 1.852819e+00 2.077896e+00 1.406879e+00 1.348226e+00 1.188955e+00 1.936805e+00 1.348751e-01 1.546329e-01 2.183363e-01 3.010675e-01 2.163486e-01 1.639680e-01 2.294044e-01 2.023429e-01 2.135735e-01 1.656051e-01 1.574719e-01 1.395774e-01 1.884851e-01
<GCONST> 1.105050e+02
<STATE> 3
<MEAN> 39
 -3.738513e-01 5.845052e+00 1.003682e+01 -4.186017e+00 -6.034861e+00 -1.809994e+00 -2.514150e+00 -6.086862e+00 -2.671036e+00 1.378287e+00 -2.504267e-01 6.907844e-01 5.371988e+00 2.120571e-01 -3.744059e-02 -1.342427e-01 6.566250e-01 8.750477e-02 -1.757117e-02 3.145016e-01 1.339633e-01 -2.682553e-01 -2.545954e-02 1.891771e-01 -2.329230e-01 -4.623467e-01 -3.589888e-02 -7.980575e-02 -1.744022e-01 1.355169e-01 1.476952e-01 6.987409e-03 8.831081e-02 1.219388e-01 8.334441e-02 -4.208020e-02 1.388345e-02 -1.462158e-02 -8.822806e-02
<VARIANCE> 39
 3.416058e+01 5.398142e+01 6.347264e+01 7.365335e+01 5.236988e+01 5.128300e+01 6.094550e+01 6.054065e+01 6.617786e+01 4.601510e+01 4.782484e+01 3.098622e+01 6.185537e+01 1.181670e+00 1.240408e+00 1.662568e+00 2.099883e+00 1.466367e+00 1.145424e+00 1.377014e+00 1.518852e+00 1.357480e+00 1.064384e+00 9.501126e-01 8.177651e-01 1.765826e+00 1.056836e-01 1.165544e-01 1.486063e-01 1.927013e-01 1.764555e-01 1.202328e-01 1.819257e-01 1.538127e-01 1.632096e-01 1.331827e-01 1.170620e-01 1.041483e-01 1.297002e-01
<GCONST> 1.011192e+02
<STATE> 4
<MEAN> 39
 -6.859387e-01 3.919035e+00 7.704108e+00 1.356526e+00 -2.546719e+00 -7.667207e-01 -5.082675e-01 -4.210706e+00 -4.067677e+00 -2.004590e-01 6.663890e-01 -5.008913e-01 4.783933e-01 -1.526677e-01 -1.522167e-01 -4.304951e-01 3.103378e-01 3.541536e-01 2.292167e-02 2.686359e-01 1.965746e-01 9.516080e-02 -1.284816e-02 8.352484e-02 -1.980956e-02 -3.344090e-01 -3.010302e-02 -4.035955e-02 -4.378411e-02 -8.429676e-02 -1.644483e-03 -2.175927e-02 -3.794401e-02 3.076335e-02 5.929984e-02 1.354952e-02 3.789287e-03 2.889803e-02 8.296033e-02
<VARIANCE> 39
 3.912233e+01 3.526131e+01 5.665381e+01 4.681945e+01 4.589283e+01 3.878789e+01 4.301512e+01 4.026077e+01 5.092842e+01 3.994435e+01 3.379396e+01 2.716555e+01 8.931505e+01 9.865454e-01 1.029938e+00 1.232537e+00 1.196747e+00 1.129515e+00 9.267547e-01 9.923879e-01 1.024635e+00 1.077260e+00 8.060824e-01 7.298566e-01 6.292259e-01 1.632220e+00 9.707160e-02 8.756208e-02 1.160434e-01 1.035934e-01 1.233321e-01 1.064081e-01 1.237354e-01 1.098164e-01 1.187651e-01 1.000158e-01 8.234400e-02 7.712699e-02 1.346011e-01
<GCONST> 9.138296e+01
<TRANSP> 5
 0.000000e+00 1.000000e+00 0.000000e+00 0.000000e+00 0.000000e+00
 0.000000e+00 7.269086e-01 2.730913e-01 0.000000e+00 0.000000e+00
 0.000000e+00 0.000000e+00 5.145860e-01 4.854141e-01 0.000000e+00
 0.000000e+00 0.000000e+00 0.000000e+00 7.341170e-01 2.658830e-01
 0.000000e+00 0.000000e+00 0.000000e+00 0.000000e+00 0.000000e+00
<ENDHMM>
~h "j"
<BEGINHMM>
<NUMSTATES> 5
<STATE> 2
<MEAN> 39
 1.856475e+00 -4.921337e+00 -2.046509e+00 -7.461247e-01 -5.723247e-01 -6.854722e-01 4.962620e+00 4.091370e+00 3.987620e-01 -2.039260e+00 -4.616801e+00 6.959612e-01 8.484426e+00 -3.663391e-01 7.949324e-01 3.344462e-01 2.602860e-01 2.248175e-01 5.874237e-02 2.420025e-01 -1.147923e-01 -2.786685e-01 6.112002e-02 5.700164e-01 -2.410382e-01 -7.729542e-01 -1.094817e-01 3.346179e-03 -3.540310e-02 -8.039371e-02 8.881009e-02 3.707572e-02 -5.470378e-02 1.211757e-02 2.637980e-02 -6.936597e-03 5.057282e-02 -5.526326e-02 5.206399e-02
<VARIANCE> 39
 1.723257e+01 3.385287e+01 2.654104e+01 2.965453e+01 3.669619e+01 2.436109e+01 2.925630e+01 2.984525e+01 3.927317e+01 3.025763e+01 3.151443e+01 2.328285e+01 5.939904e+01 9.286267e-01 6.437587e-01 7.121131e-01 9.306979e-01 1.268491e+00 8.937966e-01 7.271546e-01 8.597745e-01 9.936429e-01 8.124772e-01 7.802477e-01 5.874545e-01 7.046207e-01 1.133588e-01 6.942896e-02 9.004790e-02 1.715269e-01 1.978549e-01 1.512692e-01 9.603032e-02 9.459393e-02 9.417665e-02 8.261665e-02 1.091407e-01 9.921307e-02 1.046805e-01
<GCONST> 8.456684e+01
<STATE> 3
<MEAN> 39
 -1.012062e+00 7.394028e-02 -1.327031e+00 -4.442604e-01 1.820949e+00 -1.231466e-01 4.820539e+00 3.940132e+00 -8.974041e-01 -2.655358e+00 -8.242052e-01 -1.701488e+00 4.873839e+00 -1.432811e+00 1.063752e+00 5.762446e-01 -4.892169e-01 8.258195e-02 -1.662586e-01 -2.255813e-02 1.373216e-01 -2.419603e-01 2.021030e-01 8.834003e-01 -1.479430e-01 1.035780e-01 -3.392367e-02 -8.753759e-02 2.339990e-01 -1.279994e-01 -2.735847e-01 -1.946676e-01 -1.036212e-01 2.124743e-02 -5.147036e-02 8.621774e-02 4.923442e-02 7.577465e-02 3.149346e-01
<VARIANCE> 39
 5.327265e+01 3.517641e+01 3.060608e+01 4.411824e+01 4.420119e+01 3.320401e+01 3.859236e+01 3.305511e+01 4.067259e+01 2.854202e+01 2.721826e+01 2.021319e+01 4.160110e+01 2.269517e+00 1.243124e+00 1.252113e+00 1.369762e+00 1.701941e+00 1.444412e+00 1.084014e+00 9.348881e-01 1.040063e+00 8.708787e-01 1.053534e+00 8.390257e-01 9.496622e-01 4.138591e-01 1.633443e-01 1.215048e-01 2.340152e-01 2.456950e-01 1.746901e-01 1.448707e-01 1.171202e-01 1.247485e-01 1.020800e-01 1.317373e-01 1.067741e-01 9.232616e-02
<GCONST> 9.568545e+01
<STATE> 4
<MEAN> 39
 -5.746956e+00 3.705122e+00 5.224728e+00 -4.030956e+00 -3.682647e+00 -3.825410e+00 3.971539e+00 3.315042e+00 -2.954993e+00 -1.161805e-01 3.442938e+00 -1.760540e+00 9.770983e+00 5.591944e-01 -4.738535e-01 3.512495e-01 -1.519952e-01 -9.679679e-01 -4.947293e-01 -3.179961e-01 2.052386e-01 1.837956e-01 1.950677e-01 3.170879e-02 1.568020e-01 5.900565e-01 2.802055e-01 -1.888296e-01 -1.778415e-01 1.168614e-01 5.340538e-02 7.948215e-02 -5.796567e-02 -3.686981e-03 7.400450e-02 -3.693347e-02 -2.049274e-01 1.686761e-02 -7.526190e-02
<VARIANCE> 39
 8.138160e+01 4.833561e+01 3.105491e+01 3.289536e+01 6.680931e+01 4.519309e+01 5.022439e+01 4.419287e+01 4.551128e+01 3.841598e+01 3.768638e+01 3.898189e+01 3.932619e+01 3.939510e+00 2.698577e+00 1.640712e+00 1.809175e+00 2.451478e+00 1.238193e+00 1.462814e+00 1.765646e+00 1.375906e+00 1.120533e+00 1.619510e+00 9.366426e-01 9.635113e-01 4.844020e-01 2.717103e-01 1.530050e-01 1.562593e-01 4.208981e-01 1.671140e-01 1.551261e-01 1.972997e-01 1.314082e-01 1.467982e-01 1.589153e-01 1.183064e-01 9.300763e-02
<GCONST> 1.051562e+02
<TRANSP> 5
 0.000000e+00 1.000000e+00 0.000000e+00 0.000000e+00 0.000000e+00
 0.000000e+00 8.128040e-01 1.871960e-01 0.000000e+00 0.000000e+00
 0.000000e+00 0.000000e+00 6.685731e-01 3.314269e-01 0.000000e+00
 0.000000e+00 0.000000e+00 0.000000e+00 8.755602e-01 1.244398e-01
 0.000000e+00 0.000000e+00 0.000000e+00 0.000000e+00 0.000000e+00
<ENDHMM>
~h "k"
<BEGINHMM>
<NUMSTATES> 5
<STATE> 2
<MEAN> 39
 -3.201693e-01 9.393134e-01 2.162773e+00 2.901083e+00 -3.107033e+00 -3.101671e+00 2.163797e-01 -3.936631e+00 -1.392540e+00 2.374851e+00 9.411920e-01 -5.939680e-01 -3.836386e+00 8.674156e-02 -7.088273e-01 -1.364442e+00 1.289206e-01 9.707571e-01 -8.135755e-03 7.969691e-02 4.739802e-01 3.356619e-01 1.195697e-01 1.250183e-01 7.597686e-02 -4.036227e-02 4.447895e-02 -4.914906e-02 -1.578222e-01 -2.353640e-01 7.137968e-02 2.691628e-02 -4.099803e-02 1.564384e-01 7.279545e-02 2.081414e-03 -4.212707e-02 1.062564e-02 4.319521e-01
<VARIANCE> 39
 3.155257e+01 5.180360e+01 7.478565e+01 5.710353e+01 9.938097e+01 7.339176e+01 6.194490e+01 5.796681e+01 5.437531e+01 5.005059e+01 3.342250e+01 2.851206e+01 4.727935e+01 9.615185e-01 1.648617e+00 2.262204e+00 2.370930e+00 2.058013e+00 2.995105e+00 1.913683e+00 1.975983e+00 1.524971e+00 1.406977e+00 1.294986e+00 7.608540e-01 2.284138e+00 1.282386e-01 1.834446e-01 2.286913e-01 2.085221e-01 2.613985e-01 3.538661e-01 2.008719e-01 2.018163e-01 1.611237e-01 1.840001e-01 1.575638e-01 1.020501e-01 1.774926e-01
<GCONST> 1.082487e+02
<STATE> 3
<MEAN> 39
 3.509769e-01 -3.878135e+00 -6.912520e+00 2.228486e+00 3.822069e+00 -2.647112e+00 1.406545e-01 1.663833e+00 2.151447e+00 2.824812e+00 5.198104e-01 -2.652133e-01 -2.485499e-02 6.413147e-01 -4.101692e-01 -8.751525e-01 -5.772011e-01 2.294088e-01 -1.021775e-01 -1.643194e-01 5.034650e-01 5.385779e-01 -7.275196e-02 -2.229088e-01 -7.210572e-02 1.576503e+00 1.553165e-01 1.964733e-01 3.223010e-01 -1.584195e-01 -3.091626e-01 5.718368e-02 -2.854124e-02 -1.391719e-01 -9.126714e-02 -7.956335e-02 -6.589615e-02 -4.272097e-02 1.205642e-01
<VARIANCE> 39
 5.808845e+01 6.225775e+01 1.007242e+02 8.698438e+01 8.921443e+01 1.109730e+02 8.022062e+01 6.605531e+01 6.726260e+01 4.202917e+01 4.705886e+01 2.833058e+01 1.333612e+02 1.648301e+00 2.199034e+00 2.808468e+00 2.654236e+00 3.151611e+00 3.966434e+00 2.427319e+00 2.356261e+00 2.233174e+00 1.891550e+00 1.824073e+00 9.905290e-01 3.648788e+00 1.901644e-01 2.574542e-01 2.864717e-01 3.678815e-01 3.325209e-01 4.676174e-01 2.962230e-01 2.462047e-01 2.109672e-01 1.694219e-01 2.333264e-01 1.155584e-01 4.118979e-01
<GCONST> 1.200745e+02
<STATE> 4
<MEAN> 39
 4.074056e+00 -1.717544e+00 -6.453428e+00 -1.887297e+00 1.880735e+00 -1.769582e+00 -6.723248e-01 4.664486e-01 2.139514e+00 2.714707e+00 9.890462e-01 -4.036991e-01 4.923040e+00 7.624580e-01 1.916703e-01 5.230959e-02 -7.672804e-01 -5.199242e-01 2.569063e-01 -1.427882e-01 -1.537574e-02 1.019511e-01 -1.823432e-01 -1.677693e-01 -1.056797e-01 1.013723e+00 -2.917995e-02 6.832584e-02 1.976876e-01 8.456570e-02 -9.052823e-02 7.703057e-02 -1.136837e-02 -1.228160e-01 -1.073694e-01 -3.536104e-02 -2.366211e-02 3.377475e-03 -1.823217e-01
<VARIANCE> 39
 4.306128e+01 4.911768e+01 6.757829e+01 7.333852e+01 7.495425e+01 6.697862e+01 5.403713e+01 8.204130e+01 6.100206e+01 5.883239e+01 5.635315e+01 3.199619e+01 6.017092e+01 1.187955e+00 1.599250e+00 1.726225e+00 1.719350e+00 2.203750e+00 2.098969e+00 1.716249e+00 2.433762e+00 1.943430e+00 1.770837e+00 1.874508e+00 1.148669e+00 1.940798e+00 1.495561e-01 1.689026e-01 1.758966e-01 2.504481e-01 3.102891e-01 2.723812e-01 2.238675e-01 2.605975e-01 2.029170e-01 2.168315e-01 1.789870e-01 1.310047e-01 1.925263e-01
<GCONST> 1.112602e+02
<TRANSP> 5
 0.000000e+00 1.000000e+00 0.000000e+00 0.000000e+00 0.000000e+00
 0.000000e+00 6.689925e-01 3.310075e-01 0.000000e+00 0.000000e+00
 0.000000e+00 0.000000e+00 6.635901e-01 3.364099e-01 0.000000e+00
 0.000000e+00 0.000000e+00 0.000000e+00 5.602684e-01 4.397316e-01
 0.000000e+00 0.000000e+00 0.000000e+00 0.000000e+00 0.000000e+00
<ENDHMM>
~h "l"
<BEGINHMM>
<NUMSTATES> 5
<STATE> 2
<MEAN> 39
 6.586097e+00 -4.201152e+00 -2.414798e+00 -3.808907e+00 1.898386e-01 2.569633e+00 -6.428515e+00 1.043526e+00 1.072305e+01 2.315947e+00 -3.743520e+00 -3.306247e+00 9.202968e+00 1.277018e-01 -1.617758e-01 4.298841e-02 -6.644697e-02 -7.608429e-02 -5.577596e-01 -4.248234e-01 6.077402e-01 5.550683e-01 6.826425e-02 -3.979314e-01 -4.989175e-02 7.987057e-01 -9.124058e-02 6.381840e-02 5.744292e-02 2.421138e-02 -3.799056e-02 2.538277e-02 1.946869e-01 -1.525167e-02 -1.903207e-01 -6.636404e-02 5.572692e-02 2.068027e-02 -5.403722e-02
<VARIANCE> 39
 3.818652e+01 6.334575e+01 7.502508e+01 6.552225e+01 5.212862e+01 1.165123e+02 7.718698e+01 7.477141e+01 1.844193e+02 6.831607e+01 6.381060e+01 3.011787e+01 1.293799e+02 1.178603e+00 1.714466e+00 2.928575e+00 2.006796e+00 1.840281e+00 2.878686e+00 2.087201e+00 1.931667e+00 3.988827e+00 1.684348e+00 1.777968e+00 1.080728e+00 3.712552e+00 1.454545e-01 1.945123e-01 2.584371e-01 1.926143e-01 2.005310e-01 3.734433e-01 2.219173e-01 2.965756e-01 4.146653e-01 1.891619e-01 1.872253e-01 1.377779e-01 3.748927e-01
<GCONST> 1.175496e+02
<STATE> 3
<MEAN> 39
 3.703219e+00 -3.120841e+00 -8.953552e-01 -4.052543e+00 -1.231765e+00 -3.306150e+00 -6.503239e+00 4.310903e+00 4.733940e+00 -2.407576e+00 -4.936816e+00 -3.654865e-01 9.350911e+00 -1.945846e-01 1.091462e-01 1.984660e-01 -5.208886e-02 -2.417813e-01 -1.181718e-01 3.858740e-01 1.650372e-01 -2.034422e-01 -3.547563e-02 3.222156e-02 1.150739e-01 1.022846e-01 -4.542844e-02 7.071620e-03 -5.108647e-02 9.080606e-03 1.184219e-02 1.171232e-01 2.258992e-01 -1.379573e-01 -1.296560e-01 5.246873e-02 5.619753e-02 -6.693667e-02 -8.517865e-02
<VARIANCE> 39
 2.069838e+01 3.717858e+01 7.229633e+01 4.513976e+01 5.617241e+01 3.914407e+01 9.477442e+01 7.145170e+01 8.529812e+01 7.492761e+01 5.038161e+01 4.929174e+01 4.139474e+01 5.297722e-01 1.276182e+00 2.707721e+00 1.253485e+00 1.629256e+00 1.600868e+00 2.913358e+00 1.620384e+00 1.454201e+00 1.626012e+00 1.257921e+00 1.279536e+00 1.436701e+00 6.408543e-02 2.009337e-01 2.687688e-01 1.566779e-01 2.206461e-01 2.543614e-01 5.101511e-01 2.831166e-01 1.966381e-01 1.883947e-01 1.680218e-01 2.000366e-01 1.856990e-01
<GCONST> 1.075660e+02
<STATE> 4
<MEAN> 39
 2.438189e+00 -1.364985e+00 1.753126e+00 -3.920019e+00 -5.622954e+00 -2.704355e+00 -1.337039e+00 -6.391018e-01 9.613990e-01 -1.766927e+00 -3.291384e+00 -1.441035e-01 1.097511e+01 -3.034914e-01 1.224966e-01 2.060412e-01 -3.883139e-02 -1.589725e-01 6.937508e-02 4.403461e-01 -2.188911e-01 -4.185748e-01 1.890036e-01 2.190172e-01 -5.634035e-02 -1.787712e-01 -1.037835e-02 3.988466e-02 -5.076160e-02 3.483589e-02 1.077082e-01 -6.730467e-03 -2.903462e-02 -5.096712e-02 3.131735e-02 1.738506e-02 3.277329e-02 -4.060126e-03 -7.702084e-02
<VARIANCE> 39
 4.029139e+01 4.537827e+01 6.176234e+01 5.401184e+01 5.123108e+01 4.601241e+01 9.112698e+01 7.762782e+01 6.852540e+01 7.370641e+01 3.670068e+01 3.807922e+01 3.641707e+01 9.590409e-01 1.219913e+00 1.706095e+00 1.078229e+00 1.593221e+00 1.443530e+00 2.679976e+00 1.512652e+00 1.445243e+00 1.460400e+00 8.656737e-01 6.379716e-01 9.336045e-01 8.196439e-02 1.161271e-01 1.418380e-01 1.154315e-01 1.454891e-01 1.859005e-01 2.736626e-01 1.700252e-01 1.602228e-01 1.811093e-01 1.148643e-01 9.296608e-02 1.053754e-01
<GCONST> 1.006045e+02
<TRANSP> 5
 0.000000e+00 1.000000e+00 0.000000e+00 0.000000e+00 0.000000e+00
 0.000000e+00 6.926737e-01 3.073263e-01 0.000000e+00 0.000000e+00
 0.000000e+00 0.000000e+00 6.190377e-01 3.809623e-01 0.000000e+00
 0.000000e+00 0.000000e+00 0.000000e+00 7.211512e-01 2.788487e-01
 0.000000e+00 0.000000e+00 0.000000e+00 0.000000e+00 0.000000e+00
<ENDHMM>
~h "m"
<BEGINHMM>
<NUMSTATES> 5
<STATE> 2
<MEAN> 39
 6.148094e+00 1.619433e+00 1.454871e+00 1.176831e+00 9.128730e-01 1.389680e+00 -2.408793e+00 -3.377972e+00 -1.392648e+00 4.389728e-01 -1.059111e+00 -2.418651e+00 3.581266e+00 6.063659e-01 -5.445356e-01 -5.177556e-01 -7.905977e-02 1.036413e-01 -7.430862e-02 -5.363590e-01 2.630450e-01 5.615857e-01 2.257271e-01 -2.360669e-01 -4.978588e-01 9.739431e-01 -8.430298e-02 -1.845426e-01 -1.325614e-01 -1.074220e-01 3.489761e-02 -4.413281e-02 1.021338e-02 1.904178e-01 7.100108e-02 -2.229608e-02 -4.902766e-02 1.338728e-02 7.657862e-02
<VARIANCE> 39
 4.382446e+01 4.354704e+01 9.072686e+01 7.162739e+01 8.051028e+01 6.793977e+01 7.263196e+01 6.344545e+01 7.899643e+01 4.414259e+01 4.580017e+01 3.383801e+01 5.876192e+01 1.516306e+00 1.787004e+00 2.235089e+00 2.966109e+00 2.106010e+00 2.157298e+00 2.064294e+00 2.480198e+00 2.814968e+00 1.700178e+00 1.446187e+00 1.152235e+00 3.348737e+00 1.713325e-01 1.796928e-01 1.950611e-01 3.086141e-01 2.322892e-01 2.578739e-01 2.491828e-01 2.706146e-01 2.284579e-01 1.962474e-01 1.598862e-01 1.402775e-01 2.400943e-01
<GCONST> 1.138180e+02
<STATE> 3
<MEAN> 39
 7.940017e+00 -2.910650e+00 -1.561017e+00 3.043712e-01 2.147218e+00 -1.631711e-01 -6.628906e+00 -1.709579e+00 -5.909986e-01 1.926193e+00 -2.384500e+00 -5.259472e+00 7.188939e+00 1.003942e-01 -7.125278e-01 -6.256507e-01 -1.679106e-01 3.311742e-01 -2.208893e-02 -9.884134e-02 6.143820e-01 2.178648e-01 -2.781218e-01 -1.672867e-01 -5.804871e-02 5.648018e-01 -1.792583e-01 7.778694e-02 7.718645e-02 -9.054276e-02 -4.180871e-02 4.285026e-02 2.297414e-01 6.485648e-02 -1.038079e-01 -2.207440e-01 2.658511e-02 2.188767e-01 -1.827856e-02
<VARIANCE> 39
 2.340738e+01 3.597057e+01 5.679097e+01 6.359278e+01 6.056455e+01 6.941908e+01 5.959470e+01 7.207706e+01 7.662379e+01 6.430109e+01 4.863795e+01 4.106131e+01 3.575702e+01 8.718474e-01 1.499764e+00 1.741907e+00 2.298560e+00 1.840797e+00 1.469309e+00 2.553831e+00 2.663162e+00 1.946685e+00 2.290904e+00 1.434098e+00 1.264449e+00 1.293243e+00 6.179264e-02 1.534963e-01 2.147587e-01 2.585772e-01 1.937318e-01 1.808321e-01 2.494583e-01 3.289995e-01 1.806947e-01 2.897153e-01 1.636295e-01 1.453210e-01 1.343807e-01
<GCONST> 1.078113e+02
<STATE> 4
<MEAN> 39
 5.956409e+00 -5.130883e+00 -1.730528e+00 -5.480340e-01 2.236504e+00 -1.351461e+00 -3.813744e+00 1.331872e-01 1.650667e-02 -3.029394e+00 -4.186654e+00 -2.252112e+00 1.113124e+01 -2.297885e-01 6.051997e-02 -1.563139e-02 -2.441128e-01 3.886352e-02 9.255479e-02 3.865617e-01 2.844909e-01 -1.768074e-01 -3.476090e-01 1.169270e-02 2.550188e-01 1.153920e-01 -3.017865e-02 1.091817e-01 8.867549e-02 3.452408e-02 -5.489694e-02 1.398673e-02 2.123736e-02 -9.866307e-02 -5.086050e-02 6.539513e-02 3.113651e-02 2.514139e-02 -8.346038e-02
<VARIANCE> 39
 3.537980e+01 4.893417e+01 8.978660e+01 6.766267e+01 8.904256e+01 7.336931e+01 6.443700e+01 8.119353e+01 1.240865e+02 8.129230e+01 4.881164e+01 3.616244e+01 5.360541e+01 9.951875e-01 1.258508e+00 1.780626e+00 1.973799e+00 1.583949e+00 1.563540e+00 1.933537e+00 2.239717e+00 2.125653e+00 2.517929e+00 1.200853e+00 1.278030e+00 1.359549e+00 8.459371e-02 1.325501e-01 1.750211e-01 1.981352e-01 1.677961e-01 1.423183e-01 1.829400e-01 2.919186e-01 2.486712e-01 3.299073e-01 1.484671e-01 1.282012e-01 1.282085e-01
<GCONST> 1.091041e+02
<TRANSP> 5
 0.000000e+00 1.000000e+00 0.000000e+00 0.000000e+00 0.000000e+00
 0.000000e+00 7.230982e-01 2.769018e-01 0.000000e+00 0.000000e+00
 0.000000e+00 0.000000e+00 6.004129e-01 3.995871e-01 0.000000e+00
 0.000000e+00 0.000000e+00 0.000000e+00 8.104074e-01 1.895926e-01
 0.000000e+00 0.000000e+00 0.000000e+00 0.000000e+00 0.000000e+00
<ENDHMM>
~h "n"
<BEGINHMM>
<NUMSTATES> 5
<STATE> 2
<MEAN> 39
 3.777483e+00 -2.288152e+00 -3.421559e-01 3.818777e-01 7.868692e-01 -1.253603e+00 8.325905e-02 1.333417e+00 -1.892561e+00 -2.134156e+00 -3.502952e+00 -3.489754e-01 7.708529e+00 2.027491e-01 3.330447e-01 3.894872e-01 5.059938e-01 1.702936e-02 -9.896564e-02 -5.017190e-02 -3.289333e-01 -3.334059e-01 -3.100263e-01 -1.374426e-01 1.021232e-01 -4.834993e-01 2.477137e-02 4.765993e-02 -7.747818e-03 -6.085535e-02 -5.410133e-02 7.285470e-03 -4.414627e-02 -3.151318e-02 7.682875e-02 4.857829e-02 2.575026e-02 -3.559471e-02 -3.121950e-02
<VARIANCE> 39
 2.561688e+01 3.359391e+01 4.676870e+01 5.241119e+01 4.443990e+01 5.117699e+01 4.995577e+01 4.900058e+01 6.122497e+01 5.214724e+01 3.788913e+01 2.877097e+01 5.995623e+01 5.406381e-01 8.873949e-01 1.280004e+00 1.121960e+00 1.142712e+00 1.106737e+00 1.067124e+00 1.510656e+00 1.104249e+00 1.034035e+00 8.829253e-01 8.483315e-01 9.107618e-01 6.091284e-02 9.501711e-02 1.091805e-01 1.267459e-01 1.092660e-01 1.240871e-01 1.190265e-01 1.638958e-01 1.459247e-01 1.350353e-01 1.064336e-01 9.133389e-02 9.508861e-02
<GCONST> 9.243446e+01
<STATE> 3
<MEAN> 39
 4.599767e+00 -1.275459e+00 8.115654e-01 1.437044e+00 2.534445e-01 -1.571300e+00 -5.172267e-01 1.347555e-01 -2.242129e+00 -2.440598e+00 -3.943275e+00 -3.714633e-01 6.380524e+00 1.850864e-01 3.984514e-01 2.983614e-01 3.482297e-01 -7.127978e-02 -2.223160e-02 -7.691222e-02 -3.420396e-01 -1.282045e-01 -1.936277e-01 -6.964810e-02 4.499268e-03 -5.077617e-01 -3.810030e-02 -2.440253e-02 -6.511069e-02 -1.216370e-01 -2.239186e-02 3.233822e-02 -4.907577e-03 4.538544e-02 7.589406e-02 5.994382e-02 4.458278e-02 -3.611996e-02 4.218106e-02
<VARIANCE> 39
 2.353518e+01 3.330518e+01 3.934667e+01 4.084250e+01 4.202942e+01 4.919985e+01 4.261042e+01 4.895747e+01 5.514718e+01 4.345905e+01 3.531889e+01 2.830811e+01 5.157314e+01 4.254742e-01 8.311643e-01 1.097645e+00 9.423845e-01 9.822470e-01 9.141110e-01 9.082081e-01 1.361122e+00 1.003055e+00 9.935091e-01 7.458396e-01 7.395681e-01 6.515168e-01 4.283197e-02 8.261778e-02 8.957199e-02 1.029068e-01 9.051035e-02 1.079674e-01 9.870618e-02 1.402169e-01 1.156028e-01 1.088219e-01 9.117728e-02 7.660230e-02 6.036367e-02
<GCONST> 8.631895e+01
<STATE> 4
<MEAN> 39
 3.827252e+00 -7.170236e-01 6.605849e-02 6.106735e-01 1.180270e-01 -1.422536e+00 -1.695567e+00 -1.136474e+00 -2.649205e+00 -4.274591e+00 -4.294297e+00 -1.190344e+00 3.688550e+00 -2.736880e-02 1.484720e-01 7.987110e-02 7.021658e-02 -1.977158e-02 -1.997739e-02 4.336948e-02 -4.837840e-02 -1.623318e-02 4.642215e-02 1.204445e-01 1.009125e-02 -2.514104e-01 -3.000193e-02 -3.718268e-02 -1.988398e-02 -4.692373e-02 3.121787e-03 3.608949e-03 1.595342e-02 4.437885e-02 1.292586e-02 4.640374e-02 3.865526e-02 -4.180657e-03 3.210126e-02
<VARIANCE> 39
 1.865710e+01 2.948939e+01 3.121849e+01 2.799178e+01 3.367554e+01 3.510527e+01 3.065172e+01 3.909078e+01 4.580489e+01 3.332758e+01 2.661415e+01 2.338706e+01 3.718899e+01 2.820459e-01 6.899339e-01 6.116235e-01 6.555895e-01 6.893486e-01 6.543698e-01 6.272153e-01 9.311647e-01 7.720777e-01 7.385696e-01 5.874078e-01 4.943366e-01 4.529513e-01 2.701286e-02 6.946747e-02 5.239721e-02 7.324077e-02 7.407869e-02 8.045215e-02 7.529933e-02 1.040037e-01 9.142257e-02 8.792187e-02 7.194527e-02 6.322533e-02 3.740278e-02
<GCONST> 7.451361e+01
<TRANSP> 5
 0.000000e+00 1.000000e+00 0.000000e+00 0.000000e+00 0.000000e+00
 0.000000e+00 4.000978e-01 5.999022e-01 0.000000e+00 0.000000e+00
 0.000000e+00 0.000000e+00 4.573101e-01 5.426899e-01 0.000000e+00
 0.000000e+00 0.000000e+00 0.000000e+00 8.768113e-01 1.231887e-01
 0.000000e+00 0.000000e+00 0.000000e+00 0.000000e+00 0.000000e+00
<ENDHMM>
~h "o"
<BEGINHMM>
<NUMSTATES> 5
<STATE> 2
<MEAN> 39
 2.233076e+00 -9.651836e-01 -2.190144e+00 6.962689e-01 2.464549e+00 1.528293e+00 1.576775e+00 3.980578e-01 -1.782109e-01 1.120589e+00 2.738183e+00 1.641409e-01 -4.891294e+00 1.007504e+00 5.140208e-01 -2.857389e-01 -6.703370e-01 -9.242888e-02 1.649199e-01 -5.640334e-01 -2.024809e-01 6.810753e-02 3.780848e-01 1.185895e-01 -2.095595e-01 7.813694e-01 7.192567e-02 -1.858655e-02 -4.741792e-02 -9.070852e-02 -9.106748e-02 -8.272347e-02 -1.666567e-01 -5.174625e-02 8.806734e-02 6.522448e-02 -9.881774e-02 -8.242732e-02 2.476456e-01
<VARIANCE> 39
 6.877113e+01 4.700110e+01 5.283388e+01 8.119395e+01 5.852087e+01 5.511473e+01 5.274337e+01 4.423762e+01 4.487393e+01 3.778308e+01 3.327864e+01 2.114088e+01 2.365281e+02 1.328277e+00 1.473762e+00 1.549530e+00 1.578682e+00 1.704601e+00 1.666797e+00 1.560476e+00 1.245822e+00 1.700474e+00 1.488019e+00 1.110442e+00 7.119629e-01 3.514607e+00 1.406382e-01 1.542866e-01 1.580916e-01 2.422723e-01 1.865736e-01 2.041904e-01 2.013824e-01 1.490979e-01 1.891370e-01 1.598524e-01 1.390364e-01 9.241632e-02 3.767488e-01
<GCONST> 1.059439e+02
<STATE> 3
<MEAN> 39
 9.370163e+00 2.361805e+00 -5.884934e+00 -6.378695e+00 -4.349834e-01 2.262761e+00 -2.132047e+00 -1.610262e+00 6.400139e-01 3.127020e+00 2.217129e+00 -1.319322e+00 4.374169e+00 7.664676e-01 -3.057918e-01 -7.025967e-01 -5.745965e-01 -1.754437e-03 1.074549e-01 -1.082803e+00 -2.777028e-01 5.836068e-01 6.345668e-01 -4.437708e-01 -4.147807e-01 1.738868e+00 -3.249577e-01 -2.538003e-01 1.100504e-01 3.203394e-01 1.675207e-01 -1.322955e-01 -1.132007e-02 1.279204e-01 1.163584e-01 -8.078049e-02 -1.725681e-01 -9.986073e-03 -1.769792e-01
<VARIANCE> 39
 3.131612e+01 4.764817e+01 5.789837e+01 7.293501e+01 5.448035e+01 5.993225e+01 4.760153e+01 5.107459e+01 5.718644e+01 4.854633e+01 4.640075e+01 2.604862e+01 6.709409e+01 1.737927e+00 1.946386e+00 1.899217e+00 3.168139e+00 2.239872e+00 2.165653e+00 1.681130e+00 1.434396e+00 2.471065e+00 1.849098e+00 1.448063e+00 9.806180e-01 4.131139e+00 1.247419e-01 1.772627e-01 1.992399e-01 3.123892e-01 2.525629e-01 2.802242e-01 1.988493e-01 1.760981e-01 2.130867e-01 2.291020e-01 2.128420e-01 1.278893e-01 2.487416e-01
<GCONST> 1.106107e+02
<STATE> 4
<MEAN> 39
 7.820769e+00 -2.387858e+00 -7.317385e+00 -3.485864e+00 2.727240e+00 -4.317070e-01 -7.162751e+00 -1.450537e+00 4.534293e+00 4.268220e+00 -1.270211e+00 -2.852761e+00 8.600467e+00 -3.446897e-01 -2.655894e-01 5.410266e-01 7.314440e-01 3.238367e-03 -5.987604e-01 -6.673563e-02 2.035877e-01 1.750728e-01 -4.132983e-01 -4.504350e-01 -2.683625e-04 1.454444e-01 -7.593258e-02 1.436133e-01 2.001701e-01 1.056246e-01 -1.106306e-01 -2.431273e-02 2.287980e-01 4.046116e-03 -2.114831e-01 -1.839085e-01 1.065618e-01 1.057366e-01 -2.208867e-01
<VARIANCE> 39
 2.479591e+01 2.773763e+01 5.304536e+01 5.766713e+01 6.199508e+01 5.011323e+01 4.795121e+01 4.418231e+01 7.311917e+01 7.271217e+01 4.989167e+01 3.548259e+01 4.607761e+01 7.252017e-01 1.172775e+00 1.635423e+00 2.329761e+00 2.391328e+00 1.873506e+00 1.697127e+00 1.034148e+00 2.311559e+00 1.541049e+00 1.639180e+00 1.272329e+00 1.768161e+00 9.136555e-02 1.314155e-01 1.650480e-01 2.397884e-01 2.445127e-01 1.994471e-01 1.924912e-01 1.408202e-01 2.821579e-01 2.249317e-01 2.006314e-01 1.571836e-01 1.624487e-01
<GCONST> 1.053257e+02
<TRANSP> 5
 0.000000e+00 1.000000e+00 0.000000e+00 0.000000e+00 0.000000e+00
 0.000000e+00 6.308101e-01 3.691898e-01 0.000000e+00 0.000000e+00
 0.000000e+00 0.000000e+00 6.415288e-01 3.584711e-01 0.000000e+00
 0.000000e+00 0.000000e+00 0.000000e+00 7.927768e-01 2.072232e-01
 0.000000e+00 0.000000e+00 0.000000e+00 0.000000e+00 0.000000e+00
<ENDHMM>
~h "p"
<BEGINHMM>
<NUMSTATES> 5
<STATE> 2
<MEAN> 39
 -2.558888e+00 -6.870685e-01 -3.478530e+00 3.957813e+00 7.760097e-01 8.271902e-01 1.182741e+00 8.106579e-01 5.034179e-01 -8.455561e-01 2.198187e+00 -1.231075e+00 -3.268391e+00 -1.288195e-01 -1.667375e-01 -1.509678e-01 3.188053e-01 2.579053e-01 1.290127e-01 2.010750e-01 8.083660e-02 1.835926e-01 1.991512e-01 2.137419e-01 1.410388e-02 -5.927912e-01 1.983427e-02 -6.545994e-02 4.026223e-02 -9.560630e-02 -6.377304e-02 -8.339526e-02 -6.686985e-03 4.058546e-02 2.543936e-02 2.204894e-02 -4.520269e-02 1.949669e-02 2.278583e-01
<VARIANCE> 39
 8.750282e+01 7.052767e+01 3.271113e+01 5.169968e+01 5.944425e+01 5.189441e+01 3.996596e+01 3.989189e+01 4.852484e+01 3.534444e+01 2.859394e+01 2.564181e+01 7.511611e+01 8.741192e-01 8.618268e-01 7.557817e-01 8.479348e-01 9.630026e-01 8.634223e-01 8.200517e-01 8.503934e-01 8.262176e-01 6.815795e-01 6.587976e-01 5.636860e-01 1.607957e+00 1.032067e-01 8.266795e-02 7.708491e-02 1.053930e-01 1.077815e-01 1.154803e-01 1.121661e-01 1.013987e-01 1.004354e-01 9.932549e-02 8.418792e-02 6.852992e-02 1.404783e-01
<GCONST> 8.908201e+01
<STATE> 3
<MEAN> 39
 -1.602701e+00 -2.970890e+00 -3.210601e+00 3.705945e+00 2.053583e+00 2.488880e+00 2.181589e+00 1.547385e+00 2.520064e+00 1.086274e+00 2.094051e+00 -2.107339e-01 -6.043602e+00 -1.238153e-01 -2.160006e-01 1.354363e-01 6.535445e-02 -3.919103e-02 -1.186910e-01 1.975734e-01 2.685088e-01 3.596585e-01 3.160896e-01 1.691331e-01 4.065275e-02 1.512827e-01 9.612735e-02 -2.570689e-02 6.074360e-02 -1.284451e-01 -1.267887e-01 -1.231472e-01 -6.655952e-02 4.688912e-02 -1.533684e-02 -6.243555e-02 -1.039593e-01 -1.027411e-02 3.841016e-01
<VARIANCE> 39
 8.804823e+01 4.535524e+01 4.320823e+01 4.069283e+01 4.578228e+01 4.119279e+01 4.360552e+01 3.939991e+01 4.786260e+01 4.201786e+01 2.463185e+01 2.263438e+01 9.270506e+01 1.300391e+00 1.226038e+00 1.069630e+00 9.508180e-01 1.145177e+00 1.176018e+00 8.771733e-01 9.298899e-01 1.002365e+00 8.228822e-01 7.545008e-01 6.089709e-01 2.759884e+00 1.454937e-01 1.264833e-01 1.241976e-01 1.174207e-01 1.273457e-01 1.614884e-01 1.354366e-01 1.131606e-01 1.163554e-01 1.181797e-01 1.122619e-01 7.967512e-02 2.177818e-01
<GCONST> 9.470125e+01
<STATE> 4
<MEAN> 39
 -1.124578e+00 -5.193968e+00 -2.160451e+00 3.796713e+00 2.146736e+00 1.280085e+00 3.138424e+00 3.065462e+00 2.137911e+00 1.138893e+00 1.768644e+00 1.881618e-01 -5.637605e+00 4.783431e-01 -2.618708e-01 3.169590e-02 -2.881644e-01 -3.148364e-01 -3.570650e-01 -1.363996e-01 1.095324e-01 6.225075e-02 -1.585002e-01 -3.695300e-01 -8.773386e-03 1.311297e+00 8.299574e-02 3.710636e-02 -9.873267e-03 -1.023009e-01 -5.723107e-02 -7.384083e-03 -9.446473e-02 -1.034983e-02 -4.916673e-02 -8.083864e-02 -8.912675e-02 1.401849e-02 1.103408e-01
<VARIANCE> 39
 1.141395e+02 4.986307e+01 5.222253e+01 5.518048e+01 6.873574e+01 5.708717e+01 4.064742e+01 3.338197e+01 6.811133e+01 4.431977e+01 3.488600e+01 2.419933e+01 3.307308e+02 2.750627e+00 1.602944e+00 1.468309e+00 1.933104e+00 1.913005e+00 2.497574e+00 1.258083e+00 8.545306e-01 1.556840e+00 1.273326e+00 1.256820e+00 7.710950e-01 9.645967e+00 2.438441e-01 1.562686e-01 1.620877e-01 2.057747e-01 2.038703e-01 2.499395e-01 1.257311e-01 9.430771e-02 1.648073e-01 1.397080e-01 1.383723e-01 9.671761e-02 7.771987e-01
<GCONST> 1.089963e+02
<TRANSP> 5
 0.000000e+00 1.000000e+00 0.000000e+00 0.000000e+00 0.000000e+00
 0.000000e+00 5.645238e-01 4.354762e-01 0.000000e+00 0.000000e+00
 0.000000e+00 0.000000e+00 4.296532e-01 5.703468e-01 0.000000e+00
 0.000000e+00 0.000000e+00 0.000000e+00 7.474631e-01 2.525369e-01
 0.000000e+00 0.000000e+00 0.000000e+00 0.000000e+00 0.000000e+00
<ENDHMM>
~h "r"
<BEGINHMM>
<NUMSTATES> 5
<STATE> 2
<MEAN> 39
 -2.940940e+00 -1.599848e+00 -3.844061e-01 3.878377e+00 9.707087e-01 1.196930e+00 1.765056e+00 2.888089e+00 1.427088e+00 -1.042451e-01 3.019605e+00 1.093773e+00 -7.559231e+00 -3.970695e-02 1.964722e-02 1.503547e-01 9.494740e-02 1.040671e-01 1.777602e-01 -7.996098e-02 1.063296e-01 8.904076e-02 3.437388e-02 1.776655e-01 5.646509e-02 -4.343126e-01 5.200257e-02 4.769994e-03 -1.463674e-02 -6.924020e-02 -2.542182e-02 -3.063601e-02 -3.661364e-02 -2.860624e-02 -2.905339e-02 2.013770e-02 -3.505911e-02 -4.441175e-02 5.730200e-02
<VARIANCE> 39
 6.637744e+01 4.116491e+01 4.719495e+01 5.144222e+01 7.332721e+01 4.857024e+01 4.448324e+01 4.005122e+01 4.610688e+01 4.880165e+01 4.231200e+01 2.118067e+01 3.755026e+02 1.074580e+00 7.504240e-01 8.939646e-01 7.273578e-01 1.177637e+00 9.310709e-01 8.439779e-01 1.022727e+00 9.910991e-01 9.242464e-01 7.889835e-01 4.783182e-01 1.428179e+00 9.625029e-02 7.025044e-02 7.397019e-02 8.795868e-02 1.175391e-01 9.285929e-02 9.265728e-02 1.164129e-01 1.153269e-01 1.011430e-01 8.385311e-02 6.307625e-02 9.240826e-02
<GCONST> 9.093336e+01
<STATE> 3
<MEAN> 39
 2.283279e-01 -2.558098e+00 5.331226e-01 1.992072e+00 -1.148742e+00 -1.744598e-02 4.711531e-01 2.699359e+00 2.101696e+00 -3.039974e-01 1.149117e+00 1.006348e+00 1.678701e+00 1.230383e-01 -4.136310e-02 2.736227e-01 -1.341491e-01 -1.804315e-01 1.867594e-02 -2.462565e-01 -3.900401e-02 -8.678508e-02 9.987233e-02 1.267594e-01 -1.193219e-01 4.492392e-02 6.786693e-02 9.237926e-03 -3.551345e-02 -1.318627e-01 -6.351212e-02 -6.976944e-02 -3.142110e-02 -5.442902e-02 -5.327990e-02 4.103014e-02 -1.039559e-01 -5.731831e-02 1.322008e-01
<VARIANCE> 39
 4.503863e+01 3.639013e+01 4.941661e+01 4.897084e+01 6.862908e+01 5.560025e+01 4.939752e+01 4.062555e+01 5.275546e+01 3.831366e+01 3.540908e+01 2.251576e+01 1.687677e+02 8.266324e-01 8.263319e-01 1.369450e+00 8.658491e-01 1.537757e+00 1.107701e+00 1.112574e+00 1.140241e+00 1.372748e+00 1.190685e+00 1.007145e+00 5.774620e-01 1.545844e+00 8.602322e-02 8.840753e-02 1.148314e-01 1.071935e-01 1.639416e-01 1.218427e-01 1.325401e-01 1.357190e-01 1.422467e-01 1.170759e-01 1.165032e-01 8.474956e-02 1.279258e-01
<GCONST> 9.511061e+01
<STATE> 4
<MEAN> 39
 2.590781e-01 -2.990923e+00 6.074021e-01 1.101439e+00 -9.554777e-01 -2.307197e-01 1.474042e-01 3.146565e+00 2.402210e+00 -4.123573e-01 5.719925e-01 3.916774e-01 1.514131e+00 3.903246e-01 -1.032929e-01 1.190859e-01 -4.000694e-01 -4.314827e-01 -2.352947e-01 -3.187942e-01 -9.698717e-02 -6.424403e-02 1.159825e-01 -2.679588e-01 -1.646777e-01 9.375491e-01 5.142635e-02 1.746440e-02 -7.765019e-02 -6.912101e-02 -1.812405e-02 -2.211234e-02 2.444912e-02 -5.689564e-02 -3.044907e-02 1.217849e-02 -9.529297e-02 -3.215282e-03 9.681312e-02
<VARIANCE> 39
 5.242524e+01 4.565526e+01 5.490544e+01 4.490329e+01 7.019583e+01 5.278249e+01 5.571596e+01 4.578074e+01 5.348349e+01 4.200490e+01 4.639031e+01 2.361993e+01 2.291050e+02 1.389461e+00 1.378162e+00 1.811124e+00 1.247735e+00 2.089670e+00 1.414046e+00 1.562585e+00 1.301551e+00 1.717904e+00 1.377026e+00 1.579532e+00 6.928006e-01 4.559884e+00 1.370226e-01 1.256650e-01 1.509953e-01 1.222345e-01 1.977482e-01 1.526794e-01 1.541700e-01 1.360621e-01 1.519521e-01 1.260917e-01 1.618745e-01 9.141447e-02 3.512535e-01
<GCONST> 1.045737e+02
<TRANSP> 5
 0.000000e+00 1.000000e+00 0.000000e+00 0.000000e+00 0.000000e+00
 0.000000e+00 6.341087e-01 3.658914e-01 0.000000e+00 0.000000e+00
 0.000000e+00 0.000000e+00 2.365354e-01 7.634646e-01 0.000000e+00
 0.000000e+00 0.000000e+00 0.000000e+00 4.482610e-01 5.517390e-01
 0.000000e+00 0.000000e+00 0.000000e+00 0.000000e+00 0.000000e+00
<ENDHMM>
~h "s"
<BEGINHMM>
<NUMSTATES> 5
<STATE> 2
<MEAN> 39
 -9.760560e+00 9.434794e+00 -1.669172e+00 3.010388e+00 -1.118246e+00 -5.928154e+00 3.704720e+00 -1.314586e+00 1.880543e-01 9.783741e-01 2.346882e+00 2.558283e-02 5.791248e+00 -1.999049e+00 1.036607e+00 -7.837712e-01 5.762814e-01 8.201334e-01 -2.459361e-01 5.720247e-01 1.477635e-02 -1.240506e-01 4.590059e-02 3.376471e-01 -1.496819e-01 -2.579818e-01 6.403742e-02 -2.041144e-01 5.807151e-02 -1.048120e-01 -3.500500e-02 5.548839e-02 -1.064948e-01 5.027543e-02 -2.223319e-02 -1.700446e-02 -4.936367e-02 -1.064754e-02 7.309063e-03
<VARIANCE> 39
 1.083744e+02 5.889564e+01 8.617351e+01 6.114928e+01 8.661903e+01 6.800184e+01 7.229031e+01 5.554020e+01 5.246640e+01 5.613290e+01 4.233901e+01 3.576097e+01 4.049418e+01 1.506023e+00 1.703190e+00 1.358485e+00 1.993599e+00 1.763924e+00 1.604576e+00 1.591065e+00 1.517032e+00 1.401271e+00 1.228565e+00 1.463440e+00 9.684261e-01 4.903713e-01 2.557421e-01 1.845043e-01 1.588866e-01 1.967763e-01 1.862729e-01 1.504695e-01 1.825479e-01 1.618032e-01 1.510674e-01 1.277730e-01 1.620516e-01 1.127504e-01 4.378745e-02
<GCONST> 1.043440e+02
<STATE> 3
<MEAN> 39
 -1.646260e+01 9.502798e+00 -3.694679e+00 4.440351e+00 1.192468e+00 -6.265022e+00 4.211479e+00 -3.117523e-01 -4.167517e-01 5.990795e-01 3.226961e+00 -7.308323e-01 4.657110e+00 6.665591e-01 -6.004579e-01 2.591254e-01 -4.669592e-01 -6.484306e-02 3.912065e-03 -2.547275e-01 2.433658e-02 9.276319e-02 -2.357877e-01 -2.393574e-01 7.215211e-02 1.066106e-01 4.679542e-01 -1.100888e-01 7.197420e-02 -1.307856e-01 -1.510877e-01 3.912308e-02 -1.172369e-01 -5.407679e-02 1.930582e-02 -3.259469e-02 -1.032061e-01 4.135581e-02 6.681656e-02
<VARIANCE> 39
 1.013763e+02 4.195703e+01 6.616838e+01 7.027853e+01 8.364465e+01 7.655300e+01 5.121198e+01 6.321576e+01 4.530692e+01 5.405264e+01 4.385636e+01 3.742110e+01 3.161242e+01 3.632638e+00 1.399013e+00 1.966230e+00 2.082834e+00 1.609155e+00 1.939684e+00 1.431188e+00 1.866295e+00 1.256602e+00 1.367968e+00 1.428759e+00 8.447555e-01 1.128715e+00 2.492241e-01 1.713563e-01 1.655605e-01 2.083045e-01 1.521618e-01 2.128154e-01 1.712624e-01 1.925357e-01 1.720963e-01 1.776891e-01 1.440720e-01 1.171148e-01 9.571344e-02
<GCONST> 1.067132e+02
<STATE> 4
<MEAN> 39
 -4.454278e+00 5.498113e+00 -3.992743e+00 -1.271697e+00 2.823715e+00 -5.657485e+00 3.031958e-01 4.304264e-01 8.042418e-01 -2.306912e-01 5.804273e-01 3.745909e-01 6.286489e+00 1.628950e+00 -5.586991e-01 1.357414e-01 -5.406091e-01 -3.361574e-01 3.728097e-01 -6.216618e-01 -1.272514e-01 1.645070e-01 2.320142e-02 -2.547017e-01 -1.655530e-02 2.729566e-01 -1.827708e-02 3.898060e-02 -2.542704e-02 6.084760e-02 2.081844e-02 7.174854e-02 1.227916e-02 -4.789653e-02 -4.398460e-02 3.591150e-02 2.004410e-02 -9.992932e-03 -3.905213e-02
<VARIANCE> 39
 1.182348e+02 4.482262e+01 7.994629e+01 4.860954e+01 6.956917e+01 5.146246e+01 7.485532e+01 6.015926e+01 5.449191e+01 5.109977e+01 4.827457e+01 2.500123e+01 3.847668e+01 2.551845e+00 1.391738e+00 1.741524e+00 1.841180e+00 1.612192e+00 1.334409e+00 1.911721e+00 1.530165e+00 1.874317e+00 1.963544e+00 1.504051e+00 9.915810e-01 1.340647e+00 2.869323e-01 1.382399e-01 1.549812e-01 1.701929e-01 1.717348e-01 1.434107e-01 2.676466e-01 1.713227e-01 2.100946e-01 2.044978e-01 1.754335e-01 9.931539e-02 1.448725e-01
<GCONST> 1.072811e+02
<TRANSP> 5
 0.000000e+00 1.000000e+00 0.000000e+00 0.000000e+00 0.000000e+00
 0.000000e+00 8.271368e-01 1.728633e-01 0.000000e+00 0.000000e+00
 0.000000e+00 0.000000e+00 7.834688e-01 2.165312e-01 0.000000e+00
 0.000000e+00 0.000000e+00 0.000000e+00 7.677448e-01 2.322551e-01
 0.000000e+00 0.000000e+00 0.000000e+00 0.000000e+00 0.000000e+00
<ENDHMM>
~h "t"
<BEGINHMM>
<NUMSTATES> 5
<STATE> 2
<MEAN> 39
 -2.714133e-01 2.231278e-01 -7.476207e-01 2.753039e+00 1.449521e+00 -4.676373e-01 2.282907e+00 2.289113e-01 1.504364e-01 -9.788901e-01 4.812462e-01 1.531695e-01 -2.489238e+00 -3.621967e-01 -4.276544e-01 -1.625676e-01 -1.590016e-01 1.006607e-01 -3.792508e-02 1.677135e-01 3.072473e-01 3.452102e-01 7.253437e-02 2.230478e-01 2.470207e-02 1.463476e-01 4.128304e-02 -6.163878e-02 6.167416e-02 -1.408134e-01 -9.693736e-02 -8.822224e-02 -4.293863e-02 4.727606e-02 2.554918e-02 -1.935847e-03 -7.221215e-02 -1.979819e-02 3.886998e-01
<VARIANCE> 39
 5.365389e+01 5.049840e+01 7.247186e+01 4.510841e+01 5.693195e+01 5.042774e+01 6.551871e+01 5.622145e+01 5.640191e+01 4.180645e+01 3.563792e+01 2.617187e+01 1.311729e+02 1.306087e+00 1.308187e+00 1.397652e+00 1.162588e+00 1.195083e+00 1.695912e+00 1.763728e+00 1.719741e+00 1.888654e+00 1.320111e+00 9.317971e-01 6.495429e-01 3.184698e+00 1.820159e-01 1.368499e-01 1.240942e-01 1.212169e-01 1.363037e-01 2.019341e-01 2.215624e-01 1.724500e-01 1.892479e-01 1.408567e-01 1.228638e-01 8.730510e-02 3.427385e-01
<GCONST> 1.037578e+02
<STATE> 3
<MEAN> 39
 -2.118257e+00 -2.049495e+00 -4.612330e-01 2.388701e-01 6.561409e-01 -2.234454e+00 1.469276e+00 1.087757e+00 2.626797e+00 3.516268e-01 1.066415e+00 -1.056028e-01 2.081714e+00 2.624062e-01 -4.670821e-01 -4.474508e-02 -6.195846e-01 -4.085045e-01 -4.303182e-01 -2.183452e-01 4.109197e-01 3.418922e-01 -3.542786e-02 -3.502835e-01 -6.659622e-02 1.764214e+00 2.019740e-01 9.586916e-02 1.848961e-02 -8.706382e-02 -1.085681e-01 1.746340e-02 -1.268577e-01 -7.980436e-02 -1.339405e-01 -1.716037e-02 -1.368047e-01 -4.910878e-02 1.311941e-01
<VARIANCE> 39
 5.112025e+01 4.536303e+01 6.085463e+01 4.264724e+01 5.774174e+01 5.345949e+01 5.256497e+01 4.988520e+01 5.558251e+01 4.458892e+01 4.373632e+01 2.613152e+01 1.308376e+02 1.738266e+00 1.900986e+00 1.989911e+00 1.562745e+00 1.669722e+00 1.968822e+00 2.758384e+00 2.299211e+00 2.666148e+00 1.606603e+00 1.504154e+00 9.241875e-01 5.171881e+00 1.834091e-01 1.582933e-01 1.411836e-01 1.335856e-01 1.685700e-01 1.929409e-01 2.018152e-01 2.057074e-01 1.984248e-01 1.744996e-01 1.690561e-01 1.029126e-01 4.166708e-01
<GCONST> 1.093118e+02
<STATE> 4
<MEAN> 39
 1.185846e+00 -1.908814e+00 1.694640e+00 -3.474792e+00 -4.140280e+00 -3.906958e+00 -1.544961e+00 7.395747e-01 9.401348e-01 -1.068850e+00 -2.172853e+00 -1.440075e-01 1.011542e+01 3.951920e-01 -5.624529e-02 -1.347612e-01 -2.955825e-01 -1.650142e-01 1.416576e-03 -1.563920e-01 2.682684e-02 -1.718968e-01 -4.892599e-02 -2.149656e-01 -6.692594e-02 5.100390e-01 -3.622944e-03 8.393484e-02 2.725505e-02 5.661561e-02 4.319296e-02 1.250288e-01 4.440315e-02 -9.180333e-02 -1.063430e-01 1.961034e-02 3.896548e-02 -3.722386e-03 -1.916337e-01
<VARIANCE> 39
 3.367887e+01 4.932423e+01 8.294691e+01 5.509756e+01 5.183126e+01 4.875948e+01 6.519202e+01 6.260190e+01 8.013647e+01 4.647670e+01 4.377076e+01 3.045108e+01 8.572763e+01 1.461056e+00 1.674800e+00 1.970702e+00 2.006765e+00 1.242650e+00 1.324438e+00 2.004364e+00 2.015776e+00 1.996032e+00 1.556231e+00 1.513793e+00 1.062979e+00 2.975429e+00 1.230439e-01 1.469074e-01 1.684885e-01 1.778920e-01 1.499554e-01 1.796910e-01 2.457028e-01 2.261421e-01 2.301053e-01 1.719584e-01 1.542029e-01 1.239420e-01 3.155350e-01
<GCONST> 1.080362e+02
<TRANSP> 5
 0.000000e+00 1.000000e+00 0.000000e+00 0.000000e+00 0.000000e+00
 0.000000e+00 5.760279e-01 4.239721e-01 0.000000e+00 0.000000e+00
 0.000000e+00 0.000000e+00 5.150177e-01 4.849823e-01 0.000000e+00
 0.000000e+00 0.000000e+00 0.000000e+00 6.767312e-01 3.232688e-01
 0.000000e+00 0.000000e+00 0.000000e+00 0.000000e+00 0.000000e+00
<ENDHMM>
~h "u"
<BEGINHMM>
<NUMSTATES> 5
<STATE> 2
<MEAN> 39
 6.301401e+00 2.762774e+00 -3.589250e+00 -2.495077e+00 8.684676e-01 -1.707049e+00 -6.699449e+00 -4.283763e+00 -7.413653e-01 2.617029e+00 2.738112e+00 1.009992e+00 2.668771e+00 1.470888e-01 3.657165e-01 -1.838785e-01 -1.255602e-01 2.014841e-01 3.156596e-01 9.156334e-02 -3.116542e-01 -3.035342e-01 1.731718e-02 2.468182e-01 7.155441e-02 -5.869914e-01 -1.142654e-01 -4.372741e-02 9.461748e-02 9.361593e-02 -4.123149e-03 -6.862879e-03 1.996244e-01 1.154391e-01 1.315574e-02 -1.174636e-01 -6.931080e-02 -1.571263e-03 -7.347370e-02
<VARIANCE> 39
 3.291824e+01 2.749596e+01 4.697534e+01 4.352974e+01 3.619407e+01 4.959842e+01 6.122298e+01 4.002504e+01 4.624181e+01 4.644562e+01 3.614665e+01 2.794135e+01 6.006752e+01 7.774870e-01 6.616333e-01 8.814989e-01 1.187696e+00 9.500360e-01 1.137273e+00 1.605090e+00 1.032236e+00 1.314580e+00 1.055825e+00 7.960550e-01 6.601532e-01 7.881895e-01 6.874102e-02 6.909145e-02 8.442668e-02 1.048619e-01 1.085895e-01 1.339827e-01 1.933448e-01 1.183525e-01 1.378616e-01 1.348832e-01 1.025403e-01 9.236964e-02 6.779665e-02
<GCONST> 9.008060e+01
<STATE> 3
<MEAN> 39
 5.106046e+00 3.419487e+00 -2.925791e+00 -1.167454e+00 1.650746e+00 -8.782402e-01 -3.534190e+00 -3.025111e+00 -2.031498e+00 8.436592e-01 2.528124e+00 7.774302e-01 -1.642675e+00 -3.597680e-01 8.392453e-02 1.500909e-01 2.961216e-01 2.179005e-01 2.189227e-01 5.033795e-01 1.704004e-01 -8.457757e-02 -2.441130e-01 5.954765e-03 1.446154e-02 -8.377228e-01 -8.338660e-02 -7.734879e-02 4.278196e-02 5.114421e-02 -2.772542e-02 -5.567791e-02 1.831631e-02 7.269962e-02 5.912837e-02 -2.626421e-02 -3.697006e-02 -2.355076e-02 3.616020e-02
<VARIANCE> 39
 4.606578e+01 3.299854e+01 4.459015e+01 4.965471e+01 4.132063e+01 4.643621e+01 4.983158e+01 4.493928e+01 4.011801e+01 4.401369e+01 3.764624e+01 2.477068e+01 1.014412e+02 7.598488e-01 6.851768e-01 7.514265e-01 9.255909e-01 7.906222e-01 1.001075e+00 1.018016e+00 8.518395e-01 9.233209e-01 8.476817e-01 6.579449e-01 6.124518e-01 9.338316e-01 6.525581e-02 5.911342e-02 7.294471e-02 9.439763e-02 9.101588e-02 1.110865e-01 1.196772e-01 1.068453e-01 1.108719e-01 1.070985e-01 7.722288e-02 7.596720e-02 9.543083e-02
<GCONST> 8.688808e+01
<STATE> 4
<MEAN> 39
 -2.324005e-01 2.275233e+00 -1.780379e+00 2.840167e-01 2.658299e+00 7.626041e-01 -6.422661e-01 -2.218056e+00 -1.882533e+00 -9.173195e-01 1.170066e+00 1.355217e+00 -6.224461e+00 -2.853805e-01 -6.623484e-02 6.910378e-02 1.697007e-01 1.462344e-01 6.026375e-02 1.378365e-01 1.070580e-01 5.286887e-02 -7.525373e-02 1.170342e-02 2.209019e-02 -3.974517e-01 1.338596e-02 -2.882470e-02 1.347784e-02 -2.331153e-02 -1.967521e-02 -2.376721e-02 -3.490383e-02 8.989081e-03 2.299063e-02 2.663169e-02 7.085797e-03 -1.862990e-02 7.018128e-02
<VARIANCE> 39
 4.130222e+01 1.850060e+01 2.655279e+01 2.390424e+01 2.896662e+01 3.223318e+01 3.156791e+01 3.111100e+01 3.753932e+01 3.089935e+01 2.954513e+01 1.969485e+01 1.460905e+02 4.979448e-01 3.277277e-01 4.147769e-01 5.002707e-01 4.332863e-01 5.285013e-01 6.137881e-01 5.181176e-01 5.600269e-01 5.762734e-01 4.613495e-01 3.716151e-01 7.232311e-01 4.480999e-02 3.333723e-02 4.320982e-02 5.370918e-02 5.282960e-02 6.444322e-02 7.093155e-02 6.349721e-02 6.779970e-02 7.202868e-02 5.939620e-02 4.745955e-02 6.022558e-02
<GCONST> 7.002028e+01
<TRANSP> 5
 0.000000e+00 1.000000e+00 0.000000e+00 0.000000e+00 0.000000e+00
 0.000000e+00 6.581476e-01 3.418524e-01 0.000000e+00 0.000000e+00
 0.000000e+00 0.000000e+00 4.935558e-01 5.064442e-01 0.000000e+00
 0.000000e+00 0.000000e+00 0.000000e+00 8.785421e-01 1.214579e-01
 0.000000e+00 0.000000e+00 0.000000e+00 0.000000e+00 0.000000e+00
<ENDHMM>
~h "w"
<BEGINHMM>
<NUMSTATES> 5
<STATE> 2
<MEAN> 39
 6.636929e+00 -3.013326e+00 -7.737270e+00 -1.932998e+00 5.215379e+00 2.322949e+00 -2.299881e+00 4.652477e-01 2.857231e+00 6.449649e-01 -1.343920e+00 -1.862550e+00 5.498433e+00 4.709564e-01 -3.356289e-01 -7.714077e-01 -5.147122e-01 2.887185e-01 5.880780e-01 -3.011433e-01 -2.662087e-02 3.624465e-01 3.571870e-01 -2.475924e-01 -4.879060e-01 6.680624e-01 -7.106871e-02 -1.693497e-02 6.682581e-02 1.268944e-02 -8.517622e-02 -3.211803e-02 7.269133e-02 4.292853e-02 -3.195547e-02 -4.698016e-02 -4.181779e-02 4.453017e-02 4.150392e-02
<VARIANCE> 39
 5.523861e+01 5.984145e+01 5.946926e+01 7.261732e+01 4.514275e+01 5.822356e+01 5.044634e+01 4.338095e+01 5.521857e+01 5.229370e+01 6.033311e+01 3.768882e+01 6.421393e+01 1.037664e+00 1.528100e+00 1.413864e+00 1.722857e+00 1.108983e+00 1.719007e+00 1.493625e+00 1.078501e+00 1.699076e+00 1.476976e+00 1.728464e+00 9.689949e-01 2.352827e+00 1.100712e-01 1.699340e-01 1.359630e-01 1.843615e-01 1.405263e-01 1.867940e-01 1.846816e-01 1.393524e-01 1.765908e-01 1.894478e-01 2.008781e-01 1.109007e-01 2.126330e-01
<GCONST> 1.046255e+02
<STATE> 3
<MEAN> 39
 7.627746e+00 -2.966470e+00 -9.519942e+00 -4.398314e+00 5.772495e+00 4.150319e+00 -3.279052e+00 5.437406e-01 2.981803e+00 2.669126e+00 -1.755866e+00 -4.092772e+00 7.240444e+00 1.379904e-01 -9.495122e-02 2.472676e-03 -1.165194e-01 -1.374056e-01 1.673820e-02 1.410449e-01 7.596728e-02 2.650145e-02 -8.746181e-03 -1.771740e-01 -8.382936e-02 1.003845e-01 -1.195426e-01 7.103145e-03 2.183796e-01 1.163070e-01 -1.446809e-01 -1.708473e-01 1.144146e-01 4.213018e-02 -4.403628e-02 -1.454304e-01 -3.029569e-02 1.736140e-01 -3.630922e-02
<VARIANCE> 39
 4.924337e+01 5.116429e+01 5.884652e+01 6.097760e+01 3.860998e+01 6.095852e+01 4.952476e+01 3.975176e+01 4.893583e+01 5.081226e+01 5.277347e+01 3.457708e+01 4.002560e+01 9.935932e-01 1.264376e+00 1.019113e+00 1.288591e+00 1.156169e+00 1.365621e+00 1.684079e+00 1.235051e+00 1.475114e+00 1.354927e+00 2.042211e+00 9.723965e-01 1.187924e+00 8.372678e-02 1.238340e-01 1.158606e-01 1.539833e-01 1.345140e-01 1.302960e-01 1.695892e-01 1.284522e-01 1.585920e-01 1.768631e-01 1.810107e-01 1.080057e-01 1.355939e-01
<GCONST> 9.932854e+01
<STATE> 4
<MEAN> 39
 6.728178e+00 -2.851723e+00 -9.606732e+00 -5.242990e+00 4.359698e+00 3.693491e+00 -7.302794e-01 3.383920e-01 2.161769e+00 3.597823e-01 -2.666571e+00 -2.977168e+00 6.347444e+00 -1.210273e-01 1.074979e-01 4.535459e-01 1.381651e-01 -4.281783e-01 -4.280943e-01 1.829791e-01 1.030063e-01 -1.513192e-01 -1.910767e-01 -2.550409e-02 2.779534e-01 -1.911560e-01 -4.642887e-02 2.798525e-02 1.084352e-01 6.106545e-02 -5.957974e-02 -5.519300e-02 2.817024e-03 9.334139e-03 -1.916313e-02 2.588734e-03 4.204427e-02 3.747416e-02 -1.687853e-03
<VARIANCE> 39
 3.559212e+01 5.154174e+01 5.417315e+01 6.432305e+01 4.455252e+01 5.458523e+01 5.258562e+01 3.758534e+01 4.240211e+01 5.216657e+01 5.021172e+01 3.156718e+01 4.243479e+01 8.676005e-01 8.751580e-01 9.518969e-01 1.065793e+00 1.074827e+00 9.620367e-01 1.347638e+00 1.239623e+00 1.059743e+00 1.037884e+00 9.853773e-01 8.188831e-01 1.169896e+00 8.094457e-02 9.570720e-02 9.910788e-02 1.260495e-01 1.057175e-01 1.189026e-01 1.497661e-01 1.399225e-01 1.259558e-01 1.184944e-01 1.271688e-01 9.621794e-02 1.090311e-01
<GCONST> 9.356546e+01
<TRANSP> 5
 0.000000e+00 1.000000e+00 0.000000e+00 0.000000e+00 0.000000e+00
 0.000000e+00 6.553013e-01 3.446986e-01 0.000000e+00 0.000000e+00
 0.000000e+00 0.000000e+00 5.273548e-01 4.726452e-01 0.000000e+00
 0.000000e+00 0.000000e+00 0.000000e+00 7.363430e-01 2.636570e-01
 0.000000e+00 0.000000e+00 0.000000e+00 0.000000e+00 0.000000e+00
<ENDHMM>
~h "y"
<BEGINHMM>
<NUMSTATES> 5
<STATE> 2
<MEAN> 39
 -2.495701e+00 4.659072e+00 1.059632e+01 -6.280491e+00 -4.298786e+00 1.140930e-01 -2.980930e+00 -4.820361e+00 -2.737767e+00 -2.185894e-01 -1.437436e+00 -3.086772e-01 7.756562e+00 3.927059e-02 2.048203e-01 9.519222e-01 -8.243337e-01 -7.360740e-01 2.794842e-02 -4.193090e-01 -2.265861e-01 7.972946e-03 1.615531e-01 -6.420214e-02 1.528067e-01 5.925590e-01 1.004229e-01 -1.288566e-01 -1.807990e-01 6.702428e-02 -3.270704e-02 -3.276081e-02 9.599552e-02 1.205629e-01 6.385583e-02 3.532248e-02 1.564147e-02 1.331661e-03 -3.862874e-02
<VARIANCE> 39
 3.544532e+01 5.270012e+01 6.500052e+01 8.207579e+01 5.074892e+01 4.860784e+01 5.649453e+01 5.543265e+01 5.470496e+01 4.304987e+01 6.176919e+01 3.888712e+01 4.153146e+01 9.522625e-01 1.360497e+00 1.942880e+00 1.509532e+00 1.724087e+00 1.717869e+00 1.392004e+00 1.810340e+00 1.553525e+00 1.152840e+00 1.232439e+00 1.082529e+00 1.291395e+00 8.237568e-02 1.507531e-01 1.940972e-01 1.235774e-01 1.853912e-01 1.691734e-01 1.954470e-01 1.786075e-01 1.488215e-01 1.428744e-01 1.526355e-01 1.448424e-01 7.661922e-02
<GCONST> 1.022308e+02
<STATE> 3
<MEAN> 39
 -1.405330e+00 3.765884e+00 1.181357e+01 -9.801678e+00 -9.285235e+00 1.713760e-01 -1.908327e+00 -3.989165e+00 -1.494451e+00 1.696126e+00 -7.837727e-01 9.910434e-02 1.054318e+01 4.349444e-01 -9.171818e-01 -8.609498e-01 2.698466e-01 -3.032521e-01 -3.407852e-01 5.527893e-01 7.911061e-01 -5.094896e-02 1.001054e-02 1.320107e-01 -1.487539e-01 3.199997e-01 4.941314e-02 -1.216160e-01 -2.926290e-01 2.253933e-01 2.700885e-01 -9.072235e-02 1.684065e-02 1.375870e-01 -2.252726e-03 -1.028710e-01 -4.687041e-02 4.355625e-03 -7.473038e-02
<VARIANCE> 39
 2.401681e+01 5.283346e+01 6.587468e+01 9.240225e+01 5.228887e+01 5.666931e+01 6.450277e+01 7.768272e+01 6.822952e+01 3.997289e+01 6.519612e+01 3.606833e+01 3.864163e+01 4.262406e-01 1.612975e+00 1.880528e+00 1.430557e+00 1.676912e+00 1.765178e+00 2.293792e+00 1.794576e+00 1.918878e+00 1.439446e+00 1.167657e+00 1.039996e+00 7.748573e-01 4.264786e-02 1.455977e-01 1.571675e-01 1.488877e-01 2.151395e-01 1.933947e-01 2.440539e-01 1.990897e-01 1.889139e-01 1.421333e-01 1.478808e-01 1.193135e-01 7.639805e-02
<GCONST> 1.021817e+02
<STATE> 4
<MEAN> 39
 2.487644e+00 -1.787901e+00 5.379288e+00 -4.358283e+00 -7.280259e+00 -3.226828e+00 -3.247715e-01 2.580160e+00 -2.904680e+00 1.611654e-01 1.323415e-01 -5.917078e-01 1.019043e+01 4.471959e-01 -4.689202e-01 -1.170946e+00 5.875938e-01 7.384680e-01 -2.967847e-01 -3.287022e-02 4.968937e-01 2.169450e-01 -1.948441e-01 -2.297059e-01 4.615981e-02 -1.904701e-01 -1.662492e-02 1.384171e-01 4.748835e-02 3.773338e-02 1.175406e-01 8.740732e-02 -9.579755e-02 -1.908441e-01 2.831137e-02 2.053158e-02 6.401753e-04 1.225729e-02 -1.403289e-01
<VARIANCE> 39
 2.751490e+01 4.153140e+01 7.206865e+01 5.747723e+01 4.903022e+01 6.047960e+01 6.810727e+01 7.890250e+01 6.537781e+01 3.654502e+01 5.026305e+01 3.004922e+01 4.082177e+01 3.474040e-01 1.024907e+00 1.500496e+00 1.284883e+00 1.388493e+00 1.617584e+00 1.748454e+00 1.873056e+00 1.668306e+00 1.226853e+00 1.260020e+00 7.642279e-01 5.888323e-01 3.127057e-02 8.814597e-02 1.229910e-01 9.563981e-02 1.316587e-01 1.783908e-01 1.964551e-01 2.105010e-01 1.598342e-01 1.210447e-01 1.183753e-01 9.267750e-02 4.554407e-02
<GCONST> 9.538724e+01
<TRANSP> 5
 0.000000e+00 1.000000e+00 0.000000e+00 0.000000e+00 0.000000e+00
 0.000000e+00 7.412080e-01 2.587920e-01 0.000000e+00 0.000000e+00
 0.000000e+00 0.000000e+00 7.108298e-01 2.891703e-01 0.000000e+00
 0.000000e+00 0.000000e+00 0.000000e+00 7.714567e-01 2.285433e-01
 0.000000e+00 0.000000e+00 0.000000e+00 0.000000e+00 0.000000e+00
<ENDHMM>
~h "aa"
<BEGINHMM>
<NUMSTATES> 5
<STATE> 2
<MEAN> 39
 4.491900e+00 -7.054524e+00 -7.150610e+00 -2.543391e+00 2.169817e+00 2.654879e+00 -7.763564e-01 3.219585e+00 3.485548e+00 -1.574946e+00 -5.396034e+00 -2.039855e+00 1.092787e+01 1.347327e-01 -9.740498e-01 -8.329178e-01 -4.300066e-01 5.990820e-01 6.767987e-01 -5.053807e-02 1.167636e-01 1.426718e-01 -2.962606e-01 -7.048820e-01 -1.304862e-01 9.527091e-01 -7.744835e-02 1.246940e-01 1.227964e-01 1.240200e-01 3.578513e-02 -5.918613e-02 -4.665708e-03 -1.118686e-01 -9.291002e-02 3.016721e-02 1.284501e-01 1.858747e-02 -1.647856e-01
<VARIANCE> 39
 2.933592e+01 4.327766e+01 4.630716e+01 6.131608e+01 6.495671e+01 5.314907e+01 5.094558e+01 5.047777e+01 8.609847e+01 6.225309e+01 4.543134e+01 3.566929e+01 5.995221e+01 7.378743e-01 1.068424e+00 1.232752e+00 1.359611e+00 1.478989e+00 1.519793e+00 1.421705e+00 1.329303e+00 1.469955e+00 1.315528e+00 1.274538e+00 8.863087e-01 1.354636e+00 6.607991e-02 9.820957e-02 1.129609e-01 1.379894e-01 1.601105e-01 1.530180e-01 1.281821e-01 1.464783e-01 1.482731e-01 1.509594e-01 1.481739e-01 9.212034e-02 1.139188e-01
<GCONST> 9.850600e+01
<STATE> 3
<MEAN> 39
 3.288975e+00 -1.027888e+01 -9.515408e+00 -2.438414e+00 6.625973e+00 4.216977e+00 -4.572347e-01 2.164195e+00 1.933945e+00 -3.090218e+00 -6.757973e+00 -1.763000e+00 1.347584e+01 -7.596415e-02 -2.273185e-01 -8.840974e-02 1.307396e-01 2.539656e-01 2.795127e-02 -2.786763e-02 -4.160498e-02 -8.208043e-02 -1.575635e-01 -7.061528e-02 2.760863e-02 8.104236e-02 -8.755986e-03 1.674991e-01 1.553552e-01 4.280660e-02 -1.987601e-01 -1.456129e-01 3.535748e-02 1.269033e-02 -1.842432e-02 3.119173e-02 1.115586e-01 3.521561e-02 -1.272851e-01
<VARIANCE> 39
 2.151006e+01 2.976645e+01 3.511702e+01 4.252002e+01 4.929377e+01 3.875000e+01 4.742724e+01 3.848618e+01 5.492199e+01 5.625843e+01 3.863295e+01 3.409731e+01 4.595123e+01 3.273857e-01 4.510840e-01 6.995697e-01 7.227892e-01 1.277990e+00 9.382734e-01 1.027156e+00 8.816479e-01 7.671870e-01 8.485986e-01 7.610872e-01 6.146049e-01 4.293761e-01 3.421103e-02 4.733995e-02 6.373367e-02 8.173943e-02 9.602905e-02 8.352121e-02 9.356707e-02 9.445734e-02 8.862637e-02 8.821500e-02 9.477062e-02 6.871907e-02 3.960934e-02
<GCONST> 8.066100e+01
<STATE> 4
<MEAN> 39
 3.859956e+00 -8.739938e+00 -7.958232e+00 -2.016397e+00 3.873860e+00 2.535042e+00 9.380075e-02 2.820481e+00 2.806785e+00 -3.213552e+00 -6.511808e+00 -1.586687e+00 1.130708e+01 -6.759470e-02 4.213608e-01 4.825391e-01 2.129252e-01 -4.111260e-01 -3.608713e-01 1.767571e-01 -5.220566e-02 -2.826701e-01 -5.984141e-02 3.018933e-01 1.705516e-01 -5.430197e-01 -2.033763e-03 7.797047e-02 6.489436e-02 -2.475909e-03 -3.070397e-02 -1.841315e-02 -1.542354e-02 -3.392053e-02 -1.481326e-02 6.049264e-02 5.122903e-02 2.542711e-04 -6.763135e-02
<VARIANCE> 39
 2.319820e+01 3.184368e+01 3.791698e+01 4.382490e+01 4.937292e+01 5.527527e+01 5.409224e+01 4.933522e+01 7.854272e+01 6.506866e+01 3.831126e+01 3.352042e+01 6.577979e+01 5.176141e-01 6.457947e-01 7.989910e-01 8.500749e-01 1.089228e+00 1.182907e+00 1.087248e+00 1.058469e+00 9.340708e-01 1.006314e+00 8.373547e-01 6.492183e-01 7.155265e-01 5.454196e-02 6.772098e-02 6.704357e-02 9.225505e-02 1.204606e-01 1.418369e-01 1.211341e-01 1.312932e-01 1.035864e-01 1.040463e-01 9.055535e-02 7.213977e-02 6.578755e-02
<GCONST> 8.810725e+01
<TRANSP> 5
 0.000000e+00 1.000000e+00 0.000000e+00 0.000000e+00 0.000000e+00
 0.000000e+00 7.307571e-01 2.692429e-01 0.000000e+00 0.000000e+00
 0.000000e+00 0.000000e+00 7.019060e-01 2.980940e-01 0.000000e+00
 0.000000e+00 0.000000e+00 0.000000e+00 8.647351e-01 1.352649e-01
 0.000000e+00 0.000000e+00 0.000000e+00 0.000000e+00 0.000000e+00
<ENDHMM>
~h "ai"
<BEGINHMM>
<NUMSTATES> 5
<STATE> 2
<MEAN> 39
 -6.132696e+00 1.499059e+00 1.045946e+00 5.184552e+00 3.528302e+00 1.903887e+00 -1.050719e+00 1.653592e+00 -1.442701e+00 2.421074e+00 2.959900e+00 -9.837632e-01 -2.007058e+01 3.458444e-02 9.019049e-02 1.305387e-01 -1.651652e-02 1.145964e-01 2.429274e-01 1.076252e-01 7.522871e-02 1.826203e-01 9.548110e-02 -1.273161e-01 4.118299e-02 -3.081321e-01 4.904371e-02 -8.106302e-03 -2.987830e-03 7.397138e-03 -6.614216e-02 -7.430214e-02 -5.303776e-02 -5.442900e-02 -2.050442e-02 -5.247860e-02 -4.140524e-02 -3.002976e-02 1.967720e-01
<VARIANCE> 39
 4.875698e+01 1.920436e+01 3.413098e+01 3.292420e+01 4.141324e+01 4.827162e+01 5.155463e+01 3.686677e+01 4.631612e+01 4.130035e+01 2.883465e+01 1.646874e+01 4.289898e+02 1.228772e+00 5.205941e-01 5.515791e-01 5.265104e-01 6.531727e-01 1.005220e+00 7.652487e-01 7.195186e-01 1.234111e+00 8.646523e-01 6.968082e-01 4.970015e-01 4.129105e+00 1.671409e-01 5.518307e-02 4.142142e-02 6.836141e-02 7.783832e-02 1.272345e-01 1.057077e-01 9.534132e-02 1.434178e-01 9.306874e-02 9.607664e-02 6.245763e-02 6.599011e-01
<GCONST> 8.858366e+01
<STATE> 3
<MEAN> 39
 2.645386e-01 -2.056500e+00 1.414811e+00 3.914386e+00 -1.183002e+00 2.324529e+00 5.418119e+00 1.795348e+00 8.122588e-01 1.078022e+00 -8.789089e-01 1.197447e+00 1.490813e+00 3.475708e-01 1.945471e-01 9.836601e-02 -4.176188e-01 -1.091366e+00 -4.139907e-01 -5.726216e-01 -6.208574e-01 -1.406191e-01 -3.604353e-01 -6.817849e-01 -1.279368e-01 1.787094e+00 1.991280e-02 2.672595e-02 1.026054e-01 -1.964386e-01 -8.162491e-02 -1.055194e-01 -2.790940e-01 2.102656e-03 6.463185e-03 5.329126e-02 8.921330e-02 -6.835280e-02 5.857928e-02
<VARIANCE> 39
 2.591911e+01 2.963453e+01 3.459426e+01 6.392824e+01 7.257298e+01 4.691171e+01 5.148827e+01 2.938840e+01 4.575528e+01 3.031920e+01 3.414818e+01 2.134903e+01 2.550272e+02 1.628257e+00 8.692124e-01 1.349974e+00 1.317097e+00 1.652379e+00 8.768940e-01 2.260032e+00 1.924739e+00 1.869426e+00 1.129945e+00 7.791348e-01 6.416508e-01 8.486171e+00 7.489944e-02 8.278210e-02 8.934664e-02 1.162189e-01 9.962498e-02 1.064156e-01 2.118250e-01 1.680456e-01 1.247050e-01 1.335785e-01 9.320442e-02 7.736568e-02 4.477006e-01
<GCONST> 9.843877e+01
<STATE> 4
<MEAN> 39
 1.649510e+00 -1.094036e+00 3.794748e+00 -1.618852e+00 -5.709785e+00 -1.467518e+00 1.050555e+00 -8.703279e-01 1.589098e-01 -1.038294e+00 -2.019248e+00 1.110327e+00 7.104675e+00 7.840227e-03 2.256468e-01 1.567673e-01 -5.011597e-02 4.906207e-05 -1.402643e-01 -2.126378e-01 -2.426178e-01 1.619174e-01 5.199494e-02 -5.760880e-02 9.799638e-02 -5.927169e-02 1.634516e-02 -3.318565e-02 -2.122048e-02 1.733174e-02 4.741108e-02 7.225056e-04 1.241086e-02 4.610994e-02 6.067032e-03 8.030497e-03 1.951202e-02 2.346796e-02 9.463397e-03
<VARIANCE> 39
 1.705419e+01 3.709224e+01 3.161277e+01 4.685249e+01 5.759723e+01 2.121396e+01 4.181359e+01 5.844242e+01 4.235748e+01 3.422218e+01 2.622986e+01 3.232898e+01 5.761109e+01 5.086080e-01 8.882696e-01 7.495686e-01 8.812348e-01 1.030254e+00 6.031771e-01 1.211804e+00 1.939194e+00 1.090728e+00 8.050703e-01 8.199336e-01 7.266488e-01 1.390308e+00 3.167948e-02 6.335077e-02 5.469871e-02 8.003812e-02 8.704810e-02 6.677929e-02 1.343125e-01 2.073597e-01 1.133451e-01 1.001678e-01 1.155794e-01 9.253687e-02 5.947786e-02
<GCONST> 8.505449e+01
<TRANSP> 5
 0.000000e+00 1.000000e+00 0.000000e+00 0.000000e+00 0.000000e+00
 0.000000e+00 8.066824e-01 1.933176e-01 0.000000e+00 0.000000e+00
 0.000000e+00 0.000000e+00 4.633879e-01 5.366121e-01 0.000000e+00
 0.000000e+00 0.000000e+00 0.000000e+00 8.968614e-01 1.031385e-01
 0.000000e+00 0.000000e+00 0.000000e+00 0.000000e+00 0.000000e+00
<ENDHMM>
~h "bb"
<BEGINHMM>
<NUMSTATES> 5
<STATE> 2
<MEAN> 39
 6.253519e+00 1.058476e+00 -6.583406e+00 -9.573690e+00 -2.782447e+00 -2.343373e-01 -1.553081e+00 4.442503e-01 -1.889117e+00 5.950167e-01 -1.751515e+00 8.541479e-01 7.088881e+00 -8.176886e-02 2.516144e-01 3.310912e-02 4.652310e-01 1.267853e-01 1.037898e-01 2.591129e-01 -3.024576e-01 -4.252847e-01 -5.546995e-01 -1.349522e-01 9.781139e-02 -4.822080e-01 -2.151785e-02 1.289798e-02 1.013409e-01 2.586622e-01 1.176906e-01 4.785316e-02 -9.248387e-03 -6.822935e-02 1.843762e-02 3.856034e-02 3.902711e-02 -7.006809e-02 -1.627577e-01
<VARIANCE> 39
 3.536979e+01 7.185468e+01 2.805289e+01 4.964635e+01 3.057166e+01 2.117986e+01 2.196031e+01 4.490905e+01 4.118228e+01 3.493990e+01 4.384170e+01 2.902040e+01 5.799630e+01 2.753050e-01 4.212700e-01 5.546989e-01 1.359251e+00 8.822289e-01 5.774366e-01 5.104800e-01 8.459226e-01 7.493092e-01 6.628698e-01 7.206382e-01 5.941067e-01 6.463780e-01 3.681914e-02 7.118785e-02 5.830357e-02 2.155777e-01 8.678874e-02 8.513529e-02 5.463922e-02 1.257907e-01 1.047458e-01 7.374959e-02 8.521301e-02 5.353009e-02 8.802965e-02
<GCONST> 7.977677e+01
<STATE> 3
<MEAN> 39
 5.924273e+00 -1.003249e+00 -5.455624e+00 -2.824877e+00 1.301491e+00 2.964813e+00 -1.023080e+00 -9.488110e-01 -2.347489e+00 -1.260757e+00 -3.205838e+00 -9.501971e-01 4.992901e+00 4.954561e-02 -2.112857e-02 1.970131e-01 9.212748e-01 5.397803e-01 3.848345e-01 4.541538e-01 -1.347774e-01 1.412287e-01 -9.949061e-02 1.366772e-01 -2.243228e-01 -7.210221e-01 -2.167966e-02 -6.195294e-02 -1.589997e-03 -9.799693e-03 -2.187463e-02 -3.835999e-02 -1.772763e-02 4.847362e-02 1.160152e-01 5.288007e-02 1.992152e-02 -2.857589e-02 3.515815e-02
<VARIANCE> 39
 2.358608e+01 7.679380e+01 1.700065e+01 3.459790e+01 2.310494e+01 2.114673e+01 3.519567e+01 2.792437e+01 4.255024e+01 2.342422e+01 3.662492e+01 1.768411e+01 4.815297e+01 6.453156e-01 4.437534e-01 6.307291e-01 1.304149e+00 6.145946e-01 9.085176e-01 5.804555e-01 8.062685e-01 8.176897e-01 5.729675e-01 6.004894e-01 6.086736e-01 5.421641e-01 4.734538e-02 8.183603e-02 5.200692e-02 1.463057e-01 7.162820e-02 8.389805e-02 6.974425e-02 1.050075e-01 1.080394e-01 7.437307e-02 6.747472e-02 5.482935e-02 5.907235e-02
<GCONST> 7.701025e+01
<STATE> 4
<MEAN> 39
 4.197203e+00 5.703807e-03 -4.105601e+00 -2.921626e+00 1.748153e+00 2.442885e+00 -5.747281e-01 -8.697436e-01 -7.043375e-01 1.176798e+00 3.019719e-01 -2.501489e+00 1.739996e+00 -1.513494e-01 -5.464358e-02 9.162032e-02 9.920014e-02 -5.538155e-02 -7.597830e-02 -3.063654e-02 1.135176e-01 8.078269e-02 -1.918150e-02 -6.685347e-02 -6.936210e-02 5.351724e-02 -1.568159e-03 -1.691042e-02 3.490691e-03 -3.734030e-02 -4.304979e-02 -4.646679e-02 -2.312427e-02 1.658846e-02 1.282867e-02 5.622958e-03 -1.354053e-02 3.671673e-02 5.305613e-02
<VARIANCE> 39
 1.217576e+01 3.560199e+01 2.035727e+01 3.352383e+01 1.818587e+01 2.376211e+01 2.540484e+01 2.055448e+01 3.494048e+01 2.587479e+01 3.899158e+01 3.019124e+01 2.296719e+01 3.313609e-01 6.165578e-01 6.906717e-01 1.212527e+00 5.114632e-01 7.870449e-01 6.191678e-01 6.167405e-01 8.202375e-01 6.512036e-01 1.130022e+00 8.329565e-01 6.685735e-01 4.103601e-02 5.469091e-02 7.203111e-02 1.237793e-01 7.693010e-02 7.636662e-02 6.918688e-02 7.581253e-02 9.410558e-02 8.439240e-02 1.365600e-01 1.065716e-01 6.680848e-02
<GCONST> 7.590670e+01
<TRANSP> 5
 0.000000e+00 1.000000e+00 0.000000e+00 0.000000e+00 0.000000e+00
 0.000000e+00 8.035080e-01 1.964920e-01 0.000000e+00 0.000000e+00
 0.000000e+00 0.000000e+00 7.573999e-01 2.426002e-01 0.000000e+00
 0.000000e+00 0.000000e+00 0.000000e+00 9.226761e-01 7.732388e-02
 0.000000e+00 0.000000e+00 0.000000e+00 0.000000e+00 0.000000e+00
<ENDHMM>
~h "bh"
<BEGINHMM>
<NUMSTATES> 5
<STATE> 2
<MEAN> 39
 -7.683423e+00 -3.857951e+00 -2.338680e+00 3.761979e+00 4.629772e+00 1.598082e+00 2.464233e+00 3.879481e+00 5.057244e+00 2.267683e+00 2.022152e+00 1.634016e+00 -1.565520e+01 4.785232e-01 -4.610103e-01 -2.843852e-01 -1.697212e-01 -1.862771e-01 -4.319615e-01 2.320337e-01 3.420894e-01 3.610450e-01 -8.348778e-03 -4.951757e-01 -1.961972e-02 1.965319e+00 1.652528e-01 -7.647343e-03 2.789440e-02 -1.287765e-01 -1.697757e-01 -1.120382e-02 -2.474308e-03 -1.373590e-02 -8.754425e-03 -1.113218e-02 -1.015734e-01 -5.714466e-02 2.658842e-01
<VARIANCE> 39
 1.169600e+02 7.927602e+01 4.733613e+01 4.984995e+01 7.830689e+01 7.729344e+01 4.879469e+01 7.363702e+01 4.218887e+01 3.788331e+01 5.462329e+01 1.979206e+01 5.897380e+02 3.689276e+00 1.973240e+00 2.468014e+00 1.902423e+00 2.607515e+00 3.205106e+00 1.629642e+00 2.023683e+00 1.202120e+00 1.945580e+00 1.305019e+00 5.893179e-01 1.550770e+01 2.699169e-01 2.877867e-01 1.830184e-01 2.324575e-01 2.129417e-01 3.720067e-01 2.199920e-01 1.955608e-01 1.128330e-01 1.588271e-01 1.454086e-01 6.697565e-02 1.570024e+00
<GCONST> 1.167955e+02
<STATE> 3
<MEAN> 39
 5.859627e+00 -6.528772e+00 -7.687162e-01 -1.933991e+00 -2.058505e+00 -2.968139e+00 1.985163e+00 2.911840e+00 4.280339e+00 7.766454e-01 -8.185509e+00 -2.360487e+00 1.146259e+01 2.137066e-01 1.197166e-01 1.081335e+00 -7.159728e-01 -7.471294e-01 6.728858e-03 -2.322888e-03 -2.923395e-01 -5.069083e-01 4.615537e-01 -1.870162e-01 -1.659043e-01 3.712533e-01 -1.772158e-01 9.646925e-02 7.591181e-02 4.156398e-02 1.120012e-01 1.428655e-01 -3.804555e-02 -1.898477e-01 -4.747666e-02 -7.325095e-02 1.300502e-01 2.896697e-02 -1.934112e-01
<VARIANCE> 39
 2.612775e+01 3.241093e+01 1.090146e+02 1.016607e+02 1.061966e+02 4.658292e+01 3.434385e+01 5.572002e+01 5.689902e+01 1.232296e+02 4.746593e+01 2.340348e+01 5.481667e+01 1.451494e+00 1.702259e+00 1.793718e+00 4.180497e+00 3.585197e+00 2.310075e+00 7.257276e-01 3.223829e+00 2.430432e+00 1.274397e+00 1.645010e+00 5.339904e-01 2.521999e+00 1.129074e-01 1.153855e-01 2.043443e-01 4.065002e-01 4.800424e-01 3.281350e-01 1.182255e-01 3.106572e-01 2.297022e-01 2.921029e-01 1.393107e-01 9.721249e-02 5.112084e-01
<GCONST> 1.118209e+02
<STATE> 4
<MEAN> 39
 5.296830e+00 -8.489262e-01 5.734136e+00 -5.103610e+00 -4.819700e+00 -1.019908e+00 2.319386e+00 -6.653285e+00 -2.834677e+00 3.826190e+00 -6.534329e+00 -3.457461e+00 1.041721e+01 5.800092e-02 5.412482e-01 1.965033e-01 2.742030e-01 4.901987e-01 2.673921e-01 -4.694356e-01 -9.453602e-01 -3.311152e-01 -4.641334e-01 1.027770e-01 -1.885640e-01 -4.189692e-01 -2.647438e-02 -3.112083e-02 -1.384791e-01 7.209081e-02 1.336428e-01 5.382542e-02 -8.404627e-02 1.011247e-01 1.046971e-01 -1.643172e-01 2.910515e-02 -4.457220e-02 -3.469364e-02
<VARIANCE> 39
 2.505224e+01 3.221641e+01 3.974119e+01 6.772665e+01 3.599496e+01 5.633100e+01 3.985907e+01 1.102849e+02 4.392600e+01 5.985923e+01 4.626638e+01 4.115349e+01 6.570125e+01 1.042808e+00 1.454377e+00 1.722819e+00 2.547952e+00 1.678825e+00 1.297611e+00 6.147144e-01 2.061623e+00 1.151512e+00 2.792132e+00 1.535232e+00 6.971192e-01 9.465127e-01 8.690004e-02 7.676544e-02 1.130357e-01 2.092521e-01 2.296981e-01 1.968555e-01 7.473174e-02 2.782760e-01 1.278302e-01 2.135469e-01 1.650548e-01 1.061094e-01 8.581354e-02
<GCONST> 1.001501e+02
<TRANSP> 5
 0.000000e+00 1.000000e+00 0.000000e+00 0.000000e+00 0.000000e+00
 0.000000e+00 8.900733e-01 1.099268e-01 0.000000e+00 0.000000e+00
 0.000000e+00 0.000000e+00 8.395305e-01 1.604695e-01 0.000000e+00
 0.000000e+00 0.000000e+00 0.000000e+00 8.128360e-01 1.871640e-01
 0.000000e+00 0.000000e+00 0.000000e+00 0.000000e+00 0.000000e+00
<ENDHMM>
~h "dd"
<BEGINHMM>
<NUMSTATES> 5
<STATE> 2
<MEAN> 39
 2.588772e+00 5.538018e+00 7.964802e+00 1.633690e+00 -3.854012e+00 -2.294806e+00 3.716049e-01 -2.828728e+00 -2.361366e+00 1.010137e+00 1.521423e+00 4.059058e-01 -4.024189e-01 -2.577222e-02 3.246523e-01 -4.047253e-01 5.611902e-01 8.116826e-01 3.669270e-01 2.460710e-01 1.168152e-01 2.270312e-01 -1.675336e-01 -2.386958e-01 -1.736326e-01 -7.754928e-01 -8.320177e-02 -4.900054e-02 -2.782572e-02 -6.201657e-02 8.626986e-03 1.742419e-02 -3.021795e-03 -1.015317e-02 4.575877e-03 1.220386e-02 2.159390e-02 2.058863e-02 5.253471e-02
<VARIANCE> 39
 1.317014e+01 2.153560e+01 3.494123e+01 6.575242e+01 3.475276e+01 7.647713e+01 3.006005e+01 4.323344e+01 3.993555e+01 3.166334e+01 2.912868e+01 2.288595e+01 3.490486e+01 3.613029e-01 4.002146e-01 5.627999e-01 7.793151e-01 8.610684e-01 6.912954e-01 6.860183e-01 7.917563e-01 7.439691e-01 6.112222e-01 6.360564e-01 5.034807e-01 5.632883e-01 3.747436e-02 3.652823e-02 4.041012e-02 7.979143e-02 6.829879e-02 9.080978e-02 8.744216e-02 8.586584e-02 6.955273e-02 6.875233e-02 6.182733e-02 4.978381e-02 5.177736e-02
<GCONST> 7.453645e+01
<STATE> 3
<MEAN> 39
 1.068906e+00 6.356413e+00 4.691742e+00 6.028909e+00 1.110838e+00 -8.982029e-01 1.548676e+00 -3.081995e+00 -2.487663e+00 1.535628e-01 2.077193e+00 1.158183e-01 -6.305415e+00 -4.523864e-01 -2.888764e-01 -5.401839e-01 7.427956e-02 6.303446e-01 1.238868e-01 6.601103e-02 1.586645e-01 8.356767e-02 -4.580656e-02 6.050622e-02 3.284246e-02 -3.426958e-01 -6.413434e-02 -1.594726e-01 -1.406337e-02 -1.730031e-01 -1.418076e-01 -1.031818e-01 -2.259139e-02 5.967296e-02 6.351887e-02 -1.397628e-02 1.682870e-02 3.877561e-02 2.377304e-01
<VARIANCE> 39
 1.275687e+01 2.635876e+01 2.519002e+01 3.279728e+01 3.534499e+01 3.914391e+01 3.175933e+01 3.485963e+01 4.380546e+01 3.317715e+01 2.702052e+01 2.595311e+01 2.745903e+01 2.884015e-01 4.539525e-01 5.522804e-01 7.368996e-01 5.771943e-01 7.601375e-01 7.244211e-01 6.673927e-01 5.789921e-01 4.457791e-01 5.111390e-01 3.403915e-01 5.863370e-01 3.366987e-02 6.167952e-02 4.824863e-02 6.852553e-02 7.896675e-02 7.756270e-02 1.240809e-01 7.861237e-02 9.164211e-02 7.190591e-02 7.165083e-02 4.567223e-02 8.272657e-02
<GCONST> 7.263020e+01
<STATE> 4
<MEAN> 39
 -4.917794e+00 3.656280e+00 1.407137e+00 4.305258e+00 5.855595e+00 2.364770e+00 1.855376e+00 3.421388e-01 8.631685e-01 1.449189e+00 3.750661e+00 3.306084e-01 -1.875014e+01 -2.540387e-01 -3.994087e-01 -2.773456e-01 -2.525496e-01 3.000382e-02 -1.188436e-01 1.394570e-02 2.637096e-01 2.858583e-01 -5.532265e-02 -3.252663e-02 6.856114e-02 3.230713e-01 9.308137e-02 -9.162979e-02 4.684930e-02 -1.190292e-01 -2.400728e-01 -1.308303e-01 -4.905207e-02 6.679606e-02 6.534925e-02 1.870400e-02 -5.418781e-02 9.622789e-03 3.569931e-01
<VARIANCE> 39
 5.022581e+01 2.350320e+01 2.947289e+01 3.095294e+01 3.997323e+01 3.340990e+01 2.319156e+01 3.756011e+01 4.183920e+01 3.158777e+01 1.731374e+01 1.977355e+01 3.189425e+02 1.213534e+00 1.046115e+00 7.561282e-01 8.469566e-01 8.196074e-01 1.048579e+00 7.097952e-01 9.942808e-01 8.670044e-01 5.057507e-01 5.160366e-01 4.118166e-01 4.443199e+00 1.121120e-01 7.419214e-02 7.860144e-02 9.535564e-02 1.206538e-01 1.168869e-01 1.172627e-01 1.010994e-01 1.174347e-01 7.938371e-02 7.048838e-02 6.299330e-02 3.286721e-01
<GCONST> 8.714793e+01
<TRANSP> 5
 0.000000e+00 1.000000e+00 0.000000e+00 0.000000e+00 0.000000e+00
 0.000000e+00 8.141109e-01 1.858891e-01 0.000000e+00 0.000000e+00
 0.000000e+00 0.000000e+00 7.255273e-01 2.744727e-01 0.000000e+00
 0.000000e+00 0.000000e+00 0.000000e+00 6.796473e-01 3.203527e-01
 0.000000e+00 0.000000e+00 0.000000e+00 0.000000e+00 0.000000e+00
<ENDHMM>
~h "dh"
<BEGINHMM>
<NUMSTATES> 5
<STATE> 2
<MEAN> 39
 5.419106e+00 4.553020e-01 -2.125781e-01 -1.319794e+00 1.633723e+00 -1.082428e+00 5.505453e-01 -1.595688e+00 -5.080297e+00 -4.231253e+00 -3.064886e+00 -6.145767e+00 3.627231e+00 -5.033107e-01 5.289371e-02 8.318437e-01 2.882199e-01 -2.846760e-01 -2.689176e-01 1.064911e-01 -4.060862e-01 -1.491033e-01 -3.471448e-01 -4.688479e-01 -3.834099e-03 4.563776e-02 -7.947399e-02 -7.914260e-03 -1.578956e-02 -1.169328e-01 -1.081281e-01 -5.394166e-02 -1.033102e-02 -9.822042e-02 1.431214e-01 4.724234e-02 -7.213894e-02 1.810460e-01 1.102307e-01
<VARIANCE> 39
 4.604869e+01 4.850468e+01 4.201052e+01 4.880541e+01 4.941577e+01 1.886925e+01 3.762312e+01 3.671194e+01 3.810228e+01 6.086954e+01 1.878625e+01 3.902612e+01 4.481015e+01 1.538284e+00 1.107964e+00 1.287010e+00 3.853217e+00 7.010154e-01 5.641543e-01 7.200218e-01 1.613301e+00 2.175802e+00 1.543657e+00 6.940746e-01 1.272542e+00 1.423834e+00 1.545485e-01 1.447794e-01 1.271715e-01 2.241270e-01 8.274037e-02 5.692137e-02 1.028459e-01 1.784509e-01 1.732211e-01 1.506578e-01 8.876315e-02 1.486080e-01 1.379349e-01
<GCONST> 9.536018e+01
<STATE> 3
<MEAN> 39
 1.869591e+00 1.134309e+00 2.242433e+00 -1.220616e+00 -2.583847e+00 -1.738558e+00 -4.665577e-01 -5.324244e+00 -3.821666e+00 -2.719897e+00 -4.249089e+00 -2.894162e+00 5.531352e+00 -4.844875e-01 8.341919e-02 9.820661e-02 -3.289308e-01 -7.335559e-01 -2.854387e-01 -1.164548e-01 -4.798564e-01 4.252823e-02 -3.978057e-01 -3.567185e-01 6.435201e-01 5.085437e-01 5.918958e-02 -3.825957e-02 -1.363719e-01 2.339692e-02 5.828613e-02 7.268938e-02 -1.176439e-02 1.867503e-01 5.203726e-02 9.141545e-02 4.553386e-02 -6.953353e-03 -1.653031e-02
<VARIANCE> 39
 2.865715e+01 5.179281e+01 3.726132e+01 7.305454e+01 5.685133e+01 2.385892e+01 3.727147e+01 4.919364e+01 3.022408e+01 3.890704e+01 2.204765e+01 3.841213e+01 7.202844e+01 7.771380e-01 1.744304e+00 6.659556e-01 1.351759e+00 1.344551e+00 4.307047e-01 9.211212e-01 8.930200e-01 4.344826e-01 9.758818e-01 1.083755e+00 7.881180e-01 1.931920e+00 5.852550e-02 1.481500e-01 6.712797e-02 1.499040e-01 1.172953e-01 5.966781e-02 7.983211e-02 8.051115e-02 7.002376e-02 1.139307e-01 8.307505e-02 6.830400e-02 1.676413e-01
<GCONST> 8.765965e+01
<STATE> 4
<MEAN> 39
 1.849311e+00 -3.165241e-01 3.880996e+00 -5.549747e+00 -6.551917e+00 -2.462585e+00 -2.608077e-01 -3.843732e+00 -2.543491e+00 -5.248810e+00 -2.503412e+00 4.702858e-01 6.960938e+00 -1.376541e-02 7.468428e-02 5.903269e-02 1.765526e-02 4.475210e-04 -3.964315e-02 -8.663788e-02 3.908564e-02 8.707828e-02 -3.249117e-02 1.319487e-02 6.477163e-02 -8.047716e-02 -8.809196e-03 -6.619795e-03 -1.092948e-03 6.228382e-03 2.071021e-02 7.608094e-03 -2.246471e-04 1.632588e-02 -1.766605e-03 3.584248e-02 1.277048e-02 -1.394600e-02 -2.572215e-03
<VARIANCE> 39
 1.264712e+01 4.620637e+01 3.766159e+01 6.580840e+01 3.975960e+01 2.950144e+01 8.791436e+01 3.564342e+01 3.646347e+01 5.118081e+01 3.171083e+01 2.879784e+01 2.643671e+01 1.511720e-01 7.606445e-01 5.576722e-01 7.055644e-01 9.699805e-01 5.789536e-01 1.597466e+00 8.180082e-01 8.238851e-01 1.005187e+00 6.999725e-01 7.737775e-01 3.656879e-01 1.379536e-02 6.175337e-02 5.229682e-02 6.403366e-02 1.005496e-01 6.795824e-02 1.368340e-01 8.909339e-02 8.895125e-02 1.089746e-01 8.303951e-02 8.830711e-02 3.391469e-02
<GCONST> 7.829510e+01
<TRANSP> 5
 0.000000e+00 1.000000e+00 0.000000e+00 0.000000e+00 0.000000e+00
 0.000000e+00 6.519307e-01 3.480693e-01 0.000000e+00 0.000000e+00
 0.000000e+00 0.000000e+00 5.539745e-01 4.460255e-01 0.000000e+00
 0.000000e+00 0.000000e+00 0.000000e+00 9.538529e-01 4.614712e-02
 0.000000e+00 0.000000e+00 0.000000e+00 0.000000e+00 0.000000e+00
<ENDHMM>
~h "dx"
<BEGINHMM>
<NUMSTATES> 5
<STATE> 2
<MEAN> 39
 4.678998e+00 -9.844172e-02 5.100059e+00 2.079371e+00 -7.540018e+00 -1.922735e+00 4.822972e-01 -2.148754e+00 1.201272e-02 2.606719e+00 1.155420e+00 1.138235e-01 5.510856e+00 -1.363533e-01 1.353697e-01 7.436214e-02 -1.492619e-01 -5.190726e-02 -4.009407e-01 1.785975e-02 6.942281e-02 -1.894507e-02 2.401955e-01 1.307125e-02 1.320560e-01 2.357661e-01 -3.965702e-02 2.669296e-02 -6.361817e-02 -1.192664e-01 1.262553e-01 4.287731e-02 -1.968393e-02 1.996935e-02 -1.833140e-02 -2.227895e-02 -6.184984e-02 1.262308e-02 3.550891e-03
<VARIANCE> 39
 4.281452e+01 8.344182e+01 1.181389e+02 1.152933e+02 1.031641e+02 7.902861e+01 8.683018e+01 8.194070e+01 7.461138e+01 5.893203e+01 4.180355e+01 3.795654e+01 4.366648e+01 1.183735e+00 2.160596e+00 2.871484e+00 4.502791e+00 2.696182e+00 2.724021e+00 2.538292e+00 2.768375e+00 1.986778e+00 2.064558e+00 1.408880e+00 1.272068e+00 1.803172e+00 1.239212e-01 1.883460e-01 2.437739e-01 5.511859e-01 3.043241e-01 3.555804e-01 2.681959e-01 3.041127e-01 2.124978e-01 2.234594e-01 1.808709e-01 1.538915e-01 2.227365e-01
<GCONST> 1.181896e+02
<STATE> 3
<MEAN> 39
