~h "sp"
<BEGINHMM>
<NUMSTATES> 3
<STATE> 2
<MEAN> 39
 -4.769295e+00 -1.310659e+00 -5.720168e+00 7.015827e+00 3.866008e+00 4.802464e+00 1.993484e-01 -4.057986e-02 4.619477e-01 2.153327e-01 3.191642e+00 1.284935e+00 -1.224972e+01 6.217977e-02 2.284331e-02 1.514269e-02 -3.547318e-02 2.702029e-02 -2.350602e-02 -2.781643e-02 -6.949528e-02 -2.330741e-02 -3.105359e-02 -7.993562e-02 -1.736942e-02 8.374125e-02 1.328224e-02 1.758700e-03 1.151484e-02 -4.489605e-03 4.846436e-03 -5.189859e-03 5.089912e-03 5.267587e-03 3.677817e-03 -1.805056e-03 -3.286260e-03 5.755267e-03 1.620614e-02
<VARIANCE> 39
 2.189374e+01 4.283720e+01 2.326001e+01 3.612511e+01 2.514722e+01 3.268961e+01 5.070106e+01 3.697396e+01 5.687468e+01 4.496802e+01 3.244040e+01 1.684030e+01 8.695905e+01 2.331102e-01 1.229092e-01 1.980499e-01 2.698754e-01 3.205038e-01 4.358844e-01 4.152979e-01 4.210556e-01 3.945904e-01 4.111518e-01 3.297301e-01 3.048664e-01 4.738566e-01 2.723766e-02 1.543084e-02 2.591435e-02 3.227171e-02 4.164701e-02 5.375888e-02 5.356983e-02 5.083555e-02 4.848969e-02 5.100996e-02 4.351764e-02 4.132234e-02 5.312290e-02
<GCONST> 6.093445e+01
<TRANSP> 3
0.0  1.0  0.0
0.0  0.9  0.1
0.0  0.0  0.0
<ENDHMM>
