~o
<STREAMINFO> 1 39
<VECSIZE> 39<NULLD><MFCC_D_A_Z_0><DIAGC>
~s "silst"
<MEAN> 39
 -2.964370e+00 -1.522028e+00 -5.796051e+00 8.567636e+00 3.560811e+00 4.951451e+00 -6.521385e-01 -4.919228e-02 1.457303e+00 8.353574e-01 3.801984e+00 7.916645e-01 -1.092808e+01 4.965793e-03 3.378431e-02 -1.206115e-02 1.040798e-02 2.942856e-03 5.094182e-03 -1.775500e-02 -7.266010e-02 3.148224e-03 -1.266535e-03 -7.041521e-02 -1.111466e-02 1.351932e-02 1.240526e-02 1.052656e-02 1.994491e-02 2.385548e-03 1.561136e-02 8.494698e-03 1.259216e-02 1.118181e-02 1.500148e-02 -1.727344e-03 -2.977182e-03 8.011848e-03 8.484568e-03
<VARIANCE> 39
 1.103955e+01 4.904052e+01 2.252109e+01 3.630832e+01 2.835434e+01 3.354125e+01 6.324088e+01 3.400072e+01 3.513586e+01 3.317185e+01 3.306773e+01 1.934634e+01 3.992577e+01 1.300727e-01 1.489443e-01 2.343258e-01 2.871561e-01 3.757443e-01 4.978883e-01 4.861518e-01 4.725947e-01 4.118839e-01 4.813412e-01 3.924981e-01 3.471677e-01 1.718984e-01 1.276965e-02 1.855480e-02 2.894204e-02 3.568371e-02 4.811049e-02 5.961346e-02 6.366455e-02 5.757885e-02 5.119880e-02 5.914090e-02 5.062427e-02 4.499860e-02 1.004551e-02
<GCONST> 5.808488e+01
~h "a"
<BEGINHMM>
<NUMSTATES> 5
<STATE> 2
<MEAN> 39
 3.498435e+00 -4.907646e+00 -2.406106e+00 -1.690732e+00 -2.221726e+00 -2.620956e+00 6.383970e-01 5.280509e+00 2.484783e+00 -1.013781e+00 -3.257844e+00 -3.468917e-01 9.194169e+00 2.216522e-01 -7.239228e-01 -3.480626e-01 -2.977935e-01 -1.589798e-01 4.500915e-02 -4.992101e-02 6.079961e-01 2.727361e-01 -2.679344e-01 -5.966991e-01 2.736598e-02 9.027160e-01 -3.192214e-02 1.753119e-01 1.071539e-01 1.399558e-01 7.813939e-02 8.677219e-02 -1.072251e-02 -2.048393e-01 -1.169983e-01 1.686162e-02 1.085029e-01 -8.462049e-03 -2.508358e-01
<VARIANCE> 39
 3.351776e+01 4.830668e+01 5.301981e+01 4.862924e+01 6.374976e+01 6.411259e+01 6.665717e+01 5.979152e+01 8.828783e+01 5.740533e+01 5.212156e+01 3.253922e+01 8.579552e+01 1.049572e+00 1.512964e+00 1.784151e+00 1.664475e+00 2.060712e+00 2.001861e+00 1.872175e+00 1.727314e+00 1.958690e+00 1.588700e+00 1.386036e+00 1.014465e+00 2.281945e+00 1.095719e-01 1.603337e-01 1.595411e-01 1.709106e-01 2.146668e-01 2.225450e-01 2.364293e-01 2.280104e-01 2.218654e-01 2.013126e-01 1.863873e-01 1.190282e-01 2.517957e-01
<GCONST> 1.084877e+02
<STATE> 3
<MEAN> 39
 3.600566e+00 -6.312462e+00 -2.785066e+00 -2.693186e+00 -3.132663e+00 -2.667010e+00 5.108665e-01 6.169928e+00 2.756559e+00 -1.478263e+00 -4.824577e+00 -3.234812e-01 1.161338e+01 1.070923e-01 3.010421e-01 2.354035e-01 4.272013e-01 1.561211e-01 1.347910e-01 -3.365279e-02 -3.529379e-01 -2.817488e-01 -6.134168e-02 2.083933e-01 4.416838e-03 -5.341979e-01 -3.437087e-02 2.442825e-01 1.340064e-01 1.971415e-01 8.930616e-02 2.941284e-02 -1.023152e-02 -2.528214e-01 -9.685388e-02 6.293376e-02 2.072687e-01 -1.782455e-02 -3.284715e-01
<VARIANCE> 39
 2.386670e+01 3.292006e+01 4.719833e+01 3.937111e+01 5.685826e+01 5.382214e+01 6.404230e+01 5.153761e+01 8.280373e+01 5.533350e+01 3.930548e+01 2.942838e+01 5.880359e+01 6.263539e-01 8.074241e-01 1.104087e+00 1.104909e+00 1.507396e+00 1.469284e+00 1.597013e+00 1.171518e+00 1.215442e+00 1.126816e+00 1.036284e+00 7.643188e-01 8.328353e-01 9.280606e-02 1.031121e-01 1.109292e-01 1.402747e-01 1.825783e-01 1.693103e-01 1.971223e-01 1.746965e-01 1.824857e-01 1.583718e-01 1.201077e-01 1.026709e-01 9.255249e-02
<GCONST> 9.641683e+01
<STATE> 4
<MEAN> 39
 4.086175e+00 -4.119858e+00 -3.380037e+00 8.918370e-01 7.144365e-01 -1.140970e-01 7.539285e-01 2.542921e+00 2.799773e-01 -2.407554e+00 -2.300780e+00 -1.140189e+00 4.562375e+00 -7.302149e-02 4.955877e-01 2.673827e-01 4.740949e-01 1.854786e-01 1.212293e-01 1.248112e-01 -4.149146e-01 -3.250180e-01 -1.135038e-02 3.640615e-01 1.441484e-04 -9.419510e-01 -4.277080e-02 1.675447e-02 -6.544699e-04 -4.695807e-02 -1.685575e-02 -7.581064e-03 7.078154e-04 1.847529e-02 2.616398e-02 3.619534e-02 1.479089e-02 2.571291e-03 1.761925e-02
<VARIANCE> 39
 2.497002e+01 3.554939e+01 4.828381e+01 5.266898e+01 5.762577e+01 4.799755e+01 5.245771e+01 4.149015e+01 5.989757e+01 5.084776e+01 3.497214e+01 2.914054e+01 7.526290e+01 7.748380e-01 7.115228e-01 8.596098e-01 9.746810e-01 9.322368e-01 1.109984e+00 1.152341e+00 9.909559e-01 1.300250e+00 9.481840e-01 7.256724e-01 6.493770e-01 8.059042e-01 5.492970e-02 7.030436e-02 7.946800e-02 9.585769e-02 9.911688e-02 1.042753e-01 1.142766e-01 1.086336e-01 1.194442e-01 9.793376e-02 8.804857e-02 7.040235e-02 7.077159e-02
<GCONST> 8.824726e+01
<TRANSP> 5
 0.000000e+00 1.000000e+00 0.000000e+00 0.000000e+00 0.000000e+00
 0.000000e+00 6.148202e-01 3.851798e-01 0.000000e+00 0.000000e+00
 0.000000e+00 0.000000e+00 5.087238e-01 4.912762e-01 0.000000e+00
 0.000000e+00 0.000000e+00 0.000000e+00 7.172872e-01 2.827128e-01
 0.000000e+00 0.000000e+00 0.000000e+00 0.000000e+00 0.000000e+00
<ENDHMM>
~h "b"
<BEGINHMM>
<NUMSTATES> 5
<STATE> 2
<MEAN> 39
 5.656931e+00 5.545409e-01 -8.033569e-01 1.829429e+00 -1.386808e-01 -4.168934e-01 -8.724861e-01 -7.142386e-01 -4.736330e-01 5.012149e-01 -1.307357e+00 -2.045444e+00 2.447451e+00 1.583700e-01 5.860690e-01 -1.738471e-01 -3.355068e-01 -5.022389e-02 2.207998e-01 -1.641658e-01 -1.692159e-01 -2.398453e-01 3.981930e-02 1.101397e-01 1.525700e-01 4.576871e-02 -7.157348e-02 -3.330395e-02 -2.866184e-02 -1.971717e-01 -5.177841e-02 -2.503621e-02 -2.265383e-02 5.590441e-02 5.723482e-02 3.121903e-03 -2.719912e-02 4.396725e-02 1.478192e-01
<VARIANCE> 39
 2.634451e+01 4.450352e+01 4.979995e+01 8.864883e+01 5.732749e+01 6.808517e+01 5.448676e+01 6.287757e+01 5.985163e+01 6.781948e+01 7.449477e+01 4.816507e+01 5.049236e+01 8.109055e-01 1.289081e+00 1.789667e+00 3.658126e+00 1.747709e+00 2.259695e+00 2.189575e+00 1.129113e+00 1.671574e+00 1.582300e+00 2.135086e+00 1.702068e+00 1.762910e+00 7.824816e-02 1.575151e-01 1.637722e-01 4.201452e-01 2.122828e-01 3.401900e-01 2.390692e-01 1.848687e-01 2.109443e-01 2.305650e-01 2.401321e-01 2.047961e-01 2.427133e-01
<GCONST> 1.107220e+02
<STATE> 3
<MEAN> 39
 5.300211e+00 3.752687e+00 -9.305716e-01 2.752854e-01 -8.849158e-01 5.046628e-01 -2.334716e+00 -1.611378e+00 -1.605707e+00 -8.118711e-01 -1.655403e+00 -1.867252e+00 2.427034e+00 1.086939e-01 -1.401772e-02 -1.600700e-01 -9.849619e-03 3.755129e-01 5.589777e-02 4.803383e-02 8.080597e-02 2.487459e-01 9.837791e-03 -2.064604e-02 -1.338994e-01 -2.379355e-02 -2.059269e-02 -3.011831e-01 -5.388264e-02 -1.611802e-01 -4.384852e-02 -1.586602e-01 6.149263e-03 1.147613e-01 1.569926e-01 1.101611e-01 -5.996595e-02 3.958078e-02 2.471064e-01
<VARIANCE> 39
 2.535469e+01 4.056716e+01 5.354407e+01 9.382438e+01 4.913209e+01 4.808813e+01 4.324704e+01 4.503977e+01 5.155256e+01 4.437965e+01 4.459318e+01 3.850841e+01 6.771706e+01 6.852195e-01 1.517911e+00 1.409848e+00 1.928696e+00 1.032480e+00 1.293148e+00 1.195139e+00 1.070568e+00 1.566298e+00 1.243036e+00 8.214473e-01 9.984950e-01 1.485082e+00 9.045474e-02 1.800362e-01 2.098463e-01 3.427316e-01 1.863900e-01 1.726929e-01 1.898274e-01 1.750500e-01 1.394211e-01 1.406413e-01 1.532606e-01 1.335622e-01 2.148300e-01
<GCONST> 1.013663e+02
<STATE> 4
<MEAN> 39
 4.659953e+00 1.797930e+00 -3.417322e-01 2.254636e+00 2.562703e+00 6.129686e-01 -5.671968e-01 -2.478230e+00 -5.693133e-01 -4.755732e-01 -2.909104e-01 -8.703982e-01 -6.036272e-01 -4.526127e-03 -3.123063e-01 -2.407769e-01 -1.818708e-01 -1.160651e-04 -1.619939e-01 2.295185e-02 2.667047e-01 9.827735e-02 7.431956e-02 2.974999e-02 5.547078e-02 2.192989e-01 -1.715886e-02 -1.095287e-01 -9.759938e-03 -1.004969e-01 -1.264529e-01 -5.162802e-02 -2.060696e-02 6.210521e-02 2.910211e-02 3.707122e-02 -3.539674e-02 1.827102e-02 1.729925e-01
<VARIANCE> 39
 3.037503e+01 3.723100e+01 5.290629e+01 4.654066e+01 3.461938e+01 2.786129e+01 4.162013e+01 3.522102e+01 4.200381e+01 3.684590e+01 2.980644e+01 2.329115e+01 4.033755e+01 4.711969e-01 1.237103e+00 1.346088e+00 1.314507e+00 1.085131e+00 9.556174e-01 1.013475e+00 1.228896e+00 1.207538e+00 1.037124e+00 8.302592e-01 5.948816e-01 1.277955e+00 5.051634e-02 8.422925e-02 1.159877e-01 1.210392e-01 1.007641e-01 8.551960e-02 1.050694e-01 1.152471e-01 8.407471e-02 8.766101e-02 1.038698e-01 5.745911e-02 7.018278e-02
<GCONST> 8.673325e+01
<TRANSP> 5
 0.000000e+00 1.000000e+00 0.000000e+00 0.000000e+00 0.000000e+00
 0.000000e+00 6.273525e-01 3.726475e-01 0.000000e+00 0.000000e+00
 0.000000e+00 0.000000e+00 3.855985e-01 6.144016e-01 0.000000e+00
 0.000000e+00 0.000000e+00 0.000000e+00 7.023800e-01 2.976199e-01
 0.000000e+00 0.000000e+00 0.000000e+00 0.000000e+00 0.000000e+00
<ENDHMM>
~h "c"
<BEGINHMM>
<NUMSTATES> 5
<STATE> 2
<MEAN> 39
 6.779852e-01 1.476494e+00 -1.208411e+00 -5.390610e-01 2.709815e+00 2.392605e-01 -4.779846e+00 -1.045635e+00 3.227994e-01 1.009686e+00 1.566851e+00 2.728050e-01 -3.080292e+00 -1.277696e+00 -7.240489e-02 3.522674e-01 -2.447342e-01 -4.111604e-01 1.105858e-02 1.522027e-01 2.576118e-01 -1.333197e-01 -1.793255e-01 1.601705e-01 -2.742955e-01 1.816073e+00 -1.037770e-01 8.415060e-02 1.128839e-01 -8.627536e-02 -1.003955e-01 -6.867389e-02 7.908869e-02 -2.932459e-02 -2.639342e-02 4.206660e-02 -9.783922e-03 -4.823527e-02 1.922947e-01
<VARIANCE> 39
 1.182407e+02 4.978143e+01 4.820166e+01 5.543141e+01 5.165227e+01 5.352921e+01 6.982905e+01 5.695119e+01 3.655169e+01 4.214459e+01 3.374057e+01 2.525616e+01 2.795378e+02 5.748979e+00 1.666203e+00 2.017264e+00 2.535899e+00 2.166606e+00 2.093765e+00 2.503284e+00 1.824403e+00 1.661241e+00 1.497769e+00 1.374293e+00 6.515652e-01 9.435959e+00 6.357298e-01 1.917377e-01 2.311593e-01 3.047871e-01 2.558341e-01 2.415904e-01 2.579310e-01 1.580029e-01 1.730934e-01 2.002131e-01 1.336481e-01 8.670632e-02 9.149317e-01
<GCONST> 1.155000e+02
<STATE> 3
<MEAN> 39
 -1.421852e+01 2.752532e+00 6.707562e+00 -2.706434e+00 -1.471851e+00 -5.946341e-01 3.070450e+00 1.574021e+00 -2.840716e+00 2.182800e+00 5.223452e+00 -3.506973e+00 8.864440e+00 4.857854e-01 4.124433e-02 8.730794e-01 -2.361150e-01 -1.256606e+00 -6.037067e-01 3.682202e-01 -2.814758e-01 -3.499811e-01 6.412630e-02 -1.621707e-02 -3.734280e-01 8.640406e-01 7.681756e-01 -3.297269e-02 -1.931477e-01 6.250642e-02 -3.436141e-02 -4.698099e-02 -2.043495e-01 -1.567383e-01 8.471973e-02 -3.004180e-02 -1.543087e-01 1.457191e-01 -2.803810e-01
<VARIANCE> 39
 9.138907e+01 4.197944e+01 4.135044e+01 2.786596e+01 4.283619e+01 3.162869e+01 5.386787e+01 4.136537e+01 4.853057e+01 6.044272e+01 5.400803e+01 3.083543e+01 3.547312e+01 5.129745e+00 1.288939e+00 1.497302e+00 1.078657e+00 1.166077e+00 1.020567e+00 1.650259e+00 1.589719e+00 1.670838e+00 1.072459e+00 1.384921e+00 9.975628e-01 1.277494e+00 4.648187e-01 1.367956e-01 1.558364e-01 1.106512e-01 1.651001e-01 1.347274e-01 1.678326e-01 1.469831e-01 1.756925e-01 1.742789e-01 1.655570e-01 1.181787e-01 1.039021e-01
<GCONST> 1.015200e+02
<STATE> 4
<MEAN> 39
 -2.562137e-01 2.892296e+00 3.646330e+00 -3.041352e+00 -9.497567e+00 -1.007866e+00 -3.263720e+00 -1.009019e+00 3.359363e+00 -1.401502e+00 9.281260e-01 -9.196676e-01 1.183419e+01 4.495377e-01 5.143421e-01 -8.588433e-04 2.777544e-02 -3.759955e-01 -3.507698e-02 -1.265929e-01 -3.652654e-01 -2.392975e-01 1.436192e-01 3.051933e-02 -4.913332e-02 1.579140e-01 -9.346348e-02 6.061419e-02 -9.632203e-02 6.347695e-02 2.533253e-01 1.037522e-01 -1.144113e-02 -2.567326e-02 -7.663506e-02 5.266114e-02 8.984294e-02 2.863660e-02 -1.994005e-01
<VARIANCE> 39
 9.239408e+01 1.480645e+02 1.170057e+02 6.332505e+01 5.441027e+01 6.011272e+01 8.608805e+01 1.313178e+02 6.718038e+01 3.935386e+01 3.015522e+01 2.796546e+01 5.986205e+01 3.967869e+00 3.267935e+00 1.154195e+00 1.512299e+00 1.848596e+00 1.829528e+00 1.587054e+00 2.256294e+00 1.665463e+00 1.342217e+00 9.663371e-01 8.635672e-01 1.465153e+00 2.487335e-01 2.408833e-01 1.021400e-01 2.124532e-01 2.255198e-01 2.568557e-01 1.380751e-01 2.936062e-01 2.091329e-01 1.357710e-01 1.050587e-01 8.803140e-02 1.374617e-01
<GCONST> 1.099369e+02
<TRANSP> 5
 0.000000e+00 1.000000e+00 0.000000e+00 0.000000e+00 0.000000e+00
 0.000000e+00 8.523195e-01 1.476804e-01 0.000000e+00 0.000000e+00
 0.000000e+00 0.000000e+00 7.429161e-01 2.570839e-01 0.000000e+00
 0.000000e+00 0.000000e+00 0.000000e+00 6.623371e-01 3.376629e-01
 0.000000e+00 0.000000e+00 0.000000e+00 0.000000e+00 0.000000e+00
<ENDHMM>
~h "d"
<BEGINHMM>
<NUMSTATES> 5
<STATE> 2
<MEAN> 39
 5.308114e+00 4.083942e+00 3.146196e+00 4.573462e+00 3.349405e-01 -1.569580e+00 2.037327e+00 -1.463746e+00 -1.668283e+00 -1.359568e+00 -1.625946e+00 -1.296646e+00 -6.643784e-02 -5.088781e-01 -2.367721e-01 -2.091541e-02 -6.013118e-02 2.144952e-01 -2.989731e-01 1.295090e-01 4.518913e-01 9.107372e-02 9.454103e-02 4.539686e-01 -6.373990e-02 1.228634e-01 -1.466362e-01 -2.361549e-01 -6.209503e-02 -3.588043e-01 -2.622629e-01 -1.993417e-01 -1.772484e-01 9.848197e-02 1.443326e-01 1.247543e-01 5.908671e-03 1.028480e-01 4.908215e-01
<VARIANCE> 39
 3.155067e+01 4.610049e+01 4.452869e+01 3.551022e+01 4.805771e+01 5.214326e+01 5.605313e+01 5.302962e+01 4.748746e+01 4.136141e+01 3.677769e+01 2.738880e+01 3.822808e+01 7.811951e-01 1.313677e+00 1.160638e+00 1.150019e+00 1.276697e+00 1.490169e+00 1.374609e+00 1.431143e+00 1.328878e+00 1.236989e+00 1.046645e+00 8.168364e-01 1.245897e+00 1.305614e-01 1.551696e-01 1.441323e-01 1.605673e-01 1.982732e-01 2.833876e-01 2.287229e-01 2.107677e-01 1.963684e-01 1.773587e-01 1.442085e-01 1.200331e-01 1.136273e-01
<GCONST> 9.931998e+01
<STATE> 3
<MEAN> 39
 -1.537187e-01 1.221202e-01 3.208708e+00 1.182571e+00 7.912353e-01 -6.183233e+00 5.120004e-01 1.442098e+00 -3.819873e-01 -9.489793e-01 8.068976e-01 -1.654202e-01 5.170323e+00 -2.530372e-01 -5.683630e-01 -4.200108e-01 -8.653705e-01 -6.343092e-01 -9.668522e-01 -8.898106e-01 3.870126e-01 5.355594e-01 5.216451e-01 1.132527e-01 3.206327e-01 1.308589e+00 2.313809e-01 1.140629e-01 -9.365509e-02 -1.197029e-01 -1.600917e-01 1.837572e-01 -1.769081e-01 -1.535352e-01 2.344033e-02 1.023490e-01 -1.324640e-01 1.129439e-02 5.548783e-02
<VARIANCE> 39
 3.397789e+01 4.048633e+01 3.493717e+01 3.304403e+01 4.878689e+01 6.593644e+01 6.558162e+01 3.895229e+01 4.660087e+01 4.023600e+01 3.919747e+01 2.925523e+01 6.817810e+01 1.034633e+00 1.233956e+00 1.638939e+00 1.198292e+00 1.809775e+00 2.285908e+00 2.593872e+00 2.092483e+00 1.792747e+00 1.571680e+00 1.374237e+00 1.010090e+00 1.244426e+00 1.085809e-01 1.676405e-01 1.483522e-01 1.513394e-01 1.841517e-01 2.351955e-01 1.886162e-01 1.774118e-01 1.550937e-01 1.600152e-01 1.598467e-01 1.242593e-01 2.065323e-01
<GCONST> 1.027617e+02
<STATE> 4
<MEAN> 39
 2.080232e+00 4.328743e-02 1.803627e+00 -1.286591e+00 -4.500090e+00 -7.131459e+00 -3.577464e+00 3.664278e-01 1.005472e+00 1.478083e+00 -1.225451e-01 3.830380e-01 7.745895e+00 1.125325e-01 -1.406160e-01 -3.421133e-01 -7.181855e-01 -5.687741e-01 8.431128e-02 -5.890915e-01 -1.062401e-03 2.427356e-01 4.006095e-01 -6.543988e-02 6.009611e-02 6.508508e-01 5.356643e-02 8.128210e-02 9.046482e-03 2.899489e-02 1.097848e-01 2.761326e-01 1.161566e-01 -8.604498e-02 -1.096086e-01 -9.945163e-02 -5.891460e-02 -3.545369e-02 -1.307011e-01
<VARIANCE> 39
 1.671378e+01 2.346877e+01 2.835862e+01 2.413229e+01 5.301839e+01 4.250228e+01 7.596889e+01 4.133773e+01 4.767571e+01 3.660765e+01 3.412578e+01 2.692591e+01 4.563054e+01 9.776719e-01 1.186759e+00 1.457850e+00 1.111765e+00 1.724841e+00 1.375591e+00 1.657668e+00 1.908722e+00 1.553400e+00 1.384238e+00 1.193775e+00 8.526070e-01 1.124591e+00 6.535060e-02 8.660466e-02 8.371405e-02 9.870172e-02 1.433241e-01 1.305702e-01 2.025574e-01 1.235129e-01 1.404329e-01 1.176336e-01 1.341102e-01 1.062671e-01 8.757045e-02
<GCONST> 9.317995e+01
<TRANSP> 5
 0.000000e+00 1.000000e+00 0.000000e+00 0.000000e+00 0.000000e+00
 0.000000e+00 6.524464e-01 3.475536e-01 0.000000e+00 0.000000e+00
 0.000000e+00 0.000000e+00 5.246653e-01 4.753347e-01 0.000000e+00
 0.000000e+00 0.000000e+00 0.000000e+00 5.578349e-01 4.421651e-01
 0.000000e+00 0.000000e+00 0.000000e+00 0.000000e+00 0.000000e+00
<ENDHMM>
~h "e"
<BEGINHMM>
<NUMSTATES> 5
<STATE> 2
<MEAN> 39
 1.389228e+00 6.089841e-01 9.633540e+00 -4.050589e+00 -9.722137e+00 -3.342493e+00 1.309769e+00 -1.317694e+00 -9.491361e-01 3.502445e+00 8.820268e-01 -2.297365e-01 8.360704e+00 -1.082669e-01 -2.938387e-02 5.218074e-01 -9.998640e-01 -1.083140e+00 -1.097389e-02 3.368014e-02 -3.079735e-01 1.055262e-01 4.692370e-01 6.399767e-02 7.734270e-02 6.770416e-01 -1.548051e-02 6.873991e-02 -1.296362e-01 7.050098e-02 1.810305e-01 9.727754e-02 -3.290525e-02 -3.500991e-03 4.613683e-02 -9.716138e-02 -6.427245e-02 -4.862255e-03 -1.294384e-01
<VARIANCE> 39
 3.190071e+01 4.724520e+01 5.008379e+01 7.292568e+01 7.401450e+01 7.237648e+01 5.557653e+01 6.793784e+01 6.740984e+01 4.349193e+01 4.944324e+01 3.050826e+01 5.626952e+01 1.039740e+00 1.183706e+00 1.492573e+00 2.214908e+00 2.324614e+00 2.403236e+00 1.619184e+00 1.713575e+00 1.894730e+00 1.248090e+00 1.159104e+00 9.352641e-01 1.817825e+00 9.470056e-02 1.293692e-01 1.143250e-01 2.093492e-01 2.522685e-01 2.416565e-01 1.585600e-01 1.698073e-01 1.884876e-01 1.402782e-01 1.286907e-01 1.027570e-01 1.684858e-01
<GCONST> 1.047502e+02
<STATE> 3
<MEAN> 39
 -7.317433e-01 2.633811e+00 9.588357e+00 -9.031055e+00 -1.241701e+01 -1.371513e+00 8.218160e-01 -4.875249e+00 8.380502e-01 4.091887e+00 -6.555293e-01 6.884210e-01 9.676636e+00 8.364789e-02 1.892959e-01 -1.997260e-01 4.162038e-01 2.126569e-01 2.526596e-03 -8.193761e-03 1.074463e-03 -9.135772e-02 -2.228582e-01 -9.688322e-03 -9.360780e-02 -7.566892e-01 1.245690e-02 -2.161793e-04 -7.982744e-02 2.256756e-01 2.077078e-01 -9.168325e-03 -9.591894e-03 7.964385e-02 -3.455044e-02 -6.781159e-02 1.753623e-02 -5.310353e-02 -1.845405e-01
<VARIANCE> 39
 2.948612e+01 5.035754e+01 4.317072e+01 6.405007e+01 6.161571e+01 8.129701e+01 5.311754e+01 6.490086e+01 6.977650e+01 4.621076e+01 4.117107e+01 2.397049e+01 5.422283e+01 4.325491e-01 7.796903e-01 7.703909e-01 1.454254e+00 1.092618e+00 1.228669e+00 1.010252e+00 1.286578e+00 1.153822e+00 9.803975e-01 6.598692e-01 6.725157e-01 1.102437e+00 6.063771e-02 7.849632e-02 8.028394e-02 1.156982e-01 1.305475e-01 1.566464e-01 1.316540e-01 1.465936e-01 1.406137e-01 1.265693e-01 8.588097e-02 8.291981e-02 8.069893e-02
<GCONST> 9.217310e+01
<STATE> 4
<MEAN> 39
 2.113551e-02 2.079818e-01 7.063567e+00 -4.457833e-01 -6.975871e+00 -3.732246e+00 2.051781e+00 -7.199355e-01 -3.189061e+00 2.013046e+00 1.805959e+00 -4.219439e-01 1.121866e+00 -1.909617e-01 9.995632e-02 -4.588175e-01 4.653402e-01 7.917651e-01 1.696075e-01 1.272740e-01 8.047993e-02 3.693470e-02 -2.196357e-01 9.562507e-03 1.639260e-02 -7.184757e-01 -2.269384e-02 -1.521000e-02 -2.341289e-02 -7.249203e-02 1.567348e-02 3.210662e-02 -2.802003e-02 9.105628e-03 4.041924e-02 1.170631e-02 3.055378e-03 1.217524e-02 7.447220e-02
<VARIANCE> 39
 1.908711e+01 2.252497e+01 4.294091e+01 3.930774e+01 5.258173e+01 4.454704e+01 3.420537e+01 4.478940e+01 4.364041e+01 2.857238e+01 3.166022e+01 2.198277e+01 8.676182e+01 4.988419e-01 6.124717e-01 6.569489e-01 1.040079e+00 7.867697e-01 9.220121e-01 7.405503e-01 9.581354e-01 8.964384e-01 6.621537e-01 5.495722e-01 5.049528e-01 7.692277e-01 4.055313e-02 5.720671e-02 6.276598e-02 8.446972e-02 9.048611e-02 8.887552e-02 8.784720e-02 1.040518e-01 9.797287e-02 8.537868e-02 5.698744e-02 6.455608e-02 6.940578e-02
<GCONST> 8.022504e+01
<TRANSP> 5
 0.000000e+00 1.000000e+00 0.000000e+00 0.000000e+00 0.000000e+00
 0.000000e+00 6.548494e-01 3.451506e-01 0.000000e+00 0.000000e+00
 0.000000e+00 0.000000e+00 7.148016e-01 2.851983e-01 0.000000e+00
 0.000000e+00 0.000000e+00 0.000000e+00 8.051853e-01 1.948147e-01
 0.000000e+00 0.000000e+00 0.000000e+00 0.000000e+00 0.000000e+00
<ENDHMM>
~h "g"
<BEGINHMM>
<NUMSTATES> 5
<STATE> 2
<MEAN> 39
 1.379775e+00 3.467074e+00 6.342828e+00 -1.583822e+00 -2.140703e+00 -2.380347e+00 -9.324654e-01 2.111006e-02 1.984595e+00 2.095297e+00 3.858602e-01 -1.171865e+00 6.134781e+00 -3.177310e-01 -7.690068e-02 6.482170e-01 -6.457991e-01 -8.217412e-01 -4.365895e-02 -7.519003e-02 -3.717296e-01 9.260319e-02 4.502689e-01 2.776903e-02 6.789654e-02 7.409196e-01 8.857859e-02 -4.772570e-02 -2.193117e-02 -5.561193e-02 -1.777050e-01 3.072031e-02 2.021195e-02 -4.596070e-02 -8.096291e-03 2.938732e-02 -4.069366e-02 3.465894e-02 1.280502e-01
<VARIANCE> 39
 6.685369e+01 1.136455e+02 7.807064e+01 8.365278e+01 9.290239e+01 5.362690e+01 8.683463e+01 8.643124e+01 8.889569e+01 5.119139e+01 4.524818e+01 3.498813e+01 9.156799e+01 1.634050e+00 2.512106e+00 3.130142e+00 2.275665e+00 3.970752e+00 1.878014e+00 2.664335e+00 2.051604e+00 2.667683e+00 1.647121e+00 1.565607e+00 1.274903e+00 3.063051e+00 1.792606e-01 2.587935e-01 2.745717e-01 2.898479e-01 4.277437e-01 2.137081e-01 2.891518e-01 2.465388e-01 2.946963e-01 1.915990e-01 1.798617e-01 1.515098e-01 3.275877e-01
<GCONST> 1.192876e+02
<STATE> 3
<MEAN> 39
 6.732980e-01 2.026491e+00 1.084040e+01 -7.617833e+00 -1.158038e+01 -8.277799e-01 1.136016e+00 -6.101713e+00 -4.086506e-02 5.321944e+00 3.240334e-01 -5.277152e-01 1.181974e+01 2.738931e-01 -8.387087e-02 2.222857e-01 1.139046e-01 -6.001184e-01 -1.463015e-01 7.464506e-02 -6.298421e-02 -2.361179e-01 1.075861e-01 3.938178e-02 -4.654153e-02 -3.234641e-02 4.412786e-02 3.431492e-02 -2.270255e-01 2.199240e-01 3.213044e-01 -3.516896e-02 -4.508108e-02 1.969148e-01 -1.370177e-03 -1.782707e-01 -4.452413e-02 3.043304e-03 -2.674471e-01
<VARIANCE> 39
 3.277408e+01 5.170736e+01 8.571915e+01 8.645943e+01 9.335117e+01 5.027675e+01 8.718596e+01 7.336064e+01 5.829044e+01 6.408338e+01 6.189994e+01 4.585689e+01 4.847253e+01 7.670856e-01 1.516011e+00 1.420346e+00 1.846745e+00 2.519112e+00 1.257749e+00 1.565639e+00 1.835597e+00 1.583134e+00 1.427807e+00 1.090601e+00 1.011448e+00 1.615309e+00 8.448038e-02 1.239204e-01 1.716022e-01 1.897566e-01 2.961270e-01 1.645326e-01 1.949302e-01 1.833876e-01 1.763573e-01 1.555345e-01 1.449668e-01 1.405602e-01 1.620284e-01
<GCONST> 1.063692e+02
<STATE> 4
<MEAN> 39
 -1.763152e-01 2.341288e+00 1.165985e+01 -4.095852e+00 -9.321847e+00 -2.042683e+00 -2.241764e-01 -2.731698e+00 -6.469165e+00 4.031883e+00 1.299651e+00 -2.269102e+00 7.608614e+00 8.207066e-02 5.021117e-02 -1.212153e-01 1.340062e-01 4.533513e-02 -9.117763e-02 7.168106e-02 3.480299e-02 -1.234586e-02 -8.727221e-02 -5.674107e-02 6.645189e-02 -3.291181e-01 -3.112661e-03 -3.545360e-02 -7.710196e-02 3.670295e-02 6.907298e-02 -1.391813e-02 3.042977e-02 1.124023e-02 6.693136e-02 -3.927339e-02 -1.080953e-02 1.890855e-02 -1.913844e-02
<VARIANCE> 39
 3.427121e+01 2.626264e+01 6.795483e+01 4.269575e+01 4.781861e+01 3.439204e+01 4.775787e+01 3.989774e+01 7.855533e+01 3.556075e+01 3.925371e+01 3.234041e+01 3.774043e+01 3.944909e-01 5.962110e-01 8.828085e-01 9.370813e-01 1.280993e+00 7.587236e-01 8.722520e-01 8.914267e-01 1.121706e+00 8.485030e-01 8.185765e-01 7.006141e-01 8.681921e-01 3.832220e-02 6.110112e-02 9.137595e-02 9.584139e-02 1.323340e-01 7.990222e-02 9.558404e-02 9.718910e-02 1.238878e-01 9.327493e-02 9.267930e-02 8.512884e-02 8.343811e-02
<GCONST> 8.564919e+01
<TRANSP> 5
 0.000000e+00 1.000000e+00 0.000000e+00 0.000000e+00 0.000000e+00
 0.000000e+00 7.633811e-01 2.366189e-01 0.000000e+00 0.000000e+00
 0.000000e+00 0.000000e+00 5.767941e-01 4.232059e-01 0.000000e+00
 0.000000e+00 0.000000e+00 0.000000e+00 7.602501e-01 2.397499e-01
 0.000000e+00 0.000000e+00 0.000000e+00 0.000000e+00 0.000000e+00
<ENDHMM>
~h "h"
<BEGINHMM>
<NUMSTATES> 5
<STATE> 2
<MEAN> 39
 5.815619e+00 1.228957e+00 -6.198141e+00 -7.448213e+00 1.950682e+00 8.094169e-01 -3.260890e+00 -3.045171e+00 -4.186521e+00 4.871892e-01 9.509337e-02 2.241924e+00 7.585093e+00 3.192343e-01 1.520560e-01 -8.669499e-02 -1.086537e-01 1.956730e-01 1.780792e-01 1.830722e-01 4.200055e-02 -1.731192e-01 -1.216715e-01 -9.955963e-02 -9.430218e-02 -4.224640e-01 -4.399358e-02 -5.277634e-02 7.198701e-02 1.337913e-01 -5.148689e-02 -3.893628e-02 7.542100e-02 1.029200e-01 1.140333e-01 -3.601078e-02 -3.350410e-02 -6.993726e-02 -3.942481e-02
<VARIANCE> 39
 2.898869e+01 5.501052e+01 6.805000e+01 8.943886e+01 5.106825e+01 3.864518e+01 5.516653e+01 3.225250e+01 3.867083e+01 3.404610e+01 3.839867e+01 5.387799e+01 5.189188e+01 5.249088e-01 5.965008e-01 7.687641e-01 1.499323e+00 8.020984e-01 8.846248e-01 1.215191e+00 5.633318e-01 7.650083e-01 5.811501e-01 8.349828e-01 8.562319e-01 7.173426e-01 5.033625e-02 6.738358e-02 7.564648e-02 1.336695e-01 1.020640e-01 9.700242e-02 1.056786e-01 5.837162e-02 1.102390e-01 6.584033e-02 1.119935e-01 1.012577e-01 4.251340e-02
<GCONST> 8.583717e+01
<STATE> 3
<MEAN> 39
 6.228820e+00 -5.147312e-01 -4.201978e+00 -1.145942e+00 2.790004e+00 9.413755e-01 -1.529247e+00 -1.332213e+00 -3.973830e+00 -7.420502e-01 -3.326344e-01 -3.182330e+00 2.433585e+00 -3.103914e-01 4.388192e-02 6.642896e-02 4.534255e-01 5.430827e-01 2.736529e-01 4.093640e-01 4.481829e-01 2.324900e-01 -2.914070e-01 -1.072042e-01 -1.505341e-01 -5.703263e-01 -5.521428e-02 -4.449984e-02 6.517352e-02 1.781374e-02 -6.476180e-02 3.224444e-03 -1.918018e-02 2.002255e-02 1.342715e-02 -2.566878e-02 -8.429294e-03 1.036038e-01 6.059972e-02
<VARIANCE> 39
 2.748367e+01 5.482412e+01 5.200492e+01 7.080156e+01 5.370520e+01 4.370213e+01 5.263105e+01 3.227790e+01 5.536003e+01 5.189036e+01 4.104484e+01 3.639211e+01 4.173656e+01 3.276489e-01 1.031303e+00 7.531038e-01 8.372902e-01 5.521598e-01 5.231303e-01 6.493299e-01 7.266973e-01 1.038287e+00 7.390087e-01 9.514514e-01 1.030548e+00 3.815908e-01 2.797658e-02 6.201474e-02 7.548915e-02 8.404288e-02 1.020037e-01 7.131357e-02 6.009784e-02 7.411933e-02 1.279334e-01 8.819246e-02 1.080319e-01 9.369726e-02 2.413925e-02
<GCONST> 8.206551e+01
<STATE> 4
<MEAN> 39
 1.840646e+00 1.760440e+00 -8.350677e-01 -9.863847e-01 8.874201e-01 5.884990e-01 -8.105481e-02 -1.496099e+00 -2.494878e+00 -1.717254e+00 -9.085063e-01 3.057052e-01 -5.094076e-01 -6.869995e-02 -2.577977e-02 8.425330e-03 5.700901e-02 1.958853e-02 1.978655e-02 4.674190e-02 4.586939e-02 1.578378e-02 -3.302051e-02 2.232057e-02 6.768519e-02 -6.690511e-02 7.440829e-03 -1.963593e-02 1.217426e-02 -1.088671e-02 -1.333280e-02 4.836240e-04 -1.021789e-02 9.872215e-04 6.865771e-03 1.558494e-02 9.674221e-03 -9.626405e-03 2.907542e-02
<VARIANCE> 39
 2.002119e+01 2.157001e+01 4.113024e+01 3.007495e+01 3.640981e+01 3.300904e+01 2.720916e+01 2.756609e+01 3.289095e+01 3.135920e+01 2.536610e+01 1.972155e+01 2.476721e+01 2.158375e-01 3.626862e-01 4.727176e-01 4.817924e-01 5.220269e-01 4.194809e-01 5.073386e-01 6.207793e-01 5.917084e-01 5.745805e-01 5.322763e-01 4.431030e-01 2.013671e-01 1.616279e-02 3.455513e-02 4.392499e-02 5.159970e-02 6.571796e-02 4.633260e-02 6.288698e-02 7.504733e-02 6.169538e-02 6.560518e-02 5.810128e-02 4.697788e-02 1.591880e-02
<GCONST> 6.383012e+01
<TRANSP> 5
 0.000000e+00 1.000000e+00 0.000000e+00 0.000000e+00 0.000000e+00
 0.000000e+00 6.374131e-01 3.625869e-01 0.000000e+00 0.000000e+00
 0.000000e+00 0.000000e+00 5.999237e-01 4.000763e-01 0.000000e+00
 0.000000e+00 0.000000e+00 0.000000e+00 9.275823e-01 7.241768e-02
 0.000000e+00 0.000000e+00 0.000000e+00 0.000000e+00 0.000000e+00
<ENDHMM>
~h "i"
<BEGINHMM>
<NUMSTATES> 5
<STATE> 2
<MEAN> 39
 -1.084197e+00 5.137303e+00 9.088668e+00 -4.559699e+00 -4.248623e+00 -9.494507e-01 -2.448746e+00 -6.122715e+00 -1.476259e-01 1.543317e+00 -7.382792e-01 1.353146e+00 4.755370e+00 -1.993319e-01 5.438388e-01 1.064998e+00 -9.651171e-01 -6.586704e-01 -7.695879e-02 -5.741271e-01 -6.700314e-01 -1.560410e-01 1.905465e-01 -2.246543e-01 2.317078e-01 7.448798e-01 5.043155e-02 -2.106564e-02 -1.180794e-01 1.235979e-01 4.550496e-02 -1.828063e-02 5.095901e-02 1.159587e-01 -2.604782e-02 -2.870341e-02 2.705980e-02 -3.348297e-02 -8.077915e-02
<VARIANCE> 39
 4.001940e+01 6.032147e+01 7.225916e+01 9.445482e+01 6.927236e+01 5.800665e+01 7.504053e+01 6.542815e+01 6.387378e+01 5.190875e+01 4.832483e+01 3.991510e+01 7.406410e+01 1.582298e+00 1.608754e+00 2.226688e+00 2.477289e+00 2.034604e+00 1.680384e+00 2.184168e+00 1.894939e+00 2.288676e+00 1.581019e+00 1.445582e+00 1.265120e+00 2.019282e+00 1.542845e-01 1.658426e-01 2.376228e-01 3.318562e-01 2.466326e-01 1.973822e-01 2.311203e-01 2.264155e-01 2.256915e-01 1.834613e-01 1.719797e-01 1.513331e-01 2.240110e-01
<GCONST> 1.124449e+02
<STATE> 3
<MEAN> 39
 -8.752094e-01 6.683051e+00 1.261759e+01 -6.496113e+00 -7.955449e+00 -2.285658e+00 -3.520891e+00 -6.856602e+00 -2.740527e+00 2.165912e+00 -5.250752e-01 1.253973e+00 7.152268e+00 3.828762e-01 1.428797e-02 -2.545631e-01 9.397753e-01 1.003844e-01 -2.222117e-02 3.392383e-01 2.292451e-01 -2.502565e-01 -6.668919e-02 2.400017e-01 -3.480352e-01 -6.853510e-01 -4.889884e-02 -7.692379e-02 -2.602117e-01 2.536974e-01 2.364977e-01 3.604945e-02 1.392268e-01 1.162907e-01 8.841471e-02 -7.051407e-02 1.562200e-02 -5.307328e-02 -1.792615e-01
<VARIANCE> 39
 3.073705e+01 5.616685e+01 5.112994e+01 7.349672e+01 5.213076e+01 4.824789e+01 6.542830e+01 6.441606e+01 7.306425e+01 4.898682e+01 5.278542e+01 3.274007e+01 4.679557e+01 1.007793e+00 1.158310e+00 1.324715e+00 1.767850e+00 1.332859e+00 1.283170e+00 1.330963e+00 1.391361e+00 1.312660e+00 1.104221e+00 9.538069e-01 7.434269e-01 1.291649e+00 1.137473e-01 1.108672e-01 1.332042e-01 1.809053e-01 1.641772e-01 1.354663e-01 1.702356e-01 1.531600e-01 1.767131e-01 1.423228e-01 1.372360e-01 1.066759e-01 9.923178e-02
<GCONST> 9.969567e+01
<STATE> 4
<MEAN> 39
 -3.740457e-01 3.818576e+00 8.593864e+00 1.973871e+00 -2.903087e+00 -1.199634e+00 -6.198137e-01 -4.319237e+00 -4.708071e+00 -3.254806e-01 8.550737e-01 -6.392173e-01 7.038286e-01 -1.784360e-01 -9.108207e-02 -6.044472e-01 4.007030e-01 4.989606e-01 1.006923e-01 2.914737e-01 1.736020e-01 1.484042e-01 -8.394238e-02 3.593311e-03 -5.998353e-03 -4.820917e-01 -5.353010e-02 -4.088430e-02 -6.164263e-02 -1.118799e-01 6.799730e-03 -1.465411e-02 -3.980971e-02 2.677190e-02 6.548654e-02 1.798357e-02 1.320176e-02 3.460366e-02 8.577763e-02
<VARIANCE> 39
 3.303243e+01 3.173570e+01 5.275698e+01 4.184839e+01 4.255667e+01 3.734982e+01 4.321129e+01 3.750975e+01 4.732579e+01 3.558319e+01 3.132665e+01 2.634010e+01 6.482514e+01 8.463925e-01 9.309485e-01 1.056119e+00 1.174069e+00 1.008660e+00 9.178233e-01 9.201933e-01 9.005627e-01 1.042688e+00 7.577230e-01 7.383055e-01 6.004463e-01 9.470609e-01 8.274205e-02 7.430956e-02 1.054946e-01 9.004997e-02 1.102871e-01 9.753712e-02 1.147265e-01 1.078169e-01 1.185091e-01 9.674764e-02 8.009774e-02 7.056566e-02 8.642907e-02
<GCONST> 8.725288e+01
<TRANSP> 5
 0.000000e+00 1.000000e+00 0.000000e+00 0.000000e+00 0.000000e+00
 0.000000e+00 7.359502e-01 2.640498e-01 0.000000e+00 0.000000e+00
 0.000000e+00 0.000000e+00 6.539909e-01 3.460091e-01 0.000000e+00
 0.000000e+00 0.000000e+00 0.000000e+00 7.352549e-01 2.647451e-01
 0.000000e+00 0.000000e+00 0.000000e+00 0.000000e+00 0.000000e+00
<ENDHMM>
~h "j"
<BEGINHMM>
<NUMSTATES> 5
<STATE> 2
<MEAN> 39
 1.989507e+00 -4.576385e+00 -6.862273e-01 -1.206280e+00 -1.689718e+00 -1.938536e+00 4.568288e+00 4.046562e+00 9.478077e-02 -2.073453e+00 -4.197902e+00 9.031333e-01 8.583329e+00 -2.351175e-01 8.867143e-01 3.430346e-01 5.104086e-01 3.937925e-01 2.153073e-01 2.452751e-01 -2.330393e-01 -3.232251e-01 6.476251e-02 5.477641e-01 -2.539172e-01 -1.047939e+00 -1.351142e-01 -3.953611e-03 -1.323591e-01 -4.403280e-02 1.880334e-01 1.519106e-01 -4.500102e-02 3.543910e-02 5.319618e-02 -4.661924e-02 1.330706e-02 -9.257260e-02 3.117371e-02
<VARIANCE> 39
 1.454167e+01 2.878614e+01 2.368254e+01 2.512409e+01 3.180433e+01 2.498273e+01 3.237436e+01 3.750969e+01 4.223512e+01 3.123508e+01 2.928292e+01 2.408307e+01 5.034531e+01 8.948067e-01 7.084810e-01 6.562609e-01 1.022169e+00 1.124537e+00 8.999673e-01 8.314905e-01 8.717873e-01 1.081754e+00 8.232911e-01 8.026873e-01 6.504065e-01 5.830465e-01 1.078948e-01 7.145954e-02 7.146123e-02 1.438580e-01 1.570932e-01 1.353069e-01 1.052382e-01 9.195329e-02 8.143943e-02 8.412213e-02 1.114465e-01 1.004398e-01 8.680174e-02
<GCONST> 8.322274e+01
<STATE> 3
<MEAN> 39
 -1.852623e+00 1.863924e+00 -1.202330e+00 4.740756e-01 3.190161e+00 8.913034e-01 4.946468e+00 4.191982e+00 -7.588286e-01 -2.111935e+00 -9.471633e-01 -2.337669e+00 3.734873e+00 -2.007226e+00 1.138451e+00 4.892960e-01 -6.866395e-01 3.305873e-01 -6.525663e-02 -5.420826e-02 1.600969e-01 -2.267620e-01 2.630181e-01 8.908019e-01 -2.564383e-01 3.623587e-01 -1.228438e-02 -1.536878e-01 2.860762e-01 -2.430190e-01 -4.219785e-01 -2.914380e-01 -1.204845e-01 -1.988908e-02 -6.048021e-02 1.179557e-01 8.044475e-02 1.131756e-01 3.947772e-01
<VARIANCE> 39
 6.836593e+01 3.663491e+01 3.687939e+01 4.970709e+01 3.582962e+01 3.209998e+01 4.102173e+01 3.265286e+01 3.972760e+01 2.973359e+01 2.639017e+01 2.401291e+01 3.125324e+01 2.155924e+00 1.392907e+00 1.320425e+00 1.287915e+00 1.402096e+00 1.403484e+00 1.269281e+00 1.019210e+00 8.326645e-01 9.832792e-01 1.164889e+00 8.824243e-01 9.544963e-01 5.037929e-01 1.856318e-01 1.065724e-01 2.484006e-01 1.821367e-01 1.477753e-01 1.472563e-01 1.326378e-01 1.463374e-01 9.820484e-02 1.248987e-01 1.039630e-01 6.343471e-02
<GCONST> 9.568230e+01
<STATE> 4
<MEAN> 39
 -7.813299e+00 4.566636e+00 6.088504e+00 -4.961243e+00 -3.452308e+00 -3.859536e+00 3.690837e+00 2.782809e+00 -3.193793e+00 4.046490e-01 4.453000e+00 -2.124532e+00 1.038692e+01 1.001100e+00 -8.039799e-01 4.973126e-01 -3.098919e-01 -1.572634e+00 -7.722299e-01 -2.515689e-01 1.973042e-01 1.652264e-01 2.559174e-01 9.851309e-02 3.731447e-01 7.685590e-01 4.257943e-01 -2.465003e-01 -2.293202e-01 1.674616e-01 4.551930e-02 7.740598e-02 -3.171882e-02 6.246547e-02 1.158210e-01 -7.748792e-02 -2.977166e-01 4.238889e-02 -1.100756e-01
<VARIANCE> 39
 7.256380e+01 4.581906e+01 2.640065e+01 2.557067e+01 6.781146e+01 4.327333e+01 5.089415e+01 4.041056e+01 4.320377e+01 3.570461e+01 3.375145e+01 3.882560e+01 3.519757e+01 2.716597e+00 2.140575e+00 1.516635e+00 1.576511e+00 1.730454e+00 1.039420e+00 1.375914e+00 1.797338e+00 1.493653e+00 9.308823e-01 1.474747e+00 7.071704e-01 6.579204e-01 4.416801e-01 2.513366e-01 1.290814e-01 1.236553e-01 4.303272e-01 1.495320e-01 1.436294e-01 1.762847e-01 1.169932e-01 1.326955e-01 1.329588e-01 1.100133e-01 5.972151e-02
<GCONST> 1.001086e+02
<TRANSP> 5
 0.000000e+00 1.000000e+00 0.000000e+00 0.000000e+00 0.000000e+00
 0.000000e+00 7.955554e-01 2.044446e-01 0.000000e+00 0.000000e+00
 0.000000e+00 0.000000e+00 7.466715e-01 2.533285e-01 0.000000e+00
 0.000000e+00 0.000000e+00 0.000000e+00 8.282264e-01 1.717736e-01
 0.000000e+00 0.000000e+00 0.000000e+00 0.000000e+00 0.000000e+00
<ENDHMM>
~h "k"
<BEGINHMM>
<NUMSTATES> 5
<STATE> 2
<MEAN> 39
 -2.934460e-01 1.298550e+00 2.460052e+00 3.368881e+00 -3.003242e+00 -2.904539e+00 -2.870712e-01 -4.029237e+00 -1.465423e+00 2.119482e+00 8.935760e-01 -3.572108e-01 -4.145183e+00 -1.644397e-02 -8.582999e-01 -1.507129e+00 2.161675e-01 1.082191e+00 -2.192106e-02 1.373355e-01 4.949548e-01 3.664407e-01 1.982590e-01 1.620453e-01 8.522821e-02 -1.733041e-01 2.335788e-02 -7.141678e-02 -1.703801e-01 -2.556522e-01 7.486705e-02 8.234868e-03 -4.188533e-02 1.696894e-01 8.581379e-02 -8.943535e-04 -3.709273e-02 -8.691477e-03 4.639946e-01
<VARIANCE> 39
 2.664453e+01 4.376892e+01 6.943699e+01 5.244556e+01 9.903354e+01 6.317121e+01 5.338451e+01 5.089632e+01 5.332921e+01 5.247739e+01 3.177034e+01 2.636957e+01 3.047599e+01 8.405020e-01 1.527861e+00 1.892647e+00 2.276725e+00 1.893647e+00 2.566892e+00 1.851902e+00 1.865141e+00 1.536447e+00 1.456494e+00 1.287425e+00 7.059103e-01 1.836619e+00 1.173961e-01 1.712596e-01 2.043889e-01 1.751857e-01 2.454985e-01 3.065785e-01 1.832698e-01 1.863215e-01 1.575805e-01 1.830869e-01 1.335377e-01 1.072830e-01 1.286049e-01
<GCONST> 1.044790e+02
<STATE> 3
<MEAN> 39
 -1.824930e+00 -5.448242e+00 -8.372505e+00 3.234072e+00 5.985806e+00 -2.846467e+00 7.416340e-01 2.459643e+00 2.147736e+00 2.928048e+00 9.050038e-01 2.594772e-02 -3.638602e-01 4.647483e-01 -3.522605e-01 -9.607865e-01 -7.667977e-01 2.678651e-01 2.731186e-02 -9.419876e-02 4.861331e-01 5.366596e-01 -8.802410e-02 -2.144012e-01 -1.224144e-01 1.701269e+00 2.718166e-01 2.722355e-01 3.981426e-01 -2.615327e-01 -4.533379e-01 1.047993e-01 -8.934581e-02 -1.897838e-01 -8.236314e-02 -8.405072e-02 -9.241509e-02 -6.461757e-02 1.990050e-01
<VARIANCE> 39
 4.700982e+01 5.199609e+01 1.003283e+02 8.126571e+01 7.865340e+01 1.132008e+02 7.798351e+01 5.659605e+01 6.628118e+01 4.069548e+01 5.284783e+01 2.556885e+01 1.230596e+02 1.654922e+00 1.933717e+00 2.517519e+00 2.042512e+00 2.931985e+00 3.666407e+00 2.119211e+00 2.088210e+00 2.228938e+00 2.042963e+00 1.528038e+00 1.018557e+00 2.805551e+00 1.509523e-01 2.402524e-01 2.464907e-01 3.070008e-01 2.615052e-01 4.420673e-01 2.740165e-01 2.229980e-01 2.098365e-01 1.747495e-01 2.280080e-01 1.100563e-01 3.265467e-01
<GCONST> 1.165847e+02
<STATE> 4
<MEAN> 39
 3.051983e+00 -2.162701e+00 -7.148995e+00 -1.988203e+00 1.974317e+00 -1.740684e+00 -2.494134e-01 1.131094e+00 2.592848e+00 2.949444e+00 6.433655e-01 -9.991150e-01 4.913760e+00 1.094347e+00 3.253509e-01 7.392757e-02 -1.117311e+00 -8.284108e-01 3.589144e-01 -2.953616e-01 -9.493554e-02 1.115925e-01 -2.256391e-01 -1.983154e-01 -1.750447e-01 1.262609e+00 2.406449e-02 1.116503e-01 2.706837e-01 9.430598e-02 -1.152525e-01 6.879804e-02 -4.422439e-02 -1.483652e-01 -1.447618e-01 -6.835528e-02 -3.214193e-02 4.639477e-02 -1.897096e-01
<VARIANCE> 39
 4.243143e+01 4.445691e+01 6.853377e+01 6.086075e+01 8.468585e+01 7.147931e+01 5.272545e+01 7.203654e+01 6.846057e+01 6.316353e+01 5.240494e+01 3.506728e+01 5.560919e+01 9.499419e-01 1.771077e+00 1.870001e+00 1.374337e+00 2.246577e+00 2.226316e+00 1.690142e+00 2.463898e+00 2.315606e+00 1.666438e+00 1.646237e+00 1.220441e+00 1.180032e+00 1.621640e-01 1.743537e-01 1.775450e-01 1.839207e-01 3.344057e-01 2.814211e-01 2.300963e-01 2.820596e-01 2.275277e-01 2.425985e-01 1.880301e-01 1.385208e-01 1.680496e-01
<GCONST> 1.107128e+02
<TRANSP> 5
 0.000000e+00 1.000000e+00 0.000000e+00 0.000000e+00 0.000000e+00
 0.000000e+00 7.091812e-01 2.908188e-01 0.000000e+00 0.000000e+00
 0.000000e+00 0.000000e+00 5.873459e-01 4.126541e-01 0.000000e+00
 0.000000e+00 0.000000e+00 0.000000e+00 4.808570e-01 5.191430e-01
 0.000000e+00 0.000000e+00 0.000000e+00 0.000000e+00 0.000000e+00
<ENDHMM>
~h "l"
<BEGINHMM>
<NUMSTATES> 5
<STATE> 2
<MEAN> 39
 6.721080e+00 -4.850578e+00 -1.726293e+00 -4.106469e+00 5.031734e-01 3.125942e+00 -7.520631e+00 7.669437e-01 1.208291e+01 1.958559e+00 -4.186343e+00 -3.022301e+00 9.795563e+00 1.981456e-01 3.612301e-02 2.806793e-01 2.727094e-02 -1.483799e-01 -5.735437e-01 -6.858876e-01 4.596866e-01 3.763210e-01 3.171798e-01 -1.086764e-01 -4.824480e-02 5.458795e-01 -7.422125e-02 7.827513e-02 -1.924309e-02 8.227754e-03 -9.972591e-03 2.488566e-02 1.794331e-01 1.877263e-02 -2.103775e-01 -3.289791e-02 8.845893e-02 -2.207412e-02 -9.395389e-02
<VARIANCE> 39
 4.111593e+01 6.554356e+01 7.197810e+01 5.302624e+01 4.905172e+01 1.377246e+02 7.314001e+01 6.629832e+01 1.981595e+02 6.387109e+01 5.206097e+01 3.123587e+01 1.446122e+02 1.201462e+00 1.846918e+00 2.330885e+00 1.705044e+00 1.575478e+00 3.298013e+00 1.491584e+00 1.852276e+00 4.146977e+00 1.265130e+00 1.541415e+00 9.822772e-01 4.125569e+00 1.553479e-01 1.802250e-01 2.440123e-01 1.705690e-01 2.023572e-01 4.253794e-01 1.534842e-01 3.153695e-01 4.403645e-01 1.864324e-01 1.538533e-01 1.361432e-01 3.770046e-01
<GCONST> 1.156961e+02
<STATE> 3
<MEAN> 39
 3.809238e+00 -2.475533e+00 1.598362e+00 -4.099379e+00 -2.989077e+00 -3.564479e+00 -8.402514e+00 3.277496e+00 3.245420e+00 -4.323534e+00 -3.181691e+00 8.343853e-01 8.954017e+00 -1.663655e-01 2.158147e-01 3.857765e-01 -1.520435e-01 -3.013512e-01 -6.026366e-02 -1.605928e-02 1.728318e-01 -2.651739e-01 6.556539e-02 4.160951e-02 1.595918e-01 -1.386512e-01 -8.829085e-02 -1.073736e-01 -2.337621e-01 -1.395871e-02 6.959406e-02 1.563708e-01 5.161573e-01 -5.991746e-02 -1.373761e-01 8.794472e-02 -4.000329e-02 -1.066554e-01 1.661266e-02
<VARIANCE> 39
 1.659510e+01 3.174366e+01 6.447674e+01 4.002917e+01 3.992934e+01 3.959574e+01 6.717297e+01 7.027203e+01 6.721498e+01 6.847485e+01 3.971476e+01 5.033377e+01 3.368803e+01 4.368363e-01 1.217696e+00 2.582365e+00 8.780139e-01 1.058221e+00 1.191420e+00 3.554115e+00 1.413147e+00 1.242302e+00 1.279714e+00 1.118216e+00 1.097689e+00 9.560835e-01 5.039062e-02 2.317780e-01 2.151883e-01 1.365038e-01 1.563597e-01 2.372137e-01 4.612158e-01 2.902475e-01 2.050760e-01 1.857615e-01 1.246985e-01 1.842576e-01 1.540117e-01
<GCONST> 1.016394e+02
<STATE> 4
<MEAN> 39
 2.357370e+00 -1.509395e+00 1.408941e+00 -2.913809e+00 -6.038725e+00 -3.085846e+00 -2.798499e+00 -6.124654e-01 4.059288e-01 -2.714690e+00 -2.651304e+00 5.633042e-01 1.048415e+01 -3.089681e-01 5.271739e-02 2.521434e-02 -1.190281e-01 -9.754388e-02 1.975623e-01 6.714018e-01 -9.560704e-03 -4.423716e-01 3.901453e-01 1.942299e-01 -1.712263e-01 -1.352939e-01 -2.074111e-02 4.548891e-02 -6.970852e-02 6.537508e-03 1.274938e-01 1.204976e-02 1.459688e-02 -2.266225e-02 3.989085e-02 1.631320e-02 2.589641e-02 -2.757189e-02 -3.392412e-02
<VARIANCE> 39
 4.191927e+01 4.280985e+01 4.738066e+01 5.528922e+01 4.458630e+01 3.474883e+01 6.746885e+01 6.431834e+01 7.058765e+01 7.252950e+01 2.785859e+01 3.456243e+01 3.816998e+01 9.816015e-01 1.129696e+00 1.479241e+00 1.139415e+00 1.452848e+00 1.251540e+00 2.556440e+00 1.559667e+00 1.310033e+00 1.387424e+00 6.629960e-01 5.748702e-01 7.173783e-01 7.947816e-02 1.032680e-01 1.089525e-01 1.185021e-01 1.368337e-01 1.585899e-01 2.304684e-01 1.365783e-01 1.596897e-01 1.603756e-01 8.029186e-02 8.595590e-02 8.559217e-02
<GCONST> 9.618137e+01
<TRANSP> 5
 0.000000e+00 1.000000e+00 0.000000e+00 0.000000e+00 0.000000e+00
 0.000000e+00 6.073442e-01 3.926558e-01 0.000000e+00 0.000000e+00
 0.000000e+00 0.000000e+00 5.195391e-01 4.804609e-01 0.000000e+00
 0.000000e+00 0.000000e+00 0.000000e+00 7.053581e-01 2.946419e-01
 0.000000e+00 0.000000e+00 0.000000e+00 0.000000e+00 0.000000e+00
<ENDHMM>
~h "m"
<BEGINHMM>
<NUMSTATES> 5
<STATE> 2
<MEAN> 39
 6.963770e+00 2.524221e+00 1.848583e+00 1.906591e+00 1.316847e+00 1.817374e+00 -1.626755e+00 -4.267057e+00 -2.455399e+00 1.116644e-01 -4.840031e-01 -1.765711e+00 3.242459e+00 5.661107e-01 -4.415242e-01 -5.208722e-01 -7.323763e-02 2.694678e-01 4.594680e-02 -5.739658e-01 1.170827e-01 6.509584e-01 3.785393e-01 -1.846970e-01 -4.582348e-01 8.528680e-01 -8.200999e-02 -2.293038e-01 -1.988081e-01 -1.353171e-01 5.405137e-02 -2.962111e-02 -4.660614e-02 2.437978e-01 1.618199e-01 2.196729e-02 -6.805259e-02 -6.030203e-02 1.015807e-01
<VARIANCE> 39
 3.811913e+01 3.747149e+01 9.158316e+01 7.817612e+01 8.569376e+01 6.589359e+01 6.919814e+01 6.511568e+01 7.313895e+01 4.347783e+01 4.380379e+01 3.135415e+01 5.556117e+01 1.363131e+00 1.657651e+00 2.178012e+00 2.944422e+00 1.932560e+00 1.759795e+00 1.901359e+00 2.113782e+00 2.652862e+00 1.472506e+00 1.118546e+00 1.101752e+00 3.031244e+00 1.518254e-01 1.675486e-01 1.711678e-01 3.009698e-01 2.474459e-01 2.161924e-01 2.362763e-01 2.875501e-01 2.256723e-01 1.808628e-01 1.375369e-01 1.241300e-01 2.114747e-01
<GCONST> 1.110687e+02
<STATE> 3
<MEAN> 39
 8.717739e+00 -2.751585e+00 -2.483700e+00 1.587676e+00 4.388219e+00 8.321228e-01 -8.102074e+00 -2.880628e+00 -8.950431e-01 2.369287e+00 -2.119664e+00 -6.467253e+00 6.351613e+00 4.924089e-03 -9.084752e-01 -7.091251e-01 -2.618537e-01 4.031887e-01 3.365015e-02 -6.467345e-02 1.058652e+00 4.957212e-01 -5.540860e-01 -2.933626e-01 -1.360047e-01 7.497811e-01 -2.092822e-01 4.432566e-02 1.139206e-01 -1.269380e-01 -1.450749e-01 -4.169729e-03 3.232224e-01 1.773630e-01 -1.110476e-01 -3.308090e-01 -3.086138e-02 2.942734e-01 3.324018e-02
<VARIANCE> 39
 1.913835e+01 2.938941e+01 5.083834e+01 5.467818e+01 4.429762e+01 6.347465e+01 4.617273e+01 5.800385e+01 8.245729e+01 6.500378e+01 3.980751e+01 3.429551e+01 3.021094e+01 6.956344e-01 1.480562e+00 1.467270e+00 2.007260e+00 1.675575e+00 1.294151e+00 2.004797e+00 2.519113e+00 1.798102e+00 2.310335e+00 1.294302e+00 1.236313e+00 1.031224e+00 5.421684e-02 1.358000e-01 2.264790e-01 2.481367e-01 1.561077e-01 1.660488e-01 1.898481e-01 2.729667e-01 1.845258e-01 2.687333e-01 1.338018e-01 1.136478e-01 1.155233e-01
<GCONST> 1.026651e+02
<STATE> 4
<MEAN> 39
 6.408864e+00 -6.028255e+00 -3.607197e+00 -5.049617e-01 4.659826e+00 8.604530e-01 -4.095320e+00 4.511017e-01 1.155283e+00 -4.077602e+00 -6.143201e+00 -1.900498e+00 1.214451e+01 -4.198274e-01 -2.227469e-02 1.416587e-01 -4.045672e-01 -2.005315e-01 4.972175e-03 6.206385e-01 3.564421e-01 -3.096358e-01 -4.193459e-01 1.701682e-02 3.681614e-01 2.004619e-01 -3.037519e-02 1.649280e-01 1.122037e-01 2.184473e-02 -6.942166e-02 -3.120934e-03 3.736604e-02 -1.719344e-01 -8.984157e-02 1.104822e-01 7.714507e-02 1.179296e-02 -1.212004e-01
<VARIANCE> 39
 3.416800e+01 5.188074e+01 7.694508e+01 5.672596e+01 6.159338e+01 6.840253e+01 6.613860e+01 8.676527e+01 1.261538e+02 6.575976e+01 4.627815e+01 3.167459e+01 6.342447e+01 1.073525e+00 1.341790e+00 1.940763e+00 1.767004e+00 1.489536e+00 1.631088e+00 1.885379e+00 2.129416e+00 1.961564e+00 2.062934e+00 1.294400e+00 1.132610e+00 1.489860e+00 8.355297e-02 1.438112e-01 1.799758e-01 1.785509e-01 1.549744e-01 1.404460e-01 1.632850e-01 2.733676e-01 2.263974e-01 2.481492e-01 1.414186e-01 1.081410e-01 1.260473e-01
<GCONST> 1.071307e+02
<TRANSP> 5
 0.000000e+00 1.000000e+00 0.000000e+00 0.000000e+00 0.000000e+00
 0.000000e+00 6.915510e-01 3.084491e-01 0.000000e+00 0.000000e+00
 0.000000e+00 0.000000e+00 6.270050e-01 3.729950e-01 0.000000e+00
 0.000000e+00 0.000000e+00 0.000000e+00 7.219213e-01 2.780788e-01
 0.000000e+00 0.000000e+00 0.000000e+00 0.000000e+00 0.000000e+00
<ENDHMM>
~h "n"
<BEGINHMM>
<NUMSTATES> 5
<STATE> 2
<MEAN> 39
 3.949694e+00 -2.099283e+00 1.062427e-01 4.459879e-01 3.879128e-01 -2.748329e+00 2.440074e-02 1.954600e+00 -2.674687e+00 -2.388759e+00 -3.413720e+00 -2.913723e-01 8.199306e+00 3.237557e-01 5.733048e-01 5.769926e-01 7.925121e-01 -2.317831e-01 -1.993420e-01 5.210834e-02 -5.041993e-01 -3.847670e-01 -1.286222e-01 -1.125862e-01 9.155342e-02 -7.273095e-01 4.248757e-02 3.883142e-02 -2.551293e-02 -5.254196e-02 -4.366435e-02 4.172026e-02 -5.582229e-02 -8.167295e-02 9.583871e-02 6.317975e-02 2.004614e-02 -3.686078e-02 -2.310718e-02
<VARIANCE> 39
 2.532691e+01 3.221631e+01 4.819873e+01 5.088343e+01 4.624635e+01 5.097791e+01 4.861496e+01 5.177595e+01 5.968104e+01 5.440041e+01 3.883282e+01 2.995868e+01 5.362628e+01 5.427975e-01 7.700291e-01 1.335534e+00 9.879755e-01 1.324775e+00 1.128281e+00 1.129666e+00 1.371939e+00 1.294733e+00 1.217708e+00 9.368138e-01 9.873908e-01 6.685569e-01 6.010594e-02 8.173607e-02 1.152701e-01 1.171924e-01 1.176273e-01 1.292454e-01 1.206277e-01 1.613437e-01 1.670168e-01 1.387283e-01 1.114162e-01 1.095368e-01 8.356260e-02
<GCONST> 9.272991e+01
<STATE> 3
<MEAN> 39
 6.099419e+00 -1.132891e-01 2.346968e+00 3.411341e+00 -1.204386e+00 -3.298184e+00 -4.089136e-01 -9.331427e-01 -2.981263e+00 -1.735825e+00 -4.095080e+00 2.714411e-01 6.228631e+00 3.267894e-01 5.474427e-01 3.747929e-01 4.730309e-01 -1.749311e-01 2.501477e-02 -1.505890e-02 -5.561360e-01 -7.752916e-02 -4.741828e-02 1.816572e-02 -2.623821e-02 -6.749632e-01 -8.981454e-02 -9.617428e-02 -1.451452e-01 -2.051193e-01 5.932111e-02 7.475185e-02 -1.353498e-02 1.190414e-01 8.070882e-02 -8.607198e-03 4.888880e-02 -5.955480e-02 1.160937e-01
<VARIANCE> 39
 2.080014e+01 2.981380e+01 3.328864e+01 3.568089e+01 4.028658e+01 5.517116e+01 4.652728e+01 4.769479e+01 5.356219e+01 3.962955e+01 3.685415e+01 3.310018e+01 3.784360e+01 4.432348e-01 8.070835e-01 1.186390e+00 9.041362e-01 9.594524e-01 9.108099e-01 9.728990e-01 1.230027e+00 1.071260e+00 1.118103e+00 7.657432e-01 7.756943e-01 5.504724e-01 4.180952e-02 7.984050e-02 8.748361e-02 9.241435e-02 1.077997e-01 1.118850e-01 1.089924e-01 1.451231e-01 1.180772e-01 1.055222e-01 9.857179e-02 8.665710e-02 5.145719e-02
<GCONST> 8.594863e+01
<STATE> 4
<MEAN> 39
 3.582447e+00 3.332314e-01 5.981104e-01 7.228431e-01 -4.514627e-01 -1.058337e+00 -1.413651e+00 -1.836403e+00 -2.124532e+00 -3.651990e+00 -3.832226e+00 -1.203627e+00 2.433374e+00 -4.911927e-02 1.433979e-01 4.639972e-02 5.283373e-02 1.524229e-02 -3.240797e-02 3.109694e-02 -5.591708e-02 -3.106102e-02 1.361928e-02 9.513278e-02 1.686926e-02 -1.951690e-01 -2.816831e-02 -5.327591e-02 -2.243833e-02 -5.712624e-02 1.548663e-02 5.552656e-03 6.339835e-03 5.739521e-02 3.268363e-03 3.470822e-02 3.385491e-02 -6.785869e-03 4.289667e-02
<VARIANCE> 39
 1.687794e+01 2.634045e+01 3.001901e+01 2.478582e+01 3.189457e+01 3.198227e+01 2.981291e+01 3.125767e+01 4.145492e+01 3.121931e+01 2.523840e+01 2.097353e+01 2.716834e+01 1.993519e-01 5.783176e-01 5.117117e-01 5.670734e-01 6.566373e-01 5.659265e-01 6.220311e-01 7.623161e-01 6.463902e-01 6.821277e-01 5.650441e-01 4.471883e-01 3.352444e-01 2.095045e-02 5.945578e-02 4.473028e-02 6.499723e-02 7.115502e-02 7.160414e-02 7.341656e-02 8.372740e-02 7.840201e-02 8.278730e-02 6.730200e-02 5.874267e-02 2.815080e-02
<GCONST> 6.942887e+01
<TRANSP> 5
 0.000000e+00 1.000000e+00 0.000000e+00 0.000000e+00 0.000000e+00
 0.000000e+00 3.565679e-01 6.434320e-01 0.000000e+00 0.000000e+00
 0.000000e+00 0.000000e+00 5.281400e-01 4.718601e-01 0.000000e+00
 0.000000e+00 0.000000e+00 0.000000e+00 8.788881e-01 1.211119e-01
 0.000000e+00 0.000000e+00 0.000000e+00 0.000000e+00 0.000000e+00
<ENDHMM>
~h "o"
<BEGINHMM>
<NUMSTATES> 5
<STATE> 2
<MEAN> 39
 -1.359010e+00 -9.663475e-01 -1.133250e+00 1.094916e+00 4.779211e+00 2.635525e+00 1.841293e+00 1.658033e+00 1.494327e-01 1.043933e+00 3.103783e+00 1.087238e-01 -1.224669e+01 9.976932e-01 6.235022e-01 -2.355656e-01 -8.521677e-01 -1.743558e-01 2.021148e-01 -4.456575e-01 -3.043996e-01 4.195717e-02 2.543437e-01 7.471924e-02 -1.532421e-01 7.624109e-01 1.209559e-01 2.498362e-03 -3.843788e-02 -9.672844e-02 -1.436316e-01 -6.939164e-02 -1.254751e-01 -7.266773e-02 6.895801e-02 8.187884e-02 -5.687616e-02 -5.529246e-02 2.732531e-01
<VARIANCE> 39
 9.028798e+01 4.674548e+01 5.214892e+01 6.326030e+01 5.844963e+01 4.763609e+01 4.375289e+01 4.008133e+01 3.923135e+01 3.730234e+01 2.809174e+01 1.971953e+01 3.878211e+02 1.798096e+00 1.249319e+00 1.496661e+00 1.339401e+00 1.705530e+00 1.516587e+00 1.243148e+00 1.109454e+00 1.617447e+00 1.311784e+00 1.039569e+00 6.802552e-01 6.391408e+00 1.690854e-01 1.337725e-01 1.672019e-01 2.069199e-01 1.425579e-01 1.753565e-01 1.656013e-01 1.278647e-01 1.602999e-01 1.396469e-01 1.061709e-01 7.946113e-02 4.701789e-01
<GCONST> 1.041050e+02
<STATE> 3
<MEAN> 39
 1.033025e+01 3.220011e+00 -7.234330e+00 -8.959189e+00 -1.799263e+00 3.778450e+00 -2.084076e+00 -3.005813e+00 -6.697997e-01 2.617336e+00 3.058003e+00 -4.979544e-01 5.566897e+00 7.768610e-01 -5.540965e-01 -7.747496e-01 -3.861979e-01 1.525297e-01 1.386256e-01 -1.236625e+00 -3.763310e-01 7.917658e-01 8.364422e-01 -3.094538e-01 -4.385580e-01 1.812425e+00 -3.719857e-01 -3.228595e-01 1.510856e-01 5.073372e-01 2.488240e-01 -2.687864e-01 -5.528120e-02 1.740268e-01 1.724001e-01 -7.412320e-02 -2.403682e-01 -6.837639e-02 -2.250680e-01
<VARIANCE> 39
 2.027257e+01 3.923708e+01 5.235399e+01 4.273264e+01 4.844570e+01 4.863194e+01 3.926631e+01 4.328875e+01 4.774057e+01 4.739672e+01 4.156965e+01 2.793757e+01 4.512164e+01 1.547974e+00 1.684671e+00 1.934194e+00 3.109888e+00 2.357046e+00 1.950414e+00 1.501334e+00 1.428632e+00 2.121890e+00 1.712807e+00 1.320842e+00 1.071787e+00 3.232262e+00 1.044085e-01 1.431566e-01 1.965340e-01 2.197472e-01 2.531237e-01 2.480623e-01 2.020197e-01 1.788951e-01 2.025464e-01 2.155135e-01 1.939260e-01 1.479190e-01 2.109655e-01
<GCONST> 1.060430e+02
<STATE> 4
<MEAN> 39
 8.130826e+00 -3.867279e+00 -7.961723e+00 -2.673156e+00 3.220322e+00 -6.092883e-01 -8.030332e+00 -1.667152e+00 5.727365e+00 5.174273e+00 -1.463545e+00 -3.667253e+00 9.102491e+00 -4.111100e-01 -3.020506e-01 6.556365e-01 1.109871e+00 7.571933e-02 -9.987820e-01 1.424603e-03 4.035085e-01 2.917004e-01 -5.178918e-01 -5.989136e-01 5.102989e-02 3.911235e-02 -7.108785e-02 2.485761e-01 2.275976e-01 7.362498e-02 -1.697580e-01 -3.195614e-03 3.009830e-01 -1.480336e-03 -2.785693e-01 -2.276152e-01 1.479139e-01 1.848839e-01 -2.531131e-01
<VARIANCE> 39
 2.293161e+01 2.401455e+01 4.362838e+01 5.381757e+01 6.226270e+01 5.170536e+01 4.329033e+01 5.523024e+01 6.665024e+01 7.480162e+01 5.141664e+01 3.298895e+01 4.386134e+01 6.849412e-01 1.139345e+00 1.368715e+00 2.018428e+00 2.320147e+00 1.531892e+00 1.748818e+00 1.162970e+00 2.080021e+00 1.507509e+00 1.615369e+00 1.230408e+00 1.622327e+00 9.048392e-02 1.205490e-01 1.566693e-01 2.492895e-01 2.354054e-01 2.009200e-01 1.855369e-01 1.699311e-01 2.521213e-01 2.264093e-01 1.945233e-01 1.414597e-01 1.584229e-01
<GCONST> 1.038295e+02
<TRANSP> 5
 0.000000e+00 1.000000e+00 0.000000e+00 0.000000e+00 0.000000e+00
 0.000000e+00 7.013600e-01 2.986400e-01 0.000000e+00 0.000000e+00
 0.000000e+00 0.000000e+00 6.903037e-01 3.096963e-01 0.000000e+00
 0.000000e+00 0.000000e+00 0.000000e+00 7.857960e-01 2.142040e-01
 0.000000e+00 0.000000e+00 0.000000e+00 0.000000e+00 0.000000e+00
<ENDHMM>
~h "p"
<BEGINHMM>
<NUMSTATES> 5
<STATE> 2
<MEAN> 39
 -3.787230e+00 -2.505500e-01 -4.036049e+00 4.454844e+00 2.815336e+00 4.723814e-01 1.586375e+00 8.044078e-01 -3.847108e-01 -6.197852e-02 2.422935e+00 -1.548595e+00 -4.727642e+00 -1.354613e-01 -1.042958e-01 -1.178778e-01 2.246223e-01 2.622632e-01 1.684241e-01 8.013827e-02 1.152255e-02 2.194707e-01 1.748132e-01 1.945372e-01 5.088688e-02 -6.018845e-01 1.828503e-02 -7.114360e-02 3.480814e-02 -9.257884e-02 -7.745158e-02 -6.298396e-02 -1.313548e-02 1.981029e-02 4.417311e-02 4.023271e-02 -2.715604e-02 8.103901e-03 1.909635e-01
<VARIANCE> 39
 8.046618e+01 5.844267e+01 2.795973e+01 5.322786e+01 6.160345e+01 4.956078e+01 4.043409e+01 3.733925e+01 4.998680e+01 3.797582e+01 2.571753e+01 2.568134e+01 6.134795e+01 9.204744e-01 7.385688e-01 6.183074e-01 7.548831e-01 9.146532e-01 8.098579e-01 7.920255e-01 7.898789e-01 7.976941e-01 6.573037e-01 5.832488e-01 5.113698e-01 1.261982e+00 9.671525e-02 7.728803e-02 7.288388e-02 9.891945e-02 9.039693e-02 1.021567e-01 1.065890e-01 9.906487e-02 1.052738e-01 9.634457e-02 7.151475e-02 6.200704e-02 1.082138e-01
<GCONST> 8.610342e+01
<STATE> 3
<MEAN> 39
 -1.953518e+00 -2.505638e+00 -3.265499e+00 3.448224e+00 2.673190e+00 2.573636e+00 1.827362e+00 1.021842e+00 2.324025e+00 1.244368e+00 1.954183e+00 -3.040281e-02 -7.546386e+00 -1.936012e-01 -2.476610e-01 2.450914e-01 -7.890233e-02 -1.836681e-01 -1.924086e-01 1.782499e-01 2.423846e-01 4.644826e-01 4.049882e-01 1.918250e-01 1.825923e-02 2.148034e-01 1.309769e-01 -6.455065e-02 5.474735e-02 -1.292945e-01 -1.371792e-01 -1.375753e-01 -7.984051e-02 9.680843e-02 2.134107e-02 -5.187174e-02 -1.129442e-01 -2.568019e-02 4.421099e-01
<VARIANCE> 39
 7.311667e+01 4.076427e+01 4.353478e+01 3.918126e+01 4.078170e+01 3.651854e+01 4.237469e+01 3.922320e+01 4.456845e+01 4.303379e+01 2.177655e+01 2.226090e+01 8.829468e+01 1.323811e+00 1.135282e+00 1.144725e+00 9.534009e-01 1.033430e+00 1.100619e+00 8.588856e-01 8.925679e-01 9.844242e-01 7.906233e-01 6.681010e-01 6.387308e-01 2.459302e+00 1.548439e-01 1.314615e-01 1.368401e-01 1.299732e-01 1.100804e-01 1.572817e-01 1.396998e-01 1.096623e-01 1.187096e-01 1.153418e-01 1.069301e-01 8.082258e-02 2.418831e-01
<GCONST> 9.359959e+01
<STATE> 4
<MEAN> 39
 -3.741683e+00 -3.955114e+00 -1.735648e+00 3.022005e+00 2.607255e+00 1.470586e+00 2.734641e+00 2.472920e+00 3.191379e+00 2.308393e+00 2.688581e+00 -1.003361e-01 -8.804043e+00 8.379729e-01 -3.190295e-01 1.407688e-02 -3.528740e-01 -5.475366e-01 -3.021055e-01 -1.986258e-01 9.342426e-02 2.059221e-01 -7.026935e-02 -5.028175e-01 -3.872463e-02 1.884101e+00 1.368603e-01 4.619398e-02 -2.038486e-02 -1.159868e-01 -6.594694e-02 -1.098111e-02 -1.090432e-01 1.465167e-02 -5.625033e-02 -1.163572e-01 -1.258250e-01 2.586925e-02 1.807078e-01
<VARIANCE> 39
 1.049214e+02 4.703464e+01 5.403544e+01 4.871511e+01 6.938059e+01 5.147133e+01 3.640495e+01 3.281122e+01 5.590402e+01 3.667272e+01 3.637999e+01 2.175795e+01 3.843992e+02 2.995263e+00 1.945340e+00 1.674048e+00 2.037988e+00 2.027132e+00 2.119315e+00 1.176044e+00 8.049079e-01 1.839971e+00 1.384401e+00 1.271359e+00 8.585114e-01 1.154050e+01 2.673210e-01 2.017836e-01 1.574297e-01 1.975903e-01 1.981876e-01 2.128071e-01 1.179021e-01 9.990027e-02 1.702385e-01 1.399054e-01 1.369528e-01 1.003044e-01 1.053401e+00
<GCONST> 1.094647e+02
<TRANSP> 5
 0.000000e+00 1.000000e+00 0.000000e+00 0.000000e+00 0.000000e+00
 0.000000e+00 6.498064e-01 3.501936e-01 0.000000e+00 0.000000e+00
 0.000000e+00 0.000000e+00 4.515637e-01 5.484363e-01 0.000000e+00
 0.000000e+00 0.000000e+00 0.000000e+00 6.608850e-01 3.391151e-01
 0.000000e+00 0.000000e+00 0.000000e+00 0.000000e+00 0.000000e+00
<ENDHMM>
~h "r"
<BEGINHMM>
<NUMSTATES> 5
<STATE> 2
<MEAN> 39
 -2.454980e+00 -9.780616e-01 1.697502e-01 3.650273e+00 1.577255e+00 1.312453e+00 1.737179e+00 2.496312e+00 1.564317e+00 1.360264e-01 3.233664e+00 8.978066e-01 -8.132508e+00 -7.935429e-02 2.940825e-02 2.131862e-01 9.559112e-02 9.701534e-02 1.711981e-01 -8.466551e-02 1.243318e-01 1.054148e-01 4.528303e-02 2.149211e-01 2.902990e-02 -4.758110e-01 5.687743e-02 -1.547121e-02 -1.674680e-02 -7.773693e-02 -4.404274e-02 -3.955224e-02 -4.733276e-02 -3.091156e-02 -2.998275e-02 2.035577e-02 -4.627294e-02 -3.632772e-02 7.544756e-02
<VARIANCE> 39
 6.320776e+01 4.038999e+01 4.372413e+01 5.181095e+01 6.788693e+01 4.680506e+01 4.519708e+01 3.609303e+01 4.552218e+01 4.712236e+01 4.102222e+01 2.089386e+01 3.864843e+02 1.094819e+00 7.303848e-01 8.271847e-01 7.217173e-01 1.046969e+00 9.332147e-01 8.755804e-01 1.034161e+00 1.063564e+00 9.174700e-01 7.642429e-01 4.533338e-01 1.416028e+00 1.016596e-01 6.839193e-02 6.833060e-02 8.399633e-02 1.039613e-01 9.024776e-02 9.282117e-02 1.086675e-01 1.128142e-01 1.003308e-01 8.040957e-02 6.211088e-02 9.612782e-02
<GCONST> 8.997440e+01
<STATE> 3
<MEAN> 39
 4.556989e-01 -2.467814e+00 1.729637e+00 1.666811e+00 -2.011818e+00 -4.264466e-01 2.695747e-01 2.915142e+00 2.402714e+00 -8.764036e-02 1.146674e+00 9.525813e-01 2.958306e+00 1.850224e-01 -1.058824e-01 4.116176e-01 -1.049735e-01 -2.847552e-01 1.997782e-02 -3.801211e-01 -2.001663e-02 -1.212234e-01 1.189335e-01 1.561287e-01 -1.518381e-01 1.159679e-01 9.929070e-02 -1.030522e-02 -7.791287e-02 -1.891683e-01 -7.894736e-02 -9.682401e-02 -4.793702e-02 -5.820038e-02 -5.465791e-02 4.786077e-02 -1.375722e-01 -6.345290e-02 1.838769e-01
<VARIANCE> 39
 3.478265e+01 3.299296e+01 4.454544e+01 4.162442e+01 6.165035e+01 5.034544e+01 4.442319e+01 3.761232e+01 5.318876e+01 3.442291e+01 3.351632e+01 2.357109e+01 1.297597e+02 7.646943e-01 8.041428e-01 1.378267e+00 7.646801e-01 1.369655e+00 1.195770e+00 1.214102e+00 1.377827e+00 1.475728e+00 1.232786e+00 1.066714e+00 6.325993e-01 1.359920e+00 7.333106e-02 8.962292e-02 1.164778e-01 1.015330e-01 1.744618e-01 1.289883e-01 1.344513e-01 1.387790e-01 1.625736e-01 1.183653e-01 1.180340e-01 1.011650e-01 1.062682e-01
<GCONST> 9.398823e+01
<STATE> 4
<MEAN> 39
 4.605939e-01 -3.309711e+00 1.338318e+00 1.330922e+00 -1.579563e+00 -5.375336e-01 1.967181e-01 3.878182e+00 2.579278e+00 -7.399991e-01 5.875114e-01 1.337345e-01 2.138396e+00 4.454656e-01 -2.218566e-01 1.039091e-01 -4.139503e-01 -4.731868e-01 -2.746517e-01 -3.942454e-01 -6.169219e-02 -1.554709e-02 9.338862e-02 -3.045819e-01 -1.870764e-01 1.015465e+00 5.298354e-02 1.221839e-02 -1.204859e-01 -9.704222e-02 1.322705e-03 -2.913803e-02 2.394288e-02 -7.310273e-02 -3.366745e-02 2.040519e-02 -9.843210e-02 5.816393e-03 9.295870e-02
<VARIANCE> 39
 4.862122e+01 4.622772e+01 5.549152e+01 4.393571e+01 7.281096e+01 5.545069e+01 5.609071e+01 4.411512e+01 5.776942e+01 4.117854e+01 4.488847e+01 2.489498e+01 2.046649e+02 1.374081e+00 1.541578e+00 1.923892e+00 1.259039e+00 2.235834e+00 1.703919e+00 1.837550e+00 1.417174e+00 1.738249e+00 1.398005e+00 1.623271e+00 8.082331e-01 4.806354e+00 1.452746e-01 1.482299e-01 1.672071e-01 1.428055e-01 2.222209e-01 1.848543e-01 1.702260e-01 1.329817e-01 1.587003e-01 1.258976e-01 1.676873e-01 9.732351e-02 3.535616e-01
<GCONST> 1.064635e+02
<TRANSP> 5
 0.000000e+00 1.000000e+00 0.000000e+00 0.000000e+00 0.000000e+00
 0.000000e+00 6.491289e-01 3.508711e-01 0.000000e+00 0.000000e+00
 0.000000e+00 0.000000e+00 2.074420e-01 7.925580e-01 0.000000e+00
 0.000000e+00 0.000000e+00 0.000000e+00 5.011942e-01 4.988058e-01
 0.000000e+00 0.000000e+00 0.000000e+00 0.000000e+00 0.000000e+00
<ENDHMM>
~h "s"
<BEGINHMM>
<NUMSTATES> 5
<STATE> 2
<MEAN> 39
 -1.014854e+01 9.372654e+00 -2.842995e+00 3.679614e+00 -5.670155e-01 -6.358232e+00 4.382801e+00 -4.778974e-01 -8.250758e-02 3.406464e-01 2.337622e+00 -6.832390e-02 6.317566e+00 -2.206243e+00 1.141048e+00 -9.104605e-01 5.218399e-01 9.802245e-01 -1.900421e-01 6.432002e-01 8.914813e-02 -1.904022e-01 4.121443e-02 4.068930e-01 -1.496520e-01 -3.412667e-01 9.472144e-02 -2.661025e-01 1.170869e-01 -1.937567e-01 -5.124551e-02 3.632257e-02 -1.585806e-01 5.539612e-02 -1.613351e-02 -2.162120e-03 -6.900559e-02 1.581409e-02 1.746234e-02
<VARIANCE> 39
 7.828558e+01 4.982559e+01 7.380997e+01 4.988471e+01 8.632649e+01 6.369544e+01 5.914979e+01 4.899729e+01 5.080735e+01 5.182659e+01 3.894034e+01 3.316407e+01 3.968206e+01 1.047580e+00 1.216041e+00 1.071635e+00 1.750020e+00 1.502613e+00 1.522936e+00 1.394588e+00 1.378429e+00 1.285107e+00 1.122738e+00 1.411283e+00 9.375197e-01 3.256095e-01 1.845838e-01 1.364577e-01 1.126529e-01 1.289368e-01 1.536553e-01 1.383927e-01 1.499951e-01 1.375832e-01 1.253502e-01 1.019242e-01 1.217558e-01 9.698655e-02 3.229757e-02
<GCONST> 9.746205e+01
<STATE> 3
<MEAN> 39
 -1.918559e+01 9.410141e+00 -4.189115e+00 5.003881e+00 1.939556e+00 -5.471460e+00 5.247850e+00 5.059109e-01 -1.177569e+00 7.642648e-01 3.988947e+00 -1.330512e+00 4.203699e+00 5.330271e-01 -8.152304e-01 4.036568e-01 -3.849104e-01 -2.564061e-02 -9.088688e-02 -2.341756e-01 1.179357e-01 6.583287e-02 -2.497410e-01 -2.160901e-01 5.178021e-02 6.870109e-02 5.980512e-01 -1.343324e-01 1.112822e-01 -1.284263e-01 -1.905966e-01 1.204952e-02 -1.479473e-01 -8.712365e-02 5.334888e-02 -4.641921e-02 -1.373452e-01 5.370086e-02 8.699993e-02
<VARIANCE> 39
 6.426132e+01 4.059842e+01 5.110202e+01 6.003269e+01 8.050187e+01 6.595187e+01 4.464996e+01 5.599560e+01 3.851410e+01 5.193325e+01 4.005334e+01 3.292253e+01 2.699079e+01 2.720407e+00 9.552604e-01 1.512985e+00 1.268589e+00 1.313434e+00 1.239914e+00 1.153428e+00 1.545101e+00 9.910028e-01 1.095585e+00 1.164241e+00 6.377074e-01 8.536518e-01 1.355126e-01 1.358489e-01 1.329046e-01 1.486807e-01 1.246952e-01 1.434132e-01 1.432335e-01 1.419312e-01 1.471367e-01 1.686014e-01 1.278730e-01 9.730280e-02 6.153941e-02
<GCONST> 9.764358e+01
<STATE> 4
<MEAN> 39
 -6.721684e+00 4.890192e+00 -2.706201e+00 -3.491518e-01 2.292566e+00 -7.427633e+00 8.897601e-01 1.686937e+00 9.455955e-01 -9.666107e-01 3.766664e-01 2.848553e-01 5.879809e+00 2.372012e+00 -4.784348e-01 1.396948e-02 -7.056538e-01 -5.720374e-01 3.817717e-01 -8.473337e-01 -3.458724e-01 2.137344e-01 1.567385e-01 -2.664699e-01 1.380724e-02 3.240968e-01 -5.254755e-02 1.186441e-01 -8.606167e-02 1.940580e-02 4.372603e-02 1.254780e-01 3.449928e-02 -8.949896e-02 -4.602981e-02 7.549845e-02 4.252410e-02 -1.678855e-02 -3.503863e-02
<VARIANCE> 39
 7.419238e+01 4.145882e+01 6.650420e+01 4.384181e+01 7.231939e+01 4.846606e+01 6.478111e+01 5.688129e+01 5.430521e+01 5.313820e+01 4.880518e+01 2.343584e+01 3.991339e+01 2.081626e+00 1.401929e+00 1.755796e+00 2.056637e+00 1.836903e+00 1.376473e+00 1.617611e+00 1.715411e+00 2.014702e+00 2.345680e+00 1.772669e+00 1.161613e+00 1.281172e+00 2.555507e-01 1.124950e-01 1.165233e-01 1.312056e-01 1.272787e-01 1.041123e-01 2.188171e-01 1.657525e-01 1.837599e-01 1.896411e-01 1.456326e-01 9.134140e-02 9.412692e-02
<GCONST> 1.041730e+02
<TRANSP> 5
 0.000000e+00 1.000000e+00 0.000000e+00 0.000000e+00 0.000000e+00
 0.000000e+00 8.084947e-01 1.915053e-01 0.000000e+00 0.000000e+00
 0.000000e+00 0.000000e+00 7.971193e-01 2.028807e-01 0.000000e+00
 0.000000e+00 0.000000e+00 0.000000e+00 6.598294e-01 3.401706e-01
 0.000000e+00 0.000000e+00 0.000000e+00 0.000000e+00 0.000000e+00
<ENDHMM>
~h "t"
<BEGINHMM>
<NUMSTATES> 5
<STATE> 2
<MEAN> 39
 8.193399e-01 9.362265e-01 -1.039393e+00 4.038531e+00 1.701208e+00 -3.859969e-01 1.593716e+00 -8.803757e-01 -2.447771e-01 -1.475511e+00 3.253366e-01 2.292652e-01 -4.220496e+00 -5.633610e-01 -4.883078e-01 -3.193723e-01 -5.262651e-02 1.906382e-01 8.220421e-02 2.551973e-01 3.483911e-01 3.788829e-01 2.748301e-01 3.872510e-01 -6.259579e-02 -4.499198e-02 -6.937701e-02 -7.652861e-02 9.414427e-02 -2.332801e-01 -1.497888e-01 -1.146538e-01 -2.058140e-02 5.673561e-02 4.203661e-02 2.612172e-02 -7.302940e-02 -2.665180e-02 5.378243e-01
<VARIANCE> 39
 4.685254e+01 5.349316e+01 7.702090e+01 4.102209e+01 5.281327e+01 5.215478e+01 6.419085e+01 5.382964e+01 5.365039e+01 4.641902e+01 3.331186e+01 2.507847e+01 1.072292e+02 1.224631e+00 1.199476e+00 1.248337e+00 1.237264e+00 1.098892e+00 1.673823e+00 1.277878e+00 1.415530e+00 1.590205e+00 1.190475e+00 8.902929e-01 6.946313e-01 2.751558e+00 1.919799e-01 1.479954e-01 1.418659e-01 1.172149e-01 1.492384e-01 2.282632e-01 2.030202e-01 1.670170e-01 2.020356e-01 1.534871e-01 1.219079e-01 9.440402e-02 2.572516e-01
<GCONST> 1.023279e+02
<STATE> 3
<MEAN> 39
 -4.590667e+00 -2.203587e+00 -9.842373e-01 5.625061e-01 1.653278e+00 -1.993400e+00 2.875435e+00 1.552454e+00 3.204083e+00 7.171870e-01 2.470670e+00 -3.286478e-01 1.605340e+00 2.421710e-01 -4.371947e-01 7.331565e-02 -9.205426e-01 -7.112411e-01 -6.562414e-01 -2.482853e-01 3.748841e-01 3.329204e-01 8.970026e-02 -3.865508e-01 -2.106724e-01 2.335274e+00 3.485512e-01 1.375177e-01 7.652438e-02 -1.331524e-01 -1.759008e-01 -6.465340e-03 -2.063016e-01 -1.054188e-01 -1.684885e-01 -4.964121e-02 -2.236879e-01 -2.860638e-02 1.630033e-01
<VARIANCE> 39
 5.398433e+01 4.434880e+01 5.148109e+01 3.554865e+01 5.094912e+01 5.077020e+01 4.675321e+01 4.336149e+01 4.652986e+01 5.021977e+01 4.354463e+01 2.715280e+01 1.192710e+02 2.016107e+00 1.932925e+00 2.262630e+00 1.584280e+00 1.899817e+00 2.063024e+00 2.946167e+00 2.637271e+00 3.032732e+00 1.865688e+00 1.546173e+00 9.623635e-01 3.710996e+00 1.895126e-01 1.623755e-01 1.651835e-01 1.316715e-01 1.592445e-01 1.850798e-01 1.795699e-01 2.124254e-01 1.873578e-01 1.914460e-01 1.715664e-01 1.170597e-01 3.651342e-01
<GCONST> 1.092076e+02
<STATE> 4
<MEAN> 39
 7.605256e-01 -1.128090e+00 1.165681e+00 -4.092922e+00 -3.820495e+00 -4.160074e+00 -1.445470e+00 5.362496e-01 1.791406e+00 -7.172580e-01 -1.826016e+00 -9.114971e-01 1.044742e+01 5.692913e-01 4.725274e-02 -5.928843e-02 -4.803893e-01 -3.350658e-01 -8.925954e-02 -2.898315e-01 -7.664123e-02 -2.288580e-01 3.608584e-02 -3.484605e-01 -7.213971e-02 7.221159e-01 3.642669e-02 9.338418e-02 1.918929e-02 6.340373e-02 5.829197e-02 1.712315e-01 -2.656072e-03 -1.020142e-01 -1.156504e-01 -1.483898e-02 7.218424e-03 4.380636e-02 -2.560070e-01
<VARIANCE> 39
 3.923737e+01 5.351797e+01 6.464881e+01 5.036600e+01 4.636609e+01 4.928179e+01 6.981617e+01 5.770139e+01 8.266129e+01 4.406124e+01 3.898991e+01 2.718838e+01 6.296063e+01 1.881258e+00 1.930559e+00 2.220036e+00 2.131351e+00 1.385633e+00 1.298766e+00 2.279420e+00 2.332731e+00 2.296641e+00 1.639499e+00 1.379643e+00 1.060369e+00 2.601229e+00 1.418426e-01 1.641697e-01 1.711569e-01 1.921803e-01 1.598277e-01 1.955541e-01 2.887608e-01 2.090368e-01 2.367911e-01 1.674543e-01 1.284014e-01 1.226858e-01 3.061521e-01
<GCONST> 1.085148e+02
<TRANSP> 5
 0.000000e+00 1.000000e+00 0.000000e+00 0.000000e+00 0.000000e+00
 0.000000e+00 6.974489e-01 3.025511e-01 0.000000e+00 0.000000e+00
 0.000000e+00 0.000000e+00 5.984087e-01 4.015913e-01 0.000000e+00
 0.000000e+00 0.000000e+00 0.000000e+00 6.102568e-01 3.897433e-01
 0.000000e+00 0.000000e+00 0.000000e+00 0.000000e+00 0.000000e+00
<ENDHMM>
~h "u"
<BEGINHMM>
<NUMSTATES> 5
<STATE> 2
<MEAN> 39
 7.057251e+00 2.963020e+00 -4.278671e+00 -3.401384e+00 9.838505e-01 -1.753766e+00 -8.436905e+00 -5.167471e+00 -5.998000e-01 3.544436e+00 2.688150e+00 5.957562e-01 4.352741e+00 3.423898e-01 5.350170e-01 -3.698391e-01 -3.449148e-01 2.286947e-01 4.584838e-01 9.385913e-02 -4.620864e-01 -4.928725e-01 3.052090e-02 3.303286e-01 1.004428e-01 -5.204139e-01 -1.466044e-01 -5.094898e-02 1.508905e-01 1.553666e-01 -6.532940e-03 -9.618175e-03 2.999135e-01 1.597209e-01 -2.970651e-03 -1.817764e-01 -8.854713e-02 1.734935e-02 -1.279354e-01
<VARIANCE> 39
 2.367945e+01 2.391778e+01 4.109439e+01 3.773223e+01 3.415398e+01 5.036545e+01 5.313328e+01 3.550542e+01 5.081564e+01 4.704566e+01 3.775570e+01 2.979506e+01 4.163168e+01 6.528481e-01 5.849654e-01 9.655737e-01 1.195096e+00 1.038428e+00 1.006628e+00 1.696629e+00 1.008031e+00 1.360033e+00 1.192808e+00 9.080647e-01 7.103234e-01 5.989348e-01 6.345093e-02 7.145068e-02 9.100285e-02 1.138789e-01 1.221926e-01 1.360001e-01 1.883394e-01 1.145344e-01 1.690612e-01 1.473563e-01 1.184671e-01 1.042575e-01 5.673311e-02
<GCONST> 8.932823e+01
<STATE> 3
<MEAN> 39
 6.340382e+00 4.573699e+00 -4.195961e+00 -1.950848e+00 1.310631e+00 -5.753990e-01 -3.550723e+00 -3.359693e+00 -2.865949e+00 1.898105e-01 3.036735e+00 9.960405e-01 -1.943471e+00 -4.793452e-01 -4.087287e-02 3.223302e-01 4.944893e-01 1.652764e-01 1.198163e-01 5.864419e-01 3.156351e-01 -3.263474e-02 -3.114434e-01 -1.143473e-02 1.026341e-02 -9.094239e-01 -8.937217e-02 -9.469018e-02 4.190058e-02 7.277832e-02 -7.291548e-04 -4.758083e-02 -9.069329e-03 6.249603e-02 6.964317e-02 9.925347e-04 -3.595433e-02 -2.877354e-02 3.781473e-02
<VARIANCE> 39
 3.634501e+01 3.577910e+01 4.303029e+01 5.527644e+01 3.865638e+01 5.083799e+01 4.536550e+01 4.035064e+01 4.399965e+01 4.843593e+01 3.923200e+01 2.747178e+01 7.281802e+01 7.175034e-01 7.413095e-01 7.061058e-01 9.269397e-01 9.345816e-01 1.150946e+00 9.012372e-01 7.646630e-01 9.206687e-01 9.380215e-01 6.804081e-01 6.610575e-01 7.211720e-01 4.976585e-02 5.765865e-02 6.686770e-02 9.229700e-02 8.920840e-02 1.155935e-01 1.043184e-01 9.968628e-02 1.153626e-01 1.029921e-01 7.698813e-02 7.692827e-02 6.330496e-02
<GCONST> 8.562210e+01
<STATE> 4
<MEAN> 39
 3.373487e-01 2.894100e+00 -2.108064e+00 5.370161e-01 2.489774e+00 1.352977e-01 -6.336192e-01 -2.997763e+00 -2.844906e+00 -1.648710e+00 6.990995e-01 1.710212e+00 -4.865240e+00 -3.589421e-01 -1.002667e-01 8.378021e-02 2.553506e-01 1.666042e-01 4.600922e-02 1.609695e-01 1.474585e-01 7.209972e-02 -7.778848e-02 -1.817217e-02 1.441242e-02 -3.733138e-01 9.144165e-03 -3.746478e-02 7.922228e-03 -3.412033e-02 -1.685874e-02 -1.736004e-02 -4.907949e-02 1.475844e-03 2.536802e-02 4.247347e-02 1.569616e-02 -2.356123e-02 7.043555e-02
<VARIANCE> 39
 3.219988e+01 1.931647e+01 2.190351e+01 2.320234e+01 2.608283e+01 2.907184e+01 2.823123e+01 2.539250e+01 3.869159e+01 3.127402e+01 2.421189e+01 1.965714e+01 7.236440e+01 3.459017e-01 2.804004e-01 3.515107e-01 4.695612e-01 4.046462e-01 4.947115e-01 5.492255e-01 4.519843e-01 5.249944e-01 5.591504e-01 4.444751e-01 3.617698e-01 3.425001e-01 3.082011e-02 2.875618e-02 3.655702e-02 4.897890e-02 4.807083e-02 6.203140e-02 6.268236e-02 5.645170e-02 6.414299e-02 6.873812e-02 5.833581e-02 4.775172e-02 2.891215e-02
<GCONST> 6.416724e+01
<TRANSP> 5
 0.000000e+00 1.000000e+00 0.000000e+00 0.000000e+00 0.000000e+00
 0.000000e+00 7.159331e-01 2.840668e-01 0.000000e+00 0.000000e+00
 0.000000e+00 0.000000e+00 6.089813e-01 3.910186e-01 0.000000e+00
 0.000000e+00 0.000000e+00 0.000000e+00 8.452532e-01 1.547468e-01
 0.000000e+00 0.000000e+00 0.000000e+00 0.000000e+00 0.000000e+00
<ENDHMM>
~h "w"
<BEGINHMM>
<NUMSTATES> 5
<STATE> 2
<MEAN> 39
 6.906729e+00 -1.818468e+00 -7.428867e+00 -2.129056e+00 4.117858e+00 1.499263e+00 -2.174568e+00 -3.057371e-01 1.860362e+00 6.533929e-01 -4.213738e-01 -1.666090e+00 5.018979e+00 6.850081e-01 -3.077011e-01 -6.849259e-01 -5.716203e-01 1.787973e-01 4.833491e-01 -3.600392e-01 -6.493471e-02 4.826884e-01 6.086988e-01 -1.881923e-01 -5.038854e-01 6.248619e-01 -1.119061e-01 -7.700852e-02 2.041005e-02 -6.581344e-02 -4.813804e-02 -2.653633e-02 2.367036e-02 9.635410e-02 5.376192e-02 -3.657266e-02 -1.274596e-01 2.599481e-02 1.443112e-01
<VARIANCE> 39
 5.520213e+01 7.410307e+01 5.415250e+01 6.218356e+01 4.625122e+01 5.470988e+01 4.986658e+01 4.766518e+01 6.077827e+01 4.863515e+01 5.891125e+01 3.751291e+01 5.838069e+01 9.758884e-01 1.352202e+00 1.285558e+00 1.699156e+00 1.137143e+00 1.492720e+00 1.319461e+00 1.097757e+00 1.849332e+00 1.304295e+00 1.480099e+00 8.826704e-01 2.343848e+00 1.093290e-01 1.589185e-01 1.295857e-01 2.004691e-01 1.701862e-01 1.796978e-01 1.904147e-01 1.698606e-01 2.119177e-01 1.767184e-01 2.045483e-01 1.131340e-01 2.120047e-01
<GCONST> 1.042184e+02
<STATE> 3
<MEAN> 39
 8.914774e+00 -2.824452e+00 -1.007950e+01 -5.587085e+00 5.422117e+00 4.179396e+00 -4.678488e+00 6.424208e-01 3.349241e+00 4.401548e+00 -1.787432e+00 -5.136805e+00 7.277591e+00 9.183256e-02 -1.067079e-01 -6.647464e-02 -1.614325e-01 -7.785334e-02 -1.200040e-01 9.261078e-02 2.351891e-01 1.729863e-01 -7.468097e-02 -3.003016e-01 -4.526284e-02 1.741035e-01 -1.873439e-01 -3.115841e-02 2.447322e-01 1.193422e-01 -1.515469e-01 -1.680926e-01 1.930107e-01 8.320595e-02 -6.227916e-02 -2.495029e-01 -5.239687e-02 2.160506e-01 1.735901e-02
<VARIANCE> 39
 3.949505e+01 4.704282e+01 5.672789e+01 4.788690e+01 3.499524e+01 6.157650e+01 4.763882e+01 3.667602e+01 4.688564e+01 3.890361e+01 5.016183e+01 3.465156e+01 3.829545e+01 8.966675e-01 1.442534e+00 9.681920e-01 1.282906e+00 1.187358e+00 1.529956e+00 1.670621e+00 1.334496e+00 1.907625e+00 1.215360e+00 2.489745e+00 9.074890e-01 1.120292e+00 7.040893e-02 1.193500e-01 9.987837e-02 1.585201e-01 1.460034e-01 1.295276e-01 1.550489e-01 1.232213e-01 1.553054e-01 1.604340e-01 1.870125e-01 1.096238e-01 1.442128e-01
<GCONST> 9.814342e+01
<STATE> 4
<MEAN> 39
 7.367830e+00 -1.462591e+00 -8.959179e+00 -6.997213e+00 2.944602e+00 3.611434e+00 -1.523046e+00 -4.019322e-01 2.039823e+00 1.600296e+00 -1.586603e+00 -2.573999e+00 6.601130e+00 -1.261180e-01 3.760953e-02 4.275295e-01 1.202797e-01 -3.755746e-01 -4.653705e-01 1.179155e-01 1.699125e-01 -5.711441e-02 -1.846401e-01 -1.111757e-01 2.751287e-01 -6.601585e-02 -5.427153e-02 3.322411e-03 1.011905e-01 8.035997e-02 -4.819230e-02 -2.931077e-02 1.012890e-02 4.329682e-02 9.721499e-04 9.396825e-03 8.558623e-03 9.654127e-03 3.059613e-02
<VARIANCE> 39
 2.955191e+01 4.509456e+01 4.701207e+01 5.141583e+01 4.394188e+01 5.319743e+01 4.352114e+01 3.354781e+01 3.826971e+01 5.140583e+01 4.831405e+01 3.200019e+01 3.068742e+01 7.346856e-01 8.245890e-01 7.429594e-01 9.745393e-01 9.246619e-01 1.004102e+00 1.323063e+00 1.227093e+00 1.105182e+00 1.068971e+00 9.146992e-01 8.660580e-01 1.036875e+00 6.793599e-02 8.502285e-02 7.616226e-02 1.231512e-01 1.100072e-01 1.220903e-01 1.522067e-01 1.298630e-01 1.257932e-01 1.133740e-01 1.216491e-01 9.514394e-02 9.572187e-02
<GCONST> 9.050083e+01
<TRANSP> 5
 0.000000e+00 1.000000e+00 0.000000e+00 0.000000e+00 0.000000e+00
 0.000000e+00 5.770564e-01 4.229436e-01 0.000000e+00 0.000000e+00
 0.000000e+00 0.000000e+00 5.731109e-01 4.268891e-01 0.000000e+00
 0.000000e+00 0.000000e+00 0.000000e+00 7.116438e-01 2.883563e-01
 0.000000e+00 0.000000e+00 0.000000e+00 0.000000e+00 0.000000e+00
<ENDHMM>
~h "y"
<BEGINHMM>
<NUMSTATES> 5
<STATE> 2
<MEAN> 39
 -3.177809e+00 5.253955e+00 1.129717e+01 -6.857250e+00 -4.158401e+00 2.649641e-01 -4.143901e+00 -4.968336e+00 -2.167087e+00 -6.538513e-01 -1.215089e+00 -2.155425e-01 7.142705e+00 8.453456e-02 2.477112e-01 9.492995e-01 -7.724657e-01 -7.325997e-01 -1.531649e-03 -3.556561e-01 -2.074869e-01 2.166431e-02 2.698566e-01 5.598740e-02 1.086790e-01 5.821655e-01 1.225848e-01 -1.796955e-01 -2.167102e-01 6.210997e-02 -7.970980e-02 -5.558332e-02 1.494333e-01 1.420900e-01 4.324246e-02 7.360049e-02 3.190753e-03 -2.024781e-03 8.631263e-03
<VARIANCE> 39
 3.163431e+01 5.878846e+01 6.096206e+01 7.518955e+01 4.760003e+01 4.044948e+01 5.795228e+01 4.760987e+01 5.646818e+01 4.083331e+01 5.955981e+01 3.548343e+01 5.234678e+01 8.515933e-01 1.229507e+00 1.820333e+00 1.273714e+00 1.476475e+00 1.393169e+00 1.206328e+00 1.561608e+00 1.359471e+00 1.058322e+00 1.140118e+00 1.010143e+00 1.275494e+00 7.393553e-02 1.362305e-01 2.072664e-01 1.116645e-01 1.585591e-01 1.446337e-01 1.794480e-01 1.521174e-01 1.409423e-01 1.263376e-01 1.483458e-01 1.366509e-01 6.874568e-02
<GCONST> 9.912392e+01
<STATE> 3
<MEAN> 39
 -1.845700e+00 4.414092e+00 1.225336e+01 -1.102353e+01 -1.082597e+01 6.151594e-01 -1.357136e+00 -5.257534e+00 -1.385611e+00 3.347768e+00 -2.817523e-01 -2.125677e-01 1.138257e+01 5.196137e-01 -1.131451e+00 -9.852621e-01 3.412532e-01 -5.155038e-01 -4.376316e-01 9.203066e-01 9.561437e-01 -1.361703e-01 1.445453e-01 1.629592e-01 -1.656142e-01 4.529861e-01 5.889926e-02 -1.341360e-01 -3.186092e-01 2.774390e-01 3.248324e-01 -1.358507e-01 -1.820156e-02 2.371330e-01 -5.894655e-03 -1.873327e-01 -7.322131e-02 2.390041e-02 -8.824583e-02
<VARIANCE> 39
 2.481692e+01 5.127851e+01 6.065950e+01 8.609194e+01 4.820590e+01 4.918207e+01 6.386892e+01 6.814012e+01 7.143710e+01 3.593122e+01 6.672954e+01 3.702836e+01 4.045721e+01 4.116963e-01 1.330049e+00 1.324079e+00 1.365767e+00 1.182323e+00 1.725016e+00 1.823271e+00 1.500074e+00 1.766324e+00 1.312014e+00 1.047785e+00 9.900624e-01 7.045586e-01 4.441448e-02 1.164101e-01 1.400257e-01 1.365276e-01 1.914716e-01 1.645936e-01 2.152281e-01 1.518350e-01 1.686198e-01 1.319831e-01 1.392981e-01 1.138247e-01 7.464851e-02
<GCONST> 9.849044e+01
<STATE> 4
<MEAN> 39
 1.530074e+00 -3.280889e+00 5.256920e+00 -4.377423e+00 -8.539794e+00 -4.621433e+00 1.154099e+00 4.060173e+00 -3.237263e+00 -7.960945e-04 -1.087009e-01 -3.804830e-01 1.193021e+01 5.819034e-01 -6.746957e-01 -1.522314e+00 8.087724e-01 1.055128e+00 -4.587705e-01 -2.558622e-01 8.384476e-01 4.096064e-01 -4.188149e-01 -3.810412e-01 5.252670e-02 -1.493409e-01 -1.752990e-02 2.140335e-01 6.544170e-02 1.080232e-02 2.066146e-01 1.887431e-01 -1.925379e-01 -3.095142e-01 5.417014e-02 3.720649e-02 -3.051121e-02 -1.415845e-02 -1.988582e-01
<VARIANCE> 39
 2.506340e+01 3.207582e+01 5.352148e+01 5.733210e+01 4.594495e+01 6.162045e+01 6.531908e+01 6.644569e+01 6.130304e+01 3.783933e+01 4.233412e+01 3.150105e+01 3.971363e+01 3.306377e-01 8.446078e-01 1.462521e+00 1.367665e+00 1.288218e+00 1.539675e+00 1.716505e+00 1.812716e+00 1.796327e+00 1.402420e+00 1.365777e+00 8.660633e-01 6.062488e-01 2.983468e-02 7.992783e-02 1.160882e-01 9.786709e-02 1.332753e-01 1.816667e-01 1.892342e-01 1.758449e-01 1.574752e-01 1.293821e-01 1.243998e-01 9.913751e-02 4.131477e-02
<GCONST> 9.405962e+01
<TRANSP> 5
 0.000000e+00 1.000000e+00 0.000000e+00 0.000000e+00 0.000000e+00
 0.000000e+00 7.227016e-01 2.772985e-01 0.000000e+00 0.000000e+00
 0.000000e+00 0.000000e+00 7.157912e-01 2.842088e-01 0.000000e+00
 0.000000e+00 0.000000e+00 0.000000e+00 6.973175e-01 3.026825e-01
 0.000000e+00 0.000000e+00 0.000000e+00 0.000000e+00 0.000000e+00
<ENDHMM>
~h "aa"
<BEGINHMM>
<NUMSTATES> 5
<STATE> 2
<MEAN> 39
 4.594579e+00 -7.437685e+00 -6.483584e+00 -3.103516e+00 9.600731e-01 2.099084e+00 -4.216878e-01 3.946378e+00 4.303259e+00 -8.000716e-01 -5.445729e+00 -1.947144e+00 1.120112e+01 1.705288e-01 -1.141639e+00 -1.022287e+00 -6.626751e-01 6.385701e-01 8.918836e-01 -2.000472e-02 2.163174e-01 1.228995e-01 -4.248790e-01 -7.867593e-01 -1.174496e-01 1.229009e+00 -1.044486e-01 1.411457e-01 1.198593e-01 1.817507e-01 1.273046e-01 -3.057152e-02 -2.629639e-02 -1.611138e-01 -1.251507e-01 1.507599e-02 1.462606e-01 1.559654e-02 -2.078685e-01
<VARIANCE> 39
 2.666349e+01 3.823772e+01 5.004696e+01 6.194023e+01 6.626623e+01 6.004766e+01 5.226554e+01 5.479815e+01 9.611028e+01 6.348024e+01 4.526334e+01 3.261275e+01 5.033012e+01 8.315305e-01 1.041804e+00 1.330675e+00 1.331384e+00 1.503255e+00 1.629183e+00 1.492036e+00 1.399357e+00 1.579918e+00 1.483045e+00 1.308535e+00 9.814720e-01 1.218813e+00 7.636477e-02 1.021570e-01 1.245767e-01 1.455525e-01 1.627901e-01 1.910405e-01 1.381546e-01 1.689824e-01 1.623634e-01 1.588130e-01 1.403048e-01 9.062643e-02 1.093318e-01
<GCONST> 9.985638e+01
<STATE> 3
<MEAN> 39
 3.258426e+00 -1.005853e+01 -9.540926e+00 -2.462260e+00 7.040784e+00 4.196862e+00 -7.872152e-01 1.714880e+00 1.089709e+00 -3.449785e+00 -6.309282e+00 -1.733547e+00 1.369198e+01 -9.979889e-02 -1.300858e-01 -2.153015e-02 1.338065e-01 2.414608e-01 -1.721089e-02 -4.999437e-02 5.848471e-03 -7.778215e-02 -1.724927e-01 -7.625418e-02 5.425401e-02 4.711305e-02 1.598272e-03 1.475116e-01 1.518700e-01 1.356889e-02 -2.259066e-01 -1.486147e-01 5.700294e-02 4.339954e-02 5.152524e-04 2.909384e-02 6.150516e-02 3.334774e-02 -1.017326e-01
<VARIANCE> 39
 1.686155e+01 2.492520e+01 3.099808e+01 4.261671e+01 3.907979e+01 3.601176e+01 4.575246e+01 3.575233e+01 5.099363e+01 5.229109e+01 3.487174e+01 3.261128e+01 3.587630e+01 2.088300e-01 3.407971e-01 4.997960e-01 5.497454e-01 1.104652e+00 7.476401e-01 8.190735e-01 7.489120e-01 6.826407e-01 6.579232e-01 6.269116e-01 5.286541e-01 1.785226e-01 2.159553e-02 3.414831e-02 4.745705e-02 6.439410e-02 6.761223e-02 6.634068e-02 7.858944e-02 7.801314e-02 8.115649e-02 7.177194e-02 7.773316e-02 6.043611e-02 2.068781e-02
<GCONST> 7.192730e+01
<STATE> 4
<MEAN> 39
 3.627369e+00 -7.826619e+00 -6.902928e+00 -1.863879e+00 2.802012e+00 1.582253e+00 6.374468e-01 3.351004e+00 2.336881e+00 -3.281789e+00 -6.078937e+00 -1.216161e+00 1.005480e+01 -2.828347e-02 5.100458e-01 6.283649e-01 3.167904e-01 -5.598816e-01 -4.086998e-01 2.371936e-01 -1.291170e-01 -2.517903e-01 -3.787834e-02 3.901077e-01 1.921802e-01 -7.679820e-01 8.025059e-03 5.689912e-02 4.142572e-02 1.713841e-02 4.289041e-02 3.406677e-02 -5.129897e-02 -8.367783e-02 -1.823157e-02 8.712880e-02 7.109091e-02 -2.615212e-02 -8.318637e-02
<VARIANCE> 39
 2.118872e+01 3.112007e+01 3.407570e+01 3.868590e+01 4.272184e+01 5.416193e+01 4.976574e+01 5.077794e+01 7.780788e+01 6.702935e+01 3.884279e+01 3.284448e+01 7.064197e+01 5.285757e-01 5.899046e-01 8.086572e-01 7.584757e-01 1.088555e+00 1.156584e+00 1.123609e+00 1.082582e+00 9.857694e-01 9.885689e-01 8.127910e-01 6.711896e-01 5.594408e-01 5.409046e-02 6.740720e-02 6.314339e-02 8.680630e-02 1.108677e-01 1.399683e-01 1.265831e-01 1.338656e-01 1.080063e-01 1.049043e-01 9.417203e-02 7.181502e-02 6.272587e-02
<GCONST> 8.715215e+01
<TRANSP> 5
 0.000000e+00 1.000000e+00 0.000000e+00 0.000000e+00 0.000000e+00
 0.000000e+00 7.171075e-01 2.828926e-01 0.000000e+00 0.000000e+00
 0.000000e+00 0.000000e+00 8.433613e-01 1.566387e-01 0.000000e+00
 0.000000e+00 0.000000e+00 0.000000e+00 8.273097e-01 1.726903e-01
 0.000000e+00 0.000000e+00 0.000000e+00 0.000000e+00 0.000000e+00
<ENDHMM>
~h "ai"
<BEGINHMM>
<NUMSTATES> 5
<STATE> 2
<MEAN> 39
 -6.834206e+00 6.045450e-01 1.412677e+00 4.955549e+00 3.891207e+00 3.203988e+00 2.873007e-01 3.448842e+00 -2.526197e-01 2.506192e+00 3.808039e+00 -1.050790e+00 -2.303298e+01 2.780842e-02 9.104492e-02 1.618197e-01 -4.023914e-02 1.210029e-01 2.756716e-01 1.250558e-01 2.766743e-02 2.097008e-01 8.044188e-02 1.670554e-03 1.145099e-01 -4.851197e-01 1.068066e-01 2.770284e-02 1.154140e-02 1.728264e-02 -5.421123e-02 -1.016152e-01 -5.669223e-02 -8.897430e-02 -1.579318e-02 -5.459687e-02 -6.354807e-02 -1.959519e-02 2.577494e-01
<VARIANCE> 39
 5.758828e+01 2.546493e+01 3.278125e+01 3.625879e+01 4.540768e+01 4.073093e+01 3.491894e+01 3.536275e+01 4.304187e+01 3.844490e+01 2.734928e+01 1.596434e+01 4.783809e+02 1.337764e+00 6.714827e-01 5.794899e-01 5.326235e-01 6.212491e-01 1.155715e+00 6.293284e-01 8.204778e-01 1.309739e+00 7.285628e-01 8.329929e-01 5.528843e-01 4.426431e+00 1.883788e-01 5.962859e-02 4.465741e-02 7.635539e-02 7.781582e-02 1.469472e-01 1.046093e-01 1.248408e-01 1.520549e-01 7.720178e-02 1.058603e-01 6.659616e-02 7.486627e-01
<GCONST> 9.007249e+01
<STATE> 3
<MEAN> 39
 1.141893e+00 -2.942183e+00 1.581253e+00 4.421434e+00 -1.917464e+00 2.828737e+00 5.269121e+00 2.538481e+00 1.018897e+00 1.180000e+00 -1.595893e+00 1.463377e+00 2.672210e+00 3.288316e-01 2.482095e-01 3.475547e-01 -5.603907e-01 -1.235215e+00 -4.769402e-01 -5.595176e-01 -9.335676e-01 -3.841193e-01 -2.090056e-01 -6.474380e-01 -6.810720e-02 2.054329e+00 -1.598432e-02 9.664048e-02 8.389620e-02 -2.142527e-01 -8.269817e-03 -1.090012e-01 -2.846916e-01 -4.408444e-02 4.586155e-02 4.316223e-02 6.547315e-02 -6.790272e-02 1.007120e-02
<VARIANCE> 39
 2.443873e+01 4.382286e+01 3.606804e+01 6.654659e+01 8.979568e+01 4.458448e+01 6.828616e+01 3.393740e+01 4.621692e+01 3.445275e+01 3.775853e+01 2.003493e+01 3.003140e+02 1.836407e+00 1.089272e+00 1.270482e+00 1.703287e+00 1.386081e+00 9.727258e-01 2.537137e+00 2.475862e+00 1.819043e+00 1.166486e+00 9.612026e-01 6.593386e-01 8.218654e+00 7.730652e-02 1.066040e-01 1.232667e-01 1.220178e-01 1.218741e-01 1.214121e-01 2.440884e-01 2.063373e-01 1.430060e-01 1.333145e-01 9.401388e-02 6.945955e-02 4.613436e-01
<GCONST> 1.022285e+02
<STATE> 4
<MEAN> 39
 7.175175e-01 -2.074322e-01 7.081447e+00 -4.143495e+00 -8.459794e+00 -2.512841e+00 -5.623076e-01 -7.090531e-01 -1.405705e+00 6.608890e-01 -2.329071e+00 7.075854e-01 8.905743e+00 -5.123841e-02 3.842680e-01 1.669394e-01 5.372696e-02 6.615163e-02 -9.910695e-02 -1.252286e-01 -3.094080e-01 2.760939e-02 1.125699e-01 1.368542e-01 1.229867e-01 -2.761959e-01 1.989206e-02 -4.671480e-02 -9.079328e-02 5.102186e-02 6.506941e-02 3.445015e-02 2.201490e-02 6.051233e-02 3.136101e-02 -2.116244e-02 9.826267e-03 1.020054e-02 -2.097009e-02
<VARIANCE> 39
 1.993796e+01 3.291530e+01 4.180848e+01 4.344038e+01 3.416573e+01 2.415608e+01 3.970234e+01 6.882414e+01 5.907428e+01 3.996462e+01 2.907311e+01 3.410421e+01 5.979470e+01 4.590736e-01 8.081102e-01 9.212231e-01 9.472289e-01 8.384917e-01 6.828892e-01 1.035984e+00 1.716709e+00 1.327896e+00 7.318622e-01 7.680518e-01 7.970796e-01 1.130343e+00 3.017769e-02 5.692435e-02 6.461877e-02 7.737407e-02 7.635948e-02 7.921098e-02 1.150078e-01 1.847973e-01 1.362793e-01 9.919620e-02 1.087370e-01 1.049300e-01 4.748951e-02
<GCONST> 8.509902e+01
<TRANSP> 5
 0.000000e+00 1.000000e+00 0.000000e+00 0.000000e+00 0.000000e+00
 0.000000e+00 7.561923e-01 2.438077e-01 0.000000e+00 0.000000e+00
 0.000000e+00 0.000000e+00 5.464361e-01 4.535638e-01 0.000000e+00
 0.000000e+00 0.000000e+00 0.000000e+00 9.173559e-01 8.264410e-02
 0.000000e+00 0.000000e+00 0.000000e+00 0.000000e+00 0.000000e+00
<ENDHMM>
~h "bb"
<BEGINHMM>
<NUMSTATES> 5
<STATE> 2
<MEAN> 39
 9.502184e+00 5.345599e+00 -9.930403e+00 -1.381866e+01 -2.233008e+00 -2.468754e-01 -2.412201e+00 -1.499209e+00 -1.710651e+00 9.967267e-01 1.949327e+00 -1.307092e-01 3.406486e+00 -7.519761e-02 5.926918e-01 2.849865e-01 3.668318e-01 -7.454723e-03 3.493773e-01 3.331731e-01 -2.797776e-01 -5.854408e-01 -3.385619e-01 5.019583e-02 5.435289e-02 -6.560072e-01 -2.779466e-02 7.758244e-03 1.367759e-01 2.860065e-01 7.324539e-02 2.312946e-02 2.005271e-02 -2.802693e-02 3.604668e-02 1.979891e-02 -4.228404e-02 -7.124248e-02 -1.423890e-01
<VARIANCE> 39
 2.212902e+01 3.418328e+01 2.672311e+01 3.027583e+01 2.739302e+01 1.888718e+01 1.532713e+01 2.832638e+01 4.171823e+01 4.326652e+01 2.674085e+01 2.249903e+01 3.342785e+01 2.558406e-01 1.770397e-01 4.840434e-01 1.467458e+00 4.983989e-01 5.003701e-01 3.298311e-01 4.798428e-01 6.946977e-01 6.070940e-01 5.679830e-01 6.429278e-01 5.575123e-01 3.499647e-02 3.804533e-02 6.350861e-02 1.638899e-01 6.326485e-02 6.351718e-02 5.322327e-02 7.790823e-02 9.181947e-02 7.586550e-02 6.816451e-02 6.047199e-02 8.330645e-02
<GCONST> 7.047507e+01
<STATE> 3
<MEAN> 39
 7.477453e+00 3.589286e+00 -5.968876e+00 -2.712430e+00 1.448348e+00 3.753533e+00 -1.142902e+00 -2.384916e+00 -1.683980e+00 -3.385249e-01 -6.794937e-01 -1.239619e+00 9.943616e-01 -8.637551e-02 1.837789e-01 5.432030e-01 1.580799e+00 4.704793e-01 3.233908e-01 8.165345e-01 -1.615677e-01 1.076044e-01 -8.779024e-02 1.371287e-01 -9.601963e-02 -9.580202e-01 -5.994993e-02 -1.226278e-01 -4.652699e-03 -1.136291e-01 -7.006952e-02 -6.921739e-02 -2.654917e-02 4.830865e-02 1.119325e-01 5.761428e-02 -1.837883e-02 2.205021e-02 8.784648e-02
<VARIANCE> 39
 3.019471e+01 6.942867e+01 2.307704e+01 4.665764e+01 2.313446e+01 2.172334e+01 4.530090e+01 2.920151e+01 3.437965e+01 2.925358e+01 2.897520e+01 1.914123e+01 5.111557e+01 6.832126e-01 4.159593e-01 5.419584e-01 8.468367e-01 7.296934e-01 7.541634e-01 4.259086e-01 7.187297e-01 9.628017e-01 4.857238e-01 6.417283e-01 7.932148e-01 2.773305e-01 4.485203e-02 6.029817e-02 4.987584e-02 1.063848e-01 3.763528e-02 4.241313e-02 8.251596e-02 7.548731e-02 1.035610e-01 7.012606e-02 4.766279e-02 5.620974e-02 4.545928e-02
<GCONST> 7.373546e+01
<STATE> 4
<MEAN> 39
 3.123045e+00 1.049171e+00 -3.584043e+00 -2.125891e+00 2.700169e+00 4.319307e+00 5.625153e-01 -1.868884e+00 -1.511105e+00 7.697856e-02 9.926124e-01 -2.125029e+00 5.286896e-02 -2.193937e-01 -1.779440e-01 6.895916e-02 7.799879e-02 -4.618452e-02 -1.128726e-01 -8.736715e-02 2.089279e-01 1.424645e-01 7.417233e-02 -4.952422e-02 -7.202432e-02 1.018596e-01 2.383207e-02 -6.220838e-02 -2.074106e-02 -1.064911e-01 -6.913412e-02 -8.025178e-02 -7.193986e-02 5.319068e-02 4.889235e-02 4.036324e-02 -3.022045e-02 1.059046e-02 1.347017e-01
<VARIANCE> 39
 1.566672e+01 3.929334e+01 1.742591e+01 3.801613e+01 2.558649e+01 2.417947e+01 2.144729e+01 1.836697e+01 3.340686e+01 2.046357e+01 3.249901e+01 2.992370e+01 1.795342e+01 2.892913e-01 5.268750e-01 5.518674e-01 1.112428e+00 5.204214e-01 8.121891e-01 5.993698e-01 4.925625e-01 5.087884e-01 3.961023e-01 8.235924e-01 6.940520e-01 6.044302e-01 3.900221e-02 6.183188e-02 7.228576e-02 1.242125e-01 7.576476e-02 7.550120e-02 6.186080e-02 5.425788e-02 7.102166e-02 6.358733e-02 1.147533e-01 8.360735e-02 7.088125e-02
<GCONST> 7.188538e+01
<TRANSP> 5
 0.000000e+00 1.000000e+00 0.000000e+00 0.000000e+00 0.000000e+00
 0.000000e+00 8.278553e-01 1.721447e-01 0.000000e+00 0.000000e+00
 0.000000e+00 0.000000e+00 7.260724e-01 2.739275e-01 0.000000e+00
 0.000000e+00 0.000000e+00 0.000000e+00 8.765203e-01 1.234797e-01
 0.000000e+00 0.000000e+00 0.000000e+00 0.000000e+00 0.000000e+00
<ENDHMM>
~h "bh"
<BEGINHMM>
<NUMSTATES> 5
<STATE> 2
<MEAN> 39
 -9.025567e+00 -4.569068e+00 -2.083292e+00 3.119611e+00 5.146468e+00 3.110748e+00 4.067568e+00 4.818824e+00 3.926121e+00 2.826499e+00 2.090704e+00 1.783891e+00 -1.707961e+01 1.968858e-01 -3.884313e-01 -3.663631e-01 -1.387585e-01 1.040914e-01 -3.562603e-01 2.272034e-01 1.761717e-01 3.239379e-01 -1.003983e-01 -3.865552e-01 -3.846562e-03 1.453273e+00 1.513352e-01 1.980671e-02 5.379483e-02 -1.253547e-01 -1.555982e-01 -7.518532e-02 -1.020537e-03 -2.822070e-02 -4.321017e-03 -3.954492e-02 -1.032024e-01 -4.195719e-02 2.846104e-01
<VARIANCE> 39
 1.292212e+02 8.145336e+01 4.893045e+01 4.697138e+01 7.198339e+01 8.052078e+01 5.418120e+01 7.497491e+01 4.102265e+01 3.613380e+01 4.856763e+01 1.808010e+01 5.181604e+02 3.725165e+00 1.997224e+00 2.139821e+00 1.794055e+00 1.954980e+00 3.168659e+00 1.723184e+00 1.663836e+00 1.160061e+00 1.884820e+00 1.416277e+00 4.578222e-01 1.275238e+01 2.546791e-01 2.923276e-01 1.602800e-01 2.516245e-01 2.127208e-01 3.967538e-01 2.453054e-01 1.800553e-01 1.140458e-01 1.457230e-01 1.573452e-01 5.111575e-02 1.195471e+00
<GCONST> 1.149645e+02
<STATE> 3
<MEAN> 39
 6.584285e+00 -6.659468e+00 -2.722224e+00 -5.452462e-01 1.916633e-01 -2.465591e+00 1.325817e+00 4.048327e+00 5.023144e+00 -1.700612e+00 -8.247016e+00 -2.988449e+00 1.193227e+01 6.028293e-02 1.546856e-01 1.264930e+00 -7.110372e-01 -8.801972e-01 1.144903e-01 -1.944909e-01 -5.651574e-02 -3.732130e-01 3.931391e-01 -1.111761e-01 -1.235164e-01 6.178940e-01 -1.798379e-01 1.129479e-01 1.250384e-01 -1.421294e-02 5.017792e-02 1.869338e-01 -5.560493e-02 -1.978942e-01 -6.743348e-02 1.492215e-02 9.924590e-02 -9.583872e-03 -1.822031e-01
<VARIANCE> 39
 2.558181e+01 3.073155e+01 8.661141e+01 6.801606e+01 9.917612e+01 4.690404e+01 2.856713e+01 4.677100e+01 6.453265e+01 1.071518e+02 5.450143e+01 2.228867e+01 6.168828e+01 1.711070e+00 1.931387e+00 1.940210e+00 3.629135e+00 4.080769e+00 2.542859e+00 7.229930e-01 4.183368e+00 3.008596e+00 8.716642e-01 1.800527e+00 5.625012e-01 2.974695e+00 1.071281e-01 1.491438e-01 1.990279e-01 2.986024e-01 5.177047e-01 3.483442e-01 1.317414e-01 3.590741e-01 2.354168e-01 1.898872e-01 1.636475e-01 9.173428e-02 5.778212e-01
<GCONST> 1.118157e+02
<STATE> 4
<MEAN> 39
 4.819739e+00 -1.031682e+00 6.652561e+00 -4.309928e+00 -3.488056e+00 -3.956842e-01 3.173865e+00 -3.697421e+00 -4.450560e+00 1.724357e+00 -6.784591e+00 -4.184906e+00 1.039501e+01 2.439881e-02 2.144256e-01 9.442890e-02 2.700783e-01 2.854632e-01 6.834406e-02 -3.484297e-01 -6.379148e-01 -4.355940e-01 -4.586587e-01 -1.222735e-01 -1.906863e-01 -2.790700e-01 -1.463274e-02 -4.414245e-02 -1.513888e-01 1.338039e-01 5.921864e-02 5.719353e-02 -9.593342e-02 8.204789e-02 1.399500e-01 -1.653064e-01 7.223777e-02 -1.976558e-02 -2.383858e-02
<VARIANCE> 39
 2.749813e+01 1.604644e+01 3.413991e+01 7.081638e+01 2.705538e+01 5.510591e+01 4.545439e+01 8.127049e+01 3.737269e+01 4.192019e+01 6.131360e+01 5.405667e+01 6.058308e+01 9.483509e-01 1.256783e+00 1.417755e+00 2.788707e+00 1.241251e+00 1.778348e+00 6.750604e-01 2.018207e+00 1.246438e+00 2.164749e+00 1.951066e+00 7.907228e-01 9.812528e-01 7.858711e-02 9.066383e-02 1.291782e-01 3.401393e-01 2.111113e-01 2.567033e-01 6.023736e-02 2.432618e-01 1.125419e-01 1.421679e-01 2.022168e-01 1.284339e-01 9.091759e-02
<GCONST> 9.931313e+01
<TRANSP> 5
 0.000000e+00 1.000000e+00 0.000000e+00 0.000000e+00 0.000000e+00
 0.000000e+00 8.716687e-01 1.283313e-01 0.000000e+00 0.000000e+00
 0.000000e+00 0.000000e+00 8.203344e-01 1.796656e-01 0.000000e+00
 0.000000e+00 0.000000e+00 0.000000e+00 7.476251e-01 2.523749e-01
 0.000000e+00 0.000000e+00 0.000000e+00 0.000000e+00 0.000000e+00
<ENDHMM>
~h "dd"
<BEGINHMM>
<NUMSTATES> 5
<STATE> 2
<MEAN> 39
 2.921756e+00 5.886988e+00 8.319460e+00 4.027291e+00 -5.773060e+00 -3.246306e+00 1.002432e+00 -2.892784e+00 -2.673531e+00 6.466789e-01 1.367266e+00 -3.566940e-01 -1.442615e+00 2.954297e-02 5.057814e-01 -4.892964e-01 6.599191e-01 1.136264e+00 5.830233e-01 2.788856e-01 6.720932e-02 2.475004e-01 -3.764333e-01 -3.634844e-01 -2.774080e-01 -9.116170e-01 -1.231096e-01 -6.179697e-02 -4.046265e-02 -1.188314e-01 2.407801e-02 1.150740e-02 2.853418e-03 -5.445658e-02 -3.287780e-02 3.721625e-02 3.305787e-02 1.328551e-02 9.181696e-02
<VARIANCE> 39
 9.759945e+00 2.377389e+01 2.392581e+01 2.194636e+01 3.148471e+01 8.131302e+01 2.548696e+01 3.869893e+01 3.545065e+01 2.740601e+01 2.814002e+01 2.704496e+01 2.286578e+01 2.555749e-01 3.963480e-01 6.219847e-01 5.524176e-01 6.690618e-01 6.609079e-01 9.073035e-01 7.236372e-01 7.160209e-01 5.406697e-01 7.116029e-01 4.657447e-01 2.939590e-01 3.056615e-02 3.817125e-02 4.461981e-02 7.257668e-02 6.211187e-02 1.364396e-01 7.855449e-02 8.417487e-02 7.025515e-02 7.382114e-02 7.000569e-02 4.801559e-02 5.108060e-02
<GCONST> 7.069304e+01
<STATE> 3
<MEAN> 39
 1.033810e+00 6.844538e+00 5.627391e+00 6.559399e+00 1.241549e+00 -1.012989e+00 1.952248e+00 -3.702737e+00 -3.723366e+00 -7.705165e-01 1.432275e+00 -6.589771e-02 -5.625574e+00 -4.206333e-01 -2.493066e-01 -6.383410e-01 -3.080845e-03 7.248213e-01 1.337753e-01 5.384379e-02 4.691977e-02 1.355969e-01 -1.197506e-01 4.893997e-02 3.297456e-02 -2.359373e-01 -6.971141e-02 -1.856009e-01 -1.074522e-02 -1.807996e-01 -1.951427e-01 -1.833834e-01 -3.669740e-02 9.715784e-02 1.254777e-01 2.690165e-02 4.722504e-02 5.304575e-02 2.904615e-01
<VARIANCE> 39
 1.047076e+01 2.186406e+01 2.125631e+01 1.899207e+01 3.082085e+01 3.330706e+01 2.307340e+01 2.899340e+01 4.360955e+01 3.423897e+01 2.483670e+01 2.654232e+01 1.977707e+01 1.679232e-01 3.420892e-01 3.471389e-01 5.771186e-01 5.211138e-01 7.556319e-01 7.503046e-01 5.872865e-01 7.289796e-01 4.488778e-01 5.068125e-01 3.705980e-01 3.800389e-01 4.031639e-02 5.956591e-02 5.907717e-02 5.984823e-02 8.032388e-02 8.241798e-02 1.290795e-01 8.578071e-02 1.083998e-01 8.520316e-02 7.687926e-02 5.505097e-02 6.848140e-02
<GCONST> 6.933392e+01
<STATE> 4
<MEAN> 39
 -1.450340e+00 5.588293e+00 3.422633e+00 6.567034e+00 3.562452e+00 1.473258e+00 2.359327e+00 -1.514192e+00 -2.300855e-01 1.730075e+00 3.046139e+00 -7.008526e-01 -1.139049e+01 -5.591010e-01 -1.052639e+00 -5.796323e-01 -6.725829e-01 -3.631822e-01 -7.117534e-01 -2.125419e-02 6.345090e-01 5.658984e-01 -1.468368e-01 -2.578992e-02 2.306782e-01 1.528583e+00 1.174097e-01 -1.496347e-01 1.066043e-01 -2.913947e-01 -4.129273e-01 -1.870763e-01 -4.760532e-02 2.152700e-01 7.188550e-02 4.403539e-02 -1.209136e-01 4.556210e-02 5.338684e-01
<VARIANCE> 39
 4.212622e+01 3.985958e+01 3.491615e+01 3.164046e+01 4.184265e+01 4.799398e+01 2.738223e+01 4.227120e+01 3.545538e+01 4.321650e+01 2.347378e+01 2.249189e+01 2.490779e+02 1.295876e+00 1.380449e+00 1.246654e+00 1.135951e+00 1.451348e+00 1.786883e+00 1.414658e+00 1.687885e+00 1.363641e+00 9.985120e-01 8.808296e-01 7.863680e-01 4.370215e+00 1.425801e-01 1.377189e-01 1.112414e-01 1.543125e-01 1.424820e-01 1.460600e-01 2.218204e-01 1.672924e-01 1.234212e-01 1.510303e-01 1.011075e-01 9.105066e-02 3.393265e-01
<GCONST> 9.914750e+01
<TRANSP> 5
 0.000000e+00 1.000000e+00 0.000000e+00 0.000000e+00 0.000000e+00
 0.000000e+00 7.399716e-01 2.600284e-01 0.000000e+00 0.000000e+00
 0.000000e+00 0.000000e+00 7.640483e-01 2.359517e-01 0.000000e+00
 0.000000e+00 0.000000e+00 0.000000e+00 6.821182e-01 3.178817e-01
 0.000000e+00 0.000000e+00 0.000000e+00 0.000000e+00 0.000000e+00
<ENDHMM>
~h "dh"
<BEGINHMM>
<NUMSTATES> 5
<STATE> 2
<MEAN> 39
 5.685742e+00 1.366596e+00 1.923381e-01 9.206752e-01 7.572531e-01 -9.366765e-01 2.332031e+00 -1.491926e+00 -6.707735e+00 -3.893432e+00 -2.995560e+00 -6.413652e+00 2.845523e+00 -6.215788e-01 2.750701e-01 8.665211e-01 1.731944e-01 -1.559520e-01 -1.873532e-01 1.146153e-01 -4.434611e-01 -9.365897e-02 -1.219863e-02 -2.847192e-01 -1.365330e-01 3.630324e-02 -1.826923e-01 -2.495578e-02 2.444807e-02 -2.664652e-01 -1.575531e-01 -1.462081e-01 -1.487659e-02 -1.117088e-01 2.543748e-01 5.855620e-02 -1.406077e-02 2.256004e-01 1.954533e-01
<VARIANCE> 39
 4.448104e+01 5.101344e+01 3.931664e+01 5.718537e+01 5.346096e+01 1.694548e+01 3.534320e+01 4.417137e+01 2.859016e+01 6.406748e+01 1.972337e+01 2.993138e+01 4.417013e+01 1.685484e+00 8.157806e-01 1.278282e+00 3.648785e+00 9.129781e-01 7.489682e-01 6.024267e-01 1.383899e+00 1.612274e+00 1.411056e+00 6.364591e-01 1.101160e+00 1.375056e+00 1.529570e-01 1.768290e-01 1.546548e-01 2.645132e-01 1.067231e-01 7.466588e-02 1.334447e-01 1.816919e-01 1.485652e-01 1.720459e-01 1.118485e-01 1.434891e-01 1.460478e-01
<GCONST> 9.596655e+01
<STATE> 3
<MEAN> 39
 1.452190e+00 3.404022e+00 4.232870e+00 -1.243186e+00 -3.834134e+00 -2.965864e+00 1.037354e+00 -5.089893e+00 -3.877034e+00 -1.455181e+00 -3.885636e+00 -3.156800e+00 4.922768e+00 -6.581864e-01 -1.418704e-01 2.354341e-02 -6.506009e-01 -6.387483e-01 -2.558623e-01 -1.168996e-01 -3.754974e-01 2.297497e-01 -4.163434e-01 -1.376724e-01 6.268795e-01 7.287484e-01 5.697418e-02 -1.309869e-01 -1.370454e-01 7.612814e-02 3.574880e-02 5.063804e-02 -1.491590e-02 1.438395e-01 4.533494e-02 -4.481182e-03 7.524365e-02 -7.733019e-03 5.422115e-03
<VARIANCE> 39
 3.454015e+01 5.084512e+01 3.787231e+01 6.088404e+01 6.120103e+01 1.974308e+01 2.632838e+01 6.990264e+01 2.178917e+01 3.145749e+01 2.883264e+01 2.704486e+01 7.580891e+01 5.829358e-01 2.023257e+00 8.577193e-01 1.205874e+00 1.719539e+00 4.629416e-01 1.147180e+00 9.871370e-01 4.949417e-01 1.129189e+00 1.189582e+00 7.891875e-01 1.695987e+00 7.615510e-02 1.893866e-01 1.014429e-01 1.553272e-01 1.560707e-01 8.180371e-02 8.765118e-02 1.236962e-01 8.503636e-02 1.223274e-01 1.092494e-01 7.049858e-02 1.906685e-01
<GCONST> 9.063776e+01
<STATE> 4
<MEAN> 39
 2.063949e+00 -1.634791e+00 4.244393e+00 -7.112106e+00 -7.490288e+00 -1.998849e+00 -6.204911e-01 -3.082288e+00 -3.584249e+00 -6.093075e+00 -2.564516e+00 3.133811e-01 7.443232e+00 -2.200976e-02 9.521818e-02 5.997008e-02 5.223154e-02 6.891557e-03 -1.565305e-02 -1.779026e-01 -3.476527e-03 1.203248e-01 -8.999053e-02 -9.992363e-03 7.884253e-02 -1.046533e-01 -7.628765e-03 5.424256e-04 5.099056e-03 1.169654e-02 1.494007e-02 6.615818e-04 2.158531e-03 6.424020e-03 -9.599598e-03 3.415306e-02 1.406712e-02 -9.647951e-03 -4.025887e-03
<VARIANCE> 39
 1.036011e+01 4.369875e+01 3.772337e+01 5.817343e+01 3.734103e+01 3.097924e+01 1.017319e+02 3.771363e+01 3.832272e+01 4.952153e+01 3.016124e+01 3.029661e+01 2.055549e+01 1.499265e-01 7.977076e-01 5.930359e-01 7.297021e-01 1.038447e+00 6.493337e-01 1.893193e+00 8.737206e-01 9.400446e-01 1.037846e+00 7.942788e-01 8.511803e-01 3.644648e-01 1.238288e-02 6.490242e-02 5.596459e-02 6.469863e-02 1.124141e-01 8.299883e-02 1.614772e-01 9.603237e-02 1.011115e-01 1.063671e-01 9.367265e-02 9.522495e-02 3.624199e-02
<GCONST> 7.974590e+01
<TRANSP> 5
 0.000000e+00 1.000000e+00 0.000000e+00 0.000000e+00 0.000000e+00
 0.000000e+00 6.417789e-01 3.582211e-01 0.000000e+00 0.000000e+00
 0.000000e+00 0.000000e+00 6.168374e-01 3.831625e-01 0.000000e+00
 0.000000e+00 0.000000e+00 0.000000e+00 9.391328e-01 6.086721e-02
 0.000000e+00 0.000000e+00 0.000000e+00 0.000000e+00 0.000000e+00
<ENDHMM>
~h "dx"
<BEGINHMM>
<NUMSTATES> 5
<STATE> 2
<MEAN> 39
