~o
<STREAMINFO> 1 39
<VECSIZE> 39<NULLD><MFCC_D_A_Z_0><DIAGC>
~h "proto"
<BEGINHMM>
<NUMSTATES> 5
<STATE> 2
<MEAN> 39
 -6.842772e-07 -2.433069e-06 4.543514e-07 -7.855644e-07 1.395370e-06 2.116947e-07 -9.956653e-08 2.245665e-07 -5.454135e-07 -8.661945e-08 7.564781e-07 -6.620594e-07 1.416375e-07 8.998463e-03 1.015054e-02 8.206584e-03 -1.099774e-02 1.314102e-02 -3.495247e-03 -3.334979e-03 -2.352035e-03 -6.014077e-03 -4.850963e-03 -2.837939e-03 -1.997867e-03 -1.046538e-02 -1.743041e-04 -7.188378e-05 2.058865e-04 2.431496e-04 -8.240571e-06 -2.425970e-04 1.644698e-04 3.161696e-04 1.260999e-04 -5.620390e-04 -2.057311e-04 7.998379e-04 -1.135212e-04
<VARIANCE> 39
 6.814487e+01 5.262202e+01 7.808621e+01 6.187340e+01 7.142122e+01 5.622633e+01 5.558508e+01 5.667295e+01 6.554457e+01 4.950161e+01 4.626167e+01 2.830699e+01 2.207601e+02 1.072405e+00 1.026276e+00 1.229090e+00 1.313263e+00 1.310410e+00 1.170962e+00 1.203274e+00 1.198874e+00 1.243325e+00 1.017145e+00 9.179734e-01 6.729872e-01 1.897300e+00 9.899607e-02 9.834439e-02 1.079478e-01 1.340108e-01 1.390869e-01 1.316999e-01 1.355073e-01 1.355770e-01 1.349750e-01 1.186597e-01 1.058654e-01 8.182102e-02 1.584141e-01
<GCONST> 9.952991e+01
<STATE> 3
<MEAN> 39
 -6.842772e-07 -2.433069e-06 4.543514e-07 -7.855644e-07 1.395370e-06 2.116947e-07 -9.956653e-08 2.245665e-07 -5.454135e-07 -8.661945e-08 7.564781e-07 -6.620594e-07 1.416375e-07 8.998463e-03 1.015054e-02 8.206584e-03 -1.099774e-02 1.314102e-02 -3.495247e-03 -3.334979e-03 -2.352035e-03 -6.014077e-03 -4.850963e-03 -2.837939e-03 -1.997867e-03 -1.046538e-02 -1.743041e-04 -7.188378e-05 2.058865e-04 2.431496e-04 -8.240571e-06 -2.425970e-04 1.644698e-04 3.161696e-04 1.260999e-04 -5.620390e-04 -2.057311e-04 7.998379e-04 -1.135212e-04
<VARIANCE> 39
 6.814487e+01 5.262202e+01 7.808621e+01 6.187340e+01 7.142122e+01 5.622633e+01 5.558508e+01 5.667295e+01 6.554457e+01 4.950161e+01 4.626167e+01 2.830699e+01 2.207601e+02 1.072405e+00 1.026276e+00 1.229090e+00 1.313263e+00 1.310410e+00 1.170962e+00 1.203274e+00 1.198874e+00 1.243325e+00 1.017145e+00 9.179734e-01 6.729872e-01 1.897300e+00 9.899607e-02 9.834439e-02 1.079478e-01 1.340108e-01 1.390869e-01 1.316999e-01 1.355073e-01 1.355770e-01 1.349750e-01 1.186597e-01 1.058654e-01 8.182102e-02 1.584141e-01
<GCONST> 9.952991e+01
<STATE> 4
<MEAN> 39
 -6.842772e-07 -2.433069e-06 4.543514e-07 -7.855644e-07 1.395370e-06 2.116947e-07 -9.956653e-08 2.245665e-07 -5.454135e-07 -8.661945e-08 7.564781e-07 -6.620594e-07 1.416375e-07 8.998463e-03 1.015054e-02 8.206584e-03 -1.099774e-02 1.314102e-02 -3.495247e-03 -3.334979e-03 -2.352035e-03 -6.014077e-03 -4.850963e-03 -2.837939e-03 -1.997867e-03 -1.046538e-02 -1.743041e-04 -7.188378e-05 2.058865e-04 2.431496e-04 -8.240571e-06 -2.425970e-04 1.644698e-04 3.161696e-04 1.260999e-04 -5.620390e-04 -2.057311e-04 7.998379e-04 -1.135212e-04
<VARIANCE> 39
 6.814487e+01 5.262202e+01 7.808621e+01 6.187340e+01 7.142122e+01 5.622633e+01 5.558508e+01 5.667295e+01 6.554457e+01 4.950161e+01 4.626167e+01 2.830699e+01 2.207601e+02 1.072405e+00 1.026276e+00 1.229090e+00 1.313263e+00 1.310410e+00 1.170962e+00 1.203274e+00 1.198874e+00 1.243325e+00 1.017145e+00 9.179734e-01 6.729872e-01 1.897300e+00 9.899607e-02 9.834439e-02 1.079478e-01 1.340108e-01 1.390869e-01 1.316999e-01 1.355073e-01 1.355770e-01 1.349750e-01 1.186597e-01 1.058654e-01 8.182102e-02 1.584141e-01
<GCONST> 9.952991e+01
<TRANSP> 5
 0.000000e+00 1.000000e+00 0.000000e+00 0.000000e+00 0.000000e+00
 0.000000e+00 6.000000e-01 4.000000e-01 0.000000e+00 0.000000e+00
 0.000000e+00 0.000000e+00 6.000000e-01 4.000000e-01 0.000000e+00
 0.000000e+00 0.000000e+00 0.000000e+00 7.000000e-01 3.000000e-01
 0.000000e+00 0.000000e+00 0.000000e+00 0.000000e+00 0.000000e+00
<ENDHMM>
