~o
<STREAMINFO> 1 39
<VECSIZE> 39<NULLD><MFCC_D_A_Z_0><DIAGC>
~s "silst"
<MEAN> 39
 -2.590322e+00 -1.692315e+00 -4.190382e+00 7.790496e+00 4.556353e+00 4.445496e+00 1.549992e+00 9.721686e-01 1.873221e+00 1.688136e+00 3.489057e+00 1.278287e+00 -8.960697e+00 -6.335694e-02 1.759150e-02 -4.224713e-02 2.572423e-02 -9.067921e-03 2.857601e-02 1.761180e-02 -4.336924e-02 2.770503e-02 1.621606e-03 -4.622214e-02 1.936585e-03 -8.393547e-02 9.139102e-03 5.987212e-03 1.216593e-02 -2.482613e-03 4.457897e-03 1.571493e-03 2.342840e-03 7.270608e-03 6.267480e-03 -8.217585e-03 -7.935308e-03 4.989891e-03 6.545970e-03
<VARIANCE> 39
 1.072769e+01 4.545342e+01 2.514519e+01 3.641511e+01 2.939246e+01 2.856743e+01 6.302392e+01 3.636204e+01 3.713843e+01 3.789454e+01 3.122064e+01 1.914131e+01 2.175287e+01 9.405534e-02 1.626792e-01 2.243208e-01 2.505463e-01 3.511273e-01 4.170010e-01 4.388191e-01 4.341304e-01 3.787518e-01 4.663111e-01 3.681406e-01 3.323017e-01 6.592686e-02 1.046092e-02 1.912978e-02 2.770910e-02 3.244830e-02 4.594025e-02 5.105288e-02 5.864505e-02 5.410858e-02 5.071232e-02 5.796033e-02 4.862716e-02 4.328656e-02 6.807286e-03
<GCONST> 5.436470e+01
~h "a"
<BEGINHMM>
<NUMSTATES> 5
<STATE> 2
<MEAN> 39
 4.596372e+00 -5.568340e+00 -3.382969e+00 -2.077950e+00 -1.839384e+00 -1.973707e+00 -4.668764e-01 5.707018e+00 4.327333e+00 2.006976e-01 -3.812895e+00 -1.280073e+00 1.027721e+01 3.827620e-01 -7.553719e-01 -4.321501e-01 -3.963960e-01 -1.822141e-01 5.151450e-02 -1.540001e-01 6.708993e-01 3.215356e-01 -2.009308e-01 -7.303286e-01 -7.463463e-02 1.124894e+00 -8.633915e-02 2.221864e-01 1.385819e-01 1.637571e-01 9.699523e-02 9.110749e-02 3.954235e-02 -2.419185e-01 -1.845117e-01 -2.667682e-02 1.264831e-01 1.624077e-02 -3.322052e-01
<VARIANCE> 39
 3.506819e+01 4.488150e+01 5.824918e+01 5.268360e+01 7.414187e+01 7.589517e+01 7.181937e+01 5.923619e+01 1.110853e+02 6.188527e+01 5.347826e+01 3.569891e+01 6.999155e+01 1.220690e+00 1.558272e+00 1.777871e+00 1.772539e+00 2.095165e+00 2.021487e+00 2.048654e+00 1.773919e+00 2.163263e+00 1.753345e+00 1.432762e+00 1.153506e+00 2.231034e+00 1.188543e-01 1.533876e-01 1.621385e-01 1.805945e-01 2.374054e-01 2.357000e-01 2.482458e-01 2.286758e-01 2.543502e-01 2.171790e-01 1.905424e-01 1.295680e-01 2.411639e-01
<GCONST> 1.105524e+02
<STATE> 3
<MEAN> 39
 3.624051e+00 -6.780408e+00 -3.158997e+00 -3.508283e+00 -2.742727e+00 -2.559954e+00 3.828829e-01 6.611349e+00 2.777736e+00 -1.780416e+00 -5.378973e+00 -5.733620e-01 1.290415e+01 5.485654e-02 3.006672e-01 2.128621e-01 3.958781e-01 1.721496e-01 1.407155e-01 4.525350e-02 -3.653706e-01 -3.014591e-01 -1.511474e-01 1.525655e-01 1.128733e-02 -4.897401e-01 -3.523466e-02 2.683191e-01 1.558328e-01 2.360056e-01 7.003576e-02 1.709222e-02 -5.566714e-03 -2.816952e-01 -8.961917e-02 7.389549e-02 2.236684e-01 1.656216e-03 -3.734710e-01
<VARIANCE> 39
 2.275788e+01 2.762723e+01 4.316821e+01 3.445823e+01 5.423234e+01 5.321087e+01 6.788457e+01 4.891162e+01 8.917288e+01 5.763411e+01 3.705712e+01 3.117075e+01 3.922451e+01 5.600576e-01 7.836372e-01 1.068269e+00 1.028013e+00 1.423123e+00 1.391966e+00 1.491333e+00 1.129622e+00 1.163978e+00 1.075022e+00 1.035055e+00 7.369378e-01 6.841921e-01 9.306943e-02 9.182767e-02 1.011207e-01 1.219938e-01 1.717839e-01 1.631657e-01 1.994772e-01 1.687463e-01 1.774833e-01 1.643052e-01 1.168832e-01 1.055629e-01 5.696025e-02
<GCONST> 9.389748e+01
<STATE> 4
<MEAN> 39
 3.955793e+00 -3.850470e+00 -3.400529e+00 3.297800e-01 8.913326e-01 2.994609e-01 5.942495e-01 2.188799e+00 3.586802e-01 -2.253194e+00 -2.591876e+00 -1.604360e+00 4.463917e+00 -8.200388e-02 5.057575e-01 2.702613e-01 5.061056e-01 1.466037e-01 8.054101e-02 1.640281e-01 -4.254820e-01 -2.939280e-01 -4.810280e-02 3.267496e-01 5.168395e-02 -9.741880e-01 -3.946906e-02 4.748595e-03 1.946639e-03 -4.178198e-02 -2.606745e-02 -2.064655e-02 1.964109e-03 2.581524e-02 2.041322e-02 2.960876e-02 1.048332e-02 1.430073e-02 1.840233e-02
<VARIANCE> 39
 2.037910e+01 3.215139e+01 4.870963e+01 4.787698e+01 5.519934e+01 4.929952e+01 5.150950e+01 4.012805e+01 5.646876e+01 4.905058e+01 3.238873e+01 2.992433e+01 6.005569e+01 6.786664e-01 6.514601e-01 7.626645e-01 8.542001e-01 8.510946e-01 1.028070e+00 1.121906e+00 9.668524e-01 1.271443e+00 8.856472e-01 6.925732e-01 6.329011e-01 6.226085e-01 4.174260e-02 5.591672e-02 6.545102e-02 7.498111e-02 8.582310e-02 9.077622e-02 1.045605e-01 9.632722e-02 1.035520e-01 8.750130e-02 7.841136e-02 6.559610e-02 4.567638e-02
<GCONST> 8.399098e+01
<TRANSP> 5
 0.000000e+00 1.000000e+00 0.000000e+00 0.000000e+00 0.000000e+00
 0.000000e+00 5.983683e-01 4.016316e-01 0.000000e+00 0.000000e+00
 0.000000e+00 0.000000e+00 6.328918e-01 3.671081e-01 0.000000e+00
 0.000000e+00 0.000000e+00 0.000000e+00 7.441016e-01 2.558983e-01
 0.000000e+00 0.000000e+00 0.000000e+00 0.000000e+00 0.000000e+00
<ENDHMM>
~h "b"
<BEGINHMM>
<NUMSTATES> 5
<STATE> 2
<MEAN> 39
 4.967455e+00 1.209204e+00 -4.198108e-01 1.554269e+00 -1.779752e+00 -6.504499e-01 -1.568027e+00 -2.258680e+00 -1.594287e+00 -4.704640e-01 -1.567831e+00 -1.108281e+00 2.014868e+00 2.766523e-01 6.432250e-01 7.178522e-02 1.286203e-01 1.036282e-01 3.763245e-02 -7.924426e-02 -2.304611e-01 -2.878606e-01 -1.184111e-01 -3.051797e-02 -1.607374e-01 -2.619740e-01 -3.449705e-02 -3.644814e-02 -2.569995e-02 -1.363473e-01 1.054242e-02 -1.376929e-03 7.934681e-03 4.989863e-02 8.104197e-02 5.095559e-02 2.391974e-02 6.329659e-04 1.443579e-01
<VARIANCE> 39
 2.865107e+01 4.333814e+01 5.183955e+01 8.130656e+01 7.137459e+01 7.131439e+01 5.308328e+01 6.928980e+01 6.096122e+01 5.270082e+01 5.868758e+01 4.531940e+01 6.241458e+01 8.453517e-01 1.069502e+00 1.095775e+00 2.722439e+00 1.510885e+00 2.348443e+00 1.787122e+00 1.253921e+00 1.347138e+00 1.228800e+00 1.724258e+00 1.589761e+00 1.780675e+00 9.533187e-02 1.259903e-01 1.244766e-01 3.137704e-01 1.662510e-01 3.317952e-01 2.144442e-01 1.877433e-01 2.021206e-01 1.960829e-01 1.736567e-01 1.763268e-01 1.906748e-01
<GCONST> 1.069966e+02
<STATE> 3
<MEAN> 39
 6.359006e+00 5.073820e+00 1.421461e+00 4.661919e+00 1.285115e+00 -8.106351e-01 -1.025915e-02 -1.605191e+00 -2.398975e+00 -2.587274e+00 -1.315181e+00 -3.476746e+00 -1.314923e+00 5.788857e-02 -3.205818e-01 -2.468199e-01 -1.642909e-01 3.254325e-01 1.341512e-01 6.159595e-02 1.947908e-01 5.050675e-01 5.143015e-01 1.359347e-01 -4.479030e-02 3.895268e-01 -4.289759e-02 -4.109606e-01 -2.581460e-01 -3.977675e-01 -2.076824e-01 -8.745523e-02 -1.508815e-01 1.183645e-01 2.338887e-01 2.286941e-01 -6.918195e-02 1.244843e-01 5.015076e-01
<VARIANCE> 39
 2.204565e+01 3.311394e+01 4.317226e+01 6.392773e+01 5.774783e+01 5.554591e+01 4.943500e+01 5.561345e+01 5.126387e+01 4.548009e+01 3.553482e+01 2.707936e+01 4.423693e+01 7.631572e-01 1.604084e+00 1.820441e+00 1.850573e+00 1.141783e+00 1.201210e+00 1.167097e+00 1.133352e+00 1.634504e+00 1.266124e+00 1.121570e+00 9.012083e-01 1.568912e+00 9.225298e-02 1.770690e-01 2.031157e-01 2.663184e-01 2.291523e-01 2.000323e-01 1.877894e-01 1.966441e-01 1.789171e-01 1.753490e-01 1.988402e-01 1.295114e-01 1.640250e-01
<GCONST> 1.014579e+02
<STATE> 4
<MEAN> 39
 3.598346e+00 7.815304e-01 1.690871e-02 3.470204e+00 2.430802e+00 3.871500e-02 6.430110e-01 -1.523252e+00 -2.117297e-01 1.766472e-01 1.684639e-02 -1.245379e+00 -3.572820e-01 9.138101e-02 -8.596279e-01 -5.781304e-01 -8.137361e-01 -4.289605e-01 -3.430371e-01 -4.000954e-01 4.125359e-01 5.187400e-01 6.070436e-01 5.925895e-02 1.749614e-01 9.950706e-01 2.109881e-02 -1.109559e-01 -3.637814e-03 -1.693094e-01 -1.832630e-01 -6.011170e-02 -1.038889e-01 6.286287e-02 -2.421550e-04 -1.176985e-02 -1.190253e-01 8.668427e-03 2.383801e-01
<VARIANCE> 39
 2.435710e+01 2.503104e+01 3.604761e+01 4.033555e+01 3.126090e+01 3.177929e+01 3.056617e+01 3.494313e+01 3.768189e+01 3.419004e+01 3.062629e+01 2.367041e+01 3.984281e+01 6.407418e-01 1.396244e+00 2.124671e+00 1.670045e+00 1.660316e+00 1.495239e+00 1.294591e+00 1.399472e+00 1.583166e+00 1.743034e+00 1.433969e+00 8.460570e-01 1.548370e+00 6.475428e-02 8.156509e-02 1.280479e-01 1.190432e-01 1.127961e-01 1.109678e-01 9.614744e-02 1.178714e-01 1.038345e-01 1.080803e-01 1.274927e-01 7.566708e-02 7.477834e-02
<GCONST> 9.097137e+01
<TRANSP> 5
 0.000000e+00 1.000000e+00 0.000000e+00 0.000000e+00 0.000000e+00
 0.000000e+00 6.706536e-01 3.293464e-01 0.000000e+00 0.000000e+00
 0.000000e+00 0.000000e+00 5.677737e-01 4.322263e-01 0.000000e+00
 0.000000e+00 0.000000e+00 0.000000e+00 6.074740e-01 3.925260e-01
 0.000000e+00 0.000000e+00 0.000000e+00 0.000000e+00 0.000000e+00
<ENDHMM>
~h "c"
<BEGINHMM>
<NUMSTATES> 5
<STATE> 2
<MEAN> 39
 -1.155735e+00 1.368781e+00 -4.511128e-01 6.729452e-01 3.733368e+00 1.157685e+00 -2.965914e+00 -1.065702e-01 8.919066e-01 1.447215e+00 2.852141e+00 6.862701e-01 -1.203096e+01 -9.639556e-01 -2.230250e-02 1.337371e-01 -2.409849e-01 -1.509743e-01 1.532130e-01 1.032034e-01 2.363447e-01 -4.973002e-02 -1.210019e-01 1.918019e-01 -9.659925e-02 9.514519e-01 -1.847661e-01 5.819685e-02 7.819274e-02 -9.396081e-02 -6.451266e-02 -4.538484e-02 6.174149e-02 -1.618384e-02 -4.190937e-02 3.028671e-02 6.750654e-03 -3.658771e-02 1.883624e-01
<VARIANCE> 39
 1.252625e+02 4.406060e+01 4.329289e+01 5.101931e+01 4.828254e+01 5.210455e+01 6.826025e+01 5.202889e+01 3.148413e+01 3.885806e+01 3.733545e+01 2.147188e+01 4.641734e+02 4.760233e+00 1.462254e+00 1.440049e+00 2.143882e+00 1.808754e+00 1.639081e+00 1.917337e+00 1.328998e+00 1.166087e+00 1.324477e+00 1.067503e+00 5.592142e-01 1.005719e+01 4.421210e-01 1.587624e-01 1.908264e-01 2.669996e-01 1.887728e-01 2.017844e-01 2.152263e-01 1.227303e-01 1.347668e-01 1.651469e-01 1.147279e-01 7.181180e-02 8.404478e-01
<GCONST> 1.099391e+02
<STATE> 3
<MEAN> 39
 -1.618576e+01 2.006399e+00 5.402219e+00 -3.715358e+00 1.183293e+00 2.894073e-01 2.972766e+00 1.951351e+00 -2.492062e+00 2.165486e+00 4.901826e+00 -2.565356e+00 7.351639e+00 -4.855364e-01 2.302857e-02 1.088033e+00 -2.256025e-01 -1.067495e+00 -5.207723e-01 6.131086e-01 -4.297035e-02 -4.936987e-01 1.517390e-01 2.937568e-01 -4.428670e-01 1.026272e+00 8.920798e-01 3.402607e-03 -7.352467e-02 1.431677e-01 -1.744597e-01 -1.286260e-01 -1.844788e-01 -1.725498e-01 6.441204e-02 -2.318857e-02 -1.644142e-01 9.138200e-02 -2.026011e-01
<VARIANCE> 39
 5.633530e+01 3.418303e+01 3.506223e+01 2.686626e+01 3.372755e+01 2.957390e+01 5.346387e+01 3.687632e+01 4.221804e+01 6.024514e+01 4.986698e+01 3.245189e+01 3.143757e+01 5.304185e+00 1.058829e+00 1.236032e+00 1.056872e+00 9.315259e-01 1.129478e+00 1.481028e+00 1.522736e+00 1.239835e+00 9.795765e-01 1.458929e+00 7.702605e-01 1.053903e+00 2.989880e-01 1.429852e-01 1.688191e-01 9.218469e-02 1.445922e-01 9.986482e-02 1.591228e-01 1.235042e-01 1.645260e-01 1.494347e-01 1.670784e-01 1.177329e-01 9.298448e-02
<GCONST> 9.698677e+01
<STATE> 4
<MEAN> 39
 -1.094608e+00 5.756565e+00 3.623233e+00 -7.833974e-01 -8.593951e+00 -2.690029e+00 -2.277301e+00 -3.677856e+00 1.960748e-02 9.235560e-01 2.912704e+00 -2.668192e+00 8.918375e+00 1.310109e+00 3.661252e-01 -4.572904e-02 6.391652e-02 -3.489183e-01 -3.019954e-01 -4.795659e-01 -3.836096e-01 1.450123e-02 2.441711e-01 -4.147094e-02 -5.830969e-02 1.930248e-01 -7.490711e-02 4.150188e-02 -1.615188e-01 -8.559716e-02 2.460925e-01 1.915893e-01 -2.329929e-02 -1.824846e-02 -4.275973e-02 1.480186e-02 3.322688e-02 6.055727e-02 -1.631450e-01
<VARIANCE> 39
 8.087296e+01 8.480985e+01 9.553275e+01 7.226485e+01 5.328795e+01 5.890018e+01 7.465598e+01 7.910077e+01 5.659086e+01 5.914486e+01 3.087017e+01 2.883811e+01 3.927460e+01 3.945946e+00 1.679031e+00 1.386758e+00 1.852849e+00 2.500942e+00 1.635303e+00 1.548309e+00 1.685711e+00 1.486102e+00 1.876703e+00 1.204957e+00 8.397304e-01 1.314215e+00 2.377371e-01 1.375353e-01 1.081368e-01 2.224234e-01 2.165641e-01 2.288842e-01 1.320393e-01 2.315250e-01 1.673279e-01 1.875200e-01 1.290620e-01 1.011104e-01 1.348536e-01
<GCONST> 1.077321e+02
<TRANSP> 5
 0.000000e+00 1.000000e+00 0.000000e+00 0.000000e+00 0.000000e+00
 0.000000e+00 8.861709e-01 1.138291e-01 0.000000e+00 0.000000e+00
 0.000000e+00 0.000000e+00 8.009736e-01 1.990264e-01 0.000000e+00
 0.000000e+00 0.000000e+00 0.000000e+00 7.110141e-01 2.889860e-01
 0.000000e+00 0.000000e+00 0.000000e+00 0.000000e+00 0.000000e+00
<ENDHMM>
~h "d"
<BEGINHMM>
<NUMSTATES> 5
<STATE> 2
<MEAN> 39
 5.685448e+00 4.732955e+00 2.969895e+00 4.711368e+00 6.884562e-01 -1.400548e+00 1.515270e+00 -1.626564e+00 -1.717576e+00 -1.134918e+00 -1.704318e+00 -1.704460e+00 -6.891118e-01 -6.276114e-01 -3.439142e-01 -5.292655e-02 -1.067106e-01 2.166102e-01 -1.422276e-01 2.562915e-01 4.140504e-01 1.074672e-01 5.316127e-02 4.416115e-01 -1.154323e-01 1.770940e-01 -1.704359e-01 -2.558288e-01 -4.337657e-02 -3.918226e-01 -3.128105e-01 -2.058601e-01 -1.433858e-01 9.174164e-02 1.542069e-01 1.170698e-01 -1.666897e-04 1.317351e-01 5.428444e-01
<VARIANCE> 39
 2.646323e+01 4.359505e+01 4.721414e+01 3.370147e+01 5.209581e+01 4.608757e+01 5.309915e+01 5.294000e+01 4.752925e+01 4.078325e+01 3.747758e+01 2.570691e+01 3.441166e+01 8.011110e-01 1.326366e+00 1.216837e+00 1.243200e+00 1.328821e+00 1.417136e+00 1.375197e+00 1.459198e+00 1.448426e+00 1.241978e+00 1.054689e+00 8.894862e-01 1.278126e+00 1.201700e-01 1.526662e-01 1.525379e-01 1.531730e-01 1.801937e-01 2.765647e-01 2.303328e-01 2.127849e-01 2.020151e-01 1.695759e-01 1.487659e-01 1.133458e-01 9.925529e-02
<GCONST> 9.884012e+01
<STATE> 3
<MEAN> 39
 -1.846012e+00 -4.678683e-02 3.131891e+00 9.765974e-01 1.615848e+00 -3.963820e+00 2.903115e+00 3.461357e-01 -8.654040e-01 -8.844340e-01 1.873506e+00 -1.277707e+00 4.637714e+00 -3.818038e-01 -7.871685e-01 -1.325212e-01 -9.432828e-01 -9.137116e-01 -1.047718e+00 -5.617836e-01 5.485997e-01 5.155047e-01 3.179700e-01 1.764307e-01 3.356603e-01 1.515699e+00 2.712140e-01 5.918643e-02 -5.146500e-02 -1.399679e-01 -2.279386e-01 1.870476e-02 -2.983814e-01 -6.640261e-02 6.840842e-02 1.009770e-01 -2.005498e-01 6.609131e-02 1.539154e-01
<VARIANCE> 39
 2.826357e+01 3.981924e+01 3.567239e+01 3.158044e+01 4.470900e+01 5.368097e+01 4.800532e+01 3.947295e+01 4.516789e+01 4.195726e+01 3.760406e+01 3.011185e+01 5.154649e+01 8.642015e-01 1.167834e+00 1.536053e+00 1.192960e+00 1.737741e+00 2.246775e+00 2.280717e+00 2.188108e+00 1.913183e+00 1.493136e+00 1.384482e+00 8.913674e-01 9.890331e-01 9.338193e-02 1.569220e-01 1.439015e-01 1.329594e-01 1.391007e-01 1.638487e-01 1.451707e-01 1.555430e-01 1.377994e-01 1.642314e-01 1.400364e-01 1.171825e-01 1.209579e-01
<GCONST> 9.865311e+01
<STATE> 4
<MEAN> 39
 1.920744e+00 -1.049948e+00 2.244637e+00 -1.430197e+00 -4.698982e+00 -9.329868e+00 -3.193465e+00 2.250735e+00 1.277841e+00 7.116950e-01 -8.593179e-01 1.500693e+00 9.661103e+00 2.198533e-01 -3.150050e-01 -4.946970e-01 -9.219691e-01 -7.618066e-01 -2.398889e-01 -9.841375e-01 2.308191e-01 5.291055e-01 5.269173e-01 -2.468891e-01 2.726651e-01 1.076773e+00 1.603457e-01 1.800031e-01 -4.188155e-02 8.012111e-02 1.695880e-01 4.145868e-01 8.101113e-02 -1.881192e-01 -1.355942e-01 -5.522931e-02 -7.315740e-02 -9.083185e-02 -2.727377e-01
<VARIANCE> 39
 1.409038e+01 2.117047e+01 2.701207e+01 2.415125e+01 4.530985e+01 4.342067e+01 7.700529e+01 4.589582e+01 4.819637e+01 3.742790e+01 3.233545e+01 2.593991e+01 3.565830e+01 1.097563e+00 1.354602e+00 1.870167e+00 1.236106e+00 1.837723e+00 1.574250e+00 2.137461e+00 2.269989e+00 1.741796e+00 1.520350e+00 1.217392e+00 1.012988e+00 9.485552e-01 6.239352e-02 1.028672e-01 9.707853e-02 1.086955e-01 1.508132e-01 1.682939e-01 1.886956e-01 1.470407e-01 1.422052e-01 1.263756e-01 1.288303e-01 1.141871e-01 8.657866e-02
<GCONST> 9.487787e+01
<TRANSP> 5
 0.000000e+00 1.000000e+00 0.000000e+00 0.000000e+00 0.000000e+00
 0.000000e+00 6.766794e-01 3.233206e-01 0.000000e+00 0.000000e+00
 0.000000e+00 0.000000e+00 4.976653e-01 5.023347e-01 0.000000e+00
 0.000000e+00 0.000000e+00 0.000000e+00 5.247654e-01 4.752346e-01
 0.000000e+00 0.000000e+00 0.000000e+00 0.000000e+00 0.000000e+00
<ENDHMM>
~h "e"
<BEGINHMM>
<NUMSTATES> 5
<STATE> 2
<MEAN> 39
 1.931614e+00 -6.159053e-01 9.988926e+00 -4.335470e+00 -1.169886e+01 -4.814351e+00 1.649933e+00 3.401963e-01 -7.678322e-01 3.637393e+00 1.988999e+00 -3.686192e-02 9.852370e+00 -4.203247e-02 -7.425891e-02 4.489205e-01 -9.538344e-01 -1.020550e+00 1.271908e-02 9.286535e-02 -4.500487e-02 2.254423e-02 3.849315e-01 -2.300524e-02 1.009898e-01 6.757974e-01 -4.795821e-02 1.284574e-01 -1.468555e-01 1.594632e-01 3.147642e-01 1.444064e-01 -4.257964e-02 -8.996505e-02 -3.135765e-03 -1.114072e-01 -9.466287e-02 -5.708154e-03 -2.469852e-01
<VARIANCE> 39
 3.210831e+01 4.658173e+01 4.979589e+01 6.002842e+01 7.628784e+01 7.332441e+01 5.953353e+01 7.071029e+01 7.098401e+01 4.346439e+01 4.767870e+01 2.632004e+01 5.433694e+01 1.133537e+00 1.334596e+00 1.499107e+00 2.146573e+00 2.778809e+00 2.336250e+00 1.786675e+00 1.996956e+00 1.991591e+00 1.197290e+00 1.209333e+00 8.357556e-01 1.583303e+00 8.406872e-02 1.407986e-01 1.223803e-01 1.676442e-01 2.608399e-01 2.327540e-01 1.804165e-01 1.922004e-01 2.207091e-01 1.410598e-01 1.111459e-01 9.199025e-02 1.475467e-01
<GCONST> 1.047412e+02
<STATE> 3
<MEAN> 39
 -1.409755e+00 2.834780e+00 1.014985e+01 -1.022583e+01 -1.158216e+01 -4.744204e-01 7.432483e-01 -4.881704e+00 5.061954e-01 3.600069e+00 -1.721091e+00 5.996549e-01 1.010989e+01 9.512927e-02 1.616463e-01 -2.157043e-01 3.592989e-01 2.180162e-01 9.742814e-02 -3.388078e-02 -1.017057e-01 -1.648717e-02 -2.154466e-01 -8.423942e-02 -9.951410e-02 -6.900465e-01 2.485508e-02 2.323112e-03 -6.323015e-02 2.501615e-01 1.698787e-01 -3.699723e-02 -2.625962e-03 6.272385e-02 -4.206987e-02 -5.079828e-02 6.513840e-02 -4.909210e-02 -1.878456e-01
<VARIANCE> 39
 2.388526e+01 4.949771e+01 4.256575e+01 5.458808e+01 5.058506e+01 7.719283e+01 6.111361e+01 6.018478e+01 7.274093e+01 4.090518e+01 3.948215e+01 2.524951e+01 4.291154e+01 4.162486e-01 7.933370e-01 6.740882e-01 1.473089e+00 1.010765e+00 1.112123e+00 1.014926e+00 1.084060e+00 1.169799e+00 9.110249e-01 7.115653e-01 7.070620e-01 1.077143e+00 5.109194e-02 7.415476e-02 7.002121e-02 9.684218e-02 1.053126e-01 1.314539e-01 1.196260e-01 1.338433e-01 1.108976e-01 1.110137e-01 8.658340e-02 8.654168e-02 5.633987e-02
<GCONST> 8.904272e+01
<STATE> 4
<MEAN> 39
 6.193590e-01 2.413555e-01 6.316680e+00 -1.404495e-01 -6.558315e+00 -3.119376e+00 1.340946e+00 -1.511297e+00 -3.242981e+00 1.803118e+00 1.517704e+00 -3.412736e-01 8.427559e-01 -1.777811e-01 1.658664e-01 -4.766643e-01 5.044214e-01 7.472985e-01 1.070305e-01 1.105972e-01 2.245281e-02 4.780467e-02 -2.174243e-01 1.913703e-02 7.712556e-02 -6.531313e-01 -2.909559e-02 -1.595078e-02 -1.972541e-02 -8.274637e-02 1.573674e-02 1.793280e-02 -1.943756e-02 2.911098e-02 3.806740e-02 7.178796e-03 6.192089e-03 1.878743e-03 7.378090e-02
<VARIANCE> 39
 1.273653e+01 2.097334e+01 3.471367e+01 3.747404e+01 4.287060e+01 4.171423e+01 3.508234e+01 4.136507e+01 4.095263e+01 2.733819e+01 3.057313e+01 2.277980e+01 4.910914e+01 3.206833e-01 4.901341e-01 5.313322e-01 8.660679e-01 6.502861e-01 8.474540e-01 6.829994e-01 8.485235e-01 8.134133e-01 6.081050e-01 5.645407e-01 5.000882e-01 4.618436e-01 2.708718e-02 4.627384e-02 4.566299e-02 6.215386e-02 7.464574e-02 7.625352e-02 7.774596e-02 8.258852e-02 9.079165e-02 7.581332e-02 5.976522e-02 6.883650e-02 3.426491e-02
<GCONST> 7.354753e+01
<TRANSP> 5
 0.000000e+00 1.000000e+00 0.000000e+00 0.000000e+00 0.000000e+00
 0.000000e+00 6.521536e-01 3.478464e-01 0.000000e+00 0.000000e+00
 0.000000e+00 0.000000e+00 7.760440e-01 2.239560e-01 0.000000e+00
 0.000000e+00 0.000000e+00 0.000000e+00 8.036665e-01 1.963334e-01
 0.000000e+00 0.000000e+00 0.000000e+00 0.000000e+00 0.000000e+00
<ENDHMM>
~h "g"
<BEGINHMM>
<NUMSTATES> 5
<STATE> 2
<MEAN> 39
 9.388481e-01 2.980524e+00 4.231097e+00 8.982984e-01 8.624037e-01 -2.164886e+00 4.226318e-01 2.121111e-01 4.429530e-01 1.176059e+00 2.521348e-01 -1.064960e+00 2.629304e+00 -5.444730e-01 -3.091264e-02 7.655838e-01 -5.467343e-01 -4.449615e-01 -1.607943e-01 -5.633464e-03 -2.438287e-01 1.017816e-02 3.551757e-01 8.545329e-02 1.003024e-02 5.890820e-01 6.029614e-02 -3.693660e-02 8.987606e-02 -2.399163e-01 -3.884924e-01 4.982955e-02 -8.957049e-02 -8.427706e-02 3.047614e-02 8.956605e-02 -1.380740e-02 7.360595e-02 3.442186e-01
<VARIANCE> 39
 9.136369e+01 1.020044e+02 9.592892e+01 6.718868e+01 7.716901e+01 4.496068e+01 7.067391e+01 6.371253e+01 7.383789e+01 4.062229e+01 5.183385e+01 2.632100e+01 8.332223e+01 1.657524e+00 1.783146e+00 2.975718e+00 2.392043e+00 3.170507e+00 1.630796e+00 1.939165e+00 1.360220e+00 2.125764e+00 1.382521e+00 1.514402e+00 1.096648e+00 2.747657e+00 2.045427e-01 2.109885e-01 2.391106e-01 2.241696e-01 2.739111e-01 1.968106e-01 2.204161e-01 1.661273e-01 2.818187e-01 1.769989e-01 1.943183e-01 1.295928e-01 1.908772e-01
<GCONST> 1.134224e+02
<STATE> 3
<MEAN> 39
 2.823174e-04 3.190092e+00 1.107106e+01 -7.076221e+00 -9.592629e+00 -9.256433e-01 1.484291e+00 -5.461099e+00 2.722640e-01 5.289384e+00 1.342732e+00 -7.267162e-01 1.091680e+01 1.535043e-01 -2.358833e-01 4.010523e-01 -2.472103e-01 -9.670057e-01 -3.754014e-02 5.029105e-02 -2.632651e-01 -1.259915e-01 2.296124e-01 2.261259e-02 -1.123702e-01 4.490434e-01 7.286407e-02 2.529414e-02 -2.106829e-01 1.922438e-01 1.846547e-01 -4.341844e-02 -4.774600e-02 1.557538e-01 -4.845951e-02 -1.518913e-01 -5.871289e-02 -7.451186e-04 -1.737028e-01
<VARIANCE> 39
 3.356314e+01 6.611464e+01 8.999046e+01 9.746547e+01 1.208068e+02 5.484926e+01 1.047398e+02 6.910552e+01 5.803131e+01 7.410873e+01 6.383313e+01 4.464232e+01 5.234430e+01 1.129126e+00 2.108932e+00 2.124823e+00 2.217378e+00 3.371842e+00 1.321600e+00 2.325581e+00 1.802627e+00 1.892095e+00 1.621463e+00 1.268287e+00 1.140703e+00 1.924951e+00 1.163209e-01 1.442522e-01 1.966015e-01 1.972613e-01 3.539199e-01 1.784377e-01 2.335606e-01 1.619838e-01 1.763006e-01 1.675526e-01 1.619024e-01 1.353657e-01 1.849030e-01
<GCONST> 1.115121e+02
<STATE> 4
<MEAN> 39
 -1.390111e+00 1.982424e+00 1.296368e+01 -3.104913e+00 -9.272786e+00 -3.434428e+00 -2.840223e-01 -2.312733e+00 -8.233261e+00 4.166460e+00 1.504191e+00 -3.515958e+00 8.183593e+00 1.382417e-01 -7.400123e-03 1.076118e-01 -2.380191e-01 -4.504369e-01 -2.212814e-01 -2.338633e-01 7.958165e-02 -3.430568e-02 1.337035e-01 1.078362e-01 1.148761e-01 1.250232e-01 6.352396e-02 -1.769210e-02 -1.273261e-01 3.714589e-02 3.714227e-02 6.507081e-03 4.429699e-02 3.389509e-02 1.023818e-01 -4.989754e-02 -3.572816e-02 6.534684e-02 -1.217334e-02
<VARIANCE> 39
 2.861870e+01 2.626918e+01 5.049727e+01 3.363907e+01 5.389272e+01 3.215862e+01 4.063078e+01 3.927230e+01 7.019977e+01 3.425481e+01 3.717092e+01 2.664846e+01 4.103062e+01 4.720972e-01 8.870313e-01 1.252154e+00 1.036972e+00 1.763775e+00 8.474221e-01 1.015511e+00 1.112287e+00 1.566866e+00 9.803538e-01 9.032196e-01 7.443849e-01 9.861433e-01 5.472105e-02 7.215843e-02 1.051312e-01 9.214760e-02 1.496918e-01 7.422123e-02 1.016031e-01 1.059756e-01 1.274387e-01 9.076220e-02 8.683391e-02 6.909385e-02 9.403212e-02
<GCONST> 8.775823e+01
<TRANSP> 5
 0.000000e+00 1.000000e+00 0.000000e+00 0.000000e+00 0.000000e+00
 0.000000e+00 7.086373e-01 2.913627e-01 0.000000e+00 0.000000e+00
 0.000000e+00 0.000000e+00 5.738144e-01 4.261856e-01 0.000000e+00
 0.000000e+00 0.000000e+00 0.000000e+00 6.744050e-01 3.255951e-01
 0.000000e+00 0.000000e+00 0.000000e+00 0.000000e+00 0.000000e+00
<ENDHMM>
~h "h"
<BEGINHMM>
<NUMSTATES> 5
<STATE> 2
<MEAN> 39
 6.458643e+00 3.624441e+00 -6.777720e+00 -8.271526e+00 1.482874e+00 1.682258e+00 -1.763214e+00 -2.308961e+00 -3.631728e+00 -1.371564e-01 8.882031e-01 2.535315e+00 6.468517e+00 3.025598e-01 7.255790e-02 5.988302e-02 -2.120459e-02 7.153665e-02 3.261922e-02 1.791873e-01 5.952787e-02 -8.040844e-02 -1.211744e-01 -1.259081e-01 -3.296241e-02 -2.714280e-01 -1.799290e-02 -5.945544e-02 4.476686e-02 7.554869e-02 -6.249036e-02 -3.094094e-02 4.596366e-02 4.250045e-02 6.324204e-02 -1.685873e-02 -4.122384e-02 -5.350476e-02 -2.297639e-02
<VARIANCE> 39
 3.810701e+01 5.090207e+01 5.896411e+01 8.286987e+01 4.657079e+01 3.101844e+01 5.203425e+01 2.536835e+01 2.715497e+01 3.939811e+01 3.216613e+01 2.675980e+01 6.394547e+01 6.198040e-01 5.389899e-01 6.001379e-01 1.374663e+00 8.393807e-01 7.722753e-01 1.192160e+00 5.421360e-01 6.586828e-01 5.521126e-01 6.535599e-01 6.706094e-01 8.573432e-01 5.440334e-02 5.927067e-02 5.607186e-02 1.585311e-01 1.025863e-01 8.462498e-02 1.001490e-01 4.656985e-02 8.119407e-02 5.736801e-02 8.691423e-02 6.147980e-02 5.637804e-02
<GCONST> 8.189359e+01
<STATE> 3
<MEAN> 39
 5.036918e+00 -1.635065e+00 -4.270857e+00 -1.221307e+00 3.732198e+00 6.350845e-01 -2.227516e+00 -2.132484e+00 -4.454545e+00 -2.597350e+00 -1.414990e+00 -3.092548e+00 1.944938e+00 -3.180318e-01 -2.884797e-01 -5.292945e-02 4.798604e-01 4.765681e-01 2.636749e-01 3.894923e-01 4.498201e-01 2.915462e-01 -2.297263e-01 -8.545691e-02 -1.782525e-01 -5.289047e-01 -4.805724e-02 -3.970908e-02 2.590925e-02 -1.503371e-02 -3.919772e-02 4.242886e-02 -2.332597e-02 5.930879e-02 -1.436472e-02 -1.026936e-02 5.012474e-03 9.217165e-02 8.276992e-02
<VARIANCE> 39
 3.014125e+01 6.826446e+01 5.236755e+01 6.307962e+01 4.353457e+01 3.074472e+01 5.280606e+01 3.394289e+01 5.412345e+01 5.992035e+01 3.805173e+01 3.193838e+01 5.368219e+01 4.196711e-01 9.539872e-01 9.852989e-01 7.662776e-01 6.089249e-01 4.922832e-01 7.001141e-01 7.733781e-01 1.048039e+00 8.151674e-01 8.245910e-01 8.882065e-01 4.827108e-01 3.781404e-02 6.210527e-02 8.802786e-02 8.339895e-02 1.123199e-01 6.038516e-02 7.436333e-02 7.104941e-02 1.253809e-01 1.024314e-01 1.054793e-01 9.062286e-02 2.396645e-02
<GCONST> 8.311683e+01
<STATE> 4
<MEAN> 39
 4.456431e-02 1.284536e+00 -2.434744e+00 -6.107627e-02 3.453726e+00 2.402849e+00 1.828861e-01 -8.137590e-01 -2.922686e+00 -1.673758e+00 -3.611484e-01 6.388489e-01 -2.366202e+00 -1.261568e-01 -1.269346e-01 -4.585063e-02 1.203099e-01 1.277688e-01 1.678160e-01 5.380287e-02 1.274568e-01 8.955462e-02 -1.143599e-02 7.157660e-02 4.583153e-02 -7.426551e-02 2.672566e-02 -2.579500e-02 3.188051e-02 -4.023065e-02 -4.481799e-02 -3.137395e-04 -3.612239e-02 -2.079288e-02 2.257142e-03 2.436115e-02 4.238433e-03 -9.591020e-03 6.354585e-02
<VARIANCE> 39
 2.118135e+01 2.510807e+01 4.255883e+01 3.455584e+01 3.012687e+01 2.412844e+01 3.227363e+01 2.553218e+01 4.099570e+01 3.543182e+01 2.261642e+01 1.912454e+01 4.120888e+01 2.477248e-01 3.271194e-01 4.677559e-01 6.461058e-01 4.850496e-01 3.903751e-01 4.949128e-01 4.771281e-01 4.974325e-01 5.775096e-01 6.160797e-01 4.876111e-01 2.222310e-01 1.812435e-02 3.441704e-02 4.967999e-02 6.753374e-02 6.571595e-02 4.327223e-02 6.638946e-02 5.260617e-02 4.911799e-02 6.616725e-02 6.490833e-02 4.603277e-02 1.688993e-02
<GCONST> 6.462833e+01
<TRANSP> 5
 0.000000e+00 1.000000e+00 0.000000e+00 0.000000e+00 0.000000e+00
 0.000000e+00 6.531194e-01 3.468806e-01 0.000000e+00 0.000000e+00
 0.000000e+00 0.000000e+00 5.727465e-01 4.272536e-01 0.000000e+00
 0.000000e+00 0.000000e+00 0.000000e+00 8.306085e-01 1.693915e-01
 0.000000e+00 0.000000e+00 0.000000e+00 0.000000e+00 0.000000e+00
<ENDHMM>
~h "i"
<BEGINHMM>
<NUMSTATES> 5
<STATE> 2
<MEAN> 39
 -9.766842e-01 5.042369e+00 1.061666e+01 -4.386040e+00 -5.529824e+00 -9.323635e-01 -2.744921e+00 -6.294628e+00 -2.750686e-01 1.590508e+00 -8.153536e-01 5.670573e-01 6.225256e+00 -1.783052e-01 6.103275e-01 1.352579e+00 -1.200404e+00 -8.813806e-01 -1.490351e-01 -6.340895e-01 -7.283807e-01 -2.213026e-01 2.439459e-01 -2.690868e-01 3.591394e-01 8.879129e-01 5.140964e-02 -1.931323e-02 -1.787462e-01 1.299003e-01 1.195750e-01 -2.193791e-02 7.043473e-02 1.415960e-01 -1.325384e-02 -5.606464e-02 1.626510e-02 -1.014257e-02 -1.382269e-01
<VARIANCE> 39
 3.757228e+01 5.763142e+01 6.816722e+01 8.401967e+01 7.626207e+01 5.726205e+01 6.546091e+01 6.835036e+01 7.766592e+01 5.167210e+01 5.018303e+01 3.917008e+01 5.287550e+01 1.712569e+00 1.806499e+00 2.088609e+00 2.539809e+00 2.024315e+00 1.692193e+00 2.276577e+00 2.092387e+00 2.534600e+00 1.801690e+00 1.624844e+00 1.500577e+00 1.369604e+00 1.372372e-01 1.702774e-01 2.420320e-01 3.008130e-01 2.460697e-01 1.901292e-01 2.023030e-01 2.325900e-01 2.363932e-01 1.856370e-01 1.655233e-01 1.386181e-01 1.597083e-01
<GCONST> 1.117318e+02
<STATE> 3
<MEAN> 39
 -1.651814e+00 7.293067e+00 1.394479e+01 -8.553570e+00 -8.396800e+00 -2.338228e+00 -4.185383e+00 -6.974182e+00 -1.709731e+00 2.296272e+00 -7.645660e-01 2.591701e+00 8.327514e+00 3.038070e-01 1.727313e-01 -2.066095e-01 6.955882e-01 8.078282e-02 -6.753296e-02 2.168998e-01 1.343152e-01 -1.764416e-01 -5.283691e-02 2.040748e-01 -2.416169e-01 -6.401072e-01 -1.392443e-02 -7.590213e-02 -3.032458e-01 3.744437e-01 2.622090e-01 4.549227e-02 1.664811e-01 1.201018e-01 3.077719e-02 -8.127422e-02 3.492892e-02 -1.394426e-01 -2.599613e-01
<VARIANCE> 39
 2.744488e+01 6.470627e+01 4.509831e+01 7.829799e+01 5.302802e+01 5.028428e+01 7.155375e+01 7.381664e+01 7.833242e+01 5.483915e+01 5.708051e+01 3.611010e+01 3.516061e+01 7.945608e-01 9.955892e-01 9.946585e-01 1.754595e+00 1.203375e+00 1.210970e+00 1.312171e+00 1.345306e+00 1.193320e+00 1.145107e+00 9.374292e-01 7.726890e-01 9.221617e-01 1.215345e-01 1.254548e-01 1.233102e-01 1.773407e-01 1.740607e-01 1.512146e-01 1.783671e-01 1.895648e-01 1.893100e-01 1.667070e-01 1.703079e-01 1.258440e-01 7.077739e-02
<GCONST> 9.954413e+01
<STATE> 4
<MEAN> 39
 2.243845e-01 4.315111e+00 9.328693e+00 1.666114e+00 -3.760011e+00 -1.592452e+00 -9.944307e-01 -4.679448e+00 -4.624299e+00 -2.302045e-01 9.805650e-01 -5.133573e-01 3.805940e-01 -1.656265e-01 -1.170611e-01 -6.613904e-01 5.924700e-01 6.269616e-01 1.445361e-01 3.645008e-01 1.499843e-01 9.237605e-02 -1.239052e-01 -3.457840e-02 -2.866376e-02 -6.606762e-01 -8.344233e-02 -3.671995e-02 -6.469642e-02 -1.022200e-01 3.413261e-02 -2.780312e-03 -2.487205e-02 2.506456e-02 6.137066e-02 2.015418e-02 1.494667e-02 3.977718e-02 7.197457e-02
<VARIANCE> 39
 2.681199e+01 3.209406e+01 5.246744e+01 4.196263e+01 4.210682e+01 3.875989e+01 4.789988e+01 3.963968e+01 5.025660e+01 3.569250e+01 3.238092e+01 2.638711e+01 5.945596e+01 7.681068e-01 9.442612e-01 9.326258e-01 1.196995e+00 1.001597e+00 9.699741e-01 9.340310e-01 9.174740e-01 1.035337e+00 7.985775e-01 7.145631e-01 6.378726e-01 6.971626e-01 5.785242e-02 6.434347e-02 9.182534e-02 8.289555e-02 1.019274e-01 9.527705e-02 1.057332e-01 1.021403e-01 1.095047e-01 8.938570e-02 7.584292e-02 6.604110e-02 5.682784e-02
<GCONST> 8.525000e+01
<TRANSP> 5
 0.000000e+00 1.000000e+00 0.000000e+00 0.000000e+00 0.000000e+00
 0.000000e+00 6.677104e-01 3.322896e-01 0.000000e+00 0.000000e+00
 0.000000e+00 0.000000e+00 7.101926e-01 2.898074e-01 0.000000e+00
 0.000000e+00 0.000000e+00 0.000000e+00 7.540835e-01 2.459165e-01
 0.000000e+00 0.000000e+00 0.000000e+00 0.000000e+00 0.000000e+00
<ENDHMM>
~h "j"
<BEGINHMM>
<NUMSTATES> 5
<STATE> 2
<MEAN> 39
 2.463679e+00 -2.946369e+00 2.084371e-01 -4.601341e-01 -1.656516e+00 -2.886808e+00 3.646632e+00 3.567986e+00 -1.008331e+00 -1.553078e+00 -2.634542e+00 1.467219e-01 7.414815e+00 -3.330015e-01 1.026188e+00 1.735046e-01 6.312220e-01 6.960626e-01 4.768378e-01 3.004943e-01 -2.878394e-01 -3.662617e-01 -3.327338e-02 5.523159e-01 -3.869752e-01 -1.259002e+00 -2.623153e-01 3.303464e-03 -1.798647e-01 -1.426101e-01 1.996810e-01 1.812207e-01 -1.358634e-02 8.370940e-02 9.625795e-02 -6.739113e-02 -1.952040e-02 -1.097503e-01 1.062334e-01
<VARIANCE> 39
 1.832229e+01 2.178761e+01 2.811571e+01 3.016542e+01 3.277905e+01 2.929841e+01 3.219418e+01 3.703545e+01 5.054338e+01 3.376614e+01 2.429895e+01 2.411583e+01 4.304185e+01 1.105632e+00 9.179580e-01 7.820555e-01 1.212988e+00 8.776504e-01 8.303851e-01 9.241964e-01 1.043892e+00 1.183148e+00 8.723924e-01 8.019795e-01 6.326123e-01 4.630694e-01 1.253709e-01 7.953545e-02 6.580828e-02 1.252963e-01 1.348397e-01 1.410854e-01 1.030826e-01 9.017622e-02 8.023424e-02 8.726476e-02 1.271731e-01 1.006044e-01 7.501757e-02
<GCONST> 8.417467e+01
<STATE> 3
<MEAN> 39
 -3.811357e+00 3.120904e+00 -1.120589e+00 -6.461500e-02 3.935122e+00 1.184632e+00 4.586457e+00 4.043281e+00 -9.381304e-01 -1.951978e+00 -1.026013e+00 -2.766979e+00 4.194837e+00 -2.115997e+00 1.077063e+00 5.098441e-01 -8.097024e-01 2.771958e-01 -1.013807e-01 -6.505305e-02 9.364810e-02 -2.216910e-01 2.820039e-01 8.338839e-01 -2.781485e-01 5.205896e-01 1.348155e-01 -2.240607e-01 3.039178e-01 -2.217104e-01 -4.927494e-01 -3.032794e-01 -1.061677e-01 -4.258702e-02 -6.216656e-02 1.078889e-01 6.420714e-02 1.433403e-01 3.569599e-01
<VARIANCE> 39
 8.463705e+01 4.644793e+01 3.688960e+01 4.963578e+01 3.262153e+01 3.317772e+01 3.986873e+01 3.614727e+01 4.096871e+01 3.208772e+01 2.789438e+01 2.388805e+01 3.584530e+01 1.981641e+00 1.303453e+00 1.310603e+00 1.247337e+00 1.282649e+00 1.279906e+00 1.303874e+00 1.055349e+00 7.521065e-01 9.989110e-01 1.152953e+00 8.209010e-01 8.518826e-01 5.591332e-01 2.121511e-01 9.635600e-02 2.437618e-01 1.655389e-01 1.369597e-01 1.468245e-01 1.472902e-01 1.489487e-01 9.999261e-02 1.289058e-01 9.757570e-02 7.805704e-02
<GCONST> 9.610645e+01
<STATE> 4
<MEAN> 39
 -8.301384e+00 4.432011e+00 6.575209e+00 -5.157840e+00 -3.653324e+00 -3.892074e+00 3.251505e+00 1.870927e+00 -3.179673e+00 2.204431e-01 4.675522e+00 -2.171677e+00 1.031864e+01 1.272615e+00 -9.556446e-01 5.920425e-01 -3.645681e-01 -1.931671e+00 -9.232115e-01 -3.132306e-01 1.542498e-01 1.329886e-01 2.201765e-01 1.685279e-01 4.653597e-01 8.543216e-01 4.615891e-01 -2.726711e-01 -2.729267e-01 1.777826e-01 7.107393e-02 8.813274e-02 -2.677627e-02 1.340839e-01 1.305326e-01 -6.801311e-02 -3.254414e-01 3.577047e-02 -1.059037e-01
<VARIANCE> 39
 5.817654e+01 4.191485e+01 2.636975e+01 2.185564e+01 6.545932e+01 4.140503e+01 5.224438e+01 3.620756e+01 3.988723e+01 3.837454e+01 3.293756e+01 3.935415e+01 3.595031e+01 1.693491e+00 1.711339e+00 1.493908e+00 1.191096e+00 1.150461e+00 9.151684e-01 1.353780e+00 1.769414e+00 1.475234e+00 8.401758e-01 1.530628e+00 5.741840e-01 3.116532e-01 3.735971e-01 2.063858e-01 1.099933e-01 1.018347e-01 3.778851e-01 1.344918e-01 1.412167e-01 1.469603e-01 8.968110e-02 1.354529e-01 1.315088e-01 1.087097e-01 4.404914e-02
<GCONST> 9.516132e+01
<TRANSP> 5
 0.000000e+00 1.000000e+00 0.000000e+00 0.000000e+00 0.000000e+00
 0.000000e+00 7.421284e-01 2.578716e-01 0.000000e+00 0.000000e+00
 0.000000e+00 0.000000e+00 7.676973e-01 2.323027e-01 0.000000e+00
 0.000000e+00 0.000000e+00 0.000000e+00 7.916395e-01 2.083605e-01
 0.000000e+00 0.000000e+00 0.000000e+00 0.000000e+00 0.000000e+00
<ENDHMM>
~h "k"
<BEGINHMM>
<NUMSTATES> 5
<STATE> 2
<MEAN> 39
 -5.578728e-02 1.570018e+00 2.835461e+00 3.159828e+00 -3.120116e+00 -2.611670e+00 -8.068025e-02 -3.676593e+00 -1.008239e+00 2.124764e+00 8.320779e-01 -1.059689e-01 -4.065152e+00 -1.380243e-01 -8.603746e-01 -1.446003e+00 3.368190e-01 1.024270e+00 8.698963e-03 1.169401e-01 4.017646e-01 2.958754e-01 1.951172e-01 2.128893e-01 7.117766e-02 -3.110055e-01 -1.456601e-03 -9.271511e-02 -1.877730e-01 -2.581937e-01 8.849289e-02 -9.463826e-03 -4.044545e-02 1.311187e-01 6.578597e-02 1.072070e-02 -2.787231e-02 -8.319270e-03 4.376120e-01
<VARIANCE> 39
 2.519213e+01 4.186947e+01 6.300698e+01 4.986683e+01 8.894753e+01 5.876423e+01 5.272338e+01 5.358760e+01 5.596181e+01 5.200285e+01 3.382424e+01 2.603008e+01 2.691028e+01 7.805485e-01 1.433834e+00 1.686600e+00 2.046655e+00 1.765120e+00 2.333832e+00 1.796462e+00 1.708431e+00 1.412109e+00 1.301872e+00 1.268819e+00 6.494422e-01 1.657864e+00 1.070422e-01 1.569627e-01 1.825176e-01 1.563636e-01 2.187433e-01 2.782722e-01 1.771671e-01 1.815986e-01 1.587587e-01 1.804985e-01 1.272032e-01 1.004538e-01 1.183775e-01
<GCONST> 1.021326e+02
<STATE> 3
<MEAN> 39
 -2.850589e+00 -6.789503e+00 -7.525215e+00 4.442780e+00 6.030028e+00 -3.132244e+00 1.127897e+00 2.648082e+00 2.226242e+00 3.527305e+00 1.397367e+00 3.846746e-01 -6.039932e-01 2.636534e-01 -4.878801e-01 -1.169721e+00 -7.644817e-01 5.035046e-01 5.972530e-02 7.401692e-03 4.741832e-01 3.610085e-01 -9.859771e-02 -1.890550e-01 -1.516740e-01 1.489651e+00 3.048721e-01 3.279234e-01 3.536721e-01 -3.352582e-01 -4.556442e-01 1.483938e-01 -7.722466e-02 -2.096793e-01 -1.021372e-01 -1.182236e-01 -1.243652e-01 -8.777910e-02 2.129181e-01
<VARIANCE> 39
 3.741069e+01 4.348120e+01 9.364606e+01 6.712470e+01 7.514621e+01 9.584499e+01 7.097810e+01 5.821311e+01 6.469717e+01 4.442747e+01 5.745132e+01 2.447756e+01 1.249618e+02 1.426493e+00 1.632610e+00 2.086792e+00 1.705808e+00 2.303262e+00 2.972375e+00 1.808321e+00 1.777945e+00 1.928004e+00 1.920842e+00 1.292889e+00 9.313313e-01 3.101939e+00 1.054211e-01 2.113644e-01 2.081503e-01 2.439286e-01 2.353177e-01 3.013536e-01 2.028349e-01 1.905195e-01 2.102939e-01 1.683804e-01 1.893140e-01 9.889359e-02 3.124954e-01
<GCONST> 1.117341e+02
<STATE> 4
<MEAN> 39
 2.198433e+00 -1.678949e+00 -8.122653e+00 -2.258856e+00 2.921071e+00 -1.172409e-01 1.580801e+00 1.361441e-01 3.861991e-01 1.517516e+00 1.595311e-01 -1.238682e+00 2.648773e+00 1.199361e+00 7.131739e-01 6.338863e-02 -1.270476e+00 -7.484390e-01 4.479976e-01 -4.128591e-01 -3.624985e-01 -4.443005e-02 -3.158108e-01 -2.589455e-01 -1.299526e-01 1.326257e+00 1.320146e-01 1.190282e-01 3.448927e-01 6.488601e-02 -2.581972e-01 1.486030e-02 -1.333912e-01 -1.216727e-01 -3.135861e-02 2.121341e-02 1.787739e-02 4.488175e-02 -7.896090e-02
<VARIANCE> 39
 4.572033e+01 3.738798e+01 7.780935e+01 6.272853e+01 8.901746e+01 6.199851e+01 5.796978e+01 5.330899e+01 5.819711e+01 5.349301e+01 4.502677e+01 2.770890e+01 5.122147e+01 9.080637e-01 1.810621e+00 1.713431e+00 1.418302e+00 2.457055e+00 2.279368e+00 1.891024e+00 2.154154e+00 2.504898e+00 1.570717e+00 1.573851e+00 1.117360e+00 1.172335e+00 1.328163e-01 1.538195e-01 1.817250e-01 1.508390e-01 2.429527e-01 2.773564e-01 2.673246e-01 2.326064e-01 1.771922e-01 2.134091e-01 1.779997e-01 1.115675e-01 1.666010e-01
<GCONST> 1.080316e+02
<TRANSP> 5
 0.000000e+00 1.000000e+00 0.000000e+00 0.000000e+00 0.000000e+00
 0.000000e+00 7.432926e-01 2.567073e-01 0.000000e+00 0.000000e+00
 0.000000e+00 0.000000e+00 5.962849e-01 4.037151e-01 0.000000e+00
 0.000000e+00 0.000000e+00 0.000000e+00 4.997198e-01 5.002803e-01
 0.000000e+00 0.000000e+00 0.000000e+00 0.000000e+00 0.000000e+00
<ENDHMM>
~h "l"
<BEGINHMM>
<NUMSTATES> 5
<STATE> 2
<MEAN> 39
 4.881396e+00 -4.575930e+00 -1.171412e+00 -4.678864e+00 1.265274e+00 4.175567e+00 -6.706554e+00 1.294161e-01 8.453161e+00 -2.600689e-01 -4.952855e+00 -2.582895e+00 7.775094e+00 9.544217e-02 4.300832e-01 7.869917e-01 2.409224e-01 -3.034130e-01 -3.631892e-01 -7.571207e-01 -1.598335e-01 -4.232786e-02 1.702063e-01 1.514586e-01 1.526725e-01 1.963736e-01 1.310450e-02 3.245931e-02 -1.018101e-01 -3.836686e-02 -2.035790e-02 1.870171e-02 9.427756e-02 1.592564e-02 -6.780966e-02 4.665577e-02 9.378959e-02 -2.831409e-02 -3.830119e-02
<VARIANCE> 39
 5.792554e+01 7.360873e+01 7.562634e+01 4.979264e+01 5.923056e+01 1.152005e+02 6.728812e+01 5.764158e+01 1.740386e+02 5.408818e+01 5.061603e+01 2.646343e+01 2.229869e+02 1.208557e+00 1.637041e+00 2.142241e+00 1.123128e+00 1.311344e+00 2.839233e+00 1.396859e+00 1.574527e+00 3.692324e+00 1.268592e+00 1.334612e+00 8.597237e-01 4.589518e+00 1.427516e-01 1.752037e-01 2.143149e-01 1.143577e-01 1.748332e-01 3.698902e-01 1.350689e-01 3.001638e-01 3.501694e-01 1.333483e-01 1.369969e-01 1.082170e-01 4.069134e-01
<GCONST> 1.124699e+02
<STATE> 3
<MEAN> 39
 2.879627e+00 -8.721071e-01 4.224472e+00 -3.930368e+00 -3.685059e+00 -1.782185e+00 -8.660981e+00 -4.207109e-01 5.164220e-01 -5.911571e+00 -2.233702e+00 1.697460e+00 7.804751e+00 -6.071806e-02 2.411508e-01 3.723756e-01 -9.694346e-02 -3.481478e-01 -2.758463e-02 -2.634261e-01 -2.652759e-03 -1.673533e-01 1.596380e-01 2.250914e-01 9.940497e-02 -1.606980e-01 -3.519724e-02 -2.246792e-01 -4.230412e-01 -4.915344e-02 5.278694e-02 -3.920848e-02 5.505023e-01 1.934722e-01 1.166377e-02 2.252698e-01 -6.080500e-02 -1.729354e-01 1.814454e-01
<VARIANCE> 39
 1.202094e+01 2.159042e+01 3.636330e+01 3.682698e+01 3.577903e+01 3.986354e+01 4.731522e+01 6.177772e+01 5.651166e+01 6.016064e+01 2.999531e+01 3.756775e+01 3.601098e+01 4.414558e-01 1.071558e+00 1.835649e+00 7.660081e-01 1.054264e+00 1.365690e+00 3.442522e+00 1.555401e+00 1.326057e+00 1.107156e+00 9.589453e-01 9.565473e-01 6.656200e-01 4.797198e-02 1.390739e-01 1.054774e-01 9.947436e-02 1.457899e-01 1.904264e-01 3.449755e-01 2.255628e-01 1.871928e-01 1.352196e-01 8.983542e-02 1.333727e-01 8.212499e-02
<GCONST> 9.364201e+01
<STATE> 4
<MEAN> 39
 3.392087e+00 -1.592521e+00 5.080119e-01 -1.297813e+00 -5.504710e+00 -3.420643e+00 -3.561321e+00 -8.295565e-01 1.256924e+00 -2.163024e+00 -2.929137e+00 -4.364862e-01 8.990450e+00 -2.033479e-01 -1.379277e-01 -3.547717e-01 -6.232210e-02 1.529965e-02 3.636505e-02 7.061647e-01 3.600868e-01 -1.776776e-01 6.647238e-01 2.342206e-01 -2.674955e-01 -4.513314e-02 -4.648926e-02 3.806097e-02 -6.187256e-02 -4.503722e-02 1.335501e-01 6.880751e-02 5.449624e-02 1.145772e-02 -8.142557e-03 1.292477e-02 1.185925e-02 -2.673309e-03 6.334581e-04
<VARIANCE> 39
 4.140329e+01 4.268826e+01 4.803390e+01 4.595874e+01 4.457673e+01 2.668527e+01 5.477637e+01 5.108863e+01 8.330406e+01 6.499657e+01 3.144584e+01 3.190759e+01 4.088433e+01 1.101025e+00 1.024237e+00 1.316733e+00 1.084974e+00 1.277581e+00 1.328640e+00 1.969658e+00 1.367586e+00 1.316450e+00 1.060631e+00 7.456070e-01 6.118461e-01 6.271755e-01 6.855492e-02 7.428161e-02 7.486644e-02 9.325042e-02 1.173499e-01 8.949546e-02 1.418914e-01 1.152092e-01 1.454569e-01 1.019401e-01 7.016521e-02 6.562001e-02 5.183990e-02
<GCONST> 9.070435e+01
<TRANSP> 5
 0.000000e+00 1.000000e+00 0.000000e+00 0.000000e+00 0.000000e+00
 0.000000e+00 5.450805e-01 4.549194e-01 0.000000e+00 0.000000e+00
 0.000000e+00 0.000000e+00 6.013598e-01 3.986402e-01 0.000000e+00
 0.000000e+00 0.000000e+00 0.000000e+00 6.348053e-01 3.651947e-01
 0.000000e+00 0.000000e+00 0.000000e+00 0.000000e+00 0.000000e+00
<ENDHMM>
~h "m"
<BEGINHMM>
<NUMSTATES> 5
<STATE> 2
<MEAN> 39
 7.332377e+00 2.768036e+00 2.927125e+00 3.552075e+00 2.576938e+00 1.889544e+00 -3.043301e+00 -6.610715e+00 -4.512710e+00 -6.150000e-01 -8.697295e-01 -1.644875e+00 2.433728e+00 5.265801e-01 -1.705437e-01 -3.722644e-01 1.087601e-01 5.313541e-01 2.029945e-01 -2.953867e-01 -1.526455e-01 3.046713e-01 3.071830e-01 -1.819097e-02 -3.876793e-01 2.851507e-01 -5.263625e-02 -2.647303e-01 -2.532897e-01 -2.721607e-01 -2.729616e-02 -1.108908e-02 -1.403958e-03 2.965945e-01 2.429285e-01 8.961652e-03 -6.795457e-02 -9.093393e-02 2.162721e-01
<VARIANCE> 39
 2.214001e+01 3.573149e+01 4.346476e+01 5.239231e+01 5.744099e+01 4.092136e+01 4.966500e+01 3.769605e+01 4.527628e+01 3.255313e+01 3.790435e+01 2.348946e+01 2.968633e+01 6.146600e-01 1.250322e+00 2.183823e+00 2.242765e+00 1.394940e+00 1.161146e+00 1.035949e+00 1.392781e+00 1.904885e+00 1.006832e+00 8.146118e-01 9.431494e-01 1.188336e+00 6.189276e-02 1.118312e-01 1.449082e-01 1.731631e-01 1.683593e-01 1.222248e-01 1.446894e-01 1.898580e-01 1.379646e-01 1.277247e-01 1.183082e-01 1.008763e-01 5.465225e-02
<GCONST> 9.408096e+01
<STATE> 3
<MEAN> 39
 8.887204e+00 -1.963992e+00 -1.974730e+00 1.338809e+00 4.305838e+00 1.011573e+00 -7.489379e+00 -4.432870e+00 -1.977853e+00 1.986238e+00 -1.720131e+00 -6.587908e+00 5.731279e+00 6.387841e-03 -9.666274e-01 -9.327661e-01 -5.262852e-01 3.217860e-01 1.081422e-01 2.791579e-02 1.220167e+00 6.100386e-01 -5.392455e-01 -2.583200e-01 -2.028732e-01 8.085626e-01 -2.106917e-01 -3.971168e-02 6.373411e-02 -1.164570e-01 -1.344524e-01 -4.927834e-02 2.504352e-01 2.924307e-01 -7.884276e-02 -3.482764e-01 -8.242777e-02 2.707638e-01 9.160679e-02
<VARIANCE> 39
 1.830652e+01 2.915235e+01 4.339877e+01 5.268525e+01 3.268196e+01 5.460692e+01 4.507235e+01 4.424453e+01 6.187424e+01 5.705935e+01 3.445850e+01 3.312362e+01 2.601723e+01 4.501138e-01 1.435353e+00 1.305118e+00 1.357133e+00 1.429769e+00 1.160620e+00 1.639156e+00 1.868732e+00 1.915366e+00 1.949578e+00 1.212511e+00 1.152367e+00 9.168690e-01 5.303677e-02 1.011874e-01 1.799917e-01 2.303993e-01 1.230623e-01 1.213419e-01 1.675302e-01 1.859307e-01 1.358362e-01 2.280677e-01 1.036040e-01 1.170566e-01 7.083228e-02
<GCONST> 9.595303e+01
<STATE> 4
<MEAN> 39
 6.892037e+00 -5.878710e+00 -6.427914e+00 7.370557e-01 6.649691e+00 9.922599e-01 -3.001962e+00 1.421068e+00 -1.251654e+00 -4.740005e+00 -5.105151e+00 -2.179837e+00 1.031437e+01 -5.624524e-01 -2.925004e-01 -3.089546e-02 -5.260640e-01 -2.715365e-01 -6.839383e-02 6.550450e-01 7.836683e-01 -1.155069e-01 -5.429466e-01 -1.380683e-01 4.358114e-01 4.280896e-01 -5.398618e-02 2.008359e-01 1.932667e-01 2.127093e-02 -8.877777e-02 -2.458163e-02 6.528684e-02 -2.288898e-01 -1.031184e-01 1.041451e-01 6.035348e-02 5.977492e-02 -1.482743e-01
<VARIANCE> 39
 2.675209e+01 5.087905e+01 5.426744e+01 5.025504e+01 5.250859e+01 5.936950e+01 5.581567e+01 6.291201e+01 7.579073e+01 5.533548e+01 3.804679e+01 3.277925e+01 7.077392e+01 1.012468e+00 1.429629e+00 1.776598e+00 1.716453e+00 1.440113e+00 1.387844e+00 1.678872e+00 1.923146e+00 1.739673e+00 1.855234e+00 1.178417e+00 1.109926e+00 1.657807e+00 7.445954e-02 1.492720e-01 1.799382e-01 1.830347e-01 1.607914e-01 1.465291e-01 1.502134e-01 2.068305e-01 2.000337e-01 1.974782e-01 1.129302e-01 1.161957e-01 1.246831e-01
<GCONST> 1.032581e+02
<TRANSP> 5
 0.000000e+00 1.000000e+00 0.000000e+00 0.000000e+00 0.000000e+00
 0.000000e+00 7.031156e-01 2.968844e-01 0.000000e+00 0.000000e+00
 0.000000e+00 0.000000e+00 6.074855e-01 3.925145e-01 0.000000e+00
 0.000000e+00 0.000000e+00 0.000000e+00 6.583803e-01 3.416197e-01
 0.000000e+00 0.000000e+00 0.000000e+00 0.000000e+00 0.000000e+00
<ENDHMM>
~h "n"
<BEGINHMM>
<NUMSTATES> 5
<STATE> 2
<MEAN> 39
 3.437480e+00 -1.702600e+00 1.040005e+00 1.327845e-01 -6.010932e-02 -3.808056e+00 -8.763673e-01 1.560061e+00 -2.979738e+00 -3.492463e+00 -3.337868e+00 -3.198916e-02 9.088219e+00 4.916863e-01 7.928145e-01 7.237332e-01 1.022430e+00 -4.724689e-01 -3.209120e-01 1.597260e-01 -6.871819e-01 -3.577285e-01 1.137835e-01 -8.763327e-02 2.055050e-01 -9.812788e-01 6.423876e-02 -6.304855e-03 -6.113166e-02 -4.935641e-02 -3.927497e-02 6.573097e-02 -3.761036e-02 -6.757963e-02 8.923167e-02 8.452791e-02 -7.833093e-03 -3.528650e-02 -1.880652e-02
<VARIANCE> 39
 1.890340e+01 3.120096e+01 4.189491e+01 3.720983e+01 4.602583e+01 5.608161e+01 5.019603e+01 5.154243e+01 6.354090e+01 5.971616e+01 3.576219e+01 2.926670e+01 4.590750e+01 6.021273e-01 6.005632e-01 1.014575e+00 8.222710e-01 1.188300e+00 1.182305e+00 1.142652e+00 1.216441e+00 1.432483e+00 1.705054e+00 1.049592e+00 1.006732e+00 5.080901e-01 4.480342e-02 6.149837e-02 7.099269e-02 9.078634e-02 9.970064e-02 1.099877e-01 1.044351e-01 1.121256e-01 1.291293e-01 1.255023e-01 1.036885e-01 9.435584e-02 4.671798e-02
<GCONST> 8.817427e+01
<STATE> 3
<MEAN> 39
 7.194203e+00 1.058849e+00 3.504217e+00 4.720452e+00 -3.103433e+00 -4.522616e+00 1.704983e+00 -1.521022e+00 -3.518785e+00 -8.899471e-01 -3.643531e+00 1.094044e+00 4.747001e+00 2.851142e-01 3.732362e-01 2.543082e-01 3.582029e-01 -1.204044e-01 1.226816e-01 -2.480086e-02 -3.981536e-01 -9.735640e-02 2.841562e-02 3.423746e-02 -7.455626e-02 -5.862408e-01 -1.622048e-01 -1.790463e-01 -1.942849e-01 -3.040548e-01 1.454717e-01 1.339423e-01 -5.915928e-02 2.021656e-01 8.698312e-02 -9.725928e-02 4.618925e-02 -8.073524e-02 2.195352e-01
<VARIANCE> 39
 2.042573e+01 3.377122e+01 2.980504e+01 3.163671e+01 4.006284e+01 5.053597e+01 5.206526e+01 4.737429e+01 5.366452e+01 3.701932e+01 3.860232e+01 3.564984e+01 2.647071e+01 5.094088e-01 9.786335e-01 1.231079e+00 9.866614e-01 9.965149e-01 1.020976e+00 1.007789e+00 1.256707e+00 1.168674e+00 1.017749e+00 7.483979e-01 7.637743e-01 6.402112e-01 5.652151e-02 9.762953e-02 9.328019e-02 1.197142e-01 1.229445e-01 1.522774e-01 1.422559e-01 1.584896e-01 1.538096e-01 1.338111e-01 1.034818e-01 1.015460e-01 5.895821e-02
<GCONST> 8.876901e+01
<STATE> 4
<MEAN> 39
 3.594114e+00 1.577817e+00 1.694718e+00 1.590396e+00 -6.816264e-01 -1.199770e+00 -1.671275e+00 -2.661383e+00 -1.919507e+00 -3.378930e+00 -3.940017e+00 -1.249032e+00 2.001982e+00 -6.668754e-02 9.838134e-02 2.572892e-03 -1.332397e-03 8.823939e-02 1.447336e-02 -2.584887e-02 -2.217212e-02 -5.161969e-02 -2.475275e-02 9.683008e-02 -2.802875e-02 -1.443834e-01 -3.363707e-02 -9.224285e-02 -3.604545e-02 -8.632880e-02 2.681657e-02 8.945685e-03 9.595053e-03 8.950564e-02 -1.559951e-03 4.792725e-02 4.424773e-02 -1.207523e-02 7.626551e-02
<VARIANCE> 39
 1.562647e+01 2.277375e+01 2.521158e+01 2.238896e+01 2.889832e+01 3.289842e+01 2.883360e+01 2.708096e+01 4.142350e+01 3.422498e+01 2.503548e+01 1.922822e+01 2.392135e+01 2.047669e-01 5.970566e-01 5.462227e-01 5.967947e-01 6.276195e-01 6.605658e-01 6.461530e-01 7.714732e-01 6.542764e-01 7.134240e-01 5.488403e-01 4.698601e-01 3.344855e-01 2.290222e-02 5.536143e-02 4.523529e-02 6.059231e-02 6.632543e-02 7.232643e-02 7.295348e-02 7.942885e-02 8.328070e-02 8.472054e-02 6.389918e-02 5.931785e-02 2.610078e-02
<GCONST> 6.876651e+01
<TRANSP> 5
 0.000000e+00 1.000000e+00 0.000000e+00 0.000000e+00 0.000000e+00
 0.000000e+00 4.605873e-01 5.394128e-01 0.000000e+00 0.000000e+00
 0.000000e+00 0.000000e+00 6.324029e-01 3.675970e-01 0.000000e+00
 0.000000e+00 0.000000e+00 0.000000e+00 8.126009e-01 1.873991e-01
 0.000000e+00 0.000000e+00 0.000000e+00 0.000000e+00 0.000000e+00
<ENDHMM>
~h "o"
<BEGINHMM>
<NUMSTATES> 5
<STATE> 2
<MEAN> 39
 -4.316240e+00 -7.391859e-01 -6.930561e-02 1.156926e+00 4.615018e+00 2.910560e+00 2.355542e+00 1.535079e+00 4.387381e-01 1.025521e+00 3.392042e+00 -1.261722e-01 -1.563506e+01 7.040021e-01 4.985808e-01 -1.383980e-01 -7.515403e-01 -1.796948e-01 1.014278e-01 -3.240147e-01 -1.395667e-01 -1.759594e-02 1.584346e-01 2.793825e-02 -1.171730e-01 5.763274e-01 1.260328e-01 1.489896e-02 -4.470995e-02 -7.176106e-02 -9.699351e-02 -4.523695e-02 -7.964922e-02 -5.084177e-02 2.739619e-02 3.341671e-02 -2.748890e-02 -1.272313e-02 2.077468e-01
<VARIANCE> 39
 9.582066e+01 4.918704e+01 5.957222e+01 5.269440e+01 5.271756e+01 3.811142e+01 4.317780e+01 4.058560e+01 4.365039e+01 3.917736e+01 2.943287e+01 1.832308e+01 4.381888e+02 2.733777e+00 1.154420e+00 1.431656e+00 1.243156e+00 1.543204e+00 1.262316e+00 1.246513e+00 1.036164e+00 1.528963e+00 1.027947e+00 9.436844e-01 5.725176e-01 8.362028e+00 2.137432e-01 1.223334e-01 1.419280e-01 1.618067e-01 1.221366e-01 1.461452e-01 1.361409e-01 1.036679e-01 1.328509e-01 1.136575e-01 8.762775e-02 6.494030e-02 5.904321e-01
<GCONST> 1.020940e+02
<STATE> 3
<MEAN> 39
 9.921121e+00 2.972307e+00 -7.187413e+00 -9.244022e+00 -2.127600e+00 3.849659e+00 -2.094038e+00 -3.123097e+00 -1.519966e+00 2.272209e+00 3.203001e+00 2.385296e-02 6.113171e+00 7.025548e-01 -5.290272e-01 -7.142941e-01 -3.079697e-01 2.711284e-01 1.530487e-01 -1.138892e+00 -3.079068e-01 7.151022e-01 8.148600e-01 -1.723005e-01 -3.873127e-01 1.511929e+00 -3.327308e-01 -3.099795e-01 1.570959e-01 5.088778e-01 2.331594e-01 -2.834011e-01 -6.912455e-02 1.550537e-01 2.121809e-01 -5.793535e-02 -2.436765e-01 -1.031779e-01 -2.052837e-01
<VARIANCE> 39
 2.040860e+01 3.199720e+01 5.182840e+01 3.532655e+01 4.894543e+01 4.242082e+01 3.769033e+01 3.655355e+01 5.119911e+01 5.153514e+01 3.708959e+01 2.670869e+01 4.058118e+01 1.247686e+00 1.486497e+00 1.829011e+00 2.838818e+00 2.153782e+00 1.836519e+00 1.432803e+00 1.342472e+00 2.094555e+00 1.504533e+00 1.349885e+00 1.049302e+00 2.420256e+00 1.010765e-01 1.221488e-01 1.778833e-01 1.855664e-01 2.369720e-01 2.246522e-01 2.002631e-01 1.613849e-01 2.041173e-01 2.120441e-01 1.729973e-01 1.386925e-01 1.875054e-01
<GCONST> 1.029771e+02
<STATE> 4
<MEAN> 39
 8.200160e+00 -4.035360e+00 -8.607327e+00 -2.983962e+00 3.863464e+00 -5.494323e-03 -8.823977e+00 -1.028558e+00 6.133626e+00 4.593511e+00 -2.808136e+00 -4.316769e+00 1.011793e+01 -3.654834e-01 -4.350961e-01 7.358156e-01 1.427199e+00 1.478557e-01 -1.171471e+00 -6.060377e-02 4.182095e-01 3.656729e-01 -5.977896e-01 -7.368748e-01 1.973938e-02 2.590061e-02 -8.064517e-02 3.024917e-01 2.886347e-01 9.866231e-02 -2.191130e-01 -3.160983e-02 4.003945e-01 -4.860607e-03 -3.491679e-01 -2.626106e-01 2.092269e-01 2.411092e-01 -3.418410e-01
<VARIANCE> 39
 2.034324e+01 2.325944e+01 3.763247e+01 5.129068e+01 5.645266e+01 5.012202e+01 3.705508e+01 4.934929e+01 6.796492e+01 6.569994e+01 4.612512e+01 2.995751e+01 2.986763e+01 6.904576e-01 1.017519e+00 1.262027e+00 1.631740e+00 2.320059e+00 1.510360e+00 1.633386e+00 1.081093e+00 1.846705e+00 1.541728e+00 1.516337e+00 1.178118e+00 1.267383e+00 9.149528e-02 1.121961e-01 1.387227e-01 2.490646e-01 2.195109e-01 2.104851e-01 1.480501e-01 1.785949e-01 2.256274e-01 2.256005e-01 1.750450e-01 1.252597e-01 8.867172e-02
<GCONST> 1.000760e+02
<TRANSP> 5
 0.000000e+00 1.000000e+00 0.000000e+00 0.000000e+00 0.000000e+00
 0.000000e+00 7.905128e-01 2.094872e-01 0.000000e+00 0.000000e+00
 0.000000e+00 0.000000e+00 7.304158e-01 2.695841e-01 0.000000e+00
 0.000000e+00 0.000000e+00 0.000000e+00 7.307386e-01 2.692613e-01
 0.000000e+00 0.000000e+00 0.000000e+00 0.000000e+00 0.000000e+00
<ENDHMM>
~h "p"
<BEGINHMM>
<NUMSTATES> 5
<STATE> 2
<MEAN> 39
 -2.970310e+00 -5.713140e-01 -3.919055e+00 2.706240e+00 4.302022e+00 1.299212e+00 2.351480e+00 1.790966e+00 6.180495e-01 7.877370e-01 2.573622e+00 -5.678238e-01 -4.650473e+00 -1.961476e-01 -8.344882e-02 -5.304305e-02 2.450215e-01 1.727120e-01 1.407353e-01 5.596525e-02 -6.034917e-02 8.979745e-02 5.711197e-02 8.569725e-02 1.174596e-01 -5.863963e-01 4.223457e-02 -6.934592e-02 3.610360e-02 -6.832118e-02 -7.049790e-02 -3.870276e-02 -4.393458e-02 -1.607531e-02 3.651362e-02 2.804380e-02 -2.258962e-02 -7.014649e-03 1.980011e-01
<VARIANCE> 39
 6.592072e+01 4.205840e+01 2.732990e+01 4.372141e+01 4.509970e+01 4.272591e+01 3.905721e+01 3.221061e+01 4.514388e+01 4.151787e+01 2.960098e+01 2.965146e+01 4.126666e+01 7.891307e-01 5.786445e-01 4.685869e-01 6.405450e-01 6.909884e-01 6.605153e-01 6.950168e-01 6.751301e-01 7.367117e-01 6.040082e-01 5.476803e-01 4.662461e-01 9.352679e-01 8.400171e-02 6.564826e-02 6.533255e-02 7.932298e-02 8.569163e-02 9.669123e-02 9.602170e-02 8.488230e-02 1.215153e-01 8.821297e-02 6.427816e-02 6.325019e-02 8.045255e-02
<GCONST> 8.102800e+01
<STATE> 3
<MEAN> 39
 -6.145342e-01 -2.031267e+00 -4.018755e+00 4.562955e+00 2.193712e+00 1.303425e+00 1.435763e+00 3.494565e-01 1.806377e-01 -5.122880e-01 1.249093e+00 -2.300128e-01 -6.405124e+00 -2.936010e-01 -2.633705e-01 2.863887e-01 -1.628104e-01 -2.877649e-01 -1.437431e-01 1.569687e-01 5.495910e-02 5.492767e-01 4.745723e-01 1.838645e-01 -7.833483e-02 3.274733e-01 1.243642e-01 -6.478010e-02 7.799357e-02 -1.766003e-01 -1.245891e-01 -8.926110e-02 -6.744602e-02 1.307060e-01 1.465963e-01 1.044816e-02 -1.028860e-01 -3.196000e-02 4.716586e-01
<VARIANCE> 39
 4.391456e+01 4.301246e+01 3.843576e+01 3.635994e+01 4.271823e+01 4.346449e+01 4.670180e+01 3.596655e+01 5.781004e+01 4.542337e+01 2.083428e+01 2.437204e+01 4.178279e+01 1.332302e+00 1.003643e+00 1.173789e+00 1.047349e+00 9.975200e-01 1.249334e+00 1.046337e+00 9.417501e-01 1.164245e+00 9.306200e-01 7.580883e-01 7.856129e-01 2.062621e+00 1.449177e-01 1.254671e-01 1.659494e-01 1.336293e-01 1.267548e-01 2.110859e-01 1.519130e-01 1.084738e-01 1.405453e-01 1.422594e-01 1.186218e-01 8.081566e-02 2.391165e-01
<GCONST> 9.470712e+01
<STATE> 4
<MEAN> 39
 -3.489111e+00 -1.067177e+00 -5.152517e-01 2.122948e+00 3.317564e+00 1.948714e+00 2.507425e+00 2.013199e+00 4.243809e+00 3.335139e+00 3.319151e+00 -3.629393e-01 -1.311477e+01 8.467286e-01 -2.214172e-01 -1.199135e-01 -3.709528e-01 -3.754134e-01 -1.212559e-01 -1.414468e-01 8.249775e-02 1.685945e-01 7.973965e-02 -5.154300e-01 -2.235062e-02 1.498765e+00 1.340307e-01 2.027932e-02 -3.670976e-02 -6.740652e-02 -6.354543e-02 1.737454e-03 -8.720749e-02 2.605401e-03 -7.765494e-02 -9.182478e-02 -1.332939e-01 1.314187e-02 2.230387e-01
<VARIANCE> 39
 1.158751e+02 6.050842e+01 5.571084e+01 4.143747e+01 6.781204e+01 4.286651e+01 3.464150e+01 3.465760e+01 4.040100e+01 3.060951e+01 2.694096e+01 1.879190e+01 4.299171e+02 2.697559e+00 2.230716e+00 2.025270e+00 1.937662e+00 2.219682e+00 1.842486e+00 1.033906e+00 8.419411e-01 1.575305e+00 1.182005e+00 1.154896e+00 6.804345e-01 1.101403e+01 2.578244e-01 1.937401e-01 1.607100e-01 1.727263e-01 1.859910e-01 1.646895e-01 9.976827e-02 9.699161e-02 1.383894e-01 1.088315e-01 1.207438e-01 7.874977e-02 8.851351e-01
<GCONST> 1.062866e+02
<TRANSP> 5
 0.000000e+00 1.000000e+00 0.000000e+00 0.000000e+00 0.000000e+00
 0.000000e+00 7.107217e-01 2.892783e-01 0.000000e+00 0.000000e+00
 0.000000e+00 0.000000e+00 5.289706e-01 4.710294e-01 0.000000e+00
 0.000000e+00 0.000000e+00 0.000000e+00 7.079431e-01 2.920569e-01
 0.000000e+00 0.000000e+00 0.000000e+00 0.000000e+00 0.000000e+00
<ENDHMM>
~h "r"
<BEGINHMM>
<NUMSTATES> 5
<STATE> 2
<MEAN> 39
 -3.547916e+00 -8.459530e-01 -1.714073e-01 4.216065e+00 2.473553e+00 1.592150e+00 2.099506e+00 2.100786e+00 1.634046e+00 -4.064775e-02 3.050373e+00 5.034916e-01 -1.051866e+01 -1.457952e-01 8.732044e-03 3.067568e-01 4.861548e-02 1.733011e-02 1.162632e-01 -6.816459e-02 6.458919e-02 1.247319e-01 6.526525e-02 1.684133e-01 2.842504e-02 -5.833151e-01 6.349191e-02 -1.383319e-02 -6.055703e-03 -6.997705e-02 -5.344706e-02 -4.295482e-02 -4.494363e-02 -2.173365e-02 -2.489603e-02 1.715761e-02 -5.102403e-02 -1.171872e-02 8.436117e-02
<VARIANCE> 39
 6.347441e+01 4.094031e+01 4.054156e+01 4.737801e+01 6.351559e+01 4.334313e+01 4.662445e+01 3.764407e+01 5.271741e+01 4.908109e+01 3.730838e+01 2.161505e+01 3.878746e+02 1.148906e+00 7.903269e-01 7.692528e-01 7.906848e-01 1.060990e+00 9.780485e-01 8.438993e-01 1.063097e+00 1.158895e+00 9.191243e-01 7.533931e-01 4.831888e-01 1.731930e+00 1.056107e-01 7.016881e-02 6.424345e-02 8.966085e-02 1.065775e-01 9.135504e-02 9.698443e-02 1.073822e-01 1.290664e-01 9.577352e-02 8.252206e-02 6.142018e-02 1.178440e-01
<GCONST> 9.086511e+01
<STATE> 3
<MEAN> 39
 3.999695e-01 -2.708289e+00 3.086485e+00 1.227254e+00 -2.786178e+00 -1.464316e+00 -2.344135e-01 2.680537e+00 2.584752e+00 -1.862037e-01 8.592819e-01 4.453273e-01 3.800283e+00 3.035705e-01 -2.161036e-01 4.882869e-01 -1.094193e-01 -5.100726e-01 -5.369923e-02 -4.296039e-01 3.753219e-02 -9.911182e-02 7.954434e-02 1.115210e-01 -1.105529e-01 2.485178e-01 1.153872e-01 -5.567548e-03 -1.436164e-01 -1.834331e-01 -7.524107e-02 -5.629587e-02 -3.373297e-02 -2.357507e-02 -3.168621e-02 3.608181e-02 -1.351001e-01 -4.242734e-02 1.854329e-01
<VARIANCE> 39
 2.965147e+01 2.985748e+01 3.868296e+01 3.394838e+01 5.245320e+01 3.991721e+01 4.241125e+01 3.993645e+01 6.188192e+01 3.455586e+01 3.498264e+01 2.502100e+01 1.225382e+02 6.539308e-01 7.636706e-01 1.302147e+00 7.113326e-01 1.199785e+00 1.246267e+00 1.186972e+00 1.572399e+00 1.628798e+00 1.146057e+00 1.112823e+00 6.784937e-01 1.281871e+00 6.834345e-02 8.514993e-02 1.087639e-01 9.471142e-02 1.713609e-01 1.298007e-01 1.405299e-01 1.693154e-01 1.835495e-01 1.233546e-01 1.337394e-01 1.225246e-01 1.114740e-01
<GCONST> 9.346315e+01
<STATE> 4
<MEAN> 39
 6.850885e-01 -2.317326e+00 2.675550e+00 1.094304e+00 -3.297173e+00 -8.866057e-01 -1.262953e-01 3.252994e+00 2.914654e+00 -1.102676e+00 -8.240240e-01 1.924272e-01 3.990119e+00 5.806345e-01 -1.431363e-01 1.715274e-01 -4.168446e-01 -6.540639e-01 -1.932230e-01 -4.820969e-01 -6.112387e-02 7.781714e-02 7.253993e-02 -3.261547e-01 -1.170173e-01 1.290385e+00 1.470790e-02 2.087831e-02 -1.277795e-01 -1.123825e-01 5.116227e-02 -5.006034e-03 1.437484e-02 -6.916189e-02 -6.962270e-02 2.819091e-02 -3.840568e-02 7.321239e-03 3.763931e-02
<VARIANCE> 39
 5.991370e+01 5.201918e+01 5.552290e+01 5.922990e+01 7.082014e+01 5.018567e+01 5.910102e+01 5.393561e+01 7.206139e+01 4.653773e+01 4.821513e+01 2.819459e+01 2.184496e+02 1.679914e+00 1.564791e+00 2.103331e+00 1.633497e+00 2.239598e+00 1.546723e+00 1.891896e+00 1.669893e+00 2.115738e+00 1.593584e+00 1.610534e+00 9.450859e-01 4.975843e+00 1.646993e-01 1.625951e-01 1.740476e-01 1.724597e-01 2.359086e-01 1.746216e-01 1.664850e-01 1.459928e-01 2.031732e-01 1.625104e-01 1.644823e-01 1.183115e-01 3.314681e-01
<GCONST> 1.101286e+02
<TRANSP> 5
 0.000000e+00 1.000000e+00 0.000000e+00 0.000000e+00 0.000000e+00
 0.000000e+00 6.721578e-01 3.278421e-01 0.000000e+00 0.000000e+00
 0.000000e+00 0.000000e+00 3.881953e-01 6.118047e-01 0.000000e+00
 0.000000e+00 0.000000e+00 0.000000e+00 5.601845e-01 4.398156e-01
 0.000000e+00 0.000000e+00 0.000000e+00 0.000000e+00 0.000000e+00
<ENDHMM>
~h "s"
<BEGINHMM>
<NUMSTATES> 5
<STATE> 2
<MEAN> 39
 -1.006282e+01 9.031757e+00 -3.244992e+00 4.136666e+00 -9.690313e-01 -6.563509e+00 4.642045e+00 -6.528584e-01 -4.996669e-01 7.940173e-03 2.108599e+00 -1.147727e-01 6.346076e+00 -2.359890e+00 1.310949e+00 -1.004905e+00 5.728838e-01 1.020583e+00 -1.553684e-01 6.725553e-01 1.087022e-01 -1.668797e-01 1.026306e-01 4.503400e-01 -1.649221e-01 -3.672116e-01 9.434363e-02 -2.625944e-01 1.332568e-01 -2.325934e-01 -6.054736e-02 5.329083e-02 -1.900523e-01 6.286068e-02 1.708040e-03 2.103698e-03 -5.967147e-02 2.807851e-02 3.230771e-02
<VARIANCE> 39
 6.567365e+01 5.077053e+01 7.100556e+01 4.659782e+01 8.082866e+01 6.094807e+01 5.723310e+01 4.688465e+01 5.471919e+01 4.950597e+01 3.813534e+01 3.190266e+01 3.969509e+01 8.387283e-01 9.660774e-01 9.866915e-01 1.749217e+00 1.536231e+00 1.599741e+00 1.470255e+00 1.432391e+00 1.375195e+00 1.155377e+00 1.436774e+00 9.781775e-01 3.107311e-01 1.439387e-01 1.283271e-01 9.703490e-02 1.164699e-01 1.280918e-01 1.342779e-01 1.363010e-01 1.358075e-01 1.186166e-01 9.818792e-02 1.141973e-01 9.407167e-02 2.774854e-02
<GCONST> 9.549652e+01
<STATE> 3
<MEAN> 39
 -1.764545e+01 9.523152e+00 -4.156125e+00 3.776990e+00 2.397173e+00 -4.786222e+00 4.690151e+00 5.976538e-01 -1.334411e+00 5.896111e-01 3.535057e+00 -9.968842e-01 4.384020e+00 -5.630350e-02 -6.835038e-01 3.646443e-01 -2.191102e-01 9.739374e-02 -5.292172e-02 -9.726121e-02 1.878794e-01 8.831847e-03 -1.756862e-01 -8.847516e-03 7.431033e-03 -1.231790e-01 5.701057e-01 -2.114154e-01 1.648703e-01 -7.725096e-02 -1.970686e-01 -2.766178e-02 -1.189797e-01 -6.732700e-02 5.699334e-02 -4.009212e-02 -1.237998e-01 3.837463e-02 5.739062e-02
<VARIANCE> 39
 5.262868e+01 3.635312e+01 4.173656e+01 5.961110e+01 8.242713e+01 5.809320e+01 4.062508e+01 4.466148e+01 3.620908e+01 4.577257e+01 4.000320e+01 3.337578e+01 2.549933e+01 1.497002e+00 6.811516e-01 9.658709e-01 6.575682e-01 8.631388e-01 8.793402e-01 8.782657e-01 1.086326e+00 8.102167e-01 9.266969e-01 8.665665e-01 4.872705e-01 3.639276e-01 1.087335e-01 9.345192e-02 1.016111e-01 1.281577e-01 1.164683e-01 1.165571e-01 1.404008e-01 1.133478e-01 1.293402e-01 1.400648e-01 1.211673e-01 9.210692e-02 4.900557e-02
<GCONST> 8.906963e+01
<STATE> 4
<MEAN> 39
 -1.084006e+01 4.388488e+00 -1.774097e+00 2.189782e+00 1.983167e+00 -7.724830e+00 2.371170e+00 2.567313e+00 -2.310924e-01 -1.259656e+00 1.744133e+00 1.047554e-01 4.746404e+00 2.609348e+00 -6.105672e-01 5.048961e-02 -5.963210e-01 -5.684555e-01 1.520375e-01 -8.068686e-01 -3.352784e-01 1.950317e-01 1.245199e-02 -3.857820e-01 5.504189e-02 3.390013e-01 1.603321e-01 1.900944e-01 -1.410968e-01 -9.837346e-02 -2.369757e-02 1.605557e-01 -5.415615e-02 -1.630784e-01 -1.608137e-02 8.429166e-02 -1.209254e-02 -1.285858e-02 5.390501e-02
<VARIANCE> 39
 9.310467e+01 3.480445e+01 6.036428e+01 4.328336e+01 6.304257e+01 5.999239e+01 6.092799e+01 5.587472e+01 4.823405e+01 5.508183e+01 4.537361e+01 2.346947e+01 3.584922e+01 1.718351e+00 1.543667e+00 2.191896e+00 2.036270e+00 2.110462e+00 1.607805e+00 1.713405e+00 2.020051e+00 1.833825e+00 2.323061e+00 1.849029e+00 1.126451e+00 1.507550e+00 2.301948e-01 1.152335e-01 9.534298e-02 1.244859e-01 1.077123e-01 1.120488e-01 1.911824e-01 1.569117e-01 1.496363e-01 1.775424e-01 1.259637e-01 8.595242e-02 7.666831e-02
<GCONST> 1.032536e+02
<TRANSP> 5
 0.000000e+00 1.000000e+00 0.000000e+00 0.000000e+00 0.000000e+00
 0.000000e+00 7.777089e-01 2.222910e-01 0.000000e+00 0.000000e+00
 0.000000e+00 0.000000e+00 8.130878e-01 1.869122e-01 0.000000e+00
 0.000000e+00 0.000000e+00 0.000000e+00 6.892350e-01 3.107650e-01
 0.000000e+00 0.000000e+00 0.000000e+00 0.000000e+00 0.000000e+00
<ENDHMM>
~h "t"
<BEGINHMM>
<NUMSTATES> 5
<STATE> 2
<MEAN> 39
 1.837498e+00 1.215312e+00 8.288554e-01 3.422205e+00 -2.219874e-01 -1.163483e+00 3.526947e-01 -1.975889e+00 -8.926762e-01 -8.655236e-01 3.567930e-02 2.877194e-01 -2.881710e+00 -5.860624e-01 -5.040795e-01 -5.794919e-01 8.076505e-02 2.703306e-01 1.740684e-01 3.982963e-01 2.751613e-01 3.228731e-01 2.900048e-01 4.134585e-01 -1.270234e-01 -1.791156e-01 -1.653598e-01 -4.739742e-02 8.771864e-02 -2.870333e-01 -1.604191e-01 -1.232242e-01 2.006372e-02 4.047739e-02 4.450508e-02 2.838644e-02 -4.896525e-02 -2.666769e-02 6.150846e-01
<VARIANCE> 39
 2.932146e+01 4.873983e+01 7.301431e+01 3.850742e+01 5.616022e+01 5.529508e+01 4.418724e+01 4.614120e+01 4.613125e+01 3.726354e+01 3.059445e+01 2.452815e+01 3.316457e+01 1.060006e+00 1.012658e+00 1.027688e+00 1.124960e+00 1.073759e+00 1.424062e+00 1.004207e+00 1.063774e+00 1.240890e+00 1.050757e+00 8.160324e-01 7.938007e-01 1.987432e+00 1.476496e-01 1.408983e-01 1.280103e-01 9.037507e-02 1.600625e-01 2.505316e-01 1.880932e-01 1.550593e-01 1.903988e-01 1.416393e-01 1.293384e-01 1.053241e-01 1.420505e-01
<GCONST> 9.639687e+01
<STATE> 3
<MEAN> 39
 -5.455294e+00 -1.934433e+00 -1.236945e+00 1.110736e+00 1.821344e+00 -8.759500e-01 4.515594e+00 7.311274e-01 2.177013e+00 1.356146e+00 3.521311e+00 -4.627312e-01 1.576220e+00 -1.533587e-01 -3.573658e-01 2.426476e-01 -1.053682e+00 -7.406960e-01 -6.723348e-01 -1.516969e-01 2.017046e-01 2.143877e-01 1.648890e-01 -2.250607e-01 -1.714036e-01 2.189799e+00 4.162276e-01 1.111016e-01 1.811998e-01 -1.889675e-01 -2.301099e-01 -1.040893e-01 -3.166363e-01 -5.803213e-02 -1.384119e-01 -9.577060e-02 -2.741033e-01 9.656750e-03 2.556549e-01
<VARIANCE> 39
 3.460621e+01 3.945307e+01 4.076482e+01 3.486589e+01 4.352962e+01 4.670488e+01 3.958372e+01 3.982000e+01 3.991295e+01 5.159678e+01 3.666369e+01 2.976382e+01 6.971346e+01 1.440116e+00 1.758659e+00 2.146015e+00 1.321906e+00 1.756071e+00 2.168574e+00 2.446319e+00 2.623954e+00 2.880674e+00 1.766149e+00 1.452715e+00 8.873236e-01 1.722304e+00 9.549067e-02 1.530718e-01 1.673259e-01 1.285593e-01 1.399883e-01 1.417891e-01 1.562523e-01 2.194792e-01 2.015196e-01 2.008397e-01 1.440111e-01 1.441369e-01 1.762331e-01
<GCONST> 1.034231e+02
<STATE> 4
<MEAN> 39
 -1.196570e+00 -8.743519e-01 6.271067e-01 -3.462225e+00 -3.190212e+00 -5.022541e+00 7.213005e-01 -2.908646e-02 1.768358e+00 -5.538797e-01 -1.177856e+00 -1.174805e+00 9.690189e+00 8.853860e-01 1.273583e-01 1.694270e-01 -1.075829e+00 -7.191159e-01 -3.286502e-01 -7.958788e-01 -4.166418e-02 -1.230322e-01 -4.305740e-02 -6.102225e-01 -1.102308e-01 1.584778e+00 2.448975e-01 1.298634e-01 -3.578327e-03 1.120622e-01 8.305579e-02 2.583368e-01 -1.008997e-01 -7.658577e-02 -1.154545e-01 -3.123876e-02 -4.963809e-02 8.492167e-02 -4.015532e-01
<VARIANCE> 39
 3.391759e+01 4.447099e+01 4.671198e+01 4.254988e+01 4.587539e+01 5.689972e+01 6.764186e+01 4.886086e+01 4.601498e+01 5.123765e+01 3.653031e+01 2.284697e+01 4.407176e+01 1.903302e+00 2.351530e+00 2.739373e+00 2.002415e+00 1.848475e+00 1.598753e+00 2.511775e+00 3.269473e+00 2.811936e+00 2.062182e+00 1.706166e+00 1.176876e+00 2.142433e+00 9.386341e-02 1.518571e-01 1.480329e-01 1.379373e-01 1.506476e-01 1.941449e-01 2.599399e-01 1.800962e-01 1.616714e-01 1.724551e-01 1.284426e-01 1.196823e-01 1.834873e-01
<GCONST> 1.062598e+02
<TRANSP> 5
 0.000000e+00 1.000000e+00 0.000000e+00 0.000000e+00 0.000000e+00
 0.000000e+00 7.339743e-01 2.660257e-01 0.000000e+00 0.000000e+00
 0.000000e+00 0.000000e+00 6.147581e-01 3.852419e-01 0.000000e+00
 0.000000e+00 0.000000e+00 0.000000e+00 4.205817e-01 5.794183e-01
 0.000000e+00 0.000000e+00 0.000000e+00 0.000000e+00 0.000000e+00
<ENDHMM>
~h "u"
<BEGINHMM>
<NUMSTATES> 5
<STATE> 2
<MEAN> 39
 6.648661e+00 2.374875e+00 -3.884061e+00 -3.012705e+00 1.022419e+00 -2.670710e+00 -9.509313e+00 -4.763072e+00 1.489441e-01 4.343752e+00 1.996076e+00 -5.684684e-02 5.934878e+00 5.173076e-01 6.345157e-01 -5.589477e-01 -5.517619e-01 2.927088e-01 6.133497e-01 -9.661172e-02 -6.028310e-01 -5.920253e-01 1.223554e-01 3.291320e-01 1.214464e-01 -4.217036e-01 -1.642844e-01 -2.898476e-02 1.633702e-01 1.577649e-01 -9.505110e-03 3.219408e-02 4.097937e-01 1.562450e-01 -6.406701e-02 -2.365219e-01 -5.087418e-02 3.958925e-02 -2.052638e-01
<VARIANCE> 39
 2.042582e+01 2.331341e+01 4.059992e+01 3.577573e+01 3.730842e+01 5.344638e+01 4.783354e+01 3.565258e+01 4.987435e+01 4.384946e+01 4.187675e+01 2.953196e+01 3.196272e+01 7.086497e-01 6.059720e-01 1.100640e+00 1.182117e+00 1.110341e+00 1.020802e+00 1.763336e+00 1.004130e+00 1.362583e+00 1.274474e+00 9.903204e-01 7.660620e-01 6.271278e-01 7.561873e-02 8.552022e-02 1.195736e-01 1.279129e-01 1.504802e-01 1.703793e-01 1.778255e-01 1.203408e-01 1.778316e-01 1.386772e-01 1.510320e-01 1.074724e-01 6.683388e-02
<GCONST> 9.110394e+01
<STATE> 3
<MEAN> 39
 7.954178e+00 5.393559e+00 -5.452177e+00 -3.674227e+00 1.318194e+00 -1.635651e-01 -3.403898e+00 -3.576614e+00 -3.277155e+00 -4.326618e-01 2.379220e+00 9.817332e-01 -5.249498e-01 -3.166051e-01 9.599875e-02 3.093404e-01 4.118375e-01 8.870531e-02 6.191833e-02 5.551968e-01 2.072715e-01 -4.632084e-02 -3.295512e-01 4.209239e-02 1.531239e-02 -9.950203e-01 -1.144341e-01 -1.098745e-01 7.124516e-02 1.245373e-01 1.270663e-02 -6.018810e-02 -9.387931e-03 6.501445e-02 9.225608e-02 2.599702e-02 -2.614646e-02 -3.523390e-02 5.470381e-03
<VARIANCE> 39
 3.140832e+01 3.221283e+01 4.625924e+01 5.263137e+01 3.683331e+01 4.882573e+01 4.891169e+01 3.847295e+01 4.726027e+01 5.246092e+01 4.562338e+01 3.165217e+01 6.538362e+01 6.848959e-01 7.146144e-01 7.109194e-01 1.033080e+00 9.678113e-01 1.011600e+00 9.023675e-01 7.366778e-01 9.372391e-01 8.830940e-01 6.888002e-01 6.045567e-01 5.620855e-01 4.253405e-02 5.358641e-02 6.870872e-02 8.584922e-02 8.566231e-02 1.070641e-01 1.072139e-01 9.653831e-02 1.179472e-01 9.604482e-02 8.228154e-02 7.549903e-02 3.946949e-02
<GCONST> 8.433282e+01
<STATE> 4
<MEAN> 39
 4.060964e-01 2.839559e+00 -2.262110e+00 5.905290e-01 2.507741e+00 -4.020581e-01 -8.738000e-01 -3.389273e+00 -3.313725e+00 -1.840102e+00 3.189071e-01 1.899812e+00 -4.018531e+00 -3.760368e-01 -1.111467e-01 5.121690e-02 2.860404e-01 1.545868e-01 3.541466e-02 1.872389e-01 1.275050e-01 2.544726e-02 -1.188867e-01 -5.140295e-02 2.845114e-02 -3.613509e-01 7.128784e-03 -3.145443e-02 5.112225e-03 -3.318125e-02 -1.545219e-02 -4.972627e-03 -3.718505e-02 1.858932e-03 2.390112e-02 3.769226e-02 1.503813e-02 -2.098985e-02 5.841795e-02
<VARIANCE> 39
 2.661685e+01 1.890968e+01 1.983046e+01 2.025115e+01 2.197228e+01 2.713891e+01 2.603602e+01 2.172713e+01 3.710817e+01 3.041462e+01 2.240050e+01 1.817994e+01 3.221227e+01 2.356678e-01 2.518614e-01 3.224889e-01 4.324725e-01 3.880545e-01 4.977306e-01 5.363917e-01 4.180185e-01 4.957160e-01 5.319271e-01 4.174455e-01 3.514005e-01 1.990549e-01 1.832181e-02 2.451347e-02 3.221492e-02 4.429233e-02 4.452856e-02 5.810767e-02 5.873175e-02 5.194329e-02 6.003384e-02 6.457918e-02 5.463402e-02 4.651267e-02 1.518133e-02
<GCONST> 5.860756e+01
<TRANSP> 5
 0.000000e+00 1.000000e+00 0.000000e+00 0.000000e+00 0.000000e+00
 0.000000e+00 7.077558e-01 2.922442e-01 0.000000e+00 0.000000e+00
 0.000000e+00 0.000000e+00 7.213416e-01 2.786585e-01 0.000000e+00
 0.000000e+00 0.000000e+00 0.000000e+00 8.471318e-01 1.528682e-01
 0.000000e+00 0.000000e+00 0.000000e+00 0.000000e+00 0.000000e+00
<ENDHMM>
~h "w"
<BEGINHMM>
<NUMSTATES> 5
<STATE> 2
<MEAN> 39
 8.673497e+00 -1.979198e-01 -7.015164e+00 -3.524522e+00 2.235001e+00 1.444962e+00 -1.534614e+00 -2.442772e+00 -3.984844e-01 1.151003e+00 1.752752e+00 -7.793745e-01 4.596102e+00 5.319028e-01 -2.013644e-02 -4.010622e-01 -2.811589e-01 7.022359e-02 3.089373e-01 -1.382595e-01 -1.733440e-01 2.481247e-01 4.601577e-01 2.052757e-01 -1.469137e-01 -7.369912e-02 -1.305179e-01 -1.515035e-01 -5.496299e-02 -1.108045e-01 2.979070e-02 -3.587830e-02 -1.061916e-01 1.864664e-01 2.535632e-01 3.791147e-02 -2.667959e-01 -7.543454e-02 3.127062e-01
<VARIANCE> 39
 3.751171e+01 6.242949e+01 4.197969e+01 5.234356e+01 3.334487e+01 5.300326e+01 4.386202e+01 3.543264e+01 4.354573e+01 3.576908e+01 3.923265e+01 3.275832e+01 2.511970e+01 7.785260e-01 7.676861e-01 9.112737e-01 1.200895e+00 1.038768e+00 1.178362e+00 1.242489e+00 8.970924e-01 1.227361e+00 1.028437e+00 1.083873e+00 7.707926e-01 9.966387e-01 8.911250e-02 9.428521e-02 1.038540e-01 1.880173e-01 1.597294e-01 1.568153e-01 1.824304e-01 1.378670e-01 1.531899e-01 1.574058e-01 1.469001e-01 1.112629e-01 7.742142e-02
<GCONST> 9.314349e+01
<STATE> 3
<MEAN> 39
 9.269297e+00 -1.867625e+00 -1.083923e+01 -6.109587e+00 4.469559e+00 3.884113e+00 -4.997711e+00 -2.756653e-01 3.207213e+00 4.739865e+00 -1.307792e+00 -4.919468e+00 6.131377e+00 -7.985285e-03 -3.497959e-01 -1.729385e-01 -1.034938e-01 1.088054e-01 -2.482845e-01 -7.386170e-02 4.464718e-01 5.839067e-01 -1.464648e-01 -7.424353e-01 -1.111892e-01 5.077987e-01 -2.190399e-01 -9.856805e-02 2.811082e-01 1.073762e-01 -1.492440e-01 -1.856870e-01 1.776109e-01 1.536127e-01 -6.481189e-02 -2.929145e-01 -1.028120e-01 1.881433e-01 1.135969e-01
<VARIANCE> 39
 3.414130e+01 4.609548e+01 5.546814e+01 4.836048e+01 3.261828e+01 7.165320e+01 4.555749e+01 4.056622e+01 4.548469e+01 3.643277e+01 5.313783e+01 3.554226e+01 3.627804e+01 8.592032e-01 1.596262e+00 1.152824e+00 1.313336e+00 1.339653e+00 1.675451e+00 1.668863e+00 1.146533e+00 1.835941e+00 1.306453e+00 1.783579e+00 9.871652e-01 9.310802e-01 6.626030e-02 1.183098e-01 7.990718e-02 1.739372e-01 1.426735e-01 1.329416e-01 1.570107e-01 1.136785e-01 1.116410e-01 1.375590e-01 1.556175e-01 1.142356e-01 1.013916e-01
<GCONST> 9.670626e+01
<STATE> 4
<MEAN> 39
 8.508250e+00 1.263829e+00 -7.829915e+00 -8.553214e+00 4.778134e-01 2.780285e+00 -3.073903e+00 -1.158055e+00 2.950148e+00 2.856581e+00 3.383833e-01 -1.584063e+00 6.497731e+00 -2.232924e-01 -2.271462e-01 4.800104e-01 1.972576e-01 -2.955110e-01 -5.973535e-01 -1.152028e-01 4.010995e-01 1.444102e-01 -6.630209e-02 -4.002155e-01 4.801618e-02 2.479926e-01 -1.011624e-01 -3.123552e-02 1.589381e-01 1.421633e-01 -3.519105e-02 -4.228371e-02 8.090578e-02 5.979916e-02 -4.962781e-02 -2.701853e-02 -2.006625e-02 6.519677e-03 3.360363e-03
<VARIANCE> 39
 3.030873e+01 4.656675e+01 5.096402e+01 5.489877e+01 4.568945e+01 5.570932e+01 4.219414e+01 3.125624e+01 4.203638e+01 5.284350e+01 5.080917e+01 2.884785e+01 2.929643e+01 6.368091e-01 7.496092e-01 8.369355e-01 1.256022e+00 1.246419e+00 1.138028e+00 1.298523e+00 1.307247e+00 1.406711e+00 1.327375e+00 1.066095e+00 1.011877e+00 9.826066e-01 6.304169e-02 6.895824e-02 7.321454e-02 1.388528e-01 1.481485e-01 1.354501e-01 1.481159e-01 1.135712e-01 1.416103e-01 1.367154e-01 1.307396e-01 9.761604e-02 8.488531e-02
<GCONST> 9.234509e+01
<TRANSP> 5
 0.000000e+00 1.000000e+00 0.000000e+00 0.000000e+00 0.000000e+00
 0.000000e+00 5.873392e-01 4.126607e-01 0.000000e+00 0.000000e+00
 0.000000e+00 0.000000e+00 5.118250e-01 4.881750e-01 0.000000e+00
 0.000000e+00 0.000000e+00 0.000000e+00 5.742247e-01 4.257753e-01
 0.000000e+00 0.000000e+00 0.000000e+00 0.000000e+00 0.000000e+00
<ENDHMM>
~h "y"
<BEGINHMM>
<NUMSTATES> 5
<STATE> 2
<MEAN> 39
 -2.337313e+00 5.770344e+00 1.169760e+01 -6.701341e+00 -4.378443e+00 4.723878e-01 -4.800452e+00 -4.222869e+00 -2.449816e+00 -1.062237e+00 -1.018554e+00 7.303211e-02 6.599495e+00 1.340151e-01 1.009811e-01 7.179649e-01 -5.099882e-01 -7.501292e-01 1.020492e-01 -5.104006e-02 -6.816442e-02 3.578020e-02 3.620568e-01 1.911504e-01 -8.783218e-02 4.788414e-01 1.011349e-01 -2.302987e-01 -2.232830e-01 9.147908e-02 -1.144291e-01 -8.052231e-02 2.001328e-01 1.446819e-01 2.616864e-02 8.241192e-02 1.076204e-02 -3.232456e-02 6.027520e-02
<VARIANCE> 39
 2.856936e+01 5.935308e+01 6.258135e+01 7.862147e+01 4.512862e+01 3.622400e+01 5.147489e+01 4.213040e+01 5.900696e+01 3.578492e+01 5.847111e+01 3.041349e+01 7.043602e+01 6.784674e-01 1.109027e+00 1.820461e+00 1.099061e+00 1.315008e+00 1.203607e+00 1.180756e+00 1.259803e+00 1.204961e+00 8.785519e-01 9.520726e-01 6.224378e-01 1.075158e+00 6.392934e-02 1.165431e-01 1.978956e-01 1.068189e-01 1.320178e-01 1.345734e-01 1.438970e-01 1.510718e-01 1.388993e-01 1.087319e-01 1.282197e-01 9.208027e-02 6.581470e-02
<GCONST> 9.499205e+01
<STATE> 3
<MEAN> 39
 -1.282268e+00 3.101150e+00 1.223318e+01 -1.065033e+01 -1.186179e+01 4.468208e-01 1.449060e-01 -5.561891e+00 -1.773606e+00 4.035874e+00 3.562962e-01 -1.344737e+00 1.182850e+01 5.552432e-01 -1.205565e+00 -1.055045e+00 3.572387e-01 -6.408271e-01 -5.912318e-01 1.049283e+00 1.111385e+00 -1.135252e-01 1.029261e-01 1.649638e-01 -1.557721e-01 5.651737e-01 6.208944e-02 -1.112511e-01 -3.120879e-01 2.995415e-01 3.975083e-01 -1.585775e-01 -8.249359e-02 2.975024e-01 2.084165e-02 -2.482753e-01 -9.850296e-02 6.530915e-02 -1.196388e-01
<VARIANCE> 39
 2.834639e+01 3.689118e+01 6.038516e+01 7.762518e+01 4.415817e+01 4.879277e+01 5.478403e+01 5.959641e+01 6.947610e+01 3.452642e+01 6.864906e+01 3.206229e+01 3.891199e+01 4.950346e-01 1.165331e+00 1.112973e+00 1.372465e+00 1.097821e+00 1.590015e+00 1.719554e+00 1.381554e+00 1.951262e+00 1.225209e+00 1.007466e+00 1.077593e+00 6.825477e-01 4.926155e-02 1.003230e-01 1.471195e-01 1.358944e-01 1.761713e-01 1.442690e-01 1.833782e-01 1.485421e-01 1.623263e-01 1.240473e-01 1.455848e-01 1.059969e-01 6.202641e-02
<GCONST> 9.650248e+01
<STATE> 4
<MEAN> 39
 1.482393e+00 -3.111479e+00 5.976038e+00 -5.087079e+00 -9.693945e+00 -5.309150e+00 1.956349e+00 3.764732e+00 -3.141987e+00 4.594997e-01 2.543165e-01 -2.635413e-01 1.256530e+01 6.758365e-01 -8.393513e-01 -1.791627e+00 9.180816e-01 1.150260e+00 -6.102310e-01 -2.869260e-01 1.163096e+00 5.094545e-01 -4.993944e-01 -4.349787e-01 1.429845e-01 -5.237366e-02 -3.014218e-02 2.491823e-01 4.219024e-02 1.041574e-02 3.118009e-01 2.477611e-01 -2.558589e-01 -3.570454e-01 6.894827e-02 3.344848e-02 -7.378469e-02 -3.087791e-02 -2.430067e-01
<VARIANCE> 39
 2.846381e+01 3.445590e+01 4.945359e+01 4.899566e+01 4.463603e+01 5.657491e+01 7.015429e+01 6.804435e+01 5.861179e+01 3.643718e+01 4.315300e+01 2.912693e+01 4.282672e+01 3.904626e-01 9.462380e-01 1.416083e+00 1.415980e+00 1.249025e+00 1.352684e+00 1.927188e+00 1.743278e+00 1.986773e+00 1.559031e+00 1.508480e+00 9.031894e-01 5.679011e-01 3.532238e-02 7.820357e-02 1.204811e-01 1.256952e-01 1.622629e-01 1.909905e-01 1.913407e-01 1.667442e-01 1.553383e-01 1.345762e-01 1.262303e-01 1.089027e-01 4.186655e-02
<GCONST> 9.520482e+01
<TRANSP> 5
 0.000000e+00 1.000000e+00 0.000000e+00 0.000000e+00 0.000000e+00
 0.000000e+00 7.316772e-01 2.683228e-01 0.000000e+00 0.000000e+00
 0.000000e+00 0.000000e+00 6.678964e-01 3.321036e-01 0.000000e+00
 0.000000e+00 0.000000e+00 0.000000e+00 6.379999e-01 3.620001e-01
 0.000000e+00 0.000000e+00 0.000000e+00 0.000000e+00 0.000000e+00
<ENDHMM>
~h "aa"
<BEGINHMM>
<NUMSTATES> 5
<STATE> 2
<MEAN> 39
 4.563889e+00 -8.354677e+00 -7.041533e+00 -3.487297e+00 1.363948e+00 2.863761e+00 -4.536617e-01 4.132218e+00 4.210007e+00 -1.304062e+00 -6.150816e+00 -2.008565e+00 1.234481e+01 1.483989e-01 -1.035382e+00 -9.345577e-01 -4.673689e-01 7.551563e-01 8.010074e-01 2.745845e-02 1.375941e-01 -2.627829e-02 -4.625029e-01 -6.386549e-01 -6.510657e-02 1.050341e+00 -1.041863e-01 1.800853e-01 1.351051e-01 2.105097e-01 1.134739e-01 -7.924705e-02 -3.074951e-02 -1.615795e-01 -9.427433e-02 3.584582e-02 1.720678e-01 2.287061e-02 -2.398393e-01
<VARIANCE> 39
 2.338320e+01 3.661645e+01 4.679376e+01 5.382398e+01 6.618878e+01 6.284576e+01 5.272570e+01 5.524590e+01 9.856002e+01 6.298120e+01 4.505951e+01 3.264165e+01 4.145078e+01 7.340222e-01 1.034417e+00 1.268806e+00 1.283829e+00 1.418643e+00 1.535440e+00 1.356723e+00 1.394747e+00 1.368947e+00 1.301185e+00 1.275969e+00 8.749798e-01 1.097294e+00 6.578466e-02 9.207218e-02 1.135552e-01 1.229676e-01 1.584261e-01 1.768600e-01 1.356355e-01 1.725390e-01 1.525330e-01 1.540697e-01 1.266630e-01 8.604677e-02 8.278356e-02
<GCONST> 9.726305e+01
<STATE> 3
<MEAN> 39
 3.403224e+00 -9.860226e+00 -9.027572e+00 -2.166636e+00 6.904117e+00 3.893597e+00 -1.292603e+00 1.795165e+00 3.030428e-01 -3.889406e+00 -5.937316e+00 -1.865206e+00 1.302328e+01 -9.470958e-02 -1.936125e-02 9.554928e-02 1.391821e-01 6.769815e-02 -1.241567e-01 1.049327e-02 5.109059e-02 -7.618922e-02 -1.885426e-01 -4.781236e-02 8.901697e-02 -3.267843e-02 5.361966e-03 1.393582e-01 1.395607e-01 -1.293336e-02 -2.289469e-01 -1.332287e-01 6.867303e-02 3.927253e-02 7.180239e-03 2.909519e-02 4.067792e-02 3.310785e-02 -8.204907e-02
<VARIANCE> 39
 1.503317e+01 2.505188e+01 2.968106e+01 4.005052e+01 3.502537e+01 3.438366e+01 4.491840e+01 3.436692e+01 5.030260e+01 5.062922e+01 3.296222e+01 3.190318e+01 3.642894e+01 1.652792e-01 3.053326e-01 4.626366e-01 4.970671e-01 1.044857e+00 7.356476e-01 8.012917e-01 7.340578e-01 6.402559e-01 6.141193e-01 5.647183e-01 4.905041e-01 1.201501e-01 1.530286e-02 3.042958e-02 3.830609e-02 5.384317e-02 6.109966e-02 6.358337e-02 7.603551e-02 7.616326e-02 7.535916e-02 6.534376e-02 6.697740e-02 5.600053e-02 1.442223e-02
<GCONST> 6.823802e+01
<STATE> 4
<MEAN> 39
 3.300182e+00 -7.358586e+00 -6.503818e+00 -1.263301e+00 2.381915e+00 5.720109e-01 1.374731e+00 3.387811e+00 1.370500e+00 -4.283605e+00 -5.994778e+00 -5.309944e-01 9.574878e+00 2.145001e-02 6.083771e-01 7.124084e-01 3.673845e-01 -5.348799e-01 -3.220911e-01 1.893916e-01 -2.431241e-01 -2.444191e-01 6.926218e-02 4.632266e-01 1.443763e-01 -9.181686e-01 1.500295e-02 3.706153e-02 2.620598e-02 3.930857e-02 1.009096e-01 8.281054e-02 -7.545176e-02 -1.143898e-01 -2.679211e-02 9.076863e-02 8.465968e-02 -5.229162e-02 -1.071664e-01
<VARIANCE> 39
 2.103472e+01 3.084636e+01 3.871875e+01 4.133117e+01 4.349483e+01 4.385093e+01 4.423613e+01 5.068485e+01 6.341203e+01 5.507774e+01 3.420667e+01 3.155602e+01 6.982801e+01 6.057764e-01 6.101714e-01 7.642038e-01 7.496772e-01 1.151904e+00 1.143334e+00 1.082652e+00 1.012238e+00 1.103673e+00 1.014351e+00 8.172309e-01 6.686130e-01 5.203385e-01 5.985243e-02 7.370143e-02 6.401414e-02 9.630135e-02 1.163294e-01 1.272033e-01 1.268341e-01 1.289276e-01 1.114364e-01 1.028966e-01 9.199098e-02 6.925901e-02 6.395796e-02
<GCONST> 8.674443e+01
<TRANSP> 5
 0.000000e+00 1.000000e+00 0.000000e+00 0.000000e+00 0.000000e+00
 0.000000e+00 7.465596e-01 2.534404e-01 0.000000e+00 0.000000e+00
 0.000000e+00 0.000000e+00 8.566878e-01 1.433122e-01 0.000000e+00
 0.000000e+00 0.000000e+00 0.000000e+00 8.071662e-01 1.928337e-01
 0.000000e+00 0.000000e+00 0.000000e+00 0.000000e+00 0.000000e+00
<ENDHMM>
~h "ai"
<BEGINHMM>
<NUMSTATES> 5
<STATE> 2
<MEAN> 39
 -6.663701e+00 9.263507e-02 3.555896e+00 2.902188e+00 3.670883e+00 2.963782e+00 1.055416e+00 5.751277e+00 3.218690e+00 3.082203e+00 3.639624e+00 -3.858556e-01 -2.570030e+01 2.945901e-01 7.467002e-03 1.483883e-01 -1.562523e-01 -2.996117e-01 1.667234e-01 1.484849e-01 -5.289177e-02 -2.685383e-02 1.265995e-01 -1.845587e-01 6.073536e-02 1.351138e-01 1.450948e-01 8.445904e-03 2.713610e-02 3.077551e-02 -4.883172e-02 -4.241849e-02 3.157943e-02 -1.724598e-01 -1.156430e-01 -5.176871e-02 -9.044299e-02 -9.554759e-03 3.689206e-01
<VARIANCE> 39
 1.014183e+02 4.174426e+01 2.091022e+01 2.928049e+01 6.189360e+01 3.910047e+01 2.902553e+01 3.606881e+01 4.529995e+01 3.925485e+01 3.272133e+01 1.182373e+01 6.446496e+02 2.726972e+00 1.150085e+00 1.085510e+00 1.115555e+00 1.278043e+00 1.292808e+00 1.067921e+00 1.569936e+00 1.157663e+00 8.244116e-01 9.962718e-01 5.210515e-01 1.047601e+01 2.651339e-01 9.215359e-02 5.704816e-02 1.046110e-01 8.206077e-02 1.026708e-01 1.206680e-01 1.843212e-01 1.142946e-01 7.574200e-02 1.331239e-01 4.428137e-02 8.959747e-01
<GCONST> 9.769224e+01
<STATE> 3
<MEAN> 39
 4.880527e+00 -7.973950e+00 2.196022e+00 -1.173090e+00 -8.261157e+00 -7.600008e-01 1.097368e+00 6.269563e+00 1.635414e+00 -1.596477e+00 -4.851030e+00 -3.634822e-01 1.450567e+01 -2.489617e-01 -1.067041e-01 6.125199e-01 -9.042363e-01 -1.055769e+00 -4.234030e-01 4.889314e-01 -3.790965e-01 -9.007750e-01 2.975134e-01 1.244631e-02 -1.077403e-02 1.256616e+00 -1.939903e-01 3.200313e-01 2.114089e-01 -1.184302e-01 1.525099e-01 3.461655e-03 -1.071136e-01 -2.601647e-01 3.619586e-02 1.322289e-01 1.838139e-01 -2.815588e-02 -2.961627e-01
<VARIANCE> 39
 2.876768e+01 4.180514e+01 7.189349e+01 5.667791e+01 7.255095e+01 5.982135e+01 5.769165e+01 1.023739e+02 6.784388e+01 5.336095e+01 3.214143e+01 2.409553e+01 6.353489e+01 1.297041e+00 1.727465e+00 2.265178e+00 1.763326e+00 1.378452e+00 1.351169e+00 1.952834e+00 3.047450e+00 2.290783e+00 1.509206e+00 1.697730e+00 5.694537e-01 4.235870e+00 8.957003e-02 1.357571e-01 1.635991e-01 1.961008e-01 1.211741e-01 1.477733e-01 2.351934e-01 3.975350e-01 2.083319e-01 1.620698e-01 1.126697e-01 6.832889e-02 1.619595e-01
<GCONST> 1.060699e+02
<STATE> 4
<MEAN> 39
 -6.191939e-03 7.733648e-01 1.140279e+01 -6.858314e+00 -1.074393e+01 -3.650672e+00 -3.670528e-01 -2.820038e+00 -2.098926e+00 2.370923e+00 -1.105202e+00 4.430971e-01 1.116327e+01 -1.169808e-01 7.462239e-01 1.004996e-01 3.180243e-01 3.558663e-01 1.552986e-02 -2.393411e-01 -6.093698e-01 -1.418624e-01 1.325012e-02 1.811392e-01 1.478179e-01 -8.067554e-01 6.143827e-02 -1.153785e-01 -2.081681e-01 1.551483e-01 1.152648e-01 6.233170e-02 3.149371e-02 1.668146e-01 5.507593e-02 -7.859884e-02 -3.199469e-02 9.918094e-03 -7.843530e-02
<VARIANCE> 39
 2.857210e+01 2.956008e+01 5.048862e+01 6.593456e+01 4.607381e+01 2.866109e+01 5.884578e+01 6.308038e+01 5.418210e+01 3.879266e+01 5.738835e+01 4.207510e+01 5.047786e+01 3.623934e-01 6.352132e-01 1.383748e+00 1.190428e+00 9.350674e-01 8.401160e-01 1.263456e+00 1.668322e+00 1.355004e+00 8.585093e-01 8.454001e-01 8.741562e-01 4.347642e-01 3.463625e-02 3.739945e-02 8.392975e-02 9.372088e-02 9.980355e-02 9.376016e-02 1.529246e-01 1.354232e-01 1.365926e-01 1.069349e-01 1.047137e-01 9.938689e-02 3.719227e-02
<GCONST> 8.771735e+01
<TRANSP> 5
 0.000000e+00 1.000000e+00 0.000000e+00 0.000000e+00 0.000000e+00
 0.000000e+00 6.818758e-01 3.181242e-01 0.000000e+00 0.000000e+00
 0.000000e+00 0.000000e+00 8.180271e-01 1.819729e-01 0.000000e+00
 0.000000e+00 0.000000e+00 0.000000e+00 9.177617e-01 8.223835e-02
 0.000000e+00 0.000000e+00 0.000000e+00 0.000000e+00 0.000000e+00
<ENDHMM>
~h "bb"
<BEGINHMM>
<NUMSTATES> 5
<STATE> 2
<MEAN> 39
 1.036040e+01 6.350281e+00 -1.060586e+01 -1.406601e+01 -1.578614e+00 4.529993e-01 -2.801605e+00 -2.626858e+00 -2.970725e+00 1.845082e+00 2.811704e+00 7.032256e-01 2.218700e+00 1.684317e-02 5.730104e-01 3.063774e-01 3.855050e-01 3.444522e-02 3.620102e-01 2.777982e-01 -2.814202e-01 -3.997677e-01 -2.884229e-01 3.952628e-02 -8.197791e-02 -7.094817e-01 -5.873204e-02 -2.166739e-02 1.334605e-01 2.934365e-01 6.650491e-02 1.475468e-03 2.047187e-02 1.340582e-02 4.647177e-02 -6.612992e-02 -4.023091e-02 -9.315772e-02 -1.202437e-01
<VARIANCE> 39
 1.366424e+01 2.460733e+01 2.540991e+01 2.535014e+01 2.950858e+01 1.938895e+01 1.660304e+01 2.321356e+01 3.366531e+01 4.747495e+01 2.112551e+01 2.305715e+01 2.596589e+01 1.963931e-01 1.460917e-01 4.858169e-01 1.633078e+00 3.549265e-01 6.388426e-01 4.015565e-01 4.677892e-01 6.199638e-01 5.989308e-01 6.223136e-01 5.127534e-01 5.540387e-01 2.679565e-02 2.708975e-02 6.070430e-02 1.529930e-01 6.088816e-02 5.029777e-02 5.196348e-02 6.717611e-02 6.789486e-02 6.868272e-02 6.026699e-02 5.818331e-02 7.009139e-02
<GCONST> 6.639384e+01
<STATE> 3
<MEAN> 39
 9.377784e+00 3.964600e+00 -6.149439e+00 3.517076e-01 3.075444e+00 4.183414e+00 -1.586140e+00 -3.418059e+00 -1.732411e+00 3.308727e-01 8.185648e-01 -2.949042e+00 -1.585668e+00 -1.529316e-01 2.704629e-01 5.499588e-01 1.592800e+00 5.304255e-01 1.976286e-01 8.151393e-01 3.626221e-02 2.062311e-01 -3.282362e-01 2.137351e-01 -2.561756e-01 -1.015353e+00 -1.527295e-01 -8.763646e-02 -3.176784e-02 -2.171634e-01 -3.906655e-02 -5.692318e-02 -7.525518e-02 9.196528e-02 8.285667e-02 6.968105e-02 -4.384780e-02 7.333110e-02 1.593357e-01
<VARIANCE> 39
 1.588368e+01 7.063747e+01 1.985467e+01 6.642032e+01 3.144020e+01 4.716457e+01 4.555708e+01 2.544352e+01 4.437204e+01 3.085048e+01 2.833602e+01 3.096125e+01 3.008229e+01 4.409714e-01 3.975719e-01 5.358915e-01 7.933040e-01 7.125775e-01 1.073467e+00 6.641335e-01 7.070110e-01 8.734906e-01 4.690426e-01 5.139453e-01 6.392267e-01 2.797103e-01 2.938113e-02 4.956573e-02 4.526486e-02 1.032643e-01 3.440665e-02 9.060192e-02 8.607633e-02 6.719085e-02 9.127751e-02 6.227024e-02 5.673249e-02 7.720608e-02 3.467283e-02
<GCONST> 7.396059e+01
<STATE> 4
<MEAN> 39
 3.323148e+00 2.425347e+00 -3.266934e+00 -1.050845e+00 3.170436e+00 4.099823e+00 1.512052e+00 -1.850378e+00 -2.066791e+00 -9.310656e-01 1.225928e+00 -7.208625e-01 -1.693701e+00 -3.168219e-01 -2.674470e-01 6.814379e-02 5.989917e-02 3.955054e-02 -1.059415e-01 -2.038450e-02 9.141368e-02 1.274198e-01 2.191646e-01 8.324230e-02 4.527747e-02 1.099003e-01 3.552746e-02 -1.321121e-01 -6.463249e-02 -2.044796e-01 -1.025715e-01 -5.405503e-02 -1.172358e-01 1.344953e-02 7.541519e-02 1.348391e-01 -3.940284e-02 -5.342045e-02 2.425856e-01
<VARIANCE> 39
 1.845337e+01 4.238216e+01 1.564485e+01 4.204583e+01 2.856290e+01 3.215053e+01 2.425599e+01 1.732857e+01 3.581247e+01 2.012342e+01 2.683767e+01 2.186624e+01 1.378222e+01 2.977274e-01 5.515648e-01 4.035039e-01 9.552389e-01 5.998928e-01 7.535396e-01 4.918247e-01 4.699933e-01 4.426521e-01 3.608055e-01 4.305865e-01 3.881801e-01 5.083496e-01 4.225113e-02 8.370408e-02 6.485143e-02 1.137713e-01 9.167480e-02 8.718174e-02 6.839393e-02 6.181806e-02 8.317867e-02 9.106939e-02 1.025205e-01 5.251475e-02 9.295999e-02
<GCONST> 7.061956e+01
<TRANSP> 5
 0.000000e+00 1.000000e+00 0.000000e+00 0.000000e+00 0.000000e+00
 0.000000e+00 8.319215e-01 1.680785e-01 0.000000e+00 0.000000e+00
 0.000000e+00 0.000000e+00 7.392483e-01 2.607517e-01 0.000000e+00
 0.000000e+00 0.000000e+00 0.000000e+00 8.748940e-01 1.251060e-01
 0.000000e+00 0.000000e+00 0.000000e+00 0.000000e+00 0.000000e+00
<ENDHMM>
~h "bh"
<BEGINHMM>
<NUMSTATES> 5
<STATE> 2
<MEAN> 39
 -8.820506e+00 -4.696887e+00 -2.536392e+00 2.919474e+00 5.364974e+00 4.453901e+00 3.911507e+00 6.532459e+00 4.885411e+00 3.121337e+00 2.857698e+00 1.950818e+00 -1.820344e+01 1.098390e-02 -1.963956e-01 -3.065872e-01 5.460782e-02 9.512927e-02 -2.251895e-01 3.206748e-01 2.762920e-02 2.098413e-01 -1.269699e-01 -1.975938e-01 8.117125e-02 9.733710e-01 1.141034e-01 -1.051956e-02 1.833759e-02 -1.061659e-01 -1.387721e-01 -1.584398e-01 -3.542636e-02 -1.023456e-01 -6.982942e-02 -4.323137e-02 -9.389560e-02 -5.278741e-02 2.900661e-01
<VARIANCE> 39
 1.481114e+02 8.540591e+01 4.440108e+01 5.689997e+01 5.387704e+01 7.233334e+01 4.957035e+01 3.000248e+01 3.908361e+01 2.848507e+01 4.276364e+01 1.631276e+01 4.890197e+02 3.671829e+00 1.829088e+00 1.555066e+00 1.595985e+00 1.627708e+00 3.059749e+00 1.650972e+00 1.011079e+00 1.051738e+00 1.794300e+00 1.450179e+00 5.238101e-01 1.361116e+01 2.581906e-01 3.070234e-01 1.493463e-01 2.972117e-01 2.040401e-01 3.753004e-01 2.393682e-01 1.122899e-01 9.464391e-02 1.698964e-01 1.719587e-01 4.458600e-02 1.114479e+00
<GCONST> 1.114592e+02
<STATE> 3
<MEAN> 39
 6.376791e+00 -6.172033e+00 -3.715863e+00 3.020273e+00 5.370450e-01 -1.787897e+00 1.502390e+00 4.323360e+00 3.410846e+00 -5.309064e+00 -5.501729e+00 -3.753924e+00 1.030315e+01 -3.959567e-02 4.359329e-01 1.506071e+00 -2.761392e-01 -1.253622e+00 -2.220886e-01 -3.932874e-01 -4.709996e-01 -1.073902e+00 3.466631e-01 3.379217e-01 -1.727011e-01 5.090116e-01 -2.352443e-01 3.882526e-02 1.742184e-01 -2.145383e-01 9.472766e-04 1.380656e-01 -8.219186e-02 -1.506335e-01 -4.089224e-02 1.627456e-01 2.070284e-03 4.303154e-02 -1.351398e-02
<VARIANCE> 39
 3.126868e+01 4.237909e+01 7.641550e+01 3.779824e+01 9.223582e+01 5.288632e+01 2.534405e+01 4.240053e+01 5.355322e+01 4.998447e+01 4.978032e+01 1.702606e+01 8.335892e+01 2.242810e+00 1.571636e+00 1.973778e+00 2.299971e+00 3.570701e+00 2.410214e+00 8.210753e-01 2.736236e+00 2.238984e+00 1.111468e+00 1.600625e+00 6.415033e-01 2.320195e+00 1.087895e-01 1.836053e-01 1.854811e-01 1.844801e-01 5.053550e-01 2.898749e-01 1.765017e-01 2.986831e-01 2.531288e-01 1.215617e-01 1.642983e-01 7.659472e-02 6.155394e-01
<GCONST> 1.083858e+02
<STATE> 4
<MEAN> 39
 3.903539e+00 -5.840103e-01 7.646964e+00 -4.904580e+00 -3.939261e+00 -8.799628e-01 3.416930e+00 -3.689628e+00 -3.564514e+00 2.868911e+00 -5.601333e+00 -2.652418e+00 1.012552e+01 2.442606e-02 1.614545e-01 2.307539e-01 -1.655336e-01 8.745153e-02 -1.648563e-01 -3.114049e-01 -9.514152e-01 -6.051489e-01 -2.604683e-01 -2.868600e-01 -2.224033e-01 -8.601154e-02 3.468927e-02 -8.535683e-03 -2.192659e-01 1.008302e-01 1.276554e-01 1.627080e-01 -8.465288e-02 9.606816e-02 9.648910e-02 -2.163371e-01 -1.058606e-02 -7.474535e-02 -6.081997e-02
<VARIANCE> 39
 2.412715e+01 1.547307e+01 3.952183e+01 7.607294e+01 2.617177e+01 6.881909e+01 4.517252e+01 5.186538e+01 2.809450e+01 3.143995e+01 5.113403e+01 5.000810e+01 5.416494e+01 1.115769e+00 1.338311e+00 2.067583e+00 5.027802e+00 1.247653e+00 1.884516e+00 7.231292e-01 2.199945e+00 8.958046e-01 2.369447e+00 2.274805e+00 8.153871e-01 1.439110e+00 9.361104e-02 8.348472e-02 1.537829e-01 3.897103e-01 2.322713e-01 3.325271e-01 8.368752e-02 1.741472e-01 1.137397e-01 1.210606e-01 1.760369e-01 1.288665e-01 1.050486e-01
<GCONST> 1.005014e+02
<TRANSP> 5
 0.000000e+00 1.000000e+00 0.000000e+00 0.000000e+00 0.000000e+00
 0.000000e+00 8.682403e-01 1.317597e-01 0.000000e+00 0.000000e+00
 0.000000e+00 0.000000e+00 7.974665e-01 2.025335e-01 0.000000e+00
 0.000000e+00 0.000000e+00 0.000000e+00 7.329894e-01 2.670106e-01
 0.000000e+00 0.000000e+00 0.000000e+00 0.000000e+00 0.000000e+00
<ENDHMM>
~h "dd"
<BEGINHMM>
<NUMSTATES> 5
<STATE> 2
<MEAN> 39
 3.766011e+00 7.565790e+00 7.689829e+00 4.818938e+00 -5.433961e+00 -3.682771e-01 1.880115e+00 -4.319640e+00 -9.400551e-01 2.000514e+00 6.112172e-01 -7.922677e-01 -3.261198e+00 8.596419e-02 5.870286e-01 -6.227374e-01 8.713989e-01 1.235309e+00 7.393585e-01 9.521616e-02 2.534442e-01 2.409817e-01 -4.492465e-01 -2.575890e-01 -3.563267e-01 -1.019145e+00 -1.543895e-01 -8.464031e-02 1.626099e-02 -2.266078e-01 -1.699915e-04 -6.548285e-02 -4.581749e-02 -4.421869e-02 -4.687781e-02 5.078560e-02 4.446439e-02 2.133443e-02 1.700839e-01
<VARIANCE> 39
 9.243122e+00 2.830348e+01 2.225749e+01 1.945944e+01 3.653050e+01 1.060709e+02 2.235644e+01 4.853330e+01 3.322807e+01 3.377740e+01 2.766339e+01 3.402694e+01 2.368622e+01 2.745709e-01 3.550848e-01 7.119891e-01 8.839887e-01 6.751383e-01 1.270911e+00 1.135738e+00 6.792628e-01 7.383505e-01 6.255208e-01 7.527553e-01 4.564641e-01 2.831245e-01 3.266791e-02 3.541494e-02 4.262373e-02 8.248302e-02 6.617590e-02 1.903674e-01 7.421629e-02 8.874822e-02 5.646399e-02 7.419863e-02 7.141921e-02 5.038595e-02 4.390851e-02
<GCONST> 7.325837e+01
<STATE> 3
<MEAN> 39
 4.839540e-01 6.170121e+00 5.591588e+00 5.862407e+00 1.322576e+00 -1.260246e+00 2.111611e+00 -3.379836e+00 -4.249151e+00 -1.390678e+00 1.093848e+00 5.505293e-01 -4.798930e+00 -4.048726e-01 -2.357638e-01 -5.879161e-01 -9.140491e-02 6.290536e-01 1.383319e-01 4.578144e-02 1.595247e-02 2.424913e-01 -9.868573e-02 -3.654941e-02 2.147818e-02 -1.815466e-01 -3.865717e-02 -1.719320e-01 -2.893762e-03 -1.485992e-01 -2.009322e-01 -1.974571e-01 -5.028114e-02 1.071159e-01 1.275599e-01 4.799299e-02 6.285976e-02 3.453603e-02 2.673048e-01
<VARIANCE> 39
 9.780231e+00 1.807538e+01 2.130063e+01 1.725019e+01 2.769296e+01 2.321289e+01 2.337955e+01 2.505858e+01 4.221520e+01 3.290667e+01 2.463108e+01 2.538086e+01 1.683038e+01 1.288884e-01 2.852558e-01 2.608654e-01 4.545152e-01 4.917221e-01 7.082018e-01 6.830668e-01 5.761351e-01 8.566808e-01 4.485964e-01 4.945920e-01 3.656060e-01 3.634239e-01 4.869389e-02 5.257596e-02 5.570474e-02 4.968509e-02 8.257248e-02 7.813193e-02 1.270498e-01 9.467405e-02 1.242698e-01 9.367897e-02 7.807739e-02 5.921846e-02 5.600171e-02
<GCONST> 6.696017e+01
<STATE> 4
<MEAN> 39
 -9.127108e-01 4.484396e+00 2.797898e+00 5.589967e+00 7.549012e-01 -1.140534e+00 2.573955e+00 -2.466471e+00 2.640078e-01 4.560026e-01 2.261425e+00 -8.768816e-01 -2.927636e+00 -4.715065e-01 -1.400365e+00 -6.313820e-01 -1.058318e+00 -7.571593e-01 -1.151655e+00 -5.085376e-02 1.092819e+00 6.250749e-01 -7.910848e-02 8.643658e-02 4.183502e-01 2.215158e+00 1.545650e-01 -1.121541e-01 9.852381e-02 -2.451431e-01 -3.110986e-01 -7.384940e-02 -5.375003e-02 1.855329e-01 4.766697e-02 4.981443e-02 -1.723038e-01 5.059524e-02 3.751374e-01
<VARIANCE> 39
 2.981818e+01 4.650847e+01 4.598301e+01 4.091662e+01 4.964602e+01 6.052066e+01 3.775912e+01 3.826820e+01 3.406755e+01 4.081588e+01 2.560761e+01 3.060722e+01 7.698883e+01 1.287263e+00 1.042115e+00 1.779258e+00 1.431848e+00 1.796067e+00 2.282287e+00 2.494300e+00 2.672057e+00 1.973476e+00 1.868421e+00 1.121397e+00 9.898968e-01 2.224292e+00 1.310041e-01 1.522912e-01 1.343173e-01 1.860415e-01 1.780713e-01 2.342031e-01 2.259035e-01 2.073352e-01 1.317847e-01 1.691896e-01 9.946880e-02 1.124791e-01 3.371694e-01
<GCONST> 1.035006e+02
<TRANSP> 5
 0.000000e+00 1.000000e+00 0.000000e+00 0.000000e+00 0.000000e+00
 0.000000e+00 7.229208e-01 2.770791e-01 0.000000e+00 0.000000e+00
 0.000000e+00 0.000000e+00 7.698869e-01 2.301131e-01 0.000000e+00
 0.000000e+00 0.000000e+00 0.000000e+00 7.961401e-01 2.038599e-01
 0.000000e+00 0.000000e+00 0.000000e+00 0.000000e+00 0.000000e+00
<ENDHMM>
~h "dh"
<BEGINHMM>
<NUMSTATES> 5
<STATE> 2
<MEAN> 39
 2.824688e+00 2.066784e+00 -1.383942e-02 5.013454e+00 9.465680e-01 7.083549e-01 2.649160e+00 -1.602599e+00 -5.816648e+00 -5.305912e+00 -3.282340e+00 -2.504093e+00 3.789487e+00 -5.034326e-01 3.032721e-01 5.855469e-01 1.266395e-01 -5.376795e-02 6.176008e-01 1.303452e-01 -3.132168e-01 1.227972e-01 1.368307e-01 1.037430e-02 -2.931287e-01 4.163107e-02 -2.828251e-01 -1.039168e-01 1.573567e-02 -5.581027e-01 -1.488477e-01 -4.227052e-01 5.203193e-02 -5.560602e-02 3.053284e-01 1.157192e-01 1.426756e-02 1.595378e-01 3.664778e-01
<VARIANCE> 39
 5.288281e+01 4.396938e+01 2.180192e+01 2.725394e+01 3.874586e+01 3.091196e+01 3.006023e+01 3.332472e+01 5.048855e+01 7.648893e+01 1.937938e+01 3.336309e+01 1.141184e+02 1.647341e+00 7.372243e-01 9.430035e-01 2.259607e+00 1.120812e+00 1.967832e+00 6.299862e-01 1.089491e+00 1.345300e+00 1.097139e+00 6.365616e-01 8.794971e-01 1.135074e+00 1.723671e-01 1.994622e-01 1.334439e-01 1.762734e-01 1.296667e-01 1.836185e-01 1.385317e-01 1.615219e-01 1.980549e-01 1.558597e-01 8.832947e-02 1.465832e-01 1.600963e-01
<GCONST> 9.626851e+01
<STATE> 3
<MEAN> 39
 -5.021964e-01 4.064839e+00 3.059953e+00 -5.100493e-01 -2.973300e+00 -1.800622e+00 1.258199e+00 -5.918550e+00 -3.207307e+00 -2.193014e+00 -3.557412e+00 -3.752424e+00 5.742946e+00 -8.134188e-01 -3.517019e-01 2.364835e-01 -1.046946e+00 -5.566624e-01 -4.990454e-01 -1.457241e-02 -5.198498e-01 3.807908e-01 -2.989387e-01 -1.945391e-01 6.199044e-01 1.087860e+00 1.448391e-01 -1.550607e-01 -1.190041e-01 -4.208430e-02 2.376797e-02 -8.198376e-02 -6.467035e-02 1.537297e-01 3.597866e-02 -2.595214e-02 4.019319e-02 9.733921e-02 4.599733e-02
<VARIANCE> 39
 5.119358e+01 4.473347e+01 3.140986e+01 3.926532e+01 5.419471e+01 2.413578e+01 2.872004e+01 5.303878e+01 2.296805e+01 3.278406e+01 3.632467e+01 2.154632e+01 7.752357e+01 6.707521e-01 2.425819e+00 1.105210e+00 1.607012e+00 1.405620e+00 9.704619e-01 1.700985e+00 1.146749e+00 5.905412e-01 1.055818e+00 1.013821e+00 7.759693e-01 1.610795e+00 9.047261e-02 1.857743e-01 8.179172e-02 1.356955e-01 1.621019e-01 1.668564e-01 9.845717e-02 1.031852e-01 1.014021e-01 1.515896e-01 1.332988e-01 6.220606e-02 1.964418e-01
<GCONST> 9.309605e+01
<STATE> 4
<MEAN> 39
 2.826943e+00 -1.520147e+00 2.596254e+00 -8.509388e+00 -8.650808e+00 -1.151789e+00 -2.397019e+00 -2.882058e+00 -5.695449e+00 -5.907753e+00 -3.544586e+00 6.399263e-01 7.639225e+00 -3.267530e-02 -4.655126e-02 1.830098e-03 -3.237652e-01 -1.827120e-01 9.496332e-02 -8.105103e-02 4.485851e-02 1.789505e-01 -6.573860e-02 1.418633e-02 1.882723e-01 5.487821e-02 6.496622e-03 2.872941e-02 2.286929e-02 4.252745e-02 1.951462e-02 -1.167201e-02 -4.219892e-02 2.803115e-02 1.080844e-02 3.071302e-02 4.686212e-02 -1.753840e-02 -2.416079e-02
<VARIANCE> 39
 1.159352e+01 3.406980e+01 2.542380e+01 5.069734e+01 4.524191e+01 2.978770e+01 7.674969e+01 2.074611e+01 3.314953e+01 2.057725e+01 2.429331e+01 1.391718e+01 2.081734e+01 1.203640e-01 6.690350e-01 3.608549e-01 8.653167e-01 1.083168e+00 9.343212e-01 1.334526e+00 6.469101e-01 1.143260e+00 7.059522e-01 9.665006e-01 5.798396e-01 3.360654e-01 1.870621e-02 5.426460e-02 5.573545e-02 8.416801e-02 1.404642e-01 1.016367e-01 1.095743e-01 8.776915e-02 1.157244e-01 8.552681e-02 1.167192e-01 6.182415e-02 4.807680e-02
<GCONST> 7.534895e+01
<TRANSP> 5
 0.000000e+00 1.000000e+00 0.000000e+00 0.000000e+00 0.000000e+00
 0.000000e+00 6.170492e-01 3.829508e-01 0.000000e+00 0.000000e+00
 0.000000e+00 0.000000e+00 6.811417e-01 3.188583e-01 0.000000e+00
 0.000000e+00 0.000000e+00 0.000000e+00 8.641704e-01 1.358295e-01
 0.000000e+00 0.000000e+00 0.000000e+00 0.000000e+00 0.000000e+00
<ENDHMM>
~h "dx"
<BEGINHMM>
<NUMSTATES> 5
<STATE> 2
<MEAN> 39
