~o
<STREAMINFO> 1 39
<VECSIZE> 39<NULLD><MFCC_D_A_Z_0><DIAGC>
~s "silst"
<MEAN> 39
 -2.524887e+00 -1.792308e+00 -4.498419e+00 8.029193e+00 4.367238e+00 4.487385e+00 1.174451e+00 8.397904e-01 1.827374e+00 1.541514e+00 3.592628e+00 1.163265e+00 -9.279255e+00 -5.774763e-02 2.123857e-02 -4.019524e-02 2.523271e-02 -5.439744e-03 2.911390e-02 1.415400e-02 -4.996452e-02 2.136180e-02 -4.680566e-03 -5.428023e-02 -4.526606e-03 -7.596990e-02 9.686107e-03 6.312688e-03 1.415258e-02 -5.684256e-04 6.984928e-03 3.366566e-03 4.417805e-03 7.704585e-03 8.254012e-03 -7.265900e-03 -7.482382e-03 5.986068e-03 7.026605e-03
<VARIANCE> 39
 1.086182e+01 4.725008e+01 2.592378e+01 3.669159e+01 3.038841e+01 2.953155e+01 6.442494e+01 3.601274e+01 3.572735e+01 3.673370e+01 3.189292e+01 1.937710e+01 2.479778e+01 1.044830e-01 1.675082e-01 2.288449e-01 2.602245e-01 3.609835e-01 4.339395e-01 4.518725e-01 4.483633e-01 3.920544e-01 4.762312e-01 3.733753e-01 3.326668e-01 8.260230e-02 1.101038e-02 1.979715e-02 2.823845e-02 3.351093e-02 4.689349e-02 5.276579e-02 6.010446e-02 5.507518e-02 5.118986e-02 5.875429e-02 4.888830e-02 4.338028e-02 7.175248e-03
<GCONST> 5.556073e+01
~h "a"
<BEGINHMM>
<NUMSTATES> 5
<STATE> 2
<MEAN> 39
 4.375684e+00 -5.311252e+00 -3.227958e+00 -1.986934e+00 -1.879401e+00 -1.989314e+00 -2.189761e-01 5.417116e+00 3.780350e+00 2.168518e-02 -3.544143e+00 -1.058690e+00 9.887511e+00 3.412152e-01 -7.704154e-01 -4.422987e-01 -4.007944e-01 -1.622166e-01 4.183910e-02 -1.294604e-01 6.782421e-01 3.250493e-01 -2.286506e-01 -7.448427e-01 -4.903335e-02 1.125425e+00 -7.077861e-02 2.057774e-01 1.272538e-01 1.578048e-01 9.154507e-02 8.491616e-02 2.625594e-02 -2.253176e-01 -1.609154e-01 -1.896360e-02 1.125340e-01 8.532114e-03 -3.047442e-01
<VARIANCE> 39
 3.501360e+01 4.736296e+01 5.850442e+01 5.176189e+01 7.306619e+01 7.206599e+01 7.075068e+01 5.992256e+01 1.047359e+02 6.167743e+01 5.393465e+01 3.485467e+01 7.266331e+01 1.187896e+00 1.560528e+00 1.819245e+00 1.761134e+00 2.091497e+00 2.014012e+00 2.087860e+00 1.766319e+00 2.146085e+00 1.720192e+00 1.425613e+00 1.106224e+00 2.266410e+00 1.163172e-01 1.583341e-01 1.650466e-01 1.778290e-01 2.351155e-01 2.299755e-01 2.481544e-01 2.308422e-01 2.475454e-01 2.161207e-01 1.910737e-01 1.264085e-01 2.532603e-01
<GCONST> 1.104054e+02
<STATE> 3
<MEAN> 39
 3.639225e+00 -6.750350e+00 -3.082614e+00 -3.486871e+00 -2.920759e+00 -2.678105e+00 3.348919e-01 6.655051e+00 2.967510e+00 -1.676834e+00 -5.398730e+00 -5.293104e-01 1.284044e+01 5.450070e-02 3.079177e-01 2.194893e-01 4.039585e-01 1.724554e-01 1.403573e-01 3.208679e-02 -3.680751e-01 -3.030352e-01 -1.406076e-01 1.501766e-01 1.265644e-02 -4.951229e-01 -3.697326e-02 2.693187e-01 1.555189e-01 2.346859e-01 7.647106e-02 2.221289e-02 -3.306455e-03 -2.842058e-01 -9.843301e-02 7.149324e-02 2.277047e-01 -8.841679e-04 -3.721033e-01
<VARIANCE> 39
 2.297085e+01 2.785672e+01 4.378782e+01 3.480911e+01 5.408955e+01 5.341488e+01 6.836565e+01 4.905797e+01 9.083699e+01 5.737383e+01 3.728483e+01 3.040031e+01 4.014263e+01 5.616293e-01 7.782828e-01 1.072698e+00 1.037477e+00 1.437671e+00 1.403404e+00 1.509832e+00 1.124584e+00 1.162965e+00 1.073141e+00 1.034297e+00 7.475078e-01 6.831832e-01 9.398471e-02 9.241020e-02 1.023070e-01 1.245560e-01 1.744885e-01 1.655684e-01 2.018228e-01 1.688534e-01 1.803664e-01 1.649576e-01 1.164579e-01 1.045158e-01 6.131846e-02
<GCONST> 9.418506e+01
<STATE> 4
<MEAN> 39
 3.986442e+00 -3.895856e+00 -3.435471e+00 4.614503e-01 9.658108e-01 2.760571e-01 6.153864e-01 2.230350e+00 3.669024e-01 -2.336838e+00 -2.669909e+00 -1.552212e+00 4.554185e+00 -7.474871e-02 5.084445e-01 2.773127e-01 5.091416e-01 1.530435e-01 8.579063e-02 1.650226e-01 -4.315726e-01 -3.024017e-01 -4.072246e-02 3.365035e-01 4.121729e-02 -9.792124e-01 -3.970446e-02 4.195969e-03 6.945311e-04 -4.581996e-02 -2.643670e-02 -1.932414e-02 2.833262e-03 2.630690e-02 2.095728e-02 3.138706e-02 1.321029e-02 1.148837e-02 1.928999e-02
<VARIANCE> 39
 2.092953e+01 3.269568e+01 4.911831e+01 4.814915e+01 5.538070e+01 4.913575e+01 5.159855e+01 4.019936e+01 5.657397e+01 4.961146e+01 3.214119e+01 2.981401e+01 6.096948e+01 6.980875e-01 6.621759e-01 7.840741e-01 8.697269e-01 8.629201e-01 1.053073e+00 1.122373e+00 9.718866e-01 1.272784e+00 8.975078e-01 6.941383e-01 6.395408e-01 6.457019e-01 4.400828e-02 5.830739e-02 6.809005e-02 7.692283e-02 8.746068e-02 9.258736e-02 1.051257e-01 9.738554e-02 1.059199e-01 8.858452e-02 7.908948e-02 6.694937e-02 4.900198e-02
<GCONST> 8.461501e+01
<TRANSP> 5
 0.000000e+00 1.000000e+00 0.000000e+00 0.000000e+00 0.000000e+00
 0.000000e+00 6.045113e-01 3.954887e-01 0.000000e+00 0.000000e+00
 0.000000e+00 0.000000e+00 6.254088e-01 3.745912e-01 0.000000e+00
 0.000000e+00 0.000000e+00 0.000000e+00 7.407437e-01 2.592563e-01
 0.000000e+00 0.000000e+00 0.000000e+00 0.000000e+00 0.000000e+00
<ENDHMM>
~h "b"
<BEGINHMM>
<NUMSTATES> 5
<STATE> 2
<MEAN> 39
 5.364349e+00 5.316619e-01 -5.433265e-01 2.616511e+00 -4.192523e-01 -1.036646e+00 -1.255671e+00 -1.183479e+00 -1.289909e+00 1.869025e-01 -1.511828e+00 -1.733352e+00 1.735408e+00 1.603770e-01 6.267470e-01 -1.960352e-03 -2.899693e-02 3.946663e-02 1.759719e-01 -4.815730e-02 -1.879265e-01 -2.414295e-01 3.644291e-03 6.829959e-02 -3.040407e-02 -1.423979e-01 -5.633701e-02 -6.118233e-02 -4.893383e-02 -2.085359e-01 -3.757021e-02 3.380080e-03 -1.259108e-02 5.246752e-02 7.628240e-02 4.981472e-02 3.517468e-03 2.007303e-02 1.860213e-01
<VARIANCE> 39
 2.557940e+01 4.228443e+01 4.784566e+01 7.871528e+01 5.731103e+01 7.513619e+01 5.555604e+01 6.569614e+01 6.305813e+01 6.422272e+01 6.842707e+01 4.707013e+01 4.837091e+01 8.085048e-01 1.159887e+00 1.301852e+00 3.072591e+00 1.735437e+00 2.362333e+00 1.872993e+00 1.149864e+00 1.549707e+00 1.368183e+00 1.957518e+00 1.690660e+00 1.742406e+00 8.156587e-02 1.366571e-01 1.476415e-01 3.458168e-01 1.999908e-01 3.682781e-01 2.340486e-01 1.846747e-01 2.147627e-01 2.192936e-01 2.174905e-01 1.949182e-01 2.133474e-01
<GCONST> 1.087515e+02
<STATE> 3
<MEAN> 39
 6.012193e+00 4.751370e+00 4.243245e-01 3.133219e+00 4.097123e-01 -7.180820e-01 -9.139761e-01 -1.467893e+00 -2.213014e+00 -1.801657e+00 -1.535306e+00 -3.110785e+00 1.843617e-01 9.346701e-02 -2.949373e-01 -2.792213e-01 -1.172136e-01 3.900518e-01 1.185928e-01 6.833354e-02 1.763587e-01 4.838183e-01 3.664739e-01 4.198641e-02 -1.139924e-01 2.564418e-01 -2.685530e-02 -3.766868e-01 -2.025919e-01 -3.175398e-01 -1.427890e-01 -9.406591e-02 -9.228258e-02 1.191382e-01 2.087307e-01 1.762813e-01 -7.211718e-02 9.659693e-02 4.309910e-01
<VARIANCE> 39
 2.250137e+01 3.043951e+01 4.697342e+01 8.288866e+01 5.631382e+01 5.219617e+01 4.739224e+01 5.194339e+01 5.430939e+01 4.420854e+01 3.878536e+01 3.183271e+01 5.868642e+01 7.063562e-01 1.482800e+00 1.828098e+00 1.976473e+00 1.150093e+00 1.222592e+00 1.211255e+00 1.073532e+00 1.611740e+00 1.330819e+00 1.055550e+00 1.046034e+00 1.625714e+00 9.448875e-02 1.673304e-01 2.243405e-01 2.951780e-01 2.405829e-01 1.809173e-01 2.046877e-01 1.886019e-01 1.713708e-01 1.698923e-01 1.873956e-01 1.367887e-01 1.957004e-01
<GCONST> 1.024428e+02
<STATE> 4
<MEAN> 39
 3.692583e+00 1.327394e+00 3.124082e-02 3.234263e+00 2.820467e+00 6.526634e-01 5.804636e-01 -1.794663e+00 -6.760532e-01 5.346026e-02 2.451874e-01 -1.113713e+00 -9.868367e-01 5.811097e-02 -6.441591e-01 -4.160981e-01 -5.823739e-01 -2.676562e-01 -2.605762e-01 -2.178520e-01 3.560962e-01 3.607629e-01 3.625466e-01 7.816529e-02 1.501969e-01 6.648058e-01 2.108599e-02 -9.876662e-02 -8.216646e-03 -1.558475e-01 -1.782306e-01 -6.201161e-02 -9.076428e-02 4.332464e-02 2.234711e-02 1.239248e-02 -7.571454e-02 1.687548e-02 2.248998e-01
<VARIANCE> 39
 2.640194e+01 2.510585e+01 4.151217e+01 3.757973e+01 2.901363e+01 2.902353e+01 3.084072e+01 3.541817e+01 3.969167e+01 3.417020e+01 2.937262e+01 2.291429e+01 3.698984e+01 5.932868e-01 1.329980e+00 1.785926e+00 1.477223e+00 1.361622e+00 1.214843e+00 1.210727e+00 1.229893e+00 1.441965e+00 1.618519e+00 1.140444e+00 7.235563e-01 1.562632e+00 6.476425e-02 8.834983e-02 1.188170e-01 1.090407e-01 1.040462e-01 8.945783e-02 9.374814e-02 1.087159e-01 9.646020e-02 1.071052e-01 1.170607e-01 7.133339e-02 7.268116e-02
<GCONST> 8.857705e+01
<TRANSP> 5
 0.000000e+00 1.000000e+00 0.000000e+00 0.000000e+00 0.000000e+00
 0.000000e+00 6.112141e-01 3.887860e-01 0.000000e+00 0.000000e+00
 0.000000e+00 0.000000e+00 5.362127e-01 4.637872e-01 0.000000e+00
 0.000000e+00 0.000000e+00 0.000000e+00 6.616838e-01 3.383162e-01
 0.000000e+00 0.000000e+00 0.000000e+00 0.000000e+00 0.000000e+00
<ENDHMM>
~h "c"
<BEGINHMM>
<NUMSTATES> 5
<STATE> 2
<MEAN> 39
 -1.271781e+00 1.395207e+00 -4.409418e-01 5.503184e-01 3.734802e+00 1.178597e+00 -2.991955e+00 -6.664853e-02 8.493797e-01 1.429852e+00 2.878145e+00 6.745050e-01 -1.189282e+01 -9.805446e-01 -1.948540e-02 1.511517e-01 -2.440532e-01 -1.582809e-01 1.456440e-01 1.114732e-01 2.435490e-01 -5.457735e-02 -1.199290e-01 1.964568e-01 -1.003873e-01 9.759381e-01 -1.721718e-01 6.071654e-02 8.275316e-02 -8.639207e-02 -6.877022e-02 -4.898949e-02 6.509910e-02 -1.499068e-02 -4.064313e-02 3.107705e-02 2.913930e-03 -3.726460e-02 1.889379e-01
<VARIANCE> 39
 1.270810e+02 4.373464e+01 4.353730e+01 5.125018e+01 4.812138e+01 5.171276e+01 6.799421e+01 5.233567e+01 3.124083e+01 3.891133e+01 3.756580e+01 2.159491e+01 4.639565e+02 4.845752e+00 1.459122e+00 1.462138e+00 2.154865e+00 1.821468e+00 1.674638e+00 1.927140e+00 1.354969e+00 1.159921e+00 1.347956e+00 1.071399e+00 5.682529e-01 1.001841e+01 4.608868e-01 1.583220e-01 1.916001e-01 2.688970e-01 1.918290e-01 2.024518e-01 2.139366e-01 1.239764e-01 1.368095e-01 1.659140e-01 1.154066e-01 7.235975e-02 8.375536e-01
<GCONST> 1.101724e+02
<STATE> 3
<MEAN> 39
 -1.598411e+01 2.192804e+00 5.707233e+00 -3.568296e+00 8.617579e-01 1.163459e-01 2.949822e+00 1.922600e+00 -2.540257e+00 2.229321e+00 4.903420e+00 -2.829834e+00 7.563689e+00 -3.352494e-01 6.444363e-02 1.096954e+00 -2.146170e-01 -1.100839e+00 -5.346779e-01 5.867684e-01 -8.392614e-02 -4.767911e-01 1.778763e-01 2.525490e-01 -4.313528e-01 9.911636e-01 8.667148e-01 8.433182e-04 -9.037332e-02 1.288689e-01 -1.533779e-01 -1.108162e-01 -1.919361e-01 -1.735834e-01 6.873639e-02 -1.902251e-02 -1.543233e-01 1.031572e-01 -2.144425e-01
<VARIANCE> 39
 6.013868e+01 3.450952e+01 3.664740e+01 2.688469e+01 3.720953e+01 3.015338e+01 5.203437e+01 3.669174e+01 4.260962e+01 6.141539e+01 4.970580e+01 3.217399e+01 3.222705e+01 5.424847e+00 1.098572e+00 1.258353e+00 1.060221e+00 9.445863e-01 1.083799e+00 1.519651e+00 1.520014e+00 1.315426e+00 9.507738e-01 1.492864e+00 8.080123e-01 1.052280e+00 3.155388e-01 1.416518e-01 1.646816e-01 9.173422e-02 1.482865e-01 9.841960e-02 1.550612e-01 1.217594e-01 1.620541e-01 1.435216e-01 1.630883e-01 1.148939e-01 8.900573e-02
<GCONST> 9.724667e+01
<STATE> 4
<MEAN> 39
 -6.720678e-01 5.651977e+00 3.373609e+00 -9.862354e-01 -8.868334e+00 -2.495995e+00 -2.335083e+00 -3.660683e+00 5.483322e-01 6.462191e-01 2.604667e+00 -2.195341e+00 9.254080e+00 1.238348e+00 3.583233e-01 -3.309754e-02 1.074706e-01 -3.311672e-01 -2.746150e-01 -4.576754e-01 -3.743854e-01 3.575362e-03 2.568648e-01 -3.279074e-02 -5.361681e-02 1.921424e-01 -7.589037e-02 3.640500e-02 -1.585552e-01 -7.817636e-02 2.594358e-01 1.942550e-01 -3.296747e-02 -3.265605e-02 -5.898839e-02 6.790806e-03 4.168780e-02 4.437294e-02 -1.697306e-01
<VARIANCE> 39
 8.082820e+01 8.530320e+01 9.830425e+01 7.124728e+01 5.339841e+01 6.171702e+01 7.876746e+01 8.640394e+01 5.612782e+01 5.860372e+01 3.105883e+01 2.818755e+01 4.103609e+01 3.990417e+00 1.758107e+00 1.239180e+00 1.826839e+00 2.399503e+00 1.745471e+00 1.529441e+00 1.696646e+00 1.478264e+00 1.810636e+00 1.198783e+00 8.561727e-01 1.365662e+00 2.488339e-01 1.450377e-01 1.133507e-01 2.358968e-01 2.215779e-01 2.472075e-01 1.347698e-01 2.535428e-01 1.719661e-01 1.969698e-01 1.351245e-01 1.018735e-01 1.438054e-01
<GCONST> 1.085224e+02
<TRANSP> 5
 0.000000e+00 1.000000e+00 0.000000e+00 0.000000e+00 0.000000e+00
 0.000000e+00 8.865399e-01 1.134600e-01 0.000000e+00 0.000000e+00
 0.000000e+00 0.000000e+00 8.011026e-01 1.988975e-01 0.000000e+00
 0.000000e+00 0.000000e+00 0.000000e+00 6.835393e-01 3.164607e-01
 0.000000e+00 0.000000e+00 0.000000e+00 0.000000e+00 0.000000e+00
<ENDHMM>
~h "d"
<BEGINHMM>
<NUMSTATES> 5
<STATE> 2
<MEAN> 39
 5.612250e+00 4.730335e+00 2.984951e+00 4.728313e+00 6.764071e-01 -1.463358e+00 1.552798e+00 -1.681418e+00 -1.728252e+00 -1.157356e+00 -1.764403e+00 -1.660022e+00 -6.149542e-01 -6.156604e-01 -3.448262e-01 -5.076358e-02 -1.193925e-01 2.152057e-01 -1.602346e-01 2.397177e-01 4.246531e-01 1.086967e-01 5.320524e-02 4.512892e-01 -1.101918e-01 1.832793e-01 -1.645918e-01 -2.587338e-01 -4.181359e-02 -3.889840e-01 -3.092725e-01 -2.035379e-01 -1.468741e-01 9.473484e-02 1.541019e-01 1.185222e-01 8.530028e-04 1.264611e-01 5.364870e-01
<VARIANCE> 39
 2.677737e+01 4.356682e+01 4.621898e+01 3.334723e+01 5.129050e+01 4.600983e+01 5.304520e+01 5.213916e+01 4.779138e+01 4.051514e+01 3.765376e+01 2.576185e+01 3.416632e+01 7.923916e-01 1.304432e+00 1.192114e+00 1.213350e+00 1.326402e+00 1.418043e+00 1.359857e+00 1.445857e+00 1.423940e+00 1.233180e+00 1.049516e+00 8.867003e-01 1.249631e+00 1.215623e-01 1.507339e-01 1.514654e-01 1.520494e-01 1.804697e-01 2.747804e-01 2.300943e-01 2.120156e-01 2.004153e-01 1.686720e-01 1.490807e-01 1.143001e-01 9.970655e-02
<GCONST> 9.861215e+01
<STATE> 3
<MEAN> 39
 -1.670295e+00 -1.796907e-01 3.325058e+00 8.596524e-01 1.442508e+00 -4.606058e+00 2.465824e+00 6.232417e-01 -7.290419e-01 -1.038778e+00 1.736306e+00 -1.080528e+00 5.004186e+00 -3.438110e-01 -7.827491e-01 -1.799308e-01 -9.353676e-01 -8.723207e-01 -1.090480e+00 -6.627246e-01 5.339464e-01 5.310383e-01 3.389667e-01 1.355590e-01 3.541827e-01 1.520418e+00 2.761000e-01 8.458842e-02 -6.730835e-02 -1.282503e-01 -2.146517e-01 5.617551e-02 -2.829766e-01 -9.150831e-02 6.387208e-02 1.115071e-01 -1.913202e-01 5.819891e-02 1.255103e-01
<VARIANCE> 39
 2.907372e+01 3.972032e+01 3.577554e+01 3.220096e+01 4.613350e+01 6.050457e+01 5.148561e+01 3.951896e+01 4.570884e+01 4.164361e+01 3.793723e+01 3.028922e+01 5.452139e+01 9.040563e-01 1.184014e+00 1.580077e+00 1.234655e+00 1.820814e+00 2.258700e+00 2.414067e+00 2.209126e+00 1.913589e+00 1.497957e+00 1.407120e+00 9.239295e-01 9.801786e-01 9.648947e-02 1.628554e-01 1.475190e-01 1.387082e-01 1.446324e-01 1.965881e-01 1.499422e-01 1.635454e-01 1.403819e-01 1.623730e-01 1.433895e-01 1.206427e-01 1.408394e-01
<GCONST> 9.993778e+01
<STATE> 4
<MEAN> 39
 2.013144e+00 -9.703004e-01 2.048840e+00 -1.431893e+00 -4.683967e+00 -8.925879e+00 -3.340101e+00 1.871474e+00 1.242057e+00 1.021603e+00 -7.018415e-01 1.332696e+00 9.421749e+00 2.296781e-01 -2.527353e-01 -4.741953e-01 -9.123102e-01 -7.707875e-01 -1.347967e-01 -9.395353e-01 1.612225e-01 4.891438e-01 5.293918e-01 -2.096645e-01 2.292359e-01 1.005571e+00 1.330953e-01 1.652543e-01 -2.729491e-02 7.417123e-02 1.746072e-01 3.971636e-01 1.033662e-01 -1.663161e-01 -1.457114e-01 -7.711937e-02 -7.303558e-02 -8.697980e-02 -2.564514e-01
<VARIANCE> 39
 1.396641e+01 2.063006e+01 2.613416e+01 2.384256e+01 4.569682e+01 4.171154e+01 7.863203e+01 4.428610e+01 4.875771e+01 3.741985e+01 3.331347e+01 2.641343e+01 3.503411e+01 1.101353e+00 1.326905e+00 1.838382e+00 1.185980e+00 1.786868e+00 1.472472e+00 2.004930e+00 2.211550e+00 1.724694e+00 1.513268e+00 1.183493e+00 9.800746e-01 9.655192e-01 6.267019e-02 9.541412e-02 9.146857e-02 1.052509e-01 1.490478e-01 1.525015e-01 1.935436e-01 1.347900e-01 1.431163e-01 1.225038e-01 1.322276e-01 1.140606e-01 8.509243e-02
<GCONST> 9.412203e+01
<TRANSP> 5
 0.000000e+00 1.000000e+00 0.000000e+00 0.000000e+00 0.000000e+00
 0.000000e+00 6.803690e-01 3.196310e-01 0.000000e+00 0.000000e+00
 0.000000e+00 0.000000e+00 5.034765e-01 4.965235e-01 0.000000e+00
 0.000000e+00 0.000000e+00 0.000000e+00 5.226089e-01 4.773911e-01
 0.000000e+00 0.000000e+00 0.000000e+00 0.000000e+00 0.000000e+00
<ENDHMM>
~h "e"
<BEGINHMM>
<NUMSTATES> 5
<STATE> 2
<MEAN> 39
 1.987407e+00 -4.759729e-01 9.793878e+00 -4.000778e+00 -1.114152e+01 -4.587568e+00 1.842646e+00 1.518150e-01 -1.059000e+00 3.448647e+00 1.892658e+00 -1.327802e-01 9.475666e+00 -4.276835e-02 -5.360421e-02 5.019514e-01 -1.016668e+00 -1.121356e+00 2.280451e-02 6.429917e-02 -1.415840e-01 8.716224e-02 4.425599e-01 2.917309e-02 7.934071e-02 7.159646e-01 -4.788608e-02 1.105659e-01 -1.377013e-01 1.167428e-01 2.777105e-01 1.338849e-01 -4.598675e-02 -6.865018e-02 7.777184e-03 -1.013147e-01 -9.009990e-02 -2.128755e-04 -1.992905e-01
<VARIANCE> 39
 3.196195e+01 4.780382e+01 5.098267e+01 6.268642e+01 7.762788e+01 7.207617e+01 5.998055e+01 7.111499e+01 7.123605e+01 4.452509e+01 4.713836e+01 2.788663e+01 5.273903e+01 1.123242e+00 1.264884e+00 1.493452e+00 2.056399e+00 2.590815e+00 2.395928e+00 1.816025e+00 1.948731e+00 1.957479e+00 1.199880e+00 1.253832e+00 8.532501e-01 1.499197e+00 9.095886e-02 1.298626e-01 1.223265e-01 1.831218e-01 2.687648e-01 2.359265e-01 1.799541e-01 1.899375e-01 2.171551e-01 1.427836e-01 1.193695e-01 9.452836e-02 1.677310e-01
<GCONST> 1.050493e+02
<STATE> 3
<MEAN> 39
 -1.289819e+00 2.857127e+00 9.996007e+00 -1.021550e+01 -1.166506e+01 -4.962258e-01 8.643340e-01 -4.953218e+00 7.067283e-01 3.766878e+00 -1.608861e+00 6.933352e-01 1.015196e+01 9.905527e-02 1.694447e-01 -2.219425e-01 3.972817e-01 2.555811e-01 7.681634e-02 -4.036822e-02 -8.904807e-02 -3.313555e-02 -2.320267e-01 -6.624203e-02 -9.256447e-02 -7.032236e-01 2.259627e-02 1.758681e-03 -6.449525e-02 2.512427e-01 1.773709e-01 -2.739751e-02 -3.546753e-03 6.285211e-02 -4.338824e-02 -5.582311e-02 5.329001e-02 -5.231024e-02 -1.898207e-01
<VARIANCE> 39
 2.516276e+01 5.093568e+01 4.193192e+01 5.480523e+01 5.273350e+01 7.903782e+01 6.052076e+01 6.054152e+01 7.260378e+01 4.167797e+01 3.893114e+01 2.495195e+01 4.384709e+01 4.142130e-01 7.928305e-01 6.945327e-01 1.473387e+00 1.049537e+00 1.133812e+00 1.016421e+00 1.102794e+00 1.171551e+00 9.271744e-01 7.104182e-01 7.023412e-01 1.067121e+00 5.212132e-02 7.561591e-02 7.061725e-02 9.872402e-02 1.096972e-01 1.337900e-01 1.225259e-01 1.358622e-01 1.134590e-01 1.132134e-01 8.483046e-02 8.410221e-02 5.782361e-02
<GCONST> 8.947173e+01
<STATE> 4
<MEAN> 39
 5.410854e-01 1.769429e-01 6.429010e+00 1.799046e-02 -6.703407e+00 -3.321246e+00 1.429129e+00 -1.317530e+00 -3.268058e+00 1.858878e+00 1.630627e+00 -3.158441e-01 9.590592e-01 -1.817128e-01 1.506905e-01 -4.796991e-01 5.014554e-01 7.592024e-01 1.226856e-01 1.138762e-01 2.597603e-02 5.639965e-02 -2.153993e-01 9.928677e-03 7.334769e-02 -6.664756e-01 -3.145250e-02 -1.571547e-02 -2.104891e-02 -8.551352e-02 1.204691e-02 2.543225e-02 -2.236794e-02 2.782921e-02 4.044509e-02 8.376662e-03 6.284806e-03 3.360798e-03 7.783696e-02
<VARIANCE> 39
 1.338753e+01 2.093356e+01 3.809251e+01 3.712841e+01 4.488072e+01 4.231118e+01 3.399437e+01 4.336049e+01 4.106694e+01 2.765003e+01 3.108064e+01 2.244696e+01 5.284911e+01 3.515449e-01 5.175203e-01 5.376065e-01 8.986362e-01 6.722513e-01 8.660794e-01 6.902288e-01 8.595853e-01 8.384975e-01 6.080664e-01 5.734007e-01 4.988199e-01 5.030725e-01 2.938434e-02 4.884605e-02 4.924300e-02 6.428223e-02 7.703728e-02 8.222193e-02 7.981024e-02 8.566896e-02 9.233990e-02 7.758031e-02 5.979688e-02 6.803525e-02 3.957395e-02
<GCONST> 7.483334e+01
<TRANSP> 5
 0.000000e+00 1.000000e+00 0.000000e+00 0.000000e+00 0.000000e+00
 0.000000e+00 6.530662e-01 3.469337e-01 0.000000e+00 0.000000e+00
 0.000000e+00 0.000000e+00 7.698575e-01 2.301426e-01 0.000000e+00
 0.000000e+00 0.000000e+00 0.000000e+00 8.056540e-01 1.943460e-01
 0.000000e+00 0.000000e+00 0.000000e+00 0.000000e+00 0.000000e+00
<ENDHMM>
~h "g"
<BEGINHMM>
<NUMSTATES> 5
<STATE> 2
<MEAN> 39
 1.379776e+00 2.473255e+00 4.749293e+00 4.121598e-01 -1.431388e-02 -2.586784e+00 -4.597471e-01 9.978454e-01 1.579288e+00 1.343276e+00 2.563431e-01 -1.267535e+00 4.358976e+00 -4.461336e-01 -5.971147e-02 7.997829e-01 -5.669913e-01 -6.043905e-01 -1.596712e-01 -1.235263e-02 -2.332533e-01 1.341714e-02 3.631693e-01 8.518538e-02 2.185436e-02 7.036781e-01 7.195034e-02 -2.812507e-02 5.253186e-02 -1.813974e-01 -3.288112e-01 4.792569e-02 -4.066589e-02 -8.246174e-02 8.425756e-03 6.913452e-02 -2.298001e-02 5.357205e-02 2.732208e-01
<VARIANCE> 39
 9.273531e+01 1.068258e+02 9.023346e+01 6.893719e+01 8.171614e+01 4.994141e+01 7.582748e+01 8.071589e+01 8.728313e+01 4.296673e+01 5.138524e+01 3.048052e+01 9.913728e+01 1.774586e+00 1.927945e+00 2.923229e+00 2.320593e+00 3.282282e+00 1.782731e+00 2.252387e+00 1.655913e+00 2.408588e+00 1.441405e+00 1.547319e+00 1.143599e+00 2.799902e+00 2.025183e-01 2.156616e-01 2.495313e-01 2.281081e-01 3.021522e-01 2.064019e-01 2.432638e-01 1.890793e-01 2.836468e-01 1.817898e-01 1.871580e-01 1.374297e-01 2.321304e-01
<GCONST> 1.159654e+02
<STATE> 3
<MEAN> 39
 3.148387e-01 2.911403e+00 1.140164e+01 -6.796329e+00 -1.089019e+01 -6.286152e-01 2.023519e+00 -5.773767e+00 2.593350e-01 5.256559e+00 1.385222e+00 -7.635304e-01 1.140974e+01 1.718324e-01 -1.588507e-01 3.536947e-01 -9.730102e-02 -8.226388e-01 -8.085789e-02 1.000955e-01 -2.446693e-01 -2.045714e-01 2.139071e-01 3.728480e-02 -1.457538e-01 2.415438e-01 6.968610e-02 3.295616e-02 -2.245535e-01 1.981614e-01 2.370882e-01 -5.087076e-02 -8.108865e-02 1.819047e-01 -2.212019e-02 -1.583761e-01 -6.573430e-02 1.042322e-02 -1.915677e-01
<VARIANCE> 39
 3.420880e+01 6.268328e+01 8.955238e+01 1.018181e+02 1.194571e+02 5.380140e+01 1.061655e+02 7.234193e+01 5.589056e+01 7.046203e+01 6.472775e+01 4.613219e+01 5.144500e+01 9.404839e-01 2.021295e+00 1.844862e+00 2.087311e+00 3.137953e+00 1.315941e+00 2.027563e+00 2.012183e+00 1.772912e+00 1.580649e+00 1.209918e+00 1.098464e+00 1.877920e+00 1.071478e-01 1.313702e-01 1.774172e-01 2.056016e-01 3.285374e-01 1.693283e-01 2.102039e-01 1.656390e-01 1.600164e-01 1.627142e-01 1.573498e-01 1.305634e-01 1.788086e-01
<GCONST> 1.100852e+02
<STATE> 4
<MEAN> 39
 -1.127836e+00 1.988510e+00 1.302515e+01 -3.093599e+00 -9.585462e+00 -3.359385e+00 -3.140822e-01 -2.314479e+00 -8.206248e+00 4.132370e+00 1.536536e+00 -3.596915e+00 8.055925e+00 1.289761e-01 -1.981260e-03 1.900613e-02 -1.748405e-01 -3.195064e-01 -1.941686e-01 -2.080220e-01 9.477073e-02 -4.690140e-02 6.443273e-02 5.117086e-02 1.226837e-01 9.852707e-03 4.273643e-02 -2.693835e-02 -1.176216e-01 2.530063e-02 4.007073e-02 5.533476e-03 4.953052e-02 2.648983e-02 9.786668e-02 -4.729187e-02 -3.340133e-02 6.499457e-02 -7.210159e-03
<VARIANCE> 39
 2.924785e+01 2.701536e+01 5.089861e+01 3.511573e+01 4.960030e+01 3.200067e+01 4.415120e+01 3.914713e+01 6.985335e+01 3.397992e+01 3.750422e+01 2.779088e+01 3.978286e+01 4.377328e-01 8.173325e-01 1.155625e+00 1.023129e+00 1.736715e+00 7.890200e-01 9.905689e-01 1.049883e+00 1.463195e+00 9.799783e-01 8.846434e-01 7.381772e-01 9.933704e-01 4.929208e-02 7.249992e-02 9.722087e-02 9.242938e-02 1.429094e-01 7.541631e-02 1.010877e-01 1.055995e-01 1.276329e-01 9.308059e-02 8.367073e-02 7.424349e-02 9.480789e-02
<GCONST> 8.720241e+01
<TRANSP> 5
 0.000000e+00 1.000000e+00 0.000000e+00 0.000000e+00 0.000000e+00
 0.000000e+00 7.392824e-01 2.607175e-01 0.000000e+00 0.000000e+00
 0.000000e+00 0.000000e+00 5.926657e-01 4.073343e-01 0.000000e+00
 0.000000e+00 0.000000e+00 0.000000e+00 6.858420e-01 3.141580e-01
 0.000000e+00 0.000000e+00 0.000000e+00 0.000000e+00 0.000000e+00
<ENDHMM>
~h "h"
<BEGINHMM>
<NUMSTATES> 5
<STATE> 2
<MEAN> 39
 6.421064e+00 3.371563e+00 -6.735741e+00 -8.144064e+00 1.682144e+00 1.657425e+00 -1.941839e+00 -2.263340e+00 -3.633942e+00 1.215525e-01 7.461236e-01 2.508509e+00 6.400650e+00 3.250718e-01 7.966973e-02 4.381718e-02 -5.581496e-02 7.841767e-02 5.217439e-02 1.687362e-01 2.815938e-02 -8.241703e-02 -1.136404e-01 -1.480679e-01 -4.208360e-02 -2.480127e-01 -1.970465e-02 -5.434896e-02 5.198465e-02 7.957137e-02 -5.497631e-02 -3.066325e-02 5.023694e-02 4.445753e-02 5.391655e-02 -3.239161e-02 -4.748291e-02 -5.228326e-02 -2.203120e-02
<VARIANCE> 39
 3.634907e+01 5.358427e+01 5.964863e+01 8.555339e+01 4.716104e+01 3.181869e+01 5.340409e+01 2.726852e+01 2.595724e+01 3.547720e+01 3.319241e+01 2.937307e+01 6.246309e+01 5.733755e-01 5.370539e-01 6.095384e-01 1.361378e+00 8.419274e-01 7.807594e-01 1.180897e+00 5.209457e-01 6.587344e-01 5.522627e-01 6.386022e-01 6.754670e-01 8.221630e-01 5.279445e-02 6.048289e-02 5.694079e-02 1.547911e-01 1.020075e-01 8.727869e-02 1.012697e-01 4.748501e-02 8.165367e-02 5.767326e-02 8.865078e-02 6.458453e-02 5.580259e-02
<GCONST> 8.196735e+01
<STATE> 3
<MEAN> 39
 5.677651e+00 -9.016623e-01 -4.038006e+00 -1.098725e+00 3.554736e+00 5.664304e-01 -1.884010e+00 -2.075191e+00 -4.086593e+00 -1.949612e+00 -1.120810e+00 -3.049473e+00 1.610863e+00 -3.206244e-01 -1.012719e-01 2.261261e-02 4.066052e-01 4.964875e-01 2.859150e-01 4.252194e-01 4.049509e-01 2.453092e-01 -2.772650e-01 -8.328886e-02 -1.582900e-01 -5.151367e-01 -4.965081e-02 -4.597595e-02 3.944368e-02 -1.369760e-02 -4.369108e-02 3.995075e-02 -2.627524e-02 5.772627e-02 -1.202216e-02 -1.311538e-02 1.168387e-02 9.826873e-02 7.961030e-02
<VARIANCE> 39
 2.936781e+01 6.197182e+01 5.170747e+01 6.983701e+01 4.439215e+01 3.223507e+01 5.216983e+01 3.325592e+01 5.577509e+01 5.818807e+01 4.113040e+01 3.255479e+01 5.228205e+01 3.646401e-01 9.880574e-01 8.576560e-01 8.452300e-01 5.735723e-01 4.813208e-01 6.899875e-01 7.243639e-01 9.883507e-01 8.089998e-01 8.123546e-01 8.914165e-01 4.064559e-01 3.503646e-02 5.322295e-02 8.153532e-02 8.192695e-02 1.134921e-01 6.475836e-02 6.782473e-02 6.912855e-02 1.240368e-01 9.407589e-02 9.979258e-02 8.566738e-02 2.221705e-02
<GCONST> 8.198314e+01
<STATE> 4
<MEAN> 39
 1.890234e-01 1.314973e+00 -2.417514e+00 -1.018139e-01 3.447365e+00 2.094435e+00 -1.641799e-02 -1.230452e+00 -3.180553e+00 -2.283448e+00 -9.998997e-01 6.692525e-01 -2.279637e+00 -1.323651e-01 -1.149414e-01 -3.759198e-02 9.396247e-02 9.177460e-02 1.184098e-01 4.788468e-02 9.366766e-02 3.024857e-02 -6.266066e-02 2.985029e-02 4.632057e-02 -8.365846e-02 2.158173e-02 -2.388344e-02 3.209284e-02 -3.129892e-02 -3.775161e-02 5.321144e-04 -2.839451e-02 -1.586364e-02 5.690389e-03 2.389748e-02 7.456995e-03 -1.328411e-02 5.588289e-02
<VARIANCE> 39
 2.058092e+01 2.304878e+01 3.876743e+01 3.236326e+01 2.954486e+01 2.440842e+01 2.977950e+01 2.496975e+01 3.892844e+01 3.497477e+01 2.393206e+01 1.805619e+01 3.589040e+01 2.221920e-01 3.025125e-01 4.103731e-01 5.767254e-01 4.617855e-01 3.741836e-01 4.673633e-01 4.411308e-01 4.950328e-01 5.588319e-01 5.751119e-01 4.508138e-01 1.896594e-01 1.651459e-02 3.190801e-02 4.255465e-02 6.310949e-02 6.166206e-02 4.081177e-02 6.276463e-02 5.080901e-02 4.922211e-02 6.299154e-02 5.933565e-02 4.120577e-02 1.574352e-02
<GCONST> 6.211613e+01
<TRANSP> 5
 0.000000e+00 1.000000e+00 0.000000e+00 0.000000e+00 0.000000e+00
 0.000000e+00 6.539913e-01 3.460086e-01 0.000000e+00 0.000000e+00
 0.000000e+00 0.000000e+00 5.731397e-01 4.268603e-01 0.000000e+00
 0.000000e+00 0.000000e+00 0.000000e+00 8.520688e-01 1.479312e-01
 0.000000e+00 0.000000e+00 0.000000e+00 0.000000e+00 0.000000e+00
<ENDHMM>
~h "i"
<BEGINHMM>
<NUMSTATES> 5
<STATE> 2
<MEAN> 39
 -1.009223e+00 5.064259e+00 1.031270e+01 -4.435347e+00 -5.189758e+00 -1.032177e+00 -2.767502e+00 -6.262918e+00 -9.453863e-02 1.606788e+00 -9.083894e-01 7.131201e-01 5.828557e+00 -1.992117e-01 6.075946e-01 1.299230e+00 -1.187899e+00 -8.127937e-01 -1.171137e-01 -6.353204e-01 -7.456097e-01 -1.861290e-01 2.343365e-01 -2.800263e-01 3.629088e-01 9.077551e-01 4.842693e-02 -2.429544e-02 -1.581858e-01 1.258855e-01 9.771270e-02 -1.574616e-02 6.860775e-02 1.414215e-01 -2.226269e-02 -4.752537e-02 2.251605e-02 -1.568347e-02 -1.256215e-01
<VARIANCE> 39
 3.877696e+01 5.797789e+01 6.930790e+01 8.674498e+01 7.382336e+01 5.734181e+01 6.942454e+01 6.795911e+01 7.380705e+01 5.171739e+01 4.995766e+01 4.028252e+01 5.740207e+01 1.688165e+00 1.748099e+00 2.164210e+00 2.529526e+00 2.095297e+00 1.714157e+00 2.213060e+00 1.999996e+00 2.480774e+00 1.755113e+00 1.591036e+00 1.460239e+00 1.643620e+00 1.455399e-01 1.703933e-01 2.436662e-01 3.174644e-01 2.520601e-01 1.944570e-01 2.107295e-01 2.287307e-01 2.354156e-01 1.913381e-01 1.664341e-01 1.477742e-01 1.771474e-01
<GCONST> 1.123298e+02
<STATE> 3
<MEAN> 39
 -1.417202e+00 7.183657e+00 1.367057e+01 -8.091596e+00 -8.387930e+00 -2.313745e+00 -4.054076e+00 -6.957292e+00 -1.859955e+00 2.278865e+00 -7.109431e-01 2.301065e+00 8.085022e+00 3.340586e-01 1.268294e-01 -2.302357e-01 7.881489e-01 7.928155e-02 -6.940847e-02 2.525834e-01 1.675219e-01 -2.058444e-01 -6.004121e-02 2.231300e-01 -2.745274e-01 -6.613237e-01 -2.219709e-02 -7.386113e-02 -2.976336e-01 3.518958e-01 2.630711e-01 4.769779e-02 1.579762e-01 1.192316e-01 4.262323e-02 -8.237165e-02 2.768817e-02 -1.202939e-01 -2.476636e-01
<VARIANCE> 39
 2.811603e+01 6.375568e+01 4.370714e+01 7.720197e+01 5.098239e+01 5.009526e+01 6.899604e+01 7.221617e+01 7.644987e+01 5.256688e+01 5.593938e+01 3.539732e+01 3.663466e+01 8.231417e-01 1.046423e+00 1.062421e+00 1.747147e+00 1.240442e+00 1.257706e+00 1.302877e+00 1.342074e+00 1.212358e+00 1.146543e+00 9.339521e-01 7.546880e-01 9.822563e-01 1.211265e-01 1.222804e-01 1.254984e-01 1.800100e-01 1.700395e-01 1.499866e-01 1.769963e-01 1.799268e-01 1.899073e-01 1.586810e-01 1.659991e-01 1.229212e-01 7.493533e-02
<GCONST> 9.947321e+01
<STATE> 4
<MEAN> 39
 8.485766e-02 4.145885e+00 9.153194e+00 1.971895e+00 -3.445253e+00 -1.416866e+00 -7.867823e-01 -4.645513e+00 -4.706353e+00 -3.160440e-01 9.778711e-01 -5.445728e-01 1.702439e-01 -1.905266e-01 -1.197392e-01 -6.687818e-01 5.288021e-01 6.097927e-01 1.323536e-01 3.315715e-01 1.626440e-01 1.169568e-01 -1.246751e-01 -3.856668e-02 -1.228872e-02 -6.247867e-01 -7.716061e-02 -3.617404e-02 -6.197669e-02 -1.080531e-01 2.452296e-02 -7.239221e-03 -2.893503e-02 2.376541e-02 6.208182e-02 2.321305e-02 1.786312e-02 3.811080e-02 7.666531e-02
<VARIANCE> 39
 2.842964e+01 3.169023e+01 5.217003e+01 4.281178e+01 4.161717e+01 3.751650e+01 4.748759e+01 3.881017e+01 4.871030e+01 3.501213e+01 3.207882e+01 2.596274e+01 6.241312e+01 7.646582e-01 9.219669e-01 9.372326e-01 1.187644e+00 9.899849e-01 9.663045e-01 9.455724e-01 8.982244e-01 1.035997e+00 7.793406e-01 7.226765e-01 6.094952e-01 7.026037e-01 6.430148e-02 6.595452e-02 9.379636e-02 8.388573e-02 1.030682e-01 9.436035e-02 1.077681e-01 1.030626e-01 1.123142e-01 8.991623e-02 7.731247e-02 6.708546e-02 6.440166e-02
<GCONST> 8.548703e+01
<TRANSP> 5
 0.000000e+00 1.000000e+00 0.000000e+00 0.000000e+00 0.000000e+00
 0.000000e+00 6.830604e-01 3.169396e-01 0.000000e+00 0.000000e+00
 0.000000e+00 0.000000e+00 7.064571e-01 2.935429e-01 0.000000e+00
 0.000000e+00 0.000000e+00 0.000000e+00 7.530137e-01 2.469863e-01
 0.000000e+00 0.000000e+00 0.000000e+00 0.000000e+00 0.000000e+00
<ENDHMM>
~h "j"
<BEGINHMM>
<NUMSTATES> 5
<STATE> 2
<MEAN> 39
 2.316324e+00 -3.177359e+00 1.366203e-01 -8.175902e-01 -1.824692e+00 -2.879871e+00 3.856950e+00 4.088978e+00 -6.452469e-01 -1.667232e+00 -2.848170e+00 2.707136e-01 7.779736e+00 -2.890708e-01 1.015381e+00 2.380090e-01 6.257616e-01 6.082980e-01 4.004866e-01 2.902017e-01 -3.225451e-01 -3.530844e-01 1.454150e-02 5.412848e-01 -3.351552e-01 -1.245169e+00 -2.222578e-01 -6.139760e-04 -1.806128e-01 -9.972221e-02 2.140557e-01 1.933102e-01 -2.418108e-02 7.387068e-02 8.499852e-02 -6.740429e-02 -1.521049e-02 -1.126422e-01 7.845350e-02
<VARIANCE> 39
 1.723887e+01 2.160818e+01 2.663638e+01 2.889782e+01 3.085404e+01 2.860179e+01 3.316768e+01 4.041003e+01 5.151315e+01 3.197851e+01 2.402770e+01 2.316537e+01 4.400048e+01 1.024995e+00 8.460149e-01 7.448841e-01 1.171135e+00 9.218093e-01 8.588433e-01 8.939077e-01 9.924718e-01 1.191307e+00 8.593300e-01 8.146445e-01 6.326994e-01 4.557633e-01 1.243037e-01 7.644886e-02 6.599910e-02 1.272755e-01 1.351121e-01 1.345510e-01 1.036850e-01 9.257024e-02 8.241817e-02 8.566929e-02 1.208460e-01 9.573222e-02 7.572953e-02
<GCONST> 8.359983e+01
<STATE> 3
<MEAN> 39
 -3.219771e+00 2.847830e+00 -1.056263e+00 2.082132e-01 3.631971e+00 1.189941e+00 4.670995e+00 4.078609e+00 -7.117124e-01 -1.857225e+00 -1.044844e+00 -2.745512e+00 4.123482e+00 -2.121181e+00 1.113831e+00 4.752031e-01 -7.795819e-01 3.246710e-01 -7.394652e-02 -5.313305e-02 1.188621e-01 -2.184802e-01 2.659024e-01 8.422853e-01 -2.841005e-01 4.726002e-01 9.018978e-02 -2.069855e-01 3.002502e-01 -2.435775e-01 -4.773263e-01 -3.043226e-01 -1.062065e-01 -3.905830e-02 -6.557864e-02 1.074547e-01 7.319549e-02 1.385308e-01 3.746976e-01
<VARIANCE> 39
 8.249687e+01 4.574202e+01 3.712103e+01 4.966479e+01 3.262076e+01 3.240405e+01 4.044478e+01 3.621706e+01 3.953596e+01 3.062750e+01 2.722821e+01 2.385602e+01 3.376409e+01 2.006672e+00 1.316921e+00 1.322225e+00 1.284301e+00 1.296967e+00 1.308825e+00 1.329939e+00 1.071354e+00 7.674066e-01 1.008345e+00 1.138225e+00 8.293893e-01 9.236715e-01 5.523733e-01 2.113052e-01 9.806968e-02 2.463419e-01 1.681534e-01 1.399137e-01 1.477151e-01 1.466281e-01 1.467239e-01 9.911951e-02 1.287154e-01 1.008478e-01 7.340591e-02
<GCONST> 9.613136e+01
<STATE> 4
<MEAN> 39
 -8.365389e+00 4.470693e+00 6.558071e+00 -5.192305e+00 -3.501436e+00 -3.892334e+00 3.318861e+00 1.955589e+00 -3.264818e+00 2.675838e-01 4.604216e+00 -2.124873e+00 1.028760e+01 1.227210e+00 -9.268762e-01 5.982518e-01 -3.734777e-01 -1.886550e+00 -9.097887e-01 -3.106309e-01 1.568949e-01 1.328872e-01 2.386316e-01 1.719026e-01 4.632741e-01 8.506448e-01 4.637091e-01 -2.709234e-01 -2.651667e-01 1.793766e-01 5.689861e-02 8.138052e-02 -2.474733e-02 1.266078e-01 1.340022e-01 -7.180459e-02 -3.180044e-01 3.883477e-02 -1.064116e-01
<VARIANCE> 39
 6.001460e+01 4.265233e+01 2.617542e+01 2.216244e+01 6.715693e+01 4.174627e+01 5.177315e+01 3.626398e+01 4.115554e+01 3.797604e+01 3.358070e+01 3.948087e+01 3.541264e+01 1.833457e+00 1.766022e+00 1.482482e+00 1.203068e+00 1.207934e+00 9.167157e-01 1.345378e+00 1.771434e+00 1.495852e+00 8.795952e-01 1.522229e+00 5.949777e-01 3.469545e-01 3.884040e-01 2.154411e-01 1.125939e-01 1.030234e-01 3.866824e-01 1.366612e-01 1.413646e-01 1.510441e-01 9.418993e-02 1.362977e-01 1.330025e-01 1.086646e-01 4.582502e-02
<GCONST> 9.591663e+01
<TRANSP> 5
 0.000000e+00 1.000000e+00 0.000000e+00 0.000000e+00 0.000000e+00
 0.000000e+00 7.521055e-01 2.478945e-01 0.000000e+00 0.000000e+00
 0.000000e+00 0.000000e+00 7.660831e-01 2.339169e-01 0.000000e+00
 0.000000e+00 0.000000e+00 0.000000e+00 7.984174e-01 2.015826e-01
 0.000000e+00 0.000000e+00 0.000000e+00 0.000000e+00 0.000000e+00
<ENDHMM>
~h "k"
<BEGINHMM>
<NUMSTATES> 5
<STATE> 2
<MEAN> 39
 -1.106875e-01 1.544296e+00 2.744759e+00 3.213040e+00 -3.039726e+00 -2.639620e+00 -1.758859e-01 -3.773398e+00 -1.072633e+00 2.120355e+00 7.986137e-01 -1.028823e-01 -4.135630e+00 -1.170729e-01 -8.684869e-01 -1.485530e+00 3.172390e-01 1.037748e+00 -3.151493e-04 1.070419e-01 4.124998e-01 3.146185e-01 2.110095e-01 2.044384e-01 7.203411e-02 -2.770906e-01 6.501728e-03 -8.804618e-02 -1.815172e-01 -2.588191e-01 8.509049e-02 -5.990793e-03 -3.408919e-02 1.399843e-01 6.949423e-02 1.160008e-02 -2.639360e-02 -1.302028e-02 4.424043e-01
<VARIANCE> 39
 2.510906e+01 4.203047e+01 6.310109e+01 5.019960e+01 9.087687e+01 5.918718e+01 5.280524e+01 5.227482e+01 5.610811e+01 5.292618e+01 3.442040e+01 2.613682e+01 2.705497e+01 7.742304e-01 1.415605e+00 1.652689e+00 2.085747e+00 1.763923e+00 2.370098e+00 1.826169e+00 1.742221e+00 1.452712e+00 1.368711e+00 1.283484e+00 6.626557e-01 1.663265e+00 1.097051e-01 1.592852e-01 1.848448e-01 1.586401e-01 2.225398e-01 2.819263e-01 1.769852e-01 1.797152e-01 1.573181e-01 1.801841e-01 1.288035e-01 1.024393e-01 1.190475e-01
<GCONST> 1.024475e+02
<STATE> 3
<MEAN> 39
 -2.698825e+00 -6.723540e+00 -8.002072e+00 4.238447e+00 6.223481e+00 -2.819195e+00 1.274706e+00 2.729662e+00 2.038682e+00 3.322465e+00 1.172004e+00 3.046429e-01 -6.948677e-01 3.049427e-01 -4.414751e-01 -1.153116e+00 -7.838390e-01 4.778908e-01 6.342316e-02 3.536195e-04 4.595540e-01 4.009991e-01 -7.072651e-02 -1.723513e-01 -1.570375e-01 1.532032e+00 3.031918e-01 3.244878e-01 3.716581e-01 -3.258437e-01 -4.648712e-01 1.307800e-01 -8.303999e-02 -2.110884e-01 -9.265713e-02 -1.055694e-01 -1.125088e-01 -8.392162e-02 2.178524e-01
<VARIANCE> 39
 3.827609e+01 4.429921e+01 9.752048e+01 7.190691e+01 7.459069e+01 9.934386e+01 7.452013e+01 5.773487e+01 6.551671e+01 4.353849e+01 5.680792e+01 2.395216e+01 1.251332e+02 1.467196e+00 1.697399e+00 2.108817e+00 1.727612e+00 2.385195e+00 3.077817e+00 1.838932e+00 1.825555e+00 1.998587e+00 1.959515e+00 1.332576e+00 9.492378e-01 3.065320e+00 1.112484e-01 2.118268e-01 2.139019e-01 2.554805e-01 2.404781e-01 3.211187e-01 2.202883e-01 2.018279e-01 2.070871e-01 1.653009e-01 1.878074e-01 9.867622e-02 3.094783e-01
<GCONST> 1.125125e+02
<STATE> 4
<MEAN> 39
 2.510925e+00 -1.707991e+00 -7.932317e+00 -2.149472e+00 2.611171e+00 -6.961100e-01 1.064668e+00 3.010271e-01 1.180928e+00 1.979439e+00 3.441099e-01 -1.257756e+00 3.282550e+00 1.211654e+00 6.197187e-01 7.425565e-02 -1.258944e+00 -8.222303e-01 3.982837e-01 -3.894640e-01 -2.922076e-01 3.125850e-02 -2.747405e-01 -2.530813e-01 -1.585797e-01 1.356109e+00 9.737688e-02 1.109158e-01 3.349069e-01 7.699487e-02 -2.265749e-01 4.250842e-02 -9.800296e-02 -1.127434e-01 -6.535108e-02 -1.508171e-02 3.731569e-03 5.016974e-02 -1.162758e-01
<VARIANCE> 39
 4.380108e+01 3.869078e+01 7.223560e+01 6.029301e+01 9.003732e+01 6.475793e+01 5.653005e+01 5.691003e+01 6.347606e+01 5.632904e+01 4.735883e+01 3.019490e+01 5.273667e+01 9.357262e-01 1.917094e+00 1.733349e+00 1.422703e+00 2.433158e+00 2.235102e+00 1.895904e+00 2.333997e+00 2.583875e+00 1.645047e+00 1.537467e+00 1.148425e+00 1.122404e+00 1.387376e-01 1.603315e-01 1.770892e-01 1.568717e-01 2.618356e-01 2.810604e-01 2.593310e-01 2.472749e-01 1.934849e-01 2.273635e-01 1.843701e-01 1.200125e-01 1.708866e-01
<GCONST> 1.090034e+02
<TRANSP> 5
 0.000000e+00 1.000000e+00 0.000000e+00 0.000000e+00 0.000000e+00
 0.000000e+00 7.394866e-01 2.605133e-01 0.000000e+00 0.000000e+00
 0.000000e+00 0.000000e+00 5.919462e-01 4.080538e-01 0.000000e+00
 0.000000e+00 0.000000e+00 0.000000e+00 4.876534e-01 5.123466e-01
 0.000000e+00 0.000000e+00 0.000000e+00 0.000000e+00 0.000000e+00
<ENDHMM>
~h "l"
<BEGINHMM>
<NUMSTATES> 5
<STATE> 2
<MEAN> 39
 5.379074e+00 -4.901835e+00 -1.435114e+00 -4.927010e+00 1.112174e+00 4.356322e+00 -7.359492e+00 -1.966231e-01 9.730752e+00 4.642840e-01 -4.965963e+00 -2.684311e+00 8.322865e+00 1.577230e-01 3.206427e-01 6.700312e-01 2.301252e-01 -2.846394e-01 -4.390303e-01 -7.719462e-01 -6.909966e-03 2.181089e-02 2.397061e-01 1.643292e-01 1.144017e-01 2.686019e-01 -1.156189e-02 4.181192e-02 -9.634186e-02 -3.497927e-02 -1.589709e-02 7.515824e-03 1.326840e-01 4.233454e-02 -1.047087e-01 2.381345e-02 9.078666e-02 -1.161409e-02 -4.162770e-02
<VARIANCE> 39
 5.472472e+01 7.009880e+01 7.632204e+01 4.525785e+01 5.853439e+01 1.232540e+02 6.447773e+01 5.535207e+01 1.744595e+02 5.659595e+01 4.912223e+01 2.697071e+01 2.104930e+02 1.135328e+00 1.827552e+00 2.049561e+00 1.128785e+00 1.299916e+00 2.872933e+00 1.467394e+00 1.614631e+00 3.604152e+00 1.258447e+00 1.404776e+00 8.699345e-01 4.606434e+00 1.426513e-01 1.818501e-01 2.265928e-01 1.253481e-01 1.774414e-01 4.054955e-01 1.431666e-01 3.052946e-01 3.677015e-01 1.321920e-01 1.378980e-01 1.097699e-01 4.149760e-01
<GCONST> 1.127963e+02
<STATE> 3
<MEAN> 39
 3.055604e+00 -1.190823e+00 3.699380e+00 -4.185985e+00 -3.762866e+00 -2.367939e+00 -8.883164e+00 1.843652e-01 1.156589e+00 -5.589037e+00 -2.309195e+00 1.648292e+00 8.325837e+00 -6.413928e-02 2.472600e-01 4.030164e-01 -9.918734e-02 -3.415349e-01 4.440341e-03 -2.628808e-01 2.566651e-02 -1.844403e-01 1.190599e-01 2.423030e-01 1.178539e-01 -1.850684e-01 -5.727156e-02 -2.108990e-01 -4.023852e-01 -3.880655e-02 6.095888e-02 5.329728e-03 5.837357e-01 1.487125e-01 -2.747723e-02 1.849574e-01 -7.265899e-02 -1.553699e-01 1.587234e-01
<VARIANCE> 39
 1.256390e+01 2.325752e+01 4.069744e+01 3.310525e+01 3.431791e+01 3.953013e+01 4.854477e+01 6.494764e+01 5.958008e+01 6.265319e+01 3.145432e+01 4.223835e+01 3.320668e+01 4.378648e-01 1.083860e+00 1.976926e+00 7.515066e-01 1.076550e+00 1.234740e+00 3.558416e+00 1.573776e+00 1.271874e+00 1.027424e+00 1.024116e+00 9.970325e-01 7.339369e-01 4.447294e-02 1.557170e-01 1.244811e-01 1.091579e-01 1.437222e-01 1.991652e-01 3.485240e-01 2.409346e-01 1.921214e-01 1.487426e-01 9.388584e-02 1.422360e-01 1.005761e-01
<GCONST> 9.491603e+01
<STATE> 4
<MEAN> 39
 3.249132e+00 -1.441055e+00 3.502606e-01 -1.739428e+00 -5.550129e+00 -2.983677e+00 -3.854547e+00 -1.026060e+00 1.133293e+00 -2.330193e+00 -2.662066e+00 -2.059099e-01 9.366879e+00 -2.166691e-01 -8.646841e-02 -2.644202e-01 -1.150272e-01 6.276477e-03 1.175558e-01 6.973181e-01 3.026677e-01 -2.320723e-01 5.928736e-01 2.165391e-01 -2.295826e-01 -6.346981e-02 -3.953131e-02 3.769562e-02 -5.014535e-02 -3.536053e-02 1.337325e-01 5.530296e-02 6.155547e-02 4.954826e-03 -1.563317e-02 3.726505e-03 7.399754e-03 -5.283097e-03 -6.789924e-03
<VARIANCE> 39
 3.998074e+01 4.276506e+01 4.584111e+01 4.601038e+01 4.397456e+01 2.835657e+01 5.482620e+01 5.452968e+01 7.930984e+01 6.569645e+01 3.182590e+01 3.525323e+01 3.814837e+01 1.082610e+00 9.869764e-01 1.300058e+00 1.153851e+00 1.293376e+00 1.271404e+00 1.945176e+00 1.399986e+00 1.203907e+00 1.014758e+00 7.036958e-01 6.066198e-01 6.164228e-01 7.171772e-02 7.741994e-02 8.151152e-02 1.030815e-01 1.175490e-01 1.045148e-01 1.507600e-01 1.158019e-01 1.644098e-01 1.131117e-01 7.021055e-02 7.161901e-02 5.703446e-02
<GCONST> 9.140401e+01
<TRANSP> 5
 0.000000e+00 1.000000e+00 0.000000e+00 0.000000e+00 0.000000e+00
 0.000000e+00 5.504428e-01 4.495573e-01 0.000000e+00 0.000000e+00
 0.000000e+00 0.000000e+00 5.717374e-01 4.282626e-01 0.000000e+00
 0.000000e+00 0.000000e+00 0.000000e+00 6.565822e-01 3.434178e-01
 0.000000e+00 0.000000e+00 0.000000e+00 0.000000e+00 0.000000e+00
<ENDHMM>
~h "m"
<BEGINHMM>
<NUMSTATES> 5
<STATE> 2
<MEAN> 39
 7.236410e+00 2.956213e+00 2.985028e+00 2.951233e+00 1.853797e+00 2.043986e+00 -2.638875e+00 -6.487279e+00 -4.136694e+00 -2.769800e-01 -5.326900e-01 -1.484069e+00 2.395633e+00 5.507043e-01 -2.351045e-01 -4.370229e-01 9.904927e-02 5.031520e-01 1.707748e-01 -3.406740e-01 -8.296268e-02 4.255962e-01 3.531221e-01 -3.050339e-02 -4.428199e-01 3.892826e-01 -5.495953e-02 -2.656113e-01 -2.511533e-01 -2.385587e-01 -6.188454e-03 -2.820432e-02 -2.231074e-02 2.940772e-01 2.416864e-01 8.975763e-03 -8.897170e-02 -1.034779e-01 2.055045e-01
<VARIANCE> 39
 2.351009e+01 3.660981e+01 4.850176e+01 6.397496e+01 6.962123e+01 4.325886e+01 5.163918e+01 4.160625e+01 5.194390e+01 3.520967e+01 3.915758e+01 2.334923e+01 3.222763e+01 6.611677e-01 1.363971e+00 2.323185e+00 2.505685e+00 1.576230e+00 1.205210e+00 1.198357e+00 1.499063e+00 2.136136e+00 1.070643e+00 8.562146e-01 1.001340e+00 1.407836e+00 7.138769e-02 1.255995e-01 1.522003e-01 2.117214e-01 2.031604e-01 1.317532e-01 1.630787e-01 2.057542e-01 1.595561e-01 1.319716e-01 1.221043e-01 1.058250e-01 7.923713e-02
<GCONST> 9.795218e+01
<STATE> 3
<MEAN> 39
 8.848372e+00 -2.205379e+00 -2.026260e+00 1.688463e+00 4.474123e+00 9.194106e-01 -7.603951e+00 -4.218828e+00 -1.866488e+00 1.889777e+00 -1.813436e+00 -6.685171e+00 5.829650e+00 6.544548e-03 -9.573547e-01 -8.636327e-01 -4.578418e-01 3.201176e-01 8.932997e-02 2.949888e-02 1.192181e+00 5.836030e-01 -5.678791e-01 -2.879134e-01 -1.823796e-01 7.878123e-01 -2.085777e-01 -2.272198e-02 6.406666e-02 -1.308829e-01 -1.554397e-01 -4.462523e-02 2.671241e-01 2.726007e-01 -8.660728e-02 -3.368450e-01 -7.564449e-02 2.838228e-01 8.253074e-02
<VARIANCE> 39
 1.833022e+01 2.873647e+01 4.507581e+01 5.230174e+01 3.535663e+01 5.459466e+01 4.422386e+01 4.644425e+01 6.606782e+01 5.604814e+01 3.330541e+01 3.305517e+01 2.613981e+01 4.784057e-01 1.432408e+00 1.316784e+00 1.463816e+00 1.468602e+00 1.176515e+00 1.624882e+00 2.018400e+00 1.864044e+00 1.986403e+00 1.236977e+00 1.148987e+00 9.426949e-01 5.281961e-02 1.102388e-01 2.051885e-01 2.266577e-01 1.208399e-01 1.243981e-01 1.706245e-01 2.040882e-01 1.515540e-01 2.274733e-01 1.005089e-01 1.185981e-01 8.007222e-02
<GCONST> 9.690997e+01
<STATE> 4
<MEAN> 39
 6.819465e+00 -5.899921e+00 -5.897021e+00 6.275508e-01 6.123753e+00 9.622549e-01 -3.022781e+00 1.226415e+00 -8.234351e-01 -4.725672e+00 -5.630435e+00 -1.834734e+00 1.087082e+01 -5.394843e-01 -2.410655e-01 1.935291e-02 -5.295132e-01 -3.036909e-01 -8.356780e-02 6.441391e-01 7.183478e-01 -1.643491e-01 -5.124030e-01 -1.120220e-01 4.449301e-01 3.933342e-01 -4.516269e-02 2.001659e-01 1.701270e-01 1.837665e-02 -7.447308e-02 -2.186578e-02 5.546717e-02 -2.207924e-01 -1.089310e-01 1.042952e-01 7.851708e-02 3.947558e-02 -1.486559e-01
<VARIANCE> 39
 2.682235e+01 5.330383e+01 5.890509e+01 5.447759e+01 5.302027e+01 5.962285e+01 5.836511e+01 6.899377e+01 8.766720e+01 5.631318e+01 4.055710e+01 3.221928e+01 7.082080e+01 1.041086e+00 1.384956e+00 1.877445e+00 1.724188e+00 1.459721e+00 1.375518e+00 1.698488e+00 1.931583e+00 1.863435e+00 1.775645e+00 1.174354e+00 1.122226e+00 1.601125e+00 7.747882e-02 1.512966e-01 1.798801e-01 1.859544e-01 1.585492e-01 1.462632e-01 1.461502e-01 2.324090e-01 2.053554e-01 1.971481e-01 1.221792e-01 1.135815e-01 1.278287e-01
<GCONST> 1.041528e+02
<TRANSP> 5
 0.000000e+00 1.000000e+00 0.000000e+00 0.000000e+00 0.000000e+00
 0.000000e+00 6.679133e-01 3.320868e-01 0.000000e+00 0.000000e+00
 0.000000e+00 0.000000e+00 6.334615e-01 3.665384e-01 0.000000e+00
 0.000000e+00 0.000000e+00 0.000000e+00 6.561410e-01 3.438590e-01
 0.000000e+00 0.000000e+00 0.000000e+00 0.000000e+00 0.000000e+00
<ENDHMM>
~h "n"
<BEGINHMM>
<NUMSTATES> 5
<STATE> 2
<MEAN> 39
 3.170030e+00 -1.820764e+00 9.672872e-01 -3.506228e-01 -5.000022e-02 -3.738804e+00 -6.197917e-01 2.050056e+00 -3.089456e+00 -3.297021e+00 -3.233673e+00 5.508189e-02 9.203801e+00 4.432663e-01 7.608162e-01 7.170737e-01 9.830842e-01 -4.519128e-01 -3.240983e-01 1.580368e-01 -6.308295e-01 -3.922925e-01 9.732804e-02 -7.693045e-02 1.838568e-01 -9.272199e-01 7.095858e-02 2.954577e-03 -4.683045e-02 -3.571113e-02 -4.675571e-02 5.847459e-02 -4.492508e-02 -7.745825e-02 9.268752e-02 8.789624e-02 -6.869549e-03 -3.694728e-02 -3.029158e-02
<VARIANCE> 39
 2.030705e+01 3.004822e+01 4.660834e+01 3.983646e+01 4.809818e+01 5.487768e+01 5.016860e+01 5.217719e+01 6.189861e+01 6.057988e+01 3.625547e+01 2.881686e+01 4.683925e+01 6.190146e-01 6.153786e-01 1.059842e+00 8.812373e-01 1.213585e+00 1.188149e+00 1.138327e+00 1.244740e+00 1.367409e+00 1.677565e+00 1.031836e+00 1.021590e+00 5.611246e-01 4.562377e-02 6.357449e-02 7.670422e-02 9.552354e-02 1.041845e-01 1.110440e-01 1.048167e-01 1.225645e-01 1.378479e-01 1.305246e-01 1.040191e-01 9.869219e-02 5.129434e-02
<GCONST> 8.923978e+01
<STATE> 3
<MEAN> 39
 7.053877e+00 7.957030e-01 3.419244e+00 4.577257e+00 -3.028796e+00 -4.496740e+00 1.324902e+00 -1.475774e+00 -3.535249e+00 -1.060228e+00 -3.807222e+00 1.085368e+00 5.182001e+00 3.275013e-01 4.172333e-01 2.618876e-01 4.177944e-01 -1.323946e-01 7.931870e-02 -3.019994e-02 -4.383256e-01 -8.287732e-02 2.791537e-02 4.207653e-02 -7.063478e-02 -6.393526e-01 -1.489657e-01 -1.644680e-01 -1.959745e-01 -2.843013e-01 1.413778e-01 1.277128e-01 -4.865849e-02 1.834833e-01 8.211286e-02 -8.337405e-02 4.739340e-02 -7.966095e-02 1.946522e-01
<VARIANCE> 39
 2.052256e+01 3.154349e+01 2.912910e+01 3.212160e+01 3.978455e+01 5.139380e+01 5.236678e+01 4.700784e+01 5.426688e+01 3.807092e+01 3.839877e+01 3.504624e+01 2.824992e+01 4.970549e-01 9.337814e-01 1.205754e+00 9.541594e-01 9.872424e-01 9.790109e-01 9.982687e-01 1.205938e+00 1.156086e+00 1.039482e+00 7.435793e-01 7.786065e-01 5.943344e-01 5.076754e-02 9.085929e-02 8.683741e-02 1.090983e-01 1.172822e-01 1.363368e-01 1.344018e-01 1.494230e-01 1.407939e-01 1.324507e-01 1.021546e-01 9.759308e-02 5.513071e-02
<GCONST> 8.767297e+01
<STATE> 4
<MEAN> 39
 3.587637e+00 1.308331e+00 1.497528e+00 1.280366e+00 -7.263919e-01 -1.145294e+00 -1.719706e+00 -2.571169e+00 -1.983135e+00 -3.421827e+00 -3.894360e+00 -1.284341e+00 2.117781e+00 -5.394862e-02 1.115423e-01 3.433458e-03 1.832294e-02 8.004397e-02 5.726838e-03 -9.551279e-03 -3.208313e-02 -4.151779e-02 -1.064004e-02 9.339894e-02 -2.076995e-02 -1.592525e-01 -3.058258e-02 -8.192476e-02 -3.058402e-02 -7.796447e-02 2.679950e-02 9.604088e-03 9.184593e-03 7.959235e-02 -1.012738e-03 4.395920e-02 3.932092e-02 -1.047587e-02 6.833705e-02
<VARIANCE> 39
 1.527765e+01 2.336375e+01 2.542707e+01 2.303661e+01 3.004893e+01 3.252072e+01 2.962744e+01 2.747904e+01 4.076184e+01 3.348505e+01 2.497097e+01 1.974146e+01 2.327195e+01 1.898492e-01 5.731439e-01 5.232527e-01 5.676889e-01 6.270109e-01 6.220362e-01 6.282357e-01 7.369624e-01 6.415424e-01 7.066740e-01 5.433002e-01 4.602894e-01 3.168430e-01 2.183906e-02 5.502516e-02 4.406108e-02 6.283122e-02 6.811601e-02 7.364473e-02 7.194357e-02 7.873897e-02 8.181861e-02 8.461293e-02 6.407671e-02 5.824311e-02 2.639230e-02
<GCONST> 6.833057e+01
<TRANSP> 5
 0.000000e+00 1.000000e+00 0.000000e+00 0.000000e+00 0.000000e+00
 0.000000e+00 4.315950e-01 5.684050e-01 0.000000e+00 0.000000e+00
 0.000000e+00 0.000000e+00 6.355897e-01 3.644103e-01 0.000000e+00
 0.000000e+00 0.000000e+00 0.000000e+00 8.265234e-01 1.734766e-01
 0.000000e+00 0.000000e+00 0.000000e+00 0.000000e+00 0.000000e+00
<ENDHMM>
~h "o"
<BEGINHMM>
<NUMSTATES> 5
<STATE> 2
<MEAN> 39
 -3.960413e+00 -3.922669e-01 -4.953803e-02 1.384663e+00 4.649878e+00 2.771543e+00 2.244039e+00 1.991832e+00 2.049223e-01 9.329942e-01 3.487379e+00 -1.185585e-01 -1.645867e+01 7.548417e-01 5.837878e-01 -1.275549e-01 -7.978038e-01 -2.022795e-01 1.268667e-01 -3.541659e-01 -1.724035e-01 -5.652972e-02 1.616825e-01 4.320516e-02 -1.326629e-01 5.789931e-01 1.216943e-01 1.783105e-02 -3.859170e-02 -7.933038e-02 -1.058364e-01 -4.318146e-02 -8.549476e-02 -5.465110e-02 3.011902e-02 4.740844e-02 -2.361234e-02 -1.877461e-02 2.164137e-01
<VARIANCE> 39
 9.494920e+01 4.822569e+01 5.484445e+01 5.180103e+01 5.517082e+01 4.044337e+01 4.367920e+01 3.732241e+01 4.380983e+01 4.090488e+01 2.897083e+01 1.733867e+01 4.240491e+02 2.612109e+00 1.100201e+00 1.457924e+00 1.217800e+00 1.614954e+00 1.271862e+00 1.206143e+00 1.054014e+00 1.551955e+00 1.078887e+00 8.939845e-01 5.675074e-01 7.877036e+00 1.926583e-01 1.202622e-01 1.441055e-01 1.686300e-01 1.257525e-01 1.477726e-01 1.446522e-01 1.082454e-01 1.393932e-01 1.177353e-01 8.320245e-02 6.570545e-02 5.177304e-01
<GCONST> 1.018141e+02
<STATE> 3
<MEAN> 39
 9.988029e+00 3.085034e+00 -7.177489e+00 -9.285956e+00 -2.108699e+00 3.845236e+00 -2.086876e+00 -3.075502e+00 -1.521483e+00 2.213573e+00 3.145165e+00 -7.187504e-02 5.986819e+00 7.114918e-01 -5.469822e-01 -7.341089e-01 -3.066244e-01 2.437569e-01 1.533139e-01 -1.168495e+00 -3.277711e-01 7.437089e-01 8.401853e-01 -1.914755e-01 -4.106827e-01 1.585265e+00 -3.425182e-01 -3.135592e-01 1.546725e-01 5.165427e-01 2.370948e-01 -2.870149e-01 -6.722850e-02 1.595891e-01 2.113698e-01 -5.611380e-02 -2.409387e-01 -9.740479e-02 -2.110561e-01
<VARIANCE> 39
 2.030361e+01 3.317324e+01 5.339626e+01 3.508632e+01 4.877715e+01 4.337664e+01 3.765240e+01 3.713474e+01 4.861750e+01 5.147421e+01 3.770150e+01 2.707642e+01 4.044033e+01 1.302280e+00 1.515693e+00 1.862299e+00 2.895318e+00 2.216683e+00 1.865477e+00 1.429723e+00 1.364544e+00 2.087731e+00 1.516130e+00 1.356243e+00 1.040836e+00 2.519261e+00 9.977304e-02 1.257459e-01 1.822409e-01 1.848476e-01 2.403232e-01 2.290795e-01 2.047677e-01 1.612576e-01 2.002383e-01 2.144715e-01 1.767471e-01 1.418415e-01 1.862566e-01
<GCONST> 1.033587e+02
<STATE> 4
<MEAN> 39
 8.236606e+00 -4.016971e+00 -8.492536e+00 -2.940052e+00 3.738008e+00 -6.045753e-02 -8.828194e+00 -1.173664e+00 6.129252e+00 4.806368e+00 -2.621192e+00 -4.349010e+00 9.957817e+00 -3.753746e-01 -4.204836e-01 7.117125e-01 1.396003e+00 1.566693e-01 -1.175149e+00 -4.219186e-02 4.189651e-01 3.570054e-01 -5.802039e-01 -7.153882e-01 2.083663e-02 2.070405e-03 -8.190114e-02 3.001776e-01 2.810634e-01 9.128062e-02 -2.166393e-01 -3.015136e-02 3.948821e-01 -1.317635e-04 -3.429945e-01 -2.662512e-01 2.041481e-01 2.406879e-01 -3.263056e-01
<VARIANCE> 39
 2.044500e+01 2.353644e+01 3.812823e+01 5.234403e+01 5.838407e+01 5.050617e+01 3.683058e+01 5.040096e+01 6.667719e+01 6.762809e+01 4.750378e+01 2.997575e+01 2.968291e+01 6.751879e-01 1.032825e+00 1.302944e+00 1.675277e+00 2.301268e+00 1.513525e+00 1.650757e+00 1.080679e+00 1.881437e+00 1.570412e+00 1.544255e+00 1.175237e+00 1.306195e+00 9.034748e-02 1.126302e-01 1.395371e-01 2.507296e-01 2.226699e-01 2.100176e-01 1.474108e-01 1.784606e-01 2.275468e-01 2.207748e-01 1.761592e-01 1.238682e-01 9.351853e-02
<GCONST> 1.004002e+02
<TRANSP> 5
 0.000000e+00 1.000000e+00 0.000000e+00 0.000000e+00 0.000000e+00
 0.000000e+00 7.674188e-01 2.325812e-01 0.000000e+00 0.000000e+00
 0.000000e+00 0.000000e+00 7.231475e-01 2.768525e-01 0.000000e+00
 0.000000e+00 0.000000e+00 0.000000e+00 7.344372e-01 2.655627e-01
 0.000000e+00 0.000000e+00 0.000000e+00 0.000000e+00 0.000000e+00
<ENDHMM>
~h "p"
<BEGINHMM>
<NUMSTATES> 5
<STATE> 2
<MEAN> 39
 -3.601759e+00 -5.546624e-01 -4.065359e+00 3.124776e+00 4.091131e+00 7.323189e-01 1.981888e+00 1.429877e+00 -1.970184e-02 4.430177e-01 2.636948e+00 -7.131609e-01 -5.051821e+00 -2.020677e-01 -9.639899e-02 -5.561547e-02 1.979701e-01 1.681829e-01 1.653280e-01 6.255715e-02 -5.247322e-02 1.463646e-01 1.026988e-01 1.052433e-01 9.313562e-02 -5.785642e-01 3.805405e-02 -6.865966e-02 4.530287e-02 -6.716858e-02 -6.961059e-02 -2.791577e-02 -2.454111e-02 1.015477e-04 4.858445e-02 3.833119e-02 -2.226068e-02 -9.627342e-04 1.955939e-01
<VARIANCE> 39
 6.436191e+01 4.685305e+01 2.620124e+01 4.626221e+01 4.745595e+01 4.367530e+01 3.947829e+01 3.458486e+01 4.924659e+01 4.099854e+01 2.948203e+01 2.957724e+01 4.310139e+01 8.035473e-01 5.846368e-01 4.859500e-01 6.860103e-01 7.293093e-01 6.590637e-01 7.067086e-01 6.765150e-01 7.501887e-01 5.945964e-01 5.442729e-01 4.714957e-01 9.733181e-01 8.638977e-02 6.943012e-02 6.725004e-02 8.510797e-02 8.476794e-02 1.009749e-01 9.706053e-02 8.419497e-02 1.212856e-01 9.039310e-02 6.421584e-02 6.227439e-02 9.238181e-02
<GCONST> 8.200634e+01
<STATE> 3
<MEAN> 39
 -1.201877e+00 -1.930817e+00 -3.803015e+00 3.807676e+00 2.426862e+00 1.838762e+00 1.361769e+00 6.491044e-01 9.391533e-01 -1.122886e-02 1.495594e+00 -7.650889e-02 -6.805624e+00 -2.854150e-01 -3.017249e-01 3.140990e-01 -1.462709e-01 -2.724696e-01 -1.476868e-01 1.688926e-01 1.112940e-01 5.390856e-01 4.880583e-01 1.770240e-01 -5.172385e-02 2.812290e-01 1.398521e-01 -6.886927e-02 6.826063e-02 -1.488301e-01 -1.296184e-01 -1.084748e-01 -7.184853e-02 1.105687e-01 1.091085e-01 -3.916260e-03 -1.070016e-01 -3.411147e-02 4.645313e-01
<VARIANCE> 39
 5.167453e+01 4.058208e+01 3.827393e+01 3.694701e+01 4.186609e+01 4.094831e+01 4.532513e+01 3.611937e+01 5.166298e+01 4.451363e+01 2.060581e+01 2.306580e+01 5.033437e+01 1.335060e+00 1.028413e+00 1.178838e+00 1.049219e+00 9.740376e-01 1.205903e+00 9.873393e-01 1.001344e+00 1.120650e+00 8.784285e-01 7.223138e-01 7.477233e-01 2.147790e+00 1.464497e-01 1.357606e-01 1.604718e-01 1.401928e-01 1.179398e-01 1.934111e-01 1.492701e-01 1.104307e-01 1.366184e-01 1.358116e-01 1.122383e-01 7.899059e-02 2.420761e-01
<GCONST> 9.433286e+01
<STATE> 4
<MEAN> 39
 -3.427822e+00 -1.255206e+00 -6.086284e-01 2.273138e+00 3.428648e+00 1.883773e+00 2.463972e+00 1.892989e+00 4.065951e+00 3.361713e+00 3.251129e+00 -3.850329e-01 -1.319284e+01 8.815742e-01 -1.962833e-01 -8.743947e-02 -3.434093e-01 -4.399395e-01 -1.677223e-01 -1.453853e-01 3.502140e-02 1.394143e-01 7.148920e-02 -5.090468e-01 -5.065542e-02 1.548005e+00 1.344363e-01 2.204787e-02 -3.344155e-02 -8.456581e-02 -6.269321e-02 4.588085e-03 -9.027211e-02 1.068464e-02 -6.735146e-02 -9.096609e-02 -1.371394e-01 1.312659e-02 2.243400e-01
<VARIANCE> 39
 1.130375e+02 5.970565e+01 5.612145e+01 4.104860e+01 6.869456e+01 4.462588e+01 3.430519e+01 3.436644e+01 4.384531e+01 3.223767e+01 2.800980e+01 1.963564e+01 4.391756e+02 2.694292e+00 2.072231e+00 1.906660e+00 1.927959e+00 2.188893e+00 1.857517e+00 1.049657e+00 8.083681e-01 1.620904e+00 1.199391e+00 1.171772e+00 7.006909e-01 1.122011e+01 2.628358e-01 1.855105e-01 1.600094e-01 1.752339e-01 1.943639e-01 1.716179e-01 1.018955e-01 9.553848e-02 1.476950e-01 1.149350e-01 1.230674e-01 8.268916e-02 9.220414e-01
<GCONST> 1.067585e+02
<TRANSP> 5
 0.000000e+00 1.000000e+00 0.000000e+00 0.000000e+00 0.000000e+00
 0.000000e+00 6.956168e-01 3.043832e-01 0.000000e+00 0.000000e+00
 0.000000e+00 0.000000e+00 5.112507e-01 4.887493e-01 0.000000e+00
 0.000000e+00 0.000000e+00 0.000000e+00 6.979550e-01 3.020450e-01
 0.000000e+00 0.000000e+00 0.000000e+00 0.000000e+00 0.000000e+00
<ENDHMM>
~h "r"
<BEGINHMM>
<NUMSTATES> 5
<STATE> 2
<MEAN> 39
 -3.224487e+00 -7.522702e-01 1.170895e-01 3.808157e+00 2.147797e+00 1.419141e+00 2.121542e+00 2.295853e+00 1.907242e+00 3.894038e-01 3.092601e+00 5.796829e-01 -9.922218e+00 -1.495496e-01 -1.794417e-03 3.097752e-01 5.105442e-02 1.397403e-02 1.231250e-01 -7.318059e-02 7.570947e-02 1.120053e-01 8.478063e-02 1.761719e-01 2.220283e-02 -5.315626e-01 6.992362e-02 -1.671161e-02 -1.173073e-02 -7.438303e-02 -5.267394e-02 -4.528353e-02 -5.077128e-02 -2.330470e-02 -2.405939e-02 1.744864e-02 -5.564365e-02 -1.458012e-02 8.838885e-02
<VARIANCE> 39
 6.111837e+01 4.149009e+01 4.079480e+01 4.793929e+01 6.524977e+01 4.382623e+01 4.526006e+01 3.613958e+01 4.808134e+01 4.594392e+01 3.757924e+01 2.154201e+01 3.932575e+02 1.165306e+00 7.867199e-01 7.848220e-01 7.954233e-01 1.079343e+00 9.433125e-01 8.471451e-01 1.051782e+00 1.054957e+00 8.951666e-01 7.524479e-01 4.734697e-01 1.651224e+00 1.069740e-01 7.173523e-02 6.608713e-02 9.053516e-02 1.071202e-01 8.774213e-02 9.587730e-02 1.054161e-01 1.147056e-01 9.612353e-02 8.222665e-02 6.164662e-02 1.089061e-01
<GCONST> 9.032035e+01
<STATE> 3
<MEAN> 39
 4.622282e-01 -2.703416e+00 2.810221e+00 1.332096e+00 -2.768264e+00 -1.232691e+00 -1.327291e-02 2.743880e+00 2.682226e+00 -7.685164e-02 8.310954e-01 5.683804e-01 3.711453e+00 2.806306e-01 -2.115435e-01 4.821196e-01 -1.039547e-01 -4.777967e-01 -3.088752e-02 -4.267552e-01 2.068500e-02 -8.445182e-02 1.080579e-01 1.165776e-01 -1.026061e-01 2.245651e-01 1.156630e-01 -5.637135e-03 -1.324773e-01 -1.928382e-01 -7.555035e-02 -7.039547e-02 -4.989117e-02 -3.442223e-02 -3.849573e-02 3.119476e-02 -1.369085e-01 -4.882704e-02 1.900285e-01
<VARIANCE> 39
 3.044410e+01 3.010296e+01 3.996904e+01 3.581165e+01 5.320636e+01 4.071133e+01 4.284159e+01 3.776259e+01 5.939747e+01 3.498782e+01 3.408683e+01 2.454409e+01 1.202402e+02 6.713936e-01 7.796782e-01 1.303454e+00 7.128413e-01 1.206977e+00 1.217222e+00 1.196281e+00 1.568424e+00 1.609170e+00 1.175901e+00 1.098373e+00 6.731117e-01 1.343655e+00 6.641176e-02 8.375624e-02 1.113252e-01 9.705497e-02 1.656929e-01 1.289028e-01 1.369081e-01 1.639227e-01 1.796625e-01 1.233886e-01 1.306211e-01 1.215478e-01 1.043263e-01
<GCONST> 9.334122e+01
<STATE> 4
<MEAN> 39
 7.848098e-01 -2.845117e+00 2.533525e+00 1.445079e+00 -3.255232e+00 -6.616994e-01 2.659899e-01 3.756622e+00 3.296131e+00 -9.189807e-01 -3.176911e-02 -2.988169e-02 4.121628e+00 5.852713e-01 -1.597389e-01 1.507739e-01 -4.035336e-01 -6.720555e-01 -1.930405e-01 -4.856341e-01 -5.140889e-02 7.045595e-02 7.242395e-02 -3.009125e-01 -1.534995e-01 1.245868e+00 2.752083e-02 2.293240e-02 -1.411152e-01 -1.116413e-01 4.297527e-02 -2.603815e-03 1.847965e-02 -7.869716e-02 -6.234676e-02 2.271037e-02 -5.123322e-02 1.105190e-02 4.728524e-02
<VARIANCE> 39
 5.928613e+01 4.561732e+01 6.070210e+01 4.757249e+01 7.264436e+01 5.127159e+01 5.767419e+01 4.972273e+01 6.769102e+01 4.583304e+01 4.296313e+01 2.836598e+01 2.113419e+02 1.538569e+00 1.487598e+00 2.091082e+00 1.242879e+00 2.133486e+00 1.586572e+00 1.954689e+00 1.665668e+00 2.088889e+00 1.534657e+00 1.534419e+00 9.614073e-01 4.664238e+00 1.536839e-01 1.530291e-01 1.748542e-01 1.468248e-01 2.270874e-01 1.747215e-01 1.695709e-01 1.453593e-01 1.929048e-01 1.513047e-01 1.607640e-01 1.170324e-01 3.130065e-01
<GCONST> 1.084967e+02
<TRANSP> 5
 0.000000e+00 1.000000e+00 0.000000e+00 0.000000e+00 0.000000e+00
 0.000000e+00 6.514988e-01 3.485012e-01 0.000000e+00 0.000000e+00
 0.000000e+00 0.000000e+00 3.369260e-01 6.630740e-01 0.000000e+00
 0.000000e+00 0.000000e+00 0.000000e+00 5.477695e-01 4.522304e-01
 0.000000e+00 0.000000e+00 0.000000e+00 0.000000e+00 0.000000e+00
<ENDHMM>
~h "s"
<BEGINHMM>
<NUMSTATES> 5
<STATE> 2
<MEAN> 39
 -1.023369e+01 9.123673e+00 -3.334204e+00 4.035346e+00 -6.652699e-01 -6.539701e+00 4.595839e+00 -5.288081e-01 -4.293807e-01 8.767557e-02 2.064970e+00 -1.315325e-01 6.331897e+00 -2.315578e+00 1.266837e+00 -9.717686e-01 5.331314e-01 1.006521e+00 -1.526405e-01 6.569466e-01 1.102573e-01 -1.725314e-01 9.012714e-02 4.429249e-01 -1.539822e-01 -3.549913e-01 1.080200e-01 -2.713939e-01 1.379219e-01 -2.235433e-01 -6.768987e-02 4.908580e-02 -1.874326e-01 5.937874e-02 -3.888871e-03 -1.139235e-03 -5.845371e-02 2.504182e-02 2.999596e-02
<VARIANCE> 39
 6.507960e+01 4.917109e+01 7.003615e+01 4.660542e+01 8.031380e+01 6.091501e+01 5.708665e+01 4.650375e+01 5.340263e+01 4.974302e+01 3.795680e+01 3.212572e+01 3.944602e+01 8.756486e-01 9.871014e-01 9.886783e-01 1.708953e+00 1.511733e+00 1.553276e+00 1.438411e+00 1.385831e+00 1.340782e+00 1.140827e+00 1.404814e+00 9.516829e-01 3.032143e-01 1.443531e-01 1.260594e-01 9.611637e-02 1.159680e-01 1.292168e-01 1.333472e-01 1.367200e-01 1.334609e-01 1.179063e-01 9.900054e-02 1.128999e-01 9.376269e-02 2.739625e-02
<GCONST> 9.516436e+01
<STATE> 3
<MEAN> 39
 -1.816606e+01 9.434436e+00 -3.998270e+00 3.926142e+00 2.327161e+00 -4.770147e+00 4.889214e+00 5.952249e-01 -1.322345e+00 7.101002e-01 3.653732e+00 -1.117179e+00 4.313286e+00 1.224695e-01 -7.508262e-01 4.058775e-01 -2.617998e-01 4.334994e-02 -8.512442e-02 -1.293757e-01 1.860407e-01 2.180993e-02 -2.116238e-01 -6.171984e-02 2.256108e-02 -7.414019e-02 5.891618e-01 -1.903577e-01 1.439485e-01 -8.352239e-02 -1.965891e-01 -2.585436e-02 -1.321621e-01 -7.278397e-02 6.070533e-02 -4.620170e-02 -1.322594e-01 4.328546e-02 6.801920e-02
<VARIANCE> 39
 5.581137e+01 3.755104e+01 4.356755e+01 6.012812e+01 8.236272e+01 5.835670e+01 4.110743e+01 4.548970e+01 3.574402e+01 4.798040e+01 3.974563e+01 3.314067e+01 2.565256e+01 1.807505e+00 7.033721e-01 1.072664e+00 7.513443e-01 9.706426e-01 9.383869e-01 9.595010e-01 1.185805e+00 8.519443e-01 9.744495e-01 9.408416e-01 5.154247e-01 4.684020e-01 1.126061e-01 9.997500e-02 1.083131e-01 1.337420e-01 1.173298e-01 1.200972e-01 1.423739e-01 1.174886e-01 1.337465e-01 1.457521e-01 1.219885e-01 9.324425e-02 5.251490e-02
<GCONST> 9.103902e+01
<STATE> 4
<MEAN> 39
 -9.297556e+00 4.274156e+00 -1.836249e+00 1.738939e+00 1.951687e+00 -8.137801e+00 1.669091e+00 2.521344e+00 -5.958316e-02 -1.437389e+00 1.420453e+00 2.089307e-01 4.989390e+00 2.620656e+00 -5.359260e-01 -2.393410e-02 -6.144447e-01 -5.561774e-01 2.364753e-01 -8.561871e-01 -3.923498e-01 1.925061e-01 7.469125e-02 -3.574898e-01 3.520446e-02 3.264180e-01 8.042710e-02 1.955982e-01 -1.382432e-01 -7.638235e-02 -4.231166e-04 1.748000e-01 -1.436070e-02 -1.548316e-01 -2.981198e-02 9.225739e-02 1.261724e-02 -1.505391e-02 2.749433e-02
<VARIANCE> 39
 8.125831e+01 3.451859e+01 6.106030e+01 4.243441e+01 6.372206e+01 5.743592e+01 6.244485e+01 5.712307e+01 5.016949e+01 5.303550e+01 4.705460e+01 2.211017e+01 3.613274e+01 1.785202e+00 1.522889e+00 2.117048e+00 2.081297e+00 2.128286e+00 1.597762e+00 1.641129e+00 1.973583e+00 1.913527e+00 2.370193e+00 1.855327e+00 1.163222e+00 1.445286e+00 2.139668e-01 1.114785e-01 9.795123e-02 1.205951e-01 1.066275e-01 1.061997e-01 1.964928e-01 1.597829e-01 1.497879e-01 1.736167e-01 1.275760e-01 8.442187e-02 7.588109e-02
<GCONST> 1.029382e+02
<TRANSP> 5
 0.000000e+00 1.000000e+00 0.000000e+00 0.000000e+00 0.000000e+00
 0.000000e+00 7.858385e-01 2.141615e-01 0.000000e+00 0.000000e+00
 0.000000e+00 0.000000e+00 8.136581e-01 1.863419e-01 0.000000e+00
 0.000000e+00 0.000000e+00 0.000000e+00 6.712194e-01 3.287806e-01
 0.000000e+00 0.000000e+00 0.000000e+00 0.000000e+00 0.000000e+00
<ENDHMM>
~h "t"
<BEGINHMM>
<NUMSTATES> 5
<STATE> 2
<MEAN> 39
 1.685286e+00 1.186645e+00 4.790547e-01 3.719997e+00 2.034109e-01 -8.827525e-01 6.803550e-01 -1.727293e+00 -8.572621e-01 -1.252292e+00 9.909651e-02 2.100648e-01 -3.343119e+00 -5.542042e-01 -5.149722e-01 -4.963805e-01 7.656671e-02 2.226811e-01 1.616084e-01 3.685687e-01 2.867508e-01 2.988934e-01 2.911482e-01 4.075429e-01 -1.387434e-01 -1.745343e-01 -1.489594e-01 -4.525562e-02 8.259533e-02 -2.800302e-01 -1.532753e-01 -1.174027e-01 1.408631e-02 3.973706e-02 4.078894e-02 3.061372e-02 -5.680064e-02 -2.296056e-02 5.911326e-01
<VARIANCE> 39
 3.514778e+01 5.418166e+01 7.460502e+01 3.998544e+01 5.478083e+01 5.596812e+01 4.672822e+01 4.784896e+01 4.993514e+01 4.183649e+01 3.072698e+01 2.503119e+01 5.130954e+01 1.103080e+00 1.084945e+00 1.118103e+00 1.174323e+00 1.061957e+00 1.470392e+00 1.025647e+00 1.140664e+00 1.409861e+00 1.091406e+00 8.427509e-01 7.821799e-01 2.239695e+00 1.548985e-01 1.439836e-01 1.298464e-01 9.589500e-02 1.596510e-01 2.474886e-01 1.883315e-01 1.557741e-01 2.000594e-01 1.446931e-01 1.284059e-01 1.047295e-01 1.768802e-01
<GCONST> 9.854055e+01
<STATE> 3
<MEAN> 39
 -5.641434e+00 -2.097170e+00 -1.005540e+00 9.697132e-01 1.860770e+00 -9.728371e-01 4.320018e+00 1.082247e+00 2.317256e+00 1.431974e+00 3.623557e+00 -3.836182e-01 1.382455e+00 -4.689382e-02 -3.559735e-01 1.961631e-01 -1.062259e+00 -7.712289e-01 -6.984985e-01 -1.815668e-01 2.165137e-01 2.044840e-01 1.558805e-01 -2.955659e-01 -1.902309e-01 2.327838e+00 4.175572e-01 1.270486e-01 1.503508e-01 -1.799796e-01 -2.194048e-01 -8.509965e-02 -3.004212e-01 -7.720651e-02 -1.423666e-01 -9.809557e-02 -2.780308e-01 1.777486e-03 2.434449e-01
<VARIANCE> 39
 3.882809e+01 3.984266e+01 4.128103e+01 3.455928e+01 4.452040e+01 4.804301e+01 3.934723e+01 3.950050e+01 4.062281e+01 5.076768e+01 3.628773e+01 2.903387e+01 9.894344e+01 1.637528e+00 1.859953e+00 2.154517e+00 1.365131e+00 1.786256e+00 2.122790e+00 2.610683e+00 2.717641e+00 3.034120e+00 1.813312e+00 1.482539e+00 9.141271e-01 2.135426e+00 1.016863e-01 1.573634e-01 1.674253e-01 1.317131e-01 1.410692e-01 1.505116e-01 1.567476e-01 2.142818e-01 1.972455e-01 2.007361e-01 1.473753e-01 1.366705e-01 2.299245e-01
<GCONST> 1.049405e+02
<STATE> 4
<MEAN> 39
 -5.879796e-01 -9.133403e-01 6.234197e-01 -3.527925e+00 -3.302005e+00 -5.050067e+00 2.462006e-01 1.030240e-01 1.927443e+00 -4.660684e-01 -1.292225e+00 -1.361694e+00 9.907252e+00 9.116397e-01 1.853753e-01 1.189352e-01 -1.034085e+00 -6.922246e-01 -2.592164e-01 -7.906780e-01 -1.072947e-01 -1.357893e-01 -1.654573e-02 -6.005248e-01 -1.573832e-01 1.536124e+00 2.084318e-01 1.320764e-01 3.108857e-03 1.033163e-01 8.693235e-02 2.617748e-01 -7.447019e-02 -8.978188e-02 -1.205212e-01 -3.131852e-02 -3.241184e-02 9.614304e-02 -4.163206e-01
<VARIANCE> 39
 3.318722e+01 4.644502e+01 4.770324e+01 4.310716e+01 4.500230e+01 5.653880e+01 7.055461e+01 4.942658e+01 5.291831e+01 5.024562e+01 3.584269e+01 2.378463e+01 4.698431e+01 2.011276e+00 2.343630e+00 2.680304e+00 2.027028e+00 1.752632e+00 1.533163e+00 2.400820e+00 3.154452e+00 2.825099e+00 2.081361e+00 1.677686e+00 1.158217e+00 2.273236e+00 1.007001e-01 1.550416e-01 1.486009e-01 1.476182e-01 1.520222e-01 1.949388e-01 2.718075e-01 1.846062e-01 1.736230e-01 1.640767e-01 1.292455e-01 1.186833e-01 2.154519e-01
<GCONST> 1.068807e+02
<TRANSP> 5
 0.000000e+00 1.000000e+00 0.000000e+00 0.000000e+00 0.000000e+00
 0.000000e+00 7.391702e-01 2.608298e-01 0.000000e+00 0.000000e+00
 0.000000e+00 0.000000e+00 6.067702e-01 3.932298e-01 0.000000e+00
 0.000000e+00 0.000000e+00 0.000000e+00 3.974110e-01 6.025891e-01
 0.000000e+00 0.000000e+00 0.000000e+00 0.000000e+00 0.000000e+00
<ENDHMM>
~h "u"
<BEGINHMM>
<NUMSTATES> 5
<STATE> 2
<MEAN> 39
 6.767639e+00 2.484456e+00 -4.029509e+00 -3.111697e+00 1.048653e+00 -2.450994e+00 -9.339193e+00 -4.883657e+00 -9.433660e-02 4.164421e+00 2.185075e+00 1.447404e-01 5.621725e+00 4.793134e-01 6.221029e-01 -5.313505e-01 -5.286966e-01 2.772230e-01 5.920612e-01 -4.904502e-02 -5.814512e-01 -6.081273e-01 7.991390e-02 3.234623e-01 1.311731e-01 -4.620871e-01 -1.628042e-01 -3.779570e-02 1.657145e-01 1.633203e-01 -1.136339e-02 1.699477e-02 3.863865e-01 1.631006e-01 -4.124694e-02 -2.280283e-01 -6.130609e-02 3.366668e-02 -1.929779e-01
<VARIANCE> 39
 2.029352e+01 2.324511e+01 3.975547e+01 3.603526e+01 3.530743e+01 5.333923e+01 4.792741e+01 3.579008e+01 5.024472e+01 4.408047e+01 4.169550e+01 2.939985e+01 3.175384e+01 6.738286e-01 5.865691e-01 1.041197e+00 1.191464e+00 1.044499e+00 1.008630e+00 1.768576e+00 1.001579e+00 1.325888e+00 1.255407e+00 9.786065e-01 7.549558e-01 6.164473e-01 7.124095e-02 8.153164e-02 1.088908e-01 1.244859e-01 1.363600e-01 1.661502e-01 1.782664e-01 1.188621e-01 1.793753e-01 1.413325e-01 1.442025e-01 1.061094e-01 6.521518e-02
<GCONST> 9.031971e+01
<STATE> 3
<MEAN> 39
 7.844804e+00 5.247992e+00 -5.537895e+00 -3.474278e+00 1.298974e+00 -2.720287e-01 -3.408715e+00 -3.547311e+00 -3.335447e+00 -4.826519e-01 2.539277e+00 9.964211e-01 -9.307081e-01 -3.524995e-01 6.376579e-02 3.368361e-01 4.407571e-01 8.943740e-02 4.374677e-02 5.617557e-01 2.336489e-01 -1.736240e-02 -3.202963e-01 3.483501e-02 4.801393e-03 -9.962891e-01 -1.119586e-01 -1.107870e-01 6.557579e-02 1.183972e-01 1.057640e-02 -5.358769e-02 -1.278689e-02 6.457873e-02 8.892472e-02 2.719190e-02 -2.489504e-02 -3.220801e-02 1.486339e-02
<VARIANCE> 39
 3.191547e+01 3.095988e+01 4.507516e+01 5.193211e+01 3.710475e+01 4.978458e+01 4.835142e+01 3.830479e+01 4.661161e+01 5.118578e+01 4.408817e+01 3.172822e+01 6.622569e+01 6.700954e-01 7.151179e-01 7.032129e-01 9.827598e-01 9.713078e-01 1.043300e+00 9.073163e-01 7.470261e-01 9.151406e-01 8.983649e-01 6.849414e-01 6.219087e-01 5.693915e-01 4.253987e-02 5.277386e-02 6.774618e-02 8.541576e-02 8.696154e-02 1.085201e-01 1.067724e-01 9.708365e-02 1.168743e-01 9.620864e-02 8.022371e-02 7.638743e-02 4.019424e-02
<GCONST> 8.421696e+01
<STATE> 4
<MEAN> 39
 4.453983e-01 2.934987e+00 -2.178967e+00 5.544261e-01 2.387173e+00 -4.145518e-01 -8.570345e-01 -3.383697e+00 -3.244989e+00 -1.762416e+00 4.064184e-01 1.873147e+00 -4.041873e+00 -3.687960e-01 -1.048558e-01 5.270088e-02 2.814324e-01 1.580020e-01 3.721436e-02 1.788951e-01 1.231420e-01 3.646505e-02 -9.866288e-02 -4.827230e-02 2.543939e-02 -3.557466e-01 6.554698e-03 -3.394894e-02 3.754432e-03 -3.730360e-02 -1.588922e-02 -8.474039e-03 -4.179549e-02 2.184871e-03 2.522479e-02 3.946598e-02 1.591730e-02 -2.151457e-02 6.066669e-02
<VARIANCE> 39
 2.698160e+01 1.885196e+01 2.045449e+01 2.083246e+01 2.307268e+01 2.722600e+01 2.650768e+01 2.220833e+01 3.783859e+01 3.029238e+01 2.213820e+01 1.823394e+01 3.315572e+01 2.434204e-01 2.553058e-01 3.272712e-01 4.403640e-01 3.926891e-01 5.010440e-01 5.421701e-01 4.250127e-01 4.969205e-01 5.324929e-01 4.258849e-01 3.581006e-01 2.063964e-01 1.975888e-02 2.568588e-02 3.288124e-02 4.444413e-02 4.503037e-02 5.970628e-02 6.028365e-02 5.290441e-02 6.143538e-02 6.570091e-02 5.591789e-02 4.762546e-02 1.663771e-02
<GCONST> 5.941566e+01
<TRANSP> 5
 0.000000e+00 1.000000e+00 0.000000e+00 0.000000e+00 0.000000e+00
 0.000000e+00 7.111140e-01 2.888860e-01 0.000000e+00 0.000000e+00
 0.000000e+00 0.000000e+00 6.983898e-01 3.016102e-01 0.000000e+00
 0.000000e+00 0.000000e+00 0.000000e+00 8.500760e-01 1.499241e-01
 0.000000e+00 0.000000e+00 0.000000e+00 0.000000e+00 0.000000e+00
<ENDHMM>
~h "w"
<BEGINHMM>
<NUMSTATES> 5
<STATE> 2
<MEAN> 39
 8.531400e+00 -3.014044e-01 -7.142883e+00 -3.159225e+00 2.448561e+00 1.194491e+00 -1.512644e+00 -2.139746e+00 -5.391526e-02 9.567800e-01 1.470389e+00 -1.040885e+00 4.861703e+00 5.891088e-01 -6.393299e-02 -4.532412e-01 -3.323745e-01 7.289034e-02 3.905234e-01 -1.526254e-01 -1.805385e-01 3.283841e-01 5.768838e-01 1.833342e-01 -1.977552e-01 1.934850e-02 -1.436917e-01 -1.368800e-01 -3.786018e-02 -1.060144e-01 1.534233e-02 -4.180364e-02 -8.778837e-02 1.726682e-01 2.109949e-01 7.279061e-03 -2.575220e-01 -3.716815e-02 2.813179e-01
<VARIANCE> 39
 4.348833e+01 6.698945e+01 4.597806e+01 5.532371e+01 3.810468e+01 5.231117e+01 4.740882e+01 3.845351e+01 4.901526e+01 3.948502e+01 4.211705e+01 3.313829e+01 2.943162e+01 8.944037e-01 9.009429e-01 9.966881e-01 1.395049e+00 1.184413e+00 1.307702e+00 1.242516e+00 9.723264e-01 1.343963e+00 1.135058e+00 1.248292e+00 8.604774e-01 1.213849e+00 9.341626e-02 1.009645e-01 1.128829e-01 2.132084e-01 1.861774e-01 1.685797e-01 1.884869e-01 1.450354e-01 1.677699e-01 1.643116e-01 1.606409e-01 1.111241e-01 1.029262e-01
<GCONST> 9.687852e+01
<STATE> 3
<MEAN> 39
 9.216960e+00 -2.289528e+00 -1.069301e+01 -6.172714e+00 4.765585e+00 4.256224e+00 -5.187671e+00 1.353043e-01 3.499712e+00 4.855978e+00 -1.564591e+00 -5.265884e+00 6.475616e+00 3.739581e-03 -2.924888e-01 -1.858670e-01 -1.084641e-01 8.855376e-02 -1.842906e-01 -3.907423e-03 3.979507e-01 4.606124e-01 -1.601111e-01 -6.020949e-01 -5.188287e-02 4.001344e-01 -2.233388e-01 -8.042502e-02 2.757599e-01 1.178073e-01 -1.552744e-01 -1.912570e-01 1.881667e-01 1.354653e-01 -7.508256e-02 -3.001986e-01 -8.146836e-02 2.062069e-01 9.180585e-02
<VARIANCE> 39
 3.538074e+01 4.603188e+01 5.384549e+01 4.781254e+01 3.087983e+01 7.372102e+01 4.551124e+01 3.846680e+01 4.820829e+01 3.679545e+01 5.208523e+01 3.496483e+01 3.777115e+01 8.805743e-01 1.583823e+00 1.116985e+00 1.281459e+00 1.313692e+00 1.633080e+00 1.640083e+00 1.192483e+00 1.913968e+00 1.236322e+00 1.952247e+00 9.590635e-01 1.040850e+00 6.638277e-02 1.138270e-01 8.093552e-02 1.653891e-01 1.408986e-01 1.340739e-01 1.533309e-01 1.170866e-01 1.181497e-01 1.381981e-01 1.550999e-01 1.095517e-01 1.139192e-01
<GCONST> 9.684767e+01
<STATE> 4
<MEAN> 39
 8.226753e+00 8.657131e-01 -7.794198e+00 -8.533228e+00 9.634165e-01 3.453460e+00 -2.236823e+00 -1.149354e+00 2.445658e+00 2.927234e+00 4.409418e-01 -1.615665e+00 6.195684e+00 -1.825810e-01 -1.199442e-01 4.043449e-01 1.570815e-01 -2.961811e-01 -5.299346e-01 -6.552202e-02 2.967606e-01 5.394083e-02 -1.013796e-01 -2.930843e-01 1.024910e-01 1.539376e-01 -7.505368e-02 -3.225322e-02 1.317319e-01 1.203891e-01 -3.432593e-02 -4.715223e-02 4.082825e-02 7.035405e-02 -4.654650e-03 -3.582032e-03 -4.084020e-02 -1.878129e-02 2.965354e-02
<VARIANCE> 39
 2.806833e+01 4.399358e+01 4.554199e+01 4.954194e+01 4.107149e+01 5.527235e+01 4.129473e+01 2.939799e+01 4.007082e+01 4.709983e+01 4.729545e+01 2.966310e+01 2.673742e+01 6.572497e-01 8.039004e-01 7.753891e-01 1.099842e+00 1.072484e+00 1.025321e+00 1.250038e+00 1.211175e+00 1.327652e+00 1.183439e+00 9.877681e-01 1.002152e+00 1.005788e+00 6.590670e-02 7.812280e-02 7.142885e-02 1.305155e-01 1.329295e-01 1.267223e-01 1.463218e-01 1.142017e-01 1.444122e-01 1.219315e-01 1.326783e-01 9.887489e-02 8.732035e-02
<GCONST> 9.065089e+01
<TRANSP> 5
 0.000000e+00 1.000000e+00 0.000000e+00 0.000000e+00 0.000000e+00
 0.000000e+00 5.444798e-01 4.555202e-01 0.000000e+00 0.000000e+00
 0.000000e+00 0.000000e+00 5.259715e-01 4.740285e-01 0.000000e+00
 0.000000e+00 0.000000e+00 0.000000e+00 6.446613e-01 3.553387e-01
 0.000000e+00 0.000000e+00 0.000000e+00 0.000000e+00 0.000000e+00
<ENDHMM>
~h "y"
<BEGINHMM>
<NUMSTATES> 5
<STATE> 2
<MEAN> 39
 -2.520516e+00 5.735988e+00 1.169024e+01 -6.711391e+00 -4.294189e+00 3.755237e-01 -4.799297e+00 -4.195966e+00 -2.218786e+00 -1.003479e+00 -8.765084e-01 7.349750e-02 6.581129e+00 1.200872e-01 1.383957e-01 8.018404e-01 -5.532560e-01 -7.481802e-01 1.087690e-01 -1.488106e-01 -9.075312e-02 2.512021e-02 3.268222e-01 1.755228e-01 -6.444133e-02 4.997095e-01 1.038349e-01 -2.186186e-01 -2.203752e-01 8.560732e-02 -1.070369e-01 -7.470381e-02 1.859722e-01 1.358745e-01 2.614438e-02 8.148573e-02 -1.222874e-03 -3.138775e-02 5.048666e-02
<VARIANCE> 39
 2.871367e+01 6.103009e+01 6.358956e+01 7.901704e+01 4.558827e+01 3.684539e+01 5.457706e+01 4.197338e+01 5.852709e+01 3.680120e+01 5.918396e+01 3.112934e+01 6.873627e+01 7.140727e-01 1.112314e+00 1.858167e+00 1.106043e+00 1.305607e+00 1.226548e+00 1.208009e+00 1.334957e+00 1.220916e+00 8.899777e-01 9.886223e-01 6.544716e-01 1.093532e+00 6.659503e-02 1.213805e-01 2.117530e-01 1.044812e-01 1.356749e-01 1.335991e-01 1.536892e-01 1.526873e-01 1.401730e-01 1.101783e-01 1.332398e-01 9.403242e-02 6.760599e-02
<GCONST> 9.579514e+01
<STATE> 3
<MEAN> 39
 -1.320002e+00 3.792892e+00 1.212248e+01 -1.069134e+01 -1.177274e+01 5.385798e-01 -3.500828e-01 -5.145554e+00 -1.587570e+00 4.012341e+00 3.634816e-01 -9.738196e-01 1.161377e+01 5.474094e-01 -1.176250e+00 -1.024340e+00 3.741808e-01 -6.068604e-01 -5.532024e-01 1.007587e+00 1.080906e+00 -1.190171e-01 1.075651e-01 1.604493e-01 -1.457426e-01 5.115107e-01 5.755638e-02 -1.195083e-01 -3.056157e-01 2.898735e-01 3.759257e-01 -1.485592e-01 -6.227114e-02 2.781407e-01 1.207412e-02 -2.332509e-01 -9.417183e-02 5.675560e-02 -1.072223e-01
<VARIANCE> 39
 2.780881e+01 4.622835e+01 5.899962e+01 7.896730e+01 4.378776e+01 4.900266e+01 5.715001e+01 6.771356e+01 6.913018e+01 3.469043e+01 6.653182e+01 3.305031e+01 4.014865e+01 4.647200e-01 1.293355e+00 1.135359e+00 1.328686e+00 1.058472e+00 1.606089e+00 1.757049e+00 1.387455e+00 1.887461e+00 1.203830e+00 9.800939e-01 1.055749e+00 7.162618e-01 4.714417e-02 1.058045e-01 1.451119e-01 1.334247e-01 1.779068e-01 1.529195e-01 1.868534e-01 1.509982e-01 1.596658e-01 1.221319e-01 1.410079e-01 1.047336e-01 6.538533e-02
<GCONST> 9.693315e+01
<STATE> 4
<MEAN> 39
 1.393637e+00 -3.246084e+00 5.745925e+00 -4.880815e+00 -9.428663e+00 -5.147682e+00 1.944615e+00 3.879748e+00 -3.341439e+00 1.525204e-01 1.444472e-01 -1.451016e-01 1.244415e+01 6.471221e-01 -8.301225e-01 -1.728511e+00 9.389037e-01 1.142727e+00 -5.788729e-01 -2.726577e-01 1.084321e+00 4.604561e-01 -5.248185e-01 -4.211617e-01 1.391765e-01 -8.378504e-02 -2.542450e-02 2.455032e-01 4.755278e-02 9.798404e-03 2.876726e-01 2.276045e-01 -2.493397e-01 -3.458947e-01 7.707622e-02 4.186090e-02 -6.421232e-02 -3.161899e-02 -2.390906e-01
<VARIANCE> 39
 2.757477e+01 3.380911e+01 5.043008e+01 5.017392e+01 4.459205e+01 5.877556e+01 6.926267e+01 6.665189e+01 5.657245e+01 3.784501e+01 4.281554e+01 3.000762e+01 4.257453e+01 3.872526e-01 9.405307e-01 1.401139e+00 1.379477e+00 1.263438e+00 1.441805e+00 1.901963e+00 1.776761e+00 2.002725e+00 1.528577e+00 1.450888e+00 8.908076e-01 6.302062e-01 3.444291e-02 8.330408e-02 1.202621e-01 1.191268e-01 1.615919e-01 1.903898e-01 1.915156e-01 1.690787e-01 1.505882e-01 1.349847e-01 1.253294e-01 1.066717e-01 4.104411e-02
<GCONST> 9.520372e+01
<TRANSP> 5
 0.000000e+00 1.000000e+00 0.000000e+00 0.000000e+00 0.000000e+00
 0.000000e+00 7.335655e-01 2.664345e-01 0.000000e+00 0.000000e+00
 0.000000e+00 0.000000e+00 6.880637e-01 3.119363e-01 0.000000e+00
 0.000000e+00 0.000000e+00 0.000000e+00 6.541966e-01 3.458034e-01
 0.000000e+00 0.000000e+00 0.000000e+00 0.000000e+00 0.000000e+00
<ENDHMM>
~h "aa"
<BEGINHMM>
<NUMSTATES> 5
<STATE> 2
<MEAN> 39
 4.580141e+00 -8.186687e+00 -6.911125e+00 -3.376854e+00 1.236970e+00 2.569430e+00 -4.498079e-01 4.130148e+00 4.195741e+00 -1.315874e+00 -6.040008e+00 -1.948612e+00 1.212184e+01 1.645421e-01 -1.062812e+00 -9.516308e-01 -5.262324e-01 7.325820e-01 8.238283e-01 3.473078e-02 1.611648e-01 -7.856376e-04 -4.673743e-01 -6.716682e-01 -6.782690e-02 1.125729e+00 -1.097275e-01 1.720758e-01 1.298438e-01 2.049172e-01 1.257188e-01 -6.059901e-02 -2.998949e-02 -1.655227e-01 -1.003157e-01 3.536226e-02 1.688746e-01 2.212342e-02 -2.363726e-01
<VARIANCE> 39
 2.367646e+01 3.729285e+01 4.831157e+01 5.393772e+01 6.759270e+01 6.308560e+01 5.321646e+01 5.606797e+01 9.627449e+01 6.231456e+01 4.398932e+01 3.209282e+01 4.299080e+01 7.996544e-01 1.048093e+00 1.293874e+00 1.302270e+00 1.411373e+00 1.514493e+00 1.369400e+00 1.400717e+00 1.404867e+00 1.317157e+00 1.292869e+00 8.894536e-01 1.209327e+00 7.109537e-02 9.406136e-02 1.175624e-01 1.269575e-01 1.594763e-01 1.832689e-01 1.369745e-01 1.724933e-01 1.521368e-01 1.522926e-01 1.277036e-01 8.595029e-02 9.025771e-02
<GCONST> 9.792693e+01
<STATE> 3
<MEAN> 39
 3.381033e+00 -9.894930e+00 -9.121588e+00 -2.242306e+00 6.935621e+00 3.907301e+00 -1.168384e+00 1.751259e+00 3.871537e-01 -3.841694e+00 -5.939564e+00 -1.837299e+00 1.314469e+01 -9.768346e-02 -4.352543e-02 7.105136e-02 1.325649e-01 1.019249e-01 -9.968995e-02 -2.630472e-03 4.780373e-02 -7.245597e-02 -1.833735e-01 -5.630836e-02 8.089367e-02 -1.842335e-02 4.556020e-03 1.392540e-01 1.430759e-01 -7.719385e-03 -2.302071e-01 -1.352601e-01 6.593841e-02 4.163394e-02 6.924092e-03 2.950672e-02 4.115628e-02 3.381163e-02 -8.504425e-02
<VARIANCE> 39
 1.526939e+01 2.495350e+01 2.974001e+01 4.045218e+01 3.557847e+01 3.476678e+01 4.514889e+01 3.485502e+01 5.070369e+01 5.078239e+01 3.278806e+01 3.232534e+01 3.586939e+01 1.717695e-01 3.103429e-01 4.689353e-01 4.980434e-01 1.061915e+00 7.313661e-01 8.028228e-01 7.364115e-01 6.525658e-01 6.143487e-01 5.772065e-01 4.947828e-01 1.270522e-01 1.623336e-02 3.078250e-02 3.922271e-02 5.544879e-02 6.074788e-02 6.415357e-02 7.620355e-02 7.580862e-02 7.578238e-02 6.630332e-02 6.848045e-02 5.677826e-02 1.518495e-02
<GCONST> 6.873448e+01
<STATE> 4
<MEAN> 39
 3.358345e+00 -7.384322e+00 -6.519618e+00 -1.330531e+00 2.463923e+00 6.839627e-01 1.274049e+00 3.374616e+00 1.499960e+00 -4.212400e+00 -5.978881e+00 -5.823647e-01 9.508364e+00 1.262050e-02 5.899575e-01 7.061014e-01 3.629928e-01 -5.496379e-01 -3.385933e-01 1.935304e-01 -2.278228e-01 -2.422089e-01 5.440845e-02 4.554622e-01 1.576325e-01 -8.941914e-01 1.301938e-02 4.081496e-02 2.848666e-02 3.407259e-02 9.120472e-02 7.515188e-02 -7.260396e-02 -1.125324e-01 -2.745996e-02 9.355444e-02 8.671124e-02 -4.953421e-02 -1.011877e-01
<VARIANCE> 39
 2.104210e+01 3.126439e+01 3.758829e+01 3.998562e+01 4.279237e+01 4.470494e+01 4.397430e+01 5.088202e+01 6.552593e+01 5.610705e+01 3.412059e+01 3.163108e+01 7.019428e+01 6.016907e-01 5.978983e-01 7.682656e-01 7.526228e-01 1.118705e+00 1.171366e+00 1.100048e+00 1.028146e+00 1.076935e+00 1.003837e+00 8.219538e-01 6.607189e-01 5.246804e-01 5.879387e-02 7.284597e-02 6.370032e-02 9.382017e-02 1.126944e-01 1.297539e-01 1.262096e-01 1.297794e-01 1.114546e-01 1.030378e-01 9.289911e-02 6.976409e-02 6.397887e-02
<GCONST> 8.667694e+01
<TRANSP> 5
 0.000000e+00 1.000000e+00 0.000000e+00 0.000000e+00 0.000000e+00
 0.000000e+00 7.428655e-01 2.571346e-01 0.000000e+00 0.000000e+00
 0.000000e+00 0.000000e+00 8.575146e-01 1.424854e-01 0.000000e+00
 0.000000e+00 0.000000e+00 0.000000e+00 8.113504e-01 1.886496e-01
 0.000000e+00 0.000000e+00 0.000000e+00 0.000000e+00 0.000000e+00
<ENDHMM>
~h "ai"
<BEGINHMM>
<NUMSTATES> 5
<STATE> 2
<MEAN> 39
 -6.952179e+00 6.020400e-02 1.123293e+00 4.296611e+00 3.641668e+00 3.523441e+00 -1.902125e-01 4.216882e+00 1.554049e+00 1.721231e+00 3.933386e+00 -7.913664e-01 -2.335427e+01 1.321498e-01 1.371491e-01 1.062996e-01 -1.976518e-01 -1.041933e-01 1.743587e-01 8.537784e-02 -2.943324e-02 5.859160e-02 8.434564e-02 -7.214330e-02 1.139592e-01 -1.591209e-01 1.162188e-01 2.950483e-02 6.205780e-02 3.026840e-02 -3.787121e-02 -4.935466e-02 8.070039e-03 -1.561743e-01 -8.727825e-02 -4.087858e-02 -8.094347e-02 -8.725256e-03 2.888382e-01
<VARIANCE> 39
 7.647947e+01 3.238145e+01 3.472079e+01 3.501373e+01 5.482368e+01 3.841629e+01 3.270811e+01 4.225029e+01 4.196052e+01 3.951427e+01 3.116697e+01 1.405997e+01 5.229047e+02 1.922706e+00 7.874869e-01 8.441207e-01 8.419808e-01 9.450706e-01 1.395428e+00 8.725635e-01 1.037802e+00 1.368653e+00 7.752943e-01 9.127420e-01 5.333512e-01 6.421666e+00 2.239922e-01 7.210611e-02 5.153830e-02 8.343936e-02 7.154886e-02 1.479521e-01 1.149700e-01 1.822820e-01 1.415695e-01 7.328428e-02 1.343374e-01 6.460769e-02 7.358478e-01
<GCONST> 9.507391e+01
<STATE> 3
<MEAN> 39
 3.654812e+00 -6.794920e+00 6.777224e-01 -9.586256e-01 -6.687092e+00 7.792203e-01 1.399890e+00 3.809422e+00 4.096112e-01 -2.061953e+00 -5.337325e+00 1.155321e-01 1.230753e+01 -1.761535e-01 -1.796102e-01 5.650814e-01 -1.030677e+00 -9.774533e-01 -4.700567e-01 2.196018e-01 -4.781667e-01 -5.703819e-01 2.254205e-01 -2.700268e-01 2.827115e-02 1.653895e+00 -1.959264e-01 2.575178e-01 2.192856e-01 -1.592440e-01 1.376311e-01 -3.115188e-02 -1.320459e-01 -1.779621e-01 5.992590e-02 1.248851e-01 1.590596e-01 -3.334519e-02 -2.633604e-01
<VARIANCE> 39
 2.678248e+01 4.710761e+01 5.333548e+01 5.831441e+01 7.577267e+01 4.951320e+01 4.677710e+01 7.925710e+01 4.506786e+01 4.701823e+01 2.912078e+01 2.029628e+01 1.023926e+02 1.828823e+00 1.812929e+00 2.420291e+00 1.887551e+00 1.300689e+00 1.188512e+00 1.830232e+00 3.041166e+00 1.831105e+00 1.556164e+00 1.427465e+00 5.837924e-01 5.546857e+00 1.071440e-01 1.869501e-01 1.825841e-01 2.067649e-01 1.225092e-01 1.259176e-01 2.424928e-01 3.809326e-01 1.818283e-01 1.601741e-01 1.090337e-01 5.921919e-02 2.176790e-01
<GCONST> 1.055811e+02
<STATE> 4
<MEAN> 39
 -2.800887e-01 7.091224e-01 1.049488e+01 -7.025531e+00 -1.005845e+01 -3.622449e+00 -7.659712e-01 -2.731997e+00 -1.881891e+00 1.996036e+00 -1.557014e+00 7.444652e-01 1.081002e+01 -1.113634e-01 6.943483e-01 1.514055e-01 2.856364e-01 3.188300e-01 -1.779611e-02 -2.009699e-01 -5.716143e-01 -1.348346e-01 4.740178e-02 2.000940e-01 1.497351e-01 -7.327012e-01 6.068486e-02 -1.002416e-01 -1.850668e-01 1.461408e-01 9.648426e-02 6.637225e-02 3.864329e-02 1.321994e-01 4.718531e-02 -6.528471e-02 -2.336520e-02 6.309720e-03 -6.939181e-02
<VARIANCE> 39
 2.567510e+01 2.957455e+01 4.505975e+01 5.734954e+01 3.897662e+01 2.814759e+01 5.159546e+01 6.191399e+01 5.414008e+01 3.745387e+01 4.869888e+01 4.087976e+01 5.241496e+01 3.563265e-01 6.521334e-01 1.292250e+00 1.149208e+00 8.416547e-01 8.343771e-01 1.198781e+00 1.559358e+00 1.371698e+00 8.264218e-01 8.234430e-01 8.403712e-01 4.438947e-01 3.542450e-02 3.919689e-02 7.860234e-02 8.860042e-02 8.789086e-02 9.365335e-02 1.405411e-01 1.484325e-01 1.384218e-01 1.034686e-01 9.919141e-02 1.006582e-01 4.058072e-02
<GCONST> 8.628651e+01
<TRANSP> 5
 0.000000e+00 1.000000e+00 0.000000e+00 0.000000e+00 0.000000e+00
 0.000000e+00 7.469698e-01 2.530302e-01 0.000000e+00 0.000000e+00
 0.000000e+00 0.000000e+00 7.888525e-01 2.111475e-01 0.000000e+00
 0.000000e+00 0.000000e+00 0.000000e+00 9.185494e-01 8.145056e-02
 0.000000e+00 0.000000e+00 0.000000e+00 0.000000e+00 0.000000e+00
<ENDHMM>
~h "bb"
<BEGINHMM>
<NUMSTATES> 5
<STATE> 2
<MEAN> 39
 1.042737e+01 6.341588e+00 -1.079732e+01 -1.413453e+01 -1.660866e+00 1.995424e-01 -2.967245e+00 -2.423730e+00 -2.640698e+00 1.848671e+00 2.592683e+00 3.712717e-01 2.290236e+00 5.720630e-03 5.804636e-01 3.079794e-01 3.952291e-01 4.177001e-02 3.499049e-01 2.814005e-01 -2.824628e-01 -4.340827e-01 -2.745858e-01 5.680799e-02 -7.346591e-02 -7.118325e-01 -5.597811e-02 -2.390185e-02 1.364481e-01 2.868243e-01 6.797045e-02 9.091945e-03 1.707501e-02 6.777382e-03 5.220812e-02 -5.244111e-02 -4.284484e-02 -8.457557e-02 -1.211535e-01
<VARIANCE> 39
 1.390852e+01 2.486230e+01 2.495733e+01 2.609641e+01 3.025094e+01 1.912165e+01 1.574980e+01 2.232519e+01 3.394815e+01 4.846549e+01 2.124943e+01 2.081500e+01 2.683162e+01 1.941628e-01 1.515490e-01 4.873165e-01 1.596784e+00 3.659024e-01 6.336517e-01 3.972916e-01 4.630232e-01 6.370346e-01 6.051902e-01 6.369852e-01 5.306967e-01 5.566429e-01 2.955027e-02 2.870525e-02 6.410592e-02 1.640170e-01 6.277730e-02 5.077015e-02 5.432630e-02 7.173509e-02 6.758307e-02 6.454846e-02 6.384813e-02 5.832297e-02 7.450216e-02
<GCONST> 6.690903e+01
<STATE> 3
<MEAN> 39
 9.117682e+00 3.745712e+00 -6.210427e+00 -1.635796e-01 2.755474e+00 4.123900e+00 -1.583401e+00 -3.066518e+00 -1.600521e+00 2.408647e-01 7.774780e-01 -2.301181e+00 -1.054032e+00 -1.022158e-01 2.410342e-01 5.177283e-01 1.620539e+00 5.481310e-01 2.218910e-01 8.656467e-01 -7.031702e-03 1.590055e-01 -3.086485e-01 2.323696e-01 -2.267995e-01 -1.040584e+00 -1.450540e-01 -9.399390e-02 -2.495464e-02 -2.015141e-01 -3.963401e-02 -5.494204e-02 -6.302352e-02 8.202562e-02 7.706313e-02 5.175080e-02 -4.772837e-02 5.862245e-02 1.524571e-01
<VARIANCE> 39
 1.829973e+01 6.947662e+01 2.041276e+01 6.279394e+01 2.991556e+01 4.193394e+01 5.032824e+01 2.532106e+01 3.879565e+01 2.887643e+01 2.666724e+01 2.604717e+01 3.506359e+01 4.933458e-01 4.138234e-01 5.626556e-01 7.574165e-01 6.889008e-01 1.078208e+00 6.233420e-01 7.509611e-01 9.116791e-01 4.758792e-01 5.054563e-01 6.461257e-01 2.717958e-01 2.983287e-02 5.105234e-02 4.609881e-02 1.079058e-01 3.219843e-02 7.421939e-02 9.303705e-02 6.781845e-02 9.248217e-02 5.993030e-02 4.999129e-02 7.338537e-02 3.699260e-02
<GCONST> 7.363956e+01
<STATE> 4
<MEAN> 39
 3.377271e+00 2.105318e+00 -3.388494e+00 -1.111064e+00 3.317878e+00 4.248360e+00 1.331900e+00 -1.950463e+00 -2.116640e+00 -6.246788e-01 1.352140e+00 -1.230945e+00 -1.368530e+00 -2.890618e-01 -2.426512e-01 5.912872e-02 3.077694e-02 3.782794e-02 -1.062706e-01 -6.028587e-02 1.082267e-01 1.363837e-01 1.856286e-01 4.883887e-02 -1.477981e-02 1.038726e-01 2.880475e-02 -1.102652e-01 -5.167952e-02 -1.779881e-01 -1.004441e-01 -6.759373e-02 -1.071020e-01 2.078110e-02 7.664227e-02 1.147851e-01 -4.985791e-02 -3.960992e-02 2.082307e-01
<VARIANCE> 39
 1.766254e+01 4.151479e+01 1.566796e+01 4.395308e+01 2.813848e+01 3.273056e+01 2.241209e+01 1.762747e+01 3.591931e+01 2.091884e+01 2.884778e+01 2.641700e+01 1.494162e+01 2.928230e-01 5.008925e-01 4.265018e-01 9.341755e-01 5.747392e-01 7.364766e-01 5.113977e-01 4.575574e-01 4.283115e-01 3.619090e-01 5.090466e-01 4.977274e-01 4.969289e-01 4.287180e-02 7.734837e-02 6.941020e-02 1.233984e-01 9.095529e-02 9.058293e-02 5.947209e-02 5.791884e-02 7.665275e-02 8.826332e-02 1.122589e-01 5.976364e-02 8.486677e-02
<GCONST> 7.108185e+01
<TRANSP> 5
 0.000000e+00 1.000000e+00 0.000000e+00 0.000000e+00 0.000000e+00
 0.000000e+00 8.280631e-01 1.719369e-01 0.000000e+00 0.000000e+00
 0.000000e+00 0.000000e+00 7.433648e-01 2.566352e-01 0.000000e+00
 0.000000e+00 0.000000e+00 0.000000e+00 8.785539e-01 1.214461e-01
 0.000000e+00 0.000000e+00 0.000000e+00 0.000000e+00 0.000000e+00
<ENDHMM>
~h "bh"
<BEGINHMM>
<NUMSTATES> 5
<STATE> 2
<MEAN> 39
 -8.898564e+00 -4.637752e+00 -2.580503e+00 3.105839e+00 5.389259e+00 4.481753e+00 4.024391e+00 6.591490e+00 4.930910e+00 3.019767e+00 2.763420e+00 2.025313e+00 -1.816380e+01 4.832370e-02 -1.932416e-01 -2.837009e-01 5.080409e-02 7.941949e-02 -2.537046e-01 3.169134e-01 2.311065e-02 2.115817e-01 -1.325787e-01 -2.186141e-01 5.907317e-02 1.030457e+00 1.178738e-01 -1.570388e-02 2.141607e-02 -1.113482e-01 -1.378704e-01 -1.576311e-01 -3.954079e-02 -1.082796e-01 -6.655989e-02 -5.005898e-02 -1.008139e-01 -5.571466e-02 2.984672e-01
<VARIANCE> 39
 1.490453e+02 8.584038e+01 4.516156e+01 5.433216e+01 5.586469e+01 7.270525e+01 4.935378e+01 3.014049e+01 3.686330e+01 2.823176e+01 4.449454e+01 1.583857e+01 4.971916e+02 3.697818e+00 1.855471e+00 1.626134e+00 1.638604e+00 1.615637e+00 3.104312e+00 1.651993e+00 1.010268e+00 1.065878e+00 1.820141e+00 1.474865e+00 5.044387e-01 1.358999e+01 2.584487e-01 3.083426e-01 1.535078e-01 2.968881e-01 1.969876e-01 3.766244e-01 2.397821e-01 1.158161e-01 8.800726e-02 1.708941e-01 1.703311e-01 4.329439e-02 1.115051e+00
<GCONST> 1.114741e+02
<STATE> 3
<MEAN> 39
 6.310850e+00 -6.082088e+00 -3.444608e+00 2.812212e+00 2.633112e-01 -2.042783e+00 1.517436e+00 4.240416e+00 3.524060e+00 -5.086732e+00 -5.661011e+00 -3.726273e+00 1.038381e+01 -7.140037e-02 4.235185e-01 1.522195e+00 -3.502264e-01 -1.256196e+00 -2.534801e-01 -3.661332e-01 -5.122673e-01 -1.035773e+00 3.545636e-01 2.941479e-01 -1.686908e-01 5.015668e-01 -2.299633e-01 4.734865e-02 1.605496e-01 -2.114063e-01 7.793944e-03 1.504347e-01 -7.716063e-02 -1.467001e-01 -5.046612e-02 1.499427e-01 1.054047e-02 4.437878e-02 -1.823435e-02
<VARIANCE> 39
 2.965596e+01 4.246146e+01 7.729861e+01 3.948923e+01 9.607284e+01 5.368484e+01 2.443140e+01 4.321788e+01 5.566687e+01 5.317194e+01 5.038467e+01 1.839367e+01 8.097266e+01 2.189420e+00 1.602929e+00 1.973191e+00 2.661619e+00 3.580880e+00 2.410319e+00 8.343636e-01 2.791331e+00 2.238779e+00 1.057189e+00 1.632106e+00 6.292759e-01 2.332934e+00 1.111398e-01 1.794781e-01 1.816778e-01 1.817100e-01 5.313755e-01 3.094370e-01 1.724336e-01 3.080488e-01 2.584263e-01 1.267240e-01 1.652053e-01 7.728599e-02 6.137587e-01
<GCONST> 1.088846e+02
<STATE> 4
<MEAN> 39
 4.235034e+00 -5.847748e-01 7.574985e+00 -4.883295e+00 -3.669868e+00 -6.090955e-01 3.217650e+00 -4.014171e+00 -3.849482e+00 2.693265e+00 -5.913330e+00 -3.174058e+00 9.988134e+00 3.464740e-02 1.980096e-01 1.527438e-01 -6.609600e-02 1.752556e-01 -7.118475e-02 -3.239738e-01 -8.776498e-01 -6.165363e-01 -3.044882e-01 -2.604490e-01 -2.408225e-01 -1.642354e-01 2.260800e-02 -3.003309e-02 -2.154987e-01 1.262935e-01 1.142135e-01 1.377310e-01 -7.959502e-02 1.053630e-01 1.124405e-01 -2.091842e-01 6.235465e-04 -5.641707e-02 -4.790083e-02
<VARIANCE> 39
 2.522122e+01 1.507512e+01 3.935126e+01 7.494379e+01 2.559682e+01 6.471750e+01 4.516210e+01 5.461540e+01 2.955727e+01 3.465347e+01 5.426146e+01 5.167149e+01 5.534957e+01 1.078375e+00 1.329591e+00 1.817955e+00 4.620612e+00 1.135772e+00 1.751135e+00 6.964063e-01 2.096620e+00 9.183996e-01 2.343005e+00 2.205367e+00 7.744178e-01 1.325507e+00 9.138277e-02 8.169056e-02 1.528582e-01 3.762389e-01 2.281805e-01 3.182417e-01 8.340663e-02 1.846274e-01 1.175246e-01 1.280873e-01 1.766445e-01 1.336802e-01 1.026139e-01
<GCONST> 1.000843e+02
<TRANSP> 5
 0.000000e+00 1.000000e+00 0.000000e+00 0.000000e+00 0.000000e+00
 0.000000e+00 8.669094e-01 1.330906e-01 0.000000e+00 0.000000e+00
 0.000000e+00 0.000000e+00 7.998839e-01 2.001161e-01 0.000000e+00
 0.000000e+00 0.000000e+00 0.000000e+00 7.355637e-01 2.644363e-01
 0.000000e+00 0.000000e+00 0.000000e+00 0.000000e+00 0.000000e+00
<ENDHMM>
~h "dd"
<BEGINHMM>
<NUMSTATES> 5
<STATE> 2
<MEAN> 39
 3.524720e+00 6.965667e+00 7.824949e+00 4.730358e+00 -5.394035e+00 -1.254580e+00 1.541084e+00 -3.886132e+00 -1.553013e+00 1.345965e+00 7.810274e-01 -6.020720e-01 -2.745007e+00 3.348824e-02 5.791112e-01 -5.943276e-01 7.571428e-01 1.213792e+00 7.113748e-01 1.453153e-01 1.712950e-01 2.323126e-01 -4.333814e-01 -3.115812e-01 -3.159572e-01 -9.608665e-01 -1.441866e-01 -8.444008e-02 8.995906e-04 -1.980639e-01 -5.235838e-03 -4.888933e-02 -2.652577e-02 -4.764039e-02 -4.949140e-02 5.587494e-02 4.461829e-02 1.605126e-02 1.454209e-01
<VARIANCE> 39
 9.375602e+00 2.654562e+01 2.213841e+01 1.928331e+01 3.062745e+01 1.026838e+02 2.219154e+01 4.587334e+01 3.431200e+01 3.175928e+01 2.801688e+01 3.237984e+01 2.273065e+01 2.391980e-01 3.574369e-01 6.708953e-01 6.663046e-01 6.354155e-01 1.041685e+00 1.081259e+00 6.431635e-01 7.195815e-01 5.990444e-01 7.337680e-01 4.475655e-01 2.430578e-01 3.015001e-02 3.299718e-02 4.317696e-02 7.926419e-02 5.853232e-02 1.757685e-01 7.195523e-02 8.554631e-02 5.888469e-02 7.253971e-02 6.864274e-02 4.693389e-02 4.344249e-02
<GCONST> 7.116045e+01
<STATE> 3
<MEAN> 39
 5.504332e-01 6.262626e+00 5.567466e+00 6.030375e+00 1.410309e+00 -1.237899e+00 2.084021e+00 -3.479924e+00 -4.208953e+00 -1.306011e+00 1.216398e+00 4.864187e-01 -4.997441e+00 -4.028353e-01 -2.393097e-01 -5.967130e-01 -7.689057e-02 6.348402e-01 1.332883e-01 4.389064e-02 1.813320e-02 2.252118e-01 -1.001584e-01 -2.579208e-02 1.496164e-02 -1.921273e-01 -4.301596e-02 -1.702030e-01 -3.062530e-03 -1.547239e-01 -1.995045e-01 -1.959770e-01 -5.057355e-02 1.078856e-01 1.353084e-01 4.574781e-02 6.069382e-02 3.633554e-02 2.692445e-01
<VARIANCE> 39
 1.001309e+01 1.879350e+01 2.135675e+01 1.786045e+01 2.821324e+01 2.455234e+01 2.356993e+01 2.591135e+01 4.290340e+01 3.350751e+01 2.488180e+01 2.546978e+01 1.728239e+01 1.334351e-01 2.875839e-01 2.660622e-01 4.756272e-01 4.905694e-01 6.833714e-01 6.867152e-01 5.701302e-01 8.530666e-01 4.431659e-01 4.882656e-01 3.695745e-01 3.643667e-01 4.714151e-02 5.165667e-02 5.548137e-02 5.135571e-02 8.465354e-02 7.913845e-02 1.278909e-01 9.275789e-02 1.216898e-01 9.348106e-02 7.917050e-02 5.873085e-02 5.269876e-02
<GCONST> 6.722420e+01
<STATE> 4
<MEAN> 39
 -8.181179e-01 4.744604e+00 2.842883e+00 5.861080e+00 9.791852e-01 -7.481270e-01 2.505559e+00 -2.660820e+00 1.703037e-01 5.846027e-01 2.157433e+00 -1.019212e+00 -3.337314e+00 -5.027784e-01 -1.362210e+00 -6.777908e-01 -1.019674e+00 -6.888694e-01 -1.148108e+00 -6.865393e-02 1.077280e+00 6.271173e-01 -8.751410e-02 1.101710e-01 4.027827e-01 2.181212e+00 1.438031e-01 -1.248383e-01 1.015917e-01 -2.602979e-01 -3.307759e-01 -1.008889e-01 -4.242396e-02 1.983787e-01 5.639490e-02 5.011079e-02 -1.583113e-01 5.761061e-02 4.037536e-01
<VARIANCE> 39
 3.089932e+01 4.712160e+01 4.680768e+01 3.921388e+01 4.848323e+01 5.940637e+01 3.696551e+01 3.879981e+01 3.384793e+01 4.170219e+01 2.586566e+01 2.984134e+01 7.624286e+01 1.251259e+00 1.082546e+00 1.720047e+00 1.430136e+00 1.826854e+00 2.297725e+00 2.431343e+00 2.601932e+00 1.896882e+00 1.822672e+00 1.105304e+00 9.929119e-01 2.308183e+00 1.400153e-01 1.550475e-01 1.364415e-01 1.814672e-01 1.697271e-01 2.292304e-01 2.265731e-01 2.120102e-01 1.288371e-01 1.714524e-01 1.025231e-01 1.089226e-01 3.335149e-01
<GCONST> 1.033812e+02
<TRANSP> 5
 0.000000e+00 1.000000e+00 0.000000e+00 0.000000e+00 0.000000e+00
 0.000000e+00 7.204861e-01 2.795139e-01 0.000000e+00 0.000000e+00
 0.000000e+00 0.000000e+00 7.649688e-01 2.350312e-01 0.000000e+00
 0.000000e+00 0.000000e+00 0.000000e+00 7.900066e-01 2.099934e-01
 0.000000e+00 0.000000e+00 0.000000e+00 0.000000e+00 0.000000e+00
<ENDHMM>
~h "dh"
<BEGINHMM>
<NUMSTATES> 5
<STATE> 2
<MEAN> 39
 3.247295e+00 1.797636e+00 7.845091e-01 4.779248e+00 -1.124230e-01 4.640871e-01 2.882335e+00 -1.019107e+00 -5.976129e+00 -4.670821e+00 -2.824135e+00 -3.175535e+00 4.097877e+00 -5.788636e-01 3.930062e-01 5.924641e-01 2.243287e-02 -4.907779e-02 5.608894e-01 8.975924e-02 -4.276569e-01 9.608687e-02 9.253749e-02 -6.364599e-02 -2.000456e-01 4.579581e-03 -2.740828e-01 -9.892814e-02 -3.796397e-04 -5.415040e-01 -1.267748e-01 -3.888847e-01 4.132844e-02 -8.777925e-02 2.756600e-01 8.261229e-02 1.164388e-02 1.590190e-01 3.402812e-01
<VARIANCE> 39
 5.462709e+01 4.354343e+01 2.866885e+01 2.699097e+01 4.898960e+01 2.678422e+01 3.014742e+01 3.608437e+01 4.898210e+01 7.803748e+01 2.577445e+01 3.566882e+01 1.025997e+02 1.669161e+00 6.762457e-01 1.233687e+00 2.514294e+00 1.327678e+00 1.877532e+00 6.620859e-01 1.310897e+00 1.279449e+00 1.139687e+00 6.403195e-01 1.053157e+00 1.251179e+00 1.768417e-01 2.117835e-01 1.395452e-01 1.764101e-01 1.227614e-01 1.684736e-01 1.534803e-01 1.608299e-01 1.895205e-01 1.622034e-01 9.141023e-02 1.498466e-01 1.643578e-01
<GCONST> 9.806197e+01
<STATE> 3
<MEAN> 39
 -1.849646e-01 4.045076e+00 3.541649e+00 -3.733234e-01 -3.537342e+00 -1.998467e+00 9.793040e-01 -5.567000e+00 -3.283499e+00 -2.024278e+00 -3.051195e+00 -3.732326e+00 6.019839e+00 -8.041959e-01 -3.296373e-01 1.048252e-01 -9.854778e-01 -4.716660e-01 -3.928690e-01 -5.667090e-02 -5.543535e-01 3.149386e-01 -3.593949e-01 -2.058327e-01 6.047881e-01 9.962594e-01 1.268120e-01 -1.722074e-01 -1.176268e-01 -3.058313e-02 3.588270e-02 -6.799758e-02 -2.679401e-02 1.345219e-01 1.733221e-02 -1.907695e-02 3.430412e-02 8.237831e-02 3.169311e-02
<VARIANCE> 39
 5.063665e+01 4.434674e+01 3.198035e+01 4.097446e+01 5.342067e+01 2.267410e+01 2.610363e+01 5.843976e+01 2.416788e+01 3.126997e+01 4.319115e+01 1.911954e+01 7.529320e+01 6.079383e-01 2.409120e+00 1.024281e+00 1.406305e+00 1.770947e+00 9.091718e-01 1.718032e+00 1.073040e+00 5.108481e-01 1.029162e+00 9.886088e-01 8.090753e-01 1.776870e+00 9.361196e-02 1.874085e-01 8.340381e-02 1.409180e-01 1.588112e-01 1.539709e-01 9.478159e-02 1.111905e-01 8.914190e-02 1.449924e-01 1.350467e-01 5.845623e-02 1.847746e-01
<GCONST> 9.258074e+01
<STATE> 4
<MEAN> 39
 2.974683e+00 -1.496502e+00 2.550982e+00 -8.694649e+00 -8.962915e+00 -1.103254e+00 -2.541015e+00 -2.769571e+00 -5.222349e+00 -5.793972e+00 -3.268070e+00 9.152882e-01 7.643506e+00 -6.507400e-02 3.797812e-03 -1.523476e-02 -2.702155e-01 -1.243101e-01 9.198081e-02 -8.580461e-02 -5.989261e-03 1.544224e-01 -1.107474e-01 9.169765e-04 1.818037e-01 -1.980598e-02 -3.793033e-03 1.848990e-02 1.514141e-02 4.455964e-02 2.707929e-02 -8.780926e-03 -1.138419e-03 2.723873e-02 -1.231819e-02 2.941672e-02 3.795959e-02 -2.280223e-02 -3.102556e-02
<VARIANCE> 39
 1.147311e+01 3.265257e+01 2.748989e+01 5.273863e+01 4.068874e+01 2.891017e+01 7.412466e+01 2.163025e+01 3.692865e+01 2.099031e+01 2.651045e+01 1.555820e+01 1.852061e+01 1.482441e-01 6.735732e-01 3.850814e-01 9.125068e-01 1.148724e+00 8.580126e-01 1.338467e+00 6.160272e-01 1.072880e+00 6.909058e-01 9.521794e-01 5.821779e-01 3.096985e-01 1.383658e-02 5.191765e-02 5.385174e-02 8.301435e-02 1.392843e-01 9.114069e-02 1.143143e-01 8.508196e-02 1.137509e-01 8.209751e-02 1.165463e-01 6.069319e-02 3.585985e-02
<GCONST> 7.470600e+01
<TRANSP> 5
 0.000000e+00 1.000000e+00 0.000000e+00 0.000000e+00 0.000000e+00
 0.000000e+00 6.256731e-01 3.743269e-01 0.000000e+00 0.000000e+00
 0.000000e+00 0.000000e+00 6.718232e-01 3.281768e-01 0.000000e+00
 0.000000e+00 0.000000e+00 0.000000e+00 8.687325e-01 1.312676e-01
 0.000000e+00 0.000000e+00 0.000000e+00 0.000000e+00 0.000000e+00
<ENDHMM>
~h "dx"
<BEGINHMM>
<NUMSTATES> 5
<STATE> 2
<MEAN> 39
